#include <stdint.h>
const int16_t cg_FC1weit[768] = { // Co,H,W,Ci: (96, 8)
    // Out channel 0
       -93,  1099,  -596,  -753,  -255,   302, -1176,   228, 
    // Out channel 1
      -535,  1117,  -598,   764,   786,  -236, -5216,   194, 
    // Out channel 2
      -502, -1460,   802,   274,  -335,    20,  -281,    90, 
    // Out channel 3
       902,   240,  -444,  -515,  -805,    92,   448,    14, 
    // Out channel 4
      -759,  1007,   213,   270,  1264,   592,  -501,  -865, 
    // Out channel 5
     -1298,  -279,   729,  -526,   546,   424,   975,   260, 
    // Out channel 6
       347,   -20,    44,  1099,    39,   495,   365,  -500, 
    // Out channel 7
       228,   897,   120,  -261,    58,  1256, -2377,  -598, 
    // Out channel 8
      -143,    56,   -92,    37,   -77,     6,    52,  -129, 
    // Out channel 9
      -941,  -179,   443,   460,  1037,   360,   470,  -249, 
    // Out channel 10
      -202,   512,   128,   -88,   418,   319,  -641,  -405, 
    // Out channel 11
        91,  -101,  -123,   -49,    -5,   -21,     7,    38, 
    // Out channel 12
        26,    76,   -25,  -115,    46,  -103,   -33,    -3, 
    // Out channel 13
       248,   -18,   127,  -237,   693,   850, -2397, -1116, 
    // Out channel 14
       807,   -51, -2206,  1000,   701,  -226, -2223,  -157, 
    // Out channel 15
      1128, -1088, -2000,   819,   852,   207,  -565, -1047, 
    // Out channel 16
       -37,    23,   -36,    32,   -24,  -121,  -100,     8, 
    // Out channel 17
      -178,   715,   209,  1141,   634,   328,  -529, -1272, 
    // Out channel 18
      -827, -1019,  1092,   -90,   680, -1224,  1360,  -764, 
    // Out channel 19
      -866, -7067,   877,   329,  -247,  -867,  1632,   546, 
    // Out channel 20
       800,  1031,  -864,    44,     7,   540, -2286,  -416, 
    // Out channel 21
        27,   -29,  -113,    33,    41,   -86,   -15,   -78, 
    // Out channel 22
       557,  -134,   657,   279,  -603,  -211,   314,  -223, 
    // Out channel 23
      -151,  -237, -1465,   202,   955,   602,   345,  -699, 
    // Out channel 24
      -127,    57,    69,  -138,  -103,    68,  -119,   -85, 
    // Out channel 25
      -649, -1280,  1130,  -397,    65,  -223, -4169,   350, 
    // Out channel 26
      -106,   -53,    64,  -119,    31,   -80,    20,   -53, 
    // Out channel 27
        55,   -20,     1,   -54,   -16,   -10,    56,   -66, 
    // Out channel 28
       489,  -657,   615,   -85,  -544,    -8,   899,  -497, 
    // Out channel 29
      -291,  -328,   150,   496,  1142,   295, -4169,  -780, 
    // Out channel 30
     -1379, -1217,   331,   -23,   750,   632,   609,   206, 
    // Out channel 31
      1113, -1897,  -589,  -288,  -713,   512,   534,   170, 
    // Out channel 32
     -1654, -1852,  2273,  -988,   -39,  -901,  -955,   586, 
    // Out channel 33
       -54,   877,   278,  -989,  -906,   324,    61,  -301, 
    // Out channel 34
       656,  -524,   228,   323,   135,  -491,   489,   513, 
    // Out channel 35
       478,  1843, -1220,     8,   860,   280, -2493,  -797, 
    // Out channel 36
       121,   592,   345,   916,  -427,   590,    92,  -930, 
    // Out channel 37
       -88,   -76,  -115,    48,   -53,   -19,   -46,    15, 
    // Out channel 38
      -901, -4531,   765,   457,   -57,  -567, -1022,   618, 
    // Out channel 39
       454,  -745, -1732,   947,   765,   351,  -315,  -911, 
    // Out channel 40
        31,    66,   -74,  -117,    38,    71,  -141,   -64, 
    // Out channel 41
       449,   183,    23, -1189,  -276,   263,   195,   940, 
    // Out channel 42
       -83,    21,    24,   -94,   -50,  -108,   -54,  -100, 
    // Out channel 43
       838,   843,  -937,    82,  -543,   126, -1209,    57, 
    // Out channel 44
       -24,  -117,   -25,    40,   -55,    21,  -127,    62, 
    // Out channel 45
      -277,  -184,  1033,  -509,  -316,   521, -1878,   386, 
    // Out channel 46
        30,   -75,   -99,   -39,    29,    21,   -14,   -60, 
    // Out channel 47
       -27,   -50,   -90,    51,    -4,   -65,   -78,    32, 
    // Out channel 48
      -126,  -634,   394,   338,   514,   332,   980,   -65, 
    // Out channel 49
     -1586, -1980,  1137,    34,   172,  -495,   588,   520, 
    // Out channel 50
        52, -3528,   143,   347,    55,  -895,   653,  -132, 
    // Out channel 51
       426, -1033,  -955,   987,    31,  -547,  1549,  -381, 
    // Out channel 52
      -119,    23,   -34,    43,    70,  -113,   -16,   -32, 
    // Out channel 53
      -261,  -809,   585,  -774,  -634, -1413,   982,  1107, 
    // Out channel 54
       -27,  -141,   -44,    11,    52,    20,  -202,    27, 
    // Out channel 55
      -104,   -44,   -49,   -25,     9,    97,   -93,   -34, 
    // Out channel 56
       924, -4417,  -493,   549,   173,   -25,  -886,  -777, 
    // Out channel 57
       -62,  -279,    54,    43,    -2,   -55,    81,    47, 
    // Out channel 58
        77, -1517,  -929,   119,   543,  1031, -1046,  -345, 
    // Out channel 59
      -129,  1095,    14,   586,    94,  -438,   810,  -420, 
    // Out channel 60
      -122,   -65,    66,   -88,    88,  -101,    78,   -39, 
    // Out channel 61
       270, -1862,   141,   444,   272,  -989,   937,  -668, 
    // Out channel 62
      -326,  -490,   147,   781,   759,   133,  1117,  -890, 
    // Out channel 63
         0,    22,    -5,   -92,    29,    40,  -110,    22, 
    // Out channel 64
       250,   -23,  -905,  -231,  -183,  -266,   231,  -127, 
    // Out channel 65
       387,   381,    39,   -13,   395, -1506, -1234,  1310, 
    // Out channel 66
      -115,   -55,  -102,    85,   -11,    33,    50,   -38, 
    // Out channel 67
       818,  -998, -1045,   -31,   333,   720,  -276,  -650, 
    // Out channel 68
       -73,    20,     3,   -49,    30,   -45,   -99,    -8, 
    // Out channel 69
      -665,  -513,    68,  -271,   613,  1026,   -60,    79, 
    // Out channel 70
       952,  1010, -1013,   245,   573,   251, -2298, -1062, 
    // Out channel 71
      -184,   -32,   122,   343,   110,   298,    -7,  -295, 
    // Out channel 72
      -156, -1332,   338,   957,    99,   384,   448,  -848, 
    // Out channel 73
       576,  1469, -1290,   353,   826,   202, -2383,  -976, 
    // Out channel 74
       -17,    -7,    16,   -57,   -54,    18,  -115,    73, 
    // Out channel 75
       187, -2148,   -18,   154,   402,  -571,  1039,  -353, 
    // Out channel 76
       519,  -217,    78,  -349,  -221,    65,   916,   841, 
    // Out channel 77
       967, -1964,  -760,    35,  -547,  -262,  1861,   166, 
    // Out channel 78
       725, -6142,  -640,   166,   561,   645, -3487,  -633, 
    // Out channel 79
       562,   117,   686,   392,  -916,    45,  -369,  -418, 
    // Out channel 80
      -139,  -421,   266,   337,   367,   845,   167,  -181, 
    // Out channel 81
       951, -1582, -1319,   -74,   624,   676,    30,  -739, 
    // Out channel 82
       528,   922,  -362,  -247,   158,  1040, -1515,  -547, 
    // Out channel 83
      1012,   210,    96, -1012,  -788,    47,   309,   609, 
    // Out channel 84
       -57,    49,     3,   108,    48,  -131,   -16,  -128, 
    // Out channel 85
       -75,   475,   429,   133,   576,   487,   173,  -201, 
    // Out channel 86
     -1933,  -654,   852,  -958,    -4,  -151,  -914,   980, 
    // Out channel 87
      -458, -2332,  -137,  1334,   512,     5,  1535,  -607, 
    // Out channel 88
        68,   486,   394,   445,   662,  -638, -2233,  -564, 
    // Out channel 89
        81,  -118,  -115,   -57,   -58,  -107,    17,   -48, 
    // Out channel 90
       -63,   -72,  -106,   -10,   -77,  -123,    44,    32, 
    // Out channel 91
        84,   -41,  -131,    75,  -123,    -2,   -34,  -131, 
    // Out channel 92
      -745,  1212,   378,   345,  1437,  -241, -1400,  -289, 
    // Out channel 93
     -1498, -7253,   683,  1273,    26,  -846,  -293,   368, 
    // Out channel 94
      -393,  1093,   339,  -103,  -254,  -157,  -239,   706, 
    // Out channel 95
       689, -2299,   461,   236,  -697,  -237,  -215,   834, 
    
};

const int16_t cg_FC1bias[96] = { // Co,H,W,Ci: (96,)
       651,  -778,  -558,   219, -1808, -3208, -5482, -1542,    -94, -3360, -2148,  -200,  -154, -1318,   211,   159,       0, -2414,    41,   106,   114,   -41, -6591,   138,   -179,   254,     0,  -319, -2698, -2275, -2684,  -784, // 32
        88,   922, -6087,   108, -4023,     0,  -678,   146,   -142, -3469,   -41,   588,  -409, -2155,   -41,   -41,   -4459,    89,  1197,  1515,     0,    63,  -453,  -136,  -1340,  -541, -1444, -2983,  -182,  -162, -1809,  -310, // 64
      2996, -2566,  -170,    79,     0, -5064,   245, -2805,  -1748,   206,  -389,   831, -6898,   849, -1300, -5697,   -4740,   101, -1012, -3288,   -82, -5078,   169,  -974,  -1544,   -78,   -41,  -159, -2408,   489, -2260, -4493, // 96
    
};

const int16_t cg_FC2weit[6144] = { // Co,H,W,Ci: (64, 96)
    // Out channel 0
       194,    83,  -313,   -69,    -9,  -401,  -297,   -43,     71,  -353,  -127,     5,     8,   -72,   426,   380,      90,   -51, -1544, -1516,    14,    17,  -159,   165,      1,  -244,    21,   -17,   -56,  -367,  -276,   272, // 32
     -3319,   135,  -527,   -26,  -224,    91,  -840,  1069,    -45,   504,    60,   207,   -85, -1640,    16,   -11,    -223, -1048,   -26,   -16,    38, -1054,    93,    10,    538,    21,    71,  -512,   -20,  -291,  -427,   -52, // 64
        32,  -770,   -80,    12,    89,  -177,  -187,  -223,   -134,    45,    -9,    -6,    18,   175,   159,   217,    -107,    63,     7,   206,   -32,  -535,  -722,   -87,    -49,    78,   -80,    -5, -1489,  -275,   127,  -814, // 96
    
    // Out channel 1
      -121, -1492,   236,  -419,  -303, -1580,   179,    83,     24,    88,  -128,    31,     1,    38,  -572,  -617,     -10,  -110,    75,   -71, -1423,   -52,   408,  -163,     68,    50,    52,    78,   -25,   522,  -458,   290, // 128
      1225,  -995,   487,  -641,   425,    42,    23,  -389,    -34,  -774,    56,  -841,    36,    96,    77,    61,     109,   233,  -732,  -262,   -60,  -459,   -33,   100,   -520,   100,  -531,   -66,   -92,  -484,   164,     3, // 160
       -46,   240,    34, -1150,    63,  -129,  -970,   402,    -97,  -286,   -92,  -349,  -326,    45,  -242,   232,      61, -1296,  -106,   -81,   102,   327,  -264,  -323,   -190,   -26,   -38,   -73,    98,  -395,  -336,   165, // 192
    
    // Out channel 2
      -211,   121,   -33,  -800,    40,   633,   -95,   -33,     37,    88,    11,   -20,   -79,  -125,   -96, -2305,     -44, -1023,    23,  -622,  -103,   -64, -1169,   319,     75,    62,    37,   118,   146,    80,    40,   167, // 224
      -334,  -984, -1588, -1092,  -811,    78,   345,   132,    -42,   331,   -76, -1046,    87,   -42,    94,   -65,     -86,   624,   118,  -992,   -25,   162,    90,    -9,  -1169,    -5,   212,  -129,    94,  -619,  -366,  -107, // 256
     -1321,  -311,   -22,   -92,    97,   412, -2222,    30,   -349, -1362,    81,  -354,  -730, -1878,   -72,  -298,      66,  -142,     3,   255,    28,    20,  -112,  -307,  -1305,     3,   -32,    35,   -79,   646,    32,  -383, // 288
    
    // Out channel 3
      -679,    84,   -81,  -708,   202,  1067,  -214,   -38,    -91,   187,    62,   -31,    14,  -120,  -138, -1842,     -39,  -699,    61,  -292,   -91,    -5,  -281,   260,     -5,   305,   -28,   -47,   458,    -8,  -334,  -444, // 320
       373,  -861, -1112,  -667,  -138,   -52,   169,   242,     73,  -109,    29,  -471,   -32,    67,    76,    84,      -4,    62, -1910,  -761,     8,   -76,   -13,     0,   -841,   -39,   141,    83,    52,   140,   -73,    60, // 352
      -619,   -72,    95,   128,   -25,   331, -1756,   -67,   -713, -1665,    -3, -1233,  -345,  -803,   204,  -502,      14,   168,    19,  -706,   -81,     4,  -803,  -331,  -1049,   -35,   -70,    20,    11,  -136,  -250,    36, // 384
    
    // Out channel 4
       -99,  -204,  -550,   101,   198,   278,   217,   103,     71,  -866,   197,    -4,    54,   317,   -29,   347,      86,    97, -1396, -1302,    74,   -20,  -672,   407,     36, -1609,    61,   -53,    78,   517,  -206,   -29, // 416
     -2617,   -22, -1056,    79,   186,    19, -1313,    15,     77,   310,   -82,   -50,   -92,   109,    72,   -90,   -1480, -1004,    41,  -117,   -31, -1156,   -11,   -10,     77,  -185,     3,   -23,   -75,   380,  -919,   -44, // 448
       485,  -253,    89,   124,    87,   -57,     0,   -83,   -215,   -30,    55,    -6,  -388,  -177,  -451, -1070,    -541,   226,   108,    17,    61, -1366,  -547,  -602,    188,    15,    12,    -6,   322,    16,   -29,  -410, // 480
    
    // Out channel 5
       269,  -146,  -610,  -971,   218,  -164,    60,   100,     87,   211,     6,    12,    53,   143,   -64,   201,     -73,    74,  -372,  -613,   -13,    70,    -3,   172,     78, -1407,    76,    59,  -576,   920,    82,  -131, // 512
      -411,  -124,    75,   -22,  1121,    -8, -1111,   115,     75,   329,    10,  -159,   -64,  -214,    98,   -63,      81, -1535,  -590,  -977,    30,  -119,  -123,    74,   -940,   -49,   565,  -821,    19,  -264,   284,   -41, // 544
      -165,  -342,    17,   230,     7,   228,    45,   261,    279,   -30,   -85, -1077,  -180,  -734,  -100,   516,     136,   446,    49,  -508,   -77,   113,  -280,  -230,    -62,   -68,    99,   -16,     7, -1083,    87,  -104, // 576
    
    // Out channel 6
        93,  -127,   -44,   127, -1044,   -57,  -902, -1018,    -19,   156,  -237,   -64,    64,  -463, -1539, -2243,     -73,  -134,    -2,    74, -1059,     5,  -724,  -572,     49,   176,    73,    49,    73,  -439,   -63,  -966, // 608
      1095,   194,    16,  -770,  -250,   -35,   238,  -492,     48,    58,   -78,    13,   -58,  -291,    68,    67,     254,    14,    97,    32,    56,   -31,   -32,   -97,   -975,   -39,  -114,   -36,    54,   101,    71,  -111, // 640
        27,  -196,    45, -2205,   -18,  -515, -1292,  -278,    122, -1122,   -75,   -29,   617,    78,  -716, -1063,    -731, -1869, -1347,   548,    36,   -84,   -26,    33,    199,   -40,   -28,   -54,  -749,   778,  -301,    31, // 672
    
    // Out channel 7
      -895,   622,    53,   -96,     4, -2719,  -545,  -205,     48,  -138,  -106,  -101,   -45,  -176, -1081,   -72,     -77,  -370, -1038,   993,  -257,   -31,   -41,  -924,    -91,   122,   -74,   -78,  -634,   198,   187, -1100, // 704
       218,    65, -1081,  -241,  -113,   -69,   133,  -505,    -62, -1504,   -34,  -327,   -19,   174,   -97,    12,     201,   208,  -708,  -836,    42,  -764,   -60,   -18,   -203,    20,  -122,  -295,    37, -1502,   594,  -102, // 736
     -1111,  -457,   -24,  -372,    21,  -314,  -142,  -116,    200,   -32,   -71,  -334,  -415,  -867,  -124,    55,    -216,  -470,  -294,   -25,   -34,  -412,   321,   -24,   -652,   -29,    -2,    -7,   303,  1033,  -488,   717, // 768
    
    // Out channel 8
      -878, -2202,   -27,  -410,  -426,  -446,    67,  -306,    -26,  -781,  -155,    98,   -77,   -24,  -369, -1322,      37,   185,  -829,   -61,  -849,     5,   318,  -360,      4,   294,   -47,    26,  -181,   -82,  -999,   -18, // 800
      -746,  -104,   123,  -311,   126,    70,    77,  -228,    -99, -1568,   -79, -1241,   -71,    93,   -51,   -23,     -11,    27,    23,  -253,    85,  -740,   -77,    49,    129,   -14,  -764,  -457,    16,    59,  -843,    92, // 832
     -1124,   541,   -46, -1305,   -55,   603,  -553,  -111,   -140,  -469,    50,    12, -1181,   -31,  -247,   147,    -204, -1833,  -355,  -650,    82,   -87,  -265,  -327,    198,   -50,    22,    15,  -112,  -537, -1740,   292, // 864
    
    // Out channel 9
       -22, -1514,    30,  -256,  -208,  -667,    59,    -7,     68,   -61,  -125,    71,    67,   236,  -798, -1711,      67,   297,   -13,  -118,  -287,    36,  1957,    60,    -93,   168,   -90,    17,   155,     1,  -149,   -46, // 896
       304,  -196,   116, -1073,   118,   -52,  -117,  -171,    -85,   -18,    48, -1091,   -20,   142,   -77,   -48,       6,  -735,   111,   -67,   -62,  -561,    89,   -82,    321,    21,  -327,     7,   -68,  -167,    49,   -26, // 928
      -422,    34,   -76,  -466,     2,   361,   -55,   102,    154,  -766,   -23,   -68,   -13,  -143,   -82,   915,     -73,  -769,   -56,   -25,    48,    22,  -242,   -73,    305,    39,    98,   -74,    -8,    71,   -95,   207, // 960
    
    // Out channel 10
       -73,    19,  -149,   -89,   -71,   -27,     3,   -58,     13,    21,   -37,    82,    14,     5,    -3,   -28,      14,    -1,   -24,   -29,    57,    10,    -1,   -92,    -69,   -58,    51,    86,     4,    39,    47,   -48, // 992
        22,   -76,   -42,   -93,    18,   -36,    63,   -72,     -4,    -7,   -34,   -86,    49,   -96,    63,   103,     -23,   -41,    16,    27,    76,   -91,    37,    91,     11,   -53,  -127,   -94,    42,     6,    -9,   -45, // 1024
      -103,   -34,    -8,    16,   -91,    20,  -135,    16,    -85,     3,    59,     6,    18,     9,     5,    45,     -14,    -9,    74,   -76,    45,   -11,   -45,    33,   -128,    48,   -45,    76,    -8,    16,   -77,    -8, // 1056
    
    // Out channel 11
       -13,  -218,  -263,    80,  -931,  -292,  -628,  -912,     63,  -556,  -369,    36,     7,  -261, -1258, -1863,     -53,   200,   294,    41,  -559,    90,  -175,    79,     41,   638,   -16,   -65,  -455,  -413,    62,  -727, // 1088
      3063,    22,  -287,  -483,  -214,   -50,  -134,  -522,    -60,  -953,   -67,     6,     9,  -831,    26,   -52,    -445,   191,    -7,   -12,   -38,  -122,    -3,    55,   -372,   -58,  -520, -1235,   -31,    80,    53,    72, // 1120
        -6,  -527,   -48,  -615,    -1,  -526,  -599,  -236,   -504,  -640,   -51,    21,  -235,   -52,  -931,   -39,    -568, -1142,  -325,  -701,    77,  -899,  -566,  -315,   -140,    92,   -33,   -18,  -580,   611, -1598,  -269, // 1152
    
    // Out channel 12
        41,   -31,   -16,    33,   -77,   -26,   -81,   -44,     79,   -96,   -78,   -68,   -49,   -78,   -83,   -18,      60,    24,     6,    20,   -33,    58,    27,    75,    -69,   -16,    79,    16,    54,    42,    -2,  -137, // 1184
       -22,  -119,  -107,   -79,  -139,    95,     8,    -8,    -44,   -80,   -89,   -86,   -55,    14,    99,    63,     -25,    23,    22,   -64,    -3,    -6,  -149,   -63,   -129,  -115,   -66,   -56,   -17,    22,    16,    55, // 1216
        42,   -63,    55,   -99,   -93,  -105,    -2,    45,     37,   -99,    31,   -67,    17,   -61,  -185,   -17,     -39,     9,  -151,    16,    90,   -75,  -113,    16,    -88,   -38,    63,   -54,  -100,    60,    60,   -51, // 1248
    
    // Out channel 13
       -26,    47,  -452,  -506,  -109,   398,   422,   150,     -7,  -304,   -82,    61,   -23,  -177,  -884,    51,      99,   -34, -1193,    95,  -304,    71,  -121,  -605,    -59,  -344,   -10,    26, -1288,  -381,   620,  -604, // 1280
      -724,  -456,   330, -1113,  -210,    57,  -981,   135,     83,  -303,   -83,  -416,    54,   -20,   -73,    -6,     -57,   150,  -339,   189,   -67,  -354,   -88,    12,   -103,    48,  -471,  -338,   -95,  -577,  -577,    88, // 1312
      -355,   -70,   -55,  -652,   -60,   -44,  -415,   -38,   -254,  -817,     4,   -28,  -479,    40,  -273,   -45,    -105,  -999,   138,   795,   -88,   240, -1139,   525,    500,    39,   -33,   -79,    77,     8,   147,  -143, // 1344
    
    // Out channel 14
       288,    36,   172,  -456,  -298,   397,  -432,  -414,    -41,    24,  -194,   -90,    63,  -437,  -187, -1386,     -61, -1038,  -141,   -39,  -289,   -66, -1314,  -124,     17,     2,    90,    19,  -402,  -329,    68,    21, // 1376
      -915,  -282, -1719,  -337,   187,   -13,   216,  -438,     59,  -399,   -18, -1236,    37,    84,   -16,    12,     139,    80,  -177,   -15,   -30,   -60,   -19,    -4,     94,   -41,    46,   325,    66, -2503,    51,   -61, // 1408
       -31,   -38,    85,  -490,    94,  -152,  -322,  -240,    149,  -516,    21,    99,  -848,   -27,  -181,  -437,     193,  -455,  -279,   787,   -19,   -89,   137,   174,   -436,   -86,    54,    55,  -273,   719,   -91,   280, // 1440
    
    // Out channel 15
        84,   717, -1003, -1293,   -14,  -796,   200,  -140,     22,    17,     9,    89,    77,   561,   634,   904,      12,   234,   -53,  -195,   210,   -30,   -12,   215,     86,   327,    32,    30,    72,   782,    78,  -450, // 1472
      1921, -2203,   348, -1357,   -32,   -76,   405,   962,     75, -1664,    63, -2619,    26,  -235,    72,    -8,     -51,    82,  -845,  -311,    73,   -86,   -74,   -88,  -2280,    21,   469,     1,    58,  -799,   482,    37, // 1504
        83,   474,     4,   124,    13,   413,    32,    58,    -88, -1466,    53, -1458, -1373,  -471,   615,  -228,      54,   728,  -109,   160,    30,    60,   944,  -384,  -1528,   -86,   -77,    94,    -3,   228,  -708,   162, // 1536
    
    // Out channel 16
       175,   -71, -1444,    71,    53,   123,   -41,   -87,     44,  -425,   -69,    23,   -51,    11,   250,  -421,      22,   102, -1945, -1823,   -38,   -81,  -611,    88,    -44, -1664,   -18,    84,  -349,   771,  -514,   156, // 1568
     -3752,    19,   -97,    16,  -486,   -90, -1174,   828,     89,   462,   -45,    -9,    47,  -925,   -96,    85,    -398, -1359,     3,   141,    24, -1533,    38,    50,    390,   -37,  -353,    83,    45,   292,  -749,   108, // 1600
         1, -2279,   -18,   -81,   -46,  -266,    38,  -129,   -347,   -13,  -106,   100,  -139,    80, -1237, -1224,    -433,    -9,   -43,  -268,   -66,  -760,  -632,  -429,     55,    36,    96,   -59,   263,   135,  -124, -1495, // 1632
    
    // Out channel 17
       -67,   -12, -1141,    57,   178,    67,  -676,   -32,    -64,   -25,    65,    89,   -60,  -167,    73,    -4,      48,  -200, -1414, -1634,   110,    16,   -79,   253,    -65,  -918,   -38,    38,  -484,    43,   152,  -263, // 1664
     -3310,   210,  -535,  -108,  -410,   -66, -1265,   415,    -41,   114,   -69,    46,    -5,   -30,   -51,   -93,    -227, -1330,    27,   144,    58, -1248,    46,     2,  -1635,  -113,    -2,  -264,   -61,  -550, -1238,    18, // 1696
       -38,    96,    77,   -10,   -38,   294,    33,  -222,   -804,  -136,  -112,   -46,  -697,    75,  -339,  -273,      60,   133,    38, -1149,   104,  -772,  -828,  -355,  -1576,   -93,   -95,     2,   113,   -78,  -215,  -204, // 1728
    
    // Out channel 18
      -340,  -888,   -25,  -364,    83,   148,   591,   222,   -100,   190,   141,    28,    -5,   361,  -568,  -592,      63,   153,   233,   -92,  -144,   -72,   406,   393,    -76,    77,   -28,   -40,  -258,   144,   -43,    14, // 1760
       272,  -117,  -396,   -24,   -70,   -27,    17,   753,     48,  -389,     7,  -162,   -18,   255,   -67,   -46,     250,  -314, -1379,   -95,   -32,  -178,   111,    38,   -731,    36,  -107,   317,   -77, -2728,   119,     7, // 1792
      -447,   415,    61,     6,   -99,   283,  -258,   204,    -58,  -607,   -58, -1080,  -549,  -195,   247, -1284,     126,   123,   118,  -381,   -93,    87,  -114,  -123,   -424,   -99,   -19,   -46,   235,  -741,    60,   693, // 1824
    
    // Out channel 19
      -615,  -403,   331,  -413,   111,   162,   580,    66,     14,   276,   104,    19,    81,   235,  -234,    83,      86,    81,   144,   169,    50,    -7,  -177,   311,    -81,    28,    -7,   -60,     8,    27,  -118,    27, // 1856
      1011,  -357,   237,  -129,   -63,    21,   136,   637,    -23,  -658,    29,  -260,    36,   -38,    93,    38,     241,  -222, -1165,  -351,    87,  -809,   -39,     0,  -1513,     6,   -41,   157,    67,  -235,   253,    47, // 1888
     -1016,   466,    -2,    40,   -89,   225,  -226,   256,    -68,  -498,    86,  -590,  -994,  -211,   122,  -497,     323,   124,   135,  -788,   -74,   302,  -391,  -245,   -151,   -80,   -14,    72,   -18,  -539,    -1,   427, // 1920
    
    // Out channel 20
      -373,    50,    -5, -1901,    81,  1021,  -233,    46,    -20,    49,   -21,    43,   -57,  -186,  -270, -1897,     -80, -1698,  -133,     6,   -81,    78,    50,   161,    -15,    44,   -55,    10,  -745,    -5,   -52,   220, // 1952
       -83, -1241,  -693,  -583,  -500,    57,   135,   123,     22,   136,    36,  -518,  -102,    44,    73,   -32,     -48,    76,  -668,  -551,   -53,  -368,   -38,  -104,   -661,   -81,   175,  -150,   -13, -1292,  -792,    56, // 1984
      -477,  -226,   -46,   -82,    65,   383, -1616,     6,   -712, -1288,    59,  -232, -1404,   -16,    -7,     8,      63,    49,   -48,  -210,    80,    45,  -356,  -366,  -1524,   -35,    -2,   -95,   -78,    -6,  -159,   139, // 2016
    
    // Out channel 21
       -35,    73,   -32,   -48,   -10,   -19,    29,   -12,    -62,    22,   -53,   -23,    80,   -37,   -37,  -120,     -64,    28,    33,    61,   -26,   -14,   -10,    45,    -34,    25,    81,     2,  -135,   -49,   -58,  -133, // 2048
        32,    35,    59,  -101,   -41,   -32,    53,  -107,   -106,    -8,   -20,   -27,   -81,  -101,    36,    79,     -85,   -92,     5,  -146,    57,   -26,   -73,     7,     -4,   -58,   -10,   -89,    88,   -77,   -64,   -32, // 2080
       -15,   -91,   -23,    -8,    87,   -77,    -8,  -127,    -81,    52,   -30,   -26,   -62,    10,    54,   -93,      13,     1,   -66,    29,   -41,   -32,   -13,  -106,    -53,   -36,     1,   -58,    -9,   -68,  -117,   -41, // 2112
    
    // Out channel 22
      -454,    84,   -92,   -31,   136,   188,   -16,   123,     42,  -369,    -7,   -86,    35,    33,   -15,  -208,     -91,   -49,  -923, -1509,    21,   -12,  -913,   146,    -37,  -956,    86,   104, -1381,   -80,   213,   303, // 2144
     -2254,   497, -1236,    54,   231,   -90,  -615,   352,     57,  -553,   -85,   -17,   -16, -1077,   -86,   -54,    -534,  -991,    94,   -58,     4, -1347,    37,   -27,    375,  -140,   153,   948,    84,  -445,  -106,    17, // 2176
      -690,  -729,    96,   175,    19,  -238,   687,    58,    -21,  -187,   -44,   202,  -272,    56,   273,  -876,    -560,   580,    35,  -848,   -61,   -56, -1020,   191,    -41,    17,    39,    -9,   356,  -540,   -80, -2048, // 2208
    
    // Out channel 23
     -1244,  -425,   126,    83,   -23,   110,  -306,   146,     54,   326,    64,   -25,    74,   267,  -213, -1085,      60,   119,  -135, -1044,    72,   -68,    26,    70,     45,   266,    16,   -15,   -30,   136,  -841,  -113, // 2240
      -984,  -667,  -373,  -344,   148,   -13,  -137, -1137,     15,  -822,   -39,   -16,   -41,   115,    90,    20,    -140, -1614,  -339,  -322,    16,  -465,    57,    57,  -2606,    65,  -234,   438,   -74, -1438,    57,    92, // 2272
      -501, -1665,   -67,   114,    59,  -956,  -483,   120,    442, -1300,   -75,    37, -1110,  -583,   172, -1211,    -162,   303,   146,  -670,    62,  1123, -1083,    14,    175,   -71,   -24,    76,  -403,  -317,  -235,  -198, // 2304
    
    // Out channel 24
      -667, -1867,   -96,  -422,   127,   946,   156,  -474,    -69,   122,    22,    12,    11,  -179,  -496,  -127,     -64,   182, -2283,  -406, -1288,     2,  -905,  -715,    -77,   156,    47,    67, -2204,   300,  -166,  -127, // 2336
       -60,  -670,    77,   332,   349,   -55,   994,    -9,     30,   165,   -81,  -278,    13,  -133,    -9,    25,     239,  -107, -1060,  -508,   -70,  -968,  -101,   -51,   2345,    -3, -1858,  -883,   -96, -1595,   476,   -32, // 2368
      -233,   240,   -77,  -910,   -58,  -245,  -906,    94,    117,  -115,    21,  -612,   530,  -540,  2044, -1727,     115, -1433,  -674,   874,    71,   107,   379,   198,   1000,    14,    70,    25,   191,  1101,   238,   -12, // 2400
    
    // Out channel 25
      -543,   -26,    61,   254,  -147,     0,  -639,  -571,    -30,   -20,     4,    14,   -78,    57,  -579,  -163,      33,  -226,  -288,   181,    82,    68,  1127,  -246,    -14,   145,    55,   -52,   -17,  -665,   -89,   351, // 2432
       621,   257,  -213,  -443,  -717,    24,   162,  -305,     62,  -183,    -4,   360,   -31,  -615,     8,   -88,    -186,  -202,    17,   -95,   -27,  -740,    69,     4,    149,    19,    16,  -426,    39,   267,  -649,   -49, // 2464
      -464,  -398,    76,  -162,   -17,   -76,    13,    84,   -148,  -904,    72,   -48,   -61,     6,   -20,    32,      45,  -499,  -111,   357,    62,  -177,  -143,  -326,    163,   -63,    41,   -44,  -253,  -408,  -588,   265, // 2496
    
    // Out channel 26
       103,   425,  -228,     6,  -581,  -596,  -527,  -599,    -49,  -560,  -233,    56,   -52, -1067, -1606, -2227,     -94,    49,   117,   156, -1615,    61,    87,    32,     60,    40,   -19,   -45,   152,  -403,   234,  -756, // 2528
       920,   107,   -63, -1229,   194,   -40,   -15,  -790,    -73,  -883,   -19,    82,   -30,  -209,    28,   -51,    -278,    53,   -83,    67,   -77,  -244,   -20,    22,   -771,   -29,   103,  -397,   -48,   392,   287,    -9, // 2560
        22,  -320,   -14,  -697,   -58,  -354, -2012,  -121,   -248, -1572,     0,   -70,   -18,    48,  -901,    68,    -447, -1191,  -401,  -382,    -2,  -385,  -588,  -690,   -139,    63,    -9,    -1,  -282,   607,  -841,  -195, // 2592
    
    // Out channel 27
      -159,    59,   -23,  -548,   140,   139,   191,  -755,    106,   305,   -13,    29,    23, -1379,  -103,  -187,     -15,   123, -1894,  -620,  -513,    17,   530,  -767,     54,     6,    35,   -53,  -494,  -518,   322, -1923, // 2624
      1041,  -641,   176,  -781,    46,    10,     0,    10,     -1,   247,    11,    -3,    57,     4,   -29,    29,      71,   565, -1171,   446,    -8, -1122,    46,   -18,    -45,   -37, -1447,  -768,   -93,  -346,   319,    18, // 2656
       -68,   192,    68, -1772,    -3,   -36,  -223,   261,     59,  -147,   -42, -1048,   442,  -743,  -467,  -438,     178, -2154,  -948,   427,   -80,   113,   -12,   -24,   -728,   -96,    79,    97,   219,  -197,  -106,   -18, // 2688
    
    // Out channel 28
       226,   292,    86,   258,  -797,   140, -1310,  -785,    -52,   243,  -403,    29,    41,  -339,  -922, -1729,      73,  -479,    69,   351,  -548,   -30,  -922,  -857,    -16,   180,    95,   -74,    57,  -294,   -48,  -848, // 2720
       992,    -8,   -91,  -399,  -400,   -59,   158,  -339,    -61,    45,   -26,     6,    39,  -177,   -76,   -32,     155,     7,   374,    12,   -51,   -25,    -5,   -41,   -453,    75,   -78,    42,    92,  -774,   -34,    68, // 2752
       -21,   -89,    74, -1185,   -24,  -114,  -559,  -317,    163,  -528,    62,    38,   378,  -100,  -139,  -513,    -670, -1189,  -640,   351,    74,   131,    44,   132,     84,    77,   -15,   -60,  -500,   359,   -54,   329, // 2784
    
    // Out channel 29
       -11,  -547,   -14,    83,  -421,  -561,  -818, -1954,     51,   -40,  -384,   -83,    -8, -2299, -1467, -2284,     -63,  -618,    28,   -91,  -716,    12,  -703, -1075,      8,  -207,   -16,    67,    46,  -668,    25, -1427, // 2816
       -53,   327,  -824,  -833,  -858,   -93,   270,    84,    -47, -1126,   -59,   330,    15,   -44,   -29,   -86,     417,    99,   275,    58,    11,    62,  -104,    -1,   -752,     4,  -393,   -12,   -78, -1407,   172,    13, // 2848
      -199,  -431,    90, -2694,   -71,  -490,  -804,  -145,    121, -1159,   -43,    45,  -621,    45, -1344,  -206,    -393, -1878, -1909,  -123,   -36,  -272,   290,   614,   -760,   -63,   -31,    66,  -302,   536,  -193,   481, // 2880
    
    // Out channel 30
       294,   164,    54,  -135,  -663,    -4, -1433,  -323,     42,   -38,    50,   -36,   -91,  -582, -1933, -2743,      70, -2331,    78,   330, -1062,   -50, -1037,     5,     64,   464,    61,   -25,   132,   179,  -483, -1068, // 2912
       566,   109,  -711, -1038,  -248,   -55,  1070,   232,      9,  -579,    82,   451,   -58,  -509,    -2,   -67,     184,    81,   328,   -45,   -80,   -74,    20,    35,    -85,   -36,  -475,     2,    11,  -703,   304,   -91, // 2944
        91,  -968,   -18,  -571,    53,  -330, -1867,    23,   -449, -2036,   -36,  -273,   -81,  -196,   -79,  -122,    -762,  -491,  -497,  -847,   -49,   -81,   -94,  -156,   -494,    22,    39,     1,  -673, -3235,  -161,  -773, // 2976
    
    // Out channel 31
      -451,   -12, -1407,    99,  -365,   458,   156, -1277,    -18,  -412,   -68,     4,   -32,  -280,   -79,  -478,     -61,  -539,  -156, -1193,  -184,   -32,    45,    24,    -37, -2532,   -71,    29,  -218,  -198,  -259,     8, // 3008
     -2586,  -351, -1461,   -73,   -77,     6, -1411,   -23,     58,   293,   -83,   -22,    74, -1570,   -89,    87,    -235,   315,   258,   167,    75,   -42,   -77,   -81,     27,  -129, -1557,  -135,   -52,   210,   301,   -56, // 3040
      -235,  -298,    38,   -93,     3,  -212,   102,  -186,  -1448,   -33,   -46,  -622,  -439,    56,  -452,  -483,    -551,  -299,  -166,  -306,    71,  -597,  -600, -2018,   -552,   -68,    56,    66,  -138,  -522,   -90,  -436, // 3072
    
    // Out channel 32
      -176,  -629,   -96,     5,   214,  -302,   457,    70,     32,   272,    -9,    95,   -99,    29,  -129,   -23,      32,   -70,   -23,    36,    -2,   -35,   616,    73,    -83,   172,   -61,    59,   -15,   383, -1594,    67, // 3104
      1480,  -158,   404,   -49,    56,   -13,  -124,   285,     29,  -928,   -84,    23,    -3,   202,    70,    51,     425,   -71,  -547,    19,   -63,  -395,    38,   -65,   -402,    -6,  -345,   224,   -42,  -355,   150,    39, // 3136
      -482,   224,   -46,     5,    23,  -977,   -72,   353,   -146,  -310,   -31,  -453, -1281,   -23,   -14,   431,     503,   -67,   -20,  -659,   -64,   232,  -589,   -53,   -352,   -51,   -80,   -35,   105,  -733,    41,    95, // 3168
    
    // Out channel 33
      -124,    49,  -338,   171,  -417,    27,   -28,  -338,    -44,    78,    27,    15,    75,  -503,   384,  -439,      60,  -540,    -9,    93,  -393,   -73, -1418,  -309,     86,   -78,    77,    16,   119,  -255,   -32,  -655, // 3200
      -248,    95,   525,  -395,  -389,   -81,  -150,  -111,    -40,    81,   -58,    41,     1,  -418,    58,   -27,      66,  -100, -1085,   123,     6,    60,   -73,   -21,   -183,   -88,  -170,   100,   -14,  -195,   -48,    87, // 3232
       -39,    48,   -79,  -801,   -28,   449,  -606,  -213,   -747,  -259,   -44,   384,    43,   -42,  -221,   925,      86,  -601,  -828,   239,     9,    73,   562,   -35,    186,   -35,    40,    82,  -348,  -496,    18,  -459, // 3264
    
    // Out channel 34
      -243,   -56,    12,   146,  -593,   -44,  -783, -1163,    -34,    81,  -366,   -68,    35, -1024, -2135, -2681,      25,  -151,    -6,  -496, -1367,    40, -1208,  -608,    -15,  -264,    79,    80,   134,  -205,   322,  -595, // 3296
       707,   271,   -83, -1078,  -469,    77,   171,  -395,     24,   193,   -75,   -41,  -112,  -289,   -29,   -47,     100,    29,     4,   140,   -16,    14,   -67,   -97,  -1087,     2,  -120,   109,    47,   400,    51,  -103, // 3328
       162,   -49,   -22, -2299,    24,  -344, -1567,  -135,    147, -1572,    73,    97,   635,    95,  -899,  -724,    -657, -2170, -1424,   222,    -1,    86,     0,   272,    374,   -40,    54,    99,  -509,  1538,  -105,   120, // 3360
    
    // Out channel 35
        82,  -947,   -23,  -217,  -488, -1050,  -857,  -731,    -28,   246,  -645,    93,   -15,  -560, -1613,   548,     -24, -1125,  -496,   367,   -81,    50,  -588,   -62,     50, -1479,   -91,    67,   297,  -584, -1002,    64, // 3392
     -1214,   323,  -801, -1184,  -950,   -94,   355,   618,     59,  -606,    95,   487,   -52,  -988,   -43,   -14,     638,  -161,  -168,    44,    47,    -4,   -89,    16,   -110,    22,  -213,  -426,    33,  -955,  -139,   -29, // 3424
       -12, -1573,    65,    99,     0,  -507,  -118,  -220,    581, -1712,    76,    70,  -488,   -29,  -666,  -359,    -398,   -55,    50,   249,   -53,  -972,  -400,    21,     23,   -96,     2,   -68, -1135,     2,  -436,  -266, // 3456
    
    // Out channel 36
      -725,  -312,    -5,    78,  -640,  -763,    75,   -54,      0,  -543,  -293,   -73,     8,    23,   365,   351,      46,   109,  -770,  -697,   100,   -60,   675,   353,     35,    91,    28,   -49,   250,   -33,    32,   -23, // 3488
      -148,  -498,  -221,    60,   116,    45, -1271, -3447,    -50,   152,   -46,   222,    46,  -375,    -6,   -77,    -397,  -471,   -13,   195,    81, -1329,   -53,    87,    -71,    38,  -267,  -781,   -66,   -56,  -464,   -53, // 3520
      -507,  -388,    10,    95,    72,  -276,    56,  -181,     64,    71,   -42,   154,   549,    28,    42,  -214,    -392,   364,    63,   683,   -37,  -130,    -4,    36,    -83,   -41,   -38,   -51, -1112, -3026,   178,   -94, // 3552
    
    // Out channel 37
      -495,   -73,    41,  -661,   641,    42,   139,  -120,     55,   173,    84,     1,   -48,   449,  -624,  -230,     -46,    47,    -4, -1776,  -100,   -38,   347,   437,     55,   295,    27,   -73,   281,   516,   123,  -984, // 3584
      1495,  -265,    19,  -492,   272,    41,   -77,   582,    -83,  -165,     0,  -496,   113,  -134,    85,    66,     132,  -206,  -654,  -464,    86,   -18,   -41,   -72,   -517,   -14,  -183,   141,    77,  -275,   256,    70, // 3616
      -561,   -56,   -28,    55,   -72,  -218, -1381,   160,   -237, -1144,   -48,  -307,  -117,  -675,  1648,   637,      70,    22,   -44,  -276,     0,   172,  -218,   294,   -240,    69,    82,   -36,   226,  -449,   -40,   121, // 3648
    
    // Out channel 38
     -1194,   -60,    85,    12,  -204,  -587,    65,   -47,     61,  -861,  -105,    61,   -50,   108,   416,   537,      88,   117, -1352, -1446,    27,   -79,   -48,    -3,    -19,    42,    91,   -83,  -886,    16, -1151,  -256, // 3680
      -619, -1574, -1789,    16,   579,   -68,  -208,   346,     36,  -428,    72,    59,    16,  -114,   -45,    17,    -491, -1378,   -25,    69,    72, -1134,   -14,    58,    282,  -130,  -462,   546,    -3,  -766,    91,    37, // 3712
     -1074,  -201,   -10,    -3,     2,   -99,   232,     2,    162,  -280,   -18,   120,  -365,   138,    71,  -131,    -809,    80,   -43, -1263,    25,  -132,  -174,   -12,   -101,   -62,    90,   -70,   -22,  -747,  -238,  -344, // 3744
    
    // Out channel 39
      -962, -1065,   -93,   404,    -1, -1415,    75,    -2,     17,   -63,    -5,    85,    59,   -74,  -396,   -92,     -28,  2115,   -49,   -92,    -4,    26,   512,  -280,    -90,   -31,   -28,    44,   -48,  -278,   -34,   360, // 3776
       510,  -835,    93,  -262,   469,    43, -1019,    58,    -45,   344,   -38,   -26,   -85,  -589,   -87,    89,      63,  -249,   455,  -177,    43,  -537,   -24,  -104,    369,   -45,    56,  -203,    36,   683,    83,    39, // 3808
     -2942,  -922,    -5,   146,   -63,   647,   -13,   239,   -231,  -236,   -12,   -88,   840,   -95,  -260,   905,      70,   133,    16,   627,    88,    39,   -86,  -921,    153,   102,    64,    49,   -63, -1034,  -370,  -225, // 3840
    
    // Out channel 40
       184,   406,  -143,  -278,  -856,  -620,  -659,  -773,    -65,  -678,  -351,    -8,   -66,  -497,  -871, -1846,      -2,   -89,   -40,   -92, -1411,    48,  -295,    59,     73,  -146,    16,   -17,   109,  -318,   -38,   321, // 3872
        86,  -645,    45,  -943,   195,   -54,  -160,  -415,    -70,    47,   -61,  -796,    73,   154,   -55,     4,    -726,     4,  -772,  -242,     6,  -579,   -23,    29,   -136,    -7,   -11,  -828,    18,   186,  -126,    50, // 3904
         0,  -103,    40,  -986,    16, -1068, -1494,  -194,   -773, -1372,   -75,  -345,  -202,   -47, -1231,   291,    -906, -1045,  -872,  -324,    58,  -983,  -194, -1115,    135,    96,    90,   -76,  -390,  -172,  -890,   -33, // 3936
    
    // Out channel 41
      -878,   -17,  -220,   -55,   -26,    86,   -40,   -28,    -80,   136,  -120,   -62,    37,  -102,   619,  -392,     -56,  -241,  -524,  -574,   -15,   -49,  -796,   231,    103,  -230,   -71,   -28,   248,  -647,  -165,   110, // 3968
      -716,  -224,  -717,  -481,  -244,    23,  -565,   341,     11,  -174,    41,   110,   -55,  -291,    63,    59,     -82,  -420,  -166,    32,    72,  -756,    62,    68,    -62,   -99,   543,  -310,   -71,    75,  -112,   -16, // 4000
      -949,  -410,   -39,   114,   -31,   -86,   637,   -28,      6, -1543,   -68,   -40,  -133,   -82,   -52,  -205,      65,   298,    24,   -31,   -72,   -12,  -534,  -417,    234,   -75,    88,     7,  -401, -2093,     0,    67, // 4032
    
    // Out channel 42
       101,  -220,   172,   -46,  -145, -1182,   372,  -164,     10,  -308,   -41,    45,    11, -1173, -1627, -2406,      36,   120,    15,   -37,  -958,    20,  -524, -1189,    -53,  -577,   -17,    18,    80,  -666,  -811,  -536, // 4064
      -391,   -32,    27,  -391,   207,    46,  -171,  1064,    -91,  -928,    57,    47,    25,    85,    19,     0,     -81, -2043,   435,  -120,    -3,  -104,   -44,   -59,    -35,    33,  -202,    39,   -23,  -416,     9,   -25, // 4096
        69,    17,   -89, -2104,    -9,  -121, -1275,   -64,   -551,  -999,     1,  -256, -1641,   -29,  -679,     6,    -418, -1611, -1265,  -270,    40,   -24,  -820, -2735,    268,   -38,    50,   -44,   -33,   -28,  -123,   275, // 4128
    
    // Out channel 43
       191,   324,  -463, -1102,   158,    -5,  -234,     3,     35,    14,   146,   -46,    43,     2,  -460, -2225,      23, -1687,  -163,  -582,    55,     7,   -12,   467,    -36,  -857,   -64,    54,  -138,   134,   799,   431, // 4160
       -62,  -452,  -346, -2562,  -313,    30,    18,  -690,    -27,   380,   -55, -1133,    71,   -77,     8,   -87,     -90,  -373,   -74,  -729,   -38,  -566,   -45,    58,    420,   -58,   101,  -220,   -31,    34, -1091,   -91, // 4192
      -235,    55,   -66,   133,    24,   -35, -1327,   -94,  -1254, -1416,   -78,   450,  -809,    59,  -173,  -175,     -55,   229,    66,   299,    81,    91,   310, -2212,    133,    98,    54,   -65,  -146,  -566,    -3,   610, // 4224
    
    // Out channel 44
        11,   190, -1311,    65,    48,   141,  -153,    47,    -33,   -72,   103,   -85,   -22,   -58,     2,   726,     -98,   -85, -1820, -1446,    51,    42,   -14,   221,    -41, -1727,   -55,   -69,  -271,   466,  -700, -1191, // 4256
     -3690,    74,   -93,    90,  -188,   -70, -1205,    88,      6,   178,    95,    21,   -11,    32,    -8,   -24,    -594, -1463,   126,   -18,   -56, -1763,   -98,   -52,  -1544,  -126,    15,   -87,   -21,   -73,  -274,   -56, // 4288
        69,  -401,   -69,   -59,   -51,  -391,   -86,  -106,  -1228,   -79,    58,   173,  -233,   -69, -2461,  -246,    -178,  -233,    31,  -832,   -45,  -154,  -735, -1111,   -781,    26,    88,   -73,    63,   151,   -40,  -105, // 4320
    
    // Out channel 45
        41,  -134,  -213,    88, -1018,    -4,  -984, -1160,     51,   100,  -265,    -7,   -56,  -866, -1288, -1774,     -33,  -499,    66,   -40,  -388,    65,  -799,  -626,     46,   342,   -64,   -15,    76,  -202,    28,  -764, // 4352
      2303,    -2,  -176,  -383,  -543,    65,   108,  -320,     36,  -623,    29,   -70,   -98,  -346,    63,    39,      68,    10,    66,    50,    27,   -11,    67,   -78,  -1098,    71,    31,  -496,    18,   -76,   244,   -27, // 4384
        -5,  -587,     4, -1535,    55,  -807,  -221,  -293,      0,  -609,    34,    52,  -394,    57,  -545,  -336,    -421, -1413, -1021,   294,   -17,  -526,   -22,    10,   -396,   -54,    66,    -3,  -793,   972,  -694,   474, // 4416
    
    // Out channel 46
      -168, -1077,   229,   -50,  -115,  -162,   -38,    36,     24,   190,    49,    17,    36, -1041,  -585,  -428,     -38,  -780,   -36, -1576,   260,    -2, -1516,   -42,    -40,  -847,    43,     7,  -616,  -977,   749,  -444, // 4448
      1011,   -59,   304, -1034, -1297,    70,  -462,  1002,    126,    76,    72, -1258,    68,   -10,    38,     8,      31,   313,  -336,  -834,    -7,    69,    89,   -90,   -153,    90,   -69,   -89,   -94,   -45,   109,   -89, // 4480
     -1256,  -100,     5,   171,   -37,   366,  -621,   -37,   -148,  -893,   -78,  -903,  -200, -2185, -1192,  -691,     220,     6,   -33,  -243,   -40,   -23,  -161,   209,   -595,   -58,   -21,   -40,  -159,  -777,   649,  -402, // 4512
    
    // Out channel 47
     -1539,   185,  -649,   -15,    55,   292,  -844,    50,     67,  -132,   -88,   -38,    45,   -61,   685,  -719,      12,  -661,  -527, -1721,   260,    68,   728,   -56,      2,  -419,   -42,   -15,   -58,  -535,    41,   -71, // 4544
     -1317, -1372,  -451,  -877,  -759,    17,  -598,  -331,      2,  -148,    18,    36,    44,   -56,   -35,    19,     -19,  -448,   222,   -20,    17,  -707,    23,    80,    735,   -91,   209,  -804,   -25,   220, -1452,   123, // 4576
     -1450,   247,    59,   170,   -72,   100,   -74,  -226,    -10, -1698,   -21,   -94,  -592,  -127,  -444,   465,     376,   158,    92,  -159,   -18,  -624,  -936,  -847,    -26,    92,     4,    41,  -117, -2334,  -210,   -71, // 4608
    
    // Out channel 48
      -162,   155,    81,  -628,  -157,    76,  -371,  -675,     18,  -762,  -216,    15,   -79,  -507,  -707, -1147,      -1,  -759,  -186,   -31, -1243,    50,   -51,  -141,    -60,   308,    21,   -19,   -14,  -739,    59,   192, // 4640
     -1673,  -585,  -219,  -700,   400,   -94,  -187,  -731,   -113,  -395,    78, -1169,   -65,    62,    51,   -16,     248,   -76,  -251,  -101,     6,   -80,    -5,    88,    182,    65,   138,  -971,   -71,  -275,  -325,     3, // 4672
        21,   443,   -14,  -855,   -25, -1077, -1380,  -109,    -54, -1143,    55,  -123, -2132,    50,  -461,  1102,   -1072,  -804,  -616,  -126,   -81,  -794,   -14,  -176,   -100,    49,    20,    86,  -340,  -270, -1078,   500, // 4704
    
    // Out channel 49
     -1057,   -14,    56,    -6,  -154,  -904,    99,    41,     53,  -314,   170,   -48,   -60,   -58,   -96,  -231,     -73,  -175,   -63,  -719,    90,    41,   772,  -258,     17,   624,   -44,    67,   286,     6,  -131,  -274, // 4736
       306,  -926,   417,  -442,  1063,    39,    51,  -463,     -5,  -398,   -94,   144,   -77,    77,    -2,    63,     129, -1142,  -238,   -80,    31,  -360,    85,   -94,   -259,   109,   105,   -35,    24,     8,   -82,    62, // 4768
      -984,  -621,    40,    70,   -73,   720,  -121,   365,    199,  -798,    19,  -139,  -769,  -106,   313,  1181,      87,   107,   163,  -483,    81,   392,  -758,  -126,   -116,    -5,   -83,    56,  -154,  -510,  -141,  -130, // 4800
    
    // Out channel 50
      -513,  -329,     1,    33,  -674,  -844,  -525,  -638,      8, -1780,  -364,    52,    -2, -1954,  -807,  -544,     -43,  -500,   -29,  -216, -1156,    15,   557,   122,    -99,   -43,   -65,   -69,   321,  -353,  -858, -1005, // 4832
      -789, -1239,  -722,  -360,    -6,   -57,   -51,  -861,    -50,  -724,    73,  -721,    39,   212,   -67,   -40,    -807,   -52,  -466, -1382,    96, -1249,    11,    46,   -238,   -99,     0,  -768,   -25, -1053,  -687,   -64, // 4864
      -130,  -375,    49,  -741,    15,  -290,  -858,  -285,   -542,  -327,    61,  -516,  -293,  -712, -1529,   227,    -720,  -881,  -745,  -180,    65, -1314,  -366,  -551,   -249,   -67,    94,   -64,  -128,  -283, -1172, -1508, // 4896
    
    // Out channel 51
      -567,  -186,    -1, -1072,   -34,   479,    36,   -78,     85,    12,   -13,    46,   -64,   -47,   401, -3263,      -7,   -13, -1101,  -568,  -200,   -69, -1172,    -8,     77,   384,    66,    -6, -2242,   351,  -396,  -531, // 4928
       229,  -356,   802,  -997,   207,    44,   239,   922,     34,    46,    60, -1514,   -69,  -112,   -80,    71,     -66,    59,  -630, -1064,   -55, -1520,   -86,   -45,   1150,   127,  -169, -2900,    24, -1975,    -5,   -12, // 4960
      -380,   154,   -85,  -393,    53,  -680, -1806,   102,     67,  -685,   -32,  -279,  -162, -1205,   183, -2119,     -25,  -303,  -162,   213,   -48,    70, -2475,    39,    529,    81,    66,   -12,   -18,  -461,  -110,   -64, // 4992
    
    // Out channel 52
       -50,   -79,   153,   167,  -173,    89, -1335, -1278,    -67,   150,  -101,    46,   -90, -1095,  -933, -1992,      39,  -639,    21,   193,  -950,    25,  -772,  -846,    -10,   -58,    93,   -61,   296,  -750,    24, -1391, // 5024
       520,    79, -1174,  -718,   346,    91,   317,  -285,   -114,  -454,   -87,    -4,   -84,   -27,    24,    79,     219,   -34,   -34,    51,   -38,   -52,    51,    26,   -607,    61,   -10,   218,   -31,  -360,   148,    18, // 5056
       182,  -390,    -3, -1925,   -11,  -815,  -740,   105,    220, -1044,   -35,   106,  -964,    31,  -722,  -407,    -391, -1243, -1020,  -182,     0,    61,   160,   218,   -905,    31,    48,    19,  -270,   287,  -128,   659, // 5088
    
    // Out channel 53
      -400, -1956, -2171,  -140,    16,   146,  -455,    50,      6,  -105,   -78,   -61,    18, -1491,    43,  -545,     -73,  -223, -1079,  -355,    15,    35,   -73,   -96,    -84, -1645,     8,   -19,  -792,    13,   347,   301, // 5120
     -2794,  -728,  -113,    -3,  -613,   -61, -1681, -1075,    -97,   -51,   -36,   178,   -77,  -514,     7,    39,      50,  -437,    36,  -335,   -82, -1159,   -78,   -48,   -631,  -111,   200,  -637,    67, -1035,   -20,   -49, // 5152
      -247, -1327,   -26,   102,   -92,   215,   187,  -329,   -740,    83,    31,   -38, -2180,   -90,  -883,  -200,     -52,   321,    78,  -238,    17,  -123,  -255,  -436,    186,   -14,   -39,   -44,  -940,    22,  -196, -1211, // 5184
    
    // Out channel 54
      -100,  -481,   186,    21, -2108, -1144,    96,   -17,     66,  -967,   -78,    54,   -20,   128, -2255,  -524,      41,   111,   -71,  -183,    85,    69,  1606,  -113,    -62,   423,   -79,    23,   150,    42,  -296,     6, // 5216
      1492,  -236,   250,  -646,   590,   -82,   358,  -172,    -97,  -225,   -62,   515,   -59,   335,   -63,    33,      83, -1284,   -31,    74,    91,  -558,   -82,    73,    129,   -74,  -241,   -20,    64,   111,   -56,    52, // 5248
     -3142,   181,    41,  -489,   -57,  -135,   476,    40,    102, -2339,   -33,  -132,  -482,    34,   -86,   998,    -500, -1165,  -179,   298,    80,   106,  -119,  -269,    294,    11,   -54,    50,   -39,  -739,  -117,   141, // 5280
    
    // Out channel 55
       119,   -77,     8,  -284,  -311,   125,    57,  -515,     85,  -350,   -90,   -71,    72,  -162,  -874, -1480,     -38,   323,  -104,   -65, -1324,   -17,  -194,  -261,    -97,   570,   -49,    74,   -54,  -316,   462,   334, // 5312
      -454,  -541,    55,  -296,   261,    51,    51,  -726,    -44,   -90,   -34, -1547,   -50,   123,   -14,   -81,     -67,    -6,   -64,   -86,    -1,  -275,   -64,    60,     96,    85,    62,  -927,   -28,   -96,  -302,    72, // 5344
      -534,   543,    58,  -990,   -30,   -29,  -868,     8,   -120,  -248,    20,    26, -1072,    -5,  -350,   165,     -71,  -999,  -469,  -665,    32,  -250,  -118,  -190,    325,   -22,   -64,   -70,  -253,  -403, -1406,    74, // 5376
    
    // Out channel 56
       -69,   -27,    33,   -88,   -14,  -138,    20,     6,     86,   -30,    27,    82,    86,   -65,    26,   -37,     -17,   -57,   -79,    39,   -46,   -81,    27,   -44,    -33,   -53,   -10,    21,  -103,   -36,   -92,   -81, // 5408
       -61,    50,    14,   -78,    35,    92,   -85,   -69,     -3,    40,   -40,   -79,   -99,   -98,    34,    98,    -122,   -26,    38,    27,    90,   -93,    69,    15,     53,    16,    -5,    22,    42,  -112,  -113,   -86, // 5440
       -35,   -65,    11,   -55,   -71,    34,   -48,    40,    -52,   -48,    44,   -74,     3,   -22,   -13,    29,      46,    18,   -88,   -53,    86,   -11,   -61,   -92,     -4,   -20,    46,     1,   -89,    21,     4,  -106, // 5472
    
    // Out channel 57
      -467,  -502,   248,   484,  -303,    -2,   292,  -100,     23,    19,   -58,   -35,    88,  -971, -1546,     9,      82,    35,  -260,  -313,   268,   -75,   -25,  -598,     -4,  -488,   -79,   -65,  -462,  -508,   281,   142, // 5504
      -193,  -752,   125,  -986,   884,    78,  -157, -1517,    -49,   332,   -35,   551,    21,  -257,    12,   -73,     163,  -170,  -284,  -277,   -22,  -500,   -90,   -37,   -392,   -90,    36, -1614,    37,   -83,  -162,    63, // 5536
      -422, -1174,    41,   389,    89,    13,  -168,   -63,   -590, -1019,   -46,  -701,   201,    20,  -685,   -46,     169,   -31,   195,   262,    41,   190,  -314,  -241,   -565,    -8,   -60,   -96,  -609,   -65,  -226,    15, // 5568
    
    // Out channel 58
       319,  -565,  -770,  -784,  -259,    94,   173,  -230,    -56,   118,   -57,     8,   -37,   150,  -185,  -300,      57,  -325,  -165,  -773,  -817,   -58,  -166,   -93,    -46,  -815,     4,   -99,  -271,  -408,    30,   339, // 5600
      -299,  -221,   212,  -197,  -386,   -37,  -319, -1283,     10,   632,    95,  -859,    57,  -157,   -45,    57,     105,  -411,  -314, -1285,    75,  -446,   -97,   -90,    178,   -44,   -60,  -307,   -21,    72,  -116,    43, // 5632
      -663,  -951,    71,   499,    64,   469,  -276,  -112,   -139,    67,    44,  -970,   295,   193,  -423,    64,     163,   700,    58,  -368,    -3,    94,  -266,    25,    119,   -77,   -34,    54,  -384,  -170,  -376,   461, // 5664
    
    // Out channel 59
     -1325,  -509,  -113,   206,  -462, -1426,   164,   -74,    -71, -1167,  -202,   -43,    -8,    50,   279,   758,     -60,   114,  -967,   -94,   127,    -5,  -622,  -686,    -50,  -138,    60,   -95,    58,   124,  -683,  -100, // 5696
      -836, -1274, -1367, -1640,   -81,    80,  -449,  1551,    -93,   223,   -32,   -93,    36,  -378,   -97,   -47,    -415, -1159,   120,    95,   -94, -2094,   -30,    88,    122,    -3,  -720,   -84,   -96,  -110,  -816,    70, // 5728
     -3625,  -788,    60,    50,    76,  -592,   272,   -99,   -117, -2408,   -23,    85,   239,   302,   217,   337,    -778,    35,     5,   380,    74,   214,  -267,   -32,    -28,    86,    68,    33,  -468,  -958,    72,  -204, // 5760
    
    // Out channel 60
     -1839,  1465,  -212,   -72,   236,   135,    39,    12,     -1,   375,    63,   -40,    13,    17,  -142,  2716,      55,   362,  -271, -1450,   202,    11,   116,  -681,    -88,  -588,    14,    -7, -1446,   315,    27,    61, // 5792
      -103, -1114,  -233,   153,  -490,    21,  -217, -3429,     19,  -713,    10,    53,   -37,  -163,   102,   -61,      83,  -658,   539,    13,    58,  -619,   -50,   -64,     21,    21,   189,  -639,    71,   244,   641,   -44, // 5824
     -2356,  -554,    49,    96,    47,   880,   -75,   128,    434,    60,   -19,   146,  -439,  -124,   364,  -246,      94,   -59,   115, -1050,   -65,   -43,  -150,    66,    134,    16,    -3,   -87,   164,  -948,  -226,  -227, // 5856
    
    // Out channel 61
       -80,   262, -1177,    98,    -6,    61,   -25,    55,     48,  -315,    24,   -29,   -14,    27,   121,    74,      56,   -70, -1610, -1557,    44,    49,  -620,   104,    -80, -1493,    23,    72,    -5,    93,   -15,   192, // 5888
     -3072,   -25,  -918,    38,    67,    18, -1548,   268,    -19,   -71,    84,    -4,    79,    83,    39,    34,    -476, -1406,    33,    28,   -70, -1389,   -92,    71,    141,   -32,     0,  -321,   -70,   148,  -703,    33, // 5920
       211,  -176,     7,   102,   -70,  -155,   -64,  -149,   -246,    97,    71,    41,  -437,   -24,  -412, -1405,     -61,    90,    61,    -3,     2,  -953, -1025,  -308,    -27,    10,   -84,   -33,    85,   -26,   270,  -384, // 5952
    
    // Out channel 62
      -961, -2000,   -54,   123,   -79,  -724, -4534,   206,    -52, -1737,    12,   -36,   -61,   448,  -128,   -66,      13,    24,  -364, -1634,    37,   -84,  -391,  -254,     85,  -126,    91,   -66,  -979,   165, -1207,   -49, // 5984
      -812,  -761,  -734,   -48,  -192,   -29,  -771, -1309,    -73,  -276,    -6,    31,    72,    88,    16,   -51,    -739,  -136,  -601,   -89,   -43,  -975,   -91,    20,  -2100,    75, -1636,  -675,    51, -1493,   -73,    83, // 6016
      -336,  -277,    52,     6,   -31,  -229,   -50,  -458,    313,  -134,   -44,   -40,  -122,  -160,    78,  -902,    -404,  -155,    26,   -16,     4,  -182,  -393,   -12,    421,   -68,    89,    36, -1027, -1921,  -780,  -348, // 6048
    
    // Out channel 63
       101,  -245,  -538,    30,  -226,   -85,   277,   -31,     82,  -538,  -143,    88,   -57,   -16,   749,   -42,     -98,   -67, -1839, -1726,   -14,    63,  -439,    98,     22, -1264,    57,     5,  -116,    34,   -39,   265, // 6080
     -3309,    76,  -405,   -27,  -327,    98, -1332,   984,     15,   249,   -81,    69,    39,  -327,   -54,    10,    -564, -1150,    69,    59,     3, -1266,   -42,   -14,     65,   -68,    66,  -232,    55,   -37,  -429,   -47, // 6112
         9,  -307,    26,    -1,    60,   177,   -38,  -174,   -129,   153,    51,    42,   -70,    87,  -133, -1383,    -763,   -91,    16,    89,    -5,  -773,  -433,  -161,   -105,   -70,   -46,   -37,   -87,   231,   288,  -225, // 6144
    
    
};

const int16_t cg_FC2bias[64] = { // Co,H,W,Ci: (64,)
      -131, -1648,  1742,   947, -1622, -5293,  -166, -1933,   1981,    96,  -745,   561, -1070, -1421,    -2, -6134,    -100,  -270, -2351, -2197,  1343,  -413, -2661,   763,  -7730,  -697,   553, -2820,  -578,  -614,   144,  1688, // 32
     -1159,  -581,  -425,    62,  -970, -1227,   512, -4545,   1710,   -16,  1047, -2015,    45,   152, -2050,     3,    1645,   436,  2715,  1845,  -569,   406, -1638,  1248,   -444, -2738, -5869,   268, -5310,  -616,  1922,  -239, // 64
    
};

const int16_t cg_FC3weit[2048] = { // Co,H,W,Ci: (32, 64)
    // Out channel 0
      -137,  -974, -1785,  -775,   134,    58,     2,   155,     33,  -835,    -2,  -910,   -72,   350,  -734,  -183,    -323,   249,   -25,  -125,  2009,    15,  -370,   -56,    215,  -420,  -698,   114,  -149,  -325, -1516, -1378, // 32
      -166,   369,  -421, -1288, -1017,    67,  -113,  -887,   -328,   -89,  -874, -1441,   -27,   190,  -544,   244,     165,    54, -1957,    -3,  -640,  -122, -1317,    48,   -120, -1110,  -557,  -172,   -25,   -16,   230,    25, // 64
    
    // Out channel 1
       220, -1316,  -188,  -267,    72,    48,  -193,  -416,   -407,    -8,   194,   101,  -198,   330,  -770,  -197,    -324,   406,  -339,  -294,  -115,  -214,   -25,  -577,    202,  -808,   599,   -24,  -428,   -54,   293,   323, // 96
      -522,  -112,    24,    17,   788, -1358,  -374,   -71,    878,  -232,   -11,  -104,  -330,  -184,   -23,  1757,     787,   -54,   365,   232,  -342,  -388,   497,  -931,     35,    83,    91,  -836,  -294,  -129,   961,    47, // 128
    
    // Out channel 2
      -332,  -479,   -90,  -287,    71,  -373,  -150,  -100,   -958,   -34,  -124,  -659,  -210,    -9,  -253,  -530,    -119,  -218,  -456,  -691,   -46,    22,  -171,  -359,    -24,    99,  -375,  -416,  -376,  -450,   183,   -91, // 160
      -423,  -448,   -30,   -52,  -257,  -122,  -288,  -266,   -843,  -308,  -319,   -49,  -192,  -469,   -85,    25,    -798,  -718,  -315,  -458,  -153,  -323,  -240,  -630,    149,    10,    43,  -131,   -20,   -52,  -351,   -66, // 192
    
    // Out channel 3
     -3937, -1065,  -456, -2776, -3236,  -872,  -290,  -636,  -1802, -1211,   213,  -191,    53,  -853,  -988,  -160,   -4507, -3649, -2247, -1997, -1552,  -106, -3410, -2900,   -519, -2142,  -482,  -563,  -274,  -594,  -784,  -435, // 224
     -2378,  -453,  -507,  -760, -1765, -2854, -2866,  -811,   -827, -2862,  -275,  -820, -3749,  -267,  -174, -1746,    -959, -2258, -1591, -1999,  -284, -1307,  -489, -1548,    129,  -672,  -313, -2596, -1090, -3832, -1670, -4503, // 256
    
    // Out channel 4
      -789,  -913,  -423,  -139,  -192,   460,  -118,   -82,   -165,  -476,   109,   -66,  -101,   356,  -394,  -297,    -456,   -62,  -120,  -369,  -279,   215,   -10,    56,   -210,  -103,  -275,  -314,  -479,   -26,  -172,   -95, // 288
        15,  -397,  -123,    19,    46,   -95,   -53,  -996,    -47,   142,   158,  -625,  -242,   -37,  -568,  -137,    -170,  -314,   -29,   -54,    30,  -266,  -241,  -443,    163,   409,  -182,  -644,  -465,  -220,  -222,  -661, // 320
    
    // Out channel 5
       -52,  -821,  -475,   -89,  -328,   145,  -215,  -102,   -516,   469,   194,  -155,   200,   370,  -211,  -148,     -27,    -7,  -179,  -410,  -155,   186,  -385,  -400,   -464,   802,   -86,   361,  -190,   132,   162,  -115, // 352
      -361,    71,  -204,    37,  -724,  -719,  -615,  -179,    -21,   229,  -279,    39,   -12,  -134,  -118,   229,    -234,   -84,   -40,  -647,   -74,  -391,  -264,  -824,    152,   -40,  -254,  -684,  -389,     1,   -13,   183, // 384
    
    // Out channel 6
      -349,   361,  -451,  -637, -1318,  -981,   175,   149,   -782,    53,   -31,  -914,   -43,   793,   -77,  -125,    -439,   328,   -46,    46,  -739,   226,  -437,  -695,    317,  -327,  -700,  -875,   143,  -369,  -378,  -806, // 416
        75,  -197,  -104,  -660,  -653,    10,    29,  -850,   -558,  -103, -3120, -2174,  -714,    49,  1482,   299,    -503,  -162,   230,   -17,  -586,  1836,  -175, -2598,     17, -1298,  -980,  -998,   -58,  -572,   563,  -122, // 448
    
    // Out channel 7
      -636,  -768, -1932, -2124,  -685,  -313, -2395,  -752,  -1975,  -591,    10, -3249,   109,  -157, -1313, -1031,    -655,  -150, -1179, -1139, -1717,  -253,  -656,  -237,   -583,  -422, -1775,  -600, -2314,  -629,  -201,   301, // 480
     -1056, -1004, -1272,   125,    69,  -229, -3404,   -88,  -2241,  -325,  -161, -1423,  -760, -2957,  -587,     4,   -2591,  -100,  -766, -1442, -1281,  -455, -1238, -2409,   -149,  -205,   -74, -1856,  -186,  -801,   215,  -574, // 512
    
    // Out channel 8
      -464,  -236,   456,   182,  -963,  -123,    54,  -456,   -200,  -307,   170,  -269,   120,   712,   439,  -194,   -1159,   144,     9,    17,   126,  -279, -1257,   -16,   1921,   134,   452,     5,   142,  -145,  2514,  -420, // 544
       -19,   367,   267,   174,  -176,    34,  -372,  -570,   -641,   250,  -847,  1026, -1108,  -154,   498,    15,      30,   -90, -1486,   -59,   310,  1244,  -539,  -113,     43, -1678, -1538,  -712,   -42,  -799,  -433,  -443, // 576
    
    // Out channel 9
     -1273, -1025,    31,  -538, -1322,   522,  -525,   602,    108,   271,   105,  -380,   182,   141, -3912,  -789,   -2524,   906,  -193,  -826,    14,   142, -3821,  -405,     -7, -1488,  -365,  -779,  -704,  -368,  -446, -2440, // 608
     -1224, -1108,  -409, -1707, -2480,  -432, -4710,  -348,   1172,   500, -1128,   215, -2098,   -62,    11,   539,     107,  -314, -1649,  -146,  -278,  -477,   -89,   449,    -90,   -65,  -625, -1613, -2319, -1321, -1657, -2598, // 640
    
    // Out channel 10
       -91,  -654, -2397,  1263,  -363,   -12, -1361,   116,   -751, -1423,   -50, -2022,   191,   236,   147,  -270,    -750,    44,  -242,  -200,  -499,    61,   385,  -481,   -732,  -501,  -752,   987,  -892,  -636,    60,  -373, // 672
      -474,   706,  -932, -1071,  -260,  -199,   -26,  -547,  -1644,  -309, -2158,   527,  -598, -1026,   162,   131,   -2362,   -11,   667,   192, -1139,   442, -1268,   326,    -26,   -26,  -177,  -346,   168,  -426,  -114,  -288, // 704
    
    // Out channel 11
     -4658, -2277,  -453, -1006, -3813,  -885,  -215,  -156,   -403,  -430,   -44,   -78,   -96,  -440,   -45,  -272,   -5186, -5153, -3146, -3736,  -390,  -219, -2370, -2111,   -696, -1581,  -191,  -838,  -185,  -199,  -873,  -327, // 736
     -2956,   138,  -298,  -510,  -750, -3346,  -154,  -844,   -898, -1385,    39,  -492, -4657,  -215,    68, -1838,    -470, -1905, -1650,  -833,  -223, -1244,  -345,  -455,     -1,  -641,  -300,  -518, -1219, -5291, -1074, -5993, // 768
    
    // Out channel 12
      -337,  -218, -2091, -1467,  -191,   761,  -148,  -807,    491,  -788,   -93,  -256,    94,   294,  -735,  -777,   -1696, -1161,   -39,   -49, -1180,  -217,   801,  -103,  -1326, -1559,  -371,  -291,  -104,  -888, -1386,  -177, // 800
       -78,  -738,  -591,  -189,  -728,   -54, -3591,    13,    314,  -793,   137,  -470, -1129,  -178,    33,  -667,     207,    41,   -48,  -214,  -329,   -88,   -65,  -617,    120,  1823, -1495,  1541,  -524,  -364,    41,  -941, // 832
    
    // Out channel 13
     -3583, -3089,  -207,  -331, -3992,  -665,   379,   576,   -108,  -191,    13,   353,   -77,    69,    69,  -106,   -4131, -3929, -2049, -3457,  -144,   242, -2366,  -711,   -203,  -326,   324,  -129,   288,   607,   311,   758, // 864
     -2363,   150,   520,   950,  -595, -1501,   232,  -215,    662,  -529,   530,  -215, -5090,   385,  -258,  -863,      64,  -259,   466,  -559,   276, -1013,  -163,    62,     79,  -222,  -226,  -381,  -386, -4259,  -254, -3706, // 896
    
    // Out channel 14
     -3305,    49,   181, -3087, -2145,  -121, -2825, -1089,   -189,    92,   119,   -69,   162,  -253,   882, -1201,   -3282, -1197,  -119,   -53,  -346,   122,   587,     9,   -463,  1656,  -552,  -576,  -593, -1659,  -110,  1384, // 928
       -27,   336, -4559,   -99,  -331,     1,   889,  -438,   1695, -1652,   749,  -387, -2108,  -950,  -191,  -445,     864,   153,   691,  -582,  -836, -1264,   107,   246,    139,   155,  1075, -1568,  -215, -2352,  -316, -2046, // 960
    
    // Out channel 15
     -2461,  -914,  -177,   241, -2666,   -65,   536,  -209,  -1659, -1052,    25,   195,     4,   742,    95,   361,   -2684, -2076,   117,     4,  -959,   -42,  -811,   276,     41,  -100,   367, -1058,   301,   681,  1979,   734, // 992
        96,    52,   686,   750,  -506,    81,   -50,  1130,   -346,  -685,   -12, -1014, -2499,   512,   633, -1567,    -934,   -16,   -34,  -601,   481,  -374,  -528, -1118,     73,   371,  -187,  -236,  -164, -1769,  -388, -2143, // 1024
    
    // Out channel 16
       153, -2617,  -225,  -341,   564, -2374, -3212,  -600,   -387,  -328,   -68, -6344,    37,  -121,  -558,  -393,     502,   317, -2028, -3464,   -54,  -120,   372,  -735,     81,   127, -3588,  -487, -1696, -3685,  -882,  -104, // 1056
     -2209, -1129, -3111,  -266,   199, -1523,   270,   -86,  -1482,   147,  -444,  -138,   656, -6428,  -791,    74,    -652,  -280, -1141,  -660, -3685,   601,  -244,  -366,    -52,  -174,  -353,   -91,   268,   279,  -286,   297, // 1088
    
    // Out channel 17
      -131,  -259,  -560, -1265,  -199, -1484,   -24,  -534,   -688,   -21,   171,   -79,   237, -1083,  -526,  -303,     -86,   243,   -29,     4,  -708,   210,   169,  -657,  -1509,   131,    -9,  -815,  -362,    93,   163,    87, // 1120
        24,   311,  -373,    28,   284,    43,  -386,  -263,     64,  -266, -1248,  -708,    84,    46,  1082,   -40,    -638,   -93,  -131,  2033,   -70,    57,  -139,  -754,    208,  -392,   -73,  -552,   390,  -129,  -335,   182, // 1152
    
    // Out channel 18
       -95,  -849,  -414, -1819,  -488,  -119, -4287, -1441,   -765, -1087,   268, -4971,    36,  -728, -3172, -1420,    -605,  -243, -1640, -1350, -1401,   242,  -416, -2076,   -251,  -632, -3173,  -717, -4098, -1754,    95, -1286, // 1184
     -1716, -2350, -2924,  -655,  -298, -2336, -2005,  -470,  -4245, -1492,  -112, -1641,  -470, -4498,  -584, -2486,   -4572, -1778, -1401, -1364, -3865,  -274,  -638, -1124,    204,  -387,  -206, -1906,  -543,  -285, -1194,  -160, // 1216
    
    // Out channel 19
       199,  -129,  -391, -1074,  1123, -1584, -5248,  -253,   -211,   210,   -75,   340,  -324,   126, -2845, -1603,    1271,   448, -1516, -1019,   -44,    44,  1076,  -877,    181,   275,   702,   -44, -4406, -5161,   184,  2985, // 1248
     -2218, -1075, -4999,  1544,   419, -1187,   351,  -487,   -678,  -138,   279, -1105,  1015, -4447, -1110,  -730,    -502, -2335,  -824,  -647, -3604,   635,  -708,  -335,    -64,    74,   430,  -605,   714,   584,  -245,   381, // 1280
    
    // Out channel 20
     -4881, -2172,  -164,   626, -4236,  -322,   656,   919,   1001,   423,   133,   483,    64,   955,   660,   400,   -5613, -4914, -1855, -2704,   381,  -130, -2460, -1356,    636, -1316,   859,   245,   499,  1041,  1591,   641, // 1312
     -1158,   828,  1003,  1593, -2009, -1558, -1987, -1126,   1054, -1790,   550,  -944, -5599,   486,   156, -1980,     193, -1004,  1764,  -746,   549, -2282,  -361,    38,     61,  -638,  -869, -1794, -1327, -3832,  -442, -5414, // 1344
    
    // Out channel 21
     -1922, -1014,  -888,  -304, -1113,  1561,  -356,  -139,   -289, -1225,   161,  -432,   -11,   235,  -813, -1684,    -943, -1112,    37,    58,  -823,   132, -1381,  -218,    153,  -126,   184,  -356,  -915,  -581, -1137,   274, // 1376
        88,   -69,  -108,  -795, -1548,  -191,  1437, -1140,   1045, -1285,  1397,  -913, -1494, -1674,  -161,  -478,     397,  -464,   103,  -696, -1614,  -277,  -544,  -251,   -196,  -375,    -5,  -859, -1482,  -850,   -49, -1352, // 1408
    
    // Out channel 22
      -537,  -671,  -616,  -710,   103,  -564,   -65,   142,    598, -1641,    87,    -9,   137,   316,  -456,  -817,    -123,  -484,    32,   -63,  -596,  -139,  -708,  -211,   -599,   155,  -103,  -653,  -201,   137,  -235,   241, // 1440
      -134,   605,   -22,   103,   319,   -54,   113, -1107,   -108,  -709,  -807,  -202,  -582,   119,  -168,  -700,     291,  1247,   190, -1426,   -58,  -175,  -931,   243,    -88,  -545, -1101,  -310,  -742,  -132,  -362,  -166, // 1472
    
    // Out channel 23
     -3413,  -454, -2707, -1766, -3932,   -36, -1827, -1808,    332,  -985,  -175, -1032,  -140,  -114, -1653,  -393,   -2911, -1441,   -13,   -42, -2119,  -198, -2969,  -122,     79,  -270,  -184,  -453, -1880,  -714, -1154, -1071, // 1504
       -85,  -204, -2396,   535,  -870,    42,  1848,  1152,    500,  -824,   576, -1352, -2406,  -950,   495,  -565,    -148,  -106,   240,  -389,  -846,   506, -2809,   987,    173,  -996,  -350,  -605,   258, -3745,   195, -4048, // 1536
    
    // Out channel 24
      -118, -2126,  -390,  -938,  -132,   282, -5276, -2317,  -3133,  -752,  -111, -7510,   121,  -279, -1739,  -691,     160,  -119, -2701, -2941,  -391,   139,   154, -1950,  -1562,  -148, -5239, -1578, -4603, -3303,  1097,  2042, // 1568
     -2293, -4635, -4033,  1374,   -54, -2824,  -126,  -353,  -5496,  -364,   884,  -575,  -279, -6995, -1272, -1110,   -3690, -1728, -3156,  -637, -5140,  -981,  -270, -3189,   -104,  -678,  -206,  -297,   151,   -56,  -894,  -209, // 1600
    
    // Out channel 25
      -126,   114,  -810,  -770,    60,  -260,  -834,   153,    391,  -192,   236,  -326,   -79,   109,  -539,  -447,     -27,   108,  -311,  -114,  -280,  -136,   -96,  -652,    232,  -178,  -124,   735,   -64,  -461,   138,   478, // 1632
      -145, -1451, -1058,   306,   245,  -187,   -95, -1001,   -328,    10,    69,   207,   144,  -102,  -454,  -184,     505,  -120,   -11,   -49,  -237,   301,  -640,  -298,   -207,  -133,  -329,  -228,  -200,   -15,   357,  -175, // 1664
    
    // Out channel 26
     -2507, -2469, -3812, -2259, -1484,   536,  -920,   135,   -534, -3501,  -202,   -65,   -81,   358, -1065,  2017,   -1384, -1930,   156,    73, -4345,    41, -2721,   -90,   -433,  -794,   -36,  -887,  -947,  -405,  -457,  1722, // 1696
       -55,  -887,  -664,    88, -1279,   180,   264, -2257,   -807,  -913,  -459, -4269, -1828,  -487,  -401, -1632,   -1349,   235,   -33, -1696,  -927,  -200,  -355,   532,    -44,   298,  -181,  1768,  1168, -2239,    86, -3031, // 1728
    
    // Out channel 27
        54,   -74, -3126, -2722,  -453,  -777,   -95,  -460,    -51,   -49,  -133, -1147,   -91,  -238, -1258,  -635,    -672,   640,  -391,     4, -2899,   197, -1477,  -524,      5,   262, -2139,  -352,  -452,  -644,   133,    67, // 1760
        14,   740,  -201,  -341,  -546,    49,    28,   258,  -1099,   -81,   276,  -826,  -469,  -631, -1339,   -23,    -155,  -147, -1346,    38,  -655,   185,   699,   204,     68,  -384,  -118,   687,  -998,   404,   229,  -166, // 1792
    
    // Out channel 28
       -46,  -335,  -261,  -174,  -278,  -196,  -238,  -326,   -273,   -48,   112,  -441,  -153,  -175,  -229,    -5,    -191,   133,  -158,  -233,   157,   -51,  -187,  -154,    -35,   163,   -94,    13,  -477,   128,    59,   -36, // 1824
      -275,    -9,   128,  -197,   255,  -342,  -289,  -231,     95,  -309,  -182,   -29,   -59,  -110,  -306,  -252,    -496,  -221,   223,  -139,  -161,  -155,    -9,   -51,    187,  -271,   -77,  -177,    75,  -209,  -107,  -162, // 1856
    
    // Out channel 29
     -2474, -1288, -2107, -1923, -1553,  -627,  -761,  -588,    -57,  -178,  -117, -1157,   -72,   115,     2,  -936,   -2559, -1710, -2068, -1889,  -607,     6, -1610, -2326,   -468, -1511,  -899,  -207,  -616,  -576,   170,   107, // 1888
     -1115,  -381,  -619,   307, -2233, -1857, -2711, -2221,  -1178, -3494,   513,  -435, -1674,  -924, -1041, -1542,     -52, -2356, -1948,  -560,  -837, -1436,  -797,    37,      1,  -729,  -321, -1609, -2017, -2011, -2171, -2846, // 1920
    
    // Out channel 30
      -379,   223,  1765,  -170,  -119,   128,   158,   852,   -867,    57,    13, -2586,   -29,  -308,   146,  -291,    -383,   534,    40,    10,  -201,    50, -1139,  -629,  -3400,    53, -1316,  2319,  -154,   462,  -587, -1904, // 1952
      -100,   334,   145, -1595,  -356,   -27,  -642,   -59,    284,   115, -2297, -1787,   538,   -17,  -782,   351,    -613,    43, -1133,    68,    72,  1163,  -359,   375,   -231,  -808,  -366, -1125,   211,    43,  -240,  -511, // 1984
    
    // Out channel 31
      -579,    70,  -242,  -795,  -863,  -743,  -686,   -79,     57,   800,     5,  -218,  -266,   -76,  -694, -1103,    -760,  -358,  -477,  -153,  -396,  -154,  -507,  -702,   -114,    -1, -2016,  -157,  -220,  -162,   151,   192, // 2016
       -42,   384,  -723,   -17,   568,  -147,  -641,   154,  -1040,  -607,   336,  -304,   -41,   -73,  -152,  -492,     204,     7,  -842, -1083,  -138,  -380, -1798,   202,   -104,  -348,  -124,    33,  -851, -1043,  -378,  -595, // 2048
    
    
};

const int16_t cg_FC3bias[32] = { // Co,H,W,Ci: (32,)
      -568, -2397,  -541,  2190,  -872,  -793,  -730,   543,    713,   600,   -29,  2836,   241,  3140,  -389, -5779,    3147, -4024,  1619, -3630, -4282,  -557, -3720,  -537,   2506, -4034, -1649, -1441, -1071,   426, -1699,  -974, // 32
    
};

const int16_t cg_FC4weit[32] = { // Co,H,W,Ci: (1, 32)
    // Out channel 0
      1258,  -778,   -13,  4267, -1956,  -2220,   571, -4445,  1853,  1471,    1022,  2968,  -918,  4848, -1106,  -1037, -5137,  1648, -5581,  2324, // 20
     -1899, -1750, -2025, -1274, -3341,    529, -1996, -1532,  1006,  4777,     905, -1836,
    
};

const int16_t cg_FC4bias[1] = { // Co,H,W,Ci: (1,)
     -7528,
};

