#include <stdint.h>
const int16_t cg_FC1weit[512] = { // Co,H,W,Ci: (64, 8)
    // Out channel 0
       731,   643,  -282,  -373,   122,   503, -1569,  -576, 
    // Out channel 1
     -1991,  -127,  -321,   729,  3630,  -872,   749,  -464, 
    // Out channel 2
       -38,    -5,   163,   729,   427,  -344,   290,  -385, 
    // Out channel 3
      1723, -2628, -4269,  3077,   676, -1961,   836,   748, 
    // Out channel 4
      2343,  -211, -1032, -3880,  1691,  -434,   226,   612, 
    // Out channel 5
      -130,   334,    48,  3057, -5235,  -459,   400,  2075, 
    // Out channel 6
      -787,   -19,   625,   939,  -604,  -827, -1888,   841, 
    // Out channel 7
      -276,  -599,  -413,   210,   795,   319,   657,   176, 
    // Out channel 8
     -2261, -1017,  1367,  2150, -1527,  1213,    57,  -609, 
    // Out channel 9
      -352, -1016,     4,   362,   689,   335,  -723,    12, 
    // Out channel 10
       278,   536,   489, -3094,  -131,   693,   310,   557, 
    // Out channel 11
      -146,  1599,   -73,   891, -1553, -1057,  -941,  2195, 
    // Out channel 12
      -353,   345,   351,   680,  2299,   140,  -917, -3242, 
    // Out channel 13
        71,   403,    79,  -292,   -17,   196, -4366,   -50, 
    // Out channel 14
       276,  2110,  1064,  -668,  -453,  1617, -3246,    59, 
    // Out channel 15
     -1200,   520,   -48,  3796,   169,  -644,  -406,   798, 
    // Out channel 16
      -214,   805,   280,  1437,  -346,   621,  -960,  -692, 
    // Out channel 17
      1047, -3493, -1266,  -532,  1268,   726,   369, -1085, 
    // Out channel 18
     -2203,  -722,  1572,   441,  -631,  -215,  -150,   416, 
    // Out channel 19
      -287,    16,   242,   720,  -905, -1449,  -528,   755, 
    // Out channel 20
      -309, -1811,   228,   182,   -76,  -165,  -259,   100, 
    // Out channel 21
       300,  -117,   575,  -957,  -262,   755,   348,   447, 
    // Out channel 22
      -454, -5102,   360,   258,    72,  -333,    65,   117, 
    // Out channel 23
        23,    72,  -227, -1998,  1414,   185,   440,  -834, 
    // Out channel 24
       120,  -200,  -432,   256,   448,   224, -4194,  -225, 
    // Out channel 25
      -208,    19,   433,   153,    82, -1458,  -915,   889, 
    // Out channel 26
       861, -2859, -2265,  3100, -1194,  -762,   104,   703, 
    // Out channel 27
        68,   429,   892, -2033,  3273,  1987,  -691, -2465, 
    // Out channel 28
       489,  2291,   328, -3526,  3450,    98, -2613, -1089, 
    // Out channel 29
      1125,   576, -1771,  -623,  5748, -4452, -1162,  -268, 
    // Out channel 30
       570,    76,  -714,    69,  -620,   883, -1162,   399, 
    // Out channel 31
     -2347,  -783,  1887,  3922, -7204,  1692,  -710,  1886, 
    // Out channel 32
       339,  -668, -1744,  -179,  1330,   603,  -373,  -850, 
    // Out channel 33
       548,  -177, -2273,  2844,   956, -3438, -1519,  1983, 
    // Out channel 34
       -52, -2313,    11,   352,   -99,  -748,  1193,   523, 
    // Out channel 35
      -186, -1312,   933, -2200,  2351, -1370,  -132,  -218, 
    // Out channel 36
       662,   535, -1157,  -176,   543,  1089, -3148, -1046, 
    // Out channel 37
      -317, -2311,  -157,   465,   163,   -96, -1522,   -65, 
    // Out channel 38
       819, -1507,  -278,   310,   283,   -99,   698,  -678, 
    // Out channel 39
       -35,    -6,   324,  -140,   497,   713, -3997,  -943, 
    // Out channel 40
      -486,  1091,  -593,   316,   787,  -801,   394,   442, 
    // Out channel 41
     -1360,   -24,   701,  1032,  1222,   235,   491,  -503, 
    // Out channel 42
      -145,    66,  -408,  1970,   491,  -770,   300,   547, 
    // Out channel 43
        -8, -1329,   641,  -337,  -166,   442,  -923,   860, 
    // Out channel 44
       576, -2328,   699, -1758,  -237,  2379,  1223, -1545, 
    // Out channel 45
      -230, -3443,  -515,  2520, -2328,   659,  2499,   148, 
    // Out channel 46
       312,   576,  -167,   571,  -410,   425,   -60,  -568, 
    // Out channel 47
       721,   706,   -27,  -260,   268,   256,   447, -1042, 
    // Out channel 48
     -1766,  1578,   799,  2133,  -648,   380, -1526,  -621, 
    // Out channel 49
        -4, -1349,   842,  -684,  -986,  -194,   679,   625, 
    // Out channel 50
       108,  1023,   197, -1196,  2051, -1631, -3159,   690, 
    // Out channel 51
       779, -1115, -1274,   600,  4424,    52,  2729, -4184, 
    // Out channel 52
        86,   269,    88,  -116,  -276, -1158,   229,   139, 
    // Out channel 53
       183,   395,   221,   132,    38,   -90,    54,   -86, 
    // Out channel 54
      -328,   355,   -58,   -87,  -780,    96,   751,  -598, 
    // Out channel 55
       644, -1790,   451, -1128,   701,   686, -1911,  -401, 
    // Out channel 56
      -706, -1900,    93,   -68,  -176,   324,    25,   104, 
    // Out channel 57
     -2610,   642,  1030,  2064,   186,  -717,  -479,     5, 
    // Out channel 58
       558,   287, -1050,   312,   320,   414,   -67, -1017, 
    // Out channel 59
     -1219,  1142,  -152,  2086,  -946, -1801, -1233,   897, 
    // Out channel 60
       153, -1196,   463, -2958,  4411,  1951,   660, -3850, 
    // Out channel 61
      -855,   753,   562, -1071,  -740,   565,  -540,  -498, 
    // Out channel 62
       137,   465,  -256,    97,  -351,   313,   720,  -842, 
    // Out channel 63
      -849, -1016,  1278,    -3, -2301,  1953, -1599,   133, 
    
};

const int16_t cg_FC1bias[64] = { // Co,H,W,Ci: (64,)
       418,  -764, -1412,   813,  1137,   128,   253,  -573,    513,  -774,    15, -1128,  1394,   478, -4076, -5241,    -886,   759,   969,  1255,  1021, -1705,   796,  2056,    685,   358,   712, -1831,   868,   638,  -475,   620, // 32
      1021,   116,   504,   961,  1103,   874,  -739,   827,     88, -1347, -1743, -1425,   545,   515,  -485,  -655,     284,  -122,    39,   501,   384, -1032,  2392,  -442,   1086,   811,  1787,  2127,   713,  2002,   258,   960, // 64
    
};

const int16_t cg_FC2weit[3072] = { // Co,H,W,Ci: (48, 64)
    // Out channel 0
       295,   425,   -19,  -280,   505,   651,  1264,  -166,    478,   426,   235,   -26,   591,   329,   605,   369,     -60,   209,  1178,  1704,   609,   177,   459,    89,   -397,  1492,  -206,   213,    44,  1114,    56,    94, // 32
      -376,   406,   347,  1375,  -363,   109,   293,   129,    253,   410,  -345,   245,   -74,   -55,   634,   700,     178,   921,  1127,  -423,  2306,   100,   256,   623,    331,   466,   235,   670,   -26,  -108,  1367,  -310, // 64
    
    // Out channel 1
        12,  -142,   -35,   539,   273,   364,  -529,   922,   -269,   113,   714,   124,   210,     4,   -57,   559,    -839,   911,    18,  -201,   160,    45,  -133,  -334,     72,  -206,   -12,  -485,   507,  -471,   493,  -376, // 96
       244,  -184,     4,   149,   577,   296,  -225,    35,    -76,  -698,  -983,  -624,   540,   312,  -161,   171,     315,    24,  -111,  -130,   -29,  -469,   266,   144,    259,  -405,   453,  -263,   -71,  -580,   212,   179, // 128
    
    // Out channel 2
        46,   -85,  -149,  -173,   894,   356,  -429,   477,    435,   600,  1784,   153,   319,   363,  -155,   113,    -359,  -356,   474,  -525,   804,   114,   260,   497,    209,  -464,  -949,  -271,   754,   129,   605,  -407, // 160
       633,  -136,  -185,   628,   -82,     5,  -152,   -11,    628,    36,   324,   110,   -47,   131,   -90,   391,    -801,  -251,   366,   -30,   625,   301,   101,   120,    794,   184,   278,  -336,  -149,   228,   139,  -143, // 192
    
    // Out channel 3
      -857,   455,  -128,    -1, -1595,   209,   705,    93,   1140,   201,  -315,   338,  -315,  -112, -1221, -1952,     729,  -436,    81,  -756,   894,   486,  -329,  -352,    324,   602,   318,  -478,  -597,   206,  -762,   389, // 224
     -1105,  -208, -1009,  -113,  -271,   721,  -483,    57,    140,   355,   639,  -411,   -49,   139,   138,   375,     458,    29,  -303,  1098,   -77,  -882,  -131,  -436,   -377,   632,  1014,   463,   237,   193,  -236,   128, // 256
    
    // Out channel 4
      -159, -1247,   402,  -694,   -58,  -403,  -100,  -640,   -101,  -411,  -168,  -484,  -115,   263,  -308,  -198,      80,  -229,  -691,     0,    96,   479,   323, -1649,    170,    40,   -25,   293,  -204,  -388,  -281,  -200, // 288
      -654,  -175,   825,  -272,   205,   559,   435,   425,  -1521,  -261,  -124,  -256,   279,  -719,   320,   224,    -337,   337,  -719,  -464,    59,   358,   -40,  -356,    251,   343,    68,  -209,   147,  -883,   275,    95, // 320
    
    // Out channel 5
       604,    59,   403,   -75,    21,  -183,  -579,   373,   -307,   300,  -291,    -2,   897,   974,   -70,   379,      55,   125,   -26,   178,  -185,   138,  -342,     2,   1068,   100,   -38,   209,   -43,  -473,   585,  -569, // 352
       695,  -233,  -522,   606,  1828,   137,    41,   668,   -426,   -88,    21,    88,   302,    81,   513,    90,    -323,   376,    -1,   390,   632,   660,    90,   -89,    735,  -287,   274,  -163,   110,   200,   173,   220, // 384
    
    // Out channel 6
       707,  -238,  -150,  -361,  -335,  -130,   391,  -344,    166,   219,  -388,  -321,    93,  -621,   214,    20,     -74,    90,   321, -1109,   199,    22,  1039,  -111,    170,  -118,   317,  -293,  -375,  -654,   659,   609, // 416
      -636,   -58,   -75,   302,   293,   316,   -17,   314,   -215,  -388,  -216,   -51,   -26,  -233,   326,  -321,    -370,   207,  -264,  -844,  -845,  -296,  -659,   540,    404,  -398,   -50,  -758,  -131,  -420, -1203,   681, // 448
    
    // Out channel 7
      -559,   697,   205,   455,  -790,  -293,   172,  1042,   -135,   155,  -631,   585,   -17, -1403,   357,   -17,     -81,  -390,  -273,   600,  -837,  -734,   708,    -2,    381,   -79,   302,  -460,  -500,  -278,  -131,  -343, // 480
      -255,   901,  -961,  -401,  -103,  1001,  -189,    22,    607,    72,   566,  -495, -1960,  -591,  -515,  -938,    1189,  -414,  -228,  -542,    66,   -54,    21,  -294,   -531,   544,   374,  1072,   196,  -337,  -455,  -831, // 512
    
    // Out channel 8
      -143,   -34,  -564,   248,  -578,   615,   619,   483,    700,   138,  -484,    90,   601,    46,  -854, -1684,    1317,  -573,   269,   392,    62,  -515,  -632, -1084,     -1,   249,  -268,   392,  -240,   -57,   255,   189, // 544
       305,  -500,  -142,  -263,   316,   -26,  -473,   834,   -354,   261,  -219,  -802,  -683,  -898,  -154,   124,     976,  -392,  -218,  -122,   312,  -187,   -13,    79,    866,   391,  -125,    37,   661,  -492,   484,    36, // 576
    
    // Out channel 9
      -202,   388,    73,   960,  -418,  -106,   156,   147,    378,   379,   -37,  -409,  -431,   -84,    12,  -315,    -291,  -217,   687,  -239,  -794,  -533,  -654,   543,    598,  -915,   105,   447,   -89,  -224,   116,    -5, // 608
       235,   479,   359,  -301,   659,  -128,   173,   630,    221,   611,   113,  -171,  -457,  -524,  -769,  -750,      71,  -223,   205,   -93,  -127,  -763,   -31,  -436,     68,  1153,  -155,   649,   -49,   119,   -57,    38, // 640
    
    // Out channel 10
      -901,   652,   403,   342,   141,  -250,   417,   489,     87,   606,   199,   -40,   158,  -508,   -24,    54,    -114,   364,   358,    52,   169,  -129,   389,   233,     79,   125,    96,   182,  -643,   222,  -158,   -13, // 672
       490,    16,   474,  -208,   116,   157,   142,  -201,    106,   346,   -62,    53,   -90,  -110,  -323,  -699,     136,  -100,  -292,   263,  -183,    32,   -85,  -156,   1127,   358,  -217,   -66,   336,   322,    -4,   268, // 704
    
    // Out channel 11
      -309,   528,   629, -1087,  -494,   618,    56,   480,    418,   126,   537,   199,  -133,   445,   106,    -2,    -285,  -618,  1545,   288,   546,   426,   451,  -148,    553,   518,   -82,  -762,   -19,  -281,   206,   561, // 736
       108,  -504,   297,   827,   546,   122,   402,   610,   -275,   208,   148,   355,   182,   361,   258,   203,     -72,  1238,  -101,  -136,   511,   751,     5, -1060,    268,   769,  -917,   120,  -587,   -88,  -293,   233, // 768
    
    // Out channel 12
       751,  1010,   -24,   563,   448,  -651,   171,   577,    198,   272,  -159,   242,  -970,  -683,   256,  -334,    -462,   165,   106, -1244,   250,   304,  -625,  -293,   1216,  -459,  -110,  -313,  -945,   108,   648,  -436, // 800
      -728,   -50,   205,    58,  -929,  1113,  -542,   496,   -212,   387,   362,   -57,  -239,   -75,  -285,   312,      76,   305,   191,  1033,   470,  -181,  -993,  -402,   -594,  1234,   499, -1485,   280,   227,    22,  -135, // 832
    
    // Out channel 13
      -776,  -219,  -328,  -277,  -851,   310,   413,  -710,    631,   -81,   198,  -670,  -756,  -162,   869,   501,    -347,  -341,  1045,  -179,   811, -1257,   956,  -168,    470,   263,    15,  -643,  -730,  -575, -1365,   149, // 864
       196,  -796,   127,   487,    11,  -285,  -163,   113,   -647,    -5,    45,  -475,   244,    44,  -309,   205,    -307,   652,  -488,  -532,   -25,   384,   122,  -737,    683,   387,  -312,   105,   -19,    23,   320,   373, // 896
    
    // Out channel 14
       486,  -715,   508,  -746,  -168,   875,   136,  -479,   -252, -1416,    29,     9,  -155,  1570,  -592,   240,     105,    79,  -515,   652,  -248,     6,   464,  -308,    526,   167,  -171,  -181,   307,   281,   236,   165, // 928
       148,  -353,  -662,  -819,   450,   481,  -317,   757,   -166, -1230,    10,  -610,    73,  -379,   -60,  -121,      68,  -343,  -160,  -812,   743,   175,   301,   589,     -7,  -657,  -686,   293,  -606,     2,  -195,  1420, // 960
    
    // Out channel 15
      -234,   710,  -467,  -257,  -562,   306,  -228,  -752,   -168,   351,  -265,   133,  1292,    78,  -337,  -492,    1913,  -182,  -463,   -61,   367,   -47,   308, -1021,    134,  -102,   453,   396,  -120,  -109,  -423,  -172, // 992
      -261,   319,   468,  -818,    16,   123,   147,  -534,     19,    18,   -36,    -5,   -89,  -492,   693,   377,     451,   369,   112,    26,  -435,    49,  -555,   381,    625,    -4,  -514,  -218,   122,  1957,   372,  -171, // 1024
    
    // Out channel 16
       349,   -40,   262,   442,  -462,   936,   619,  1209,    857,   482,    51,   -82,   187,  -328,  -139,   502,    -326,  -115, -1181,   469,   -24,   -96,   576,   167,    108,  -631,   169,  -640,  -233,  -791,    60,   935, // 1056
       718,  -295,  -545,  -314,   314,  -180,  -502,   425,   -265,  -262,    -2,  -918,  -234,   501,   438,   384,     131,   783,    36,   -96,   161,    55,  -216,  -366,    -12,   363,  1494, -1226,  -267,  -371,  -719,    67, // 1088
    
    // Out channel 17
       395,   487,   205,  -246,  -128,  -432,   -84,   -63,    150,   648,  -889,  -566,  1562,  -617,   208,   311,      75,   -54,   -75,   329,   741,   345,   741,    -5,   -621,   315,  -571,  -427, -1288,   776,  -748,  -756, // 1120
      -731,  -502,   173,   662,   333,   124,  -460,   365,   -260,  -476,  -505,  -217,  -377,  -266,   157,   206,     433,   311, -1540,   -94,   259,  -331,  -119,  -495,    287,  -214,  -138,   167,  1085,  -262,  1036,  -312, // 1152
    
    // Out channel 18
       201, -1201,   252,  -269,  -372,  -464,  -157,  -252,   -648,   414,   472,    52,   -82,  2038,  -399,    35,      11,  -689,   487,   -53,   128,  -401,  -347,    53,   1112,  -564,  -143,   395,   -43,   501,   222,   348, // 1184
       208,  -262,  -280,  -653,  1368,   213,   -81,   212,     -6,  -709,   -24,   234,  -595,  -384,  -884, -1048,      -7,   -36,  -110,  -538,  -223,  -367,   211,   -70,    400,  -502,   303,  -222,  -330,   390,   509,    98, // 1216
    
    // Out channel 19
       232,   231,   581,   748,  -290,    46,  -675,  -213,     27,  -331,   304, -1073,  -393,   925,  -913,   189,     271,   721,   212,  -484,   522,    76,   497,   -77,   1170, -1028,   769,  -522,  -337,  -511,  -435,   652, // 1248
      -204,  -202,   361,   -75,   515,   574,  -254,   325,    347,  -456,  -277,  -514,  -204,   413,   625,  -293,     152,   215,  -713,  -811,  -789,   558,  -480,   175,   1075,  -218,  -350,   -72,  -239,  -284,   -12,   849, // 1280
    
    // Out channel 20
       203,   107,   375,   454,  -180,    90,   179,    92,    223,    80,   -36,   911,   107,  3618,  -338,  -255,      45,   613,   116,    81,   439,   850,  2156,   -39,   2377,   233,   356,  -194,  -257,   304,   253,   161, // 1312
       221,   -87,   335,   335,   482,  3128,  -685,   970,    -55,  -161,  -110,   -28,   -10,   254,    58,   108,     170,   455,   -58,   -31,    18,   505,    30,   262,     49,  -134,   247,   -16,   277,    11,   104,   -38, // 1344
    
    // Out channel 21
      -627,   278,   -70,   798,    29,  -218,  -417,  -186,     81,   262,    41,  -260,   105,  -143,   -25,  -505,    -225,  1354,  -762,   318,   472,  -370,   497,  -365,    234,  -682,   625,  -191,  -279,   229,   -92,  -588, // 1376
       905,  -380,  -113,   163,  -742,  1381,   -95,  -504,   -785,   278,  -119,  -803,   208,    30,   561,   476,   -1282, -1252,   251,  1009,  -599,   461,  -372,   679,    592,   -30,   974,    21,  1577,    71,   -19,  -224, // 1408
    
    // Out channel 22
      -217,   127,  -373,  -925,  -999,   434,   527,   524,    846,   211,    21,   848,   338,  -420,   -45,  -258,     295,   566,   196,    87,  -233,   529,   128,  -669,    403,  -319,  -671,   351,  -336,  -592,   763,   539, // 1440
       326,  -586,  -173,    85,    21,   395,  -399,   388,   -408,   135,   218,  -570,   453,  -178,   364,   212,     541,   265,    88,   143,    85,  -185, -1627,  -625,    553,   376,   333,   283,   360,  -385,  -179,   252, // 1472
    
    // Out channel 23
      -634,  -366,   -99,   302,  -755,   311,  -557,   321,   -115,  1277,   245,  -581,   -23,   -34,  -342,   -47,     619,  1505,  -364,   445,  -554,   -99,  1134,    -1,    619,  -460,  1243,   115,   153,  -166,  -151,   169, // 1504
       465,   -41,    30,  -373,   513,    68,  -171,   101,      3,   366,   108,   -30,   654,   743,   344,    60,     163,   -41,  -280,  -268,   -78,   112,  -181,   591,    -21,  -867,  -257, -1247,  -126,  -113,   339,   -41, // 1536
    
    // Out channel 24
       808,    30,   -61,   633,   486,   397,   188,   320,   -582,   395,  -380,    45,  -292,    33,    18,     3,    -229,  -677,  -671,  -154,   229,  -108,  -242,   325,     19,   174,   791,  -120,  -690,  1171,  1125,  -435, // 1568
       566,   942,  1139,  -257,  -237,  -239,   675,  -122,   -500,  -613,   646,   349,  -863,   109,   505,    80,    -994,   342,   329,   504,   898,   414,   119,   469,   -183, -1269,  -239,   117,  -485,   744,  -199,  -388, // 1600
    
    // Out channel 25
      -555,  -344,   327,  -783,  -494,  -389,  1594,   840,   -255,   501,   265,  -689,   725,   609, -1235,   784,    -145,  -364,  -485,   104,   656, -1029,   496,  -121,    809,   633,  -807,  -197,   251,   860,   361,  -834, // 1632
       908,  -128,  -578,   899,   300,  1368,   207,   563,   -399, -1335,  -337,  -530,  -324,  -621,  -320,   235,     367,  -358,   986,   -48,   351,   457,  -442,   403,   -330,   607,  -210,    64,  -304, -1004,   683,    27, // 1664
    
    // Out channel 26
     -1307,  -555,  1148,  -379,  -246,   500,   317,   576,   -513,   378,  -214,   427,    77,   138,  -735, -1129,     444,  1163,  -377,   307,    81,   993,  -542, -1397,   -145,   648,  -524,   211,  -810,    74,   406,  -364, // 1696
       352,  -395,  -772, -1078,  -691,   319,  -288,  -451,    574,  -223,   706,   145,   489,  -968,   -28,   479,    -462,   610,  -875,  -396,   491,   893,  -551,  1624,    339,   252,   209,   -48,   276, -1467,  -565,   932, // 1728
    
    // Out channel 27
      -533,   200,   588,   710,  -547,  -979,  -220,   197,    493,    71,    34,  -146,   220,  -354,    15,  -457,     214,    56,  -317,  -398,    76,   -63,  -264,  -242,   -264,   184,   277,   806,    20,   240,   -30,  -601, // 1760
       157,  -248,  -430,    43,   -11,   255,   325,  -349,    -56,   373,   343,   462,  -252,  -422,    12,   300,     147,   -25,     9,   172,   158,    96,   239,   326,   -362,   387,  -154,  -359,   259,  -449,  -200,    12, // 1792
    
    // Out channel 28
       450,   112,   302,   105,    69,   553,  -129,  -678,   1137,  -557,   218,   115,  -802,   239,   440,   469,     -74,   796,   -25,  -132,   443,   183,   608,   154,   -459,  -138,   362, -1166,  -420,   824,   288,    74, // 1824
       152,   -76,   157,   251,   -22,   107,     1,  -579,   -393,  -606,  -795,  -268,   353,  -200,  -216,  -534,     566,  -307,  -143,  -641,  -114,   -40,  -140,   297,   -325,   410,  1512,  -127,  -787,    58,    89,  -589, // 1856
    
    // Out channel 29
       381,  -973,   767,  1391,  -427,   410,   713,   112,    -28,    18,  -117,  -642,  -678,   373,   151,  -509,    -776,  -121,   469,  -434,    86,    44,  -113,  -469,    524,   714,   935,  -919,  -831,  -719,   592,   -60, // 1888
      1084,   205,  -362,  -689,   452,   296,   178,  -133,    -39,  -166,   205,  -362,  -327,   190,  -351,  -116,    -622, -1040,  -264,  -634,   358,   234,  -109,  -239,    327,   664,   806,  -912,  -543,  -637,   113,   303, // 1920
    
    // Out channel 30
       286,   -73,  -298,  -588,   208,  -829,  -430,   580,   -807,   205,   272,   -34,    25,  -579,   103,   -91,    -309,   307,   397,   343,   192,  -235,   153,  -516,    235,   342,  -866,   765,  1008,   486,   433,  -194, // 1952
     -1428,   138,   156,  1119,   121,   421,  -808,   579,   -278,  -790,  -157,  -306,  -394,  -879,   145,  -104,     150,  -113,  1508,  -506,   242,  -111,   346,    23,     67,    12,  -205,   751,   461,   -54,  -590,  -654, // 1984
    
    // Out channel 31
      -149, -1255,  -287,   306,  -162,   228,   965,    84,    415,  1622,  -192,   313,  -115,  1972,  -124,   -39,     331, -1009,    39,   302,   277,  -427,   429,   -79,   1379,   639,   616,  -183,   -98,  -651,   265,   610, // 2016
       737,   706,  -277,  -797,  -240,   954,    96,   123,   -312,   291,    32,   363,  -170,   271,   109,  -595,    -112,  -119,   979,  -310,   721,   224,   -90,  1177,    125,  -268, -1215,   391,  -598,   199,   704,   620, // 2048
    
    // Out channel 32
       -85,  -612,   742,  -295,   308,  -681,   112,   -11,    -64,   471,    34,    36,   544,   -19, -1257,  -323,      55,  1212,   313,  -288,  -368,   400,    90,   536,   -300,   329,  -153,   972,   966,  -706,  -823,  -630, // 2080
      1256,  -146,   687,  -964,   721,  -940,   831,   371,   -460,   453,   354,  1041,   672,   287,  -237,    84,     862,   451,  -421,   389,   290,   -60,  -407,   716,    609,   442,   531, -1258,  1050,  -611,   297,  -418, // 2112
    
    // Out channel 33
       382,   389,  -202, -1178,  -604,   494,  -258,  -612,    560,  -212,  -404,  -153,    72,  2211, -1058,  1691,     149,  -217,   733,   275,  -441,  -713,  -110,  -445,    487,   262,     2,   -95,  -304, -1362,   217,   278, // 2144
       415, -1293,  -409,  -271,  1209,  -100,  -258,  1141,   -525,  -791,  -855,  -566,   592,  -293,  -550,  -779,    -165,   -20,  -451,  -407,   272,  -483,   101,   183,   -191,   277,   859,   -51,    46,  -164,  -176,   397, // 2176
    
    // Out channel 34
        99,   231,  -127,  -398,   224,  -498,  -464,   135,    -34,   157,   285,  -158,   158,   108,  -456,   452,    -845,   535,   598,  -301,    43,   540,   674,   380,      7,  -638,  -737,   511,  1064,    36,   -45,  -317, // 2208
      -364, -1028,   -51,   700,   634,   383,   712,   -36,    -90,   300,  -862,  -233,   383, -1666,  -402,   -63,    -217,  -398,  -194,   -76,  -497,  -768,  -494,   -58,    533,    28,   420,    79,  1227,   -84,     9,  -250, // 2240
    
    // Out channel 35
       -58,   -13,  -257,  2480,  -480,   237,  -413,  -314,   -206,  -195,   257,   412,  -317,  -516,   287,  -688,     340,  1462,   923,    66,    90,   403,  -392,   -94,   1079,   671,  2024,   105,  -568,  -685,   601,  -320, // 2272
       658,   373,   -49,    51,   548,  1313,   175,  -359,   -220,  -168,    54,   -14,   -57,   397,   314,  -398,    -193,  -973,  -459,   603,   619,  -119,  -201,   445,    238,   625,   382,   488,   -22,   716,   213,  -612, // 2304
    
    // Out channel 36
       469,  -392,    34,  -193,    79,  -545,   173,  -333,    -46,   684,   278,  -180,  1207,  2119,    80,   -22,    -154,    91,  -105,  -393,   394,   233,   975,   305,   1544,    75,  -159,   228,   157,   386,   175,  -530, // 2336
        -5,   209,   121,   564,   405,    49,   111,  1018,   -413,  -412,    60,   765,   259,   -93,   255,  -283,    -303,  -180,   341,   144,    89,   127,    44,   859,    256,  -301,    10,   116,   342,   125,   212,   281, // 2368
    
    // Out channel 37
      -537,  -815,   365,  -855,  -629,  -478,  -313,  -524,    174,   306,  -684,   458,  -370,    93,  -569,   253,    -526,   423,   219,  -798,   250,   -29,    12,   -38,    436,  -400,  -344,   259,   344,  -129,  -431,  -791, // 2400
      -115,  -999,  -108,     9,   412,   506,  -947,  1024,     37,   472, -1005,  -386,   714,  -589,   388,   301,    1325,  -385,   282,  -551,   459,  -102,   111,   484,    779,   646,  -357,  -384,   604, -1569,  -333,   785, // 2432
    
    // Out channel 38
       255,   -63,  -181,   141,  -297,   303,   482,   411,    172,   -66,  -256,   -63,  -281,   -27,  -202,  -354,     842,  -650,   285,   651,  -899,   143,  -219,  -586,    109,  -364,  -350,   495,  -164,  -326,   813,   279, // 2464
      -374,  -878,  -786,  -623,   -63,  -127,  -131,   695,    733,    89,   -76,  -326,   368,  -254,   856,  -361,     580,   174,  -171,  -652,    45,   -77,   187,   272,   -119,   653,   409,   235,  -131,  -373,  -172,    50, // 2496
    
    // Out channel 39
      -127,   -38,   225,    91,  -250,  -110,   185,   200,   -294,   194,  -164,  -566,   193,   480,   299, -1025,     123,  -301,   544,   190,  1900,    80,  5889,  -144,   -121,   115,   -34,   -84,  -196,  -121,   482,   -43, // 2528
      -346,   459,  -171,  -180,   -10,  1311,  -173,  -235,    122,  -122,   235,   217,  -339,  -236,   237,     8,       7,  -331,    34,  -239,   167,   278,    89,  -250,    669,   588,   100,   205,  -279,   256,  -115,   -83, // 2560
    
    // Out channel 40
      -449,  -481,   120,  -111,  -301,    15,  -552,     2,   -142,    67,   229,  -421,   583,  -171,   314,   448,    -199,    50,    80,    -3,    34,  -568,  -213,   -56,    134,  -168,    43,  -195,    16,   257,    55,     4, // 2592
       395,   189,   -25,   516,   568,  -344,   169,   126,   -131,  -894,  -717,  -912,  -417,    23,  -602,   -12,     361,  -193,  -923,   365,    45,  -660,   530,  -331,   -921,   -32,   945,   140,   297,  -540,   801,  -627, // 2624
    
    // Out channel 41
       462,  1025,   186,  -154,  -278,   230,   248,  -483,   -179,   336,    61,   397,  1577,   499,  -944,  -602,     656,   255,   322,    79,  -435,  -583,  -245,   250,    401,   149,  -422,     7,  -312,   365,  -226,   306, // 2656
      -311,   -87,  -790,  -193,   133,   489,   515,   103,    476,    35,   298,   -82,    -9,  -510,   461,   -97,     424,    73,   114,   681,   734,   260,  -133,   223,     82,   748,   509,   221,   193,   136,  -125,  -266, // 2688
    
    // Out channel 42
      -104,   225,  -777,   353,   791,  -205,  -365,  -193,   -666,   123,   570,   -45,   249, -1473,   254,  -370,    -614,   465,  -148,   243,  -774,   284,  -175,   -51,   -399,   599,  -216,   348,  -106,    65,   -82,  -692, // 2720
       866,  -152,    -5,   781,   245,  -156,  -425,  -211,    224,  -567,    19,  -222,   379,   -88,  -100,    39,    -179,    36,   -70,   217,  -155,   359,    46,   576,   -244,  -223,  -327,   242,   670,   176,   322, -1378, // 2752
    
    // Out channel 43
       364,  -738,   181,   387,   312,   -11,   488,   -35,    558,   332,   -85,  -229,   155,   -21,    68,  -111,     114,  -473,  -231,  -219,   121,   426,   456,    -9,   -678,    70,   603,   136,  -843,  -851,    79,   -66, // 2784
      -230,  -532,  -290,  -155, -1507,   671,   -21,  -284,   -778,  -310,   192,   139,   431,  -106,    51,   -44,    -211,   -81,    -3,   619,   176,    15,  -229,     2,    495,   -85,    36,   190,   315,   300,  -289,   553, // 2816
    
    // Out channel 44
      -482,   253,  -539,  -113, -1143,   720,  -113,   -32,   1374,  1130,  -296,  -386,  -435,  -647,  -248,  -671,    -239,   212,  -295,   143,    -1,   -13,  1230, -1405,    453,   295,   634,  -962,  -982,  -290,  -458,   187, // 2848
        61,   464,   521,  -211,   957,  1000,   292,  -569,    176,  1167,   207,  -120,  -303,   333,   214,     0,    -850,   296, -1600,  -732,   232,  -344, -1214,   749,   -457,   363,   506,  -938,  -160,  1008,   344,     1, // 2880
    
    // Out channel 45
       481,   227, -1105,     9,   260,  -236,   354,    61,     27,    97,   842,  -458,  -123,  -594, -1876, -1637,     477,  -167,  -191,  -856,   549,  -107,  -340, -1055,    241,    -5,    99,  -112,   -55,   722,   254, -1793, // 2912
      -332,   760,   801,    44,     1,  1122,   110,   288,    184,    93,   901,  -347,  -928, -1155,  -303,   429,    -659,   315,   310,   -28,   159,   221, -2459,    38,    325,   137,   633,  -774,   -24,   942,   110,  -686, // 2944
    
    // Out channel 46
       -61,  -668,    38,  -690,  -574,    63,   371,   652,     37,   866,   411,   545,  -697,  -426,  -343,   104,    -368,    80,  -663,   156,  -635,   834,  -242,  -277,    259,  1234,  -447,  -164,  -769,   259,  -224,    83, // 2976
       -63,   126,  -128,  -668,   -58,  -143,  -209,   340,   -325,   167,  -396,  1025,   165,  -418,  -391, -1099,     464,   291,   192, -1526,   781,    84,  -302,  -229,   -316,    24,  -408,   252,   729,  -766,   -75,  -112, // 3008
    
    // Out channel 47
      -736,  -357,   -36,   -74,  -103,   269,   176,   155,     91,   598,  -105,    -2,   -22,  -440,   167,   337,      97,  -780,  -448,   222,   259,  -329,  -379,   408,   -104,    72,    91,  -248,   115,   -94,  -392,   515, // 3040
      -111,    40,   848,  -156,  -299,   360,    50, -1574,   -201,  -483,   571,   200,  -832,   123,  -550,   628,      27,   567,  -143,   279,   300,   490,   -18, -1024,    395,  -202,  -169,    47,  -737,   507,    73,  -407, // 3072
    
    
};

const int16_t cg_FC2bias[48] = { // Co,H,W,Ci: (48,)
     -3764,  -786, -1886,  -884,  2084, -2366,   888,  1359,   -361,  -189,  -487, -1159,  -430,  1786,   127,  -193,   -1339,   667,   688,  -284, -5446, -1030,  -606,  -892,   -885,    65,  -363,   737,   292,   101,   283, -1310, // 32
     -2501,   312,   289, -3138, -2730,   964,   558, -2969,   1240, -1605,   326,   217,   533,   128,  1808,  1219,  
};

const int16_t cg_FC3weit[1728] = { // Co,H,W,Ci: (36, 48)
    // Out channel 0
         1,   -76,   221,  -550,    39,    608,  -249,   468,  -456,   393,    -383, -1264,  -440,  -654,  -406,   -261,   142,  -130,   372,   248, // 20
       605,   475, -1089,   347, -1011,    550, -1127,  -111,   328,   167,    -370,  -183,   -87,   774,  -354,   -248,   264,  -127,  -318,    89, // 40
       333,   142,  -709,  -640,    55,    508,  -227,  -517,
    // Out channel 1
       464,  -191,   526,   321,   252,   -708,    16,  -403,   148,    65,     441,   863,   263,   483,   195,   -125,    13,   153,   116,   199, // 68
       521,   226,    87,   397,  -238,    -74,  -390,   -94,    61,   331,     293,  -745,    27,   406,   192,   -762,   -70,   143,  -302,  2631, // 88
       193,  -208,  -447,   161,  -111,    532,   292,  -510,
    // Out channel 2
     -1595,   384,   319,  -240,  -663,     42,  1475, -1042,   309, -1043,      21,  -581,  -808,   -10,  -558,    495,  -342,  -770,  -487,   476, // 116
       165,   580,  -204,  -495,   -55,   1289,  -201,  -322,  -167,  -831,    -166,  -309,  -952, -1052,  1089,    108,   295,   938,  -559,  -380, // 136
     -1255,  -258, -1882,    68,  -846,   -361,  -194,    62,
    // Out channel 3
      -267,  -601,    47,    23,  -555,   -384,   281,  -123,   570,   317,     475,   814,    64,   219,    32,    668, -1160,   153, -1539,  -430, // 164
       539, -1272,  -708,   545,     9,    509,   280,  -669,  -752,  -490,    -155,   344,   242,  -288,   301,    694,   742,   103,  -629,   344, // 184
      -565,   530,   184,   562,  -227,     86,   380,   636,
    // Out channel 4
       315,   287,   574,   427,   623,    791,  -261,  -339,   215,  -505,    -835,    21,  -840,   118,   212,    421,   457,  -650,    79,  -391, // 212
       200,  -329,  -574,   646,   480,  -1375,   607,  -713,   -65,   257,    -989,   117,   684,  -980,  1312,    608,  -983,   554,   719,  -185, // 232
       192,   363,  -292,   240,  -368,    982,   219,   385,
    // Out channel 5
      -102,  -213,   218,   490,  -427,    652,  -122,  -134,     3,    20,    -477,  -707,  -496,  -605,   523,   -270,  -116,  -285,  -786,  -274, // 260
       962,   499,  -231,   678,  -350,    -49,   634,   419,  -906,  -679,     415,   348,   519,     0,  -160,   -126,   243,    93,   317,  -166, // 280
      -619,  -401,  -232,  -366,   601,    -70,  -122,   -98,
    // Out channel 6
      -399,   703,   -73,   -88,   310,    299,   685,   -41,  -245,    80,    -962,   415,   475,     5,  -295,   -340,   -75,   646,   438,   277, // 308
      1480,  -599,   142,   262,    95,    -14,  -481,  -400,  -571,   -80,     234,   433,  -932,  -501,  -417,   -344,   770,   -39,   321,   165, // 328
     -1346,    70,   392,  -538,   889,    127,   402,   -95,
    // Out channel 7
        86,  1148,   325,   697,  -106,    823,  -361,   288,   634, -1368,      58,  -164,  -208,   -93,   353,   -153,   427,  -101,  -162,   -82, // 356
       483,    87,  -689,    -2,   277,    246,  -538,   269,  -554, -1439,     337,   890,   -87,   284,  -579,  -1372,  1075,   740,    28,  1326, // 376
       480,   530,  -922,   -67,  -805,   -124,   365,  -368,
    // Out channel 8
       288,  -958,   460,   436,  -164,   -638,   158,    22,   -18,  -554,     106,   550,  -417,   693,  -209,   -663,  -886,  -204,  -612,   400, // 404
       762,   391, -1335,  -994,  -872,    524,  -691,  -895,  -824,  -228,     968,  -246,  -373,   120, -1141,    330,  -440,   349, -1132,   561, // 424
       130, -1093,   740,   -36,   147,    550,   -20,   498,
    // Out channel 9
      -388,  -101,   709,   680,  -558,   -744,   588,  -327,   168,    55,    -262,   419,   479,  -895, -1345,   -654,   180,   183,  -511,   107, // 452
       755,   414,   563,   -73, -1154,    461,   313,   793, -1220,  -263,    -759,   -59,  -703,  -410,   542,    -17,   141,  1390,  -663,    30, // 472
       452,   200,  -310,  -509,  -407,    110,  -865,  -768,
    // Out channel 10
     -1347, -1166,  -747,  -592,  1117,     15,   563,  -671,  -328,    11,    -264,  1145,   227,  -371,  -586,   -567,  -189,  -905,  -137,  -702, // 500
      1404,  1500,  -665,  -395,  -328,   -619, -1157,   441,   -42,  -702,      12, -1045,   554,  -335,  -399,   -348,   708,  1294,   329,   679, // 520
      -209, -1024,   164,    49,   660,    299,  -750,   151,
    // Out channel 11
      -955,  -280,    46,   612, -1295,    411,   925,  -692,  -219,   204,    1010,   124,   164,  -600, -1072,    -94,  1170,   721,  -199,   637, // 548
      1603,  -548,   647,   459,  -420,     53,  -519,  -682,  -461,   609,    -920,  -107,  -122,  1099,  -103,    219,   326,  -506,   117,   275, // 568
       393,  -292,  -949,  -590,  1056,  -1488,  -131,   -16,
    // Out channel 12
       -40,   109,   -57,  -660,   549,    774,  -430,   209,  -624,  -503,    -191,  -491,  -483,    51,   -77,    581,   157,  -988,   -89,   836, // 596
       204,   535,  -188,  -264,    97,   1401,  -899,   251,    36,   200,     799, -1465,  -534,  -115,   411,    729,  -377,   260,   203,  -201, // 616
      -776,   193,   387,  -104,   -31,    536,   132,   286,
    // Out channel 13
       897,   129,   238,  -723,  -470,   -245,  -883, -1206,   129,   670,     600,  -802,  -889,  -803,  -330,    291,   577,   192,  -475,   707, // 644
      1467,  -465,   371,   512,  -340,   1189,    44,   478,    17,   434,    1007,  1218,   111,    43,   391,   -277,  -882,  -154,  -442,   145, // 664
      -614,   683,  -396,   431,  -219,    380,   438,   268,
    // Out channel 14
      -433,  -427, -1086,   -32,   167,   -234,   367, -1167,    15,  -213,     247,   393,  -247,   639, -1368,  -1348,  -521,  -271,   948,  1056, // 692
       107,  -148,    17,   444,   193,    196,  -403,  -192,   284,   197,    -456,  -313,  -238,   214,  -166,    763,  -784,    79,   440,   168, // 712
      -875, -1041,  -216,    39,   119,   -184,    -2,  -225,
    // Out channel 15
         6,   313,   -79,   -47,  -666,    572,  -538,   292,   733,   438,   -1072,  -197,  -695,  -465,  -580,    -27,   461,  -228,   255,    82, // 740
      1238,   -12,  -215,   626,   258,   -112,  -436,  -964,   536,   509,     198,   273,   447,  -700,   568,    691,  1214,   -37,  -432,   290, // 760
       150,  -121,    29, -1754,  -483,    942,   519,  -230,
    // Out channel 16
      -129,  -248,  -187,   765,   361,    439,    -2,  -104,  1307,   576,    -504,    36,   523,   697,  -448,    611,  -147,   225,   167,   619, // 788
       282,  -151,   871,   272,  -161,   -248,   562,   567, -1368,  -460,     -17,   317,   150,  -294,   232,    669,   902,   243,    42,  -427, // 808
       -36,  -649,   516,  -315,  -490,   -292,  -463,  -205,
    // Out channel 17
       370, -1626,  -783,   262,   671,   -102,   154,  -182,   389,  -157,    -156,   373,   228,   104,  -507,   -486,   990, -1009,  -870,   480, // 836
       111,   530,   -14,  -995,   343,    265,  -441,   533,  -390,   236,     428,  -758,   828,    63,   575,    -44,   720,   928,   209,  -772, // 856
      -489,   272,  -199,  -669,  -854,    556,   516,  -107,
    // Out channel 18
      -178,   576,  -457,  -494,   542,    740,   -10,  -549, -1020, -1100,    -355,  -265,   -71,  -457,   302,    185,   918, -1105,   240,  -329, // 884
      6378,  -485,  -368,  -889,  -430,    662,   651,    52,  -539,  -474,    -242,  -198,  -246,   554,  -190,    165,  1586,  1490,  -149,  3079, // 904
       220,   -23,  -120,   198,  -102,    520,  -105,   563,
    // Out channel 19
      -721,  -865,  -404,   530,  -195,    159,   497,    94,   298,   918,    -283,  -967,  -542,  -959,   216,   -270,    69,   695,  -315,  1184, // 932
      1513,  -957,   106,   -18,  -481,   1223,  -254,  -702,    93,   212,    -383,   352,  -524,   490,  -578,   -891,   -78,   152,  -367,  -109, // 952
      -425,   106,  -596,   236,   721,  -1105, -1043,  -911,
    // Out channel 20
      -318,  1262,  -139,  -991,   796,    354,  -325,   636,  -321,  1066,    1229,   665,  1065, -1015,   854,   -877,  -381,   647, -1081,  -540, // 980
       618,   170,   463,   369,  -419,    490,   669,   -79,  -399,   849,      63,   192, -1066,   581,  -642,    237,   180,  -234,  -221,   269, // 1000
        98, -1620,   264,     8,  -963,   -594,   -38,  -303,
    // Out channel 21
       826, -1472,    63,   179,  -124,   -889,  -552,  1022,   108,   303,    -291,   440,  -952,   806,   686,   -590,   193,   571,  -674,   504, // 1028
       783,  1249,   940,   465,  -162,   -452,  -112,   132,  -172,  -649,    -119,   314,  -250,   562, -1072,     44,   549,   537,   475,   513, // 1048
      1018,  -703,   338,   319,  -526,  -1155,   139,   -62,
    // Out channel 22
       -27,   -92,  -133,  -201,   -87,    497,  -209,    64, -1571,   600,     250,   251,   805,  1215,    75,    104,   -67,   506,  -137,   254, // 1076
      1605,   166,   310, -1428,  -235,   -256,    39,  -178,    59,   621,    -154,   185,    31,   198,  -371,   -420,   626,  -768,  -870,   904, // 1096
      -145,  -368,   474,  -182,    34,     62, -1083,   300,
    // Out channel 23
     -1063,  -106,  -589,   942,   505,     38,  -380,  -665, -1127, -1972,    -439,  -817,  -436,  -587,   381,     46,   304,  -501,  -660,  1731, // 1124
      2168,  1306,  -557,   830,  -483,   -212,   142,   229,   736,  -513,     832,  -332,   462,  -392,    86,   1411,  -782,  1211,  -956,    21, // 1144
      -432,  -148,  -222,   406,   480,   -545,  -154,   520,
    // Out channel 24
       344,   133,   674,   440,  -852,   -393,  -171,  -300, -1118,   776,    -568,  -136, -1318,  -836,  -574,   -637,   695,    24,  -480,  -549, // 1172
      1107,   467,  -338,   503,  -490,   1150,   458, -1390,  -287,  -473,     800,  -626,   252,   -40,    16,    805,   389,  1120,  -721,  -684, // 1192
      1064,   652,  -507,   715,   -97,   -867,   -41,   436,
    // Out channel 25
      -214,  -355,   837,  -830, -1269,    234,  -875,   614,  -217,   697,    -115,   367,   627,    82,   413,   -434,   129,  -255,   243,  -365, // 1220
       917,  -725,   843,    40,  -217,    389,   297,   -80,  -300,  -583,    -278,   187,   210,   273,   503,   -580,   362,    13,   548,  -134, // 1240
      -194,    25,   243,   269,  -922,    232,   -39,   442,
    // Out channel 26
      -171,  -971,  -272,   301,    99,   -407,   -59, -1308,   419,  -406,     316, -1394,   722,  -538,  -787,     68,    77,  1194,  -216,  -174, // 1268
      1795,   -30,  -430,  -651,  -426,   1210,   -37,   103,   -72,  -108,     870,  -258,    87,  -295, -1191,    595,  -473,  -695,  -682,   867, // 1288
       289,     3,  -156,   -16,   -72,    233,   213,   700,
    // Out channel 27
      -140,    93,   150,   421,   583,    370,  -120,   175,  -481,   649,     853,  -555,   377,   853,   -72,   -600,  -931,   241, -1072,  -115, // 1316
      -156,   679,   541,  -416, -1015,   -262,   221,  -387, -1083, -1291,    -710,   294,   -55, -1294,   599,    188,   169,   775,    63,   323, // 1336
      -189,  -800,   825, -1101,  -136,   -927,   181,   189,
    // Out channel 28
       620,    21,   265,     1,    -2,    -53,   555,   441,  -461,  -496,    -634,   -24,   243,  -801,    64,    131,   443,   653,    58,   695, // 1364
       659,  -131,    24,   501,  -115,   -381,   565,   701,   219,   391,    -397,   -67,  -149,   -91,  -226,   -130,   604,  -128,   327,   148, // 1384
       230,    31,   283,   371,  -374,   -133,  -653,  -514,
    // Out channel 29
        45,  -224,  -145,  -197,   272,   -352,   175,  -551,  -532,  -474,    -437,   -79,   734,   516,  -627,   -430, -1080,   816,   465,  1027, // 1412
       486,  -536,  -465,  -230, -1245,    885,    29,   254,   510,   -13,     263,    66,  -754,  -745,  -843,    688,  -580,   297, -1508,   735, // 1432
        66,  -653,  -886,    10,    -4,  -1216,  -823,  -807,
    // Out channel 30
       994,    47,  1073,  -528,   514,   1014,   303,  -978,  -273,    58,      44,  -756,   754,  -125,  -683,    868,   777,   653,   560,   564, // 1460
       873,   160,    24,   355,    93,   -284,  -355,   -38,  -407,  -353,    -682,  -667,   159,   455,   804,    544,   310,  1185,   724,  -464, // 1480
       593,   832,   -53,   447,  -692,   -576,   268,   577,
    // Out channel 31
       514,    40,   -12, -1421,   -14,    219, -1141,  -174,   435,   126,    -968,   537,  -120,   119,  -471,    102,   966,    39,   385,  -191, // 1508
        41,   -34,   -40,  -226,   -39,     12,  -470,   266,  1193,   353,     122,   448,   592,  -591,   391,    298,  -382,   575,   412,  -380, // 1528
       543,    42,   510,   155,  -139,    443,  -641,    48,
    // Out channel 32
       258,    31,   283,   -13,   296,   -863,  -415,  -331,  -639,  -503,     556,  -404,    20,     0,   572,    331,  -409,   206,   163,  -100, // 1556
       281,   -66,   632,  -442,   382,     13,   448,  -739,   -84,  -256,    -548,   111,   542,  -683,    79,   -351,  -409,   224,  -193,   390, // 1576
      -631,  -788,   650,    -1,   286,    -84,  -308,   634,
    // Out channel 33
       353,   249,  1444,   128,  -110,   -966,   -40,  -187,  -281,  -493,     710,   989,   185,   328,  -412,     70,   232,   334,   370,  -142, // 1604
       364,  -449,  -264,  -570,   320,   -525,   488,   605,    37,  -539,    -302,   264,   653,   292,  1085,     21,   237,  -243,   -89,   696, // 1624
       270,  -928,   -47,  -179,   177,    -40,    84,   550,
    // Out channel 34
       462,   141,  -455,  1207,  -646,   -160,   199,   116,  -914,   346,    -487,   124,  -391,  -600,   -91,    225,   227,   477,  -185,   311, // 1652
       240,  -256,  -897,   358,   120,    217,  -747,  -412,  -308,  1093,      -4,   226,  -849, -1416,    52,   1238,   -12,  -589, -1140,   683, // 1672
       366,   217,  -267,   -32,   694,    495, -1014,  -304,
    // Out channel 35
      -254,  -182,   200,  -433,  -440,   -786,   959,   523,   594,  -420,     -80,  -250,   328,   -10,   645,   -515,  -401,   393,  -626,   769, // 1700
       584,  -381,  -374,  -869,  -466,    557,   553,  -514,   -32,   617,     -29,   393,  -498, -1203, -1065,   -438,    33,   -17,   -34,   908, // 1720
       111,   355,  -422,  -531,   486,   -663,   506,  1645,
    
};

const int16_t cg_FC3bias[36] = { // Co,H,W,Ci: (36,)
      3217, -2545,  4962,   685,  -199,   1733,   142, -1181,  2728,  3146,    2371,  -273,   -17, -1248,  2225,   1281, -2257,   722, -4814,  2644, // 20
      -115, -2622,    41,  -171,  1031,    256,  1533,  1233, -1261,  4047,   -5559, -1296,   737, -1967,  3003,   -118,
};

const int16_t cg_FC4weit[2304] = { // Co,H,W,Ci: (64, 36)
    // Out channel 0
      2313, -1088,  3151, -4081, -2673,   657,  2776,  1400,   1811,  3205,  3203,    13,  -312,  -467, -3947,  2591,    -879, -3201,  5965,   118,   158, -2371,  3064,  3604,  -1238,   942, -1867,  2532,  3360,  3144, -1334, -2794, // 32
      4480, -1246,  -866,  -963,
    // Out channel 1
      -930,  4261,   565,   -47,   779,  -546,  1792,  1719,   1077,   205, -2086,   -66, -1530,  2978,  -561,  1187,    1899,   979,  4023,    34,  1518,   119,  2344,   269,    172,  3142, -1317,   890,   392,  -506,  -193,  -314, // 68
      -105,  1172,  -851,   186,
    // Out channel 2
       571,  1816,  -737,  2056, -2668, -2458,   176,  2890,   2182,  1559, -4612,  -327,  3020,  1869,   381,   543,    1677,   826,   350,  1232, -1302, -1190,   655, -2180,   -380,  1745, -2959, -3952, -1304,  -904,  2172,  -998, // 104
      1166, -1188,  1102,  2266,
    // Out channel 3
       190,   -71, -3540, -2734, -5174,  1763,  1784,  1473,  -2104,  4489, -1325, -4477, -2037,  1646,  -892,   835,     459,  1268,  2312,  3115,  -249, -1877,  1140, -5088,    916,   808,  1082,   234, -3861,  -479,   819,   285, // 140
      -220,  -859,   496,  -551,
    // Out channel 4
       806,  -539,   439, -1670,  1826, -1721,    27,  3081,  -1165,  2799,  2168, -1664,  -740,  -299, -2064, -4188,    -945,  1145,  1985,   186,   573,  1845,   716, -2663,    613, -4392,   281,  -700,  1435,   956, -1136,  -663, // 176
     -4383,    -5,   335,   136,
    // Out channel 5
      1336,  -663, -3523,  -887,   910,  1032,   782, -1711,    474,  1246,   452,    -3,  1299,  -377,   804,  1308,       9,  2153,  1195,   514, -2541,  1310,   -92,   531,    826,  1073, -6403,  1954,  -358,  1122, -2644,  2098, // 212
     -1384, -1719, -1708,   848,
    // Out channel 6
      -362,  -617,   456, -3282, -2812, -1201,   274,   162,    490, -2010,  1698, -1651,   -88, -3150,   550, -1275,    1257,  1758,  -460, -3065,  -254,   644,   821, -3252,    135,   709,  -679,   111,   437, -1520,  -536,  2701, // 248
      -617,   723,  -520,  2962,
    // Out channel 7
     -5518,  -924, -1487, -2196,   932,  2903,   920,   981,    859, -1468, -2302, -1589,   370,   333,   722,   466,     580,  -102, -1002,   167,  -420,   129,  -508,  1352,  -1215,   983,  3094,  1002,   251,  1617,  1748, -1859, // 284
      -338,   370,  -482,  1872,
    // Out channel 8
      -321,  1829,  -741, -1990,  2083,   426, -1212,   342,   -829,   -42,   539,   796, -2039,  1097,  2880,  -365,   -1444, -2230,  -423,  1495, -4000,   288,  -179,    23,   -364, -1483,  2656,   337,   592,  1816, -1932,  1701, // 320
      -252,   107,   219, -2272,
    // Out channel 9
       113,  -688,   914, -1406,  1151, -1130, -2454,  2125,  -1000,  3872,  1445,  2749, -3688, -1524,  -427,  1227,     687, -1377,  2136,  3264,  -219,   939,   775,  4094,    896, -5475,  1632, -3375,  -599,   730,  -310, -1368, // 356
       242, -1588, -3332,   272,
    // Out channel 10
      2478,  1116,  1488,  -428,   831,  -465,  3724,  -850,  -1036,   906, -1075,   -65, -3754,  -876, -2211,  6824,    1423,  -313,   417, -2271,  -362, -2581,   681,  4107,   1850,  2891,    -8,  2823,   -62,   913, -1246,  3057, // 392
      4041,   666,   917,  1162,
    // Out channel 11
      2599, -2263,  -199, -2705,  -484,  -205,  -374,  2764,   1197,   285,  1778,   326, -1349, -2636,   252,  -890,     104,  1137,  2006, -1218,   297, -1043,  3089,   920,   3609,  -691,  -305, -1307,  1710, -2068,  4684, -1200, // 428
      1580,   886,  2826,   729,
    // Out channel 12
      1661,   -22,  3581,  -406,  -972,  1618, -2593,  1658,  -1765, -2214, -2389,  1790,  1264, -1545,   533,   193,    2462,  1347,  2448,  -514,   312,  1768, -2447,  2886,  -1300, -2001, -5181,  2070, -2702, -2585,  2880, -2533, // 464
     -2955,  1555,  -973,    57,
    // Out channel 13
       120,  -753,  3344,  -246,  -161,   514, -5181, -3882,   1343, -1147,  -261, -3035,  1402,  1279, -3549,   367,    -415,   131,  -668,  -763, -2447,  -960,   721,   426,    881,  2824,   200,  -230,   184, -1762,   513,   388, // 500
      3024,   764,  2044,   -62,
    // Out channel 14
      -125,  -500, -3049,   180,    37,   686,  -839,  1068,   1800,  -431,  -301,  -774,  -652,   539,  -393,  -534,    -150, -2107,  -941,  -834,    66, -2233,  3336,  1735,   -799,  -340,  -297,  1449, -2204,   988,  -372, -1080, // 536
      2172,   221,   198,  -292,
    // Out channel 15
     -4275, -2170,  -259,  2029, -1382,   235,   632, -1185,    687,   290,   -31,   116,  1778,  1183,   752, -2873,     206,  2244, -3246,   195,  -631,  1062,  -748, -1643,   -345,   508,  1575,  1905,  -192, -2120,  -909,  1436, // 572
        22,  2324,  1295,   307,
    // Out channel 16
      -195, -3449,  1888, -1897,  3355,  1025,  1502,  1684,   -596,    14,  3149, -3348,  3407, -2369,  3119, -1723,    1460,  2257,   660,   191, -3579,  1751, -2023,  2256,    203, -3878,  -413, -2312,  1356,  4436,  -791,  1708, // 608
     -1380,  1626, -1375,  3002,
    // Out channel 17
     -1607,  3081, -1203,   871,  2817,   604,  1099,  -167,   2224,  1213, -2745, -2666,  -150,  2272, -1338,  -271,   -3464, -3833,  3061,  3349, -1085,   698,   128,  1881,   1685,  -560,   106,  -211, -2646,  1650, -2176,   -41, // 644
      2222, -1075,    54, -1445,
    // Out channel 18
       697,  3830,  1706,  4876,  2093, -1208,  -176, -1521,   1489, -4938, -2738,  -944,  2817, -1485,  2689,  2467,    2957,  2106,  1703, -2978,  1094,  -818,  -188, -1340,   3247,  3037,  -313, -1001,  1924, -3002,   259,  1997, // 680
      2853, -1985, -1948,  2713,
    // Out channel 19
      1082, -1590,   417,   530,  3245, -2621,   788,   656,  -1176,   397,   527, -4776, -3195, -2295, -1169,  1029,    3616, -2482,  1501, -1788, -1373,  2122,  1117,  2318,   -580,  1131,  1579, -3939,    82,  2729,  2675, -2302, // 716
      -218, -2765, -1044,  1541,
    // Out channel 20
      2827, -3936,  -512, -2599, -3277,   511,   -69,  1151,   2930, -2562,   104, -1669,   870,  -860, -1736,  1059,   -1366,    25,   136,  3039,  2430, -2624,  1792,  1624,   -804,  1435,  -873, -4408,  1884, -1912,   902,  -124, // 752
      -966, -1319, -1219, -5529,
    // Out channel 21
      -993,   692,  3284,  3729,   845,  -798,   105,   203,   1340, -3475,  1417,   -98,  1274,    92,   745,  1544,   -2601,  3678,  1425,  1882,   672, -3654, -1897,  1939,  -3371, -1440,  -902,  1495,  1267,   327,   357,   256, // 788
     -2196,   399, -2929,   685,
    // Out channel 22
       870,   292,   572, -2649,  1132,  -625,   -14,  1996,  -2139,  1109, -1564,  -242, -2199,  -850, -5836,  1925,     990,  2217,   931,  1704,   188, -2377,   667, -2067,  -1279,   469,   370, -3214, -1157,   271, -2262,   250, // 824
      1171,  -513, -1051,  -107,
    // Out channel 23
      -206,   776, -2132,   771,  1763,  1586,  -237, -4226,    269,   875,  -123,  -596, -5560,  -888,  -491, -2187,    1338, -1104,  -343,  -447, -2238,  1459,  2239,  1059,   1923, -1099,  1025, -1568, -1597, -3454,   208,   814, // 860
      1670,   430,   670,  1925,
    // Out channel 24
     -2113,   122, -1991,  1157, -2173,  -836,  2105, -1796,    517,   995,  -425,  1256,   811, -3453,   156,   149,     670,   670,   417,  2609, -2962, -3555,  -126,   841,  -3288, -2118,  -779,  1431, -1281, -1279, -1147, -2457, // 896
      -775,  1271, -1540,  3210,
    // Out channel 25
     -1107,   689,   491, -1004, -1268,    23, -1835,  1078,   2134,  -145,  1109,  1331,  1542,    99,    16, -1051,   -2779,   301, -2386,  1154,   322, -1243,  1141, -3912,  -1088,  -419,  1290,   736, -2418,  1879, -4549,   867, // 932
      1598,   -49,  -300,  -142,
    // Out channel 26
       -57,    61,   -65,  -221,   246,   -40,  -352,   -16,    162,    95,   216,   -87,  -182,  -176,   -32,    12,    -220,  -417,     7,  -185,   188,   121,    38,   261,     70,    45,   146,  -156,    36,   123,   131,   118, // 968
       -73,  -172,  -199,    64,
    // Out channel 27
      1559,   574,   826,   261,  -414,  3619, -2265, -1032,    120,   -24, -1265,  -282,  2387, -2131,  3193,  -665,    -872, -1571,  1594, -4713,   474, -1141,  1578, -2674,  -3004,   986, -2410,  2049,  -776,  1330, -1710,  1412, // 1004
     -1069, -1405,  -837, -1966,
    // Out channel 28
      -283,   787, -2739, -1292,  1406,  1452, -1102,   148,   1086,  1931,   260, -1372, -1221,  -691, -1683,   -57,     521, -3603,  -453, -2655,  -240,   -17,  1353,   806,  -3431,  -371,  -530,   140,   185,   254,  1188,  -640, // 1040
      1296,  -519,   629,   730,
    // Out channel 29
      2210,   -89, -1795,   407,   684,  -982,  -987,  -337,   -469, -2673, -1868,  -958,   884,   209,   401,  -442,    -252,  -602, -1724, -1191,  2204,  -306,  1685,  -901,    564,   350,   917,   203,   623,  -302,   720,   562, // 1076
      1148,  -453,   464,   266,
    // Out channel 30
       782,  1614,   119, -1756,   743,  -764,  2088,  -929,  -2729, -2274, -3070, -1118,   -63, -3454, -3915,  2460,    -125,   432,  -463,  -433,   -89,  1204,   239,  1746,   -586,  1199,   575, -1279, -1973, -2038,   645,  2274, // 1112
       448,  1112,   374, -2226,
    // Out channel 31
       589,   450,   206,   -50,   425,   894,  2706,  -435,  -2199,   937,  1529, -1964, -3897, -1201,  1003,   -87,    3814, -1278,  -163,  -667, -2816, -1648, -4117, -4033,  -1082,  -802,  2442,  -670,  2168, -3935,   120,  1363, // 1148
      1222,  1398,   627,  2295,
    // Out channel 32
     -4844,  -188,  1927,   464, -2361,    -1,  -740,  -918,    133,  2807,  2888,  3521,  1730,  1592, -1253,   150,    1916,  -471,  1979, -2002, -1892,  2678, -2748,  1112,  -3213, -2455,   215,  -341,  2661,  -236, -1033,  3051, // 1184
     -2701,  3115, -4670,  -303,
    // Out channel 33
      3068, -1327,   257,  -312, -1296,    87, -2556,  1323,  -1967,   720,  1734,   424,  -816,  -958,  1732, -1720,   -1294,  2761,  1366,  -169,  3091, -3175,  2068,    25,  -2050,  -783, -2313,  3530,  -408,  1895,  1089, -1426, // 1220
      1818,  3710,   282, -1215,
    // Out channel 34
     -1862,  -517, -3628,    -6,   -97,   654,   -70,   241,   1633,   869,  -406, -1935,  1157,   637,  -582,  -877,    -138, -2601, -1413,   943,   246, -2602,  2461,  1577,   -263,   382,    50,   959, -2888,  1138,  -185, -1719, // 1256
      2772,   262,   468,   918,
    // Out channel 35
     -1104,  -361,  1829,  -166, -1188,  -859,  -375,   184,   2735,  1775, -2570,  3413,   626,   708,  -215, -1641,    -468,  -455,  1336,  3836, -3675,   730, -3252, -1561,  -2561,  -100,  -583,  -883,    19,  -469,   461, -2306, // 1292
     -4054,   664, -3787,  1452,
    // Out channel 36
      1774, -3565,  1133, -3903,  -173, -3428, -1671, -1271,  -1228,   564,  -669,  -928, -1685,  -681,  -213,  2657,   -1407, -1693,  4786,  -794,  -380,  -581,  1056,  1280,   -222,  -368, -1000, -3765,  -307, -1763,  3427,  -420, // 1328
      2316, -2406, -3585, -2044,
    // Out channel 37
      -734,  -137, -1217,  -474,  1373, -1715,  2590,  -450,  -6334, -1701,  1660,   391,    51, -3299,  -186,   455,     795,  -752,   339,   334,  -107,  1671,  -860,  -558,   2818,   -64,   213, -2930,  2070, -4124,  -958,   -54, // 1364
       135,  -265,  1432,  1598,
    // Out channel 38
      -140,  3677, -2507,   483,  -230,  -428,   203,  -257,    429,  2019,  3318, -1472, -3190, -1086,  1363,  -353,     719, -2754,  3603,  -734,   361,   128,  2173,   -14,  -1377, -1743,   -75,  -969, -2262,  1138, -4434,  -558, // 1400
      -402,   966,  -863, -1582,
    // Out channel 39
      1598,  1748,  -201, -1769,  1391, -1789,   827,   528,   -612, -1592, -1808,  -410,  -774, -1007, -2948,  2537,    1213,  -326,  -814, -2691,   504, -1292,  -926,  1490,    929,   915,  -547, -1226,  -440, -1480,  -613,  2719, // 1436
       670, -1287,  -165,   870,
    // Out channel 40
     -4238, -2313, -3049,  -976,  2599,  1973,  4335, -3129,    550,  -109,  2598, -3154,  -405,  1426,   201, -2910,    -176,  1719, -2920,  1986,   127,   353, -1299,  -252,   1287,   -87,  2009,  2811, -3218,  2976,  1150,  5006, // 1472
       555,  2974,  -764,   754,
    // Out channel 41
      -500,  1012,  1793,  3481,  4809,  1272, -3937,   144,   1964,  2718,  -369, -4179, -4823,  2086, -4327,  1665,   -3504, -1150, -2299,  2125,  2918,  -294, -2472,  3065,   3191,  -992, -2083,  1071, -5827, -1238,  3665,  2278, // 1508
       969, -2029,  3763,   117,
    // Out channel 42
      -441,   836,   198,  -254,   -66,   537,  -286,  -933,  -3340,  2614,   351,   391,  1182,  1076,  1182, -1177,   -1747,   115,  -126,   730,   180, -1175,  -658,   862,   -338,   183,   -73,  -404,  1921,  -713,   556,  -583, // 1544
       724,   452,  -557, -2000,
    // Out channel 43
       675,   101,   534, -2579,  1617, -2487, -3547, -4390,   -490,  -788, -1412,   886,  2261,   -92,  -227,  1081,    2018,   630,  3975,   231,   865,   712,  -103,  2963,    903,   960,  -792, -1202,   464, -1602,   -59,  -767, // 1580
      1147,   522,   954,   205,
    // Out channel 44
       605,  1984,  -174,  -796,   582,   213,    21,  2036,   1327,  -799, -1737,  2712,  1186,   839,   650, -1754,     294,  1531, -3524, -2745,   154,  1890, -2113,  -869,   -582,  2123, -5706,   350,  1628, -6032,  -148,  1554, // 1616
     -3430, -3023,  -260, -2656,
    // Out channel 45
     -1293,   550, -1016, -5126,  1563,   852,  3634,  1094,    590,  -434, -3667,  -243, -2802, -2141, -2459,  2542,    -265,   -50,  -593, -1063,  1512, -4758, -1142,  1917,    198,   324,  1741,  -536,  2303,  1516, -1561,  2807, // 1652
      3407,  -667,  -775, -2924,
    // Out channel 46
       423, -2162,  1179,  -590,   571, -4661, -3858, -1602,  -1817,   367,  1661,  1582,   614, -2640, -2067,  2025,   -2905,   244,  -672,   229, -2085,  1131,  -664,  2439,    203,   776,  1500, -2681,  3016, -1371,   688,  -569, // 1688
     -1180,   887,   268,  1628,
    // Out channel 47
     -3191,  1617,  2098,  -494, -1252, -1989,  -532,   871,   -147,   723, -1493,  -200,  -301, -1673, -1974,   631,   -5015,  1634,  -601,  1447,   123,  1541, -2320, -2327,   2097,  3369,  -147, -1155, -1832,    56,  1839,  2329, // 1724
       679,  5107,   432,  2236,
    // Out channel 48
      1573,  3863, -1083, -4044,  -758,  -925,   398,   766,    105,  -371,  -189, -1371,    11,   289,  2515,  1443,    1426,  -563, -1263, -3607,  -939,  1822,  -648,  3310,  -1438,  -171,   -41, -2899,  2539,  1814,  1944,  2117, // 1760
      1603, -1733, -2129, -1660,
    // Out channel 49
      1507, -1261,   326, -2017, -3825,  2297,  -568,  1001,    985,   421,   689,  2089, -2033,  2500, -1689,  1942,    -731, -1763,   690,  -761,  1868, -2926,  1208,  1097,    157,   356,  2302, -1765,  -877, -1282,  2055, -3547, // 1796
     -2902, -1193,  1149, -3079,
    // Out channel 50
     -1974,  1052, -2719,    93,   619,  1434,     0,   534,   3242,  -129,  -966, -2050, -1197,   705,  -506,   716,   -1037, -3692,  -969, -1274, -1853, -1618,  2139,   857,   -160, -1344,  -420,  1569, -5161,  1454, -1592,  -881, // 1832
      2309,   856,   320, -1693,
    // Out channel 51
       310, -1230,  2147,  1528,  2426,  -755,  -309, -5120,    852, -1805,  -433,  2202,  1891,  1367,  -612,  -230,   -3806,  1400,  -299,   329,   814,   578,  1355,  4111,   1803,  -268,  1183, -1186, -1024,  -758,   503,  1027, // 1868
      -397,   913,  -126,  2492,
    // Out channel 52
     -3215,  1964,  2500,   524,  2881,   419,  3657,  1196,  -2076,  1386, -2771,  -670, -2384,  -910, -1433,  1222,    1583,   139,  1023,  1437,  -829, -1752,   725,  -226,   1713,   392,  1856,   494,   179,   -67, -1414,   312, // 1904
      1305,   279, -3024, -2672,
    // Out channel 53
      -738,    -4,   295, -1026,  1550, -3248,  -442,  -424,  -4744,  1513,  3255,   419,   328, -2937,   904,  -177,     235,   766, -3069, -2432,   588,   464, -2341,  -224,    347,  -874,    66,  -817,   242, -2877,   959,  2074, // 1940
      2176,  -571,  -824,   316,
    // Out channel 54
     -2569,  3661,   905,  2670, -2548, -3463,  1534,   934,   1219,  1064,  -570,  2197,   840,   822, -3084,   634,   -1463,  1655,   431,  2330,    10,  1151, -1711,  -456,   -406,   777,  1848, -1562,  -708,  -377,   200,   853, // 1976
      1234,  2732,  -857, -1353,
    // Out channel 55
      1375,  2358,  -216, -1539,  1821, -2702,   805,   970,   -835, -1150, -2128,   -17, -1723,  -928, -2044,  2997,    1019,   137, -1305, -3036,   174, -2027,  -564,  1794,     61,   -79,  -497,  -446,   514,  -443,  -725,  2951, // 2012
      1412, -1581,  -966,   280,
    // Out channel 56
       113, -1428,  1539,   265,  1399,  1555,  -286,  1517,  -2675,  2514,  1272,   595,  -582,  2033,  -873, -3024,   -1786,  -770,   287,  2575,   473, -1023,  -886, -2007,   1720, -2031,   162, -2486,  -112,   435,  1527, -5118, // 2048
      -859,   307, -2945,  1689,
    // Out channel 57
     -2732, -1683,  -710,  -516,   572,  3484,  2331,  1541,    801,  -589,   263,  1442,  -714,  1471,  -839,  1510,     736,   668,  1929,  1194, -2161,  3747,   579,   -61,   -759,  -258, -2586,  1496,  1476, -2892, -3045, -4543, // 2084
     -1849, -3029, -1483,   617,
    // Out channel 58
      -654, -1214, -4293, -1454,  -685,  2779,  -814,  3022,  -1684,  -673,  2051,  1362, -3708,   935, -1094, -1866,     122, -1968,  2748,  2073, -2091,   950,  -771,  -541,  -3781, -6056,  2963, -1083,  -508, -1230,   568,  2573, // 2120
      -794,   950,  -552, -3893,
    // Out channel 59
      1777,  -875,  1526,   447, -1773, -2237, -1087,  1514,    203,  -730, -3998,    29,  2032,   761,   928, -2104,   -1307,   -12, -1887,  2238,  1321, -4577,   669,   498,  -1591,     2,  1604,  -945,   524,  2195,  -409, -1783, // 2156
       -53,   -81, -3200,   596,
    // Out channel 60
      -174,  1111, -4086,   666,  1036,   635,    10,   248,   1687,   590,  1510,  1911,  -814,  1135, -1451, -1612,   -4098, -3953,   664,  1853,  1107,   125,  1569,  2227,   1781,   460,   847,   968, -2042,   -42,  -723,   168, // 2192
      -456,  -843,  -102,  -819,
    // Out channel 61
     -1827,  3627, -3820,  -829,  2051,  3161, -4639,   397,   2169,  3299,   389, -3367, -3924,   331, -2258,  -897,     272, -1414,  3173,   897,  -391,  1053,   628,  2218,   -285,  1352, -1281,  4521,    45,   967, -1568,  2078, // 2228
      1621,  -218,  1223,   666,
    // Out channel 62
      1110,   334,  2184,  1698, -2529,    96,   548,  1817,    914,    70,  -620,  1183,  2417,  -623,   469,  -732,     155,   208,  2478, -1387,  3507,   264, -2496, -1379,  -5365, -4417, -1313, -1223,   436, -2650, -2299,  2245, // 2264
      -803, -2085, -3877,   172,
    // Out channel 63
     -2109,   393,  -879,   416,   -40,   255,   798,  -937,   1980,   167,  -560, -1087,  1449,    30,  -252, -1953,   -1399, -1416, -2412,   596,  1211, -2481,  1874, -1913,   1069,  1287,   581,   325, -2637,   979,  -646,   -45, // 2300
      1384,  -163,   292,  1138,
    
};

const int16_t cg_FC4bias[64] = { // Co,H,W,Ci: (64,)
     -3894, -7601, -1468,   -39,   287,  -423,  2721,   523,    343,  -134, -6164, -4049,  -506,   887, -3554,  -512,   -3380,  -655, -2684,  -335,  1799, -2644,  -219,    26,   2212,  1006,  -736,   857,  1518,  1668,  1547,  -417, // 32
       236, -2525, -3406,  1877,  2978,  1527,   808, -2696,  -2406, -3220,  1114, -1058,  1556, -1619,  1186,    89,    -658,   524, -1005, -1286, -1763,   345,  -833, -3722,   1118,   556,  2885,  1400,   -80, -2904,  3322, -3261, // 64
    
};

const int16_t cg_FC5weit[2048] = { // Co,H,W,Ci: (32, 64)
    // Out channel 0
      -222,  -312,  -441,  -383,   -42,  -284,   376,    32,   -257,  -411,   165,  -453,  -209,   -74,    17,  -294,    -159,   248,   169,   207,  -191,  -316,   103,  -157,   -163,  -119,     7,   192,   688,   103,    74,    22, // 32
      -125,  -502,  -574,    61,   -33,  -541,    -5,    16,   -439,    43,  -145,  -446,    56,   185,  -352,  -363,     256,  -612,   214,  -219,    -5,    90,   219,    16,    -61,  -711,   257,   300,   238,  -179,   510,  -172, // 64
    
    // Out channel 1
      -235,   231,   125,   177,    43,  -293,    61,    39,    210,   119,  -173,   386,    60,   283,   -76,    -4,    -291,   -31,  -117,   -43,  -626,   279,   208,   329,   -430,   154,    -8,  -380,   100,   147,   -90,    62, // 96
      -119,  -570,   -85,   -19,   -57,   261,  -269,  -147,    428,   513,  -107,  -247,    63,    75,  -222,   174,     104,  -101,  -156,   163,   307,  -209,   -71,    -5,     36,   245,   269,  -107,    30,   414,   531,  -218, // 128
    
    // Out channel 2
       -54,   319,   631,  -414,   366,  -762,   126,  -163,    -56,    71,  -511,   383,    98,   -55,   255,  -161,    -105,  -143,   -20,   264,  -457,  -437,  -304,  -107,    692,   159,  -140,   199,   216,   418,    81,   604, // 160
       109,   695,  -249,   -46,    -9,   -65,  -393,   102,   -155, -1010,  -289,  -181,    31,  -119,   456,   -73,    -240,   591,   357,   -41,  -532,   238,  -206,  -285,   -745,  -111,   607,   919,   -24,  -133,   281,   -50, // 192
    
    // Out channel 3
       573,   354,  -148,  -619,   662,  -607,   108,  -156,    486,   899,   162, -1005,   563,  -134,   150,   428,     435,   -79,   152,  -614,   -69,  -241,  -412,  1152,   -621,  -564,   208,  -395,   514,    84,  -103,   -89, // 224
       114,  -462,   223,   466,  -190,   231,  -413,  -303,    590,  -338,   603,  -258,   157, -1520,  -307,  -736,    -618,   497,   142, -1456,  -598,  -396,   128,   439,    280,  -605,   553,  -778,  -244,   -45,   540,   -46, // 256
    
    // Out channel 4
       362,  -188,  -241,   403,    21,  -331,   -19,  -468,    341,   345,  -198,   -40,    -6,  -678,   186,   388,    -152,  -306, -1264,  -370,  -515,   214,  -519,    38,   -166,  -170,  -146,   113,   423,   518,   584,  -449, // 288
       -86,  -655,   379,   107,   179,  -426,  -396,   638,    618,  -529,   918,  -223,    57,     8,  -208,  -777,     233,   632,  -702,   393,   167,   228,    74,  -296,    -88,    37,    40,  -455,  -992,   151,  -446,  -166, // 320
    
    // Out channel 5
       413,  -135,  -143,    43,  -157,   453,  -729,    50,   -642,   274,  -144,     7,    41,  -433,  -405,    44,     -12,  -481,  -657,   433,   -27,   -59,  -166,   227,    553,   528,   149,   -43,  -399,  -594,   122,   -92, // 352
       170,  -121,  -351,   -48,    54,   -98,  -313,  -129,    316,   -97,  -285,  -500,   333,  -292,   372,  -298,      61,  -484,   595,  -665,   152,    38,    50,  -422,    290,   381,  -121,  -180,  -532,   -46,  -319,  -300, // 384
    
    // Out channel 6
       169,   -27,  -878,   173,   -79,  -603,  -578,    84,    333,    -1,  -410,  -794,   751,  -533,  -611,   402,     676,  -259,  1004,   230,   846,  -224,  -241,  1465,    320, -1638,  -189,    40,  -487,   -57,   168,   635, // 416
       305,  -408, -1367,   176,   216,   517,   478,   511,   -142,  -526,   462,  -554,  1107,   114,  -279, -1136,    -792,   -66, -1628,  -148,  -758,  1015,  -475,    73,   -487,  -250,  -305,  -273,   -52,  -713,  -448, -3229, // 448
    
    // Out channel 7
       239,   616,  -356,    -5,  -267,    64,  -226,  -838,   -290,   590,  -312,  -377,  -236,  -665,   358,   494,    -458,   316,  -281,   -34,   165,   -61,  -203,  -260,   -148,  -304,    -1,   434,   289,   -39,   678,   452, // 480
      -362,   389,   380,   213,   231,    80,  -286,     1,    139,   169,   114,  -533,   -47,   226,    81,    33,    -381,  -345,  -330,  -685,   157,   -97,   802,  -355,     88,  -318,   191,  -444,  -139,  -272,   837,   405, // 512
    
    // Out channel 8
      -243,  -455,  -125,   -99,  -176,  -350,   259,   -79,   -451,    73,   -62,   352,   106,   121,   136,  -882,    -351,  -477,   206,   113,   -46,  -588,  -114,   131,   -708,  -134,     1,   -88,   422,   217,   176,    69, // 544
      -180,   322,  -242,  -705,    97,   379,  -690,   156,   -390,  -221,   219,   402,   115,    30,   302,    38,     187,   -58,    54,   -67,   481,   381,  -221,   619,     97,  -317,    59,    33,   126,  -436,   578,  -173, // 576
    
    // Out channel 9
       -35,   244,    49,  -455,  -290,   -49,  -162,   192,    -78,  -445,   -17,    73,   689,  -314,  -492,   -51,     686,    90,   140,    25,  -595,   171,  -200,  -102,    370,    88,    45,    19,  -168,   -96,   454,  -289, // 608
       222,    70,  -381,     4, -1036,   115,   -31,  -514,    398,  -243,   -96,  -511,   -74,  -899,  -158,   131,    -505,  -310,   -86,  -153,  -208,  -318,  -211,  -491,   -166,   100,  -266,  -170,   227,   -52,   -24,  -246, // 640
    
    // Out channel 10
       389,   164,  -264,   -60,    12,  -366,    72,  -237,    176,   455,  -217,  -248,  -236,    56,  -159,   145,      86,   134,   216,  -136,    84,    68,  -143,  -295,    -36,   -82,   -44,   210,   -61,     0,   -28,  -346, // 672
      -501,  -144,  -615,  -173,  -282,  -469,  -161,    84,    122,    63,  -622,  -259,  -858,   -11,  -307,   -76,    -133,  -375,   246,   164,  -276, -1062,   -40,   159,    -50,  -550,   127,   107,   106,   -31,  -279,  -266, // 704
    
    // Out channel 11
       265,  -195,  -265,  -186,   280,   -22,  -339,    -1,    -94,   110,   -16,  -160,  -108,    76, -1020,  -172,     108,   161,  -170,     1,  -276,  -130,  -184,  -445,     39,    39,    10,  -143,   249,  -331,   131,   -41, // 736
      -211,   -71, -1114,    51,  -113,  -107,   283,   482,    -86,  -106,  -329,   221,  -270,   379,  -160,  -237,     -37,   -83, -1033,  -253,  -320,  -109,    18,   309,    -70,  -233,  -286,  -156,   137,  -138,  -216, -1460, // 768
    
    // Out channel 12
       169,  -146,   306,  -825,  -290,   -60,  1129,  -278,    187,  -791,    57,  -239,  1141,   656,  5586,   361,    -460,   659,  -393,   -29,  -803,   578,  1181,   483,     47, -1229,   -43,   -69,   276,    87,   652, -1299, // 800
      -285,  -894,  4974, -1039, -1379, -1931,  1042,  -896,   -106,  1504,   273,    81,  -827,   707,  -384,    30,    1319, -1012,   -64,    51,  1306, -2535,  -850,  -764,   1106,  -775,   824,  -253,  1454, -1156, -1319,  1608, // 832
    
    // Out channel 13
      -116, -1366,   155,   804, -1208,   496,  -193,  -364,   -809,   605,  -717,   375,   204,   819,   930, -2080,     -60,  -583,  -793,    64,  -310, -1011,   534,   -73,  -1063,  -498,    32,  -373,  -180,   158,   916,   674, // 864
      -238,   131,   600,   -29,   136,   279,  -970,  3027,   -366,  -346,   -63,    47,  -222,  2167,    59,   343,    -564,    90,   -34,   480,  1088,   146,    42,  4947,  -1553,  -272,  -287,  -437,   305,  -811,   247,   352, // 896
    
    // Out channel 14
       309,   -35,    91,   333,  -624,  -416,   460,  1076,    183,  -244,  -879,  -400,   178,    26,   181,   246,    -230,   575,  -428,  -280,    66,    16,   429,   -82,    389,   222,    11,    67,   766,   -71,  1081,   123, // 928
      -243,   262,   340,  -252,   501,   265,   157,   686,    621,  -554,  -137,    21,  -433,   944,   162,  -280,     -88,    14,    94,   184,   650,  -185,   417,   455,   -349,   143,   -46,  -209,   -76,   447,   468,   230, // 960
    
    // Out channel 15
       651,  -241,  -195,   -92,    53,   -24,  -320,  -338,   -229,   281,   415,   613,   208,  -310,  -124,  -289,     215,   229,  -260,  -173,   232,  -112,   -88,  -337,   -587,   119,   -43,    75,  -154,  -481,   365,   400, // 992
      -442,  -127,  -224,  -360,   131,  -171,   -57,  -667,  -1313,  -148,    81,   301,   265,  -396,    20,   -32,     -97,  -144,   271,   222,  -670,   166,  -543,  -695,   -194,  -522,   105,   209,   454,  -327,    24,    40, // 1024
    
    // Out channel 16
       669,  -245,  -248,  -321,   114,   559,   -80,  -660,   -210,   580,  -432, -1006,   355,  -353,  -622,  -150,     142,   -78,   289,  -376,   354,   212,  -337,   906,     87,   681,   -34,  -391,  -210,     6,  -112,   423, // 1056
      -615,  -376,  -194,   166,  -554,   212,  -187,   412,    190,  -231,  -338,  -347,   346,  -344,  -646, -1548,     114,    52,   -11,  -595,  -267,   500,   -55,  -211,     77,   418,  -283,  -354,  -231,  -300,    93,   -53, // 1088
    
    // Out channel 17
      -302,  -225,   191,   184,   402,  -271,   699,   433,   -113,  -349,   184,  -712,  1548,    82,  2072,   162,     180,   854,  -420,  -282,  -669,  -672,   576,   -95,     86,   272,    57,  -388,   942,   394,   632, -1285, // 1120
      -841,  -220,  1767,  -323,  -801,  -701,   116,   366,    327,   663,    60,  -611,  -870,   107, -1150,   238,     330,  -956,  1127,   327,   141, -1123,  -117,   299,     18,  -489,   135,  -299,   655,  -198,  -543,  1371, // 1152
    
    // Out channel 18
      -563,  -530,  -139,  -132,   138,  -204,   275,   208,     36,  -298,   140,  -165,  -264,    82,   604,  -281,     -60,   299,   183,   147,  -203,   -56,   127,    27,     82,  -289,   -59,   136,   227,   640,   -87,  -437, // 1184
        36,   -38,   222,  -261,    15,  -223,    97,  -373,    -14,   141,  -541,   111,  -156,  -773,   -84,   -47,     115,  -330,   202,   -93,  -421,   -74,   137,  -302,   -175,  -516,  -255,   153,   232,  -425,  -185,   125, // 1216
    
    // Out channel 19
       170,    80,  -309,   765,   229,  -545,   831,   -84,    696,  -895,   -77,    67,   162,   -56,   707,   913,     665,   194,  -558,  -788, -1548,  -380,  -132,   -86,    -30,   217,   -59,  -651,   -72,   402,   913,   255, // 1248
       463,  -836,   599,   528, -2192,    74,   -94,  -494,    222,   242,   653,  -555,  -474,  -956,   394,   149,     597,  -412,  -132,    94,   -58,  -723,  -262,  -583,   -600,   136,    74,  -135,   199,   309,   -61,   473, // 1280
    
    // Out channel 20
       143,   109,    64,   -54,  -471,   537,  -115,   151,   -139,    -1,   231,  -416,  -220,   309,  -432,   179,     298,   -17,  -699,  -629,   110,   154,  -476,  -100,    -28,   397,   -96,  -242,    62,  -158,  -370,   186, // 1312
      -127,   273,  -268,  -145,  -235,  -194,   195, -1250,    478,   143,   -84,  -123,  -350,  -533,  -440,   375,    -127,    45,  -121,   219,    40,  -140,   206, -1069,     -4,   -10,   268,   168,   -62,   232,    25,  -211, // 1344
    
    // Out channel 21
       250,   202,   519,  -186,   111,  -335,  -196,  -143,    269,    53,  -249,   -57,    66,  -528,  -338,    79,    -272,    97,   362,   586,  -472,  -370,  -294,   145,   -327, -1157,   -59,   527,    16,  -189,   -80,   -70, // 1376
      -342,    31,  -457,   -45,    87,   405,  -785,   -98,   -111,  -175,    12,   -89,   330,    11,   338,  -302,      86,   287,   -57,   146,    13,   120, -1110,    28,    266,  -197,  -190,  -293,    39,   -10,   192,  -527, // 1408
    
    // Out channel 22
       349,  -478,   272,   240,   -17,   -97,  -107,   370,    353,  -115,  -206,   320,  -332,   239,  -547,   390,    -138,   292,    83,   -52,  -297,   123,   120,    93,    132,    93,  -175,  -287,    67,  -580,  -917,   -93, // 1440
       650,    23,  -741,    24,  -284,  -546,  -223, -2550,   -282,   286,   107,  -279,    56,  -269,  -166,  -360,    -255,  -182,   849,  -197,    86,  -138,   147, -2359,   -180,   280,   162,   107,  -492,  -449,  -321,  -189, // 1472
    
    // Out channel 23
       157,  1288,    -5,   158,   -71,   387,  -323,   228,    -80,   246,  -298,  -440,   145,   -91,  1361,   127,    -405,   437,   216,  -213,   144,  -261,  -123,    49,    285,  -234,   -57,   -12,   620,  -175,   432,  -899, // 1504
      -677,   -40,  1067,  -907,  -124, -1121,   156,  -255,    364,   -54,  -151,  -163,  -935,   168,   -16,    65,    -332,  -323,   -45,    52,   120,  -437,   298,  -537,   -427,   337,  -412,   -47,  -155,    85,  -382,   675, // 1536
    
    // Out channel 24
        71,  1024,  -333,   160,    36,   464,  -349,   111,     -7,     0,    89,    99,   120,   -88,   -52,  -271,     485,    69,   279,    67,  -163,   314,   772,   494,    248,   396,    10,  -909,   473,  -128,   430,  -275, // 1568
       124,  -514,   770,  -333,   238,   129,  1004,   745,   -525,   386,   235,   294,  -139,   710,   180,   -78,     589,   353,   137,    85,  -351,  -351,  -329,  -318,    412,  -207, -1216,  -509,   241,   234,  -305,   707, // 1600
    
    // Out channel 25
      -539,  -870,  -530,   227,  -667,  -152,   325,  -193,     58,    69,  -456,   -98,     7,  -162,   645,  -967,    -683,  -333,    70,  -268,   212,  -349,   635,  -154,    -22,   104,   -79,  -933,   -65,  -154,   283,  -242, // 1632
       155,  -207,   518,  -286,   386,  -229,  -133,   328,   -435,  -156,  -383,   305,   -20,   751,   659,  -600,     526,   183,   108,    -9,   882,   537,   187,  1066,   -538,  -426,  -661,  -296,   585,  -521,  -165,   528, // 1664
    
    // Out channel 26
        78,   -92,   485,  -534,   -74,  -229,    13,  -208,    471,   167,  -135,   -17,   -86,   -31,  -230,   -54,     -97,  -240,   257,   256,    83,  -914,   106,   -32,    299,  -286,   -36,   320,    77,   298,   -24,     5, // 1696
        19,  -631,  -439,   114,    19,    67,  -263,  -569,    -67,   -84,  -220,   -73,   120,    62,   271,   -97,      45,   282,  -272,  -297,   179,   -73,  -535,  -154,   -369,  -195,   -26,  -108,   244,  -505,   -25,  -603, // 1728
    
    // Out channel 27
       114,   -62,  -436,   393,   124,  -308,    59,  -478,   -548,  -716,  -224,   187,   -54,    32,   193,    98,     463,  -767,   190,   294,     8,    88,   -22,   506,   -131, -1004,    55,   -46,   199,   -12,   339,    73, // 1760
       248,  -383,  -556,  -162,   364,   164,   -96,   -58,     68,  -388,  -109,  -235,    56,   -65,   212,  -361,    -500,   231,   -73,  -203,    78,   407,  -303,   373,    209,   291,  -459,  -887,   122,  -396,  -163, -1292, // 1792
    
    // Out channel 28
      -455,  -621,     6,   -10,    72,   -78,   365,   137,   -120,    51,  -163,   -39,   337,    49,   459,  -382,     -30,    13,  -200,  -266,    50,  -798,   166,   219,   -387,   155,     1,  -485,   248,   235,   239,   177, // 1824
      -298,    -9,   495,  -836,   305,    29,  -161,    42,    199,   244,   196,   284,   212,    62,   -26,   143,     152,   246,   459,    51,   284,   200,  -173,   379,    -93,  -257,    33,  -330,   233,     6,   135,   645, // 1856
    
    // Out channel 29
      -104,   136,   479,  -374,  -284,   -75,   -92,   147,   -134,  -195,   -87,   -57,    18,    44,   -82,   298,    -149,   -27,    33,  -415,   -11,   -73,  -120,  -388,    357,   144,    25,   222,    84,   -12,   125,  -278, // 1888
       -49,   464,    17,  -220,    70,  -300,   -72,    93,     -1,   171,  -166,   -46,  -673,    84,     9,   153,     -89,  -153,   -18,   356,     2,  -513,   -30,   215,   -127,  -177,    32,   225,   -76,    38,  -245,   -95, // 1920
    
    // Out channel 30
       128,   356,  -211,  -525,   240,    -5,  -427,  -488,    -16,     7,    71,  -110,   361,  -457,  -616,   186,     175,  -266,   172,   398,  -205,   -66,   115,   277,   -233,   104,    20,   125,   176,  -281,    42,  -126, // 1952
        26,   -12,  -771,  -303,    25,  -122,   170,   153,   -283,  -163,   317,   -80,   164,   222,   104,  -241,     497,   -63,  -603,  -444,   -79,   263,    67,    13,     70,   -38,   414,   203,  -107,   -60,   318, -1209, // 1984
    
    // Out channel 31
      -477,  -567,   -51,   193, -1149,  -228,   368,   666,   -598,  -392, -1762,   314,    57,    30,   880,  -805,    -817,   333,  -442,    81,   662,  -618,  1488,  -283,    -94,   -89,    45,  -292,   -12, -1387,   667,   456, // 2016
      -682,   237,   718,  -908,   494,   111,   534,  2006,   -428,   -75,  -378,   622,    55,  2158,  1119,  -300,    -176,   273,  -146,   319,   706,   400,   551,  2772,   -514,    12,  -363,  -636,   493,  -332,   359,   438, // 2048
    
    
};

const int16_t cg_FC5bias[32] = { // Co,H,W,Ci: (32,)
       530,  -852,  -294,  -164,  1195,  1750,    31,  -133,   -545,  2242,  2316,  5287, -1810,  1285, -4511,  1734,    1062,   586,  2002,  -419,  1508,   -18,   196,  1717,   -232,  1909,  1284,  1373,  -348,   186,  1045, -3355, // 32
    
};

const int16_t cg_FC6weit[512] = { // Co,H,W,Ci: (16, 32)
    // Out channel 0
       326,   301,  -552,  -755,  -264, -2452,  -256,   -81,   1326, -3167,  -795,  -534,  -583,  3459,  2560,  1528,    -221,    22,  2358, -3941, -2156,  -392, -3524, -2458,  -2025,  1512,     4,   812,  2849,  -763,   382,  4726, // 32
    
    // Out channel 1
     -3336,  1170,  -791,  1140, -1655,     5,  -288, -1758,    732,   537,  -568,   176,   -66,  -942,  1192,   151,     269, -1163,  -271,  -410, -1738,  4294, -1046,   -13,   -210,  -243,  3605,   533,  -114,   241,  -537,   829, // 64
    
    // Out channel 2
       341, -3808,  2815, -8112, -4310,  1495,   127, -3236,   1465,   151,  1007,  -246, -1873,  1308, -2006,   276,   -4540,  3981,  -494, -1578,  -247,  -443,  2985,  1888,  -2473,  1144,  -211,   -10, -5807, -1433,  2163,  -817, // 96
    
    // Out channel 3
       749,  1751,   703, -4259,  4175, -1602,  1072,  4962,  -1788, -2341, -3279,   151,  1167,  1666,   246,   277,    2004, -4847,   292,   952, -3442,   422, -2709, -2078,  -1054,  2010,  2343,   453,   979, -1350,  5702, -3001, // 128
    
    // Out channel 4
      1055,  1409,  -406, -1177,  -420, -3699,  -662,  -493,   2541, -4015,  -832,  -529,  -514,  4527,  3702,  2212,    -124,    64,  3038, -5727, -3952,    53, -4717, -3312,  -2904,  2284,  1168,  1329,  3665, -1167,  1318,  7322, // 160
    
    // Out channel 5
      -202, -1810,   957,   499, -1173,   491, -1596, -1077,   -212,  2172,  -911,  4447, -7754, -1839,  -540, -1400,   -1940, -2437,  1411,  1324,  -752, -1722,   411,  1023,    -91,  1769,  3405, -1377,   236, -7435, -1121,  1570, // 192
    
    // Out channel 6
      -218,    84,   768,   291,   725,  -532,  -213,   -60,   -145,   135,  -246,   743,  -355,  -670,   319,   -28,     127,  -224,  -857,   570,  -124,   429,   433,   228,   -822,  -730,   158,  -318,  -727,  -481,  -101,   -77, // 224
    
    // Out channel 7
       178,   156,  1775,   482, -1590, -2457, -6247,  -120,  -2571,  2358,  3174,  3233,  5970, -1595, -1431, -3677,   -3618,  3900,  2708,    71,  -101, -2537,   689,  2882,  -1626,  1603,  1094, -4304,  -617,  2384, -2675,  2518, // 256
    
    // Out channel 8
        19,  -272,   287,    91,   394,   462,   289,   808,    370,  -233,  -649,  -396,  -670,    33,  -290,   506,     749,  -541,   -17,   413,   -94,    60,   515, -1118,   -344,   329,  -195,   305,   126,  -570,   731,  -100, // 288
    
    // Out channel 9
      -625,  -695,  -232,  -663,  -517,    53,  -800,  -500,   -585,  -520,   -79,  -334,   213,  -397,  -354,   365,    -539,    31,  -144,  -239,  -391,  -410,    94,     5,    -76,  -314,  -306,  -376,  -358,    59,   159,  -166, // 320
    
    // Out channel 10
       174,  -262,  -215,  -559,   145,  -105,  -567,   -95,    -58,   -24,   -12,   -20,  -166,    65,  -416,  -196,     289,  -153,   273,   202,  -181,  -739,  -119,   243,    212,  -190,  -157,  -520,  -191,  -101,  -111,  -126, // 352
    
    // Out channel 11
       -40,    18,   384,   329,   579,   416,   249,   268,    129,   336,  -506,  -110,  -584,   338,  -179,   260,      23,  -310,  -322,   189,   318,     7,   231,  -963,   -296,   312,   355,  -129,   188,  -432,   332,    22, // 384
    
    // Out channel 12
      2404,  1050,  1554, -2274,   947,  -353,  -826,  2289,   1254,   253,  -421,   652, -2848,  -656,  -573,   404,    -692, -1025,  -451,  -798,  2222,   395,   323,   567,  -1040,  1778, -1488, -1566,   168, -2080,   761,  -871, // 416
    
    // Out channel 13
      4522,  6163,  1128,  -462,  1412, -7676, -3778, -1538,  -3499,  2554, -4478,  3129, -1978, -4572, -2423, -2038,    2294,  3557, -6497, -1636, -2970,  7008,  -775,  3087,  -2764, -2191,    32,  2642, -1804,  1218,  2938,  5205, // 448
    
    // Out channel 14
       331,   194,  1060,   249,  -678, -1922, -4053,   -35,  -1529,  1529,  2421,  2086,  3971,  -895, -1033, -2538,   -2408,  2553,  1955,   207,  -223, -1198,   537,  1997,  -1138,  1132,   675, -2738,  -301,   864, -1880,  1658, // 480
    
    // Out channel 15
      -559, -4309,  4545,  -404,  1403,   427,   544,  -356,  -2561,  -227,  1990,   194,     1,  -990,   821,  1141,    -891,  1730,  -206, -2176, -1164,    72,  1746,  -661,  -1720, -4517,  -162, -1246,  -216,  1663,  1167,  1145, // 512
    
    
};

const int16_t cg_FC6bias[16] = { // Co,H,W,Ci: (16,)
       688,   409,  -658, -1666, -3526, -1482, -1106, -4830,  -1772,  -387,  -309, -1574,    41,  -369,   -79,   -83,  
};

const int16_t cg_FC7weit[16] = { // Co,H,W,Ci: (1, 16)
    // Out channel 0
     -5315, -1248,  -994,  1213,  3623,    954,  -104, -3464,  -125,   -25,     -64,   -46,   897,  -452,  5108,  -1212,
    
};

const int16_t cg_FC7bias[1] = { // Co,H,W,Ci: (1,)
      4459,
};

