#include <stdint.h>
const int16_t cg_FC1weit[768] = { // Co,H,W,Ci: (96, 8)
    // Out channel 0
      -345,   367,  -377,  -264,  -241,  -319,   -55,  -142, 
    // Out channel 1
        64,  -113,   -61,  -123,   -60,   -11,    48,   -50, 
    // Out channel 2
       -45,   -61,   -18,  -108,   105,   107,  -118,   -99, 
    // Out channel 3
      -470, -6340,   512,   -83,   335,  -715,  1183,   435, 
    // Out channel 4
      -646,  -465,   421,  -309,    84,  -649,   212,   168, 
    // Out channel 5
      -124,  -214,   544,    22,   164,   903,   125,  -638, 
    // Out channel 6
      -262,  -190,   -57,  -144,   -84,    -5,    18,     9, 
    // Out channel 7
      -118,   -47,  -100,    79,   -93,  -101,   -67,    20, 
    // Out channel 8
      -665,   137,  -623,   406,   417,   354,  -369,   184, 
    // Out channel 9
       -34,   -24,    14,   -63,   -42,    19,   -42,    -9, 
    // Out channel 10
        51,    16,   -71,  -119,   -82,     7,    33,   -59, 
    // Out channel 11
        77,     3,  -225,   740,  -831,   575,  -139,   222, 
    // Out channel 12
       741,  -858,  -783,  -192,   592,   942, -1103, -1426, 
    // Out channel 13
       205,   603,  -873,   262,  -193,   265,  -396,  -710, 
    // Out channel 14
      -390,  -158,   -44,  -206,   -33,  -155,   -54,    68, 
    // Out channel 15
      -430, -2154,   181,   385,  1117,  -774,   897,  -325, 
    // Out channel 16
      1182, -1264, -2251,   871,   112,   247,  -948,  -310, 
    // Out channel 17
      -150,  -147,  -153,   477,  1082,  -192,    88,  -852, 
    // Out channel 18
      -770,  -421,   601,  -381,   -46,  -718,   -74,   169, 
    // Out channel 19
       401,   245,  -446, -1214,  1223,  -347,   136,   314, 
    // Out channel 20
      -303,  -262,   184,    37,  -276,  -905,  -301,    76, 
    // Out channel 21
       572,    84,    50, -1082,   761,  -116,  -326,   -21, 
    // Out channel 22
       287,   129,     7,  1237, -1386,    93,   -14,  -335, 
    // Out channel 23
       286,  -271,   452,  -743,  -341,  -418,  -324,   789, 
    // Out channel 24
      -756,  1118,   639,   746,   397,   258, -1714,  -644, 
    // Out channel 25
       141,   231,   623,  -623, -1267,   125,   310,  -321, 
    // Out channel 26
      -277,   413,  -819,   316,   755,    96,  -642,    -1, 
    // Out channel 27
      -604, -1056,   138,  -177,   947,  -337,   458,   194, 
    // Out channel 28
       250,  -114,   338,  -315,   476,   513,   238,  -147, 
    // Out channel 29
        22,   -50,   -51,   -18,   -22,   -76,     8,    12, 
    // Out channel 30
        -2,    -5,   -62,    -5,   -54,   -62,   -11,  -105, 
    // Out channel 31
      -649,   317,    91,  1518,   862,   -22,    99,  -442, 
    // Out channel 32
       -93,  -421,    69,   269,   658,    68,   622,  -920, 
    // Out channel 33
       137,   -19,    55,   615,   233,  -267, -3576,  -883, 
    // Out channel 34
       -47,   -47,    62,  -103,    19,   -46,    38,  -120, 
    // Out channel 35
     -1354, -1128,  1278,  -672,  -343,  -253,   331,   711, 
    // Out channel 36
        -7,   -54,    13,   -32,   -39,   -69,   -46,   -40, 
    // Out channel 37
       -81,    19,     8,   -66,    81,   -63,    52,  -110, 
    // Out channel 38
      -443, -3722,    93,   494,  1233,  -950,   704,    80, 
    // Out channel 39
      -108,  1017,   132,   252,   441,   229, -2011,  -344, 
    // Out channel 40
       -18,  -115,   -83,   -25,    88,    39,  -127,   -46, 
    // Out channel 41
       801,   639,  -986,   -84,   608,   448, -2090,  -731, 
    // Out channel 42
       421,   846,  -690,   596,   542,  -136,  -601,  -765, 
    // Out channel 43
      -344,  -410,  -228,   907,   455,  -181,   731,  -683, 
    // Out channel 44
      -185,  -522,  -137,   957,   987,  -124,   837,  -291, 
    // Out channel 45
       623,   285,  -249, -1516,  -356,   765,  -607,   126, 
    // Out channel 46
      -211,  -158,  -132,  -135,   -72,   -43,    78,     6, 
    // Out channel 47
        35,   -49,  -231,   575,  -839,   524,  -134,    97, 
    // Out channel 48
       474, -3051,   136,  -788,    41,   484,  -799,  -256, 
    // Out channel 49
     -1163,   950,    88,   813,   727,  -156, -1144,  -188, 
    // Out channel 50
      -362,  -246,  -728,   743,   704,    98,  -174,  -421, 
    // Out channel 51
     -1706, -2433,  2856, -4485, -3544, -1940,  -699,   229, 
    // Out channel 52
      -117,   -80,  -101,   -61,    33,   -46,  -102,    11, 
    // Out channel 53
       448,   165,  -958,   223,  -144,  -187,   265,  -463, 
    // Out channel 54
      -173,   312,   390,    47,   296,   285,   -93,    77, 
    // Out channel 55
       524, -2531,  -479,   246,  -392,   963,     8,  -659, 
    // Out channel 56
       -73,     4,   -57,   -85,    60,   -30,    34,    24, 
    // Out channel 57
      1164,   -64, -1656,   219,  -465,   202, -1314,   236, 
    // Out channel 58
        85,  -173,  -758,   856,  -470,   522, -1113,  -441, 
    // Out channel 59
     -1485,  -773,   677,  -600,   255,    31,  -391,   445, 
    // Out channel 60
      -871,   652,   163,   656,  1345,    50,  -554,  -481, 
    // Out channel 61
       354,  -316,  -902, -1051,  -475,   607,   818,   196, 
    // Out channel 62
      -100,  -291,     8,   -48,   -43,   -14,    59,    46, 
    // Out channel 63
        49,    -4,    27,   -20,   -83,   -21,   -55,    35, 
    // Out channel 64
       431, -2914,   -64,  -448,  1009,  -321,  1026,   -74, 
    // Out channel 65
      -127,   402,   204, -1218,  -333,    92,   -34,    55, 
    // Out channel 66
        -4,    10,   -91,  -134,    87,    51,   -17,   -48, 
    // Out channel 67
      -115,    66,  -103,   111,  -124,   -99,    11,    -7, 
    // Out channel 68
       -60,  -121,    93,   -61,    -4,    71,     5,  -114, 
    // Out channel 69
        70,   -80,   -59,  -119,    76,    18,    -9,   -32, 
    // Out channel 70
      -468,  -551,   512,   145,  -368,  -205,   -60,   452, 
    // Out channel 71
       562,  -311,    67, -1003,   675,  -247,     2,   262, 
    // Out channel 72
      -671,   154,  -707,  -365,   664,   244,  -153,   443, 
    // Out channel 73
       -13,   -87,   -31,    76,     1,   -26,     6,   -26, 
    // Out channel 74
       -17,     3,   -10,   -99,  -104,   102,   -85,   -82, 
    // Out channel 75
       500,  -304,    97,  -397,   932,  -394,    93,  -321, 
    // Out channel 76
     -1004,    62,   565,   705,   849,   774,  -122,  -871, 
    // Out channel 77
       210,  -194,    79,  1091,     0,  -452,   203, -1021, 
    // Out channel 78
       -15,  -118,   -34,     9,    -4,   -48,    16,   -66, 
    // Out channel 79
       729,   847,  -602,  -581,   998,   124, -1784,  -554, 
    // Out channel 80
     -1039,   238,   356,   418,  1315,   121,    79,   -61, 
    // Out channel 81
       -32,     7,   -11,    19,   -76,  -121,   -57,  -107, 
    // Out channel 82
       409,   659,  -435,  -204,  1099,    14, -1422,  -775, 
    // Out channel 83
     -1177,  1192,   402,  1350,   299,   104, -1076,  -488, 
    // Out channel 84
       171,    11,    80,  1041,    58,    73,   203,  -479, 
    // Out channel 85
       187,  -760,   150,  -578,  -520,  -270,   481,   256, 
    // Out channel 86
       571,   141,  -999,   203,  -676,   336,  -192,  -525, 
    // Out channel 87
      -798,   615,   211,  1545,   203,    85,  -505,  -495, 
    // Out channel 88
      -641, -2644,   -71,   761,   958,   380, -3013,  -335, 
    // Out channel 89
       369,  1233,  -472,  -116,   321,   168, -7476,  -139, 
    // Out channel 90
       501,  -457,    92,  -911,   813,  -468,     9,   231, 
    // Out channel 91
      -557,  -451,   572,   382,  -487,  -442, -1519,   700, 
    // Out channel 92
      -577, -1529,   158,  1116,  -776,   360,   754,  -142, 
    // Out channel 93
      -894, -3086,   953,   -58,   150,  -677,   957,   453, 
    // Out channel 94
     -1059,  -106,   423,  -771,  1155,   -34,   270,   304, 
    // Out channel 95
       450,   351,  -405,  -478,  -579,  -206,   -17,   115, 
    
};

const int16_t cg_FC1bias[96] = { // Co,H,W,Ci: (96,)
      3511,   -93,  -123,   194,  2279, -2541,     0,     0,  -2741,     0,  -118, -3113,   298,  2480,   -42,  -159,     239,     5,  2960, -2094,  2678, -1323, -2969,  -900,  -1333, -1498, -1531, -1082, -3721,   -41,     0, -4540, // 32
       175, -1703,   -41,    83,     0,  -170, -1726, -1002,    -82,   167,    94,   392, -6254,  -564,   -53, -1025,    -149,  -144,   178,   377,     0,  2503, -3508,    45,   -180,   162,  -658,    40, -2208, -1444,  -143,  -428, // 64
     -3049,  2128,   -59,   -41,  -130,  -108,   139, -2228,  -3284,     0,   -41, -2828, -2402, -2667,     0,   135,   -3912,     0,    80,  -992, -4237,  1555,  3058, -1700,  -2544,   163, -1810,    30,    47,   125, -2778,  2646, // 96
    
};

const int16_t cg_FC2weit[6144] = { // Co,H,W,Ci: (64, 96)
    // Out channel 0
        96,    98,   -60,   -94,    14,  -250,    23,     1,  -1795,   -26,   -49, -1018, -1783,  -427,    20,   154,   -2272,   236,   323,  -570,    75,  -314,  -651,  -147,   -195,   401,  -629,   183,  -250,    75,    47,  -420, // 32
       -19,  -515,   -42,    47,    37,     4,   159,  -319,     91, -3482,  -759,  -175,  -456,   253,   113,  -161,    -274,    32,  -337,  1473,   -69,  -302,  -161,  -626,    -45,  -100, -1223,     2,  -249,   193,   -45,    14, // 64
      -525,     0,   -62,   -23,   -27,    46,    92, -1352,  -1665,    63,    45,  -810,  -389,  -862,    51, -1296,    -202,   -50,  -735,  -564, -1092,  -203,  -246,  -168,    -85,  -273,  -495,    28,   -58,   189,  -214,   -62, // 96
    
    // Out channel 1
     -2734,   -37,    97, -1142,   -69,    48,   -98,   -81,    -63,     5,    50,   126,   352,  -714,  -128,  -145,    -531,    37,     3,   -87,   358, -2547,    72,  -426,     45,   -84,  -615,  -629,   -55,    43,    94,    -1, // 128
       129,   930,    57,    23,    67,   -12,   -16,    -2,    -97,   977,   246,   563,     3, -1922,     2,   603,    -284,  -150,    33,    31,    70,   -73,   -17,   169,    -71,  -294,   683,   -15,   155,  -472,    41,     4, // 160
       -19,  -881,    41,    98,    43,   -93,   -21,  -694,   -213,   -49,    86,  -441,     6,   228,    75,    33,     -68,   -26,   163,   129,    -2,     7,  -106,    35,     60,  1585, -1772,    69,   254,  -206,  -182,  -771, // 192
    
    // Out channel 2
      -351,   -30,    18, -1012, -1505,  -172,  -105,    90,  -1187,   -65,   -68,   -32,   325,   -56,  -139,  -669,    1495,  -232, -1104, -1653,  -119,  -242,  -253,  -215,   -504,  -456,  -174,  -331,  -205,    68,    63,  -182, // 224
      -104,   352,    80,  -335,    -1,    63,  -372,   -69,    -47,    10,    17,   123,  -389,   112,   -18,   168,     301,  -770,  -303,  -668,    79,     6,  -349,  -130,     72,   381,   234,  -367,  -284,   335,  -102,   -80, // 256
      -666,  -225,   -30,   -71,   -27,    71,  -761,  -210,  -1414,   -41,    24,  -267,  -246,  -399,   -57,  -231,    -741,    24,   251,  -139,  -103,  -122,   -50,  -205,   -913,  -375,  -400,  -859,  -194, -1120,  -994,   229, // 288
    
    // Out channel 3
      -455,   -48,   -79,  -268,  -384,  -946,   126,    51,  -1466,   -60,    42,  -573,  -794, -1908,   202, -1088,   -1779,  -838,  -349,  -138,   301,   558, -1368,    23,    226,  -566,  -470,    40, -1153,    74,    20, -1202, // 320
        49,  -500,    96,   141,   -51,   -47,   165,  -371,     68,  -475,   -70,   -40,    66,   268,   150,    82,    -403,   123,   199,   -86,    10, -1362, -1210,  -461,    -88,   -55,  -142,   117,  -604,   177,    38,    -7, // 352
        10,   -90,     0,   -64,    47,   -53,   -60,  -580,   -910,    23,   -58,  -582, -1419,  -577,    19,  -555,   -1082,   -45,  -584,  -747, -1334,   -75, -2905,  -455,    -90,  -847,  -100,   -25,  -577,  -186, -2376,  -121, // 384
    
    // Out channel 4
       -34,   -46,    32, -1305,   -28,   -28,   -19,   -72,   -160,   -87,   -80,  -153,    42,     2,   -64,  -360,     279,  -136,     2,  -306,    37,  -173,  -175,  -118,     39,  -631,  -169, -1179,  -272,    13,    93,    74, // 416
       -61,  -873,   -29, -2086,   -26,    76,  -606,   -21,     52,   -57,   -58,   -48,  -209,   790,   -37,    -5,      67,   137,   298, -3142,   -77,   325,  -211,   -42,    -75,   -97,    29, -1277,   -90,   -74,   -93,   -87, // 448
      -267,    37,   -62,   -15,    30,   -20,  -288,   -65,   -224,   -85,     9,  -135,   -76, -1031,    49,   990,    -479,    85,     1,    40,   -99,    -8,   -47,    61,   -469,   -10,    93,  -322,   -41, -1483,  -602,    30, // 480
    
    // Out channel 5
       -71,   -57,  -112, -1588,   -41,  -159,  -213,    16,    395,    58,   -57,  -251,    68,   412,  -147,   -78,     722,     8,   -18,    15,    47,   337,  -411,    54,   -101,  -176,   -35,  -739,  -513,   -37,     3,    51, // 512
        44,   -32,   -56, -2548,    30,     8,  -568,   -53,     -1,   516,   -17,    41,  -171, -1389,  -170,   -37,     385,   100,   409, -3578,   -58,     2,  -353,    86,    -76,    27,   -91, -1914,  -116,    71,    47,     4, // 544
      -188,   -29,    73,    66,    96,   -14,   -96,   286,    158,   -97,    83,    18,  -148,  -117,   -14,  -113,    -650,     1,   141,    -8,  -413,    68,     7,   -32,   -643,   122,   256,   -40,   -72, -1545,  -448,    60, // 576
    
    // Out channel 6
       -26,    22,   -44, -1735,   101,  -810,  -103,   -60,     14,   -36,   -44,  -551,   223,    47,    54, -1357,    -229,   449,    66,  -453,    83,  -918,   289, -1201,    134, -1275,   347, -1715, -1845,   -20,     9,  -413, // 608
      -600,  -360,    35, -3095,    14,    36,  -802,    -3,    -68,   -43,   102,  -194,   -48,   271,   -14,   -34,    -592,    57,    50, -3930,   -24,    35, -1035,  -808,     55,   -65,  -151, -1724,   245,   198,    -9,    34, // 640
      -181,    39,    22,    75,    59,   -47, -1898,   -88,   -313,    89,   -39,  -299,  -115,  -167,     4,   -66,    -542,   -97,  -328,    41,  -700,    86,     6,    74,  -1227,   364,  -164, -1859, -1516, -1874,  -607,    67, // 672
    
    // Out channel 7
        24,   -14,   -47,    63,    44,  -469,    -4,    66,   -913,   -49,   -55,  -493,  -976,    -9,   219,    39,   -2233,    74,    39,  -997,    10,  -199,  -753,    50,   -276,   216,   -73,    97,  -714,    49,   -91,  -310, // 704
        13,  -210,    16,    41,   -32,   -26,   350,  -961,     73, -2301,  -991,   -24,  -239,   -27,     1,  -450,    -523,    44,  -125,  4071,   -65,   -20,  -474, -1402,    -28,    54,  -866,    95,  -263,  -511,    50,   -40, // 736
      -776,    49,    31,   -63,   -67,     4,    66,  -684,   -923,    34,   -82,  -134,  -501,  -184,   -76, -1836,    -379,    15, -1644,  -358,  -800,   133,     0,  -122,   -129,  -618,    97,    95,    33,   201, -2091,    14, // 768
    
    // Out channel 8
      -113,    -1,   -43,    17,    42,    19,   -87,    66,   -222,    36,    85,   -61,  -259,   540,   -31,   131,    -132,  -285,    36,  -272,  -384,  -336, -1053,  -621,     -6,  -938,  -992,  1284,  -110,    14,    18,   -40, // 800
        39,   673,   -76,    42,   -80,     4,   147,   -77,     29, -1698,   155,   302,   568, -1081,   -52,   113,    -395,   152,  -244,    44,    87,    58,   -42,  -338,    -79, -1423,  -325,   485,    37,   113,   -90,    95, // 832
      -175,  -122,   -35,    34,   -36,    12,   -63,    70,   -272,   -88,     4,   340,   -62,  -387,   -88,  -758,    -130,   -39,  -236,   178,   784,    18,     7,    44,    178, -1676,     3,  -419,    38,    30,     0,   -47, // 864
    
    // Out channel 9
     -2312,    90,   -46,  -568,  -407,   -75,   -73,    36,   -460,    27,    64,  -165,   523,   -22,   -15,   -55,    -951,    82,  -587, -1391,  -229,    70,  -427,   291,   -126,   184, -1035,  -921,   -41,    13,   -59,  -130, // 896
       125,  -301,    40,  -893,    36,    15, -1165,   -76,    -74,    22,    -2,    74,   245, -2971,    66,   -96,      -7,  -595,  -671,  -161,    86,    32,    -8,    10,     13,  -899,    33,  -636,  -991,  -141,    38,   -92, // 928
      -355, -1396,   -52,   -54,   -16,    40,  -110,  -142,   -275,    75,    -7,   357,  -448,   -49,    63,   121,   -1702,    54,    40,  -370,    19,    22,   295,  -107,   -423,   154,   445,  -160,  -182,  -649, -1234,    -3, // 960
    
    // Out channel 10
       302,   -69,  -100, -1588,  -102,  -170,  -138,    50,   -580,    47,   101,  -390,   458,    21,   -40,  -836,     515,   159,   -25,  -797,    18,     8,    73,  -269,     96,  -492,   136, -1711,  -581,    48,   -11,  -158, // 992
      -211, -1160,     6, -2736,   -10,    95,  -660,   127,    -78,  -990,   195,  -196,  -182,   324,  -108,    39,     -48,   149,   132, -3465,   -95,   -46,  -449,    27,    -15,    63,   108, -1776,    37,   394,   -75,   -50, // 1024
      -132,    -4,    68,    84,   -78,    -3, -1698,  -188,   -828,    73,   -52,  -333,  -194, -1073,    96,   -46,    -563,   -16,   104,   129,   -85,  -127,    12,   -17,   -635,   237,  -113, -1773,  -559, -2112,  -847,    98, // 1056
    
    // Out channel 11
        29,   -33,    63,   502,     3,  -303,    11,   -56,  -1040,    20,   -12,  -660,  -882,    38,   112,  -111,   -2327,   140,    -2, -1139,    22,  -288,  -727,   181,   -782,   178,  -707,   -95,  -391,    60,    78,  -568, // 1088
        94,  -248,    17,   -64,   -87,   -18,    95, -1285,     85, -2181, -1027,   -29,  -102,    -8,   152,  -508,    -153,  -709, -1047,  4864,    60,    25,  -565, -1662,    -16,   133, -1346,    66,    -4, -1728,     6,  -100, // 1120
      -881,    92,   -14,   -49,    78,    72,   -68,  -379,  -1276,   -28,    58,  -737,   -90,  -301,    27, -1589,    -291,   -64, -1639,  -645,  -865,    53,    39,   -23,    177,  -741, -1252,   177,     3,  -219, -2048,   -12, // 1152
    
    // Out channel 12
      -112,   -75,   -11, -2033,  -207, -1516,   -45,    12,   -238,   -85,     6, -1333,  -246,  -220,    26,  -793,    -120,  -134,   -34, -1038,  -108,  -208,  -457,   135,   -564,   200,   828,   303, -2433,    -1,    82,  -994, // 1184
       154,  -386,    82, -1279,   -47,   -60, -1075,   -50,     31,     6,  -268,    45,  -443,  -228,    51,  -195,    -243,   284,   151, -2562,   -29,  -164,  -625,   162,     33,   -32,   298,   -93,    79,    -7,  -178,    17, // 1216
      -768,   -37,    11,   -34,    74,   -56,     8,  -138,   -762,   -58,   -37,   991,   104,    17,   -41,  -160,     408,    12,   -59,  -222, -1211,   -18,   970,  -301,    197,   -49,  -298,  -148,    73, -1950, -1261,  -126, // 1248
    
    // Out channel 13
     -1043,   -82,    51,    41,  -839,    25,    -4,   -23,    158,    33,    63,   183,   -61,  -644,   -33,    36,   -1182,   551,  -823,   133,  -433,   -89,   555,   -68,    -29,  -360,   352,   189,    58,     0,    84,     8, // 1280
        40,  -520,   -37,    15,   -20,   -91,   143,   -14,     84,  -549,   -46,  -116,   221,  -223,    13,   174,     -28,   350,    33,    47,    64,  -610,    80,   130,    -75,  -201,  -178,   247,    39,    75,     0,    39, // 1312
       708,  -680,    57,    66,    21,   -54,    79,  -136,   -175,   -34,   -49,    66,    11,  -905,   -41,  -135,      38,    82,   110,   -56,   -44,  -489,  -863,    18,    198,   -55,   -29,   -63,   171,    10,   187, -1216, // 1344
    
    // Out channel 14
      -161,   -95,    99,   -88,   -90,  -728,   107,     0,   -396,   -21,     5, -1206, -1285,  -556,   159,   -60,    -962, -1046,   -57,  -791,  -174,   -29, -1760,   138,   -624, -1517,  -793,  -138,  -537,    81,    -7,  -986, // 1376
      -853,  -485,   -98,  -392,   -54,   -75,  -258,  -125,     22,    -2,  -937,  -787,  -323,  -616,    49,  -606,      95,    18,   -84,  -112,    46,  -844,  -193,  -164,     26,   -47,  -196,  -281,    73,  -201,    89,    50, // 1408
      -773,  -832,   -49,    68,    76,   -47,   -20,  -536,   -256,    86,    12, -1618,   -69, -1637,   -62,   165,    -283,   -61,  -532,  -524, -2185,  -208,  -414,  -943,    128,   -98,  1819,    49,  -726,   -43,   -83,  -443, // 1440
    
    // Out channel 15
      -789,    23,    72,   422,  -891,    42,    18,    45,  -1015,    70,   -29,  -201, -1057, -1065,   -18,   503,   -1300,   612,  -985,   564,  -922,   357,  -105,  -252,     35,   -44,  -160,    64,    12,    17,    96,    73, // 1472
       336,  1108,   -36,   144,    91,   -52,   461,    50,    -54,  1399,   580,   807,   226,  -429,   -36,  -312,      14,  -363,  -709,    39,    10,  -969,    16,   301,    -32, -1379,   473,  -468,    89,   -18,   -31,   -38, // 1504
      1311,   -95,    50,    85,   -44,    65,   -27,   458,   -919,     3,   -38,   -54,    49,    54,    66,   269,      23,    -5,   283,    68,    38, -1018,  -848,    25,    257,   376,   736,   -27,  -128,    54,   207, -1054, // 1536
    
    // Out channel 16
        -2,    33,    41,  -974,  -416,  -143,   134,   -59,    -55,    10,    68,   -86,  -686,   -14,   -81, -1444,   -2104, -1945,  -554,  -119,  -819,  -486,   850, -1082,   -163,  -695,   336, -1151,  -254,   -83,   -88,  -730, // 1568
     -1460,   -89,    53,  -847,    94,   -34,  -588,   -40,    -17,   -71,    15,  -929,   -69,   238,    87,   -22,    -679,  -279,  -389,     4,    36,   -91,    -7,  -643,    -40,  -111,   -54,  -983,  -189,    97,   -67,  -106, // 1600
      -178,   127,    50,    25,    78,    76, -2198,  -461,     88,   -89,   -83,  -188,  -104,    -9,    94,   -45,      32,    97,  -140,  -740,  -807,  -900,   -23,    67,  -1182, -1815,  -408, -1659, -1384, -1279,   381,    68, // 1632
    
    // Out channel 17
      -965,    93,    59,   128,    -2,  -262,   -37,   -71,    244,    38,   -33,  -420,  -544,  -447,   -27,   -48,   -2040, -2169,    50,  -304, -1024,   193,  -213,    -2,   -377,  -167,  -497,   -71,   -57,     9,    78,  -210, // 1664
     -1607,   380,    51,   -19,    76,   -48,   406,   -89,     50,   -71,  -611, -1092,   769, -1241,    21, -1392,     253,  -135,  -107,  -122,    55,  -819,   -37,   -86,     70,  -440,  -259,   -65,   -48,  -208,   144,    58, // 1696
      2216,  -136,    50,    90,  -103,    86,    15,  -261,   -333,     0,    52, -1101,  -161,  -336,    54,   196,     -46,   -46,  -495,  -352, -1908,  -118,  -619,  -726,    -35,    10,  -116,   -15,  -450,    14,   204,  -925, // 1728
    
    // Out channel 18
        30,   -35,    35,  -686,   140, -1225,    -9,    58,   -246,    52,   -28, -1326, -1041,   -43,  -131,  -255,   -3433,  -775,    65,  -290,    18,   199, -1200,    84,     15,   135,   296,    54, -1275,   -38,   -15, -1925, // 1760
        56,  -261,   -83,   131,   -18,    89, -1053,  -743,    -75, -3078, -1319,  -127,  -143,  -201,   100,  -146,    -724,  -541,  -192,  4368,   -14,   -23, -1535,  -414,    -38,  -745,  -746,    77, -1039,    -9,     7,   -69, // 1792
      -200,    27,    80,   -55,    53,    76,    22,  -325,    -16,   -48,   -73,   -42, -1251,  -774,   -75, -2255,   -2123,     0, -2252,  -911,  -617,   106,   -18, -1099,   -411, -1143,   -78,  -354,    51,    20,  -211,    33, // 1824
    
    // Out channel 19
         3,   -43,    94, -1367,    68,  -276,   -14,   -92,    143,    39,   -44,  -686,   291,    33,     6, -1271,     131,   154,   131,   -80,    45,  -223,  -251,   -55,    159,  -524,   111, -1479,  -818,    33,   -32,   -27, // 1856
      -120, -2580,   -86, -2568,   -48,    15,  -701,   215,    -13,    17,   186,   -20,  -157,    43,    38,    35,     235,   199,   446, -3807,    30,     9,  -528,   -67,     -5,   273,   135, -1113,   172,  -507,  -113,    28, // 1888
       -66,    44,   -30,   -41,    10,   -76, -1836,   161,    -49,   -77,   -82,  -130,    11, -1760,   -62,    40,    -535,   -21,   119,   204,   -40,    85,   -12,    39,   -922,   186,   244, -1982,  -805, -1370,  -677,    -8, // 1920
    
    // Out channel 20
       101,    96,    65,  -205,    35,  -153,    63,   -12,   -851,    -8,    41,  -861, -1012,    12,    58,   166,   -2673,   -15,    12,   100,     3,  -939,  -768,   -38,   -735,   237,  -845,    13,  -246,    34,   -89,  -252, // 1952
         7,  -302,    81,    44,   -17,    49,   352, -2423,    -58, -2658, -1044,    -3,  -609,  -166,   148,  -838,    -536, -1060, -1216,  4900,    98,   -51,   -80, -1962,     65,   169, -1848,   -50,  -117, -1302,   -54,    15, // 1984
      -967,    43,   -91,   -77,   -95,    66,   -32, -1815,  -1683,   -35,    52,  -445,  -114,  -300,   -64, -2004,     -45,    38, -1868,  -518,  -809,   138,   -37,  -363,   -498,  -928, -2213,  -134,   -36,   240,   133,    50, // 2016
    
    // Out channel 21
        35,   103,    68, -1095,   -69,   -81,   -46,   -37,   -614,    93,   -92,    21,   400,    44,  -119,    30,     824,   135,   -50, -1502,    -9,   148,    78,  -392,    -49,   -38,  -500,  -466,   -61,    33,    85,   -61, // 2048
        60, -1455,    56, -1895,     3,    85,  -715,    51,     49,    17,   105,    47,  -457,   253,   -53,    71,    -237,   -86,    34, -3102,    41,    25,  -120,    31,    -34,   626,    82,  -406,  -113,   158,   -53,    82, // 2080
      -184,    32,   -16,    33,   -23,    -2,  -141,  -262,  -1132,    90,   -40,  -993,  -185, -1511,   -56,   221,    -563,    78,    78,  -149,   126,    15,   141,   -19,   -153,    99, -1397,  -156,    61, -1667,  -906,   132, // 2112
    
    // Out channel 22
      -641,    90,    48, -1957,    75,    52,  -101,    71,    235,    38,    70,   -89,   -61, -1546,   -90,  -895,     314,  -109,  -303,   613,  -383,  -984,   -69, -1036,   -926,  -658,   365,  -698,   105,   -41,    31,  -204, // 2144
      -226,   -85,    11,  -594,    26,   110,  -967,  -636,     51,  -360, -1378,    15, -1325,   657,    90,     4,    -118,  -109,   431,   -89,   -31, -1881,    85, -1154,     12,   137,  -141,  -583,   158,   -45,   -16,  -107, // 2176
      -108,    -5,   -68,    83,   -63,   -93,  -888, -1418,    445,     5,   -87,  -820,    32,  -112,    71,  -299,     212,   -79,  -862, -1127, -1284,   -30, -1174, -1222,  -1405,  -514,  -818,  -891, -1537, -1699,   -76,   161, // 2208
    
    // Out channel 23
       -11,    83,   -77,    89,   113, -1073,   107,    91,   -435,    23,    68,  -464, -1110,   -18,    95,   103,   -2364,    33,    76,  -890,   106,   211,  -845,   -16,     95,   188,   446,    13, -2348,     6,    89, -1575, // 2240
        53,  -812,   -88,    -2,    38,    40,   202,  -163,    -83, -2069,  -476,   238,    57,    53,    28,  -546,    -650,   -64,  -462,  4627,    95,    16, -2122,  -209,     36,   -55, -1104,    26,  -472, -1621,   -39,   -58, // 2272
      -849,   -35,    98,   -88,   -73,     6,    50,  -574,   -623,   -59,   -39,  -133,  -453,  -341,   -85, -1591,    -583,    -2,  -340,    62, -1249,   -52,    -4,   144,  -1077, -1619,  -886,   136,   189,    57, -1824,    -1, // 2304
    
    // Out channel 24
      -955,   -16,    -6,  -610,  -623,   -86,   -94,    -7,   -679,    67,   -18,  -130,   335,  -105,   -67,    -9,   -1506,   265,  -516,  -877,  -423,   157,  -189,  -330,   -175, -1012,  -571, -1777,  -100,    87,     9,  -236, // 2336
       166,   216,    -1,  -524,    98,    21,  -576,    35,     50,   331,    30,   -58,   -46, -2271,     1,   -13,    -120,  -521,  -338,  -307,    96,   323,  -308,    24,    -16,   452,    88,  -562,  -426,   -45,    12,    69, // 2368
       -55, -3419,   -45,    90,   -26,    91,  -182,    74,   -531,    47,   -14,   -73,  -244,     3,   -60,  -106,    -677,   -52,   -49,  -423,   -14,   -17,   -20,   -98,   -512,  -243,   758,  -158,   -55,  -625,  -446,   -12, // 2400
    
    // Out channel 25
       206,   -33,   -42, -2964,   -37,  -173,   -35,    14,     47,   -25,    24,   118,  -353, -1283,    45,   584,    -351,  -600,   -18,   420,  -195,   185, -1078,    -6,     44,  -781,   486,   -96,  -417,    80,    70, -1289, // 2432
       -77,  -265,   -11,   -96,    79,   -32,   308,  -296,     86,  -877, -1301,  -295,  -240,   378,   -24,    73,    -100,    87,  -403,  -181,   -32, -1380,  -145,  -271,    -89,    20,  -669,   -94,  -694,   472,   -60,   -13, // 2464
      -231,   121,   -72,   -84,   -31,   -49,  -131,  -823,   -168,    42,     9,  -574,  -453,  -999,    42, -1187,     -66,   -42,  -809,  -794,  -456,    98,  -741,  -305,   -958, -1032,  -165,  -123,  -452, -1551,  -147,   186, // 2496
    
    // Out channel 26
        30,   -50,   -70,   -25,    21,  -107,   -40,   -28,   -347,   -90,   -81,  -199,  -478,    86,  -105,    20,     578,   -57,    90,  -871,    72,   110,   915,    37,  -2463,    -2,   141,  -729,  -176,   -70,    35, -1524, // 2528
      -137, -1082,   -59,  -712,   -82,   -15,   238, -1495,     24,   -99,  -192,    81,  -607,    27,    24,    29,     109,  -906,  -586, -2245,   -79,    19,  -758,  -414,    -36,  -273,  -169, -1356,  -376,    24,  -122,    41, // 2560
     -1045,    59,    19,    92,   -50,     0,   -42,   548,   -843,    -5,   -90,    35,   -47,   140,    -2,  -500,    -264,   -83, -1071,  -309,   -65,    32,   -66,  -628,   -941,  -770,   496,  -189,   291,   -71, -1310,    33, // 2592
    
    // Out channel 27
      -705,    82,   -62,    41,    59,   -45,    21,    77,     -6,   -35,    -1,   416,  -200,  -979,    72,   136,    -248, -3914,    -2,    31, -1254,  -793,  -628,   -30,  -1616,  -152,   315,    69,     4,    21,    70,  -140, // 2624
      -112,   -51,    -8,   125,    62,   -70,   104,  -440,     60, -1637,  -902,   106,   -34,   159,   101,   292,     535,  -527, -1391,  -123,   -21, -2432,    29,   111,    -47,   305,  -861,    11,     1,  -192,   102,   -83, // 2656
     -1552,   243,   -30,    17,   -41,   -19,    -4, -2140,   -289,   -37,   -31, -1594,  -106,  -499,    25,  -636,      56,    73, -2522,  -230,  -265,    38, -1955, -1846,     36,   524, -1105,    52,   101,    38,    14,  -394, // 2688
    
    // Out channel 28
     -1264,  -106,    63,  -441,  -559,     9,    33,    84,    333,     2,    48,    12,  -244,  -398,   -42,  -900,      12,  -872,  -763,   641,   -79, -1948,   621,  -737,    181,  -293,   182,   107,    32,    67,    12,    85, // 2720
      -616,  -679,    61,  -525,   -47,   -75,   105,    58,     80, -1182,   -65, -1097,   511,   584,    54,    20,    -564,  -153,   415,    42,    40,  -320,    10,    53,    -35,   111,  -149,  -355,    36,   -42,   -66,    75, // 2752
       244,  -260,    34,   -61,    87,    87,  -125, -1569,    443,   -31,   -33, -1673,    80,  -535,   -59, -1951,      28,   -48, -1598,  -292,   255,  -288,  -198,    16,     22, -1329, -1807,  -445,    12,  -279,  -111,  -158, // 2784
    
    // Out channel 29
      -349,    59,   -20,  -343, -1413,     6,   -78,   -61,   -624,    62,    67,  -137,  -272,    66,  -192, -1213,     676,  -842, -1276, -1500,  -209,   692,  -200,    27,   -146,   145,  -475,  -264,   -45,    84,    28,  -336, // 2816
       110,  -931,   -39,  -369,   -96,   -17,  -523,  -177,      2,   259,  -117,  -230,  -281,   198,   -16,  -166,    -173,   -43,   211,  -724,    18,    28,   -82,  -242,    -54,  -443,    70,  -288, -3065,   578,   -44,   -84, // 2848
      -449,  -186,   -23,   -82,    -7,    17,    59,  -180,   -878,   -49,    72,   772, -2074,   229,   -54,   246,   -2743,    53,   -42, -1820,   223,    72,   -55,  -344,   -614,  -116,  1876,  -338,  -778,  -541, -1189,   -58, // 2880
    
    // Out channel 30
       -12,   -83,   -10,  -130,  -559, -1517,   -55,   -71,     69,   -54,   -18,  -387,   153,   389,  -212, -1622,    -166,  -161,  -582,  -512,  -367,   750,  -135,   -78,   -886,  -742,   409,  -155, -2500,    20,     0, -1230, // 2912
      -564,  -164,    52,  -138,    10,    -9,  -456,  -559,    -37,   128,   -79,   283,    18,    61,   -38,   142,    -282,   199,   -11, -1033,   -59,   233,  -990,   578,     12,   240,   420,    71,  -230,   -74,   -92,    52, // 2944
      -512,    70,    70,    12,    66,   -57,  -134,   -29,   -123,   -56,   -24,   530,  -325,  -487,   -21,  -309,    -877,   -74,  -385,  -987, -1676,  -525,    65,  -281,   -808,  -471,  1415,  -766,    89, -1199,  -943,   -45, // 2976
    
    // Out channel 31
      -462,    44,   -76,  -202,  -350,    41,   -19,   -13,     56,    36,    88,   171,  -307,  -675,    17,  -685,    -925,  -701,  -901,   219,  -116, -1881,   749,  -340,     25,  -159,   259,    48,    17,   -26,    25,    96, // 3008
      -496,  -817,    36,  -177,    96,   -37,    -1,    45,     90, -2173,  -205,  -827,   230,   575,    98,    51,    -582,   440,   471,    80,    22,  -767,    47,   -17,    -66,  -485,   244,     4,    51,   153,   102,   -94, // 3040
       142,    20,    15,    32,    44,   -46,   -70, -1643,     88,    57,   -34, -1297,    53,  -578,    18, -2203,      73,    53, -1718,    38,   204,  -283,  -735,   231,     84, -1108, -1450,    47,    82,  -179,   255,   122, // 3072
    
    // Out channel 32
      -896,    68,    92,  -436,  -797,   -73,    55,    -4,   -776,    41,    23,  -301,   253,    78,  -114,   -71,   -1705,  -120,  -720, -1218,   -95,   463,  -520,    70,   -193, -1666,  -201, -1649,   -13,    83,    48,  -270, // 3104
       -13,  -254,   -75,  -398,   -79,    33,  -449,   -36,     44,   109,   110,   -17,   166, -2867,  -104,  -175,      78, -1120, -2224,  -240,   -87,    73,   -92,   -42,     23,   100,   103,  -317, -2490,   201,   -46,  -111, // 3136
       100, -2932,   -13,   -14,    -8,   -54,  -175,   315,   -234,    82,   -42,   591, -1016,  -194,    43,   259,   -2560,    19,   160,  -762,     9,    63,    24,  -283,  -1259,  -105,   810,  -217,  -211,  -647,  -728,    12, // 3168
    
    // Out channel 33
      -597,    -4,    19, -1134,  -326,    12,     0,    22,    159,   -17,   -97,    37,  -375, -1148,   125,  -380,    -884, -1802,  -537,   541,  -115, -1048,  1335,  -558,    236,  -258,   355,    45,    18,    76,   -41,    11, // 3200
     -2009, -1528,    66,   -16,   -55,    64,   646,   323,     58, -1886,   434,  -962,   410,   277,    82,   -50,    -929,   924,   461,     3,    99,  -394,    10,  -293,    -79,  -110,   493,   207,   130, -1128,    -7,    88, // 3232
       354,  -673,    40,    50,     5,    27,    -4,  -424,    226,   -19,   -81, -2624,    31,  -995,   -62, -2029,      45,   -17, -2517,   623,    64,  -290,  -641,   103,    125, -1701,  -889,    56,  -178,  -912,   173,  -743, // 3264
    
    // Out channel 34
     -1110,   -22,   -70,    40,   -96,   124,   -75,   -12,     79,    97,   -46,   -29,   190,  -190,   -67,  -946,    -742,  -112,   -64,   576,  -852,    67,   325,    20,     44,  -472,   576,   172,    91,    13,    69,  -110, // 3296
      -226,  1047,    71,   110,    33,    75, -2517,    87,    -70,   -13,   104, -1241, -1551,  -260,   -32,   160,      38,  -189,   233,   -37,   -59,  -177,    71,   191,    -80,  -343,  -184,   419,   -61,   140,   -34,    87, // 3328
     -2948,  -287,   -85,    85,    65,   -45,    65,   347,    171,    14,   -81,   126,   -25,    19,    10,    44,      83,    35,   159,  -473,   261,  -191,  -127,  -273,    114,    28,   198,   -33,   137,   124,  -144,  -225, // 3360
    
    // Out channel 35
       -30,   -78,    68,   210,  -325,   -47,    13,   -19,    709,    29,   -52,   -69,  -315,  -325,    43,   335,    -468,  -349,  -564,   513,  -360,  -120,  1614,    60,     51,  -283,   345,    88,   -34,   -38,   -22,  1411, // 3392
        64,  -198,   -95,   -87,    45,    11,   427,    34,     38, -1101,  -109,   157,  -160,    75,    99,   -37,    -133,   437,    52,    12,   -74,  -686,   -39,  -249,    -20,   885,   199,   -17,   -65,   286,   -30,   -27, // 3424
       258,   720,   -48,    22,   -18,    50,    89,   201,    186,     6,    63,   220,    -6,     7,   -76,  -703,     -45,    77,  -596,   -91,   -56,   -47,  -503,  -102,     59, -1293,   148,   243,  -220,   756,   412,  -314, // 3456
    
    // Out channel 36
      -569,    84,  -109,   -39,  -105,    66,    62,    35,  -1100,   -87,   -36,  -831,  -428,  -310,  -110,  -102,     324,   975,  -142,   403,    -5,    20,     0,   -50,     41,   312, -1202,   178,    26,    10,   -80,    73, // 3488
        74,    15,   -89,    30,   -14,    19,  -174,    32,     -4,  -539,    80,  -364,   191,  -682,   -53, -2331,    -177, -1033, -2033,   -36,   -73,   258,    30, -1731,    -90,    74,  -787,  -171,   169,  -253,    -3,   -46, // 3520
      -361,   -59,   -62,    18,    91,   -29,   207,   544,   -727,   -47,    -9,   357,    94,   742,    86,  -276,      95,     0,   117,   110,    56,   152,  -193,    96,   -358, -1421,   502,    97,  -728,   238,   232,   258, // 3552
    
    // Out channel 37
       184,    69,    39, -1037,  -542,  -138,   -30,    93,   -464,   -40,    45,  -524,  -117,    17,    76, -1386,     573,   -59,  -416, -1297, -1176,   142,   338,  -697,    -53,  -617,   -65,  -925,  -399,   -58,    35,  -154, // 3584
      -894,  -317,    43,  -525,   -86,    49,  -463,    50,    -91,  -261,  -202,  -654,  -238,   -72,   -17,   -38,    -697,   333,  -311,  -368,   -33,    88,   -37, -1145,    -50,  -239,   -41,  -651,    10,    40,   -46,     8, // 3616
       -43,   140,    30,   -88,    57,   -16, -1559,  -243,  -1367,   -29,   -20,  -614,   -26,    93,    38,  -189,      28,    -1,   844,   132,    -9, -1775,    38,     1,  -1170,   151,  -388, -1134, -2020, -1165,  -121,   182, // 3648
    
    // Out channel 38
         3,    90,     8,   170,    79,  -156,    65,   -11,  -1046,    26,     3,  -719, -1483,  -258,    46,   163,   -1129,  -124,   116,  -163,   -41,  -486,  -653,     0,   -199,   198,   -94,   -25,   -65,   -53,   -58,  -162, // 3680
       -48,  -529,    19,    84,   -35,    13,   281,  -111,    -40, -2634,  -777,    -2,   578,    31,   -21,  -626,    -706,    94,   107,   354,    95,  -205,   -68,  -975,    -62,    12,  -543,    43,   -65,    22,    79,    53, // 3712
        95,   123,   -64,    97,   -82,    -2,     6,  -444,   -890,    53,    40,  -623,  -129,  -620,    30,  -998,     -31,   -40,  -662,  -223, -1036,    76,  -154,  -167,    -98,  -231,  -152,     3,    46,    49,   -62,    -1, // 3744
    
    // Out channel 39
      -379,   -72,    91,   159,  -301,    59,   -22,    45,   -621,   -65,   -88,  -338,   264,  -863,  -102,   211,   -1186,   326,  -507,   482, -1696,   907,    11,    60,     55,  -697,  -413,    50,    22,    33,   -26,     1, // 3776
       162,   837,    81,   -53,    43,   -98,   107,   112,     -1,   -57,   308,   328,    22,  -348,   -13,  -842,     231,  -471, -1058,    35,   -30, -1269,    44,   -21,    -29, -1080,  -229,  -262,    58,   -20,   -84,    49, // 3808
       351,  -231,    43,    52,    18,    71,    26,  1442,   -530,   -83,   -24,   522,    26,   291,    46,   564,      48,    22,   610,    54,    33,  -932, -1074,     7,    -34,    50,   649,   -15,  -248,    53,   122, -1443, // 3840
    
    // Out channel 40
        14,    76,    17, -1674,   -27, -1616,   -97,    25,   -138,   -68,   -90,  -851,   144,    84,   -10, -1113,      65,  -292,    15,  -506,    56,    74,  -348,    53,   -959,   -35,   475,  -697, -2373,   -23,   -79, -1996, // 3872
       -62,   -94,    62, -2304,    29,    91,  -676,  -195,     34,    77,   198,   -61,     0,  -119,    -6,   473,     -65,   401,   255, -3517,    45,   128, -1291,   230,     83,   -51,   105, -1724,  -537,   211,  -121,   -32, // 3904
      -528,    -1,   -28,    18,   -44,    16,  -778,   417,   -494,   -43,   -89,   358,  -739,   101,     5,   -53,    -627,    86,   163,   105, -1050,    13,    31,  -559,   -430,  -130,   581,  -842,   -61, -1850, -1000,    32, // 3936
    
    // Out channel 41
        31,    40,    76, -1534,    85,   -83,    -8,   -37,   -312,    72,    33,   265,   288,   -15,   -92,  -661,    -177,    89,    78,  -515,   157,   128,  -243,  -247,    -40,  -239,  -122, -1207,  -103,    87,   -27,   -31, // 3968
       131, -2475,   -18, -2224,   -95,    71,  -710,   -27,    -32,   931,    50,   -97,  -539,  1072,    28,   136,     -28,   145,   376, -3404,   -16,   -43,   -95,   109,      5,   -12,   -98, -1269,    15,   -74,   -17,    25, // 4000
      -347,    86,   -75,   -19,    89,   -22,  -924,  -133,   -693,   -22,    35, -1231,   -99, -1825,    36,  -170,    -505,   -39,   -84,    63,   121,    50,    30,    14,   -405,  -109, -1493,  -616,    42, -1518,  -718,   117, // 4032
    
    // Out channel 42
      -129,    65,    19,   -32,  -533,   -74,    86,    -3,    -64,    85,    84,   -74,  -829,  -472,    58,   963,    -511,  -473,  -439,    96,  -537,  -694,   740,    32,      7,  -300,     0,    87,     2,   -73,    90,  -126, // 4064
      -270,    14,    78,   172,    10,     1,   489,    73,     48,  -351,   264,   484,  -185,  1159,    38,   -58,    -714,   476,   454,     4,   -32,  -864,   -14,  -369,     44,  1070,   599,    26,   -37,  -255,     6,    40, // 4096
       436,   550,    79,    48,    -5,   -29,   -30,   223,     52,   -63,    73,  -759,   -83,   -63,   -33, -1230,    1085,   -79, -1125,    36,  1420,  -246,  -468,   -55,    -46,  -146,  -117,    51,  -185,   149,   -43,   -46, // 4128
    
    // Out channel 43
      -893,   -34,   -83,  -388,  -212,    -1,   -53,    20,   -413,   -74,    34, -3200,  -323,    10,   -80,  -274,    -623,    90,  -273, -1036, -1213,    68,  -297,   -47,    183,    -2,  -647, -1473,    53,    46,    93,     0, // 4160
       137,   483,   -91, -1578,    79,    21, -1573,   140,     80,   -28,  -148,   111, -3309,  -766,   -64, -2099,      14, -1412, -2111,  -207,   -87,  -102,   106,    23,    -66,  -582,   -29, -1186,  -304,  -226,  -111,    99, // 4192
     -1007,  -899,   -97,   -31,   -34,   -49,   -30,  1379,   -127,    19,    60,    -1,  -127,  -339,    90,  -154,    -444,    42,    43,   -84,    89,  -975,   -49,   100,   -373,   -36,   -72,    44,   -11,  -226, -2991,  -615, // 4224
    
    // Out channel 44
        39,    61,    41, -1356,   -39,   112,     8,   -90,    286,    61,    37,   -14,  -908,   -11,    30,   160,     266,  -899,     3,    17,   117,    82,   481,   104,  -1341,    38,    60,  -824,   -78,   -90,    -1, -1902, // 4256
         2,  -841,    91,  -285,    47,   -42,  -558, -1069,     39,  -636,  -873,  -170,  -647,   391,    -2,    64,     185,  -276,    67,   -12,   -59,   -71,  -122,  -528,     91,   211,    14,  -526,  -188,    51,   -16,   -16, // 4288
       232,     5,    43,    60,    33,    89,  -160,    73,    335,    -2,   -48,  -144,    83,    -6,    18,  -926,     -39,    -5, -1179,  -788,   -49,   117,   -65, -2143,   -838, -1224,   572,  -172,  -905,  -209,   -25,   119, // 4320
    
    // Out channel 45
     -1459,    21,    59,    63,  -933,    53,   -11,     2,    261,    46,    53,   114,  -227,  -215,    49,  -592,    -629,  -495,  -747,    -9,   -25, -2482,  -489,   -79,   -127,  -225,   432,    85,    52,   -77,    -5,    23, // 4352
     -1073,  -280,     3,    14,   -89,    -1,    16,  -169,    -75, -2250,  -444, -1671,   287,   113,   -50,   140,    -593,   332,   311,   -98,    42,  -263,    23,    67,    -42,     4,  -263,    28,   144,   215,    -3,   -84, // 4384
      -561,  -458,   -27,   -65,    -7,    21,   -32, -1656,    211,   -92,   -36, -1135,    56,  -730,     0, -2038,      27,    -4,  -956,  -302,   298,  -110,  -185,  -125,     33,     1, -1877,   111,    94,   -32,    -7,  -282, // 4416
    
    // Out channel 46
       -20,   -34,   -93,  -155,    40, -1757,    93,   -46,    -90,    -9,   -29, -1366,  -129,  -271,     5,   228,   -1593, -2142,   -11,    50,  -936,   -98,  -365,    22,  -2133,  -852,  -129,    14,  -908,   -82,    99, -1250, // 4448
     -1706,    38,   -99,   -68,    20,    25,  -398, -1128,     90, -1715, -1184, -1591,   202,   -98,   107,   -22,     447,    -5,  -101,    42,   -73,  -556,  -169,  -655,     54,   -71,  -191,    32,  -468,   -79,   -46,    34, // 4480
      -215,   -47,   -84,    92,    76,    55,    44,  -862,   -145,    77,    73,  -612,  -578,  -382,   -87, -1409,    -180,    59, -1796, -1208,  -575,  -209,  -229, -1758,   -227,  -284,   743,    12,  -410,   -44,   -22,  -368, // 4512
    
    // Out channel 47
     -1048,   -91,   -27,   466,  -993,    14,   -39,    57,  -1177,   -62,    56,  -273,  -704, -1071,    70,   613,    -958,   423, -1167,   -27, -1008,    67,  1406,  -158,     61,   378,  -676,   153,    19,    64,   -29,    51, // 4544
        56,   -38,   -71,   240,    47,    -1,   525,     4,     57,   920,    28,   889,   260,  -432,    47,    12,     -61,  -597, -1194,    79,   -33, -1091,    25,    49,    -12, -1193,   484,  -299,    93,  -203,   -35,   -48, // 4576
       928,    -1,    59,    96,   -40,    69,    42,   836,   -702,   -56,    23,   147,    23,  -140,   -75,   118,      75,    93,   338,   145,   -23, -1249,  -937,    60,    122,   948,   478,    -7,   142,   264,   314, -1122, // 4608
    
    // Out channel 48
         4,    26,   -39,   128,    70, -1150,   126,   -47,   -576,   -53,    45,  -439, -1361,   -16,   176,    -1,   -2379,   -56,    25,  -981,   109,  -172,  -731,   110,     16,   189,   -98,   156, -1669,   -99,   -46, -1362, // 4640
       -16,  -516,    46,     0,   -59,   -47,   720,  -191,    -51, -2530,  -888,   176,  -113,     4,   -23,  -493,    -381,   -59,  -344,  1195,   -12,     0, -1317, -1909,     61,    98, -1015,   -10,  -211, -1132,    75,   -55, // 4672
      -465,     3,   -33,   -89,   -37,   -76,    64,  -519,   -548,    58,    77,  -237,  -450,  -347,   -29, -2515,    -286,    48, -1950,   -51, -1046,    63,   -28,   -14,   -148, -1407, -1554,   190,   142,    32, -2051,    13, // 4704
    
    // Out channel 49
     -2209,   -70,    54,  1180, -1049,   -14,   -53,    84,     38,   -23,   -14,   164,   128,  -157,   -58,   816,    -416,   574, -1261,   783, -1004,   397,  -471,  -253,     42,   -88,   568,    30,    59,   -79,    61,    12, // 4736
        87,  -261,    30,  -148,   -50,    -7,   131,    45,    -36,  1703,    21,   373,   269, -1297,   -23,  -294,       4,    19,  -107,    60,   -99,  -143,    62,    38,     -9,  -367,   -69,  -307,   213,  -528,   -54,    88, // 4768
       356,  -229,    -7,    21,   -30,   -24,   -67,   359,   -329,   -94,    72,   -25,   -41,  1407,   -78,    95,      74,   -61,    -7,    77,   -75, -2017,  -169,    44,     16,  -274,   -93,   -46,    49,    55,   -43,  -799, // 4800
    
    // Out channel 50
      -616,    84,    89,   -59,   -38,  -101,    14,    15,    338,   -15,   -65,   262,  -356,  -239,  -113,  -200,    -153,  -506,     6,   248, -1972, -2111,  -812,  -393,   -424,  -478,    63,  -400,   -38,    87,    81,    51, // 4832
      -939,  -302,    -1,  -357,   -75,    19,  -964,  -194,    -36,  -129,  -547,  -989,   -67,  -228,    60,    55,    -351,   -16,   162,   -49,    43,  -233,   -26,  -169,    -66,  -215,  -115,  -798,   173,  -145,   107,    67, // 4864
     -3221, -1076,    76,   -89,   -12,    19,  -117, -2256,     12,   -81,    32, -2468,    39,  -638,    22,   -95,     200,    27,   -77,  -221,  -476,  -967,  -266,  -630,    -84,   136, -1563,    38,  -252,  -129,  -330,  -870, // 4896
    
    // Out channel 51
       -85,   -73,   -22,    95,     2,  -966,    23,    26,  -1004,    66,   -98,  -610,  -708, -1274,   -72, -1949,   -1228,  -120,   -79, -1189,    46,   604, -1353,    30,    245,    16,   184,    94, -1906,    58,   -68, -1426, // 4928
       135,   159,   -48,   121,   -48,    15,  -252,    16,    -84, -2979,  -165,   320,    43,   146,   -33,  -963,    -415,   -46,   152,  2795,    72,  -501, -1519, -1339,    -52,   189,  -628,   113,  -474, -1175,   -11,   -55, // 4960
     -1022,   -59,    58,    28,   -90,   -30,   -47,  -935,   -667,    73,    78,  -535, -1102,    53,    18,  -320,   -1173,   -18,   -23,   -99, -1433,    43,  -977,  -430,   -385, -2687,  -483,  -110,  -514,    65, -2462,    44, // 4992
    
    // Out channel 52
      -184,   -16,   -37,  -404,    68,   -65,     4,   -72,   -132,    50,   -51,    69,  -164,  -745,   -47,  -129,    -117,   -20,   223,     8,   -71,   246,  -407,   100,     60,    36,  -443,  -172,   -31,   -95,   -88,   -60, // 5024
        82,  -125,   -89,   311,    34,   -79,   -55,   198,     -1,  -316,  -215,   221,   617,  -116,   -65,   -20,    -156,  -189,   433,   -80,   -18,  -648,    81,    37,    -29,  -371,   -79,  -134,   144,   163,   -77,   -38, // 5056
       -68,   152,    71,    48,   -62,    34,     1,  -773,    -55,   -58,     0,  -951,  -127,  -432,   -80,  -160,      -9,   -70,  -168,    86,  -382,   260,  -689,    -2,      4,  -114,  -543,  -255,  -181,  -450,   808,    83, // 5088
    
    // Out channel 53
      -443,    66,   -26, -1191,  -269,    50,   -80,   -41,    129,   -74,   -81,   238,  -855,  -718,   -56,  -658,    -789,  -495,  -286,  -257,  -197,  -862,  1110,  -118,    285,  -460,  -177,  -126,    86,    27,    90,   -12, // 5120
      -651, -1353,    36,  -215,    31,   -59,   -83,   334,    -28, -1613,   464, -1251,   146,   252,   -23,   125,    -753,   132,   259,    -2,    -3,  -125,   104,   -78,    -45,    82,   598,   133,   212, -1005,    34,    65, // 5152
      -493,  -497,    86,    63,   -89,    19,   124,  -390,   1093,    66,    31,  -719,    43,  -540,     5, -1996,      31,    49, -1961,   391,   125,  -309,  -312,    25,    465, -1993,  -106,   512,   -74, -1300,   -98,  -502, // 5184
    
    // Out channel 54
      -109,    31,    98, -1414,  -586,   -13,   -26,    91,    228,    -8,   -78,   -48,  -583, -1165,   -90,  -331,     321,  -790, -1069,   382,   -17,  -890,  1480,  -360,     13,  -427,   356,    48,    -8,     1,    37,   -66, // 5216
     -1064,  -242,    76,  -349,   -57,    10,   610,   277,     57, -1531,   302,  -813,   335,   491,   -22,   -47,    -652,   189,   350,  -149,    88, -1701,    58,  -202,      6,  1110,   295,   -92,    51, -1033,    -7,    67, // 5248
       704,   -51,    45,   -22,   -94,   -27,  -144,   589,    350,    50,     8, -1177,    85,   211,    24, -2141,      15,    64, -1845,   258,  -182,  -711, -1042,   811,    232, -1846,  -348,   228,  -263, -1475,   355,   -44, // 5280
    
    // Out channel 55
       -97,    40,   -44,    84,   -36,   -47,    -3,     9,   -372,     6,   -63,   -29,   665,  -705,   -10,    14,     125,  -195,   -49,   362,  -846,    74,   504,    25,   -109,  -294,  -115,  -169,   -49,    83,     5,   -51, // 5312
        48,  -276,    39,   751,   -27,    12,   408,   -20,    -82,   188,    19,   327,  -267,   462,   -75,  -151,     142,  -151,   -15,    14,   -96,  -119,   -43,   101,     10,   -33,   230,   518,  -147,    24,   -81,    87, // 5344
       769,    52,    39,   -73,    96,    75,   -57,    -8,   -466,    22,    84,   297,  1211,   884,   -43,    95,     -53,    91,    78,    16,    14,    26,    52,    30,    -23,   239,   281,  -117,    35,    75,    69,    -3, // 5376
    
    // Out channel 56
      -360,   -27,   -11,    14,  -224,    42,    65,   -65,   -901,     9,    94,  -693,   192,  -603,     0,   263,    -511,   229,  -211,   305, -1203,   422,   447,   136,    118,  -434,  -670,   129,   101,   -88,   -86,    36, // 5408
       119,  1362,    52,   131,   -67,   -42,    28,   207,     98,    96,   173,   285,   -59,   -86,    40, -1334,      37,  -655, -1281,   -31,   -81,  -382,    54,   -21,     68,   -10,  -468,  -155,    10,   -85,   -47,    81, // 5440
       477,  -456,    78,   -96,   -70,   -82,    42,  1547,   -674,    -6,    74,   691,    11,   454,   -17,   249,      25,    22,   322,     3,    -1,  -275,  -252,    39,    -58,   294,   800,     3,  -339,    88,   278,  -323, // 5472
    
    // Out channel 57
        40,   -34,  -103,   -26,   -37, -1730,   121,    89,   -444,   -83,    90,  -803,  -626,    43,   116,    89,   -2842,   389,    17,  -530,    45,  -261, -1015,   108,  -1816,   -84,  -787,    51, -2028,    -9,   -84, -1213, // 5504
       107,  -357,   -84,    41,    15,    87,     0, -2077,     -8, -2422, -1056,   128,    23,    70,    70, -1135,    -790, -1196, -1568,  5247,    76,    35, -1048, -1807,     99,    82, -1386,   -21,  -189, -1765,  -132,    86, // 5536
     -2280,    40,   111,   -73,   -47,   -31,    -9,  -752,   -567,   -56,    64,  -149,  -173,   -36,   -11, -1928,    -869,   -58, -1771,  -143,  -862,   -44,    69,  -137,  -1060,  -776, -1539,  -117,   -52,   -18, -1117,    31, // 5568
    
    // Out channel 58
        87,    65,   -12,  -100,   -88,    12,    88,    70,    -68,   -42,    35,   -99,  -124,  -100,   -66,  -159,    -126,    58,   -68,  -120,  -109,   -56,  -113,   -93,    -88,     6,   -60,   -40,   -32,    62,   -86,    30, // 5600
       -42,  -109,   -83,   -28,   -87,    60,  -107,  -110,    -44,    46,   -73,     2,   -98,    16,   -69,   -68,      87,    87,     2,    -6,   -82,   -36,   -49,   -75,    -92,    -9,    18,   -53,  -127,     2,    31,   -36, // 5632
       -44,    54,   -46,    58,    59,   -48,    26,   -40,    -15,    37,   -62,   -37,   -65,    44,   -77,   -53,     -36,    46,   -55,   -33,    31,   -48,  -128,   -28,    -49,    64,   -13,   -84,   -50,  -177,   -70,   -89, // 5664
    
    // Out channel 59
      -228,    76,    16, -1109,  -632,    69,    57,   -27,   -285,    15,    44, -1003,    71,   -81,   -48,  -343,      98,  -149,  -309,   639,   118,   254,   210,   179,      8,   -88,  -414,   123,    62,    50,   -22,     5, // 5696
       179,  -401,   -77,   -84,   -35,   -25,  -635,    86,     67,  -406,     7,   112,   -67, -1082,   -86,  -470,     272, -1438, -1457,  -125,   -11,   -69,   -39,  -121,     43,    37,  -518,   -95,   -66,  -302,  -132,    86, // 5728
     -1211,   -55,    40,   -64,    26,    72,    56,   849,   -287,    57,    66,   686,    21,   936,    89,   458,    -144,   -35,   303,   -49,    42,    40,   -15,    53,   -257,   514,  1431,    58,  -243,    67,    79,    79, // 5760
    
    // Out channel 60
     -2271,   -66,    42,   -85,  -416,    24,   -67,     7,     59,   -57,   -77,  -106,   -36,  -765,   -25,   327,    -249,   560,  -528,   491,   155,  1250,   422,   196,     53,   260,   215,    40,   -28,   -56,    25,    56, // 5792
       204,   172,    68,  -404,    37,     2,    81,    48,    -72,  1250,   214,   114,   -69, -1958,    62,  -329,     116,   -32,  -196,  -166,    88,  -255,    30,   -75,     43,  -105,  -151,  -550,    26,  -168,  -110,   -54, // 5824
       241,  -143,    34,   -43,   -77,    80,    50,  1632,     -9,   -69,    64,   693,   -14,   480,   -21,   208,      59,     6,   112,   -57,   134,   453,  -115,     6,    105,   300,  1344,    10,  -336,  -158,    74,   154, // 5856
    
    // Out channel 61
       -87,   -68,    37,   -53,   -74,   -61,   -77,   -94,     25,   -74,    49,   -38,    43,   -12,   -74,     7,      43,   -43,    49,  -146,    34,     5,   -99,   -38,      5,   -52,    -6,   -73,    31,    85,   -75,    18, // 5888
       -40,   -55,    62,    20,   -57,   -58,    48,   -57,     85,    44,   -87,    -8,   -40,    40,   -57,   -68,     -29,   -11,   -79,     7,   -40,   -89,    44,    13,     46,    47,   -39,   -90,   -77,   -99,    62,    77, // 5920
       -19,  -114,   -74,    63,    34,   -88,    42,   -78,    -91,   -68,   -60,    23,  -141,    44,   -29,  -120,     -28,    21,     0,  -128,  -105,   -19,   -61,    -7,   -114,    -2,    52,  -114,  -122,    25,   -64,   -18, // 5952
    
    // Out channel 62
     -1638,   -53,    51,  -263,  -399,   -44,   -68,   -26,   -705,    79,   -24,  -598,   213,  -250,    10,  -345,    -358,  -620,  -448, -1483,  -172,    76,  -338,    13,    -40,   335,  -622, -1153,   -19,    91,    84,  -245, // 5984
      -107,  -376,   -33, -1505,   -58,    55,  -962,   -53,    -40,     6,  -286,  -370, -1156,  -858,   -79,  -217,     222,  -422,  -624,  -143,    91,  -108,    34,   -82,     -2,   -46,  -150, -1184,  -932, -1056,    37,    -5, // 6016
      -845,  -775,   -72,   -10,   -27,    67,    42,  -294,   -445,   -11,    43,    42,  -508,  -181,    -5,    89,   -2145,   -65,   -81,  -381,    10,    25,   146,  -159,   -634,  -149,   152,    33,  -542,  -238,  -795,  -100, // 6048
    
    // Out channel 63
         9,    62,    52,   -57,    57, -1008,    21,   -17,   -527,    25,   -70,  -498, -1194,    38,   102,   174,   -2356,    30,   -15, -1138,    90,  -150,  -695,    41,  -1715,  -134,  -466,    46, -1143,   -66,   -76,  -817, // 6080
        81,  -182,    72,   -53,   -52,   -36,   389, -2234,     60, -2235,  -801,    94,  -155,  -121,     9,  -558,    -327,  -955, -1106,  3842,   -18,    -3,  -645, -1787,    -27,    47, -1425,   135,    -9, -1528,   -37,   -16, // 6112
      -626,    33,    85,   -33,   -19,   -41,   146,  -573,   -802,    57,    73,  -346,  -231,    26,   -97, -1659,    -443,    57, -1733,  -385,  -629,    85,   -22,  -136,   -859, -1344, -1693,   -19,    22,    -4, -1505,   -13, // 6144
    
    
};

const int16_t cg_FC2bias[64] = { // Co,H,W,Ci: (64,)
       295, -2410,   233,   654,  -577,  -415,   237,    17,  -1828,   617,  -111,  -101,  -455,  -323,  1203, -2872,     795,   605,   304,  -522,   195,   -89,   -31,  -114,    653,   668,   377,   132,  -408,    43,  -298,  -942, // 32
       520, -1691,  -597, -4796, -1336,    74,    54, -1274,   -244,  -742, -4324,   831,   350,  -222,   836, -3122,      82, -1777,  1033,   276,  -367, -2411, -1816, -2468,  -1470,   227,  -339,  -617, -1631,  -466,  1145,   137, // 64
    
};

const int16_t cg_FC3weit[2048] = { // Co,H,W,Ci: (32, 64)
    // Out channel 0
      -530,  -171,   228,   701,  -149,  -446,  -502,  -342,   -263,   217,  -196,  -185,  -288,  -404,   737,     4,      25, -1211,   307, -1039,   -18,    17,  -543,  -142,    226,   369,   202,  -670,  -331,   135,  -383,  -316, // 32
       111,  -641,  -494,  -636,   -95,  -165,    29,  -466,   -529,  -186,  -216,  -129,    40,  -404, -1210,   -95,    -187,   -97,  -497,    70,   -87,   586,  -470,  -203,   -564,   -71,   -49,  -752,  -457,   -82,   149,  -178, // 64
    
    // Out channel 1
      -362,  -526,  -323,  -190,  -213,  -168,  -153,  -187,    167,  -129,  -263,  -147,  -203,   320,  -470,  -634,     -22,    -8,  -369,  -131,  -278,  -187,  -113,  -165,   -220,  -394,  -156,  -335,  -573,  -187,   -58,  -673, // 96
      -143,  -458,   -60,   113, -1049,   -77,  -478, -1594,   -232,  -195,    68,  -495,  -248,  -709,  -611,  -707,     -38,   -64,  -333,  -159,    19,   -78,   100,   111,  -1377,   -71,    40,  -809, -1365,    77,    -7,   146, // 128
    
    // Out channel 2
      -196,   -97,  -644,   345,  -923, -1196,   -63,  -745,     35,   928,  -522,  -261,  -359,    94,  -142,  -336,     275, -1128,  -281,  -341,  -238, -1178,  -318,   289,   -230,  -308,   111,  -960,  -486,  -378,  -441,  -843, // 160
      -346,  -569,   110,  -144,  -522,  -402,  -738,  -900,   -975,  -288,  -264,   -51,   223,  -803, -1045,  -291,    -336,   437,  -276,   475,    83,  -227,    40,    31,   -856,  -361,   -91,  -522, -1046,    80,  -135,  -480, // 192
    
    // Out channel 3
      -340,   367,    23,  -123,  -394,  -381,   -83,  -368,    238,   250,    83,  -582,  -288,   224,  -391,   230,     -85,   262,  -161,  -360,  -332,  -472,  -157,  -523,   -313,    13,   -75,  -158, -1106,    23,   -71, -1238, // 224
      -265,  -647,    -1,   154,   -67,  -322,   673,    -6,     26,  -387,   137,     2,    44,  -242,  -278,   357,    -490,   270,  -126,   -32,     6,  -109,    65,   173,      1,  -481,    78,    -8,     5,   -23,    47,  -584, // 256
    
    // Out channel 4
      -219,   143,  -123,  -158,   -36,   -24,  -131,  -428,      5,    82,  -120,  -184,   -82,  -119,  -159,  -179,      -9,  -353,    31,  -124,  -300,   -68,   105,  -265,    -76,   -10,   100,  -522,  -379,  -148,  -148,  -651, // 288
      -101,  -480,  -179,   -79,   -66,   -13,  -356,  -185,   -208,  -181,  -153,  -142,   124,  -659,  -454,    71,    -243,    88,  -398,  -179,  -110,   -31,    41,    80,   -330,    15,  -102,   -66,   -39,    91,    39,  -147, // 320
    
    // Out channel 5
      -131,   184, -1528,   823, -1625, -1294,  -307,   -59,   -300,   -59,  -720,  -128,  -117, -2060,  -152,   -98,    -141,  -466,   -44, -1038,   -60,  -686,  -743,   -51,   -214,   172,   129,   -56, -1350,    -7, -1353, -1143, // 352
       -74,   -49, -2010,  -237,  -296, -1235,   -35,  -893,  -1216, -1278,  -282,  -699,   330, -2676,  -192,  -131,     -27,   367,  -521,   359,  -175,  -529,  -481, -1785,   -790,   -24,   -66,   108,    22,   -83,  -122,   -50, // 384
    
    // Out channel 6
       165, -1669, -1239,   780, -1899, -1758, -1024,   393,    153,  -233, -1387,   663,  -629,   -31,   471, -1575,     378,   -81,   648, -1685,   543,  -871,   480,   465,   -377,   613,   277,   154,    24,  -916,  -947,    90, // 416
      -360,   976,   -73,   779, -1851, -1178,   228, -1962,  -1981, -1742,   667,  -457,   582,   -36,   -36, -1498,     535,   190,   168,   614,    44,   794,   799,   178,  -2085,   854,  -126,  -511, -2401,   -67,  -438,   770, // 448
    
    // Out channel 7
       -17,  -174,  -525,  -235, -1236,  -926,   -66,   -40,   -161,  -199,  -731,    85,   -26,   171, -1837,  -598,    -318,   732,   130,  -717,    73,  -105,    17,   113,   -306,   -55,   367,  -615,  -408,  -104,  -475,  -630, // 480
      -374,  -462,   415,  -461,  -585,  -262,   -22,  -627,   -885,  -966,  -473,  -734,   353,  -633,   998,  -816,     109,   241,   146,   -22,   100,    37,   170,   223,   -533,   150,   -91,  -129,    17,   127,    -7,    88, // 512
    
    // Out channel 8
      -215,    23,  -170,   -42,   -17,     3,  -193,    44,   -132,    -5,   -34,    31,   -24,  -257,  -169,   -82,     -91,   -17,   -83,   -32,  -105,   -32,   -67,     3,   -187,  -134,    18,   -37,  -148,  -134,   -97,  -209, // 544
      -164,   -32,   -53,    32,     5,    -8,  -125,   -86,    -44,     6,   -89,   -72,    82,  -129,  -255,  -221,     -53,    35,  -102,   -12,    76,   -15,  -225,  -282,     31,  -316,  -108,   -45,  -158,   -24,  -152,  -241, // 576
    
    // Out channel 9
      -332,   -79,  -355,   576,  -368,  -372,  -205,  -521,   -258,  -169,  -362,  -172,   134,   -39,   211,  -267,     809,   340,  -908,  -393,   634,  -570,  -681,  -855,   -523,  -947,  -396,   -63,   724,  -193,  -196,  -542, // 608
      -220,  -606,   110,  -394,   106,    -2,   336,  -557,    -22,  -478,  -605,   357, -1163,    93,   904,  -332,    -472,  -119,   137,   -21,   141,  -359,  -914,  -344,   -589, -1046,    63,  -246,  -408,   -93,    -2,  -391, // 640
    
    // Out channel 10
       189,  -453,  -882,  -346,  -534,  -448,  -308,  -401,      6, -4577,  -592,  -209,   318,    36,  -146,  -885,     227,   480,  -571,  -271,  -320, -1530,  -975,  -343,  -3104,     3, -1018,    84, -1562, -1058,  -828, -1425, // 672
     -2169,  -832,   -22,   331, -1502,  -119, -1359, -2098,   -923,  -914,   283, -2380,   803,  -398,   455,  -959,    -294,    55,  -100,    30,   161,   153,   227,    -3,  -1923,  -377,    11, -1155, -1424,   -81, -3024,  -741, // 704
    
    // Out channel 11
       -43,   208,  -216,  -100,  -178,  -195,  -259,  -175,    182,    -6,  -200,  -256,   196,   -53,     2,  -244,     656,   268,  -156,  -208,    -6,  -307,  -370,  -301,   -675,  -540,   -40,   -55,  -765,  -305,  -181, -1206, // 736
      -594,  -991,   -22,   -92,  -256,  -315,  -342,  -373,   -250,  -108,  -433,   -91,  -691,   785,  -651,  -265,     -80,   222,    72,   -67,   392,  -748,  -361,   176,   -250,    96,    72,  -197,   122,   -34,  -678,  -441, // 768
    
    // Out channel 12
       -55,    25,  -665,   -45,   -55,  -356,    83,  -481,     20, -1432,   -53,  -387,  -370, -1756,   136,   -32,     311,   604,  -308,  -172, -1365,  -446,   575,  -614,  -1248,   371, -1239,   311,  -116,  -280,   -58,   -84, // 800
      -559,  -359,  -291,  -237,  -569,  -200,   886,  -197,    -72,   105,  -516,  -620,   114,  -153,   597,  -331,    -587,     1,   196,    36,    24,  -491,  -918,  -900,   -473,  -177,   144,  -342,  -226,   -92, -1095,  -632, // 832
    
    // Out channel 13
      -579,    -6,  -244,  -157,   180,   -69,  -523,  -461,   -206,  -177,  -166,    25,    10,  -966,  -142,   -78,    -141,  -883,  -265,  -153,   -88,   -76,  -138,  -409,   -157,     7,    95,   243,  -393,  -246,  -488,  -250, // 864
      -498,  -101,  -832,  -246,   246,  -557, -1053,  -643,   -384,   -61,  -174,   -89,   550,  -689,   -52,   285,    -549,  -146,   -40,  -371,  -267,   -36,   -76,  -985,   -466,   -89,    11,    46,    92,  -101,  1146,  -276, // 896
    
    // Out channel 14
       -91,   198,   -87,  -182,  -337,  -291,  -240,     6,    177,  -503,  -190,  -300,  -320,    68,    32,  -604,    -191,    53,  -109,  -269,   169,  -151,  -390,  -240,   -201,    27,    23,  -279,    51,  -392,  -236,    21, // 928
      -186,   434,    32,   551,  -566,   -95,   -34,  -703,   -174,   -51,   465,  -120,    58,    19,    75,  -686,    -151,    63,  -316,  -113,   209,   400,   332,   203,  -1180,  -360,   -95,   192, -1176,    51,  -314,  -396, // 960
    
    // Out channel 15
      -674,  -315, -1188,   241,  -904, -1033,    34,  -965,    445,  -283,  -501,  -752,   -17, -1061,  -240,  -144,     419, -1575,  -549,  -353,  -782,  -803,  -400,  -423,   -217,  -522,   688, -1228,  -973,  -671,  -817,  -571, // 992
       903,   -74, -1315,  -188,  -723,  -766,  -797, -1078,   -890,  -577,  -193,  -115,   186,  -947,  -659,  -192,    -682,   -65,  -471,   390,    13,  -191,  -493,  -600,   -726,  -563,    99,  -578, -1378,    71,  -148,  -877, // 1024
    
    // Out channel 16
       335,  -704, -1020,  -219,  -672,  -976,   -51,  -400,    275,  -317,  -543,  -586,  -406,    13, -2023, -1000,     899,   -28,   -79,  -477,  -503,  -978,   223,  -530,  -1289,    62, -1370,    82,    61,  -634,  -770,  -275, // 1056
      -673,   280,   -83,   719,  -972,  -155, -1026, -1997,   -671,  -519,   476,  -569,   279,   -18,  -650, -1132,    -389,   437,   104,    37,  -114,   454,   432,   265,  -1707,   -86,   -43, -1775, -1460,    98,  -353,  -431, // 1088
    
    // Out channel 17
      -800,   596,    51,  -157,  -617,  -862,  -613,  -789,    424,  -416,    96,  -755,  -404,   402,  -680,   312,    -141,   354,  -132,  -548,  -688,  -743,  -347,  -593,   -998,  -322,   163,  -580,  -927,  -165,    32, -1140, // 1120
      -873,  -855,    36,   226,  -320,  -492, -1012,     2,   -156, -1120,   211,    30,  -258, -1552, -1154,   382,    -646,   427,  -699,   -92,    -1,  -179,    43,   225,     17,  -437,    60,    21,     6,   101,  -279,  -838, // 1152
    
    // Out channel 18
      -319,   -66,  -210,   220,  -131,  -380,  -313,  -544,   -586,     4,  -381,  -477,   -57,   358,  -701,  -229,    -207,  -359,  -422,  -286,  -376,  -189,   -95,  -398,   -230,  -211,   434,  -914,  -724,    14,  -403,  -682, // 1184
        -7,  -478,  -191,  -286,  -144,   188,  -338,   -77,   -562,  -281,   -56,  -267,   387,  -758,  -417,  -429,    -298,  -309,  -327,   170,  -378,  -486,  -355, -1282,    -31,  -356,    38,    32,     0,   -22,  -462,  -452, // 1216
    
    // Out channel 19
      -544,   173, -1467,   118,  -833, -1015,  -305,  -101,  -1771, -1569,  -741,  -438,   214,  -263,    17,  -539,     779,   193,  -117,  -486,   -99, -2295,  -181,  -135,   -831,  -120,  -140,  -128,  -370, -2391, -1475,  -165, // 1248
     -2922,  -108,  -210,    46,  -772,  -386,    33, -1635,  -1296,  -690,   115,  -169,  -136,  -865,   -12,  -713,      47,   187,  -178,  -172,  -463,   -59,   -27,    76,  -1659,   107,   -14,  -108,  -864,    12,  -508,  -527, // 1280
    
    // Out channel 20
     -2027,  -759,  -283,  -503,  -451,  -305,  -335, -1084,    184,  -156,  -364,  -324,  -147,  -169, -3012,  -150,    -626, -3373,  -441,  -310,  -863,   200, -1614, -1466,      6,  -678,   333, -2122, -1858,   -45,  -460, -1174, // 1312
      -310,  -752,  -507,   109,  -687,  -123, -2868,  -475,   -327,  -291,  -141,  -938,   238, -1186, -1899,  -340,   -1087,    63,  -177,    97,  -308,  -405,  -377,    14,   -255,  -151,    62,  -104,  -742,   -47,     5,  -419, // 1344
    
    // Out channel 21
      -116,  -269,   445,  -107,  -123,   -71,  -851,  -391,   -808,   102,  -345,  -136,    12,  -642,  -778,  -433,    -922,  -685,   207,  -227,  -142,   -34,  -492,  -144,    -64,  -130, -1420,  -575,  -553,   278,  -102,  -378, // 1376
      -357,  -221, -1042,   125,   160,   -62,  -495,  -622,    -76,  -214,  -273,   -12,   502,  -705,  -698,   167,    -220,  -325,  -803,     6,  -116,    51,     9,  -678,   -361,   -82,     4,     2,  -104,   -86,   -15,  -285, // 1408
    
    // Out channel 22
       162,  -845,  -271,  -177,  -669,  -708,  -457,   270,     72,  -124,  -752,   499,  -331,    -1,   -39,  -897,    -119,    39,   463,  -744,   401,  -185,   128,   342,     -8,   294,   199,   -25,     4,  -435,  -503,   194, // 1440
      -100,   717,    11,   511, -1047,  -779,   149, -2650,   -781,  -657,   435,  -249,   242,    -2,  -109,  -970,     374,   -14,   -74,   139,   113,   504,   503,    99,  -1929,   600,   -99,  -471, -1489,   100,  -189,   540, // 1472
    
    // Out channel 23
      -609,   246,    56,  -715,   197,   115,   520, -2700,   -252,    -7,   349,  -827,   225, -1633,  -231,  -123,     368,  -545,  -796,   314, -1363,   107,  -832, -1172,     51,  -316,   486,  -364, -1461,     9,   193, -1223, // 1504
        70,  -390, -1981,  -213,  -308,   284, -1200,  -997,    196,   266,  -328,  -728,   466, -2456,  -500,  -202,   -2250,   403,  -515,  -604,  -384,  -460,  -544, -1528,   -823,  -125,   -55,    19,    15,   109,   -77, -1559, // 1536
    
    // Out channel 24
        -7,   -67,    78,    50,     2,   -55,  -100,    31,     44,     4,   -91,   -15,   -88,  -315,  -162,    52,     -50,    11,   -91,  -133,    36,  -122,    61,   -60,    -40,   -97,   -72,  -131,  -179,   -80,    58,  -175, // 1568
       -64,  -137,  -114,   -50,    36,    72,   -23,   -51,    -40,  -135,    68,   -41,   -82,  -114,    49,   -96,    -108,  -139,    96,   -34,    23,   126,   -12,  -228,      8,   -40,   -30,   -79,   -52,   -30,   -88,   -93, // 1600
    
    // Out channel 25
        33,    71,  -276,   -59,  -271,   -86,   -31,  -118,    -10,  -261,   -67,  -185,   -83,  -407,   151,    76,      47,  -275,    76,    53,     7,  -270,   241,   -79,     28,  -108,   -63,  -141,  -189,  -128,  -251,  -131, // 1632
      -191,    34,  -197,   124,  -261,  -306,  -295,  -209,    -65,  -296,  -148,  -219,  -128,  -148,  -219,    -8,     -50,    31,   -44,    89,    -5,    47,   212,  -405,   -229,  -124,   -22,  -146,  -346,    54,  -294,  -137, // 1664
    
    // Out channel 26
     -1398,   385,    38,  -782,   255,   147,   702, -3114,    -96,   -74,   449, -1786,   291,  -446,   -50,  -101,     398,  -380, -1177,   430, -2105,   117,  -923, -2926,     46,  -246,   826,  -385, -1038,   -17,   246,  -915, // 1696
        45,  -911,  -521,  -398,   -15,   425, -1827, -1042,    272,   349,  -290, -1092,   721,  -373,  -998,   -94,   -2123,   606,  -724,  -960,  -174,  -190,  -501, -1920,  -1097,  -780,   -91,    39,    19,    34,   -98, -2356, // 1728
    
    // Out channel 27
       -56,   278,  -188,   237,  -250,  -393,  -294,  -641,     -2, -1285,   -94,  -342,  -304, -1178,   693,   -96,    -327,    80,  -665,  -359,    68,  -775,  -481,  -506,  -1083,  -217,  -269,   421,  -651,  -567,  -185,  -721, // 1760
      -955,  -188,  -368,  -263,  -324,   -85,  -445,  -657,   -186,  -302,  -382,  -469,    12,  -839,  -253,  -249,    -520,   480,    45,  -310,  -278,  -354,  -181,  -410,   -565,  -364,   -61,  -208,    47,   -49, -1084,  -582, // 1792
    
    // Out channel 28
       -59,   118,  -513,  1056,  -793,  -515,  -266,  -860,    171,  -168,   145,  -339,  -307,  -698,   -34,    54,     214,  -435,   386,  -811,  -695,  -960,   136,   218,   1125,   332,   -29,  -279,  -378,  -293,  -540,  -563, // 1824
      -165,  -198, -1037,   -90,   -86,  -480,  -572,  -320,   -458,  -834,  -229,   -63,    88, -1545,  -106,  -224,    -203,   284,   250,   593,  -312,    67,  -274,  -900,   -568,  -460,   161,  -163,  -201,    86,   -26,  -675, // 1856
    
    // Out channel 29
      -340,  -314,  -201,  -118,  -240,  -138,    14,  -221,   -223,   242,  -176,  -171,   -45,   -12,  -856,  -408,     110, -1204,  -315,  -116,  -445,  -212,  -476,    32,   -108,  -531,  -819,   -74,  -598,  -192,   -68,  -384, // 1888
        27,  -398,   414,  -215,  -532,   249,  -356,  -807,    -58,  -165,  -577,   -94,   -27,  -246,  -342,  -428,     -32,  -491,   577,   -88,   -24,  -164,  -120,   177,   -995,    58,   113,  -736, -1244,   116,   186,   -40, // 1920
    
    // Out channel 30
      -444,   170,  -137,  -420,   -16,    -7,    23, -1537,     31,  -348,   -38, -1240,   -89,    38,    30,   291,    -110,   289,    -8,   -25,  -205,   -50, -1040, -2140,   -298,   298,   194,   -74, -2576,  -157,   -47, -2672, // 1952
      -408, -1007,   -65,   127,   443,    78,   -65,   -32,     17,    -1,   160,   -95,   148,  -296,   -82,   560,   -3462,   134,   -96, -1698,   168,  -147,   102,   200,    -22,  -926,   -62,   -38,    -9,    27,  -616, -1822, // 1984
    
    // Out channel 31
        21,  -292,  -139,  -161,    -5,    -9,   -78,  -392,    -88,    -4,  -130,  -155,  -151,    63,   -83,  -350,      47,  -162,   -74,   -11,  -513,  -203,  -282,  -111,     81,   -38,   -80,  -237,  -252,   -49,  -247,  -753, // 2016
      -133,  -312,   256,  -198,  -440,   -87,  -117,  -398,    -40,   -78,  -242,  -281,    10,  -854,   -56,  -414,    -236,  -356,   -10,   -64,   287,  -183,  -328,   -66,   -447,  -156,    97,  -496,  -629,    87,  -195,  -219, // 2048
    
    
};

const int16_t cg_FC3bias[32] = { // Co,H,W,Ci: (32,)
     -2616,  -202,  -975, -4767, -2542,  4813, -7487, -2556,  -1287, -2667,   154, -3258, -1875, -3185, -5823,   -44,     418,  -195,   168,   953,   548,  -751,  4358,  5014,  -2093, -2106, -6683, -3177, -2467, -2629,  4821,  -801, // 32
    
};

const int16_t cg_FC4weit[32] = { // Co,H,W,Ci: (1, 32)
    // Out channel 0
       418,  5526, -1046,  4819,  -318,   1628, -1957,  -729,    25,  1068,     788,  1068,   739,  -440, -1439,   -943,  1097, -2882,  -930,   664, // 20
     -1220,  -459,  3211, -2365,  -164,   -328,  1715,  2389,  -700,  1331,   -1061,  1311,
    
};

const int16_t cg_FC4bias[1] = { // Co,H,W,Ci: (1,)
     -4460,
};

