#include <stdint.h>
const int16_t cg_FC1weit[512] = { // Co,H,W,Ci: (64, 8)
    // Out channel 0
       205,  -591,   -24, -1158,   426,   452,   780,  -740, 
    // Out channel 1
      -816,   -87,  -384,  1477,   334,  -574, -2530,    90, 
    // Out channel 2
       590,  -489,  -270, -1005,  -412,   521, -1055,   110, 
    // Out channel 3
       805,  -890, -1415,  1733,  3448, -1893,  1373, -1529, 
    // Out channel 4
        83,   486,  1011, -3203,  2740,  1449, -3177, -2000, 
    // Out channel 5
      1778, -2194, -3151,  1398,  1173, -1074,  1189,   -48, 
    // Out channel 6
        55,   292,   120,   -57,   573,   489, -4025, -1296, 
    // Out channel 7
       227,   399,   -16, -1130,  -571,    75,   281,   572, 
    // Out channel 8
       285,  -602, -1095,   705,  2915,   381,  1057, -3363, 
    // Out channel 9
     -1980,  1323,   116,  2342,  -557,  -680, -2358,   977, 
    // Out channel 10
       674,   396,   169,  1086, -1251,    82,  -158,  1415, 
    // Out channel 11
       441,  -929,   629,   -36,    82,   649,   442,  1017, 
    // Out channel 12
     -2117,     3,   845,   146,  -462,   418,   375,   -98, 
    // Out channel 13
      -749,  -657,   750,  -292,  -459,  -172,  -580,   605, 
    // Out channel 14
       773,  -700,    97,   -99,   342, -1484,  -186,  1317, 
    // Out channel 15
      1331, -1303,   632, -6744,  6678,  3008,   388, -4757, 
    // Out channel 16
      -809, -1514,   656,   565,   -79,  -265,  -515,    77, 
    // Out channel 17
       919, -3538, -1066,  -107,  1004,   937,   653, -1478, 
    // Out channel 18
       510,   426,  -418,   268, -1238,    81,   363,   -99, 
    // Out channel 19
      -185,  1818,   533,   498,   289,   563, -1783, -1528, 
    // Out channel 20
       723,   -39, -1247,   117,  -824,  1307, -1211,  -487, 
    // Out channel 21
      -728,  -104,   365,  -787,  1082,   -50,   374,   441, 
    // Out channel 22
       307,  -925,  -265,  -514,   680,  3040,  -154, -3885, 
    // Out channel 23
      -971,   279,   177,  -711,  3664,   156,   377, -1600, 
    // Out channel 24
       825,   289, -2552,  2135,  1188, -3606,  -735,  1597, 
    // Out channel 25
     -1646,  -200,   881,  -110,   856,   507,  -212,  -347, 
    // Out channel 26
      -774,  -575,  1439,   586, -2915,   349, -1351,  1645, 
    // Out channel 27
     -1343,   632,   -20,   778,   476,   -32,   553,  -413, 
    // Out channel 28
       969, -2489, -2629,  2363,  -430,  -272,   108,   200, 
    // Out channel 29
        18,  -586,  -609,     2,  1707,  -806,   708, -1110, 
    // Out channel 30
      -242,  -278,  -235,  2044, -1242,   -38,  1385, -1279, 
    // Out channel 31
      -340,  -261,   204,   773,   938,   -15,  -107, -1765, 
    // Out channel 32
     -1618,   810, -1793,  5021,   468, -2297,  -655,  1414, 
    // Out channel 33
      -275,  2475, -1786,  2179,  2524, -4565, -1671,  1573, 
    // Out channel 34
       -85,   395,   131, -1314,  -407,    31,   -25,  -176, 
    // Out channel 35
      -310,   315,   311,  -182,  -670,  -932,  -311,    -2, 
    // Out channel 36
      -635,   949,  1383, -1389,  4679,  2381,  -911, -3255, 
    // Out channel 37
     -2024, -2393,  1382,  1127,  -441,  -445,  -290,   373, 
    // Out channel 38
      1184,  -805, -2140,  2383,  1654, -2322,  -414,  1247, 
    // Out channel 39
     -2552, -1810,  1816,  4438, -6833,  2387,   433,   646, 
    // Out channel 40
        53, -2066,   654,  -318, -1093,   659,  1579,   436, 
    // Out channel 41
     -1063, -2673,  -438,  2398,  -640,   744,  2730,  -717, 
    // Out channel 42
      -906, -4242,   234,   477,    37,   -24,    45,   123, 
    // Out channel 43
      -805, -3134,  1544,  -309, -1201,   -54,   502,   672, 
    // Out channel 44
      -913,  -595,  1185,    40,   407, -1230,  -262,   245, 
    // Out channel 45
      -118, -3980,    50,   465,   131,   -53,  -292,  -306, 
    // Out channel 46
       476,   297,   301,  1203,  -312,   593,  -243,  -301, 
    // Out channel 47
       596, -1107,  -257,   705, -2151,  -718,   969,  1488, 
    // Out channel 48
      -127,   -29, -1089,   -32,   118,   126,     7,   -98, 
    // Out channel 49
     -2305,  1683,  1756,  1639,  -740,  1388, -1689, -1160, 
    // Out channel 50
       -61,   139,  -282,  -278,   198,  1475, -4019, -1263, 
    // Out channel 51
       180,   131,   859, -1761, -1303,  3317, -2424, -1727, 
    // Out channel 52
       453,   398,   611, -2851,   276,   490,  -210,   434, 
    // Out channel 53
     -1435, -1048,  1255,  -671,   156,  -468,   869,   312, 
    // Out channel 54
        -3,  1385,  -779,   179,  1375,   815, -2487, -1732, 
    // Out channel 55
     -3058,  -702,  1631,  5227, -2780,   386,   693,   672, 
    // Out channel 56
      -585,   240,  -334,  1824,   520, -3101, -2190,  1484, 
    // Out channel 57
       196,   313,  -829,   122,  -408,   -62,  -271,    30, 
    // Out channel 58
      1659,    92, -1148, -2126,   287,    29,    47,   751, 
    // Out channel 59
      -510, -1704,  1668,  -991,  -948,  2048, -1123,  -107, 
    // Out channel 60
      -534, -3010,  -637,  1990,  -957,   639,   412,   -47, 
    // Out channel 61
       695, -1351,   867, -1495, -1301,   602,   650,   734, 
    // Out channel 62
       411,  -388,  -728,   859,  2028,  -815,   598,   271, 
    // Out channel 63
      -497,   -19,  -256,   -95,   358,   321,   119,   189, 
    
};

const int16_t cg_FC1bias[64] = { // Co,H,W,Ci: (64,)
      1153,   826,  1081,  -965,   817,   410,   848,  -123,    875,    34, -4156, -4148,  1227,   351, -1983,  -853,     296,   516,   720,     6,   616, -1307,  1081,  -561,   1054,   -27,   294,   971,   386,  1551,   881,   538, // 32
      -968,  -222,  1822,  2241, -3178,   580, -2004,   953,  -1153,   199,   969,   508,   592,   918, -2754,   216,    1659,  -273,  1377,   700,  -133,  1312,   556, -1972,    964,   704,  -393, -1201,   465, -1166, -2312,  -389, // 64
    
};

const int16_t cg_FC2weit[3072] = { // Co,H,W,Ci: (48, 64)
    // Out channel 0
     -1086,    99,  -601,  1344, -1036,  2218, -1688,  -350,   -211,  -166,  -567,   331,  -713,  -859,   296,   294,     820,   817,   300,  -155,  1141,  -240,   396,  1960,    511, -1082, -1443,   417,  3586, -1771,   529,   160, // 32
       514, -3503,   140, -2119,  -560,  1496,   324,   504,    306,   642,  1429, -2473,   110,  1873,   828,  1142,     211, -2176,  -760,  -792,  -137,    62,  1502,  -773,    533, -2334, -1085, -2022,   307, -1158,  -330,   723, // 64
    
    // Out channel 1
      -315,  1963,  -194,  -202,  -537,  -540,  -273,  -527,     42,   445,   500,  -323,  1563,  1181,   290, -2376,    2900,   343,   392,    72,   780,  -664,   577,   395,   -104,   296,     4,   644,  -634,  -275,   -76,   767, // 96
       238,    54,  -116,   451,  -346,  6760,   745,   435,   -934,   643,  4726,  1427,  1568,  2181,  1342,  -866,      52,   153,   650,  1044,  -647,  1097,    -5,  -781,    844,   -24, -2073, -1149,   233,  1154,   544,   653, // 128
    
    // Out channel 2
       689,   150,  -528,  -613,  -961,  -114,   368,   803,    386,   -46,   253,  1122, -1368,  1024,   472,  -142,     129,  -571,  1732,  -356,   744,  -149,  -163,  -189,    796,  -785,  -445,   167,   462,   644,   676,  1876, // 160
      1419,   162,   969,   516,  -314,    55,   463,  -645,    753,  1076,  -383,  1382,  -203,   487, -1142,   685,   -1299,   167,  -918,  -773,   382,   -10,  1556, -1597,   -605,   159,    16, -1021,  -522,  1689,   272,   374, // 192
    
    // Out channel 3
       391,  1171,  -772,  -460,  -645,   565,  -318,   -94,   1897,    88,  -216,   989,   502,     2,  -462, -1398,    1140,  3556,   606, -1001,  -437,  -544,  -469, -1706,    961,  -718, -1405, -1002,   605,  1627, -1223,  1142, // 224
     -1060, -1675,   721,   335,  1118,   944,   343, -1130,  -1890,   255,  1380,  -569,   403,  4488, -1374, -4118,    -969, -1922, -2666, -2137,  2223,  -728,  1953,   190,    236,    78,  1270,  -329,  1719,  2444,   999,    60, // 256
    
    // Out channel 4
        32,  1178, -1996,   302,  -845,   636,   572,   186,   1625,   599,  1890,  -704,   297,  -979, -1094, -1020,    1091,  1052,  1637,  1123,  -330,  1022,  -633, -1732,   1570,  1730,   228,   214,   438,  3309,  -233,  1986, // 288
      1175,   322,   740,  1760,    57,   864,   -34,    64,  -1020,  -712,  -600,   481,   964,  1135,   903,    28,   -1618,   674,  -815, -2617,  1268,    -6,    56,  -823,   1929, -1060,  1212,  -643,   799,   422,  -739,  1396, // 320
    
    // Out channel 5
       160,  1106,   807,  -984,    65,  -377, -1016,  1315,   -185,  -270,  1595,  1330,  -324,    42,   541,  2747,     474,    47,  -345,  1297,  2422,  1094,  1324,   907,  -1255,   241,    64,  -605,   832,  -374,   695,   686, // 352
     -2143,   603,   141,  -935,  -244,  -733,   -77,  1698,   1036,  -696,    98,   200,  -488,   898,  -750,   456,    1714,  -203,  2217,  1697,   877,  -852,  -133,   800,    -48,  2379,   592, -1101,   542,     9,   138, -1224, // 384
    
    // Out channel 6
       988,   765,  -532,    57, -1640,  1419,  -217,   313,   -865,   101,  -140,   669,  -109,   -24, -1267,  -832,     152,  -443,  -886,  -650,   829, -1347, -1381, -1253,    736,  -553,  -852,  -271,  1908,  -308,  -764,   374, // 416
       -71,   191,   354,  -474, -1163,  -119,   916,   778,    365,   425,   627,  -864,  -521,  1038,   471, -1331,     706,  -547,   364,  -217,   501,   305,  -703,    79,    872,  -375,  -175, -1380,   976,  -950,  1119,   463, // 448
    
    // Out channel 7
      -312,  1859,  -222,   560,   420, -1876,  2156,  -203,   2618, -1114,   133,   481,   389,   651,   887,  -398,    1269, -1418,   643,  1932, -2827,  1169,   705,  -872,    755, -1712,  -619,  -255, -2099,   833,   892,  1338, // 480
     -1453,   416,  -113,  -352,  1164,  1366, -1622,   216,   -260,   369,  1272,  -581,    88,   322,   679,  -660,   -1150,    76,  1250,  -879,  -460, -1637,  1334,   428,    293,   316,  -144,   851,   112,  1374, -1152,  -442, // 512
    
    // Out channel 8
        19,  2036,  -760,  1462,   974,  -484,   535,  1340,   1472,  1714,   149,   477,  -582,  1537,   783,   690,    3603,  -814,  -745,  2109,    90, -1087,  -623,  2060,   -322,  2050,  1046,   361, -1510,  -669,  -933,  2789, // 544
       877,   716,  -543,   971, -1924,   553,   992,  -881,   -316, -1732,  -497,  -554,   782,  2142,  1891,     3,     911,   506,   598, -1790, -1173,  -480,   136,  -334,   2673,   125,   175,   155,    -5, -1536,  -137,  1168, // 576
    
    // Out channel 9
       387,  1689,  -183,  1171,  -111,  -324,   903,   -64,  -2596,    30,  -604,  -300,   904,   357,    35, -1216,    1103,   913, -1293,   -40,  1026,   738,  -339,   811,   -696,  1311,  -611,  1079,  1215,   193,  -154,    27, // 608
       617, -1139,  -430,  -501,   787,  1223,    60,  -139,      6,   513,  1526,  1159,   274,  1747,   -82,  -326,     404,  -178,   729,   156,   766,   972,   431,    79,   -470,  -682,  -302,  -893,  1320,    11,   251,  1025, // 640
    
    // Out channel 10
      -807,  1520, -3046, -2709,   562,  -121,  1778, -1377,    136,  -454, -2515,   255, -1533,   306,  1099,  1580,      71,  2037, -1219, -1730,  -501,  -225,  1096,  1802,   1138, -1023,   125,  1085,   417,  -935,    90,  -804, // 672
      -338,  1615,  -614,  1014,  1327,  1573,   815,  -887,  -2213, -1544,  -781, -2694,   257,   -27, -1101,  -357,   -1045,   621,    74,  -426,   -56,   624,   160,  -449,   2009,  -353,   220,  -423,  -766,    26,    44,   -23, // 704
    
    // Out channel 11
       134,  -447, -1940,  -967,   304,  -516, -2942,   985,   -391, -4218,  -130,  1033,  -401,  -470,   424,  1009,    1279,  1924,   988,    40,    48,   454,   153,  -669,   -204, -1427,  -686,  -898,  -351,   875,   883,  -965, // 736
     -1336,  1213,  -850,  -403,  -955,  1178, -1291,  1214,   -902,   216,   884,  -915,  1012,   742,  -270,   738,    -844,    54,   885,   302,  -892,  -785,  -868,  -432,     33,   408, -2290,   743,  1037,  -473, -2387,   151, // 768
    
    // Out channel 12
        92,  1988, -1640,   856,  -356,   258,  1005, -1180,   1236,  1357, -1462,  -734,  -627,     1,   168, -1466,     453,  -406,    65, -1536, -1390,   888,  -185,   949,    428,  1204,  -172,    15,   966,   156,  -593,   200, // 800
       469, -1938,  -327,  -945, -1535,   -80,   -85,   194,   -411,   539,   -52,  -316,   401,   334,   939,   547,     -51, -2073,    68, -1992,  -310,   442,  1411,   665,   -823,   820, -1111, -1660,   226,   -37,   563,   293, // 832
    
    // Out channel 13
       395,  -211,   -28,   496,   180,   574,  -313,    25,     56,  -296,   218,   170,   708,  -759, -1434,   973,   -2030,   410,   946,   183,   855,  -571,  -650, -1432,   1020,  1245, -1573,   431,  -384,   345,  -344,   139, // 864
       923,  -517,   306,  -155,  -594, -1343,   896,  -798,   1112, -2784, -2182,   788,  -726,  -517,  -347,    15,     205,   517,   716,   451,   552, -1086,   631,   583,   -277,   307,   189,    24, -2287,    -2,  -182,    26, // 896
    
    // Out channel 14
      1150,   746, -1384,   825,  2856,  -981,   546,  1221,    869, -2425, -1569,   371, -2410,  -119,   918,  2672,     457,  -380, -1483,  2392,   -82,  -728,   700,   339,    734,  -723,  -791, -1400, -1937,  1406,  -714,   570, // 928
     -2160,   -23, -1161,   534,  -191,   984, -3067, -2310,   2270,  -501,   872, -1349,  1975, -1967,   715, -1723,   -1927,  1113,   823,  -840,  1124,   528,  1859, -2758,   2346, -1315,  2620,  2048,  1603, -2195,  -600,  2486, // 960
    
    // Out channel 15
       200,   310,   -69,   390,   598,   -69,  1933,  -849,    670,   993,   117,    49,  2146, -1220,   599,  -472,    -683,  -793,    85,  1539,  -550,  1487,  -142,   190,   -196,  1281,   866,  -820,   494,  -575,   686,   793, // 992
       962,  -976, -1724,   587, -1512,   113,  -505,   809,    830,  1699,   835,    41,   760,  -783,  1459,   590,     141,  -358,   935,  1001,  -623, -3142,   747,   588,     71, -2434,  -556,  1313,  1930,   358,  -233,  1281, // 1024
    
    // Out channel 16
       918,  1030,    82,   550, -1377,   359,  -607,   732,  -1497,   747,  1278,     4,  -492,  -872,   -91,   207,    -188,  4898,  -394,   601,   252,   897,   382,   163,    746,  1954,  -668,  -234,  2839,   518,  -577,   768, // 1056
       521, -1522,  -271,   382,  -522,  -518,   -95,   120,    827,   586,  2456, -1212,   -15,  2264,  -719,    79,    -208,   396,  2646,  1205,    59,   329,   335,   381,   -525,   -80,   661,  -629,  3393,   644,   669,  1300, // 1088
    
    // Out channel 17
      1393,  1188,  -360, -1133,     2,    39,   244,   888,   -846, -1082,   493,   441,   599,  -770,   771,  -801,     226,  -230, -1324, -1114,  2083,  1160,    56,  -517,  -1706,   -51,  -835,   -29,  1518,   741,  -835,   378, // 1120
      1721, -2752,    -3,  -352,    96,   923,   522,  -710,    844,  -338,   367, -1512, -1199,  -486,  -216, -1246,    1383,   -95,   574,  -602,   704,   885,  -265,  -406,   -162,   279,  1780, -1048,   853,  -136,  -145, -1751, // 1152
    
    // Out channel 18
       669,   699, -1147, -1670,  1809,  -561,   564, -1962,    555, -1207,   -92,  -493, -2131,   622,   516, -1015,     479,  1697,   130, -2570, -1276, -2654,   914,  -493,  -2726,  -537,  -585,  -957,  -286,  2153, -2289, -1781, // 1184
       222,   326,   418,   169,  2002,  1630, -1869,    85,   -823,   648,  -613, -1958, -1329,    -5,   310,   448,   -1171,  2108,   392, -2140,  -188,   539,  2456,   687,  -1042,  1564,  -248,   306,  -687,   309,   312, -2007, // 1216
    
    // Out channel 19
     -1111,   161, -2758,  -550,  1549, -2923,   815,  -840,   1428, -2354, -2259,   636,  2076,   581,  2162,  -455,    1853,  -137,  -179,   -93,   137,   689, -1625,   687,    472,    58,  1285, -2291,  -891,  -501,  -253,  -575, // 1248
      -616,  1496,   875, -1483,   -51,  -244,  2105,   262,  -1171, -2862,   194, -2481,  1214,  1324,   -97,   170,   -1123,  -399,   -35,  1453, -2001,  -503,  -178, -3007,   3220,   736,   847, -1848, -1625, -1540,  1733,   343, // 1280
    
    // Out channel 20
       330,   564,  -231, -2617,   234,  -475,  1025,   105,    578,   465,   100,  1222, -1035,  2367,  -583,   682,   -1016,   114,  -449,  -253,  -876,  1688,   745,   833,   -330,   209,  -990,  -560, -2501,  2285,   421, -1424, // 1312
      -589,   903,    13,   -55,   474,   228, -1582,    60,   -194,    29,  1490,  -654, -1524,    29,  -696, -2696,     193,   451,   414,   169,  1339,   391,  1481,    82,    179,   221,  2350,   205,   557,  1051,  -330,  -231, // 1344
    
    // Out channel 21
      -438,   272,  -662, -1707,   140,   494,  -895,   702,   -784,  -551,   817,  -979,   158,  -685,  -890,  -751,    1829,   633, -1460, -1081,   336,    60,  -597, -1529,  -2162,   880, -1519, -2318,  2436,   715, -3230, -1156, // 1376
     -2206, -2151,   550, -3373,   558,  1300,  -535,  -438,    727,  -818,   965,  1243, -1256,   533,  -819,  -981,    -490,  -553,   444, -1606,  -582,   785,  1615,  -884,   -930,  -666,  -273,  1668,   342,  1309, -1639, -1528, // 1408
    
    // Out channel 22
       501,  1068,   -20,  -629,  1291, -1142,  5612,   120,    749, -1171,   226,  -200,   526,   854,  -242,    47,    -585,  1064,  -214,   573,   501,  1186,  4048,   -31,  -1374,   198,  -314,    93,  -613,   718,   526,  1091, // 1440
       -54,  -356,  -404,    17,   570,   -36,  -598, -1057,   1536,   451,    41,   485,  1112,   234,  -526,  -857,     446,  -294,  4352,   710,   376,   686,  2170,    32,   -215,   233,  -237,   179,   600,   593,  1701,   455, // 1472
    
    // Out channel 23
        94,  2058,   -35,  1535,  2459,   351,   -76,  -110,   3016, -1598,  -558, -2516,  -142,  1370,    77,   962,    1227,  -139,   -85,  -398,  -766,  -607,  -554,   155,   1882,   363, -2707, -1726, -1563,    21, -1088,   267, // 1504
     -1456, -2151,  2361, -1342,  1753,  -333,  2372, -2867,   1301, -2565,   240,  -225,   200,   689,  2916,  -219,   -1526,  1947,  -236, -1091,   167,   528,   -28,   852,    668, -1690,  1539,   492,  -213,   321,  -559,  1181, // 1536
    
    // Out channel 24
      -406,  2532,  -593, -1293,   664,  -551,  1084,  -130,    923,   215,  -653, -3947,  -604, -1818,  -935, -2758,    1601, -1625, -1249,  1063,  -320,  -838, -1185,    82,   -228,  -790,   215,   -75,   961,   -52,   503,  1509, // 1568
       627,   239,  -151,    -9,  -749,   456,  -306,   748,   1825,  -623,  1030, -1997,   914,  -849,  -834,  -923,    -828,  -240,  1220,   -11,   772,   203,  -897,   976,    -88,  -425,  -104,   -21,  1266,   -29, -1783,  -517, // 1600
    
    // Out channel 25
     -1015,   333,   141, -1234,   -92,   350,   722, -2963,     76, -1803,   -54,   617, -2356,  -391,   900,  -390,    -288,  -920,   118,   224,   577,  1535,   619,   112,   -259, -1390,   601,   276,   192,  -907,  -923, -1398, // 1632
      1552,   617,   248,  1505,   443,   722,   298,   228,  -1048,  -809,   -45, -1330,   -41, -1682,   949,   284,   -1488,  -280,  -626,   186, -1231,  -566,  -712,   417,    274,   993,   238,  -200,  -343,   630,  -710, -1520, // 1664
    
    // Out channel 26
     -2813,   697,   -40,  -328, -1401, -2409,  1050,   855,    822,    23,   -17,  1113, -1229,  1669, -2874,   586,     363,   261,  -591,   293,  -295,  2004,  2613,   530,  -1030,  1451,   973,    52,  -743,  -666,  -161,   961, // 1696
      2406,   604, -1289,  -429,  -692,   879, -1306,  1958,    -70,   248,  -440,  -845,   118,   -15,  1374,    71,    -159,  -389,   193,  -745,   806,   440,   809,  1190,   1508,  -939,  1108,    14,  1088,  -864,  1855,   672, // 1728
    
    // Out channel 27
       274,   628,  -390,   215, -2663,  -682, -2805,  -350,   -787,  1052,   197,   163,  -559,   681,  -403,   534,     553, -1086,  -228,   -62,  -438,  -609, -1036,   210,    264,   687,   -40,  -354,  -573,   479,   178,   174, // 1760
        27,    -3,   506,   378,   -95,   350,   575,   -18,    -25,   342,    74,   832,  -506,   -66, -1282,   526,    -328,  -598, -2093,  -382,   978,   671, -1415,  -621,    330,  -673,  -660,  -603,  -791,   427,   560,   921, // 1792
    
    // Out channel 28
     -1850,   823, -1239,   801, -2213,   366,   594,    55,    301,  1860,  -745,  -816,   340, -1101,  -239,  -470,     457,   960,   839,    -6,    22,   384,  -493,  1635,   1704,   730,   568,  -406,  1203, -3596,  1244,   -50, // 1824
      3283,  -252,  1446,   179,  -297,   -39,  2087,   409,   -764,  2926,  1815, -2084,   208,  1592,  -711, -1069,      -9, -2262, -1127,  1507,  -848,  -456,   132,   999,   1144,  -290,  -907,  -459,  2922,   948,   144,   956, // 1856
    
    // Out channel 29
       779,   758,   284,   519,  -139,   426,  -226,   220,    178,  -843,  -193,  -255,   474, -1487,   558,   371,    -732,  -230,   835,   174,   513, -1888, -1482,  -513,    804, -1213, -1517,  -222,  -625,  -765,   322,  -214, // 1888
       223,  -645,    -7, -1110,  -249, -3612,  -342,  -392,    828,  -146, -1502, -1687,  -607,   239,   -49,   637,     486,   183,   -38,  -378,   237, -2179,  1049,   358,   -128,  -226,   439,  -274,   -52,  1128,  -333,   350, // 1920
    
    // Out channel 30
       798,  -769,  -493,   906,   -57,    40,  -788,   728,    532,  -238,  -693,   827,  -103,  -128,   961,  1473,    -194,  1211,  -128, -2121, -1592,   456,  1096,   630,   -584,   489,  -594,  -136,  -553,   420,   -92,   580, // 1952
      -444,  -661,   -27,   148,  1309,   -31,  -576, -1444,    321,    17,   320,  1007,   391,   -16,   491,  -115,     340,  -764, -1011,   -70,   952,   404,  -799,  -397,    401,  -261,  1386,  -417,  -645,   842,   478,   189, // 1984
    
    // Out channel 31
        16,  -529,  1155,  1206,   234,  -147,   344, -1267,   -250,  -300,   829,  1239,   164,   112,   523,   648,   -1051,  1601,   212,  -507,  -339, -1165,   127,   955,   -698,   524,   667,   145,  -239,  -519,   870,   269, // 2016
      -445,   789,   335,   493,  1402,  -874,   -39,   109,   -822,   198,   284,  1581,   564,  2504,   971,   245,     399,   -61,   619,  1288,   201,     1,  -448,  1096,  -1278, -1454,  -155,  1523,   583,   442,  1314,   462, // 2048
    
    // Out channel 32
      -172,  -775,   936,  1076,   333,   557,  -468,   521,   -831,   899,   395,   378,  1269,   322,  -318,  -168,   -1586,   323,   449, -1025,  -210,  -569,   657,   471,   -444,   126,   840, -1068,   506, -1679,   639,   776, // 2080
       -59, -2206,   306,  -885,  2135,  -655,  -810, -1020,    683,   445,    83,   365,   -16,  -660,  1509,   424,     671,   262,  -749,  -479,  -656,   903, -1753,   160,  -3478,  -127,   503,   917,  1061,   728,  -280,    19, // 2112
    
    // Out channel 33
      -491,   100,  -399,   236,   527, -2284,  3002,   335,  -1960, -2012,   826,  -534,  -400, -1447,  -395, -1882,     417,   302,  -294,   883,  -354,  -485, -1577, -1050,  -1243, -1520,  -102,   587, -1212,   617,  -589,  -137, // 2144
      1077,  -612,   226,  -779,  -773,   814,  1765,   773,   1563,  1738,  1714,    45,  -382,  1105,  1280,   303,    -795,  -183,  1399,    83,   899,   129,  2811, -1573,   -275,  2170,   -34,  1062,  1763,  -422,   297, -1477, // 2176
    
    // Out channel 34
       141,  1353,  -422,   555,   -64,   184,   241,   485,    210,   452,  -234,  -630,  1340,  -276,    51,  -171,    -796,   -70,  1218,  -352,   757, -1005,   -59,  -431,  -1179,  -476, -1088,  -181,  -133,   -40,   632,   450, // 2208
       -30, -1468,   428,  -240,   289,  -867,   622,   628,   -183,  -379, -1462,  -803,  -648,  -766,   312,  1159,     722,  -132,   965,    94,  -699,   -95,   467,  -506,   -129,    99,    53, -1778, -1286,  -260,  -331,  -106, // 2240
    
    // Out channel 35
       460,  -342,   218,   250,  1009,  1638,   251,  1579,    758, -1090,   589,  -670,    79,  -535,  1161,  1794,     -36,   936,     2,   -60,  -213, -1867, -1698,  -118,   1345,  -813, -1925,   830,   605,   463,  -467, -1542, // 2272
       759,  -742,  1041,  -427,   -24,   224,  1223, -1393,     -4,   333,  -489, -1103,  -128,   607,  -687,  -316,    1053,   534,   192,  -872,  1304,  -281,  1358, -1102,    322,    96,  1259, -1184, -1271,  -501,  -784,   571, // 2304
    
    // Out channel 36
     -1218, -1109,  -614,   373, -2553, -1010, -1887,  1049,   -200,   395,  -191,   627,   379,   -68,   515, -1531,    1110,  -430,   934, -1607,   142,   467,   854,  -643,   -634,    51,    24, -1019,   188,  -595,   378,  -349, // 2336
       -97,  -432,  1912,   201, -1194,  1645,  1711,    70,   -696,   254,  -341,   180,   496,   218, -2607,   395,     -30,  -889,  -302,   122,  -594,  1420,   -19,  -361,   -689,  1749, -1447,   149,    13,  -867,   839,  -503, // 2368
    
    // Out channel 37
      1230,  1110, -1192,  1030,  1738,  1175,  -460,   -74,   1833,   520,   566,    86,  -572,    56,  2119,  1109,    1315,   328,     6,   796, -1196,  -291,   774,  2009,   -291, -2127, -1570,  1054,   -74,  -347,   174,  -534, // 2400
     -1615,  -200,  -597,  -180,   502,   472,  -552, -1298,   -910,   969,  1247,  -717,   616,  2957,    30, -1126,     253,   933, -1775, -1614,  -253,  -312,  -430, -1567,   1077,   551,  -176,  -407,  -678,   149,   684,  1328, // 2432
    
    // Out channel 38
       680,   413,   508,  1042,  2242,  -837,   739,   252,   1000,  1036,   814,  -790,   297,   709,  -987,  -516,     -70,   795,  -680,  -212,    84,  1057,   735,  1287,  -1534,  -169,  -182,  -855,  -370,   982,   533,   306, // 2464
     -1439,   877,  -718,  -128,  -173, -3139,  1543, -1238,   -177,  -680,  2843,   504,   611,  2043,    10, -1755,    -409, -2204,   642,  1291,  1504,  -399,  -364, -2617,  -1203, -2114,   111, -1671,   281, -1427,  2397,  -881, // 2496
    
    // Out channel 39
     -1257,   884, -2187,  -218,  1032, -1869,   485,  -504,   -687,   806,  -809, -1767,   996,   394,   493, -1854,     961, -1230,  -702,   922,  -438,    28,  -889,  -155,  -1581,    72,   191,   340, -1349,  -495, -1329,  -786, // 2528
      1686, -1214,  1313,  -847,  -496,  1918, -1211,   133,    717,   168,  1028,   -36,  -634,   161,  -146,   -66,    -469,  -241,   530, -1548,   258,  -812,    19, -1193,   -150, -1021,  1360,  -485,   159,  -275,  1623,   134, // 2560
    
    // Out channel 40
        75,   723,   468,  -394,  1726, -1822,  1436,     6,    118,  -960,  1231,  -767,  -524,  -691,  1099,    37,   -1342, -1106,  -300,  1117,   890,  -823,  1029,   492,   -746,  -163,   530,  -337,  -277,   272,   -92, -1064, // 2592
      -642,  -876,   239,   -52,  1118, -1703,  -562,  -252,   1234,  -593,  1264,   236,  -437,   338,   244,  -797,     955,   210,  4350,  2293, -1512,  -208,  1644,   348,  -2348,  -560, -1021,   796,    13,  1581,  -407,   346, // 2624
    
    // Out channel 41
       373,   -89,   488,   556,    99,   517,  1630,   -19,   -788,  -134,  -982, -1476,  -528, -1650, -1484,  -696,      81,   725,  -360,  -357,   946, -1138,   205,  -905,     13,  -413, -1098,   785,   161,  -374,  -581,  -515, // 2656
        28,  -605,    85,  -680,  -498,  -580,     2,  -123,    177,  -290,  -602, -1160,  -638,   346,  -410,  -730,     347,  -188,  1128,  1896,    68,  -244,  1704, -1011,   -397,  -523,  -592,  -620,  -740,  -319, -1260,   194, // 2688
    
    // Out channel 42
      -138,  -178,   643,   783, -1835,  2366,  -122,   269,   1581,    83,  -108,   150,  -461,   336,   930,  -414,     962,  4650,   695,   516,  1027,    41,  2433,  -379,   1111,   890,  1472,   570,  4072,  -386,   168,   776, // 2720
      -897,   691,   350,  -528,   129,    93,   574,   -20,  -1145,   263,  1028, -2024,   975,  1141,  1112,   359,    1347,   576,  -256, -1106,   -49,   649,  -750,   545,   -363,   893, -1715,  -428,  1900, -1099, -1304,   436, // 2752
    
    // Out channel 43
       353,   -95,   190,   375,   -13,  -731,  -353,   468,    624,  1165,    19,   301,   853,  -226,  -693,    85,    -964,  -208,   142,   919,  -402,  1075,  -138,    58,   1066,   173,  -291,  -225, -1104,   509,   121,   748, // 2784
       119,  -305,   180,    28,  1012, -1019,   293, -2292,   1783, -2035, -1291,   790,   615, -1187,     4,   335,    -143,   348,   535,   -74,   305,  -369,   600,  -578,    287,  -679,   796,   634, -1143,   529,   437,   895, // 2816
    
    // Out channel 44
      -144,  1094,   366,    27,   100,  -699, -1322,  -208,   -731,  -296, -1447,  -806,   436,   652,     0, -1208,     305,  -131,   504, -1064,    66,  -229,   539,  -851,  -1488,  -981,   534,  -459,   397,  -385,   133,  -985, // 2848
      -889,  -430,  1005,    95,  -214,   244,   198,  -272,    -63, -1010,  2022,   777,   676,  1439, -1381,  -404,    -644, -1283,  -888,   237,   218,   786,  -523,   107,  -1052,   -76,  -593,   -11,   743,   436,   466,  -994, // 2880
    
    // Out channel 45
      -833,  3137,  1373,  -538,  1566,  -608,  2499,  -777,   2445,  1423,  -408,   420,   644,  2136, -3177,  -626,    -939, -1651,   145,  -624, -1523,  1341,  -947,  -930,    766,  1679,  1159,  -616, -2160,    35,   101, -1145, // 2912
        80,  1566,  -346,  1874,  2670,   712,  -180,  -426,    -70, -2152,  -524,  -899, -2331,  -877,    16,  -762,    -598,   275,   934, -1352,  -583,   291,  -484,  -481,   2421,  2259,  1387,  -232,   525, -1512,  1269,   108, // 2944
    
    // Out channel 46
     -3336,   570, -1149,  -584,   366,    -9,  -163,  -517,   1508,   305, -1129,  -760,   230,   241, -1559,  1125,    -359,  1774,  1078,  -230,  -723, -1170,  1611,    19,   -323,  -645,     0,  -201, -1613, -2098,   858,  -554, // 2976
        49,   599, -3393,   -83,   739,   824, -1870,  1070,  -1543, -1312,   170,  -401,   325,   796,   911,   109,   -1086,  1708,   621,  -153, -1539,   551,  1195,  1299,   -113,  1714,  1480,  -410,  -486,   287, -1310,   891, // 3008
    
    // Out channel 47
      2108, -2024,  1016,  1635,   651,  1840,  -362,  1361,    771, -1869,  -589, -1097,   719,    48,   290,  1106,     945,   -33,     1,  1837,  -109,  1160,  -120,  1462,    513,  1093,    20,   -10,  1662,  1859, -2091, -2028, // 3040
     -1682, -1578,   618,  -640,  1273,   203,   928, -1778,     17,  1072,  2232,   490, -2933,  -439,   527,  -670,     282, -1063,  -668,  -389,  1434,   129,   884,  -914,   -682,   812,  1462,   253,   330, -1219,   777,   349, // 3072
    
    
};

const int16_t cg_FC2bias[48] = { // Co,H,W,Ci: (48,)
     -1034, -6137, -1062, -2381, -3128, -3467,   117, -1300,  -4659, -3122,   142,  1851,   111, -1717,  -893, -3093,   -5568,  -239,  1192,    -9,   -40,  4089, -6605, -2344,    757,   523, -2722,  -854, -5203,   -60,  -268, -4889, // 32
      -649, -1322,   890,    79,  1693, -1342,   -75,  2412,  -3588,  2312, -6625,   978,   917, -2975,    11, -3217,  
};

const int16_t cg_FC3weit[1728] = { // Co,H,W,Ci: (36, 48)
    // Out channel 0
      -912,  1057,  -784,  -102, -1114,    202,  -492, -3742,   384,  1661,    1850,   365,  -511,  1301,  -236,   1110,  -513,   206,   780, -1882, // 20
       718,  -263,   173,  -244,  1590,    -17,   516,  -312, -1145,   396,    2007,    42,  1129,  1352,  -148,   1383, -1081,   -51,   357,   746, // 40
     -1493,   411, -1845,    19,  1619,   2257,  -974,  -837,
    // Out channel 1
       169,  1027,  -704,  -371,  -189,   -244, -1616,   284,   681,  1442,     215, -1287,  -370, -4632,  1263,    123,  -309,   323,   -53,   474, // 68
       526,  -701,  -454,  -752,   330,  -1180,  -140,  1245,    20,  -577,     600,  -193,    43,   510, -1265,    416,   473,  -508, -1202,   293, // 88
     -2306, -1300, -1360,  -339,   259,    277,  -976,   632,
    // Out channel 2
     -1233,  -916,  -157,  2525,  -662,  -1024,   626,  1369, -1895,   158,      57,  -493,   458,   -52,   548,    434,  1058,   -68,  -381,    50, // 116
     -2257,  2082,  -269, -1748,  -978,    247,  -180, -2075,   767,   -47,   -2407,  -672,   506,  -817,    64,   -926,  -614,   576,   602, -2812, // 136
       655,  -121, -1944,  -176, -1589,  -1476,  1169,  -719,
    // Out channel 3
       684, -1048,  -174, -2678,   868,    902,   942, -1388,  -573,  -867,    -426,   333, -1505,  5435, -1705,    806,  1672,   795,   706,  -800, // 164
       589, -1137,  2754,  1223,   350,    745,  -387, -1154,  -338,  2279,    -301,  -247,  -452, -1971,   250,     57,   -12,  -921,   -71,  1234, // 184
     -1050,  1807,  1208,  1937, -1716,   1106,  -561,  -328,
    // Out channel 4
     -1809,  2041, -1148,  1753,   245,   1010, -1236, -1591,  2134,    55,   -1316,   237,  1350,   443,  2761,  -2394, -1044,  1244, -1502,   -27, // 212
         8,  -806, -3036, -1647,   597,   -328,   -76,  6266,   891, -1602,    1915,   -20, -1585, -1151,  -170,     85,  1114, -1280, -3437,    52, // 232
       186, -2166,   949,   435,  2001,   -575, -2516,  1893,
    // Out channel 5
      1089, -1250, -1093, -5450,  -391,    170,    32,  -663,   920, -1240,    2601, -1999,  -870,   934, -4657,     67,  -826,   281,  -598,  1724, // 260
      3203,  1018,  2025,  1623,  1352,  -1513,  -348,   716, -3546,  1524,    -143,  -432,   688,  -345,   205,    975,    59,  -962,   677,  2897, // 280
     -1250,  -110,  1694,  1187,  1569,  -1376, -2304,  -249,
    // Out channel 6
       800, -1191, -1316,  2120,    34,    275,    92,  1429,  -609, -2266,     143,   719,   972,  2907, -1509,    741,  1120,  2276, -1601,  -534, // 308
     -1287,   962,  1359,   166, -1646,   1508, -2083, -6178, -1494,  2482,   -2130,  -644,   696,  -913,  2583,  -1041,   499,  -124,   969,  -227, // 328
       260,  1126,    70,  1011, -1935,   -102,  -227, -1708,
    // Out channel 7
      1756, -1291,  -161, -4127,   641,     41,  1166,   928, -2415, -2386,    1448,  1696,   336,  5978, -1270,   1251,   672,  1722,  -185,  -946, // 356
      -364,    93,  2565,   294, -2305,    744, -2629,  -922, -2500,  2494,   -2415, -1723,    71, -1789,  1533,    537,   538, -2359,  2117,   652, // 376
       221,  1054,   909,  1508, -2121,   1529,   228, -3289,
    // Out channel 8
      -878,  1056, -1017,  -542,   735,    519,  -927,   853,  1176,   256,     642,  -393,   571,  -875,  1433,   -127,  -915,  1019, -1403,  -729, // 404
       286,   167, -2028, -2169,   366,   -816,   241,  4978,  -475, -1278,    1443,   -86,  -220,  -769,  -318,    400,  1526,  -371, -1092,   357, // 424
     -1505, -1153,  -733,  -298,  1692,   -645, -1423,   666,
    // Out channel 9
        35,   490,  -876, -2842, -1052,   1731,  1241,  -767,  2735, -1621,    1227,   156,  1953,  -594,  1422,  -3136, -3158,    68, -1515,   134, // 452
      1739,  -120,   900,  -941,  1107,  -2757, -2827,  1573,  -109,  1163,     727,   886,  -782,  -568,   764,   1006,  1516, -3501,  -472,  1691, // 472
       265,  -765,  2194,   706,  -267,    198, -1308,  2864,
    // Out channel 10
       180, -1704,  -660,   304,    34,    362,   476,   727, -1056,  -776,     283,   -23,    -3,  4394,  -816,    455,   526,  1209, -1299,  -332, // 500
      -267,   261,  1668,   275,  -635,    707, -2043, -3918,  -777,  1421,   -2212,  -482,   764,  -373,  1749,   -607,   580,  -145,   478,   266, // 520
       293,  1207,   964,    90, -1289,    536,   216,  -747,
    // Out channel 11
       698, -2018,  -950,   772,   351,    805,   378,   849, -1339, -1692,     873,   671,  -741,  5077,  -507,    809,    37,  1599,  -867,  -751, // 548
      -533,   155,  2467,   352, -1817,    678, -1926, -1531,  -639,  2062,   -2390,  -821,   441,  -971,  1301,   -372,   585,  -507,   907,  -302, // 568
       382,   876,   623,   346, -1399,    435,   171, -1560,
    // Out channel 12
      1123,  -581, -3127, -1145, -2737,  -1611, -2511,   213,  -939,  -212,     504,    28, -2182, -3624, -1843,   1493,  1603,  -905,   -61,   985, // 596
       456,   846,   157,   650,  1812,    464,   310,   638, -1176,   397,    -672,  -206,  1717,  1163, -1253,    493,  1037,  1763,    74,   552, // 616
     -1339, -2844,     8,   731,    86,   -183,  1033,   108,
    // Out channel 13
     -1542,  1552, -1273,  1018,   549,   1159, -1847, -1443,  1655,  -397,    -957,   465,   904,  -467,  2298,  -2227, -1387,  1009, -1444,   -59, // 644
        85,   -79, -2814, -1924,   790,   -927,   206,  5730,   710, -1987,    1609,  -163, -1210,  -834,  -900,     83,  1719,  -908, -2656,   492, // 664
      -390, -2617,  1379,   225,  1177,   -588, -2658,  1774,
    // Out channel 14
       721,  -776,  -902, -2075, -2117,  -1307,  -785, -1186,  1132,  -619,    1423, -1541, -1832,  1294, -2794,     56,   924,   408,   583,  1798, // 692
      1170,  1060,  -686,  -352,   898,   -395,   295,  1088, -2927,   360,    -999,  -313,   944,  1730, -1536,    115,   -40,  1329,    61,   409, // 712
     -1236, -1566,  -445,   225,  1338,   -432, -1409,  -228,
    // Out channel 15
      -178,   -45,  -253,  -743, -1294,   -413,  -177, -1330,  2006,   863,    1868,  -992,  -419,  -760,  -541,    373,  -211,   778,  1297,  1596, // 740
       917,   -79,   168,  -847,   406,   -672,    36,  -176, -2232,   197,     129,   265,   967,   776, -1345,    374,    30,   210,  -326,   211, // 760
     -1260,  -843, -1170,  -808,   508,   -698, -1228,   391,
    // Out channel 16
      1752,  1776,   663, -1894,  2696,    914,   869,   769, -1274, -3239,    -231,  3374,   322,  3563, -2249,   1593,  1328,  2496,  -112, -4237, // 788
     -1625,  -678,  1350,   467, -3411,   2000, -3279,   -81,  -675,  2265,     290, -2705,  -433, -2049,  1966,    460,  2569, -2441,  2397,   -95, // 808
      1732,  1343,  1521,  1512, -2000,   2259,  -372, -3744,
    // Out channel 17
        -3,   464,  2642, -4488,  -661,  -2395, -3593,  1880,  -702,  -963,    -330,   639,   567,   -80,   923,   -338,  1421,  1673,  2054,   151, // 836
     -5403,  2309,   149,  -237, -1275,    307,   363,   227, -1182,   519,    1428,   412,   294,  -378,  -187,   -376,  -759,   198,  1478,  -686, // 856
      -439,  2318, -2961,   861,  1637,  -1324,   803, -1299,
    // Out channel 18
      1463,   821,   697,   586,  3197,   1709,    84, -1623,  -780, -2220,    1175,  2183,  -300,   137, -1958,   -722, -2615,   703,  2335, -4769, // 884
      1677, -2253, -2496,  1474,   746,  -1740,  -810,  -702,   995,   238,     457, -1401, -1849,   589,  1589,    688,  2929, -1337,   338,  1282, // 904
       290,   567,  3074,  1394, -1385,   2417, -2773, -2018,
    // Out channel 19
       703, -1819, -1563,   -89,   595,    736,  1470,   629,  -139, -1951,     357,  1875,  -402,  4679, -1059,   1308,   656,   819, -1364, -1108, // 932
      -436,   266,  1945,   193, -2182,    803,  -255,  -169,   754,  1807,   -1302, -1057,    77, -2013,  1269,   -147,   324,  -384,  1010,  -375, // 952
       -59,  2107,   169,  1450, -1311,   1478,  -172,  -622,
    // Out channel 20
       698,  -689, -2994,  -568, -1880,  -1971, -3016,   746,  -509,  -343,    1091,   125, -2745, -3325, -1962,     58,  1689, -1320,   498,   425, // 980
       611,  1204,  1196,    34,   989,   -116,   582,   184, -1419,   700,   -1545,  -377,  1630,   421,  -111,    974,   741,   986,   558,   634, // 1000
     -2872, -2323,   250,  -596,  -288,   -884,   496,  -283,
    // Out channel 21
     -2411, -1690, -3193, -1089, -1466,  -1568,  -409,   525,    92,   860,     818, -1661, -1634,  1981, -1326,   1965,   236,   595,   131,  1481, // 1028
      1055,  1905,  -751,  -662,  1601,    143,   600,    81, -1901,    90,   -1158, -3007,  1686,   788,  1285,  -4027,   879,   952,  -134, -1221, // 1048
     -2124,   142, -2643, -1276,   -64,  -1409,   717,  -227,
    // Out channel 22
      -503,  1546,  -822,  -856,   222,    364, -2092,   430,  1155,   196,     436,  -618,  -126, -2396,   966,   -202,  -445,   432, -1261,   432, // 1076
       830,  -224, -1720, -1426,    35,   -706,   120,  3720,    25, -1529,    1715,    -5,  -258,    55,  -309,   -132,  1101,  -701,  -831,   609, // 1096
     -2112, -1098, -1292,  -655,  1477,   -999, -1384,   783,
    // Out channel 23
     -2491, -2181, -1040,  2728,  -560,   -508,   769,  1553, -1410,   683,     436,  -412,  -605,   429,   861,    694,   994,   128,  -716,  -172, // 1124
     -2346,  2630,  -601, -2246,  -728,   1038, -1325, -1365,   801,   147,   -3685, -1385,  1562,  -178,   923,  -1332,  1735,  1633,  1353, -3605, // 1144
       -37,  -130, -2299,  -281,  -371,  -1088,  1150, -1752,
    // Out channel 24
       243,  -851, -1034,  1307,  -471,   -883,   938,  1342, -1049, -1074,       4,   541,  1443,  1455,  -374,    728,  1295,  1909, -1379,   -21, // 1172
      -769,  1020,   363,   424, -1407,    923,  -522, -1092,   477,  1438,   -1176,  -225,   183, -1049,  1087,  -1416,  -468,   122,   327, -1424, // 1192
      1105,   893,  -831,   192, -1301,   -506,   733, -1033,
    // Out channel 25
      -388,  -884, -1657, -1607, -1745,    258,    -8,  1369,  1254,  1065,    -474, -1397, -1088, -1260,    -7,    723,  -957,   393,  -495,  -205, // 1220
       543,  1522,  -476,  -800,  1115,    545,   180,  -266,  -663,  -221,    -288,   759,   571,  -361,  -935,  -2058,  -786,   393,   253,  -935, // 1240
      -522,  -562, -1731,   -53,  -284,  -1003,   534,  1524,
    // Out channel 26
     -1112,  -408, -1549,     3, -1471,  -2204,   738,  1933,  1205,  1099,    1401, -2720, -1259,   682,  1132,   1120, -1352, -1151,  -226,   203, // 1268
       403,  2325,  1783, -1305,  1309,   -310,    43,   506, -2594,   773,      23, -5109,   826,     9,   777,  -2983, -1472,  2120, -1143, -1209, // 1288
     -3081,   398, -2611, -3268,  -264,  -1714,  -582,  1883,
    // Out channel 27
       789,  2486,  -103,  1886,  1570,   -671, -2653, -3034, -2439,   443,     846,  1779, -1943,   946,  2109,  -3885,    66,  -261,  2242, -3327, // 1316
       802,  -669, -4163, -2709,   767,   -543,  1099,  1783,  1466, -1062,     998,    15,  -897,  1453,  1822,  -1453,   600,  -209,  2438, -2908, // 1336
     -1543,  -666, -1202,    45,  1111,   1618, -3162, -1717,
    // Out channel 28
       701, -1762,  -771,  -128,   402,   1393,   505,   555,   991,  -105,    1742,  -755,   566,  2865, -2861,   -826, -1312,   543,  -638,  2207, // 1364
      2313,  -985,  2500,  1938,  -522,   -331,  -391,   -94, -1932,  3332,     545,   203,  1047,  -193,   179,    318,   431, -3081,    62,  2865, // 1384
      -995,  1270,  2219,  1516,  -478,   -394, -2359,  2558,
    // Out channel 29
      1117,    83,  1367,  1179,  2788,   1716,   908, -2123, -1456, -1326,    1138,  1987,   -63,  -558,   860,  -3024, -3105,  -658,  1433, -4390, // 1412
      1576, -1598,  -579,   768,  1084,  -2738,  -237,  -669,  1522,   -15,     473,   539, -1640,   687,  2077,    121,  2439, -1359,   229,  1994, // 1432
      1090,   988,  2171,   940, -1095,   2192, -2509, -1983,
    // Out channel 30
      -955,   678,  -660,   987,  1026,   2015,  -869,  -844,  1640,    39,    -408,   792,   835, -1252,  1687,  -2249, -1474,  -164, -2707, -1734, // 1460
       235,  -124,   651, -2265,  1082,  -1916,  -994,  4394,  1808,  -628,    2102,  -545, -1775,  -442,   462,   1395,  2458,  -714, -3804,  1355, // 1480
      1307,  -621,   955,   496,   213,   1024, -1564,  -220,
    // Out channel 31
      -237,    35,  -369,   259,   381,    408,  -815, -1826,   953,  -478,    -508,   383,   606,   379,  1384,  -1333,  -952,   -92, -1681,   -66, // 1508
      -175,   265,  -546,  -852,   472,     18,   200,  3486,   105,   192,    1004,  -556,  -471,  -414, -1390,     32,   787,  -375, -2342,  1493, // 1528
       359, -2704,   811,   486,   869,   -927, -1866,   753,
    // Out channel 32
     -2590,   312,  -647, -1630,  -642,  -3032,  -103,  1554,  -875,   587,   -1329, -1003, -1036,   784,    98,    904,   275,   270,   155,   565, // 1556
     -1042,  2121,  -472,  -319,   266,    439,   229,     7,   272,   139,     398,  -301,  1259,   200,   204,  -2220,  -555,   476,   204,  -694, // 1576
      -294,   923, -1259,    13,   252,   -953,   739,  -640,
    // Out channel 33
      1272, -2078,   -11,  -395,   489,    336,  -899,  1030,   194,   730,    2484, -1037, -1103,  2845,  -639,   1001, -1352,  -244, -2466,  1421, // 1604
      1048,  1014,  2907,  2189, -3654,   1015,  1064,   294, -3880,   953,    -262, -1394,   415, -3470,   214,   1230,  -551, -1080,   846,  2687, // 1624
     -1694,  1348,  1584,   367,  -321,   -342,  -834, -1618,
    // Out channel 34
     -1273, -1043, -3857,   853, -1637,  -3078,   272,   783, -1842,   869,    1821,  -722, -1189, -2018,  -502,   1355,  1300, -1039, -1017,  1184, // 1652
       647,  2206,  1003, -1897,   651,   1126,   977,   311, -2314,    96,    -820,  -371,  1235,    68,  -311,  -1293,   411,   459,   354,  -589, // 1672
     -3200,  1046, -1367,  -658, -1041,  -1176,  -658, -1456,
    // Out channel 35
      1468,  -889,   536,  -454,  1370,    781,  1043,   -65,  -738, -1133,    -418,   633,   405,  3553,  -862,    607,  1274,  1590,    40,   505, // 1700
      1096,   145,  -332,   894,  -205,   -628,   -17,  -339,  -839,  3941,     -48,  -202,  -544,  -608,   405,  -1152,   618,  -449,   312,  -911, // 1720
       125,  2034,  1112,  2309, -1998,    813,    72,   509,
    
};

const int16_t cg_FC3bias[36] = { // Co,H,W,Ci: (36,)
     -4531,  1904,  1884, -3817,  1713,  -2100, -2845, -3707,     7, -1866,    -684, -1283,  -543,  2949,   172,    239, -3940, -5167, -4853, -3045, // 20
        93,  1523,  1134,   900,  -618,   2878,  2651,  -562, -4011, -5091,     578,  1067,   118, -2462,   357,  -6453,
};

const int16_t cg_FC4weit[2304] = { // Co,H,W,Ci: (64, 36)
    // Out channel 0
      -162,   -70,   500,  -267,   261,    63,  -104,  -342,    -73,   201,  -394,  -537, -2329,   212,  -218,  -127,     186, -1490,    10,  -313, -2397,   173,   164,  -264,    978,   -13,   551,  -179,  -506,  -225,  -376,    -6, // 32
     -1037, -1418,   -33,    41,
    // Out channel 1
       128,  -637,    46,   334,  -948,   -22,  -788,   979,  -2600,   126,   -51,  -422,    70, -1204,   -87,   -38,    -107,  -140,    66,  -403,   177,    27, -1749,   -21,     23,    90,   263,  -268,    46,   -25,   -19, -2634, // 68
      -333,  -245,   404,   -98,
    // Out channel 2
      -376,  -520, -1779,   159,  -510,     4,   403,   161,   -535,   136,   174,   355,   127,  -356,  -227,  -821,     170,  -368,   178,   295,   476,  -555,  -466, -1552,   -291,  -483,  -382,  -696,   519,   126,    83,  -472, // 104
      -855,   255,  -507,    95,
    // Out channel 3
      -402,  -631,   -77,   314,  -654,   350,   471,   465,   -465,   477,   209,   190,  -604,  -386,    58,  -207,     105,   782,   100,   141,  -393,  -837,  -490,  -276,    395,  -749, -1337,  -875,   297,   155,   117,  -640, // 140
        94,   637,  -613,   304,
    // Out channel 4
        76,  -951, -1824,   241,  -883,   473,   317,   126,   -590,   261,   392,   438,  -539,  -402,  -670,  -617,     316,   175,   321,   250,  -631,  -317,  -454, -1798,    178,  -926, -1782,  -638,   309,   305,    15,  -477, // 176
     -1238,   383, -1110,   267,
    // Out channel 5
      -630,   334,    -9,  -338,   690,  -454,    33,    -7,    154,   284,   -98,   -31,  -744,   207,  -537,     7,     334,    80,   -54,  -253, -1527, -1128,   948,  -500,    559,   532,  -607,   243,  1854,   234,  -284,   477, // 212
      -477,  -617, -2075,  -665,
    // Out channel 6
      -655,   -15,   -85,    92,    91,  -119,   248,   328,     89,  -195,   -91,   133, -1457,   -40, -1218, -1912,     396,   319,   305,   219,  -992, -1926,    16,  -674,    277, -1852, -2862,    29,    36,   198,   286,   151, // 248
       176,   292, -1202,   297,
    // Out channel 7
       106,   126,    89,   -38, -2717,    76,    70,    26,   -482,  -910,     5,     4,   142, -2096,   205,   101,     169,    92,    18,    19,   -67,   145,    54,   119,    -61,   230,  -174,    71,   162,  -152, -1213, -2347, // 284
        97,   193,  -147,   163,
    // Out channel 8
        62,   497,  -957,  -811,   -20,   497,  -741,  -293,    523,   422, -1152,  -672,    -1,   225,    74,   289,     375, -1140,   104,  -742,    20,   182,   585,  -509,  -1741,    43,   151,   497,   493,   238,   113,   802, // 320
       -67,   551,    98,  -571,
    // Out channel 9
      -260,   202,  -593,  -169,   448,  -226,  -428,  -272,    451,   -32,  -640,  -434, -1439,   285,  -552,  -787,     113,   -55,   282,  -367,  -859,  -499,   401,  -792,   -730,  -656, -1497,   625,  -250,   317,   314,   471, // 356
      -278,  -319, -1333,  -231,
    // Out channel 10
       386, -1323,    15,   798,  -363,   432,   697, -4925,   -662,   200,   196,   634,    30,  -650,  -426,  -119,     531,   124,  -101,    51,   -58,  -242,  -133,    83,    893,   -26,   158,  -544,   683,  -128,   421, -1466, // 392
      -511,   -86,    55,   213,
    // Out channel 11
       -78,  -115,  -245,  -367,  -124,   558,  -537, -1487,    -76,   306,  -127,  -741,    39,  -222,   290,    50,   -2819,  -461, -3543, -1327,   196,   208,  -214,   -53,    -56,   246,   308, -1004,   685, -2849,   -57,  -140, // 428
       287,   135,   194,  -923,
    // Out channel 12
      -744,  -194,   -26, -1170,   418,  -683,   223,  -349,    184,    14,  -145,  -204,    76,   581,  -164,  -188,    -158,  -446,   -74,  -217,   225,   133,   -57,  -169,    326,  -149,   256,   554,  -819,    28,    62,   156, // 464
      -397, -1380,  -222, -1327,
    // Out channel 13
       536,  -367,  1397,  -693,  -173,  -291,  -132,  -191,  -1235,   792,  -100,  -252,   728,    75,   459,   637,     843,   558,  -186,  -237,   650,   197, -1697,  1399,    107,   812,  -321,   433,    -3,   -84,  -169,  -251, // 500
       989,  -254,   598,    37,
    // Out channel 14
      -530,  -103,  -666,  -101,   217,  -487,   -47,    84,     80,  -383,  -140,  -202, -2517,    18,  -948,  -398,     117,   539,   -72,   -31, -1935, -2555,   -60, -1674,    324, -1980,  -544,  -214,  -249,   -96,   -53,   136, // 536
     -1588,  -133, -1949,   -19,
    // Out channel 15
       -75,   176,   157,   -94,  -734, -1093,   104,  -138,   -804, -2481,   -92,  -243,    77,  -717,  -186,   -86,     -30,   629, -2347,  -201,    83,   364,  -367,    11,    531,  -339,  -288,  1590,  -956, -1977, -1308,  -777, // 572
      -128,  -374,   656,  -430,
    // Out channel 16
      -745,   528,   785,  -289,   661,  -712,  -123,  -329,    880,  -136,  -331,  -403,  -999,   298, -1038,  -855,      -2,   417,   142,  -308, -1128,  -622,   781,  -627,    290, -1206,  -697,  1214,  -281,   177,    18,  1082, // 608
      -110,  -819, -1261,    10,
    // Out channel 17
     -2421, -1283,  1028,   116,   195, -1042,   660,   481,     97, -3943,   370,   135,   -23,    65,  -725, -1164,     238,   846, -1696,   219,   -46,  -145,  -173,   557,   1399,  -213,  -104, -1250,  -134, -2183, -2357,   -59, // 644
       107,   260,   130,     9,
    // Out channel 18
        56,   387,  -586,   234,   106,   603,  -733,   237,    638,   186,  -509,   -68,  -317,   428,   -40,    71,    -604,    -6,  -954,   109,  -269,    56,   157,  -201,  -1271,   185,   104,  -937,    21,  -697,   358,   248, // 680
      -346,   112,  -411,   221,
    // Out channel 19
      -306,   -89,    -3,  -163,   111,  -198,   495,   658,     -5,   146,   220,   274,  -645,    69, -1086,  -553,   -4511,   450,   499,   371,  -155,  -752,    60,  -109,    163,  -528,  -720,   417,  -272,   263,    89,    91, // 716
      -420,   -20,  -732,   -55,
    // Out channel 20
       185,   576,   258,  -983,   152,  -285, -3073, -1162,    123,   377, -2288, -2635,  -130,   715,   243,   659,      -9,   837,   284, -1301,    74,  -275,    38,    16,  -1323,  -114,  -167,   829,  -301,   202,   -82,   328, // 752
       -76,  -382,  -200,  -737,
    // Out channel 21
     -2854,  -933,    80,  -592,   106, -1785,   139,  -409,    208,  -352,   166,   144,   -78,   151, -2717, -3787,     -50,  -178,   351,  -106,  -412,   138,    30,    93,    334,  -249,  -188,   423,  -319,   279,   105,   307, // 788
      -220,  -872,   174,  -649,
    // Out channel 22
      -114,  -188,    83,   467,   306,    73, -2135,  -239,     19,    53, -1346, -1664,   128,   415,   363,   276,   -1037,  -462,  -841,   196,   198,   326,  -135,    29,   -564,  -159,   402,   194,   187,  -905,    83,   373, // 824
       380,  -124,    29,   193,
    // Out channel 23
      -261, -2704,   160,   223,  -485,  -847,    14,   -89,  -1972,     0,    64,    -5,    27,  -933,  -246,  -388,      10,   680,   -14,  -101,    53,   -60, -2866,    98,    323,   117,   -96,  -470,   271,  -122,  -295, -1299, // 860
       313,   180,  -475,   247,
    // Out channel 24
       591, -1591,  -216,    57, -1783,  -264,   476,   195,  -1416,  -393,   144,    37,  -648, -1137, -1286,  -908,     187,   635,  -134,   216,  -735, -1393, -1326,  -726,    861, -1258,  -455,  -500,   -16,  -174,   112, -2005, // 896
      -745,   111,  -794,   200,
    // Out channel 25
      -364,   420, -1209,  -469,   176,  -326,  -262,  -124,     44,   656,  -628,  -492,  -910,    58,  -591,  -223,    -213,  -569,  -214,  -488,  -877,  -663,   158, -1031,   -776,  -267, -1575,  -101,   -96,   -77,   417,   398, // 932
      -361,  -459, -1291,  -278,
    // Out channel 26
      -141,   593,   904,    29,   -94,   -27,   812,   431,    102,   143,   572,   357,   159,    50,  -542,  -292,     142,   225,   -41,   287,  -110,   173,  -116,   788,    923,   731,   247,  -126,  -129,    66,  -146,  -166, // 968
       436,   353,   174,  -179,
    // Out channel 27
        13,   117,   100, -1360,   210, -1012,    71,  -408,   -240,     4,  -132,   -86,   118,    87,  -205,    35,     -78,  -232,   276,  -300,    54,  -313,  -170,   173,    409,    84,   536,   484,  -568,   312,   314,  -229, // 1004
      -151, -1320,   255, -1695,
    // Out channel 28
       734,   247,   329,  -424,  -387,   -41,   418,   155,    -73,  -230,  -244,   -34,    20,    21,  -641,  -250,     151,   521,  -642,   605, -1545, -1361,   -36,    67,    357,   257, -3438,   109,   531,  -552,  -674,  1566, // 1040
        95,    -2, -1004,   166,
    // Out channel 29
       -14,   -60,   141,  -328,   -31,   112,  -598,  -552,   -302,  -568,  -363,  -755,   136, -1013,    49,    25,    -932,   -17, -1037,  -720,   162,  -135,   -85,   101,    -49,   101,  -102,   -15,  -110, -1206, -1409,  -720, // 1076
       148,   347,     5,  -481,
    // Out channel 30
      -191,   251,  -469,  -652,   173,  -121,  -942,  -462,    289,   804, -1159,  -680, -1426,   164, -1146,  -490,     119,   367,    81,  -566,  -759, -1440,    60,   -15,   -586,  -479,  -981,   269,  -157,   194,   216,    62, // 1112
      -946,  -386,  -889,  -211,
    // Out channel 31
      1036,   -62,   542,   411,  -367,   155,    92,  -102,   -470,  -457,  -633,  -476,   460,  -317,  -145,   137,    -700,   494, -1322,  -434,  -762,    30,  -424,   366,  -1065,   238,   578,  -123,   572, -1119,  4204,  -805, // 1148
        46,  -370,  -407,   483,
    // Out channel 32
       167,   291,  -252,  -224,  -554,  -332,   264,    -6,   -362,  -997,    26,   -96,  -849,  -202,  -715,  -111,      38, -1257, -1103,  -406,  -638, -1544,   -98,  -451,     84, -1443,    46,  -122,  -744,  -819,  -654,  -942, // 1184
     -1651,  -680,   777,  -116,
    // Out channel 33
       -19,  -693,   210,  -867,   112, -1774,   235,  -238,    338, -1106,   -23,    40,  -109,   243,  -277,  -575,     230,    47,   -54,    45,  -119,   616,   -16,   173,    402,    37,   299,   436, -2008,   -65,   169,   508, // 1220
       272,  -740,   516, -1189,
    // Out channel 34
      -781,  -740, -1493,   196,  -343,   148,    82,    96,    123,  -853,   279,   220,  -791,   -66,  -603,  -900,      62,   568,  -156,   -30,  -808,  -571,    32, -2065,    441, -1139, -1665,  -620,   169,  -299,  -663,  -296, // 1256
     -1298,   294, -1140,   187,
    // Out channel 35
       186,  -125,   -88,  -499,   323,   209, -1679, -1183,    -19,    63, -2153, -1682,   -54,   350,   104,   337,     -33,   631,    -9, -1392,   -12,  -202,    60,  -131,  -1204,   111,   -10,  -188,    50,    75,   204,    65, // 1292
        62,   142,  -152,  -656,
    // Out channel 36
     -1215,    86,   -41,    75,   309,  -247,  1468,   666,    119,   152,  1048,   904, -2453,   246, -2687, -2157,    1664,  1721,   785,   530, -1536, -1423,   172,  -268,   1328, -1015, -2645,   641,  -124,   903,   165,   100, // 1328
      -527,   773, -1608,    16,
    // Out channel 37
       -56,   -26,   388, -1719,   101,  -307,  -695, -2519,    254,   -75,  -250, -1117,   236,  -120,  -134,   -58,    -784,  -349,   114, -2667,   -79,    78,    65,   175,    237,   257,    10,     6,   -85,    33,   219,   101, // 1364
       -17,  -303,    78, -2107,
    // Out channel 38
       326,   514,   369,  -314,   502, -2091,  -112,  -206,    243,   686,   -74,   154, -1722,   273, -2547,  -250,     327,  -152,   182,    23,   566, -2247,   324,  1538,   -509, -2691,    91,   417, -1932,    68,    88,   484, // 1400
     -2602, -1212,   653,  -534,
    // Out channel 39
        11,   118, -1707,  -782,   122,   324,  -784,  -139,    104,  -291, -1728,  -569,   336,  -107,   214,   111,      25,  -923,    -9,  -522,     5,   -53,   115, -1209,  -4193,   231,   137,   308,  -180,  -176,    24,     3, // 1436
      -228,   166,   -44,  -277,
    // Out channel 40
       167,    80,   120,   152,   190,  -314,  -213,  -198,     10,   -27,  -574,  -301,    61,   258,  -124,   328,   -1526,    80, -3801,   195,   -31,   -27,   -72,   -90,   -307,   -90,   260,  -479,  -161, -2406,  -130,    37, // 1472
       -90,  -842,    21,    82,
    // Out channel 41
       -77,   480,    93,    16,   203,  -133, -1541,    27,    252,   427, -1237, -1348,   175, -4722,   251,  -167,     106,  -388,   146,  -453,   200,    61,   476,   -88,   -559,   -86,    54,   188,  -179,   257,   265,  1182, // 1508
        18,   -40,   236,   -78,
    // Out channel 42
       192,   -95, -2937,   165,   957,   425,   179,   170,   -299,   663,    99,    67,  -438,   522,   -72,   144,     398,  -758,   679,    88,  -860,  -610,  -594, -2167,     55,  -197,  -269,   -23,   117,   767,   319,    60, // 1544
     -2497,   304, -1776,   167,
    // Out channel 43
       -50,  -254,   -76,    36,  -351,  -332,  -224,  -312,  -1206,  -865,     4,  -104,   235,  -788,     4,    55,    -281,    45,  -357,  -356,  -183,   104,  -867,    46,     20,    15,    26,    18,    67,  -627, -1108,  -600, // 1580
       -20,  -237,     1,  -391,
    // Out channel 44
      -440,   100, -1176,     6,   505,   572,    37,   -39,    477,   751,   -24,   160, -1341,   449,  -491,  -261,      61,  -698,   -86,   102, -1755,  -662,   454, -1036,   -475,  -240,  -239,  -264,  -119,    31,   366,   347, // 1616
      -938,    95, -1747,   -55,
    // Out channel 45
       933, -1578,   177,  -366,  -981, -1659,  -359,  -483,   1134,  -967,  -507,  -311,  -419,  -385,   953,  -742,    -117,  -308,   519,  -421,  -433,     6,   572,   180,     11,    69,    13,  -977,  -612,     9,  -382,  -340, // 1652
        94,  2881,   -39,  -158,
    // Out channel 46
       -31,    75,    63,  -327, -1546,   305,  -411,  -918,    -73,  -110,  -151,  -525,   -17,  -927,   -22,  -387,    -736,   114,  -161,  -997,  -138,   146,   130,    97,   -108,    78,  -213,   369,   146,   247, -1614,  -604, // 1688
       132,   321,    -7,  -562,
    // Out channel 47
      -303, -1440,   198,   160,   -74,  -726,  -684,  -837,   -614,  -487,   -87,  -688,    58,  -326,  -252,  -165,    -292,   937,   455, -1386,    48,    -9, -1002,   -40,   -240,  -113,   175,  -464,  -376,   640,   559,  -790, // 1724
       323, -1049,   -78,  -399,
    // Out channel 48
      -789,   383, -1015,   185,   600,   484,   619,   144,    412,   480,   644,   540,  1643,   375,   755, -1163,     647,   516,  1206,   351,  1285,  1339,   444,   275,    160,   -21,  -774,   709,   393,   972,   354,   760, // 1760
       283,   552,  -738,   268,
    // Out channel 49
       423,  -608, -2191,   545,  -833,   529,   584,   529,   -710,  1069,   528,   506,  -173,  -467,  -709,  -618,     286,  -784,   605,   558,  -272,   389,  -781, -2715,    215, -1384,  -775, -1089,   252,   504,   510,  -329, // 1796
     -1555,   335,  -667,   194,
    // Out channel 50
      -473,  -468,  -473,  1061,  -480,   -55,  2398,  -228,   3048,   796,  -755,  -619,     6,  -406,  -391,   146,    -530,  -428,  -309,  -514,  -583, -1081,  -493,  -966,    158,   958, -1462,   471,  -424,   335,  -859,  -868, // 1832
      -424,   -28, -1471,   -58,
    // Out channel 51
      -551,   637,  -559,  -485,   701,   145,    -5,  -150,    864,   720,    72,  -159,  1116,   432,   218,   218,     -47,  -301,   170,   -61,  1165,   595,   897,  -399,    -43,    35,  -291,   621,   170,   134,   403,  1156, // 1868
        -4,   297,   631,   -70,
    // Out channel 52
        10,  -165,   -45,  -114, -1865,    47,   -48,  -118,  -2046,  -303,    15,   -50,  -155, -1787,  -100,    79,     208,   356,   230,   -51,   108,  -259, -1146,   166,    -31,    90,  -202,  -254,   -18,    45,   -34, -2494, // 1904
       -48,    91,  -126,  -101,
    // Out channel 53
       263,   162,   -18,  -321, -1033,   785,  -503, -1222,   -427, -1036,  -252,  -578,   348, -1071,   600,   625,   -1285,   149,   110, -1322,   670,   280,  -163,  -161,   -202,    50,   233,   105,   271,   469,  -736,  -644, // 1940
       221,   334,   226, -1060,
    // Out channel 54
     -1111, -3136,    62,   -62,  -567,   647,   561,   381,  -1077,   225,   460,   192,   -95,  -317,  -449,  -757,     187,  -423,    17,   181,   491,   128, -1536,   189,    669,  -115,   -76, -1090,    53,   -50,    71, -1429, // 1976
       190,   483,   188,  -140,
    // Out channel 55
        96,  -721,  -183,   -55, -1370,  -135,   278,  -156,  -2820,   -84,   304,   205,   104, -1946,    36,   -52,    -137,  -270,   111,    76,   177,   -30, -2325,  -150,    140,   -55,   162,   -52,   -79,   126,  -184, -2930, // 2012
       -68,   -71,    37,   -81,
    // Out channel 56
      -288,   373, -1363,    68, -3165,  -109,   162,   302,    383,   315,  -175,   -58,  -371,   729,  -303,   -26,     351,  -296,   418,   109,  -807,  -254,   794, -1531,   -236,    79,  -213,   264,   -20,   465,   209,  1107, // 2048
      -591,   -48,  -878,   453,
    // Out channel 57
       124,   -43,    45,   112,    47,    57,    19,   -59,     34,  -155,  -183,   -99,    28,    48,    78,   133,     165,   -47,   -32,  -147,   -95,  -198,   -35,    75,    309,     1,   -53,   121,    44,   -37,   -73,    13, // 2084
       -79,   -94,   163,   -91,
    // Out channel 58
       281,  -137,   251,  -890,    81,  -307,    91, -1150,     50,   133,   433,  -100,    80,  -138,   368,   475,   -1819,  -168, -1320, -1158,   151,    20,    85,   322,    -17,    39,   218,  -208,  -296,  -985,   336,   137, // 2120
       441,  -196,   264, -1539,
    // Out channel 59
       246,    63,   547,  -260, -1421,  -849,   117,  -213,   -455, -3218,    36,    -4,   380,  -974,   336,   175,    -153,  -238, -1876,  -133,   484,   299,  -240,   525,    156,   429,   467,  -266,  -192, -2110, -2226, -1018, // 2156
       589,  -283,   317,     0,
    // Out channel 60
        54, -1126,   851,   645,  -908,   100,   -54,   332,  -1195,   -33,   110,   232,   -11,  -805,  -303,  -294,      21,   114,  -143,   159,  -794,  -291, -1270,   620,   -183,    69,   152,  -655,   409,  -146,  -133, -1658, // 2192
      -220,  -183,   490,   684,
    // Out channel 61
       -16,   -12,  -222, -1046,  -147,   -69, -1989, -1751,     50,   150, -1230, -1937,   -77,   -16,  -170,  -104,      34,   -27,  -103, -1251,   -76,    24,    68,   -29,   -389,   -28,    34,   116,  -228,    25,   -20,    21, // 2228
      -171,  -123,   -76,  -741,
    // Out channel 62
       -15,     3,     0,    -7,    -6,   -11,   -12,   -23,     -2,   -12,   -14,   -15,    -1,    10,    -5,    -4,      -3,   -16,    -4,   -18,     7,    -1,     1,     0,     -6,    -3,     5,    11,   -11,     5,     4,   -12, // 2264
         0,   -14,     4,   -22,
    // Out channel 63
       418,    95,   463,   705,   583,  -177,   516,   290,   -226,   216,   226,   239,   362,  -118,  -130,  -182,     151,   900,   -42,   422,  -309,  -177,   283,    84,    253,  1012,  -407,   209,   614,   114,  -238,  -212, // 2300
       534,   452,  -821,   786,
    
};

const int16_t cg_FC4bias[64] = { // Co,H,W,Ci: (64,)
      2458,   606,   876,   -14, -3420,  -599,  1088,  -213,   -100, -2476,   331,  3004,  3468, -1235,  3803,  2484,    1521,  2114, -3047,  1047,  3201,  1442,   785,  2273,  -1726, -2611, -2039,  1037,  -788,  -367,   568, -4249, // 32
      2747,  2909, -1213,   451,   212,  1360,  -138,   712,    715,  1525,  -761,   -50,  1454,   468,  1249,  2338,   -6346, -1652, -1889, -3798,  2309,  2829,  1608,   861,    365, -2083,  4009,  5051,  1720,   749,  -248, -1967, // 64
    
};

const int16_t cg_FC5weit[2048] = { // Co,H,W,Ci: (32, 64)
    // Out channel 0
       726, -1409,   -13, -1328,  2238,  -210, -1606,  1290,    -48,   529,    42,  1123,  1332,   -43,   671,   694,    2032,   593,  -945, -1343, -1394,  1151, -2375,  1505,   -824,  -476,  -747,   751,  -127,  -665,  2485,  -348, // 32
      -479,  -372,  2755, -1666, -3768,  -394,   614, -1469,   -430, -1557,   155,     1,   412,  -740,  -255,    38,    -813,  1284,  -866,  -233,    87,   856,   896,  2284,   -338,   114,  2717,    26,   720,  -446,  -427,  -116, // 64
    
    // Out channel 1
       398,   936,   260,   550,   750,   560,   659,    18,   -644,    85,   686,  -310,  -848,   371,   416,  -441,    -570,    68,  -967,   607,  -680,   -54, -1088,   163,    552, -1202,  -462,  -991,   992,  -922,   569,   416, // 96
      1075,  -786,   687,  -961,   147, -1208,  -256,   -55,   -333,  -146,   -53,   104,   143,   452,   -23,   224,    -737,   540,   508,   211,   421,  -203,   179,     4,    157,   289,   -76,  -419,   639,  -460,  -167,  -645, // 128
    
    // Out channel 2
      2719, -4083,   271,   -91,  2334,   288,   694, -5468,   -866,  1256,   199, -2100,   481,  3107,  3301, -1134,    1034,   455,   932,   436,   774,  -267,   490, -1330,  -2260,  5039,  1670,  -315,  1933, -2427,  1366,   711, // 160
      2310,  -143,  3034,   505,   295,  1450,   278,   426,    846,  1118,   690, -2395,   126,  -533,  1541,   847,   -2068,   267,   655, -1664,  -101,   331, -1193, -6159,   1111,    99,   -21,  -198, -2392,  1730,   207,  1073, // 192
    
    // Out channel 3
      -669,   777,  -324,   686,  -543,  -713,   736,   857,   -617, -3024,  -197,  -174,  -403,  -375,   345,   801,   -3063,   198,  -117,    18,   237, -1028,   781,  1026,  -2295, -2890,  -520,  -753,  1280,  -297, -2324,  -318, // 224
       303,  -494,  1293,  -317,   843,    -3,  -643,   626,    248,   136, -1948,   799,  -183,  -303,   269,  -107,     -51, -1250,  -404,   310,  1123,  -204,   100,  1154,   -826,    16,  -882,  1121,   733,   582,   181,   369, // 256
    
    // Out channel 4
       202,   384,   160,   922,  1675,   225,  1495,   357,    -23,   678,   527,  -538,  -715,   594,   693, -1130,    -984,   391,  -676,   536, -1106,   449,  -741,   419,   1328,  -520,  -996,  -628,   709, -1840,   793,   -96, // 288
       428, -1481,  2225, -1561,  -141, -2589,  -124,  -519,  -1776,  -331,  -188,  -381,   155,   360,   327,  1201,   -1016,   481,   485,   983,   814,   -41,   424,  1035,     84,    64,   266, -1181,   223, -2363,  -119, -1032, // 320
    
    // Out channel 5
     -2606,   338,  1771,   416,  3836,   373,    40,   240,   -854,  3618,    85, -2493, -3235,  2189,  4822, -2092,    -438,  1250,  -349,   542, -2162, -1767,  -185,   784,    882,   910, -2245, -1810,   300, -4798,  -710,    29, // 352
      2117, -1403,  3665, -4357,  -458, -2555,  1367,   732,   -535,  -659,  1415, -2755,   870,   448,  -309,  1091,   -3035,  2056,   -53,  3922,  1706,   825,  -928,  2021,    356,   213,  -502, -2139, -1100, -6301,  -245, -1947, // 384
    
    // Out channel 6
      1071, -1457,  -192,  -777, -1513,   957,   -78,  -718,     58,  1097,  -588,  -499,   184,   177,  1032,  -339,      96,   -46,   111,  -261,   733,    83,   -15,  -847,  -2891,  1597,   392,   200,   547, -1421,   259,   574, // 416
       270,   -71,  -723,   837,  -111,   181,   151,   119,     20,   935,   760, -1404,   645,  -191,   234,   437,    -736,  -216,  1087,  -882,  -264,  -415,  -537,  -916,    668,   -13,  -257,    23,  -980,   877,    23,   938, // 448
    
    // Out channel 7
      1960, -2145,    25,    13,  2084,   641,  1104, -5126,   -188,  2339,   294, -1463,    75,  2899,  3392,  -935,    1054,   607,    29,   -43,   534,     7,   137, -1816,  -2627,  4086,  1589,  -927,  1235,  -991,  1724,   762, // 480
      1578,  -852,  3041,   390,    45,  1329,   907,    76,     15,   688,   -65, -1128,  -102,  -659,  2299,   131,   -1637,   337,   654, -2094,  -887,  -108, -1858, -4632,    984,   -36,   190, -1287, -2826,  2090,   -77,  1504, // 512
    
    // Out channel 8
     -1263,   610,  4277,  1226,   -14,  -772, -2279,  3230,   1928,  3253, -1387,  2783, -1511, -1584,   120,  1743,    2068, -1349, -2011, -2269,   730, -1558,   600, -2378,  -2953,  2010,  4059,   -77,  -855,  4011,  -632, -1464, // 544
      -129,  -641,  2532,  1589, -3440,  1031, -4757,  3816,   1775,  -722,  -205,   258,  1974,  1067,  2080, -3703,     877,  1649,  -159, -2219,  -871, -1595, -1119,  2334,   -444, -1121,  1432, -1096, -3463,  -154,  -213,  -457, // 576
    
    // Out channel 9
      -553,  -660,  -720, -3599, -2724,  -513,   717,  -458,   1466, -1446,  -633,     3,   -82,  -972,   718, -1166,    -887,  1541,  -391,     2,  1100,   -87,  -637, -1085,   -644,   752,   328,   210,  -288,   -36,    69,  -737, // 608
       333,   760,  -635,  1512,   661,  1970,   -95,   852,  -2195,  -350,  -146, -1274, -1144,  1129,  1343,    16,    -530, -1476,  -688,  -100,  -337,  2238, -2037,   421,   -731,  -107,  -823,   359,  -394,  2860,  -265, -1063, // 640
    
    // Out channel 10
       967,  -858,   165,  -238,  -120,   288,   470,   595,  -1632,  1820,  -153,  2336,   296,    86,   814, -1080,     742,  2356, -3721,   -49, -2982,  2672, -1731,   168,  -1231, -1811, -1497,  1729,   787, -3372,  1438, -3194, // 672
      -117,  -753,  -100, -3308,  -752,  3007,   600, -2143,  -1230, -2298, -2368, -1885,  -101,  -694,  -428,  1267,    -537,  -873,   748,   435,   845,  1358,  1740,  2179,   -294,  -246,    23,  -470,   574,  2627,   837,   735, // 704
    
    // Out channel 11
       990, -3236,  -332,  -886, -1876,   810,    28, -1849,    107,  1969,  -508,     4,    99,   207,  1205,  -848,      47,   570,  -334,   594,  1156,  1440,  -567, -1593,  -1220,  -113,  1184,  -380,   601, -1186,   161,   721, // 736
      -135,   881, -1840,  1162,   -37,  -188,   362,   -71,   -108,  1358,   869, -1517,   746,  -170,   182,   479,    -795,  -463,  1062, -1608,  -656,   -28,  -537, -2446,    961,   -73,  -581,  -150, -1085,   636,  -179,  1288, // 768
    
    // Out channel 12
      -105,   641,   561,   272,   628,   580,   351,   146,   -747,   250,   635,  -407, -1409,  1113,   283,  -740,    -714,    22, -1017,   791,  -852,    30, -1268,   116,    102,  -999,  -658, -1091,   695,  -358,   453,   365, // 800
       487,  -467,   -71,  -907,    60, -1368,  -475,  -230,   -336,  -197,  -152,   -19,   287,   572,  -276,    36,    -480,   676,   485,   183,   467,  -856,   401,  -347,    157,   209,   -52,  -413,   489,  -236,  -161,  -444, // 832
    
    // Out channel 13
      -475,   288,  1556,  1208, -1596,  -116,  -743,   337,    893,   555, -1149,  1846, -1147,  -302,   595,  1930,     954,  -274,  -394, -1739,   568, -1049,   403, -1446,  -3086,  -527,  1032,  -507, -1436,  1365,  -729, -1233, // 864
       206,  -602,  -427,  1630, -1815,   911, -1940,  2501,   2376,   572,   294,  -282,  1545,  -207,  1178, -1347,    -539,    61,   321,  -934,   741, -1299,  -663,  1081,    182,  -348,  1569,  -937,  -985,  1022,  -230,  -940, // 896
    
    // Out channel 14
       400,   965,   299,   287,   693,   485,   457,   148,   -503,   233,   538,   -86,  -924,   571,   262,  -371,    -469,    11,  -837,   517,  -549,  -221,  -945,   187,    433,  -980,  -586,  -893,   874,  -575,   501,   208, // 928
       676,  -757,   627,  -880,   227,  -722,  -469,  -317,   -218,  -171,   -80,   333,   157,   548,   338,   383,    -619,   538,   415,   129,   575,  -218,   296,   -63,    155,   206,   -19,  -431,   477,  -100,  -233,  -658, // 960
    
    // Out channel 15
      2636, -4037,   227,  -332,  1002,   742,   609, -4697,   -587,  1535,    48, -1984,   392,  2065,  2900, -1159,     717,   483,   991,   248,   706,  -384,   423, -1329,  -3144,  4933,  1665,   197,  1756, -1186,  1409,   863, // 992
      1954,    62,  3182,    56,   326,   508,   221,   575,    951,   933,   573, -2107,   391,  -500,   751,   605,   -1667,   375,   136, -1446,  -566,   337, -1295, -5411,   1098,    31,    71,  -187, -2044,  1664,   275,  1327, // 1024
    
    // Out channel 16
       780,   859,  1748,  1258, -1713,  -957,  -843,  1147,  -1898, -1904, -1001,  -273,   519,  -573,   -48,   883,    1176, -3037, -1119, -1000,  1079,   251, -1140,  2473,    810, -3328,  -780,   833, -1481,  5558,  2043, -1677, // 1056
     -1413,  1107, -1267,   392,  -210,    46,  1179,   125,   -462, -1205, -1711,  3835,  -125, -1356,  1009,   946,     506,   280, -2730,  -932,  1680,   685,   724,  2895,  -1014,  -319,   758,   819,   781,   736,    41, -1355, // 1088
    
    // Out channel 17
      1341, -1482,  -254,  -510, -1404,   725,  -214,  -779,     28,  1060,  -325,  -649,   264,   692,   935,  -524,     -70,   -19,   230,   -43,   881,   229,     9,  -940,  -2894,  1725,   540,    -3,   621, -1214,   293,   426, // 1120
       783,    -5,  -720,   846,  -332,    84,    22,    88,     78,  1278,   789, -1191,   842,   177,   643,   359,    -800,  -213,   788,  -981,     1,  -251,  -846,  -795,    816,    -6,  -376,  -236, -1266,   942,   265,  1147, // 1152
    
    // Out channel 18
      -510,  -132,   348,  1330,  2065, -1150,   576,  1245,   2224,  2033,   423,  -299, -1374, -1370,   904,   363,   -1043,  1946,    55,  -139,  -351,  -838,  -456,  -857,  -1297,  2681,   350,  -413,  -519,  1710,  1283,   258, // 1184
      1116, -1290,  -468,  -989,   710,   315, -1435,   -32,   -327,  -845, -2701,   228, -1653,   421,  1374, -1939,    -851,  -175,  -428,   309, -1131,  -413,  -760, -2013,   -765,   -99, -1976,  3433,  -161,   924,  -226,  -824, // 1216
    
    // Out channel 19
     -1181,   617,   811,  -120,  3338,   174,    37,   444,  -1098,  1946,   167,  -560, -1349,  1431,  2488, -1614,   -1092,  -235,   761,   149, -1379,  -353,  -822,   487,    746,  1734,  -547, -1319,   504, -4200,   436,   652, // 1248
      1265,   271,  3970, -3685,  -363, -3703,   486, -1308,  -2125,  -140,  1416, -2754,   985,   485,   -35,  1281,   -1588,  1629,   544,  2679,  1124,   797,  -217,  2111,    540,   -18,   298, -2709,  -498, -7298,  -217, -1698, // 1280
    
    // Out channel 20
        71,  1009,  -831,   155,   350,  -760,  1288,  2213,  -1074, -1461,    72,   439,  -604,  -245,   429,  1096,    -872,   859,    -2,   240,   197, -1319,  1367,  1516,  -3040, -2510,  -685,  -798,   931,   491,  -973,    55, // 1312
       280,  -370,  1413,   229,  1110,   -20, -1082,   777,   1495,    80, -1572,  1483,  -689,  -360,   761,  -593,    -508, -1133,    72,  -373,  1124,  -685,  -294,  1896,   -725,     6,  -699,   378,    61,  1035,    13,  -350, // 1344
    
    // Out channel 21
      -465,   678,   714,   220,  2822,   234,   432,   572,   -573,  1509,     5,  -852, -1180,  1090,  2034, -1609,   -1678,   406,   467,   210, -1159,   488,  -199,   681,   2156,  1307, -1005, -1630,   674, -3808,  1246,   390, // 1376
      1012,  -888,  4094, -2977,   -23, -3532,   -89, -1252,  -1912,   109,   201, -2181,   814,   530,   384,  1694,   -1593,   976,   700,  2325,  1146,   760,    39,  1758,    390,    15,  -461, -2405,   -54, -4683,  -335, -1567, // 1408
    
    // Out channel 22
      -301,  1357,   474,  1084, -1347,     5,  1300,  1744,  -2533, -1123,   179,  -550, -1147,    50,   484,  2413,   -1852, -1746,  -870,   713,  -863, -2945,  2017,     6,  -3982, -4743,   149, -1323,  -439,   -48,   262,    17, // 1440
        58,  -944, -2014,  -740,  1166, -1354, -1611,  2145,   2255,  -281,    38,  2367,   246,  -589,  -730,  -842,   -1160,   569,  -399,   605,  4196, -1198,  -496,  3121,    158,   201,  -119,   464,   573,   991,   432,   -88, // 1472
    
    // Out channel 23
      -135,  1103,   772,   519,  2180,   251,  1390,   590,   -366,   442,   143,  -489,  -775,   424,  1385,  -752,    -978,    81,  -832,   103,  -771,   472,  -392,   307,   1605,  -835, -1118, -1322,   713, -2132,  1052,   226, // 1504
       924, -1123,  3418, -1604,   -72, -2580,     0,  -489,  -1931,  -442,    81,  -306,   335,   589,   342,  1361,   -1285,   760,   627,  1322,   670,   250,   425,  1156,    186,   -52,   514, -1341,   -72, -2432,  -269, -1287, // 1536
    
    // Out channel 24
      -447,   723,  3027,  1307, -2175, -3148,  -824,  1036,   -909,  -602,  -708,   458,   234,  -810,   957,   331,     430, -1140,   446,  -431,   890,    -5,  -293,   190,   -154,  -316,  -614,   569, -1283,  4910,  2690, -1510, // 1568
      -459,  -275, -1971,   642,  -368,  2702,    93,  -201,   -549, -1540, -2418,  1542,  -485,   535,  1706,  1203,    -275,   165, -2532,   257,  1207,  1899,  -332,    53,   -819,  -225,  -360,   273,   221,  2526,   590,  -582, // 1600
    
    // Out channel 25
       -90,  1122,   699,  2170, -1015,   679, -1624,  -205,   -769,   542,  -493,  4010,  1298,   100,  -708,  1480,    2051,  1747, -1316, -2139,   -51, -1895,  1296,  2439,   -677, -1318, -1525,  -181,   617,  2785,   128,  -864, // 1632
      1252,  -776,   855,   921, -1974,  2866, -1503, -1692,   1016,   551,    53,   365,  3046, -1215,  -621,   400,    -865,   204,   -39, -1035,   141, -2335,   526,  1086,    893,    64,  1997, -2115,    86,  1486,   172,  -143, // 1664
    
    // Out channel 26
      -545,  -422,   -14,  -683, -2042,  -247,  -954,  -173,    546,  -187,  -514,  1671,  -374,  -324,    66,   843,     258,  1085,  -207, -1034,   611, -1178,    33,  -718,  -2110,  -686,   375,  -102,  -993,   346,   107,  -670, // 1696
        -2,  -816, -1432,   778,  -882,   840,  -350,  1166,   1378,   269,   516,  -123,   686,    73,   583,  -881,     -98,  -921,   211,  -269,  -180,  -501, -1028,   292,     97,  -105,  1349,  -570,  -891,  2102,  -176,  -351, // 1728
    
    // Out channel 27
      2149, -3705,   843,  -441,   473,   532,   172, -4010,   -438,  1128,   -10, -1426,    21,  1084,  1886,  -255,     485,   281,   148,   295,  1129,   -92,   437,  -804,  -3835,  3894,  1097,   688,   956, -2204,  1156,   592, // 1760
      1504,  -215,   952,   410,     3,    82,  -266,   239,    893,   888,   732, -2014,   448,  -898,    82,   708,   -1482,   142,   454,  -808,  -497,  -230,  -528, -4326,    918,   -57,  -327,   107, -1666,   997,    91,   799, // 1792
    
    // Out channel 28
      -654,  -251,  -482, -1557, -2736,  -283,  1006, -1797,   1607,  -891,  -964,  -682,  -540,  -604,   868, -1066,   -1163, -2319,  -254,   160,  1430,  -627,  -990,  -772,  -1677,   786,   852,  -455, -2193,  -748,   297,  -974, // 1824
       439,  1728, -1185,  2034,   852,  2293,   172,  3763,  -2543,  -183,  -698, -1487, -1279,   760,   937,   768,    -660, -1572,  -867,    36,    -5,  1650,  -585,   159,   -683,  -183,  -345,   781,   793,  2627,   114, -1893, // 1856
    
    // Out channel 29
      -211,  1082,  2334,  1361, -1667, -2546,  -274,  1350,   -915, -1423,  -341,   485,   443,  -655,   473,   612,     443, -1123,   243,   137,   717,   485,  -674,   730,    440, -1307,  -685,  1031, -1058,  4743,  2336, -1130, // 1888
      -482,    62, -1852,   355,  -424,  1848,   728,  -784,   -321,  -574, -2070,  2175,  -272,   -74,  2269,  1401,     -91,   -53, -2239,  -445,  1278,  1233,   -29,   420,   -218,    -8,   255,   870,   369,  1394,   516,   -87, // 1920
    
    // Out channel 30
       274,   825,   202,   516,  1326,   392,   795,  -536,   -289,    56,   422,  -218,  -958,   563,   411,  -209,    -589,   159, -1280,   292,  -439,   -50,  -899,   180,   1205, -1339,  -587,  -873,   660, -1010,   695,  -221, // 1952
       821, -1133,  1443, -1033,   148, -1358,  -228,  -532,  -1278,  -499,   -97,  -201,   368,   574,   354,   536,    -693,   527,   286,   573,   449,    62,   424,    43,    137,   226,   221,  -817,   375,  -835,   -84,  -818, // 1984
    
    // Out channel 31
        50,   -16,  1856,   719,  -193, -1537,   194,  1250,   -938, -1216,  -639,   401,   142,  -456,   580,   321,    -204,   424,  -494,  -787,   290,   437,  -608,   262,    -31, -1721,   -81,  1308,  -285,  4451,   831,  -890, // 2016
      -837,  -194,   407,  -242,  -141,   458,   221,  -585,    151,  -671, -1883,  3095,  -269,  -271,  1555,   790,   -1303,   678,  -890,    30,   222,  1012,  -506,  1404,   -436,   125,    24,   455,  -164,  -471,     0,  -382, // 2048
    
    
};

const int16_t cg_FC5bias[32] = { // Co,H,W,Ci: (32,)
      -719,   653, -7132,  -160,   264, -3075, -1230, -5442,   1723,  -194, -1602, -1940,  1536,   511,   536, -6064,   -3918, -1277,  1827,  -717,  -827,  -444,   488,  -739,  -2089, -5003,   196, -3807,  -512, -4711,   221,  -835, // 32
    
};

const int16_t cg_FC6weit[512] = { // Co,H,W,Ci: (16, 32)
    // Out channel 0
       352,   -63,   -42,   662,   274,    19,  -491,  -263,    197,  -228,    65,   -16,   309,    44,  -502,  -706,     105,  -808,   306,   105,   352,   234,  -192,   -21,    137,   -66,    75,  -827,   145,   -45,  -169,   330, // 32
    
    // Out channel 1
      -869,  1595, -1002,   156,  1770,  2981, -1182,  -900,  -1268, -3086,  -661,  -842,  1371, -2043,  1631,  -916,   -1029, -1186,   732,  2032,   133,  2112,   547,  1935,  -1927, -1718, -2621, -1083, -2325, -1539,  1649,  -955, // 64
    
    // Out channel 2
      -382, -1887,  -128, -2389, -1225,   976,  -281,   -95,   -103,   379,  -253,   374, -2027,  -226, -2002,  -142,   -1336,  -264,  -160,  -230, -2411,  -643, -6001, -1247,   -418, -1341,  -174,  -113,   246, -1130, -1715, -1104, // 96
    
    // Out channel 3
       -62,   746,  -323,  -421,  1052,  3082,  -588,  -339,     47, -2476, -3043,  -387,   785,  -768,   860,  -330,    -399,  -579,   349,  1524, -1318,  1663,   331,  1425,   -896, -1740, -1721,  -461,  -155,  -770,  1101,  -693, // 128
    
    // Out channel 4
      -103,  -739,  -495,   185,  -430,  -591,  -370,  -543,  -1135,  -687,  2670,  -318,  -728,  -991,  -702,  -513,      22,  -330,   249,  1053,   200,  -312,  -743,  -521,   -113,  1566,  -838,  -335,  -698,   118,  -567,   191, // 160
    
    // Out channel 5
      -870,  -812,  1323, -1374,  -649,   646,  1267,  1246,  -4213,   843,  -502,   849,  -810, -3543, -1121,  1228,    -449,   853,  -961,  -273, -1642,  -359, -1451,  -598,   -560, -1899, -2070,  1152,   994,  -581,  -944,  -513, // 192
    
    // Out channel 6
        23,   -39,   -90,   -36,     5,    65,  -101,   -89,   -147,  -193,    61,   -98,   -20,  -192,   -25,   -90,       0,   -89,  -212,    48,   -36,    18,    -9,    18,    -44,   -65,  -171,   -82,  -110,   -24,   -31,   -35, // 224
    
    // Out channel 7
      -139,  -131,    -4,  -233,  -103,   -72,     0,    42,    143,    17,  -177,    -1,  -132,  -148,  -105,    32,     -91,    17,  -104,   -80,  -149,  -114,  -208,   -78,    -10,    19,    90,    28,   -11,   -29,   -95,  -148, // 256
    
    // Out channel 8
      -159,   143,   163,   101,     7,   -13,    84,    26,   -182,  -122,   101,   115,    -5,   -69,   116,    12,    -119,   138,   -41,   -30,    57,   149,    62,    65,    -27,  -262,   100,    -6,  -183,   -41,    70,   -24, // 288
    
    // Out channel 9
     -1146,  2262, -1438,   882,  2434,  3619, -1885, -1393,  -2553, -2607,   581, -1278,  1945, -3242,  2300, -1377,   -2567, -1910,  1278,  2589,  1231,  2782,   716,  2508,  -2677, -1698, -3056, -1581, -4993, -2375,  2246,     8, // 320
    
    // Out channel 10
      -689, -1248,  2460, -3335,  -968,  -505,  2034,  2275,   -119,  -557, -1999,  1595, -1155,    18, -1147,  2359,   -1804,  2005, -2041,  -819, -3079,  -953, -1701,  -997,  -1910,  1170,    25,  2228,  -384, -2089, -1067, -2321, // 352
    
    // Out channel 11
     -1430, -1809,  3134, -4610, -1575,  -577,  2750,  3044,    998,  -598, -2639,  1934, -1811,   692, -1863,  3088,   -3121,  2827, -2909, -1025, -3934, -1047, -2446, -1312,  -2288,  1892,   511,  3012,  -479, -2805, -1711, -3539, // 384
    
    // Out channel 12
      -252,  -231,   428,  -308,  -130,   -87,   562,   355,  -4387,   916,  -178,   543,  -261, -3547,  -234,   345,    -273,   524,  -201,  -122,   -73,  -121,  -198,  -103,   -341, -2730, -2886,   474,   762,  -154,  -154,  -197, // 416
    
    // Out channel 13
      6537,   108,   377, -1054,   210,   429,   308,   -12,    284,    84, -2983,  -240, -3859,   293,   263,   249,    -634,   130,   149,    96, -1080,    -1,  -613,  -221,   -696, -2581,   436,   244,  -121,  -871,   -23,  -427, // 448
    
    // Out channel 14
       549,   205,  -706,   644,   -43,   116,  -509,  -867,     71,   384,   384,  -630,     6,   -14,    91,  -656,     209,  -883,   251,    80,   445,     7,  -143,   154,      5,   114,  -476,  -679,   -72,    21,    82,   609, // 480
    
    // Out channel 15
      -228,  -211,   255,  -521,  -256,     4,   419,   171,    528,   345, -1340, -4405,   -95,   403,  -264,   173,    -451,   437,  3761,  -134,  -748,  -204,  -120,  -157,   -211, -1629,   427,   237,    52,  -319,  -269,  -231, // 512
    
    
};

const int16_t cg_FC6bias[16] = { // Co,H,W,Ci: (16,)
     -2805,  1608,  1327, -3314,   762, -2845,  -642,  -669,  -1247, -4896,  1526, -4154,   109,  -815, -3248,   393,  
};

const int16_t cg_FC7weit[16] = { // Co,H,W,Ci: (1, 16)
    // Out channel 0
       340, -6082,   992,  1421, -1131,   -979,   -80,   -44,   -46,  4032,    5769, -4318,  1614, -1026,   351,   1057,
    
};

const int16_t cg_FC7bias[1] = { // Co,H,W,Ci: (1,)
      4925,
};

