#include <stdint.h>
const int16_t cg_FC1weit[768] = { // Co,H,W,Ci: (96, 8)
    // Out channel 0
       612,  -832,   240, -1269,  1373,  -678,    48,   204, 
    // Out channel 1
     -2883, -2608,  3148, -2014, -1053,  -127,   713,  1066, 
    // Out channel 2
      -105,   -87,    81,    96,  -116,   -16,     9,   -51, 
    // Out channel 3
     -1334,    68,   837,  -872,  1312,   -66,   -18,   291, 
    // Out channel 4
      -113,   -39,   -20,  -111,    26,    47,   -17,   -99, 
    // Out channel 5
        -6, -1967,   176,  -977,   373,  -785,  1149,   635, 
    // Out channel 6
       560,  -191,    43,  -264,   409,   166,   287,   450, 
    // Out channel 7
      1169,  -759, -1373,  -427,  1009,   -55, -3022,  -267, 
    // Out channel 8
      -163,  -779,   142,  -426,  2206,  -299,   279,  -993, 
    // Out channel 9
       -72,    14,   -61,    64,   -50,   -80,   -85,    14, 
    // Out channel 10
       429,    35,    16,  1703,   944,  -617,   178, -2339, 
    // Out channel 11
       121,  -513,  -473,   900,   202,  1229,   186, -1155, 
    // Out channel 12
       733,    80,  -995,   -84,  -642,   891,  -375,  -838, 
    // Out channel 13
      -214,   463,   185,   -64,  1967,  -553,  -207,  -711, 
    // Out channel 14
      -872,  -108,   415,   334,   244, -1081,   543,   121, 
    // Out channel 15
       660,    15,  -565, -1246,  -795,  1059,  -634,  -154, 
    // Out channel 16
       539,    47,  -478, -1428,  1287,  -468,   102,   358, 
    // Out channel 17
        -4,   -19,    33,  -115,    65,    21,     9,   -51, 
    // Out channel 18
      -134,  -110,   -69,    32,    75,    94,    27,  -124, 
    // Out channel 19
     -1199,  -234,    57,  1896,  1029,   277,   599, -1077, 
    // Out channel 20
        99,   782,  -345, -1107,   -86,  -650,   -38,   665, 
    // Out channel 21
       -79,  -262,   155,    79,   229,  -203,  -166,   -39, 
    // Out channel 22
      1410, -3097, -1663,  -266,  2119,  -929,  -326,   108, 
    // Out channel 23
      -381,    59,  -612,   218,  -579,  -776,   738,  -172, 
    // Out channel 24
        30,    -8,    16,   -72,   -95,    76,   -64,   -91, 
    // Out channel 25
      -103,   -35,    19,    66,    78,    34,   -36,   -88, 
    // Out channel 26
       777,  1641, -1348,   187,  1173,  -465, -2525,  -442, 
    // Out channel 27
       576,     2,    58,  -492,   595,   125,   222,   266, 
    // Out channel 28
      -100,    32,   -40,  -133,   -80,   -38,    82,   -66, 
    // Out channel 29
     -2430, -2281,  3047, -1081,  -983,  -729, -1063,  1209, 
    // Out channel 30
      -953,   457,     5,  -769,    -3,  1001,  -484,   459, 
    // Out channel 31
      -301,   165,  -282,  1734, -1627,  -650,   -59,   507, 
    // Out channel 32
     -1408,  -309,   906,  -477,  -436,  -231, -2508,   739, 
    // Out channel 33
       579,  -794,  -798,   734, -1171,   921,  -543,  -116, 
    // Out channel 34
        -4,  -114,  -125,    57,  -114,    84,    92,   -67, 
    // Out channel 35
      -977,  -742,   487,  -356,   426, -1160,   778,   146, 
    // Out channel 36
        60,    61,  -137,   -41,   -23,   -75,    -6,    64, 
    // Out channel 37
       -13,  1114,  -169,   335,   665, -1599, -1322,  1088, 
    // Out channel 38
      1129,   317,  -866,  -630,  -495,  -415,  -131,   151, 
    // Out channel 39
      -246,  -337,   489, -1600,   325,  -555,  -172,   344, 
    // Out channel 40
       -64,    13,    58,     4,   -58,    20,     7,    17, 
    // Out channel 41
     -1307,   228,    55,  2142,    84,   402,  -386,  -899, 
    // Out channel 42
       729, -3148,  -776,   454,  -312,    30,  1549,  -120, 
    // Out channel 43
       409,  -462,  -455,   890,  -862,  1264,  -115,  -418, 
    // Out channel 44
       -76,   -75,    28,   -91,   -37,   103,   -54,   -74, 
    // Out channel 45
      -903,    70,   433,   410,   146,  -981,   401,   172, 
    // Out channel 46
        28,  -100,    10,  -116,    60,  -127,   -92,   -62, 
    // Out channel 47
      -823, -1003,  -705,  1883,  -317,   592,  -419,  -445, 
    // Out channel 48
       128, -2210,  -333,   115,    15, -1432,  1104,  1265, 
    // Out channel 49
       -58,    41,   -36,   -97,    52,    40,     0,   -73, 
    // Out channel 50
         4,     1,    35,    20,  -108,   -44,   -65,   -53, 
    // Out channel 51
     -1545,   678,   167,  1414,   308,   -69,  -787,  -172, 
    // Out channel 52
        -8,    22,    -8,   -73,   -17,   -15,   -71,  -118, 
    // Out channel 53
        31,    21,   -65,   -44,    70,  -107,   -88,    17, 
    // Out channel 54
       -63,  -481,   620,   294,  1830, -1258,   -59,  -775, 
    // Out channel 55
       -22,   -73,   -47,  -206,   -18,  -184,  -226,  -233, 
    // Out channel 56
     -1072,    52,  -628,   403,   323,   623,  -474,   363, 
    // Out channel 57
       307,   244,   -52,  -771,  -960,  1202,  -770,  -209, 
    // Out channel 58
        44,   -69,  -113,   -62,    24,    -4,    -3,   -81, 
    // Out channel 59
       418,   772,  -417,  1103,   779,   -20,    21, -2887, 
    // Out channel 60
      1261,  1630, -1358,  -223,    18,   609, -4749,  -447, 
    // Out channel 61
       831, -6767,  -747,  -603,  1245,   323, -1331,  -636, 
    // Out channel 62
       -86,   -90,    71,   -35,    77,  -106,   -92,   -23, 
    // Out channel 63
       -96,   -90,   -21,  -115,    21,   -12,    66,  -116, 
    // Out channel 64
      1226,   486,  -916,  -591,  -146,  -823,  -380,   490, 
    // Out channel 65
       -44,     2,    33,    35,   -26,  -123,  -117,     9, 
    // Out channel 66
      -104,    35,    51,    -2,   -27,  -127,    54,   -89, 
    // Out channel 67
      -534, -4790,   163,   716,   432,  -928,  2723,   223, 
    // Out channel 68
      -740,  -138, -1122,   543,   565,   384,  -177,   368, 
    // Out channel 69
       918,   250,  -983,  -190,  -813,  1168,  -815,  -666, 
    // Out channel 70
       -35,    83,  -127,    34,   -89,   -73,   -74,    14, 
    // Out channel 71
       101,   -95,  -120,     8,   -40,  -148,  -105,    63, 
    // Out channel 72
        76,   536,  -128,   145,   663,  1300, -2640, -2088, 
    // Out channel 73
       -11,   -21,   -22,   -26,   -66,  -128,    61,    20, 
    // Out channel 74
      -761, -7754,   709,  -693,  1485,  -813,  1762,  -100, 
    // Out channel 75
      -123,     8,    44,  -104,    91,     7,    43,  -127, 
    // Out channel 76
       880,  -156, -1421,   121,  -340,   595,    21,  -919, 
    // Out channel 77
      1336,  -895, -2959,  1240,    35,   254, -1368,  -569, 
    // Out channel 78
     -1117,    95,  -782,  1107,   560,   462,  -816,  -236, 
    // Out channel 79
      -111,   -95,    29,    26,    29,    -8,    16,   -92, 
    // Out channel 80
       -88,    -1,   -63,    -4,    12,   -83,   -77,     2, 
    // Out channel 81
      1036,  -819, -2242,   269,   464,  1777, -1263, -2056, 
    // Out channel 82
       -11,   -43,   -59,    11,   -44,    34,  -120,   -63, 
    // Out channel 83
        24, -2010,   235,  -372,  1066,   626, -1215, -1365, 
    // Out channel 84
       694,    -1,  -493,   439,  -116,  -974,  -494,  1370, 
    // Out channel 85
     -2488, -3555,  4636, -6689, -6584, -3426,  -789,    14, 
    // Out channel 86
       -40,   -76,    -1,  -116,   -39,   -28,   142,   -36, 
    // Out channel 87
       310,   573,  -314,  1711,   -84,  -381,  -406,   108, 
    // Out channel 88
     -1371,  -450,    -4,  1002,  1928,    31,   328,  -395, 
    // Out channel 89
     -1091,   929,   588,   966,  1504,  -322,  -388,  -473, 
    // Out channel 90
      -465,   405,  -156,  1163,   679, -1429,  -913,  -214, 
    // Out channel 91
        43,   249,  -596,  1387,   548, -1818,  -882,  1117, 
    // Out channel 92
        27,  2065, -1255,   472,  1625,   -40, -2853, -1051, 
    // Out channel 93
       -61,    21,    43,    48,   -94,   -76,  -117,    58, 
    // Out channel 94
       782,  -103,  -284, -1093,  -250,   673,  -430,   218, 
    // Out channel 95
     -1806, -1360,  1154,  -243,  -307,  -611,   618,   912, 
    
};

const int16_t cg_FC1bias[96] = { // Co,H,W,Ci: (96,)
     -2771,    59,   -53, -2818,     0,  1102, -5097,   228,  -1727,     0, -5412, -3163,  1816, -2789,  1864,   539,    -937,  -133,  -146, -2779,  1298, -1281, -2261,  5049,   -120,  -154,   227, -4432,  -154,   103, -6731,  1748, // 32
      1232,  -859,  -281,  3462,  -236, -1806,  3060,  2207,   -315, -1058,   426, -4265,     0,  1743,   -82,  -409,     117,  -103,  -216,  -114,     0,   -82, -4663,     0,  -4004,  -678,   -41, -1683,   411,  -298,     0,   -66, // 64
      1997,    -7,  -236,  -194, -4058,  1049,   -64,  -183,    363,   -78,   115,  -217,  2956,  1438, -1417,   -41,       0,   266,     0,    96, -3876,   584,  -454, -6475,  -4046, -4401,  1309, -2436,    84,   -41, -1832,     6, // 96
    
};

const int16_t cg_FC2weit[6144] = { // Co,H,W,Ci: (64, 96)
    // Out channel 0
      -169,   -66,     7,  -980,     3,    15, -1094, -1265,   -170,   -21,  -333,  -323,  -538, -1116,    20,    38,      84,   -19,   -18,  -361,   -18,   -40, -1155,   -74,     20,   -29, -1545,  -982,     4,  -113,  -117,   103, // 32
         3,  -320,     3,    -7,    28,  -653,    40,   -43,    -18,   -26,   -15,  -324,    44,     0,    -5,  -461,      37,    31,    30,   -82,    46,   -47,  -788,    34,   -163, -1456,     4,    31,  -192,  -763,    44,     2, // 64
        42,   -35,   -34,    -1,  -380,  -769,   -13,     4,     91,   -30,   -62,    37,  -394,  -980,    75,    12,     -15,  -508,   -29,  -131,  -710,  -212,   -16,  -222,   -652,  -821,   122,  -212,  -551,     1,    50,    57, // 96
    
    // Out channel 1
      -296,    14,    35,    64,    18,   -17,    13,  -595,     81,   -11,   -86,    47,  -396,  -853,  -347,   185,      24,     9,   -49,    69,    18,   -11,     0,  -344,     -1,   -25,  -738,     3,     3,   126,   188,   745, // 128
        25,   100,    28,  -328,     9,  -661,   -46,    39,     48,   250,  -876,    33,   -21,  -290,   -39,   255,     -24,     5,     2,   242,    43,    30,  -936,   -18,      8,   365,     2,  -672, -1861,    56,   -10,    20, // 160
       -66,   -38,    21, -1217,    71,  -310,     3,   -18,   -526,   -30,  -185,   -52,  -472,  -675,    10,   -17,     -37,    12,    -2,   -40,    23,   -65,    42,   -30,    -15,    58, -1115,   133,  -863,   -25,    15,    -9, // 192
    
    // Out channel 2
      -817,   -28,   -17,  -749,    -7,     3, -1885, -2126,   -102,   -29,  -258,  -336,   -50, -1449,    49,     3,      29,   -12,    26,  -568,    20,   -44,  -610,     9,    -28,    34, -1201, -1615,   -24,   -80,  -156,    67, // 224
       -13,  -490,   -11,     6,   -24,  -996,     5,    22,    -14,  -109,    25,  -379,   -34,    49,    -6,  -829,      27,    21,     3,   -58,    35,   -36,  -776,    51,    -23,  -985,   -31, -1168,  -637,  -562,    -2,   -36, // 256
         3,   -42,   -37,    -2,  -283,  -150,    40,    -9,   -270,   -13,   -42,   -26,   -13,   -40,  -117,   -13,      35, -1230,    31,  -167, -1029,  1984,    -8,  -179,    -65,  -989,   204,  -178, -1073,   -48,   -11,    14, // 288
    
    // Out channel 3
        81,  -729,   -13, -4545,    -3, -1561,     0,   -69,  -1520,   -18,   130, -1667,    16,    17,   -13,  -324,    -345,     2,    19, -1038,  -948,    31,  -197,  -253,    -37,    -6,   -46,    -4,    36,  -142,  -131,    15, // 320
      -452,  -100,    31,   -44,   -53,    29,    -6,  -180,     25,  -255,   -14, -1304,   -10,   -18,    31,  -845,   -1339,   -39,    51,  -728,     5,    29,    71,   -10,   -526,  -884,    32,   277,    38,   -58,    46,     0, // 352
       -24,   -21,   -16,  -259,  -681,    21,   -11,    54,    146,   -50, -1492,    17,    43,  -127,  -947,   -12,     -11,  -823,    -8,    12,     1,   -86,   -19,   -45,  -1200,    45,   -18,     6,   -92,    14,   -48, -1573, // 384
    
    // Out channel 4
     -1571,  -265,   -16,  -169,    48, -1074,   -53, -2142,   -706,    17,   -48,  -192,   -40,  -958,   -66,   155,      27,    50,    -3,  -290,   108,   -67, -1571,    22,     17,    37,   168,   -41,   -14,  -123,    74,   -68, // 416
      -553,   134,    13, -1096,    20,   -69,   -30,  -626,     15,  -725,  -721,  -292,    26,   -96,   -34,  -118,   -1208,    18,    37,  -242,     7,   -40,  -789,    72,     33,   463,    24,   471,   -31, -1814,   -20,   -15, // 448
         2,    53,     4, -1019,     3,    21,    36,    44,   -828,   -26, -1445,   -60,   -32,  -201,    28,   -21,     -11,   150,   -32, -1420,  -141,   -19,    -4,   -78,    -12,  -465, -1907, -1203, -1170,     6,    75,  -986, // 480
    
    // Out channel 5
      -143,    -5,   -39,  -209,    -2,    -1,  -229,  -254,    132,   -23,   -88,   -99,   -53,  -162,   -52,   -43,     -51,    31,    27,  -271,   -44,   -60,    36,   -68,     31,    44,   -71,  -160,     5,    28,   -57,   -15, // 512
        91,  -339,   -27,   -53,    47,  -120,   -34,   -42,    -13,  -334,   -63,   -17,    26,   -10,   -11,   -89,     -22,    14,   -51,  -180,   -25,     6,  -165,    11,   -213,   -19,    19,   -35,  -199,  -136,   -39,    58, // 544
       -27,   -24,    13,    -4,  -247,   -92,    43,   -18,    -18,   -28,   -35,    16,   -69,   -45,  -116,   -29,     -12,  -112,   -13,  -134,  -207,   265,    17,   -45,   -282,  -288,     7,   -34,  -220,    10,    -4,    44, // 576
    
    // Out channel 6
        18,    18,   -16,   -68,   -17,   -61,    18,     4,    -57,    14,   -40,    11,     0,    10,   -51,   -11,      -6,    -6,    21,   -36,    -5,    13,    11,   -42,     45,    43,    -5,   -19,   -25,    37,   -16,   -21, // 608
        29,     1,     7,     3,   -31,     7,     8,     6,     16,   -52,   -48,   -41,    -6,    16,   -20,   -14,     -33,   -43,   -31,   -10,    17,     6,    -9,   -40,      2,   -50,    -1,   -57,    -7,     0,   -16,    37, // 640
       -14,   -24,    14,   -13,     8,   -46,    33,   -18,    -17,    40,   -35,   -24,   -15,   -44,   -26,    -4,      44,    39,   -22,     7,   -51,    26,    20,   -40,     10,   -47,    -1,    -8,   -15,    18,   -20,   -47, // 672
    
    // Out channel 7
       127,  -135,   -28,    81,    48,     3,    -1,  -605,     10,   -44,  -207,  -400,  -132,  -492,  -193,   -95,       2,   -39,   -30,   -12,  -340,   181,   -11,  -154,     28,    11,  -149,    18,   -38,    55,  -132,   167, // 704
        26, -1120,    29,  -453,    40,    15,    -3,   -73,    -30,  -252,  -150,  -299,    18,  -200,    46,  -340,      32,    36,    19,   171,   -17,   -29,   746,   -49,   -198,  -261,   -41,  1532,  -213,  -701,   -16,   -41, // 736
        44,     3,    43,     2,  -163,  -180,    -4,    15,   -457,   -40,   -61,    17,    46,  -509,  -599,   -28,     -31,  -122,   -32, -1129,    62,   -55,    34,   -84,     26,    76,   110,   173,   139,   -27,  -501,    82, // 768
    
    // Out channel 8
       -28,    11,   -16,    39,    32,     2,    10,  -670,     93,   -36,   197,    68,  -218,  -667,  -746,   -14,      12,    26,    17,    73,    29,    40,    17,  -233,      4,   -33,  -118,    12,   -17,   109,   203,    85, // 800
        11,     5,    -9,  -475,   -18,   -10,  -104,    -9,     47,    39,    24,    25,   -40,  -997,   -50,    28,      -2,   -22,    35,    93,   -18,     8,  -194,   -44,     14,   398,    44,   228,   -55,    -7,   -45,    40, // 832
       -91,    24,     8,    28,    -4,  -214,    33,   -35,   -239,   -28,    -5,   -19,  -700, -1259,    18,    -5,     -33,   -59,    25,   -70,    -9,     9,    -4,    75,     11,    73,   -37,    -5,  -988,    -9,    26,    -2, // 864
    
    // Out channel 9
       -69,  -191,    45,  -290,    -8,  -534,    17,     4,   -399,    32,    56,   -45,   -18,   160,  -699,   152,      86,   -35,     2,   -57,    42,   -40,    23,  -286,     20,    -7,    43,     4,    33,  -590,   144,    50, // 896
      -708,    62,   -38,  -594,   -25,   -12,  -268,  -616,     16,    30,  -389,   -18,   -10,  -890,    33,   -30,    -834,   -12,   -16,   -23,   -14,   -17,     5,    -5,    106,   202,   -25,  -770,     4,  -723,    15,    12, // 928
      -161,   -36,   -46, -1520,    75,     1,    19,   -23,     15,   -21,  -948,   -55,   -59,  -407,   126,    47,     -26,    -1,     6,  -198,    29,     6,    17,    37,     28,   142,  -363,   121,  -349,   -33,    51, -1114, // 960
    
    // Out channel 10
      -729,  -250,   -14,   -62,    33,  -126,   -46,   -94,   -356,    -1, -1645,    25,    39,   106,   -11,  -474,    -830,    16,   -20,    78,  -251,  -146,   -59,  -142,     12,   -18,  -421,   -61,    29,   274,  -369, -1482, // 992
      -644,  -497,    13,    13,    -7,    13,  -430,  -162,     37,    98,  -584,   -28,   -18,    39,   -45,    21,    -171,    15,   -22,   167,   -26,    18,  -312,    26,    -84,  -190,     2,  -369,  -267,   161,    -8,   -18, // 1024
     -1024,   -46,     1,  -131,  -223,    -7,    38,    -7,   -987,   -19,   -29,   -38,    54,  -481,  -270,   -34,      -7,  -278,   -15,    23,  -748,     2,    32,  -916,    -71,    10,  -846,  -341,    25,   -48,  -709,  -296, // 1056
    
    // Out channel 11
       -26,    14,   -35,     4,    28,     4,    -7,    26,    -13,     9,   -32,   -40,    -7,    25,   -38,     3,     -29,   -40,   -28,   -49,   -26,     6,   -28,   -39,     30,    17,    29,   -19,     5,   -22,     7,    11, // 1088
       -17,     0,   -38,   -28,   -40,    -3,   -73,   -22,    -58,    -5,   -50,   -61,    24,     7,    19,   -29,     -36,     6,   -35,   -63,   -44,     8,   -46,   -32,     -5,   -23,    35,   -27,   -55,   -14,   -35,   -20, // 1120
       -64,    -7,   -50,    18,   -19,   -64,   -20,   -31,     22,   -32,    -5,   -28,   -64,    25,    27,    28,      27,   -22,    27,    -6,     4,    16,   -38,   -39,     -1,     3,    30,   -56,   -18,   -10,     6,    41, // 1152
    
    // Out channel 12
      -231,  -170,   -27,   -10,    -2,    21,   302, -1049,    676,    36,   -88,    32,  -114,  -500,  -389,    90,     157,   -34,   -41,    -4,   143,   -55,   122,  -686,    -16,   -30,  -256,    -1,    -1,  -161,  -398,   -77, // 1184
      -284,   -53,    -9,  -317,    49,  -582,   -45,  -288,     34,   291,   -15,     0,     7,  -421,   -46,  -234,     -30,    17,   -49,   282,    46,   -33,  -275,    46,    -41,     4,    37,   847,   136,   105,     8,    16, // 1216
      -140,   -49,    -6,    90,   396,  -267,    41,     5,   1231,    -8,   226,   -35,  -206,  -353,   -93,    19,      29,  -380,    39,  -294,   -52,  -105,    38,     1,    -46,     2,   204,   -77,  -677,   -20,   -85,   122, // 1248
    
    // Out channel 13
        35,   328,   -22,     9,    19,   -24,   -18,  -721,     34,   -26,   -11,   170,   -35,  -899,  -837,     2,     -24,     9,    27,   -43,   -41,   -31,    91,  -839,    -13,    31,    31,    13,   -44,    11,   -33,   871, // 1280
       -26,    84,    42,  -909,   -41,  -456,   -97,   -30,    -45,   -22,  -200,    86,    44,  -788,    48,    -1,     -34,   -22,    -2,  -247,   -22,    41,  -101,     1,     12,   -26,    42,   205,   -50,  -142,    36,   -51, // 1312
       -56,     9,    18,  -282,   -14,    22,   -43,   -37,     41,   -15,   -57,    29,  -195,   -41,   703,   -35,      33,  -324,    28,   200,    30,  -109,    26,   -21,    -39,   392,  -144,   114,   -68,   -10,    21,   -19, // 1344
    
    // Out channel 14
      -165,     3,    19,  -408,    46,     5, -1536, -1827,     38,    34,  -591,  -524,   -54, -1707,    14,    11,     -29,   -43,    17,  -716,    -1,   -35,  -484,    27,    -35,    16, -1127, -1618,   -39,   -88,  -194,    74, // 1376
        36, -1334,    25,    23,    -4,  -438,    29,     5,     24,  -269,    -2,  -495,   -11,    26,    18, -1028,     -24,     1,   -48,  -509,   -46,   -10,  -815,     5,   -514, -1271,     3, -1091,  -659, -1135,   -23,   -12, // 1408
        21,   -29,    22,     2,  -329,   -78,   -26,     3,  -1068,   -20,    -9,   -29,    -4,    47,  -624,    -1,       2, -1474,   -38, -1088,  -935,  2334,    32,  -194,   -272, -1423,    19,  -360, -1070,    19,   -25,   -23, // 1440
    
    // Out channel 15
       160,   -23,   -49,   515,    28,   -21,   -28,  -733,    287,   -18,   -29,   -33,  -349,   187,  -711,    65,      16,    -2,    -5,   515,  -395,   100,   136,  -604,     22,    47,  -307,     8,    -9,  -313,  -445,   541, // 1472
      -306,  -271,    28,  -569,    18,  -161,  -606,  -172,     12,   -74,   120,   -89,    47,  -669,   -43,  -602,     -27,    33,     7,  -761,    23,   -17,   -67,    -6,   -136,   120,    12,   120,   391,   106,     0,   -57, // 1504
      -493,    -7,   -25,    15,   -29,  -558,    51,    27,     87,   -21,   133,   -54,  -359,  -486,  -235,    25,     -12,  -271,    -8,    61,   -31,   -12,   -14,     0,    -36,    14,   301,   -22,  -883,    25,   -36,   178, // 1536
    
    // Out channel 16
       -63,    40,   -39,   -34,    33,    28,  -209,  -290,     46,   -11,   -96,   -33,  -251,  -144,   -15,   138,      46,     3,   -41,  -287,   151,     1,  -677,    -3,    -41,   -21, -1276,  -163,   -11,    29,  -309,   -73, // 1568
        41,  -692,   -36,    21,   -15,  -182,   -45,    27,     39,   -28,  -108,    42,    34,     2,    33,  -306,      -7,     9,    33,    50,    39,   -48,    36,    31,   -909,  -252,   -17,   -65, -1171,   -97,    39,     9, // 1600
         0,    -8,     6,   -23, -1203,  -235,   -22,   -40,     15,    22,    41,    37,  -130,  -591,   -77,    15,       3,  -145,    23,    61, -1205,    -6,    49,  -199,   -339,   -54,    52,  -209,  -504,     8,   -81,    28, // 1632
    
    // Out channel 17
         1,  -571,    44,  -792,    11,  -891,     5,  -204,  -1385,    47,   135, -1693,  -215,   -15,    15,  -613,     -59,   -22,    22,  -987,  -346,   127,  -364,  -159,    -33,    10,   -62,    16,   -15,  -221,  -153,   -12, // 1664
      -326,  -345,    -6,   -91,    -3,    25,   -74,  -759,     43,  -256,   -14, -1561,    14,   -17,    -8,    23,    -597,   -29,    43,  -132,   -41,     4,    39,    27,   -395,  -278,   -49,    54,    45,    27,    13,   -12, // 1696
       -75,   -22,    -5,  -429,  -345,  -319,    43,    49,    152,   -43,  -266,   -44,   -22,  -322,  -246,    24,      46,  -194,     2,   -20,     0,    40,    26,   -64,  -2086,    -3,   -44,    23,  -825,   -11,  -340,  -940, // 1728
    
    // Out channel 18
       125,  -297,   -49,    55,    33,    34,   -10,  -751,    606,    17,   561,  -147,  -111,   539,  -495,  -275,     138,    18,   -14,   -29,     0,     1,    95,  -296,     42,   -14,  -185,    42,    -2,  -145,   -99,   -71, // 1760
      -113,  -314,    13,  -536,    33,  -150,    39,   -65,    -13,   432,    52,  -141,     5,  -418,   -27,  -428,      49,    34,    28,  -459,   -35,   -39,   -45,     6,     77,  -142,    18,   -55,   404,    29,   -38,   -44, // 1792
        13,    25,    13,    76,    21,  -147,    34,   -48,    -14,   -13,    56,   -39,   -94,  -417,    13,    49,     -11,  -483,    49,    11,    -8,   -50,    -3,   -15,    396,    27,   -25,   -26,  -561,     8,    -2,   298, // 1824
    
    // Out channel 19
       243, -1329,   -24, -1478,   -26,    62,  -993,  -218,  -1264,   -35,  -306,  -238,  -710,  -329,    -3,   269,      30,    12,    32, -2119, -1047,   -39,  -409,  -278,    -31,    14, -1139, -1113,   -12, -1914,  -112,  -230, // 1856
       -50,   -19,   -28,   -10,   -25,  -606,  -333,   152,     42, -1321,  -465,  -198,   -21,   -17,    43,   -65,      -5,    37,     3,    28,     1,    35,   282,    42,   -411, -1021,     5,  -113,  -951,  -364,   -43,     3, // 1888
      -306,    10,    -8,   -53,  -149,  -557,    23,   -24,  -1559,   -25,   -27,     4, -1063,  -712,  -218,    -1,     -37,   -65,    47,  -458,  -664,    78,   -14,  -472,   -629,  -253,   133,   -55,  -715,   -32,    67,   -90, // 1920
    
    // Out channel 20
       555, -2819,    -3,  -807,     0,   -46, -1993,   270,   -560,    15,  -894, -1404,   137,  -271,   -24,    21,     -12,    41,   -37,  -925,    80,    -4,  -627,    63,    -15,   -10,   -20, -1930,   -31, -1909,  -326,     0, // 1952
       -38,     8,   -50,   -23,     6,  -933,   -18,     0,      9,   -76,    91, -1622,    36,   -13,   -32,    91,    -240,    31,    -6,    86,   -21,    23,    83,     8,   -193,   779,   -24, -1419,    31,    24,   -25,    36, // 1984
        99,   -51,    27,  -853,  -209,   175,    29,    47,    330,   -42,  -550,    22,    15,   221,   223,    23,      33,  1606,   -26,   -43,  -394, -2627,    31, -1186,    130,  -336,   -15,  -477,   331,   -49,   -73, -1124, // 2016
    
    // Out channel 21
        97,  -591,    17, -2942,    33, -2218,     4,   -82,  -1356,   -40,    86, -1362,   101,   -63,   -50,  -295,    -124,    26,    22, -1142, -1207,   135,  -195,  -460,    -11,    43,   -31,     9,    12,  -147,  -133,    -8, // 2048
      -522,  -101,    30,   -45,    38,    15,   -38, -1520,     10,  -369,   -17,  -913,   -13,   -24,   -34, -1218,    -773,   -41,    -5,  -823,   -31,    45,    88,   -29,   -644, -1016,   -24,   329,     0,   -25,   -45,    27, // 2080
         2,   -10,    21,  -269,  -838,    45,   -43,     6,    -12,    22,  -294,    26,    74,   -91, -1199,   -19,     -34,  -856,     3,    40,     3,   -79,   -11,   -34,  -2510,    14,   -41,    -1,    25,    45,   -58, -1454, // 2112
    
    // Out channel 22
       251,  -105,   -36,   285,     0,   -38,    -8,   118,    581,     4,   502,   263,    20,   659,  -782,    27,     241,    -7,    12,   117,   -90,   135,   236,  -135,    -40,    43,  -365,     4,   -29,   -35,   -49,   -18, // 2144
       -21,   -35,    20,  -671,   -38,  -169,   206,  -251,    -26,   108,  -121,   196,   -21,  -772,    31,  -799,     -58,    32,    -5,  -761,    37,   -16,   -21,   -49,   -443,   -92,   -40,  -134,   -75,   526,    15,    -1, // 2176
       -16,    11,   -46,    35,  -400,   -62,    14,     7,    -11,    26,   355,    -6,   -66,  -317,  -606,   -48,      39,   -49,    35,   124,     2,    13,    34,     8,     22,    80,    46,    32,  -297,    32,   402,   -87, // 2208
    
    // Out channel 23
       570,  -207,   -27,    20,    35,    98,     3,   898,    273,    49,  -335,   264,  -238,   670,  -698,  -278,     455,   -18,   -25,    -9,   -78,    14,   112,   -85,     41,    29,  -605,    -8,    34,  -122,  -349,  -502, // 2240
      -167,   214,    14,  -497,   -20,  -399,  -708,  -192,     32,  -109,  -150,   203,   -24,  -642,    40,  -499,     -27,   -34,    44,  -607,   -39,   -37,   155,   -40,    -32,  -179,     0,   -71,  -133,   659,   -33,     6, // 2272
      -446,    49,    -2,    58,   -30,  -598,   -34,   -49,    401,    18,   208,   -33,  -314,  -760,  -172,    15,      -9,    42,   -46,   790,     3,   -11,    14,   -12,     85,    37,  -183,     0,  -168,   -40,   392,   100, // 2304
    
    // Out channel 24
       -32,  -659,    46,  -100,   -49,  -441,  -307,  -148,   -290,   -49,  -433,     9,    -2,  -156, -1573,   550,    -258,    44,   -31,    11,   227,   -32,  -552,   623,     11,    16,   611,  -317,    31,  -600,  -312,    10, // 2336
      -592,  -400,    -6, -1672,    35,  -382,   -87,  -590,    -63,   -85,   -35,   -37,   -23, -1631,     7,  -309,   -1296,    -4,     8,   227,    15,    53,   -82,    54,   -661,    55,    43,  -323,   -88,   171,    26,   -55, // 2368
       359,   -25,   -51, -1327,  -562,     6,     8,     9,   -155,   -12, -1070,    21,   -26,   -14,   217,   -35,       6, -2725,   -30,     5,  -653,  -351,   -20,   -70,   -214,  -822,  -160,  -648,   347,   -10,  -230,  -725, // 2400
    
    // Out channel 25
      -745,  -391,     3,   -38,   -36,  -272,   -80,    92,     88,    37, -1163,  -849, -1589,    96,   -20, -1178,    -288,    15,    -4,    46,  -334,    24,   -96,  -599,     46,     7,  -230,   -31,    17,   206,  -373,  -806, // 2432
      -551,   -49,   -12,  -105,    12,    65,  -192,  -176,     10,  -269,  -253, -1082,   -12,   -38,    21,   319,    -312,   -45,   -50,   102,   -13,    15,  -215,   -51,   -181,  -311,    49,  -554,   -76,    45,   -10,    22, // 2464
      -442,   -16,    51,  -120,  -244,  -985,   -45,    43,   -546,   -47,   -25,    43,  -531,  -264,   -28,     3,     -43,   -82,   -45,     8,  -314,    15,    45,  -256,    -55,    65,  -382,  -246,    59,     2,  -107,  -434, // 2496
    
    // Out channel 26
      -397,  -318,    -1,  -241,    12,  -726,   -55,   -49,    301,    31,   -96, -1056,  -649,   -28,    -7,  -730,    -523,    30,    39,   -29,  -521,   108,   -74,  -303,      9,   -42,  -359,   -78,    35,   147,  -337,  -233, // 2528
      -727,    53,    48,     6,    38,   -26,  -216,  -196,      5,    64,   -39, -1020,     5,     8,   -20,   202,   -1236,     7,     4,    95,    26,    28,    95,    -6,    -32,  -176,   -21,  -365,   -26,   -92,     2,   -36, // 2560
      -480,    47,    40,  -379,  -445,  -741,    10,   -12,     88,    42,  -276,     4,  -148,  -817,  -104,   -13,     -47,  -147,    36,    83,  -265,    13,    45,  -225,      1,    69,  -113,  -214,  -855,    21,  -311,  -633, // 2592
    
    // Out channel 27
       -21,  -361,    33,  -227,    29,  -367,  -413,   113,   -151,    38,   -88,  -135,   -65,  -529, -1197,  -310,     -78,    44,   -36,  -203, -1693,    18,  -437,   199,     27,   -18,  -313,  -375,    47,  -279,   -62,   230, // 2624
      -430,   445,    -7, -1558,     6,  -888,   -95,   -78,     37,  -133,   -26,   -97,   -37, -1284,     0,   -69,   -1468,     3,   -35,  -174,    -9,   -16,  -363,    54,    -36, -2203,    -4,  1544,    17,   -56,    38,    40, // 2656
       -24,   -41,    -4,  -788,   116,   -64,    11,    30,   -415,    51,  -685,   -53,   264,   848,  -110,   -33,      25, -2084,   -14,   -41, -3427,  -193,   -30,  -212,   -594,  -650,   210,  -896,  -857,    45,   -57,  -353, // 2688
    
    // Out channel 28
      -140,   -50,    40,   -27,    23,   -15,     3,  -822,    -49,    39,  -547,     3,    51,   -55,  -284,  -274,    -553,   -25,   -41,  -492,  -806,   -48,  -549,  -236,     15,   -31,    45,    14,    26,   -34,   -33,    34, // 2720
        20,   -31,   -24,  -196,    35,  -311,     6,  -364,      8,  -293,  -340,    17,    19,  -225,   -16,  -796,     -54,    -9,    30,  -335,    25,    20,   -63,     9,    -77,  -589,   -14,    68,    -9,  -109,   -26,    -6, // 2752
        36,    34,    19,    42,   -89,    37,   -47,    44,   -160,   -33,   -45,   -14,    22,    39,  -663,   -12,     -44,  -423,    -9,  -100,    43,   -44,    12,    31,   -731,  -399,  -428,  -449,   115,   -21,   148,   -30, // 2784
    
    // Out channel 29
      -261,  -485,   -24,  -335,     4,    27,  -673,   119,   -467,    16, -1632, -1112,   148,    12,  -897,   606,    -157,    22,     8,  -539,    64,   -82,  -353,   134,     27,   -17,  -218,  -721,    46,  -432,  -276,  -279, // 2816
      -576,   106,    24,  -757,   -12, -1216,  -138,  -140,     10,  -132,   -31,  -999,   -31,  -878,    13,   434,    -106,    30,   -27,    19,    -9,   -42,   144,    36,   -297,   959,   -21, -1286,   840,  -229,    -7,    34, // 2848
      -147,    26,    14,    46,  -294,    31,    -1,    10,    142,    17,   179,   -16,   291,  -683,  -117,    -7,      10, -1923,    32,   -44,  -744,  -258,   -32,  -608,   -168,  -304,   -48,  -188,  -105,    -2,    67,  -207, // 2880
    
    // Out channel 30
       -99,   -96,   -43,  -592,    22, -1237,   -16,     7,  -2301,    14,  -100,  -637,    61,   -88,  -786,  -324,    -382,   -16,    11, -1946, -1738,     7,    10,  -769,     31,    33,    60,     1,    46,  -142,   -57,    -9, // 2912
      -146,   -43,    47, -1450,    40,   179,    20,   339,     -9, -1425,    41,  -283,    35,  -939,   -37, -2619,   -1964,    44,     8, -2261,    -3,    11,  -129,    37,   -271, -1565,     8,    21,     2,   183,   -18,   -14, // 2944
        30,    35,    40,  -915,  -378,    58,    45,   -42,    119,   -46, -2616,   -15,   231,   132, -1109,    13,      47, -2305,   -15,   207,     7,   -62,   -34,   520,  -2787,     1,  -173,    -5,    30,    28,   -50,  -227, // 2976
    
    // Out channel 31
     -1366,  -946,    17,  -491,    30,   -31,  -126,  -654,   -102,   -12,  -335,  -395,  -925,  -537,  -111,  -693,     -65,     4,    23,  -265,  -539,   -38,  -494, -1015,     21,     2, -1199,  -345,    27,    83,  -122,   533, // 3008
       389,   451,    22,   -28,   -44, -1973,   -67,   -39,     -5,  -565,    25,  -500,    22,   -52,    11,  -470,     -34,     8,    14,   561,   -46,    36,  -836,    -9,   -292,  -365,    35,  -997,    69,  -378,   -48,   -20, // 3040
       -80,    43,     0,   300,  -175,  -766,    -6,   -10,     47,   -17,    30,    10,  -513,  -778,  -673,   -25,      48,  -257,   -19,   180,  -538,  -225,   -54,  -525,     74,  -460,   -28,    89,  -425,    34,  -737,   -50, // 3072
    
    // Out channel 32
      -713,  -444,   -51,  -241,   -41,  -465,   -41,  -119,    152,     1,  -309,    67,    97,   111,    32, -1236,   -1849,    36,    44,    33,  -649,    64,  -290,  -361,     17,    17,  -362,   -73,    18,    11,  -505,  -407, // 3104
      -455,  -282,    11,     4,   -33,    69,  -117,  -167,     15,    96,    -6,   -19,   -30,    19,    43,  -142,    -960,    47,    14,   118,    30,     7,    -2,   -12,   -372,  -635,   -45, -1289,  -190,    75,   -30,     8, // 3136
      -351,    32,   -31,  -370,  -736,    56,   -24,    18,     55,    42,  -189,    70,    55,  -570,  -700,    -9,      15, -1022,    37,    28,  -332,   -39,     9,  -169,   -366,    16,   -99,  -314,  -332,   -11,  -959,  -610, // 3168
    
    // Out channel 33
      -613,  -977,   -44, -1985,    41,   -81,   -23,     9,    218,   -42,   -19,     6,    36,   141,   -31,   120,    -626,     4,    -1,    19,  -947,   108,  -559,  -123,    -38,     1,   -70,   -17,    47,   -13,  -382,    -4, // 3200
      -930,   -12,   -41,   -64,   -14,  -108,    35,   -49,     28,    38,    10,   -22,    13,   -35,   -33,  -223,     -26,    14,   -27,  -160,    12,   -20,   515,    -2,   -784,  -164,   -39,    -4,   -13,   -45,   -11,    -6, // 3232
        -7,    15,    42,   -20,  -980,    69,     2,   -14,     57,   -17,   -62,    36,    65,     5,  -825,     9,     -39,  -512,    46,    83,  -204,  -540,    -3,   -68,   -576,    -4,    31,   -81,  -143,     3,   -52, -1123, // 3264
    
    // Out channel 34
       290,   -51,   -11,  -266,    13,  -605,   -44,  -489,   -384,    40,   -28,  -383,  -214,   -58,  -279,  -112,    -211,   -28,    29,  -130,     5,    21, -1416,  -129,     -4,    39,   109,   -73,    11,    19,   -45,   -62, // 3296
        -3,   297,   -14,  -494,    34,   239,   238,  -413,     28,   -33,   251,    -4,   -22,  -302,   -13,  -128,    -574,    44,     6,  -262,   -42,     7,  1219,   -14,   -133,   -39,    -1,  -210,     2,  -805,     1,   -11, // 3328
        66,   -26,    13,  -203,  -123,  -165,   -35,   -15,    -92,    -7,  -543,    10,  -172,    -5,  -216,    31,     -19,  -106,    47,   -43,   -53,    -2,    45,   -13,   -536,   -23,   -19,     3,  -126,    27,  -247,    -8, // 3360
    
    // Out channel 35
       380,   -26,   -19,   160,   -18,    47,    47,   441,    304,     9,   -59,   -56,  -146,   290,   -57,  -289,     143,   -45,    16,    37,    67,   122,   -44,  -145,    -39,    22,  -380,    20,    41,  -468,  -152,   -52, // 3392
      -303,  -400,    44,   -34,     9,    37, -2051,   -94,      3,    72,    49,   -82,   -37,   -40,    20,  -513,      41,    32,    -2,  -441,     3,    46,   177,    23,   -435,  -185,    22,   216,  -349,   243,    -1,    27, // 3424
     -1701,    -4,   -19,    37,  -356,  -248,   -15,    19,    564,   -14,    52,   -51,  -209,  -194,  -575,    37,     -38,    -5,    19,   247,    27,     3,    -6,    70,     59,     9,   482,    13,  -246,    23,   -25,   106, // 3456
    
    // Out channel 36
       246,  -441,   -42,   -64,   -36,   -30,   -21,  -501,    -16,    24,   330,   -99,  -217,  -445,   -61,  -281,      -9,   -38,    -4,   483,  -267,     1,    97,  -864,    -22,    32,  -472,    -1,   -21,   294,   -72,  -395, // 3488
        19,  -102,   -17,   -89,    30,   -70, -1132,    10,     -1,  -167,  -114,   -69,     7,    50,   -44,  -146,     -33,    -8,   -13,   302,   -23,    26,  -544,   -13,     26,  -188,    10,   271,  -607,    21,    16,   -11, // 3520
     -1465,   -12,   -39,   -48,  -107,  -398,    30,    25,  -1181,   -41,   641,    10,  -312,   -95,   165,    27,     -17,    11,   -42,   133,    59,    40,    41,    80,    -41,   -46,   663,   160,  -119,    18,  -281,  -250, // 3552
    
    // Out channel 37
       157, -2164,    14,  -458,   -18,   -58, -2038,   356,   -301,    25, -1949, -1728,   134,    21,   -14,    21,    -115,    16,    42, -1047,   164,   -43,  -242,    31,    -30,   -43,    13, -2190,   -43, -1414,  -408,    53, // 3584
        60,   537,   -19,   -23,    14, -2363,    26,   -18,     -2,  -132,   -55, -1851,    30,    -3,   -33,    30,    -452,     3,    46,    14,    11,   -35,    28,   109,   -185,   799,    20,  -239,  -311,  -284,   -20,   -22, // 3616
       -24,    39,   -24,     9,   -54,    28,    10,     8,    138,   -12,  -359,   -16,   125,  -105,   103,   -20,      37,  2084,   -31,  -294,  -237, -2175,   -57,  -627,   -580,  -777,   -86,   -32,   626,   -42,   -38,  -852, // 3648
    
    // Out channel 38
      -863,  -257,    44,  -662,    13,    65, -1744,  -210,     59,    48,   -25,  -126,  -776, -1146,   -30,    92,      49,    55,    24,  -693,  -102,    -2,  -625, -1055,     11,     9,  -866, -1466,   -47,  -437,   -92,   -59, // 3680
        35,  -748,    24,  -308,   -21,  -328,   -84,    27,     19,  -754,  -930,  -209,     7,   -63,    26,    73,      -4,   -17,    43,   -87,   -34,   -35,  -707,   -33,   -716,  -505,   -10,   201, -1374,  -887,     2,    58, // 3712
       -70,    29,   -26,  -296,  -884,  -763,    26,    -6,   -515,   -20,  -245,    34, -1338,  -641,    -2,    44,      48,  -100,    11,  -335,  -170,  -126,    25,  -377,  -1683, -1443,   723,  -314,  -464,    44,   169,    -2, // 3744
    
    // Out channel 39
     -1041,  -471,   -42,   231,    36,     9,   -50,   -28,   -213,    44,  -380,   -20,    36,    29,   -46,  -438,    -179,   -23,    10,    -9,  -411,   -23,  -241,  -200,     24,   -27,  -189,   -23,    42,   -97,  -252,  -966, // 3776
      -106,  -311,   -12,     2,   -23,    -3,  -185,   118,     25,   -79,  -810,   -20,   -27,   -25,     8,   -98,      -7,     6,    22,   118,   -42,    22,    -8,    18,    -92,  -449,   -34,  -184,  -124,   203,     1,     9, // 3808
      -184,    -4,     4,   -59,  -115,   -13,     3,   -43,   -887,    24,    23,    14,     8,  -139,   -23,    34,      37,  -282,    20,  -245,  -843,    35,    -8,  -271,    -18,    21,  -424,  -483,   -13,   -30,  -398,  -548, // 3840
    
    // Out channel 40
       290,  -397,    20,    53,   -47,    16,    30,   210,    247,   -16,   247,   -73,  -121,   719,  -855,  -330,      80,    42,   -45,   -29,  -573,   155,   113,  -389,     28,    -7,  -320,    15,   -17,   220,  -296,    23, // 3872
      -232,  -481,   -32, -1052,    19,   -17, -2123,  -119,     19,   -70,   -54,  -113,   -49,  -875,    16,  -570,      17,    37,    11,  -861,    25,   -49,   249,    41,    -88,  -175,   -34,  -738,  -304,   159,    38,   -48, // 3904
     -1255,   -25,    18,    21,   -50,  -259,   -41,    13,     55,     5,    74,    11,   -94,  -125,  -328,   -10,      35,    35,    35,    45,    26,    -4,    -4,    48,     18,    34,   316,    -3,     7,    18,   113,   136, // 3936
    
    // Out channel 41
       683, -2356,    14,  -294,   -25,   -78, -1897,    69,   -332,   -32, -1062, -1132,   102,  -120,   -11,    95,    -181,    40,     2,  -657,   148,   -48,  -573,    19,     30,    44,   307, -1880,    11, -1644,  -337,     1, // 3968
        -8,    44,    -8,   -18,    -7,  -565,    20,   -30,    -62,    55,   188, -1390,    -5,     9,    43,   172,    -595,   -30,    17,    16,     3,   -27,  -270,    64,   -196,   793,    -4,  -717,    45,    29,    -7,   -27, // 4000
        -8,    21,     0,  -730,  -141,   323,    10,   -29,     35,    42,  -421,     5,    14,   170,   -69,    42,     -43,  1487,   -40,    85,  -421, -2302,    33,  -883,   -756,  -767,   -32,  -565,   311,    49,   -21,  -932, // 4032
    
    // Out channel 42
      -874,    -6,   -47,    14,    12,    -4,     4,    35,   -347,    19,  -179,  -205,  -525,  -871,  -135,   -84,       2,    44,    47, -1929,  -184,   -12,    -2,  -591,     11,    20, -1533,    -1,   -24,  -101, -1313, -3397, // 4064
       -27,    15,     5,  -354,   -22,  -391, -1760,    20,    -21,  -163,     1,    -7,   -21,  -180,    48,  -110,      13,    37,     8,  -155,   -20,   -33,  -483,     5,    -35,  -480,   -46,   -37,  -330,   -44,   -28,   -29, // 4096
     -1493,    34,     4,   -57,   -18,  -868,    18,     0,  -3483,     9,    -9,   -46,  -513,  -715,   -51,   -34,      -6,    10,    -2,  -312,    54,     4,     9,  -490,    -41, -1498, -1105,  -402,    59,   -25,   -17,    43, // 4128
    
    // Out channel 43
       -44,    -3,    44,  -246,    -5,    13,  -534,  -393,   -106,    -4,  -897,  -363,     0, -1694,    36,    -7,      -8,   -34,   -35,  -596,    13,   -39,  -472,    27,     35,    45, -1146,  -718,    50,    83,  -151,    30, // 4160
        21, -1367,    33,    26,   -33,  -218,    19,    -6,     11,   -71,   -23,  -254,    -5,    41,    10,  -140,      -3,    39,    13,   107,   -26,    -9,  -761,   -19,   -605,  -695,    16,  -823,  -502,  -101,    23,     6, // 4192
        14,     1,    39,   -11,  -452,   -39,   -15,   -37,   -951,     9,    70,     2,    11,    -4, -1297,   -29,     -42, -1546,     2,  -115,  -196,  2256,   -41,  -278,   -100, -1457,   112,   -77, -1061,     7,  -902,    11, // 4224
    
    // Out channel 44
      -751,  -166,     1,  -473,    -9,   -89,   -28,    53,    275,    32,  -236,    -5,    23,    -6,  -128, -1176,   -1829,   -31,   -36,    -6, -1143,   -79, -1309,  -425,    -24,    50,  -232,   -34,   -15,   121,  -100,    -2, // 4256
      -489,    17,    -9,  -153,     3, -1670,    68,   -89,      3,     2,    36,     1,     8,  -204,     7,  -192,    -119,    -8,    27,    23,    39,     0, -1284,    60,   -732,  -877,    46,   -75,    20,   141,    40,     0, // 4288
        60,   -39,   -52,   -54, -1126,     4,    15,    14,    214,    39,   -80,   -18,    74,  -551,  -950,    23,     -44, -2084,   -16,    38, -1009,  -120,    19,  -264,   -110,   -58,     6,  -133,  -651,    34,   -92,  -515, // 4320
    
    // Out channel 45
     -1145,  -444,    -2,    47,    13, -1500,  -179,  -526,    -32,    22,  -724, -1316,    37,  -122, -1034,   191,      93,    20,    34,  -854,   306,   -35, -1123,    -7,     28,   -17,   -37,  -176,    42,   -18,   147,   -15, // 4352
      -639,  -419,   -22,  -808,   -40,   -88,   110,  -830,    -38,  -805,   -87, -1199,    14, -1172,    38,  -791,   -1058,    24,   -13,  -371,    20,    -9,  -111,   -11,     89,   684,    13,  -343,   -44,  -120,    29,   -24, // 4384
       -28,   -30,    33,  -109,    22,    39,   -16,    18,  -1009,     2,    29,   -40,     5,     9,    89,    -6,      -7,   386,     3,  -149,    64,   -74,    25,  -215,   -302,  -261, -1276,  -756,   -73,   -22,   144,  -770, // 4416
    
    // Out channel 46
       216,  -445,   -37,   182,    36,  -295,  -895,    -4,      2,   -28,  -490,  -116,    35,  -222,  -653,     3,    -106,     6,     6,    33,    45,   -38,  -919,   -56,     -6,   -37,    58,  -835,   -22,  -421,  -111,   -22, // 4448
      -558,    16,    18,  -625,    -2, -2160,   332,  -435,    -40,   113,    61,  -252,     9,  -645,     0,    73,   -1917,    39,   -40,   -92,   -49,   -12,  -336,     1,    -84,   -40,    16,  -301,    -3,    37,    43,    13, // 4480
       -20,   -33,   -36,  -656,   -40,   -41,   -33,    33,     35,    -8, -2113,   -64,    35,   783,   -76,    18,      13, -1793,   -25,    54, -1398,  -385,   -28, -1286,   -514,  -299,   -33,  -653,   206,    -8,   -76,  -566, // 4512
    
    // Out channel 47
        96,   -99,     0,   -47,    45,   158,    -6,  -104,    196,     0,   -38,    66,    -1,   112,  -812,   451,      26,    34,    48,    14,  -390,    15,    34,   148,     -9,   -17,    88,    18,   -24,  -109,     1,   -15, // 4544
       -90,  -264,     7,  -754,   -30,  -110,   360,    47,     44,   -33,    26,    64,    25,  -921,     5,  -379,      19,   -35,    21,  -959,   -30,    13,  1015,    53,    275,  -678,    10,   224,    19,   154,   -34,   -17, // 4576
        34,    20,     5,     5,  -150,   -15,    -8,    26,    -96,     0,    40,   -19,   -63,   122,  -252,   -44,      37,   786,    -2,   140,    -2,     3,    41,    -5,    438,    44,    26,   -17,  -205,   -41,  -149,   250, // 4608
    
    // Out channel 48
      -209,  -408,    -2, -1578,   -31,  -595,  -129,   -41,    -31,   -31,   -87,  -157,    48,  -180,   -86,  -371,    -828,   -41,   -28,  -361, -1451,   -23, -1189,  -533,     21,   -35,    73,  -119,    11,    49,  -238,    19, // 4640
      -463,    80,    39,  -438,   -36,  -190,    27,  -311,    -32,  -328,    -9,   -75,   -34,   -97,    -1,  -831,    -602,     0,     8,  -584,     6,   -25,   613,    56,   -757, -1285,    11,   245,   -34,     2,     2,    42, // 4672
        96,    49,    10,  -142, -1216,    93,    39,    31,    -63,   -15,  -243,   -13,    27,    -5, -1684,    48,      26, -1589,    33,    24, -1788,  -296,   -34,  -338,   -747,  -121,   -23,  -430,   -94,    38,    77,  -628, // 4704
    
    // Out channel 49
        79,  -218,   -24,   117,    -3,   -34,    29,   -82,    169,   -24,   133,  -196,    77,   494,  -779,  -393,     176,   -50,    -2,   -40,  -568,   139,    78,  -333,      9,   -50,   -57,    38,   -42,   155,  -233,    52, // 4736
        -1,  -828,   -42,  -946,   -30,    77,  -730,   -87,    -35,  -105,  -116,  -157,   -44,  -831,    39,  -944,     -11,   -42,   -30,  -315,   -36,   -13,   252,   -20,   -277,  -217,    42,   741,   -98,    33,   -46,    16, // 4768
      -396,    25,   -15,     4,  -247,    94,    43,   -42,     98,    27,    60,   -15,   -25,   -57,  -628,   -38,     -49,     5,   -38,   -64,     8,   -43,   -24,    23,     35,    85,   485,    48,  -240,    23,  -109,    95, // 4800
    
    // Out channel 50
      -157,    44,   -41,    57,    -7,   -18,    11,  -399,    123,     2,   -88,   106,  -119, -1334,  -604,    79,     -13,     2,   -31,    57,   -37,   -52,    47,  -815,     32,    15,    23,     7,   -30,   147,   154,   637, // 4832
        10,    69,     8,  -436,     0,  -429,   -55,    44,     24,   253,  -936,    52,   -37,  -635,    11,   364,      -6,   -41,   -44,   113,    -2,   -36, -1870,    36,     87,   249,   -44,  -496,    -9,    43,     7,    20, // 4864
       -47,    -4,   -32, -1065,    25,   -85,    23,    44,    -50,     6,  -148,    -2,  -174,    84,   -51,    31,      19,  -429,   -48,  -751,     2,    20,   -20,    22,    -13,    14, -1010,   112,    28,   -46,    -7,    41, // 4896
    
    // Out channel 51
      -265,   -97,    31,   -23,     6,    30,    10,  -581,    -70,   -29,   162,  -293,    -8,  -629,  -886,  -302,     -33,   -13,    18,    13,  -322,   114,   -16,  -391,     23,    15,  -443,    -6,    44,  -120,  -108,   174, // 4928
       102,  -796,    41,  -813,    38,   425,   -40,  -123,     -6,   -72,    60,  -249,   -14,  -980,   -25,   -42,     124,    27,   -28,   415,    29,     3,   -26,    -2,    -75,   -64,    -4,   312,  -280, -1431,   -31,   -11, // 4960
         9,     7,     9,    35,  -173,    71,     5,    22,    232,    12,   -82,   -30,    64,  -605,  -343,   -39,      25,   135,    17,   -84,    22,    10,    30,   -71,      5,    67,   177,   188,  -250,    48,  -345,    45, // 4992
    
    // Out channel 52
       182,  -314,    14,    83,    -7,    19,    12,  -323,    211,    12,   -19,  -167,  -472,   158,  -588,  -253,     -12,   -23,   -44,   -24,  -554,   176,   -21,  -476,     -6,    40,  -660,    -1,    36, -1395,   -30,    33, // 5024
      -417,  -842,   -49, -1001,    25,   323,    25,  -293,    -40,   -62,   -53,  -150,     2,  -566,   -37,  -233,      23,    -7,     5,    12,   -24,   -12,    74,   -42,   -429,   -55,    12,   103,  -316,  -235,    47,    46, // 5056
        53,    -2,   -50,   -24,  -432,  -842,   -23,   -28,    495,    -4,   -20,    31,  -129,  -493,  -223,    31,     -38,   205,    26,   248,    39,    -7,   -32,   -38,     12,    22,    98,    43,  -440,   -37,  -558,  -583, // 5088
    
    // Out channel 53
      -567,     0,   -29, -1849,    -9,     8, -1637, -2127,    -46,   -22,  -331,  -423,   -45, -1209,    36,    29,     -62,   -23,    -2,  -302,     9,   -28,  -558,     5,    -32,    39,  -842, -1788,   -47,    19,  -153,    51, // 5120
        -4, -1173,    35,     1,    40,  -477,    16,    32,    -31,  -229,    32,  -354,    13,     5,    36, -1100,     -16,    -9,    14,  -398,   -45,    41,  -630,    32,   -537, -1527,    33,  -701,  -385, -1070,   -14,    40, // 5152
        28,    -2,    17,    -5,  -504,   -82,    -2,    62,   -924,   -12,    -1,     5,   -12,    69, -1239,     2,     -16, -1246,    11,  -369, -1228,  1671,   -45,  -217,    -38, -1029,    91,   -76,  -832,    37,   -80,    -6, // 5184
    
    // Out channel 54
       106, -1987,   -46,  -241,     0,    97,  -513,   264,   -172,   -49,   209,  -586,   -21,  -268,     5,   174,    -589,    12,   -25,   -84,    69,   -62,  -675,     8,     14,    21,   344,  -383,   -10, -1383,  -120,     3, // 5216
       130,   -85,    39,    24,   -35, -3195,    22,    56,     36,   230,    -7,  -549,     7,     6,    32,  -181,    -195,    29,    43,   544,     9,   -19,   -61,    10,    -96, -3497,   -24,   -56,   -19,  -761,    37,    41, // 5248
        30,    -4,   -33,  -888,  -134,    27,   -17,    26,    169,   -26,   -79,    -8,     7,    31, -3258,    26,      43,  1279,    32,  -547, -1654, -1847,     7,  -527,   -327,  -865,   145,   -29,    63,   -39,  -677,  -714, // 5280
    
    // Out channel 55
       213,  -229,    17,  -994,   -24,    52,  -172,   211,    -33,    33,  -255,  -205,  -840,  -940,    15,    95,      83,    25,    -3, -1089,  -526,     1,   -36,   -99,    -30,    -9,  -489,  -183,   -30,  -692,   -32,  -712, // 5312
        59,    50,    30,    46,    16,  -211, -1133,   100,      5, -1013,    61,  -276,    39,     2,   -11,  -913,      58,    10,   -11,  -332,    34,    46,  -354,   -16,   -155,  -379,   -18,  -151, -1135,    33,    21,   -40, // 5344
      -807,    33,   -25,    63,  -206,  -796,    18,   -23,    165,    30,    25,     7, -1300,  -882,  -648,    -8,     -40,  -122,     3, -2427,  -167,  -166,    -3,  -490,   -125,  -694, -1279,    92,  -468,   -42,    60,   -30, // 5376
    
    // Out channel 56
       413,  -762,   -18,    -7,   -41,   -26, -1136,    81,     21,    10,  -651,  -787,    86,  -314,  -170,   -61,    -115,   -31,   -11,    58,     3,   -20,  -636,   -65,     38,    16,    55, -1109,    38,  -785,   -72,   -28, // 5408
       -90,    89,    -9,   -90,    30, -1586,    41,   -49,     34,   -92,    53,  -833,     7,  -184,    -6,   101,     -60,    52,    30,    62,    44,    50,  -220,    42,    -67,   118,    41,  -692,   250,   -32,   -21,    53, // 5440
        -8,    48,    18,    -4,  -154,    21,    41,   -33,     24,   -31,   -29,   -21,    50,   177,   -80,     4,     -10, -1516,    10,    48,  -695,  -460,   -21,  -957,     53,   100,   -25,  -553,   -14,   -29,   -89, -1173, // 5472
    
    // Out channel 57
        -8,  -327,   -31, -2930,   -27,   -80,   -23, -1741,   -368,    -4,    20,     4,   -19,   -28,     2,  -716,   -1707,    23,    48,   -67,  -344,   -17, -1643,    94,     -8,   -18,   134,   -28,   -32,  -210,   -43,    63, // 5504
      -281,  -244,    41,   -43,     7,   -83,   167,  -428,     29,  -146,  -105,   -57,    46,    20,   -11,  -434,    -277,   -47,    11,  -814,    29,    23,    13,    44,   -462, -1902,   -13,  -178, -2050, -1820,    46,   -19, // 5536
        35,   -32,     0, -1008,  -589,   -40,   -12,   -38,  -2146,     9,   200,   -29,   -28,  -150,  -812,   -11,     -24,  -544,   -39, -1624,   -74,   562,   -37,  -661,  -1268,   -31,  -133,    18,  -219,   -33,  -489,  -876, // 5568
    
    // Out channel 58
     -1245,    84,   -22,    19,    29,    10,  -317,   192,   -540,   -41,  -270,  -253, -1369,  -196,     1,  -410,      44,   -34,    10,   -87,   112,    22,  -257,     4,     15,    24, -1481,  -186,    15,   -43,  -230, -3621, // 5600
      -290, -1043,    -8,     6,    27,  -192,  -701,   104,    -12, -2191,  -147,  -354,    31,    -2,    35,  -272,       9,    40,    24,   -68,    12,   -32,  -211,   -12,  -1405,  -591,    -7,   -44,  -563,   114,    -4,     7, // 5632
      -484,    24,    -7,    45, -1232, -1226,   -32,    -5,  -2958,     9,    78,    -4, -1938, -2004, -1467,   -41,     -29,   -65,   -22,  -643, -1245,    39,   -55,  -480,   -283,   -45, -3409, -1434,  -465,   -13,   -14,    11, // 5664
    
    // Out channel 59
       121, -2103,    -5,  -325,    45,   -38,  -576,   -25,   -335,   -39,  -162,  -716,    97,  -674,   -60,    23,     -78,   -45,   -11,  -556,    14,   -57,  -471,    15,    -47,    36,   316,  -649,   -13, -1495,  -365,    23, // 5696
       -52,   218,    30,   -39,    29,  -258,    -1,    26,      0,  -195,     9,  -726,     7,   -55,    16,   -20,     -48,   -31,    35,   -68,    13,   -27,   151,   113,   -297,   588,    -1,   454,    67,   -16,    21,    22, // 5728
       -36,    14,    16,   -30,  -203,    85,   -21,    37,     -6,   -47,  -358,    13,   110,   135,   -88,    -7,     -49,  1528,   -48,   -68, -1874, -2166,   -56,  -276,   -539, -1353,    70,  -386,   564,   -48,   -16,  -806, // 5760
    
    // Out channel 60
      -365,   -81,    19,    -7,    -9,   -54,   -32,  -433,     95,   -27,    91,   -74,   -40, -1338,    14,   147,      74,    16,   -24,   -39,   242,   -42,   -47,  -151,     33,   -44,   -72,    -1,    10,  -126,   311,  -170, // 5792
       324,   -19,    45,    12,    18,  -474,   -67,    97,    -38,   -22,  -336,   -29,   -11,  -337,     6,    52,     -79,    47,    38,   138,   -28,    22, -1239,    24,     54,   -91,    14,   214,   -17,  -111,    46,    39, // 5824
        -2,    41,    11,  -365,    23,    -4,    30,    17,    -74,   -16,  -157,   -29,  -102,   389,   -10,    16,      37,  -239,    39,  -347,   -45,  -239,    39,   543,    346,   -31,  -537,   -12,     0,    51,    17,   203, // 5856
    
    // Out channel 61
       437, -1014,   -23,  -682,    25, -1323,   -38, -1151,   -574,   -41,   131,   -27,    22,  -691,    18,   702,    -588,    -1,    46,   -96,   -62,   -60,  -939,   117,    -30,   -48,    59,   -39,    18,  -931,  -531,   350, // 5888
      -845,    70,    40,  -915,   -11,  -491,    77, -1859,    -46,  -281,   -51,   -11,   -36,   -14,   -42, -1056,    -595,   -13,   -35,  -315,    34,   -13,   204,    25,   -911,   635,   -47,   154, -1562, -1365,   -23,   -21, // 5920
       111,    -3,    22,  -607,  -800,    29,   -26,    27,  -2247,    41,  -915,   -39,    22,   473,  -694,    13,       5,  -774,     1, -2110,  -118,  -576,   -60, -1819,  -1060,  -354,  -493,  -398,  -453,    25,     0, -1063, // 5952
    
    // Out channel 62
       142, -2241,    -8,  -442,    29,   131,  -583,    86,   -333,   -49, -1431,  -873,   -16,  -133,    81,   439,    -185,     1,    20,  -279,   152,   -54,  -209,    14,    -27,     0,  -124,  -645,    34, -1746,  -261,    52, // 5984
        54,  -106,    24,    20,   -33,  -959,   -24,    38,      1,   654,    25,  -948,   -44,    70,    11,  -232,    -204,   -16,    -9,   645,    13,    -8,   220,    12,   -291,   977,   -36,  -532,   564,   -87,    -8,    19, // 6016
         9,   -35,    -7,  -797,   -16,    -8,    42,    11,    304,   -13,  -121,    14,    12,   153,    78,    49,      23,  1482,   -20,    -1,  -220, -2131,   -52,  -560,   -328,  -850,   251,  -258,   164,    -2,  -137,  -786, // 6048
    
    // Out channel 63
      -229,  -117,   -18,   447,     6,   -70,   -14,    76,    785,   -40,  -163,  -104,   -15,  -130,  -627, -1353,    -249,    12,    37,  -139,  -976,    -1,    67,  -271,    -50,    20,    88,    -5,   -20,   -49,    10,  -156, // 6080
       -37,    12,    29,  -408,   -14,   101,  -142,    -6,    -50,   -10,   -54,   383,   -29,  -757,    14,  -244,      40,   -16,    19,   404,   -37,     9,  -335,   -19,   -197, -1355,   -30,   961,    66,   211,    -3,    26, // 6112
       -50,   -43,    32,   -17,  -426,  -140,     2,    18,   1279,   -52,  -256,    21,  -166,   -71,  -208,    32,     -42, -3756,    11,     1,    48,  -261,    32,    73,    141,   -49,    58,   208,   889,    44,  -181,   316, // 6144
    
    
};

const int16_t cg_FC2bias[64] = { // Co,H,W,Ci: (64,)
       208, -1161,    46,   295,   447,  -514,  -459,  -407,    -70,     8,   898,  -527, -3176, -2011,   179, -2586,     370,   321, -4379,   748,  -506,   247, -4764, -4773,   -419,   737,   619,  -310,  -656, -1019, -1337,  -628, // 32
       920,   253, -4301, -1971, -1560,  -441,   312,   544,   -938,  -441,   538,   -44,   194,   162,   -56, -4176,     410,  -779, -1338,  -851,   -65,   148, -1346,   232,    343,   459,   463,     3, -3185,  -105, -2564, -2022, // 64
    
};

const int16_t cg_FC3weit[2048] = { // Co,H,W,Ci: (32, 64)
    // Out channel 0
      -258,   -28,  -791,   -17,   218,   -74,     8,   -76,     14,  -372, -1172,   -21,  -261,  -254,  -564,  -193,    -336,   -27,  -515,   -94,  -324,    -7,  -482,  -403,    -90,  -239,   -55,   -58,   366,    95,  -118,  -538, // 32
      -143,   -94,  -502,  -437,    46,  -449,   -39, -1124,    -29,  -190,  -932,  -297,   654,    78,  -354,  -644,     -93,   173,   -65,    67,   -86,  -746,  -856,  -155,    -69,    15,  -738,  -207,  -100, -1366, -1027,  -138, // 64
    
    // Out channel 1
      -135, -1108,     5,   -21,   128,    32,    -6,    35,  -1142,  -839,  -451,    41,  -123,   -36,  -305,  -242,     -16,   -69,  -443,   132,  -218,   -27,  -695,  -245,   -318,  -609, -1786,   -75,   -71,  -726,  -299,  -242, // 96
     -2271,  -401,  -215, -1275,  -101,  -222,    86,   -81,   -619,  -141,   426,   -33,  -744,  -218,  -448,  -557,    -197,  -453,   -37,   123,    92,     7,  -106,  -829,   -693,   -55,   114,  -948,   -56,    74,    -3,  -675, // 128
    
    // Out channel 2
       -53,  -706,   -12,  -354,  -320,    15,    -2,  -212,   -485,  -100,  -450,    51,  -256,   -66, -1889,    88,     -25,  -516,  -264,    79,  -151,  -279,  -281,   -94,    -84,  -844, -1041,    -8,   -84,   -24,  -219,   -40, // 160
      -815, -1401,   -99,   -98,   -58,   -93,  -265,   -37,   -298,   -59,  -154,   -88,  -758,    81,  -291,   -20,   -1051,  -316,  -314,  -508,  -467,   -51,   -44,  -395,   -689,   -11,  -156,  -243,  -249,   -70,   -46,   -48, // 192
    
    // Out channel 3
        47,   139,     0,  -808,  -107,    52,    21, -1147,    135,   -23,  -246,   -48,   198,   250,    77,   220,      32, -1004,   385,   -41,  -123, -1028, -1278,  -878,   -156,  -202,  -632,  -298,  -760,  -194,    28,     5, // 224
      -521,  -354,  -174, -1550,   250,  -187,   161,  -173,  -1655,  -379,  -122,   -13,  -721,   149,  -498,   331,    -484, -1842,     5, -1128, -1593,   -26,  -526,   131,   -401,   244,   -27,  -268,   106,   -94,  -225,    64, // 256
    
    // Out channel 4
       -76,   -81,  -253,  -349,    17,    15,   -23,  -321,  -1109,  -543,   -83,    46,  -243,   -84,  -164,   -26,     -35,  -482,   -26,   -32,   -98,  -383,    -6,   -26,   -273,  -315,  -403,  -109,   214,    20,   135,    -5, // 288
      -171,  -444,    45,  -257,    14,   -85,  -128,   -25,   -200,  -254,   -10,  -127,  -491,   -21,  -278,    51,    -136,  -219,  -177,  -159,  -282,   -36,  -179,   -36,   -589,    44,    26,  -336,    57,    65,  -227,   -10, // 320
    
    // Out channel 5
       269,  -704,  -885, -1868,   275,  -108,    16,  -159,     31,   -12,    97,   -35,    85,   211, -1052,  -251,    -528,  -957,   -77,   173,   -95, -1422,  -983,  -398,      4,   -25,    -9,  -169,  -189,  -207,   -74,  -899, // 352
       -55, -1316,  -138,  -780,   198,  -194,  -687,    31,   -442,  -132,    62,  -744,  -251, -1134, -1191,    84,   -1630,  -698,  -819,  -216,  -361, -1049,  -112,   -71,   -145, -1190,   591,  -431,  -600,  -123,  -129,     5, // 384
    
    // Out channel 6
      -329,   134,  -507,   -98,    99,   -29,    27,   -15,   -754,  -364,  -151,   -25,  -339,  -259, -1052,  -414,    -613,   112,   175,    29,  -399,   121,   153,  -253,   -216,  -176,  -275,  -478,  -330,  -605,     0,   118, // 416
      -226,  -209,  -395,  -831,  -254,  -814,   163,  -274,   -526,  -367,   251,  -612,  -718,  -633,  -578,  -390,     -19,  -505,  -226,   -56,   -20, -1095,   308,  -348,   -437,   613,  -234,  -258,  -341,  -341,  -474,  -374, // 448
    
    // Out channel 7
        17,    12,  -105,     3,  -169,    20,   -47,   -49,     36,   -50,   -70,   -42,    94,    70,   -37,   -35,      68,   -58,   132,     2,  -128,   -29,  -171,  -224,    -95,  -110,   -99,   -46,    11,   -14,   -26,   -37, // 480
       -98,   -60,    24,  -178,    19,    35,   -55,    28,   -150,  -103,    -5,    83,   -40,    20,   -31,    95,    -178,  -185,    18,  -177,   -65,   -68,  -120,    13,     52,    28,    -1,   -69,    70,    56,   -21,    -2, // 512
    
    // Out channel 8
      -175,  -491,   -72,  -131,   253,  -138,   -38,  -369,  -1168,  -386,  -186,   -66,  -249,  -800,  -325,  -205,    -288,  -244,  -235,  -503,    -9,  -118,  -137,  -107,    -97,  -319,  -314,  -179,  -532,  -327,   -34,  -533, // 544
      -108,     6,  -553,  -548,    66,  -191,  -631,   -42,   -353,   -96,  -518,   -18,   -44,  -192,  -183,  -573,     637,  -511,    31,   -99,  -373,  -506,  -863,  -139,    -88,  -429,  -447,   -64,  -551,  -812,  -714,   -47, // 576
    
    // Out channel 9
     -2998,  -230, -2441,   -60, -1473,  -275,   -21,  -106,   -432, -1235,   -77,    13, -1717,  -456, -2346,  -536,    -286,   -97,  -993,  -193,   -20,   -77,  -387,  -408,   -281,  -495,  -819,  -554,  -229,  -452,  -327,  -103, // 608
      -515,  -329,  -315,  -310,  -606,   -55,  -303,   -55,   -689,   -38,  -158, -2991,  -472, -1180,  -317, -1358,    -133,  -804,  -380,   -41,    -2, -2176,  -225,  -218,   -784,   -15,  -206,   -31, -2399,   172,  -127,  -658, // 640
    
    // Out channel 10
       -48,   -89,   -90, -1023,  -644,   -32,     6, -1509,  -4340,   -33,  -957,   -53,    -1,   -74,   -98,    20,     -64, -1728,     0,  -824,  -255, -1016,  -206,  -148,   -131, -2451, -2262,   -51,  -253,   153,   -82,  -117, // 672
     -2261, -3130,     7,  -315,   -46,   -62,  -609, -1304,   -377,  -202, -1455,   -66, -2791,  -138,  -893,   -79,   -2161,  -553,  -137, -1368, -1555,   -84,  -249,  -754,   -552,  -163,  -201,   -97,  -135,  -466,  -162,  -105, // 704
    
    // Out channel 11
      -186,  -385,   148,  -637,   -54,   -37,    36,  -940,  -4806,   -85, -1001,    36,  -426,   122,  -580,    10,      57, -1505,   301,   260, -1222,  -501,  -242,   -25,   -690, -1864, -1300,  -743,   -51,  -774,  -419,   -39, // 736
     -2142,   145,    74,  -761,     2,  -271,  -685,    36,   -581,  -642, -1979,  -680,  -123,   -40,  -947,  -359,    -280,  -729,  -445, -1261,  -974,  -751,  -146,  -448,   -759, -1030,  -816, -1309,  -338, -1051,   -14,     8, // 768
    
    // Out channel 12
      -723,    47,  -140,    55,   155,  -163,    46,  -265,   -164,  -241,  -111,    17,  -398,  -469,   -95,  -229,    -989,  -443,  -145,  -463,  -237,   282,  -173,  -201,   -132,  -122,  -574,  -295,  -384,  -615,  -175,  -200, // 800
       -94,    56,  -141,  -111,    21,  -288,  -330,   200,   -214,  -170, -1053,  -282,    79,   228,  -101,  -453,     -88,  -276,    55,    88,  -179,  -141, -1503,  -244,    668,   312,  -707,  -112,  -212,  -334, -1037,   -12, // 832
    
    // Out channel 13
     -1146, -1432,  -676, -1440,   518,  -103,   -40,   -24,    513,   -71,   -59,   -24,  -636,  -559,  -608,   223,      58, -1246,   -85,   720,  -103,  -957,  -598,  -138,    -85,   -62,  -152,  -191,   -11,   -99,  -457,    19, // 864
      -233,  -265,    20,  -533,   114,  -148,  -403,   477,   -589,  -138,   344,  -565,   108,  -824,  -538,  -704,   -1455,  -775,  -763,  -734,  -700,  -421,  -215,  -179,     90, -1117,  -456,  -208,  -861,   -89,  -290,    53, // 896
    
    // Out channel 14
      -842,  -618, -1825,  -545,  -271,  -359,   -64,  -715,    -29,  -438,  -185,   -22,   -75,  -391, -2627,  -190,     -88,  -677,  -234,  -202,   -41,  -711,  -229,  -334,    -72,  -132,  -438,  -236,   245,  -181,  -298,  -281, // 928
      -383,  -257,    19,  -695,  -258,   -67,  -959,  -117,   -396,   -36,  -128,  -706,  -462,  -140,  -376,   -40,    -362, -1000,  -656,  -703, -1266, -2624,  -408,  -287,   -305,   226,   -82,   -50,  -420,   -88,  -220,  -220, // 960
    
    // Out channel 15
     -2792,  -470, -2606,   -98,  -226,  -367,    -9,   -38,     13,    -1,  -772,    -3,  -581,  -219, -2386, -1883,    -769,   -26, -2078,  -249,    -7,   -95,  -732,  -538,    -14,  -276,  -247,    28,   582,    -1,   -62,  -652, // 992
      -218,     9,  -841,   -97,    37,   -54,  -205,  -155,    -22,   -40,  -162, -2732, -1352,  -865,  -438, -2140,     -24,    -9,  -519,     6,     8, -2440,  -273,  -331,  -1318,    84,  -726,   -48,  -344,  -317,  -189,  -155, // 1024
    
    // Out channel 16
       -76,  -730,   -17,   185,   476,    13,    46,    16,     22,   -26,  -222,    30,   224,   348,   -41,   -40,    -160,   244,   116,    12,  -106,   127,    21,   -25,   -221,   -38,  -137,   140,   126,   -55,   -75,    15, // 1056
      -313,   125,   541,    49,    73,  -176,    74,    23,     11,    19,   -91,   -88,  -581,  -282,   -86,    44,     138,    44,  -888,    -4,   -40,   -58,    67,    35,    -57,   191,   -15,   -64,  -762,    84,   -60,    22, // 1088
    
    // Out channel 17
      -192,  -236,  -103,   -80,   200,    37,    -7,  -135,   -194,  -546,   -53,    16,  -353, -1255,  -269,   -20,    -116,   -84,  -535,   106,  -200,   -79,  -412,  -824,   -503,   -50,  -152,  -186,    68,  -402,  -418,  -114, // 1120
       -74,   -33,  -176,  -877,  -323,  -372,  -369,  -203,   -886,  -610,    99,  -185,    20,   252,  -160,   -81,     -39, -1430,  -212,  -110,   -59,  -187,  -344,  -156,     56,  -156,    31,  -236, -1680,  -557,  -956,  -281, // 1152
    
    // Out channel 18
      -335, -1054,  -749, -1340,    15,  -380,    31,    -8,     17,     6,  -416,     6,   -67,  -118,  -745,    12,    -134, -1505,   -36,    37,    -4, -1582,     2,     2,     -1,  -199,  -843,   -36, -2266,    -7,  -171,  -498, // 1184
      -680,   -41,  -188,   -12,   -23,     1, -1195,  -282,     -3,     3,  -206,  -494, -1017,     6,    -3,   -16,    -544,     0, -1244,     4,    13, -1211,    -2,  -118,     -8,   -28,    27,     0,  -904,     0,     4,     2, // 1216
    
    // Out channel 19
       -35,  -103,   -69,  -120,   -85,    25,   -27,   -66,   -339,   -39,   -37,    18,    16,  -208,  -103,    -7,       1,  -131,     2,   -27,   -67,   -64,   -34,   -41,    -12,   -21,   -60,   -87,   -30,   -78,   -13,    10, // 1248
       -12,  -194,  -167,    87,    27,     0,   -40,   -58,    -49,     9,   136,   -24,  -146,    23,   -64,   -32,     -66,  -110,   -92,  -246,  -322,   -80,   -39,    29,    -91,   -10,   -49,   -23,  -160,    -8,     0,  -103, // 1280
    
    // Out channel 20
      -328,    49,  -583,   -53,   -22,   -90,    59,   -26,  -1098,    15,  -525,    45,  -166,  -283,  -614,  -142,    -546,   -30,  -266,  -975,  -208,   -30,  -248,   -14,   -429,  -282,  -223,   -15,  -542,  -126,  -197,   121, // 1312
       -45,    33,   -46,  -304,   -63,    27,  -535,  -522,   -230,  -180, -1311,  -841,  -114,    -6,  -187,  -381,     -21,  -308,  -119,  -330,    46,  -834, -1233,  -525,    623,   434,  -894,  -389,  -304,  -261,  -879,    16, // 1344
    
    // Out channel 21
       106,   160,   175,    -9,  -141,     3,    44,   -15,    -18,     8,    30,    42,  -280,   -53,   235,  -823,      77,    14,  -761,   -22,   -93,   -18, -1373,  -984,   -108,    35,    63,   -81,  -253,  -105,   -13,   198, // 1376
        38,    -2, -1169,   -47,   -21,  -162,   216,   158,    -23,   -79,   -33,   239,   -33,  -313,   -14,  -620,     -18,    -8,   414,    -6,     1,   260,  -883,    80,    -13,     8,    25,   -67,   325,  -112,  -546,   -82, // 1408
    
    // Out channel 22
      -745,  -690,  -583,  -725,  -482,  -102,    28,  -243,    261,   102,  -624,    37,    48,   -34,  -908,   -86,    -813,  -740,    79,  -227,  -885,  -343,  -639,  -197,    128,  -278,  -537,   170,   631,  -287,  -225,  -423, // 1440
       -73,    58,   337,  -501,  -360,  -912,  -330,    21,   -531,  -968,  -145,   262,  -340,    47,  -141,  -962,    -213,  -661, -1533,  -674,  -839,  -564,  -552,  -398,   -550,    96,   357,  -148, -1132,   136,  -783,  -319, // 1472
    
    // Out channel 23
       -30,   -12,   -32,  -685,    39,   -93,    38,  -177,    -18,    37,   -20,     6,  -215,  -671,   -77,   198,     -75,  -314,    99,   -95,   -30,  -502,  -251,  -246,    -12,   -99,   -46,   -17,    34,   -16,  -266,     7, // 1504
       -86,  -368,   151,  -342,   121,    10,  -149,   -28,   -361,   -70,    47,    79,  -399,   -40,  -187,   -95,    -581,  -305,   -24,  -259,  -199,    -4,  -107,   -81,   -189,  -168,   273,   -70,    23,    64,   -55,   -35, // 1536
    
    // Out channel 24
        24,   -58,  -135,  -246,   133,    23,   -41,  -311,     11,   -14,   -30,    45,   124,    42,  -162,   255,      -1,  -208,   299,  -194,   -82,  -232,  -633,  -403,    -39,   -76,  -129,   -40,   -77,    -1,    10,   -48, // 1568
       -68,  -274,  -115,  -964,    31,   -88,   -40,   -84,  -1118,  -106,   283,  -232,  -332,    45,  -107,   253,    -226,  -997,  -156,  -359,  -516,  -150,   -48,  -229,   -331,  -167,    31,  -122,   -93,   -51,   -73,    35, // 1600
    
    // Out channel 25
       145,   289,   139,  -420,    26,    68,    36, -1882,    155,   -13,  -496,   -18,   127,   359,   290,     7,     119, -1014,   221,  -111,  -269, -1245, -1006,  -871,   -372,  -526,  -190,  -206,  -820,  -372,   -42,   165, // 1632
      -786,  -134,     2, -1100,   253,  -334,   409,   -93,   -930,  -479,  -210,   184,  -394,   267,  -296,    87,    -256, -1284,   340, -1632,  -931,   182, -1118,   222,   -339,   223,   -21,  -226,   417,  -332,  -613,    13, // 1664
    
    // Out channel 26
       -83,   -10,  -756,  -744,   330,   -55,    10,  -437,  -3172,  -116, -2482,    -9,  -566,  -188,   -38,   146,      21, -1129,  -149,   206,  -876,  -588,  -193,   -74,     -2, -2343, -1741,    30,   -57,   -55,  -363,   -35, // 1696
     -2263, -2631,   -80,  -783,   -45,  -591, -1442,   -91,   -453,  -407,   -61, -2280, -2135,  -916,  -647,  -395,   -1388,  -546,  -170,  -729,  -455,   -96,   -91,   -64,   -604, -1054,   -45, -1256,   -50,  -556,   -26,   -36, // 1728
    
    // Out channel 27
        45,    95,    93, -1165,  -371,   104,    68, -1097,     84,    51,  -372,    12,   -12,   142,   122,  -767,     -12, -1615,  -317,   -26,  -712, -1453, -1799, -1483,   -217,  -380,  -881,   -62,  -883,  -377,     2,   135, // 1760
      -805,   221,  -347, -2297,   155, -1017,   488,  -218,  -1053, -1089,   140,    85,   -54,  -395,   -10,  -201,    -172, -1145,   126, -1775,  -877,   173, -1680,   129,   -512,   225,    42,  -518,   199,  -418, -1265,     0, // 1792
    
    // Out channel 28
      -205,  -208,  -171,   -98,    83,  -128,   -19,     2,   -386,  -209,  -346,    40,   -81,  -293,  -111,  -179,     -35,  -276,   -71,   -58,   -26,   -77,   -90,   -49,    -86,  -318,  -398,   -60,   188,   -12,    30,   -77, // 1824
      -315,  -132,    87,   -62,    19,  -113,  -134,    -2,   -186,   -80,   -45,   -83,   -35,   -18,   -85,   -36,     -45,   -30,   -56,   -29,   -39,  -101,   -60,   -52,    -20,    32,  -300,   -38,  -229,  -170,   -29,    -6, // 1856
    
    // Out channel 29
      -560,  -101, -1575,   -69,   539,  -333,     4,  -199,   -211,  -625,  -160,    25,  -940,  -881,  -950, -1020,   -1543,  -157, -1080,  -344,  -245,  -125,  -382,  -510,   -302,   -86,  -230,  -213,  -682,  -251,  -163,  -839, // 1888
      -125,  -138,  -290,  -127, -1199,  -435,  -304,    22,   -427,  -269,  -159, -1777,    -2,   -82,   494, -1697,     -17,   -28,  -147,   -74,  -255, -1205, -1865,  -817,   -115,    39, -1371,  -220, -1045,  -567, -1205,  -240, // 1920
    
    // Out channel 30
      -937,  -333,  -561,   127,  -301,  -324,    40,     1,     25,    -6,  -445,   -16,   118,   226,  -262,   -11,    -782,   140,    72, -1124,   -50,    82,    -3,     2,    -42,  -458,    80,    97,  -413,  -176,    -3,  -428, // 1952
       -22,    90,   307,    25,    30,   -61,  -210, -1268,     -1,   -21,   245,    55,  -356,  -190,    -8,    27,      66,    14,  -436,    -4,   -14,  -566,    59,   197,    -64,   -23, -1054,     4,  -335,   -55,   -27,     2, // 1984
    
    // Out channel 31
       -52,   -60,   -42, -1092,   285,   -51,   -20, -1112,     15,    49,  -362,   -45,   204,   134,   -42,   411,     -68, -1320,   551,  -230,  -340, -1295,  -962,  -685,    -93,  -630, -1325,  -349,  -449,   -77,   -65,   -36, // 2016
      -794,  -687,  -118, -1485,   -18,  -249,  -294,  -116,  -1448,  -301,  -484,   -55, -1317,   221,  -878,   291,   -1497, -1739,   -97, -1600, -1758,   -56,  -184,  -209,  -1153,   -49,  -115,  -832,   -49,  -206,   -64,    21, // 2048
    
    
};

const int16_t cg_FC3bias[32] = { // Co,H,W,Ci: (32,)
      -439,   157,  -286,  1327, -1053,   -97,  -533, -1528,    -39,   494,   569,   180,  -708, -1027,   966,   618,   -4265,  1235,  1383,  -531,  -236,  1961,  -176, -1112,   -989, -1248,   172,  -584,  -556,   253,   -84,   902, // 32
    
};

const int16_t cg_FC4weit[32] = { // Co,H,W,Ci: (1, 32)
    // Out channel 0
      -144,   224,  -731,   888,  -783,    166,   -63,   190,  -172,  -421,     518,   108,  -166,   104,  -775,   -289,    89,   395,  -184,  5146, // 20
       -98,   699,   185,  -225, -1573,   -652,    98,  -187,   580,  -187,    -112,   496,
    
};

const int16_t cg_FC4bias[1] = { // Co,H,W,Ci: (1,)
     -7232,
};

