#include <stdint.h>
const int16_t cg_FC1weit[768] = { // Co,H,W,Ci: (96, 8)
    // Out channel 0
       663,  -441,  -805,   508,  -138,   165,   746,  -764, 
    // Out channel 1
       -89,  -101,   -45,   101,    44,   -28,   -53,    -1, 
    // Out channel 2
      -464, -3061,   755,    64,  -423,  -898, -2723,  1079, 
    // Out channel 3
      -219, -1894,   470,  -225,  -528, -1127,   555,  1428, 
    // Out channel 4
       -20,    14,   -15,    35,   -36,   -32,   -28,  -111, 
    // Out channel 5
       622,  -668,  -948,  -206,  -247,   164,    53,   304, 
    // Out channel 6
      -850,   706,   322,  -254,  1131,  -112,  -769,   -75, 
    // Out channel 7
       233,   454,   246,   933,   322,   195,  -623,  -290, 
    // Out channel 8
       613,  -496, -1898,   776,   656,   855, -2204, -1217, 
    // Out channel 9
      -739,   396,   647,   493,   438,   751,  -328,  -666, 
    // Out channel 10
      -651,  -735,  1023,  -398,  -335,  1277,  -478,  -242, 
    // Out channel 11
       -35,    45,    13,  -109,   -74,    29,  -122,    31, 
    // Out channel 12
     -1162, -5421,   246,  1332,   443, -1243,  -121,   710, 
    // Out channel 13
       386,  -658,  -517,   637,    94,   976, -3041, -1770, 
    // Out channel 14
        10,   -36,   -26,   -19,   -47,     5,   -11,  -109, 
    // Out channel 15
      -683, -1894,  -108,  1258,   242,  -494,  1322,  -131, 
    // Out channel 16
       308,  -172,  -163,  -293,   470,   852,  -103,  -761, 
    // Out channel 17
       -20,   -43,  -126,     8,    23,   -58,   -30,    74, 
    // Out channel 18
        90,  -882,   299,  -544, -1283,  -696,   548,  1202, 
    // Out channel 19
     -1026,  1275,   579,   -85,  1425,  -441, -1950,   -65, 
    // Out channel 20
      -436,  -694,   776,  -150,  -533,   180,  -271,   598, 
    // Out channel 21
       -71,    25,   -49,   112,    56,   -75,    -4,   -77, 
    // Out channel 22
         3,  -128,   -90,   -29,   -13,    11,  -119,    21, 
    // Out channel 23
      -424,    11,  1125,   521,   154,    19,  -942,   -91, 
    // Out channel 24
        25,   308,  -281,  -720,  -331,   204,  -284,   270, 
    // Out channel 25
      -273,   -95,  -204,   -63,   401,   342,  -768,  -248, 
    // Out channel 26
        26,   197,   -46,  -459,   342,   444,  -953,  -405, 
    // Out channel 27
      -224, -1019,   815,  -430,  -390,   551,  -358,   698, 
    // Out channel 28
        42,   -91,     4,  -115,     3,    10,    68,   -24, 
    // Out channel 29
     -1917, -2469,  2559, -1367,    53, -1076,  -609,   716, 
    // Out channel 30
     -1290, -2035,   436,   998,   569, -1155,   705,   335, 
    // Out channel 31
       104,  -339,   296,  -196, -1779,  -708,   473,   972, 
    // Out channel 32
       736,  1272, -1119,  -114,   522,  -191, -2060,  -107, 
    // Out channel 33
      -106,     7,   -83,   116,   -82,   -39,   -24,  -117, 
    // Out channel 34
       233,   609,  -181,  -681,   232,   109,  -963,   464, 
    // Out channel 35
       168,   147,   -16,  1154,   571,   205,    78,  -768, 
    // Out channel 36
       408,  1243, -1107,   -36,   324,  -363, -1656,   132, 
    // Out channel 37
       238,    -7,  -675,   525,  -439,  -542,   585,   -20, 
    // Out channel 38
        32,  -242,    78,   120,  -206,   -53,    -1,  -154, 
    // Out channel 39
       398,    33,   362,  -116, -1231,   618,  -723,   576, 
    // Out channel 40
      -271,   208,  -492,  -400,   423,   704,  -769,   496, 
    // Out channel 41
      -745,  1443,  -510,  -525,  -184,  -218,  -571,   521, 
    // Out channel 42
      -604,   736,   557,  1015,   361,   566,  -670,  -591, 
    // Out channel 43
      -136,    49,    16,   -97,     4,  -139,    59,    48, 
    // Out channel 44
      -397,  -325,  -323,   424,  1086,   466,   109,  -308, 
    // Out channel 45
       -87,    88,    88,  -142,   -53,  -147,    64,  -134, 
    // Out channel 46
      1437, -1383, -2427,   834,   265,   376,  -776,  -664, 
    // Out channel 47
        53,   -44,  -109,   -74,    45,   -52,   -31,  -109, 
    // Out channel 48
       -70,   677,   148,  -599,  -899,   178,   194,  -145, 
    // Out channel 49
       322, -2116,  -335,   810,   414,   424, -1502, -1098, 
    // Out channel 50
      -396, -2789,   812,  -193,  -129,   155, -4327,   524, 
    // Out channel 51
       674,   102,   -69,   368, -1168,   290,   228,   181, 
    // Out channel 52
       -98,   -65,  -171,   -33,    89,   153,  -114,  -118, 
    // Out channel 53
       188, -1205,  -791,   753,  -289,  -649,  1550,   217, 
    // Out channel 54
       -85,   -41,    74,    -6,    24,   -63,    13,   -49, 
    // Out channel 55
       981,   101, -2020,   574,   510,    17, -1787,  -286, 
    // Out channel 56
     -1367, -6085,   660,  1048,   119, -1276,  -595,   720, 
    // Out channel 57
      -402, -2946,    88,  1173,   476,  -310,   302,  -805, 
    // Out channel 58
        -1,    61,  -117,   114,   -51,   -28,     4,    69, 
    // Out channel 59
       -65,     8,   -63,    80,  -119,   -10,   -73,   -90, 
    // Out channel 60
       708,  -606,   337,   305,  -843,  -383,   407,   343, 
    // Out channel 61
       638,   514,  -483,  -308,   292,   707, -1878,  -664, 
    // Out channel 62
       -35,   100,     6,   -17,   -48,   -94,   -83,   -12, 
    // Out channel 63
       755,  1452, -1038,  -316,   445,   199, -2380,  -330, 
    // Out channel 64
      -203,  -519,   609,  -586, -1608, -1348,   564,  1076, 
    // Out channel 65
       520,   285,  -259,  -480,   319,   872, -1485,  -781, 
    // Out channel 66
         8,   -18,   -45,   -67,   100,    11,  -110,   -93, 
    // Out channel 67
       703,   486,  -572,  -400,   323,   650, -1949,  -589, 
    // Out channel 68
       -96,   -66,    74,   -70,    56,   -30,  -107,  -105, 
    // Out channel 69
       -48, -1203,   233,    22,   128,  -847,   916,  -302, 
    // Out channel 70
     -1008,  -639,   264,   774,  1180,   347,   965,  -463, 
    // Out channel 71
       693, -2154,  -703,  -173,   610,   831,   234,  -821, 
    // Out channel 72
       874, -1689, -1362,   552,   963,   427, -4131,  -566, 
    // Out channel 73
       202,   140,   118,  -291,   -80,  1013,  -667,  -606, 
    // Out channel 74
      -779, -1772,   -84,  1279,   192,  -862,  1314,   174, 
    // Out channel 75
       -93,     3,   -84,   -66,   -57,   -97,    12,    13, 
    // Out channel 76
      -110,    98,   -76,    55,   -91,  -122,    81,    27, 
    // Out channel 77
       -54,   298,  -165, -1097,   -78,   321,  -224,   611, 
    // Out channel 78
       -15,   -74,   -86,    49,   -16,   -98,    27,   -40, 
    // Out channel 79
        44,   -30,  -114,     2,   -35,    89,  -102,   -93, 
    // Out channel 80
      -703,   184,   645,   295,   743,   833,    89,  -512, 
    // Out channel 81
      -617,  -534,   426,   186,   771,   425,   728,  -354, 
    // Out channel 82
       378,  -788,   569,   513,  -236,   102,   426,   149, 
    // Out channel 83
     -1456, -2745,  1112,   118,   298,  -323,  -911,   370, 
    // Out channel 84
       -25,    32,   -81,  -119,    88,    80,   -32,  -114, 
    // Out channel 85
        11,   133,   442,   142,   565,   589,   203,  -116, 
    // Out channel 86
     -1945, -1178,  1163,  -413,   696,  -499,   389,   412, 
    // Out channel 87
      -548,  -500,   754,   -56,  -363,  -104,    35,   532, 
    // Out channel 88
       -18, -1398,  -256,   -60,   236,   837,   785,  -403, 
    // Out channel 89
     -1749, -3050,  1546,  -219,   786,  -867, -3400,   455, 
    // Out channel 90
      -592, -1447,  1174,  -261,  -112,   -61, -2052,   732, 
    // Out channel 91
       104,  -566,  -748,   111,  -579,   423,   355,  -460, 
    // Out channel 92
      -397,  -142,   568,   432,  -126,    90,  -329,  -581, 
    // Out channel 93
         8,    89,    13,    20,  -161,   -89,   -67,    -9, 
    // Out channel 94
      -132,     5,  -132,   -45,   -65,    63,    68,   -29, 
    // Out channel 95
      -498,    96,   707,  -394,   623,   372,  -348,   234, 
    
};

const int16_t cg_FC1bias[96] = { // Co,H,W,Ci: (96,)
       274,   -71,   173,    71,     0,   107,  -146, -5512,    272, -2233, -1328,  -114, -1099,   126,     0,   107,    -602,  -273,     0,  -703,  -863,     0,  -168, -4512,   1095, -1478,  -595, -2515,  -179,   147,     7,    30, // 32
        15,     0,  -516, -4073,  1430,  1339,  -754, -2384,  -5160,    43, -3679,  -172, -3624,  -292,   184,   -29,     545, -1074, -1173, -3461,  -102,  1420,   -81,   196,    134,  -346,  -621,     0, -5310,    16,  -119,   183, // 64
       115,    53,     0,   191,     0,   473, -3287,  -612,  -1788,  -549,     5,     0,  -110,  -798,     0,   -41,   -4130, -2635, -6481,   448,   -41, -5660,   178,     8,   -724,   356, -1438,  2203,   -42,  -270,  -148, -2782, // 96
    
};

const int16_t cg_FC2weit[6144] = { // Co,H,W,Ci: (64, 96)
    // Out channel 0
       -70,   -60,   106,  -181,    64,  -709,   137,  -158,  -1136,   180,    69,   -18,  -714, -1351,   -56, -1093,     143,    30, -1538,   239,   -95,    41,    33,  -390,  -1219,   -23,    -2,   -28,    65, -2542,   -43,  -774, // 32
     -1807,   -55,  -318,    60, -1474,  -308,    -1,  -482,     18,  -335,    80,    47,   776,   -37,  -913,   -26,    -366,  -265,   161,   -32,    48,  -423,    52, -1450,     57,   -50,   -58,    50,  -821,   -28,   -72, -1624, // 64
      -660,    65,    12,  -153,   -30,  -970,   -98,   104,     98,   117,  -650,    51,    -6,  -750,    96,   -73,     144,    70,   215,    69,    70,   263,   284,   -45,     14,   676,    48, -1319,  -110,   -82,    38,  -135, // 96
    
    // Out channel 1
     -1045,   -29,   -17,   120,    33,    72,    19, -1927,   -284,  -112,    15,   -13,  -474,  -355,    26,   102,    -247,   -14,   -67,    89,    57,    51,   -29,  -428,     31,   -69,   -18,    56,   -42, -3250,    14, -1205, // 128
       -64,     9,    21, -2692,   -54,   -84,  -234,   -91,     -5,  -964,  -152,    10,  -327,    23,  -590,   -82,   -1967, -2235,    91,  -335,    63,     2,     2,    95,   -479,  -870,  -112,   -41,  -339,   -84,    91,  -121, // 160
     -1012,   -59,   -34,   -93,   -84,  -183,   -24,  -239,    -28,   -90,   131,   -93,     5,    16,    43,    86,      56,   -50, -1738,   173,    70,   209,   440,   114,    -25,   489,    61,    26, -1907,    45,   -44,    14, // 192
    
    // Out channel 2
       178,   -86,   946,    26,    64, -1269,  -310,  -262,  -1484,    46, -2043,   -30,   -89,   163,   -39,  -807,       7,   -54,    23,  -983, -1134,    78,    -6,  -706,   -170,  -640,  -481, -1332,  -121,  -218,  -426,  -136, // 224
      -141,    98,  -510,     0,  -390,    23,    74,   481,   -533,   188,   139,   -46,  -183,   -51,   -62,   -95,    -189,  -133, -1180,   107,    77,  -222,    46,  -845,   -343,   248,    66,   -45,   571,   104,    40,  -195, // 256
      -297,    26,    62,    31,     3,    45,   -29,  -139,  -2293,    42,  -478,   -31,    29,  -391,    82,   -59,      24,   -93,  -342, -1276,    92,    48,  -134,  -362,  -1029,  -217,  -951, -1071,    55,   -10,   -62, -1216, // 288
    
    // Out channel 3
      -615,    29,  -420,   722,    -5,   -15,    96,  -632,   -547,  -588,   299,    35,  -679,  -515,    81,  -652,    -289,   -21, -1716,   231,    55,   -92,     8, -2680,    -74,   -18,    31,   112,    64, -4834,     8,  -957, // 320
      -182,   -60,    -4, -1353,    22, -2359,  -225,   259,     84, -2561, -2070,    49, -2048,    18,  -956,    84,    -555, -3751,   208,   696,     6,  -300,    -5,  -221,   -301, -1389,    -9,    68,   -62,  -210,   -28,  -349, // 352
     -1649,  -143,   -82,   -61,   -37, -1070, -1898,  -175,    -17,  -177,  -200,   -77,    73,   -37,   -59,    81,   -3309,  -992,  -357,    52,    62, -1780,  -463,   146,     42,   244,    96,  -196, -2028,   -43,   -44,    17, // 384
    
    // Out channel 4
        36,   -22,   -10,    23,     8,   -12,   138,   134,    -27,   247,   102,   -31,    72,  -236,   -11,  -407,      48,  -103,  -494,   204,    67,    12,    84,  -141,    -94,   233,   139,    -8,   -62,   262,  -473,   -93, // 416
      -618,   -37,   107,    61,  -306,  -736,  -180,   303,    917,  -437,   316,    59,   721,   -96,  -176,   -33,    -842,  -984,   114,  -608,    82,  -830,    51,  -315,  -2606, -1664,  -101,   -18,  -995,   -10,    93,  -766, // 448
       313,    50,   -53,    -7,    82, -1213,   246,   189,    112,    90,  -421,     8,   -46,   316,   -57,   -33,     264,   189,   -51,   275,    95,   262,   149,    37,    122,  -623,   140, -1005,  -510,    -9,    50,    16, // 480
    
    // Out channel 5
        21,    98,    52,   -71,    69,  -110,  -107,    53,      6,   -17,   -14,    27,    44,   -17,    99,    15,     -67,   -93,   -61,  -113,    -6,    26,   -71,   -95,    -95,  -122,    -6,   -55,    60,   -11,   -73,    -6, // 512
       -32,   -52,   -72,   -89,   -97,    19,     2,  -110,    -55,    56,   -60,   -97,     3,   -66,    48,   -97,      16,   -83,    10,   -61,     6,   -39,    72,     6,     53,   -90,    -6,    70,   -75,     3,   -40,  -105, // 544
      -108,   -40,   -52,   -63,   -14,   -35,    49,   -77,    -94,   -42,  -105,    26,   -15,   -16,    71,   -35,     -74,  -100,   -58,   -10,    22,   -12,   -90,    48,    -22,   -63,   -17,   -19,   -67,   -70,    19,     4, // 576
    
    // Out channel 6
     -1126,    13,    37,  -913,   -67,    24, -1081,  -482,  -1335,    67,   -44,    66, -1548,  -679,    15,  -529,     -42,    86, -1289, -1360,   -69,   -73,    73, -1417,   -838,  -180,    20,   -64,   -72, -1670, -1608,  -808, // 608
      -243,    17,    92,  -476,  -213, -1113,    76,   147,   -743,  -995,  -180,    -6, -1013,    -8,  -483,   122,   -1642,   -18,    29,  -375,    99, -1223,    14,  -320,  -1990,   265,   -67,   -10,   -86,    -4,   -94,  -163, // 640
     -2251,    29,   -64,     7,     0,  -291,  -545,  -209,   -308,   135, -1467,    17,   -18,  -722,   -35,    40,    -157,   -58, -1003,  -665,   -59,  -193, -1253,  -327,   -135, -3112,   -81, -2097,   229,   -96,   -67,   -97, // 672
    
    // Out channel 7
      -640,   -80,  -473, -1288,    81,   417,   540, -1344,   -285,    28,   524,   -29,   -52,    13,   -33,  -555,       3,   -58,   -90,  -969,  -523,   -74,   -51,  -474,    333,   136,    51,   138,   -24,   -25,  -455,  -148, // 704
      -761,    74,   204,  -948,  -806,  -641,  -167,   -80,    803,    45,  -338,   -25,   170,   -72,  -384,    41,    -729,    34, -1884,  -599,    71, -1584,   -47,   -31,   -282,  -228,    -1,   -84,   -77,  -209,     2,  -730, // 736
      -150,   -44,    58,  -189,   -27,    85,    76,   259,  -1861,    54,  -338,    14,   -65,   344,   -91,    25,      58,   113,  -423, -2111,    -3,     5, -1396, -1337,    207,  -522, -1156,  -590,  -944,    79,   -52,    59, // 768
    
    // Out channel 8
       -55,    -4,   -21,  -967,    70,  -143, -1496, -2021,   -457,  -786, -1184,    37,  -224,   -95,   -64, -1138,     -11,    87,  -714, -3354,  -246,    53,    15, -1325,   -627,   -64,   -84,  -851,    16,  -278, -2897,  -328, // 800
       -10,    59,   -34, -1515,     7,  -103,    -4,   168,   -481, -1174, -1293,    34,  -185,   -52,   -17,   -18,   -1098,    21,    92,    44,   115,  -574,    16,   -79,  -2226,   188,   -49,    43,  -424,    85,   -87,    13, // 832
     -1029,    47,   -99,    22,   -45,   -67,    -4,    19,     18,   112,  -730,    62,   -93,  -550,   -45,   -90,    -804,  -692,  -765, -3101,    60,  -386, -1156,  -445,   -295, -1208,   -16,  -793,    42,   -56,    94,  -640, // 864
    
    // Out channel 9
       -32,    79,    13,   -25,    29,   -63,    11,    -4,     45,    30,   -98,   -37,   -70,   -11,    27,   -98,    -107,    63,    29,    11,   -24,   -45,    46,     3,     53,    76,   -30,   -34,    27,    95,   -73,    25, // 896
        25,   -22,   -73,   -39,   -60,   -46,   -92,    29,    -87,   -58,  -103,    -3,  -112,    -6,   -54,   -50,      17,   -77,    15,   -30,    11,   -83,    -4,   -12,   -108,    59,   -24,   -49,   -75,   -68,    33,   -60, // 928
       -65,    13,    52,    39,   -81,    26,    33,   -80,    -11,   -35,   -88,   -25,    86,   -23,   -32,   -75,     -43,  -113,     7,   -46,   -23,    35,    19,   -46,      7,  -100,   -65,    -5,   -76,   -33,    43,    -1, // 960
    
    // Out channel 10
        -6,   -56,  -283,  -199,    -7, -1157,  -760,   -11,   -129,  -128,  -691,   -34, -1266,  -277,     7,  -997,     -14,    14,   369,  -322,  -302,   -95,   -70,  -179,  -1294,  -346,   -41,  -448,  -104, -1619, -1081,  -107, // 992
      -924,     3, -1443,   -19,  -990,   -15,   124,  -335,   -156,  -850,     5,    35, -2410,   -71,  -146,   -16,    -243,    23,   -19,   -97,   -18,     5,    -7,  -514,  -2612,   -36,    87,    50,   474,   -39,   -70,  -775, // 1024
      -259,   -55,    22,   -27,   -26,   -99,  -236,    79,    172,   -61,  -894,    12,    -8, -1190,   -24,  -103,     -53,  -139,    18,  -312,    -6,    -1,  -855,   -77,   -567, -2352,   -88,  -592,  -109,    50,    72,  -250, // 1056
    
    // Out channel 11
       -81,    63,  -581, -1577,   -71,   336,  -608,  -167,   -860,  -109,  -538,   -30,  -142,    25,   -23,  -716,     103,    23, -1169, -1472,  -457,    60,    19,  -438,   -638,   -56,    30,   177,   -25,  -511,  -936,  -381, // 1088
      -287,   -82,   185,   -49,  -401,  -245,   -47,     2,  -1058, -1749,   -28,    77, -2164,    65,  -200,   -10,   -1119,   -85,  -246,   543,   -70,  -722,    32,  -459,   -595,    59,  -109,    41,  -154,    30,   -48,  -261, // 1120
      -901,    33,   -89,     5,    71,  -434, -1889,  -809,  -1373,    22,  -198,   -72,   -11,  -519,   -68,    -8,    -221,  -899,  -175, -1372,    75,   174,   -95,  -900,   -485,  -343,  -441, -1110,   -34,   -40,    12,   172, // 1152
    
    // Out channel 12
     -1824,   -88,   226,  -121,   -83, -1710,   282,   124,  -1661,   -96,   257,    89,  -986,  -914,   -60, -1558,     -35,   -66,  -584,    -3,   -19,    41,    19,   141,   -985,   -10,   -33,   -31,    94, -1951,   -10, -1501, // 1184
     -1257,   -39,  -368,   -46, -1426, -1148,   145,   -15,   -262,  -496,     3,    60,  -439,   -54, -1043,    66,   -1513,  -181,  -107,  -355,   -30,  -595,   -32, -2503,    -68,    57,    10,    45,    71,   -34,   -41, -1008, // 1216
     -1392,   -32,   -96,    -5,     7,  -324,  -654,   -14,    -15,    97,  -584,   -39,    55, -1496,   -91,    79,    -151,  -195,   373,   -17,    -7,    38,   349,   -63,   -234,   860,    44, -1134,    41,   -56,     2,    10, // 1248
    
    // Out channel 13
       -14,   -16,  -660, -1363,   -51,    25,  -631,   210,   -120,  -156,  -847,   -24,  -249,    21,   -51,  -325,      23,   -80,  -282,  -642,  -969,    84,    25,  -982,   -407,    15,    82,  -809,    77,  -761,  -370,    43, // 1280
        27,    98,   139,   267,    -1,     8,   -34,   100,    301,  -488,    81,    10,  -502,    53,    48,   -45,    -731,    79,  -739,   -44,    55,   -36,   -37,   -46,   -266,   139,   -40,    68, -1511,    65,   -64,    69, // 1312
      -389,    67,   -91,    39,    31,   217,  -914,   450,    169,    50,  -245,    57,   -33,    49,   -63,    91,    -405,  -717,  -487,  -788,   -89,  -432,  -452, -1354,   -644,     4, -1322,   -22,    31,     7,    27,  -162, // 1344
    
    // Out channel 14
       193,    75, -1016, -1029,   -91,    21,  -237,  -519,    426,  -621,   -32,   -26,  -483,  -692,   -39,   380,     142,   -61,  -576,  -652,   -72,    69,    29,  -459,   -120,    99,   122,   -82,   -34,  -420, -1055,  -687, // 1376
      -894,   -68,   -89,  -870,   -26,   -22,    14, -1012,    479,  -760, -1491,    19,  -747,   -41,   225,   103,   -1058, -1615,  -249,  -207,   -77,   -36,     8,   105,   -776,  -917,    80,   -32,  -147,  -161,    66, -1090, // 1408
      -931,   -42,    75,  -137,    73,  -903,    19,   209,   -168,    44,  -157,   -54,   -89,   -60,    34,    71,   -1282,   151,  -222,  -800,    94, -1644,  -982,  -180,    135,  -939,  -547,    -8, -1080,    -9,   -47,  -137, // 1440
    
    // Out channel 15
     -1880,    83,   641,    54,   -58,   293,   455,   345,  -1483,  -743, -1254,   -40,  -491, -2061,   -69,  -663,    -494,    -5,    65,    34,    -8,    44,   -66,   146,    263,    54,  -237,    11,    66,   432,  1403, -2169, // 1472
      -756,    70,   176,   403,     6, -1519,     3,   339,   -137,  -181,   244,  -100,    32,   -13, -2054,   -69,   -1275,   508,   103,  -437,   -55,    89,     8, -1031,    178,   519,    59,     0,   517,     3,    91, -1535, // 1504
     -1462,     1,    -1,  -133,   -29, -1320, -1860,  -590,   -467,    49,  -401,   -62,   -31,   400,   -27,   -60,   -1433, -1982,    87,   -85,   -12,  -800,   250,    -4,  -1550,  1097,   138,   100,   463,    71,   -82, -1888, // 1536
    
    // Out channel 16
        27,   -82,    10,   253,   -66,   -93,  -158,  -401,  -1101,  -982, -1448,   -93,   551,   -61,    80,  -398,    -509,    -2,    58,  -438,    47,    38,   -62,    68,     65,  -551, -1063,  -408,    15,  3921,   158,   106, // 1568
      -456,    77,  -101,  -440,     5,    42,   -27, -1142,   -652,    10,  -676,   -33,   -27,    13, -2445,   -70,      39, -1170,  -413,  -426,   -56,    -5,   -79, -1946,    472,   143,   126,   -20,  -373,  -515,   -40,  -521, // 1600
       652,  -425,    56,  -352,    61,   163, -2869,  -886,  -1109, -1378,   -76,   -82,   -22,   -99,    82,    -3,    -731, -1646,  -153,   240,    11,  -674,   227,    41,  -2091,   860,   -32,    28,    58,    60,   -10, -1154, // 1632
    
    // Out channel 17
       -98,     4, -1542, -2040,    93, -1230,  -258,   155,  -3517,   393,  -348,    60,  -282,    -2,    70,  -185,     111,    36,  -147,    43,  -593,   -73,   -45,  -738,  -1547,   145,    27,  -270,   -55,  -217,  -468,  -901, // 1664
       -43,   -56,  -280,   498,  -240,  -130,   -96,  -556,     18,  -588,   442,    71,  -713,    52,  1407,   -16,    -611,   369,  -306, -1065,    67,  -112,  -103,  -266,   -563,   660,   -95,   -14, -1640,   -40,   -81,  -153, // 1696
       144,    39,    50,    71,    94, -2680,  -880,   171,    371,   106,  -240,   -24,    64,  -387,    44,   -61,    -682,  -276, -1267,  -821,   -84,  -625,  -553, -1442,   -984,  -235,  -424,  -734,   205,    24,    36,  -311, // 1728
    
    // Out channel 18
     -1987,    -4,  -100,   -13,   -54,    88,   300, -1512,   -403,  -888,    39,    52,  -410,   -41,    73,  -148,    -790,   -30,   148,   226,    75,   -88,    73, -2455,     46,    21,    -3,   -55,     9, -1544,    60,  -509, // 1760
      -441,   -24,   -82, -1041,  -182,  -155,  -308,  -571,    952,  -609, -1571,   -59,   348,    -6, -1632,  -102,   -1538,  -186,   275,  -448,   -12,    45,   -52,   194,   -439, -2899,    46,   -16,  -269, -1748,    51, -1188, // 1792
     -1111, -1236,   -83, -1324,     3,  -629,  -813,  -782,  -1061,  -696,    37,   -49,   100,  -115,   -48,   -60,    -234,  -430,  -470,   -57,    12, -1155,    40,    94,     80,  -306,    25,    35, -3332,   -16,    85,   270, // 1824
    
    // Out channel 19
        43,   -31,    56,   -16,   -44,   -53,    13,  -109,     53,  -109,    81,    75,   -53,   -96,    69,   -32,     -18,    -9,   -48,   -91,   -97,     4,   -77,    71,    -79,    55,    -8,   -45,    15,   -58,    11,    51, // 1856
        13,    47,  -100,  -121,   -74,   -60,    27,     8,   -108,   -10,   -29,    49,   -82,    45,   -19,   -13,    -110,   -32,    11,   -75,    43,    16,    13,    48,    -45,   -57,   -53,   -55,    41,   -44,    57,    -9, // 1888
         3,    39,   -39,   -91,   -52,    21,    18,   -42,     -6,   -65,    -8,    57,    12,   -51,   -97,    12,      14,     6,   -40,   -72,   -56,    -3,   -61,    21,    -57,   -60,  -136,   -83,   -60,   -13,   -52,   -43, // 1920
    
    // Out channel 20
        74,    16,   269,    16,    -9,  -133,  -296,  -295,  -1010, -1267,  -679,   -71,  -264,    56,    64,   274,    -845,   -31,   173,  -575,   -30,   -75,    93,  -610,     49,  -340, -1166,   -68,    38,  4530,    12,   298, // 1952
      -557,   -76,  -714,  -648,    11,     6,    68, -1149,   -625,   -18,  -920,   -50,   526,    75, -2321,   -81,      32,  -671,  -489,  -160,   -94,   -11,   -11, -1908,    395,   235,    35,   -64,  -330,  -481,    22,  -404, // 1984
       432,  -447,    30,  -486,   -72,    18,  -185, -1233,   -874, -1695,    -4,   -18,   -63,  -335,    53,     6,    -593,   133,    53,   212,    69,   159,   182,    17,   -313,   479,  -380,     0,  -306,   -23,   -87,   -67, // 2016
    
    // Out channel 21
       204,    89,  -112,    -1,   -48,     4,  -281,  -928,    226,    12,  -135,   -94, -2033,    34,   -52,  -228,     127,   -77,   848,  -407,  -103,    97,    88,  -477,    -30,    10,   -81,   -64,    49,  -650,   -95,   405, // 2048
      -493,   -24,   117,  -189,  -344,  -204,   -13,  -511,    209,    85,  -201,   -29,   307,    36,    67,    -5,      90,    15, -1541,  -477,   -67,   -80,   -38,   -16,      8,  -370,   -38,    69,  -100,    11,   -16,  -451, // 2080
      -392,    50,   -41,   -66,    30,  -474,    95,   169,  -1010,   106,   -29,    96,   -11,    93,    54,   102,     -76,     2,  -455, -1782,   -63,    47,  -232,  -111,    108,   441,  -876,  -483, -1395,    28,    66,  1130, // 2112
    
    // Out channel 22
      -116,    10,  -955, -1328,    37,    44,    26,  -578,    114,   -28,  -176,    97,  -440, -1190,   -29,  -390,       6,   -79, -1167,   134,  -305,    85,    16,  -283,     -2,    27,    88,  -148,   -87, -3989,  -588,  -972, // 2144
        54,   -65,   -15,  -446,    45,    19,  -162,  -213,    420,    -9,   169,    70,    55,    62,    80,   -62,      56, -1129,  -478,  -691,   -51,   293,   -65,    58,   -491,  -276,    18,    32,  -207,   -50,   -22,    55, // 2176
     -1917,   -54,    34,   -44,   -95,  -349,   -79,   -34,     12,    22,  -691,    26,   -86,   120,    13,    49,    -156,   -74,  -406,    92,   -21,  -255, -1243,  -422,    -94,  -573,  -591,    89,  -117,    75,   -49,   -89, // 2208
    
    // Out channel 23
      -806,   -13,   537,   -61,   -72,  -883,  -234,    52,   -130,    75,    12,    19, -1792,  -643,    97, -1332,    -570,   -23,  -417,  -146,    43,   -60,   -78,   -57,    -74,    -7,  -107,    40,   -44,  -237, -1566,  -104, // 2240
      -124,   -69,  -120,   258,  -308,   -54,    14,   249,   -545,  -441,    99,    44,   711,    23,  -239,   -43,     -49, -2217,   294,  -459,    31,  -617,    61,   -63,  -1530, -1422,   -54,    65,   682, -1277,   -78,    24, // 2272
      -175,   -44,   -70,  -927,     7,    26,  -177, -2628,  -1327,   -63, -1764,   -19,    18,  -393,    67,   -81,      -9,  -149,   322,  -164,    86,   -24,   120,    79,  -1095,   256,   113,  -308,   294,   -47,    20,   -73, // 2304
    
    // Out channel 24
        16,    56,  -727,  -544,   -92,    14,  -424,  -312,    232,  -933,   103,   -14,   -16,  -497,   -64,  -558,    -165,   -28,  -923,  -250,  -422,   -16,     4,  -910,    -22,   -58,  -238,   -94,    -4, -2562,  -412,  -503, // 2336
      -112,    29,  -121,   -43,   -52,    14,    11,    47,   -187,  -321,  -563,   -33,  -921,   -86,  -478,    37,    -203,  -816, -1138,   -79,    85,   -15,    21,   271,    571,  -586,   -65,   -78,    37,  -541,    41,  -374, // 2368
     -1340, -1119,    76,  -991,    -8,   -39,   -13,  -455,  -1050,  -206,  -704,   -89,    34,   -99,   -83,   -60,    -789,   -77,   115,  -434,    44,  -109,  -504,  -190,    -33,   115,  -951,   -18,  -117,    33,   -63,  -282, // 2400
    
    // Out channel 25
       -54,   -45,   421,   141,   -19,   -10,   117,  -422,  -1274,  -221,  -171,   -54,  1727,  -986,    31,   727,   -1075,    24,   185,  -113,   -40,    31,    38,  -321,    -45,   -96,  -317,    -7,   -21, -2160,    70,   798, // 2432
      -885,    94,   -10,  -328,    72,   -87,    26,  -908,  -1218,   -27,  -268,    61,  -742,   -76, -2088,  -106,     -44,   115,   329,  -193,   -72,   152,    55, -1648,    541,   454,  -130,    60,  -804, -1647,   -20, -1387, // 2464
      -145, -1446,    23, -2404,    86, -2694,   250, -2694,  -1897,  -675,   613,   -45,   -14,  -209,   -16,    85,    -326,     5,  -674,    -9,   -61,  -134,  -429,    44,   -195,  -704,    29,    55,   126,    16,  -122,    19, // 2496
    
    // Out channel 26
       176,   -69,  -893, -1936,    75,     4,   -43,  -702,    232,  -894,  -484,    65,  -659,   369,    26,  -924,       3,    18,   134,  -237, -1817,    39,    93,  -390,    199,   -57,  -156,  -770,   -60, -3525,  -912,  -106, // 2528
        23,    73,    10,  -168,    15,    32,     8,  -247,    -46,     8, -1252,     4,  -259,   -10,   -11,   -35,       6,  -253,  -695,  -186,    -1,   -11,   -72,  -128,   -717, -1040,   -91,    48, -1221,     0,   -34,    19, // 2560
      -169,    20,   -45,   -17,    32,   -88,    38,    27,   -317,    32, -1068,   -11,    39,   220,    73,    -2,    -445,   -86,  -756,  -540,    53,  -899, -1167, -1390,     32,  -514,  -556,    59,   -81,   -19,   124,   -51, // 2592
    
    // Out channel 27
      -720,    70,   -28,   112,   -17,  -809,   316,  -112,    -85,    62,   -96,    68,   402,   -68,   -11,    95,    -276,   -56,  -248,   188,   -35,    37,    79,  -121,   -615,    58,  -405,     8,  -100, -2659,   888, -1446, // 2624
      -803,   -33,   -63,  -190,  -527,  -321,  -124,  -503,    170,    77,    43,   -29,   701,    90,  -657,   -97,    -368,  -100,   -46,  -196,    76,   118,   -37,  -425,    667, -2219,   -62,   -29,  -298,  -472,    88,  -409, // 2656
     -1074,  -312,    -2,  -789,    51,  -201,   244,  -997,   -730,  -553,   222,   -93,    34,  -388,    12,    45,      98,    41,   -35,   204,    56,    36,   968,    19,    164,  1674,     1,   -51, -1647,    20,   -65,    21, // 2688
    
    // Out channel 28
      -162,    40,   461,  -220,    34,  -214,   -20,     0,  -1124,   168,  -104,     4, -2599,  -697,   -45, -2632,      93,   -27,  -798,   137,    -8,    30,    57,    -8,   -102,   -50,    11,   -77,    18,  -767,  -284,  -691, // 2720
     -1851,   -64,  -129,    65,  -553,  -537,    24,  -190,    444,  -459,    80,    48,   229,    61,  -888,    10,    -512,  -257,    99,  -398,   -70,  -946,    51, -2160,   -153,   163,   -46,     1,  -964,   -93,   -73, -2090, // 2752
      -772,   -38,   -53,  -118,   -54, -1360,   247,   -28,     74,    74, -2292,   -53,   -90,  -104,    85,    -5,     218,   157,   260,    96,   -78,   346,   -28,   -20,    -18,  1124,   172, -1049,  -148,    64,    78,   -94, // 2784
    
    // Out channel 29
        45,    38,   344,   -16,    92,  -203,    50,   180,   -418,   244,    22,   -25, -3529,  -188,   -48, -2026,      32,    83,  -186,    74,    72,    31,   -70,   122,    -76,   188,   -28,   -22,   110,   -46,  -432,  -887, // 2816
     -1090,    30,  -143,    92,  -212,  -178,    34,   -82,   1112,  -285,   124,   -76,   832,  -103,  -632,   -72,    -347,  -107,   126,    48,    78,  -412,    73, -1038,   -325,   113,   120,   -61,    62,   -86,   -99,  -742, // 2848
      -447,    -9,    45,   -85,   -18,  -345,   369,     0,     30,    48, -1938,   -51,    28,  -153,   -63,    -7,     172,   213,    95,    58,    62,     3,   132,    18,    -47,   669,   212,  -449,    17,   -79,     0,   -23, // 2880
    
    // Out channel 30
       196,   -75, -1409,   -11,   -71,  -134,  -841,   167,   -143,  -164,  -287,    75,  -406,  -506,    31,  -753,   -1544,   -38,  -324,  -536,    77,    56,   -17,   -44,     -4,    13,  -299,    83,  -114,  -158,  -849,   -13, // 2912
       -31,     0,  -472,    76,  -142,    59,   -12,   485,   -111,  -238,    38,   -59,  -236,    51,   -88,    37,      28, -1404, -1889,   467,   -80,   -70,    79,    10,    -70,   -90,   -94,    96,   494, -1026,     9,  -106, // 2944
      -129, -1438,    70,  -831,    45,   -46, -1185, -1037,   -181,  -969,  -732,   -28,   -27,   -63,    34,    89,    -601,  -646,   149,  -537,    68,  -160,  -259,   -14,   -417,   -27,   190,  -295,   131,    12,    50,  -136, // 2976
    
    // Out channel 31
        75,   -23,  -265, -1442,   -47,    31,  -211,  -842,   -259, -1063,  -641,   -89,  -618,   256,    48,  -779,      48,    -9,   -66,  -413, -1996,    84,    16,  -376,   -146,  -178,  -135, -1668,   -19, -2671,  -478,  -120, // 3008
       -13,    -8,    82,  -664,    41,    60,   109,  -105,   -113,  -222, -1166,   -21,  -192,    83,   -19,   114,    -197,    56, -1061,   -84,    61,   -51,    44,   -53,   -612,  -250,   -32,    74,  -481,    35,   -75,    36, // 3040
      -229,    25,    -7,    47,   -67,   -10,   -71,    88,    -35,    69,  -714,    39,    64,    36,   -20,   -85,    -630,  -114,  -578,  -409,   -21,  -445,  -756, -1730,    112,  -189,  -720,   -10,   -14,   -85,    -1,  -327, // 3072
    
    // Out channel 32
        32,    32, -1011, -1585,    56,   153,   112,   568,     20,    15,  -633,   -71,  -389,  -229,    80, -1045,     -34,    55,    25,    29, -1511,    97,    87,  -979,     59,    78,    16, -1247,    39, -2965,  -772,   -59, // 3104
        48,   -33,    46,   -93,    20,   -27,  -118,  -177,   -240,    -4,  -113,    92,  -115,   -45,    70,    -4,     -59,   486, -1221,   -48,   -29,     4,   -92,    19,   -539,  -171,   -28,   -97, -1147,    21,    40,    30, // 3136
      -171,    80,     1,    30,   -13,     4,  -430,   -89,     83,    48,  -934,    -5,   -39,    83,   -18,    14,     -70,  -296,  -505,  -459,   -84,  -191,  -850, -1756,    -42,  -433, -1291,    91,  -205,   -75,   -59,   -26, // 3168
    
    // Out channel 33
      -942,   -96,  -757,  -898,   -51,   333,   501, -1181,    -30,    -2,   398,     0,   -74,   256,   -21,  -136,      23,     2,  -280, -1412,  -116,   -34,   -14,  -471,    358,   183,   170,   195,    12,   153,  -305,  -188, // 3200
      -929,    14,    97, -1648,  -929, -1020,  -246,    51,    606,    43,  -376,   -49,   287,     7, -1126,    45,   -1143,   116, -1723,  -303,    73, -1084,   -54,  -633,   -183,  -375,   -79,     7,    31,  -107,    -3,  -730, // 3232
       -84,   -15,   -73,    50,    -3,    43,    42,   197,  -2435,     9,  -185,   -20,   -48,   349,    -3,   -92,      55,   177,  -446, -1823,     7,   -52, -1885,  -566,    107,  -722,  -672,  -309,  -743,    -1,    55,    47, // 3264
    
    // Out channel 34
       -68,   -29,  -846,  -754,    12,   -17,  -707,  -135,   -681,  -413, -1309,    93,   -64,   172,    43,  -509,     134,    64,  -950, -1293, -1346,    83,   -58,  -112,   -352,  -207,   -91,  -592,    47,  -310,  -543,  -316, // 3296
        19,    60,   114,   -28,   -18,   -53,    14,   437,   -376,  -648,  -296,  -107, -1046,   -86,   -48,    51,   -1070,  -656, -1364,   309,    18,  -969,   -89,    60,   -202,  -877,   -78,    44,   453,   -11,    71,   -12, // 3328
     -1379,    35,    89,    12,    64,   -97, -1603, -1492,  -1373,    76,  -255,    41,    18,  -514,    73,   -57,    -636, -1666,   328,  -800,   -17,   184,  -296,  -178,   -520,   -42, -1067,  -573,    10,   -27,   -54,  -815, // 3360
    
    // Out channel 35
        -8,    82,   -96, -1011,   -26, -1556, -2155,   -23,  -1055,   176,    57,   -96, -1867,  -225,    35,  -229,     123,   -85, -1339,  -880,   335,    50,   -69,   522,   -631,  -382,   -42,  -140,   -28, -2299,  -781, -1620, // 3392
      -495,   -70, -1198,   164,  -801,  -115,   124,   -59,  -1039,   -33,   152,    40,  -602,    87,  -844,   -51,    -280,  -195,   473,    87,    58,  -349,   -61, -1875,  -1048,   -75,    52,   -70,    -3,    38,   -35,  -449, // 3424
     -2144,     3,    25,   -99,   -65,  -394,   195,  -156,   -281,    97,  -445,    41,    -1,  -443,   -12,    22,      20,    90,   126,  -626,    -9,    36, -2254,    48,   -306, -1664,   246,  -697,   -66,    15,   -69,  -399, // 3456
    
    // Out channel 36
       190,    80,  -312, -1080,     4, -1554,  -672,  -150,    605,  -299,  -741,    83, -1738,   -65,   -53, -1195,     102,   -26, -1851,  -491,  -248,   -58,    85,  -754,   -887,  -361,   -94,  -431,    21, -1282,  -950,  -610, // 3488
     -1231,     7, -1261,    98, -1373,  -218,   154,  -213,   -221,  -443,  -338,   -58, -1329,   -84,   334,     2,   -1108,   213,   -57,    19,  -165,   175,  -102,  -792,  -3046,   143,   -81,    47,  -542,   143,     7,  -942, // 3520
     -2240,    83,    96,   158,    77,   -71,  -886,   291,    289,    -4, -1357,    11,   -39,  -750,    47,    73,    -676,  -614,  -529,  -392,   -50,  -141,  -992,  -288,   -485, -2278,  -122, -1043,   -43,   -38,  -107, -1124, // 3552
    
    // Out channel 37
      -759,   -52,  -362,   -52,   -89, -1819,  -253,  -408,   -247,  -195,  -387,    86,  1175,  -455,    24,   532,   -1448,   -47,   483,  -410,    40,    44,    -7,   -12,  -1549,  -286, -1309,   120,    10, -4718,  -101,   333, // 3584
      -145,   -14,  -723,  -490,  -535,  -228,     9,  -340,   -294,  -732,  -281,    41,   284,   -15,  -899,    86,     207, -1766,  -549,  -101,   -81,   113,   -58,  -425,   1343,   100,    14,    94,  -649, -2003,   -15,  -810, // 3616
      -181, -1894,   -26, -1896,   -77,  -261,    19, -1842,  -1149, -1345,   156,   -41,   -49,  -971,    14,   -82,    -249,   -41,  -462,  -115,    51,  -244,   168,     1,    191, -1328,    99,  -748,    11,    75,    33,   -64, // 3648
    
    // Out channel 38
       -61,    23,    20,   145,   -93,  -347,  -124,  -337,  -1025,  -370,  -858,    31,  1273,  -482,    91,   482,   -1494,    12,   353,  -597,    54,    15,    45,    27,    -14,  -323,  -974,   -95,   -63,  1886,   119,    20, // 3680
      -735,   -78, -1450,  -315,   -11,   -19,    -8,    23,   -285,  -217,  -430,     6,   -99,   -20, -1910,    -4,      -7, -1218,  -194,  -184,   -26,     2,   -65, -1566,    224,   123,     6,    54,  -450, -1229,    76,  -697, // 3712
       167,  -811,    41, -1194,   -19,  -132,   -37, -2335,  -1341,  -575,   116,    24,   -12,  -947,    35,    90,    -282,   -18,  -239,  -185,   -24,  -145,    42,    18,    -53,   202,  -217,   -41,    20,   -14,   -45,   -76, // 3744
    
    // Out channel 39
       101,    89,   246,    60,    77,    35,  -313,  -290,  -1069,  -621,  -846,     1,   632,    19,    83,  -164,    -693,    20,   -23,  -707,   -11,   -40,   -84,    36,     40,  -592, -1207,  -435,    70,  2828,    36,    98, // 3776
      -721,   -51,  -254,  -295,    18,    -4,    83,  -721,   -488,   -23,  -340,  -104,   -78,   -98, -2296,    12,      18,  -958,  -725,  -259,  -127,   -20,    69, -1963,    211,   -38,   -58,    14,  -372, -1035,    60,  -714, // 3808
       555,  -865,    31,  -711,   -32,    89, -2716, -1161,  -1123, -1509,    83,    78,    92,  -253,   -42,   -67,    -877, -1523,  -104,   244,   -38,  -604,   324,    99,  -1844,   801,   -76,     0,    56,    51,   -96, -1034, // 3840
    
    // Out channel 40
       -36,    59,  -130, -1030,    54,  -346, -2042,     3,   -379,  -509, -2052,    19, -1296,   -34,    93, -1128,     147,    25, -1057, -3525,  -619,    21,   -54,  -641,   -471,  -310,    64,  -405,   -58,  -298, -3399,  -464, // 3872
        19,    65,   112,    54,    31,   -56,    85,   159,   -325,  -493,  -135,   -54,  -824,    93,  -123,   103,   -1319,  -292,  -144,   -59,  -105,  -298,   -78,   -74,  -3814,   221,   -54,   -54,  -357,   -18,   -60,     8, // 3904
     -1485,    14,   -23,    54,   -76,   234, -1222,   153,   -116,   130, -1531,    66,    52,  -953,   -85,   -65,   -1386, -2410,  -313, -3536,    91,  -666, -1806,  -847,   -309, -1669,  -530,  -757,   122,   -23,   -94, -2108, // 3936
    
    // Out channel 41
      -789,    -9,   211,  -150,    49, -1665,  -459,   -36,   -679,  -874, -1437,   -78,    16,  -938,    23,   300,   -1335,    10,   263,    77,   -46,    76,   -23,   102,   -878,  -741,  -749,  -651,    -7,  -224,   349,  -145, // 3968
      -378,    -2, -2603,  -108,  -327,  -458,    47,   254,   -178,  -395,  -268,   -73,   -77,   -35, -1576,   111,     245,  -302,   -48,  -390,   -33,  -105,   -69,  -595,    939,  -120,   -68,   -90,  -836,  -452,   -39,  -962, // 4000
      -186,  -365,    26,  -798,     5,  -327, -4082, -1732,  -2416,  -404,   252,    33,    47, -1321,   -60,    76,   -1264, -2093,  -517,   -53,    66, -1692,   204,    87,  -2642,   381,   199,  -748,   169,   -49,   -62, -1802, // 4032
    
    // Out channel 42
      -417,    13,  1058,    19,    84,  -183,    77, -1765,   -768,    98,   -99,    48,  -337,  -652,   -13,   -58,      21,   -36,  -512,    37,   -42,   -15,    15,  -225,   -415,    29,    12,   -55,    14, -1355,   143, -1079, // 4064
      -398,    79,   -31,  -266,  -349,  -617,  -217,  -902,    150,  -287,   -12,    85,   228,    68,  -475,    64,      -1, -3306,  -144, -2252,    -9,   -56,   -80,  -285,   -167,  -903,   -23,   -81,  -952,    -3,   -47,  -368, // 4096
      -589,    95,    -7,     6,   -80,    -1,   312,  -156,   -200,   100,    72,   -27,    75,  -237,   -47,   -84,      57,   313, -1708,  -234,   -18,    13,   352,   -14,     34,  1489,  -116,  -678, -1181,    77,    78,    53, // 4128
    
    // Out channel 43
        43,    92,   197,   -31,   -17,   -26,  -632,  -156,  -1443, -1186,  -680,   -41,     9,  -361,    72,     8,    -979,   -15,   -64,  -229,   -98,   -31,   -56,     5,    -21,  -408,  -651,  -512,   -12,    61,   122,     1, // 4160
     -1109,    80, -1084,  -228,    -3,    48,    97,   127,   -340,   -39,  -434,    73,   -67,    42, -2349,   -88,     -58,  -867,  -145,  -179,    25,    10,   -34, -2052,    192,   -57,    -7,    45,  -432, -1521,    63, -1062, // 4192
        33, -1179,     8, -1387,   -49,   -21, -1038, -1474,  -1270, -1056,    50,    97,    50, -1146,     0,    -6,   -1020,  -601,  -170,   156,    60,  -855,    12,     6,  -1173,   575,   -71,   -16,   -86,   -79,   -57, -1180, // 4224
    
    // Out channel 44
      -625,   -26, -2253,    43,    40,  -604,   798,  -144,   -710,  -910,  -464,    27,   265,  -472,    -1,    -5,    -977,    -3,    39, -1082,   -16,   -84,   -59,  -321,   -375,  -655,  -606, -1045,   -62,  -882,   -18,  -324, // 4256
      -728,    47,  -371,     8,  -603,    75,    28, -1303,   -397,  -925,  -627,  -105,    62,     7,  -660,    64,    -278,  -895, -1166,  -130,   -44,    34,   -72,  -492,   -292,  -406,  -106,    16,  -152,  -801,   -30,  -918, // 4288
      -119, -1053,   -93, -1111,   -67,    43, -3883, -1139,   -340, -1579,   -12,   -27,   -22,  -564,    86,   -59,    -986, -2699,  -153,   344,   -93,  -805,   212,   -38,  -1660, -1975, -1414,  -441,   107,    16,    29, -2484, // 4320
    
    // Out channel 45
       -49,    32,   -77,  -122,    25,   -21,  -100,  -137,    122,  -202,  -228,    38,  -351,   171,   -40,  -179,    -116,    64,  -106,  -305,   -10,    64,    -7,   -25,    -30,  -106,   -32,  -161,   -75,  -124,  -313,    34, // 4352
      -314,    57,  -195,    -4,  -192,  -168,    98,   -76,   -239,    42,   -87,     3,  -135,    41,    -1,   -13,     -60,   -53,    44,   -14,     9,  -184,    47,    82,   -317,   -56,    69,   -76,  -155,   -32,   -78,    21, // 4384
      -141,   -18,   -44,   -13,   -61,  -167,  -295,   -36,    134,   -33,  -374,   -81,    -5,    40,    27,    29,    -192,  -125,   -92,  -169,    49,  -161,  -553,   -83,    -30,  -144,   -13,  -197,   -72,    40,    99,  -182, // 4416
    
    // Out channel 46
       -33,   -62, -1352, -1358,    55,    81,     7,   157,     75,   -24,  -114,    45,   -84,    86,    19,  -337,      44,   -69,   -13,   230,  -206,    89,   -42,  -453,      8,   -13,    16,  -120,    53,  -636,  -464,   187, // 4448
       160,   -66,    35,   139,     2,  -173,   -74,   -96,    401,  -921,    14,  -100,  -225,    84,   198,    19,    -940,   373,  -565,  -136,    10,    95,    84,   149,   -737,  -136,   -66,    18, -1288,    97,   -77,    93, // 4480
      -237,    61,    21,    15,     4,   -21,  -203,   -26,    191,    35,  -234,    12,    70,   104,    18,    80,    -213,  -189,  -397, -1166,    35,  -621,  -550,  -298,     23,  -297,  -276,    83,    40,    71,   -42,   -47, // 4512
    
    // Out channel 47
      -873,   -92, -1008,    10,   -73,   202,    13,  -583,     10, -1875,  -346,   -33, -1422,  -178,   -78,  -314,    -786,   -29,   574,   191,   165,   -98,   -47, -2331,   -179,    20,   -62,   347,   -16, -1555,   -73,  -466, // 4544
      -982,    16,     2, -1393, -1934, -1051,   -58,   703,    271, -2195, -2698,   -19,  -579,   -72,  -341,   -12,    -990,  -233,  -586,   231,    36,   -82,    17,  -675,  -1268,  -943,   -94,    84,  -463,   -99,   -20,  -701, // 4576
      -535,  -427,   -18,  -101,    69,  -990, -1192, -1263,  -1193,  -421,   -80,   -66,   -47,   342,    67,   -77,   -1791,  -955,  -836,  -350,     1, -2152,    52,    -2,   -881, -2240,   385, -1178,  -693,   -18,    59,   140, // 4608
    
    // Out channel 48
      -142,    29,   -26,   -58,    80,     5,   -42,    25,     -7,  -105,    59,     3,    76,   -37,   -67,    92,      55,     6,    24,   -61,   -68,    33,   -70,   -89,    134,    60,   -98,    46,     9,    79,    14,  -126, // 4640
       -67,    62,  -230,   -97,     7,   -69,  -114,   -13,    -27,   -27,  -107,    58,   -68,     5,   -51,   -70,      82,    41,     2,   -95,    65,    65,    25,   -98,    -79,   -70,   -48,    43,    26,    34,   -72,  -146, // 4672
        21,   -38,   -43,  -111,   -14,    19,  -121,   -89,    -74,  -154,   -70,    40,    85,   -90,   -97,    89,     -84,  -106,    16,   -68,   -23,   -65,   -32,   -56,    -90,    86,   -30,  -117,   -48,    60,   -33,    53, // 4704
    
    // Out channel 49
      -290,    95,   184,   109,   -67,   -12,  -128, -1237,   -850,  -177,   -37,   -92,    82,  -444,    91,   -81,   -1045,   106,   297,  -171,    71,    85,    63, -1111,    -34,  -102,  -306,    15,   -43, -1029,    -7,  -468, // 4736
      -569,    35,   -53,  -887,    12,  -143,     1,  -537,  -1066,    19,  -494,   -10,   101,     4, -1797,   -24,    -215,  -405,   103,   -34,   -58,    35,    43, -1501,    535,  -634,   -42,    82,  -490, -1690,   -63,  -898, // 4768
      -688, -1729,    33, -1911,    -3,   143,   169, -1477,  -1302, -1389,   -68,    -4,   -48,   -83,   -71,    90,     -91,    49,  -229,   338,    74,  -105,   144,   -42,    -89,  -325,   192,   -43,  -212,    27,    71,   -17, // 4800
    
    // Out channel 50
      -140,    64,   644,   203,   -57,   -60,  -207,    95,     48,   124,  -262,   -38,   -54,   337,    -7,   -31,    -337,    69,  -297,  -714,    64,     1,    -5,    36,    -20,    -6,   -67,    54,  -106,   -71,   -89,  -547, // 4832
      -125,    69,  -271,    94,   -89,  -542,  -125,   235,    -54,   -26,   132,   -27,   -89,   -53,    59,   -14,    -223,    10,  -284,   519,   -33,   -60,   -85,   -99,     29,   285,   -74,   -18,   242,  -165,   -84,  -272, // 4864
       -67,  -193,   -24,  -496,    38,   132,  -158,  -248,   -940,   -46,     3,   -43,    93,   -55,     6,    -9,     -76,  -153,   112,    16,    47,    76,   -80,    17,   -150,   -63,   -49,     3,    31,     3,   -57,  -278, // 4896
    
    // Out channel 51
      -116,   -17,    75,   -49,    42,    16,    55,  -684,   -867,  -175,   -25,    -6,  1586,  -573,   -62,   220,   -1478,   110,   296,   -85,    20,    55,   -87,  -411,      9,   -22,  -272,    -7,    81,  1129,   254,   207, // 4928
      -519,    16,    -6,  -557,   -40,   -36,    -5,  -511,  -1574,     0,  -521,   -18,   -68,   -65, -2339,   -42,     -24,   -51,    -3,    16,  -122,    37,   -13, -1839,    990,   547,   -66,    95,  -636,  -579,    32,  -519, // 4960
       544,  -523,    20,  -686,   -26,    32,    45, -1747,  -1187,  -717,   239,    81,   -44,   -64,    91,    78,       4,    50,  -404,    50,   -49,   -29,   127,     6,   -104,   510,   -77,    32,   101,    72,    13,   -74, // 4992
    
    // Out channel 52
       -42,     8,  -323, -1208,   -80,   261,    52,    46,    268,   -43,  -660,    84,  -453,  -139,    45,  -880,     -26,   -71,  -708,    70,  -897,   -21,   -77,  -297,     70,  -152,   -66,  -958,    20, -3451,  -308,  -723, // 5024
        -5,    97,    15,   -75,   -18,    -1,  -191,  -610,    102,   -26,     8,    35,  -139,    59,  -105,     6,      49, -1032, -1330,  -702,   -31,    84,   -50,    35,    -97,  -937,    12,   -25,  -246,    -6,   -84,   -28, // 5056
     -1451,   -26,    97,    12,   -81,  -148,  -262,  -459,    192,   -22,  -669,   -12,    78,   102,    56,     6,     -40,  -245,  -419,  -191,   -93,  -361,  -660, -1016,   -246,  -256, -1117,     6,  -643,    53,   -71,   -37, // 5088
    
    // Out channel 53
        34,    10,     0,    57,   -68,  -171,    73,  -461,   -754, -1440,  -368,    87,  2109,   242,   -35,   721,   -1201,    65,   146,   -79,   -23,    -4,   -87,  -410,     10,    96,   -73,    40,    -5,  3059,   -48,   610, // 5120
      -395,     9,    -3,  -581,   -61,     5,    80, -1807,  -1470,   141,  -874,   -36,    81,   -25, -2009,    55,       3,  -777,   -47,  -471,   -86,   276,   -13, -1602,   -123,   616,   -73,    94,  -353,  -290,    22,  -410, // 5152
       448,  -241,   -17,  -328,   -53,   -90,   217, -1343,   -380, -1005,   492,    26,   -56,  -147,   -88,   -16,    -559,    50,   -93,   -75,    19,  -145,   -86,    18,   -362,  1498,     4,   -14,  -316,    43,   -18,    82, // 5184
    
    // Out channel 54
       115,   -48, -1511,   -89,    53,  -391,  -755,   157,   -518,  -248,  -435,   -37,  -375,  -516,   -66,  -667,   -1638,    26,  -295,  -799,   -27,   -77,    63,    83,    -70,  -100,  -378,    47,    25,   -80,  -786,    99, // 5216
       -54,    25,  -279,    68,   -14,    33,   121,   656,   -128,  -285,     2,    27,   -51,    13,  -336,   -65,      34, -1283, -1729,   320,   -45,   -84,   -42,   -97,   -195,   177,   -70,   -23,   384, -1538,    41,  -369, // 5248
       -42, -1722,    55, -1277,    25,   -85, -1183,  -940,   -102,  -871,  -510,    35,   -40,   -41,   -15,   -25,    -530,  -743,   -79,  -817,   -87,    71,  -268,   -63,   -402,   -82,    27,  -368,    89,   -34,    47,  -152, // 5280
    
    // Out channel 55
      -559,    71,    25,    96,   -18,  -969,  -664,   142,  -1728,  -114,   188,    15,  -890,  -379,    77,  -611,    -214,   -14,  -941,  -279,    16,   -92,    -5,   373,  -1017,  -307,   -73,   123,   -19, -1421,  -114, -1386, // 5312
      -405,    67,  -782,    14, -1048,  -631,    12,    91,   -469,  -151,   -55,   115,   -76,   -29,  -896,   -41,   -1289,  -129,    72,  -341,   -74,  -530,    22, -1621,   -636,  -242,    13,    23,    17,   -44,    36,  -241, // 5344
     -1974,    16,   -84,    45,    -9,  -525,  -150,  -266,   -391,    21,  -371,    17,    71, -1237,    34,    70,     -44,  -184,   378,  -221,    16,    85,  -919,   -54,   -273,   -15,   161,  -805,   213,   104,    26,    12, // 5376
    
    // Out channel 56
      -318,     3,   269,   217,    48,    40,    35, -1801,  -1006,  -156,    -1,    95,  1628,    30,    14,   -12,    -190,   -56,  -142,    43,   -25,    87,   -83, -1200,    -48,    13,    56,     7,    36,  1166,   352,  -683, // 5408
      -222,   -13,    48, -1196,    56,   -39,  -340,  -504,    -46,   -92,  -418,   -52,   467,    63, -1964,    81,     -99,  -407,   -15,  -574,   -89,   -24,    -7,  -557,   1045,   255,   -55,    18,  -446,  -463,   -61,  -386, // 5440
      -318,  -354,    -2,  -383,    82,    31,   118,  -321,   -285,  -176,   -83,   -62,   -14,    27,   -59,  -103,      48,   133,  -687,   189,    -2,    14,   694,    33,    -32,  -418,    63,    88,  -766,    48,    44,   -12, // 5472
    
    // Out channel 57
       -52,   -63,   208,   105,    44,    10,    70, -1010,   -849,  -207,   -23,   -64,  1297,   178,    48,   115,   -1652,    25,    86,    57,    59,    70,    47, -1491,     -3,  -114,  -156,    32,    87,  2905,   242,   328, // 5504
      -330,   -32,   -17, -1156,    -1,    12,   -13,  -617,  -1795,   -21,  -500,   -45,   490,   -58, -2130,    14,     -47,  -128,   -41,  -360,  -128,   -20,   -39, -1766,    730,   -70,    18,   -95,  -327,  -620,    73,  -333, // 5536
       442,  -431,   -81,  -422,    35,   249,    68, -1714,   -807, -1584,    95,    76,     7,   -21,   -48,    41,     -15,    21,   -71,    99,    48,    49,    82,    31,    -49,   290,   -15,    22, -1161,    55,  -104,   -75, // 5568
    
    // Out channel 58
         2,   -19, -1114, -1310,    17,    26,    69,   604,    100,   -18,  -648,    27,  -358,   251,    98,  -766,      12,   -68,    83,    66, -1256,   -78,    88, -1517,    109,     1,   -44, -1066,    59, -2189,  -730,   -63, // 5600
       -19,   -84,    38,    57,     4,    16,    30,   -24,   -566,    93,    16,    -9,  -385,   -63,   -31,    75,      -1,    10, -1224,   -96,   -46,    12,   -55,   -36,   -607,  -174,   -88,    88,  -812,    49,    34,   -34, // 5632
      -163,    42,   -94,    75,    72,    -8,  -851,  -103,    315,    69,  -736,   -46,   -57,   -74,   -87,    55,    -185,  -492,  -223,  -833,    66,  -120,  -962, -1577,   -881,  -492, -1171,    73,   -71,    48,     3,   -84, // 5664
    
    // Out channel 59
       361,   -22,  -181,   -53,   -14,  -235,  -627,   -81,    -62, -1222,  -513,   -82,   -98,  -539,    89,    29,   -1373,    11,     8,  -157,  -193,    20,    70,   -50,    -27,  -250,  -307, -1506,    14,  -448,   -72,    34, // 5696
      -619,     7,  -984,   -95,   -52,   -42,  -171,  -818,   -285,     6,  -566,    36,  -119,    72,    58,   -67,      50, -1409,  -866,  -262,    86,    19,   -86,    44,    352,   -68,    42,   -46,  -281, -1388,    80,  -560, // 5728
       -50, -1030,   -70, -1023,   -90,    -5,  -497, -1347,   -570, -1355,   -33,    60,    27, -1213,   -37,   -66,   -1198,  -244,  -257,  -231,    59,  -966,  -120,   -88,    -73,   471,  -352,    -1,   -59,     3,   -91, -1067, // 5760
    
    // Out channel 60
        28,   -96,    77,   -83,   -87,   -46,   -48,    -6,     67,   -97,   -50,    84,    -4,    62,    65,    79,     -65,    22,  -102,    13,   -96,    35,    46,    -9,      6,   -14,   -79,    29,   -87,   -84,   -62,    10, // 5792
        -7,    24,   -91,    13,   -47,   -39,   -19,   -37,     35,   -38,    28,   -92,    -9,   -27,   -64,   -26,     -73,    49,   -76,    65,    94,    45,   -40,     5,    -39,   -33,   -71,   -30,    57,   -93,    30,   -84, // 5824
       -12,   -99,   -36,   -86,   -15,     6,     1,    -2,     50,    24,  -101,    86,   -75,   -24,    54,    14,    -107,   -91,   -65,    21,   -24,   -61,   -79,   -80,    -10,    34,    13,   -30,  -104,    26,    13,    68, // 5856
    
    // Out channel 61
      -227,    -8,  -529, -1052,    48,  -311,   294, -1856,    140, -1118,   -66,   -77, -1137,    94,     1, -1213,      21,    62,  -929,  -219,  -198,   -43,   -59,  -677,   -191,    12,    35,  -838,    -3,  -478, -2414,  -277, // 5888
      -529,    85,  -107, -3603,  -302,  -174,    62,   221,   -162,  -850, -2049,   -54,  -272,    75,     0,   -12,   -1118,   410,  -127,    23,    75,  -183,   -15,  -253,  -4273,  -133,    47,   -90,  -470,    59,    88,  -494, // 5920
     -1197,    29,   -50,    81,    40,    54,    46,    75,    130,    83, -1645,    35,    32,  -169,   -25,   -86,   -1111,  -361,  -848,  -241,   -41, -1188,  -505,  -265,    212, -1199,  -257,  -467,    36,   -85,    60,  -866, // 5952
    
    // Out channel 62
     -1408,   -56,   -75,   108,   -30, -1019, -1371,  -226,   -905,  -340,  -674,    74,  -286,  -504,    46,  -254,   -1971,    53, -1057,  -489,    51,   -44,   -65,   -77,   -804,  -693,  -994,    56,   -31, -2127,    15,    12, // 5984
      -363,   -94, -2160,  -229,  -958,  -722,    54,  -136,   -378,  -273,  -295,   -37,   -24,   -12, -2445,    80,     123,    82,  -118,  -672,   -90,  -386,   -55,  -515,    170,   275,   -36,    29,  -632,  -544,    32, -1272, // 6016
       203,  -435,   -75,  -860,     7,   -17,  -163, -2581,  -4103,  -280,   -21,   -86,    21,  -977,    -2,    36,    -904,  -206,  -399,  -672,   -83,  -591,  -692,     5,  -1799,  -901,   165,  -653,   119,   -83,    35,   -85, // 6048
    
    // Out channel 63
      -762,   -21,   229,  -234,   -57, -2029,   245,  -383,   -610,    20,    20,   -26,  -421,  -648,   -63,  -447,     -98,   -41, -2585,   121,    15,   -31,   -48,   -22,  -3800,   -40,   -29,   -29,   -64, -3506,   -37,  -452, // 6080
     -1677,   -61,   -41,  -287, -1356,  -935,    45,  -333,    -71,  -253,  -110,   -88,    89,    24,  -511,   -87,      77, -2348,    88,  -148,   -18,  -200,   -66, -1594,    300,  -518,   -25,   -50,  -502,   -43,    21, -1191, // 6112
      -497,   -53,    10,     0,    88,   321,    28,   -81,     30,  -118,  -212,    29,   -50,  -707,    71,   -66,      51,    34,  -666,    24,   -93,    24,   846,     9,    -62,  1280,    -5, -1444,  -334,    10,    45,   -12, // 6144
    
    
};

const int16_t cg_FC2bias[64] = { // Co,H,W,Ci: (64,)
       941,   148,    62,   531, -1247,  -538,  2193, -1062,   1436,  -502,  1784,  2287,  1575,  -417,   807, -1788,    -175, -2943,  1610,  -615,    -9, -2405,   350,  -607,   2350,  -122,   144, -5161,   856,   441,  -301,   234, // 32
       -57, -1391,   872,  1932,  1894,  1619,  1016,   178,   1238,  1586,   544,   598,  1434,  -992,  -487,   896,   -1452,   764, -3687,   144,   291,  -819,  -520,  2296,   -195,    83,    68,  1533, -1026,   772,  2571,   928, // 64
    
};

const int16_t cg_FC3weit[2048] = { // Co,H,W,Ci: (32, 64)
    // Out channel 0
      -159,   347,  -316,   135,     5,  -106,  -113,  -241,     -3,   -51,  -165,    62,   132,   -29,   -23,    99,    -358,   -85,   573,    19,  -432,   119,   -30,   197,   -255, -1632,   -99,  -214,   -73,     3,  -209,  -109, // 32
       -47,   366,   -73,  -512,  -189,  -701,  -904,  -244,    -91,    31,    88,  -176,    18,  -180,  -244,  -303,      -5,  -301,   -12, -1210,   -30, -2026,  -153,  -437,    298,  -749,  -238,   -67,   -16,  -170,    55,   240, // 64
    
    // Out channel 1
      -268,    11,  -394,  -419,  -498,   132,  -452,   116,   -760,  -140,   -16,  -365,  -261, -1231,  -419,  -311,    -147,  -935,  -346,  -108,  -155,  -100,  -184,    56,   -259,  -126,  -871,    64,  -403,  -449,    22,  -997, // 96
     -1126,   295,  -263,  -175,  -515,  -255,  -167,  -175,   -381,  -380,   -79,  -185,    31,  -233,  -882,    50,     -47,  -278,   -26,  -232,  -934,   -95,  -216,  -175,   -314,  -109,  -876,  -324,   -51,  -647,   -32,  -473, // 128
    
    // Out channel 2
        -4,   324, -1762,   -32,  -155,   -23, -2736, -1216,   -774,    46, -2708,   -28,    11, -1955,  -683,  -116,   -1932, -1654,   310,   -82, -1903,  -120,  -980,  -619,   -501,  -543, -1545,  -250,   -12,   -40, -1174, -1547, // 160
     -1808,  1993,  -684,  -243, -3378, -1601, -1395, -1345,  -1709,  -847,   116, -1582,  -474,  -480, -2474,   107,     -50,   494,    80,   118, -1584,  -932,  -823,  -100,   -705,   198, -1858,  -771,   108, -1277,   856,  -377, // 192
    
    // Out channel 3
     -2277, -1438,  -729,  -659,  -764,   -20,  -665,   -40,   -307,    98, -1578,  -259, -1622,  -404,  -771,  -391,    -782,  -168,  -554,   130,  -927,  -373,  -151,  -595,     95,  -171,  -500,  -455, -2181, -2309,  -239,  -514, // 224
      -534,     4,   -29, -1991,  -771,  -301,  -472,  -640,   -192,  -359, -1602,  -435,   -13,   -11, -1257,  -481,      17,  -454,    32,  -790,  -525,  -582,  -216, -1399,   -992,  -540,  -474,    91,   -70,  -739,  -335, -2131, // 256
    
    // Out channel 4
      -608,  -532,   -41,  -466,  -163,   -38,  -259,    36,    111,    -7,  -349,  -165,  -648,  -140,   -40,   -27,    -264,    36,  -210,    49,  -232,   -86,  -181,    30,     11,   -30,  -178,   -82,  -518,  -468,   171,  -388, // 288
        82,  -118,   -78,  -585,   -86,  -181,  -190,   -66,    111,   -30,  -629,    42,   -37,  -110,  -330,  -213,    -116,  -288,   -96,  -258,  -139,  -109,  -347,  -470,   -301,  -200,  -360,  -136,  -106,   -34,  -168,  -639, // 320
    
    // Out channel 5
      -435,  -203,  -172,  -109,  -275,   -97,  -253,   172,   -555,   -39,  -224,  -415,  -633, -1884,  -723,    32,    -352, -1475,    33,    90,  -558,  -379, -1116,   113,  -1190,  -137, -2142,  -103,  -463,  -401,  -164, -1794, // 352
     -2525,  -285,  -588,  -194,  -102,  -251,  -313,  -413,    -78,  -106,  -407,  -199,  -360,  -173, -1803,    87,    -115,  -362,   -57,  -578, -2811,   -94,  -202,  -271,   -485,  -363, -2023,  -933,   -18,  -926,  -378,  -484, // 384
    
    // Out channel 6
      -184,  -187,  -223,  -174,  -255,    64,  -284,  -587,   -176,   -47,  -144,   -83,  -173,  -186,  -741,    60,   -2448,   120,  -570,     3, -2068,  -104,  -336,  -131,    159, -1790,  -559,    26,  -217,  -173,   108,  -583, // 416
      -207,  -439,  -158,  -134,  -171, -1009, -2046, -2338,     59,  -387,    17, -1931,   151,    90,  -190,  -736,    -113, -1910,    14, -1194,  -342, -1592,    -7,  -131,   -288, -1572,  -139,   742,   -48,    22,  -695,  -125, // 448
    
    // Out channel 7
     -1460,  -618,  -269,  -329,  -747,     5,  -359,   184,   -159,   -39,  -160,  -239, -1788,  -112,   -39,   -93,   -2242,  -232,   -17,    27, -2136,  -172,   319,   -55,    503,  -354,   308,  -604, -1475, -1050,  -176,  -138, // 480
       -38,   108,  -157,  -648,  -122,  -862,  -945, -1534,   -244,  -816,  -842,  -498,  -334,   -33,   -50,    22,     -79, -1188,    75, -2104,   375, -1959,  -321,  -836,  -1060, -2599,    25,   519,   -75,  -177,  -637, -1556, // 512
    
    // Out channel 8
       -93,     4,    40,   -60,  -235,   -97,  -321,   -53,   -173,   -20,  -572,   975,  -609,   -51,  -356,   -37,    -175,   -31,   309,    10,   -71,    64,  -413,   -69,     89,    47,  -316,  -138,   -19,   404,   -72,  -143, // 544
        42,   212,    -8,  -172,  -562,   -33,    15,   -87,   -392,   -25,   -44,    84,    68,  -192,  -189,   -96,      89,   -16,   102,  -104,  -315,    15,  -132,  -365,    -45,    31,  -184,    47,   -48,  -207,   -82,  -340, // 576
    
    // Out channel 9
     -1315,  -589,  -189,  -753, -1149,  -105,   832,   162,   -460,   129,    66,  -275, -1013,  -182,  -346,   126,    -421,  -663,  -384,  -101,  -348,    10,   -58,  -135,    -25,  -341,  -160,    24,  -824,  -556,  -200,   -23, // 608
      -447,   232,    68,  -161,  -103,  -210,  -459,  -275,     11,  -100,  -666,   -56,  -313,    49,   -20,   123,    -106,  -515,  -164,  -362,   133,  -408,   213, -1381,   -809,  -332,  -117,   -98,    10,  -221,  -237,  -521, // 640
    
    // Out channel 10
      -690,    30,    29,  -154,  -617,    34,  -309,   -28,   -118,   121,   -42,    55,  -516,  -115,    86,   120,   -2861,   581,  -100,    19, -2959,   197,  -273,  -374,    267, -1470,  -408,    44,  -966,  -430,     1,  -383, // 672
      -131,    94,  -305,  -186,  -168,  -852,  -733, -3004,    119,   133,   -49, -1691,  -364,    46,   -20,  -570,    -168, -1144,   122, -1677,  -378, -1833,   -58,  -231,   -248, -2075,  -236,   416,   -47,  -110,  -219,  -221, // 704
    
    // Out channel 11
      -572,   -17,   216,  -658,  -667,    53,  -521,   -70,   -931,    60,    83,  -400,  -409, -1646,  -757,    72,    -246, -1125,   -25,   137,  -324,  -327, -2214,  -209,  -1149,     2, -1775,   -48,  -400,  -480,  -317, -1570, // 736
     -1965,  -191,  -397,  -777,  -178,   -53,  -434,  -254,   -836,  -242,  -639,   -80,   -77,   -66, -2427,    -4,      81,  -260,    79,  -360, -2178,  -314,  -611,  -651,   -647,  -325, -1382,  -619,     9, -1023,   -66,  -316, // 768
    
    // Out channel 12
      -437,   275,   224,     6,  -133,   -10,   115,   -37,    -87,   -76,   202,  -248,  -291,  -145,   604,   131,    -989,  -175,   502,   -22,  -836,  -194,   -99,    96,   -219,   -33,   120,  -377,    31,  -211,   -23,   259, // 800
       -32,   418,  -122,  -186,   -39,  -215,   -40, -1144,     -3,   199,   -36,  -743,  -293,    88,   -10,   482,     -17,   441,   -74,   -49,   173,  -277,    68,    56,    -45,   140,   141,  -559,    54,  -252,   921,  -552, // 832
    
    // Out channel 13
       -57, -4118,  -249, -1324,   -99,   -46,   296,    38,    191,   107,   449,    -3,    62,  -125,    41,    56,    -840,  -211, -1054,    78,  -644,  -980, -1404,    83,    242,  -690,  -518,  -953,   -70,   -17, -1298, -1284, // 864
      -845,  -614,   -61,   -56, -1250,  -682,  -957,  -827,     53, -1094,  -312,  -809,   -99,  -114,    23, -1106,     -89,  -506,   276,  -526,  -859,  -410,   811,  -128,  -2351,  -660, -1121,   -62,   -26,   318,  -188,  -376, // 896
    
    // Out channel 14
         4,    -6,   158,   -50,   -17,   -32,     5,  -384,    164,   -12,    66,     7,    11,   347,   155,  -156,   -1959,   538,  -133,   -51, -2698,  -113,   -68,   109,     63,  -334,    78,  -224,    -4,    -4,   405,   445, // 928
       328,   -78,   345,    18,   213,  -593,  -749, -3169,    113,  -642,   -13, -2544,  -580,    23,   181,  -247,      -8,   -97,  -689,  -204,     2,  -467,   254,    35,   -188,  -199,   360, -1036,    34,   158,  -223,   -48, // 960
    
    // Out channel 15
      -884,   -19,  -455,  -360,  -824,    95,  -467,   157,   -638,    34,   -80,  -265,  -588, -1462,  -231,    68,      17,  -869,  -173,   -90,     7,   300,  -845,  -549,    581,    -3, -2769,     6, -1319,  -638,  -583, -2796, // 992
     -2938,  -564,  -549,  -306,  -302,   -20,    -8,    45,   -582,    60,   -22,   138,   315,  -241,  -754,  -900,     -61,    44,   127,     7, -2738,     8, -1190,  -228,      0,     5, -2629,   431,   -40,  -519,    34,  -259, // 1024
    
    // Out channel 16
     -1624, -1879,  -703, -1227, -1858,   -21,  -837,  -271,  -1114,   -58,  -946,  -143, -1163,   179,  -355,  -398,    -472,  -276,  -656,   -11,  -459,  -741,  -697,  -380,   -337,  -291, -2687,  -349, -1334, -1372,  -201, -1751, // 1056
      -144,  -149,   308, -1033,   156,  -254,  -351,  -443,    401,  -217, -1493,  -250,  -232,    -5,   -58,  -313,    -119,  -471,  -179,  -464,  -271,  -287,  -244, -1080,   -653,  -371,  -159,   105,   -38, -1226,  -265, -1274, // 1088
    
    // Out channel 17
       277,  -604,  -452,  -227,  -150,    -3,  -204,   169,    -11,    91,  -153,   -95,  -539,  -246,  -384,   -82,     -38,  -127,  -221,   -29,   -56,   163,  -249,    60,    -57,    17,  -100,    93,   235,  -210,   -19,  -142, // 1120
      -212,   330,   -81,  -409,  -100,   -99,   -19,   -86,    -52,   -81,   254,   -99,  -141,   -12,  -286,  -170,      37,  -147,   110,  -155,  -196,   -67,   -62,   145,   -569,  -229,  -114,    90,   -17,  -139,    51,  -112, // 1152
    
    // Out channel 18
      -354,  -540,  -106,   123,  -384,  -111,  -269,    43,   -388,    88,  -408,  -527,  -557, -1140,   -86,   -18,    -301,   318,     0,    16,  -402,   136,  -392,    11,   -447,  -114, -2273,   -89,  -460,  -775,   -68, -2411, // 1184
     -3185,   -60,  -914,  -279,   -66,  -287,  -242,  -304,   -499,   -98,  -247,  -215,  -344,   -12,  -132,    66,       7,  -227,     3,  -422, -2576,  -110,  -136,  -209,   -409,  -515, -2267, -1075,    36,  -404,  -223,  -485, // 1216
    
    // Out channel 19
      -492,  -724,  -193,  -478,  -711,   -38,   224,  -253,   -238,  -101,  -476,  -194,  -441,   -78,  -340,  -150,    -314,    87,  -402,    50,  -158,  -130,   121,  -127,    148,   -14,  -745,  -157,  -519,  -741,   -90,  -535, // 1248
      -906,  -140,  -233,  -439,     5,  -126,  -220,  -276,     16,  -142,  -435,  -275,   -51,    -1,  -746,  -234,      53,  -179,    17,  -303,  -929,  -169,   -63,  -470,   -293,  -260,  -868,  -199,     9,  -527,   -79,  -470, // 1280
    
    // Out channel 20
      -464,  -307,   -33,  -186,  -336,    61,  -186,    81,   -119,   -62,  -306,   -61,  -185,  -159,   -72,     1,    -174,   -94,  -255,    64,  -315,    39,   -34,    -8,     -3,   -27,  -175,  -187,  -371,  -247,     5,  -231, // 1312
        65,   115,  -150,  -248,   -13,  -148,  -309,   -79,    -98,    15,  -160,   -65,    -6,  -169,  -119,  -128,     -69,  -318,   -58,  -276,  -109,  -249,  -115,  -155,   -340,  -144,  -213,   -23,    19,  -110,    20,  -329, // 1344
    
    // Out channel 21
       -79,  -289,    45,  -147,    10,   129,  -258,  -434,   -172,     0,   222,   210,    98,   107,    39,  -395,    -209,     6,  -119,   -30,  -120,  -234,   127,   189,    213,  -195,  -115,  -212,    -3,   238,   570,  -180, // 1376
        -6,  -247,   608,    98,   208,  -133,   -87,  -115,    466,  -688,  -108,  -309,   103,   113,   -91,    87,      31,  -175,  -738,   -83,   -95,  -106,   741,    84,   -160,   -39,   125,   -96,  -113,   -18,  -459,  -357, // 1408
    
    // Out channel 22
      -120,   153,  -330,   -64,   395,   -98,    64,   -31,    -66,   -58,  -150,   -26,  -258,  -149,   -67,    61,    -163,   111,   217,  -127,  -173,    17,  -420,    77,   -137,  -242,  -134,  -532,   -34,    58,   -58,   -54, // 1440
        -8,    94,   -86,  -459,   -77,   -94,  -125,   -32,     -4,   -91,    -8,  -126,     5,  -162,    96,  -280,     -85,  -537,   -22,  -294,    23,  -171,   -45,  -185,    314,  -447,   -58,   -92,   127,  -124,   124,  -577, // 1472
    
    // Out channel 23
     -1087, -1462,   -62,  -627,  -900,    43,  -835,  -177,   -617,     4,  -268,  -706,  -352,   546,   554,  -655,   -1206,  1336,  -744,   -25, -1676,   -33,   342,   -80,   2014,   -22,   587,   -50, -1061,  -568,   -39,   177, // 1504
       404,   358,   328,  -789,  -108,  -585, -1641,  -537,    131,  -726,  -732,  -230,  -748,    55,   220,   231,     -92, -1902,   -74, -2278,   511, -2027,  -139,  -448,  -2389, -2064,   536,  -216,    97,  -435,  -333,  -448, // 1536
    
    // Out channel 24
     -1955, -1191, -1040,  -938,  -492,    62,  -869,   287,    541,    17, -2176,  -343, -1983,     9,  -561,   -64,    -982,  -615,  -369,   -67, -1221,  -333,     1,  -899,   -568,  -422,  -270,  -506, -1818, -1539,  -202,    -8, // 1568
      -191,  -272,    14, -2183,  -251,  -728,  -440,  -980,    258,  -442,  -670,  -581,    52,    81,  -297,  -506,    -152,  -899,    31, -1193,  -206, -1010,  -353, -2642,  -1893, -1653,  -236,   343,   131,  -824,  -498, -2325, // 1600
    
    // Out channel 25
      -674,  -315,   245,  -384,  -376,   -69,   133,    66,   -102,   -56,   253,   207,  -277,    19,  -158,   496,    -229,  -215,  -238,   100,  -266,   -53,   -17,   178,    -99,   -75,  -288,   -55,  -627,  -196,    94,  -149, // 1632
      -400,  -176,  -167,  -241,   -84,   -38,  -140,  -122,   -361,  -105,  -464,   -63,  -166,   -25,  -177,  -223,    -126,  -214,    -2,  -302,  -440,  -260,   207,  -425,   -388,  -270,  -132,  -101,   127,  -347,    49,  -334, // 1664
    
    // Out channel 26
      -506,    94,   128,  -100,  -579,   144,   -87,    84,    -90,    61,   640,  -489,  -511,    44,  -239,  -545,    -227,  -244,  -246,   -51,  -203,   153,  -285,   436,    304,  -530,   328,    61,  -768,  -611,   176,  -448, // 1696
      -183,   -36,  -156,  -158,   429,  -477,  -417,  -178,    -12,   -38,   240,  -134,   146,  -243,   107,  -153,    -200,  -619,   399,  -610,  -105,  -140,   280,  -389,    -38,  -350,  -851,   217,   -80,   112,  -116,   146, // 1728
    
    // Out channel 27
     -2449,  -983,  -535,  -909, -1339,  -121,  -846,   118,  -1180,   -81, -1327, -1986, -1930,  -536,  -529,   220,   -1359,  -921,  -706,   123, -1426,  -417,  -241, -1086,  -1341,  -370,  -349,  -196, -2108, -1631,  -428,  -188, // 1760
      -271,  -199,  -948, -1518,  -256,  -667,  -773, -1250,   -819,  -210, -1085,  -467,   -21,   -88,  -161,  -542,    -137,  -660,    99, -1073,  -354,  -894,  -261, -1726,  -1489, -1324,  -365,    61,   -36,  -533,  -351, -2259, // 1792
    
    // Out channel 28
     -1492, -1422,  -560, -1409,  -655,    72,  -427, -1103,  -2056,    83,    79,  -325, -2119, -2187,  -926,  -151,     -38,  -963, -1619,    35,   -28,  -454, -1483,  -313,  -1039,     1, -3469, -1615, -1561, -1581,  -515, -3668, // 1824
     -3760,  -472, -1069,  -774,  -343,     9,   -13,   -80,  -1807,   -87, -1297,  -169,  -506,  -453, -1121, -2567,      49,  -115,    64,    -1, -3768,   -13, -1167,  -961,    -13,     4, -3405,  -757,    59, -1076,   -81,  -955, // 1856
    
    // Out channel 29
     -1901, -1331, -1047, -1023,  -688,    42,  -670,  -159,   -627,    41, -1110,  -743, -1421,  -308,  -668,  -296,    -286,  -304,  -505,    62,  -414,  -333,  -108,  -478,   -232,  -132,  -191,  -331, -1876, -1832,  -214,  -172, // 1888
      -500,   164,  -902, -1344,  -323,  -306,  -474,  -137,  -1017,  -209, -1575,   -38,  -123,  -142,  -960,  -417,    -161,  -345,    14,  -621,  -375,  -423,   -57, -1162,  -1105,  -496,  -185,    39,   -64,  -330,  -261, -1668, // 1920
    
    // Out channel 30
      -184,     0,   -37,  -126,  -196,   -71,   -42,  -100,   -113,   -40,    45,   -17,  -233,   -22,    46,   -29,     -82,    -5,     5,   -40,  -205,    76,    15,    37,     90,   -16,    41,    -8,  -101,    22,   168,   -96, // 1952
       -25,   -51,   -29,  -215,   -43,    25,  -121,   -51,   -167,    92,  -245,   -21,  -271,    -9,   -80,   -60,     -12,  -260,   -17,    13,   -51,  -111,  -182,  -255,    -98,  -117,    50,    36,    89,     6,   -25,  -183, // 1984
    
    // Out channel 31
      -616, -1635,    94,  -939,  -865,   -70,  -668,    27,   -945,    18,   -70,  -102,  -511, -1941,  -290,     8,    -417,  -888,   -42,   -19,  -544,   102,  -566,   -47,   -873,   -54, -2148,  -189,  -603,  -270,  -178, -1938, // 2016
     -2831,   314,  -550,  -299,  -151,  -174,  -245,  -481,   -867,  -133,  -225,  -329,  -278,   -54,  -380,  -852,       2,   -87,   134,  -199, -2551,   -65,  -325,  -432,   -153,   -65, -1963,  -818,   -88,  -917,  -406,  -491, // 2048
    
    
};

const int16_t cg_FC3bias[32] = { // Co,H,W,Ci: (32,)
     -3083,  -783,   368,   700,  -655,   906, -1175,  2573,  -3306,  -319,  3028,   482, -1048,   705,  3934,  3867,     317, -3865,   521,    57,  -558, -4310, -4184, -3163,    444, -2190, -1400,  2103,  3101,  -403,  -544,   869, // 32
    
};

const int16_t cg_FC4weit[32] = { // Co,H,W,Ci: (1, 32)
    // Out channel 0
      -367,  1299,   657, -6408,  1386,   4395,   393, -3218, -1445,   541,   -1731,  4316,  -749,  -522, -2573,   1160, -1028,  -378,  1436,  -128, // 20
      2233,  1086, -1113,   955,  -391,    645,  -538, -1579,   715,   -27,     895,  2374,
    
};

const int16_t cg_FC4bias[1] = { // Co,H,W,Ci: (1,)
      4868,
};

