#include <stdint.h>
const int16_t cg_FC1weit[768] = { // Co,H,W,Ci: (96, 8)
    // Out channel 0
       366,     2,    54,   257,    53,   236,  -256,  -177, 
    // Out channel 1
       422, -1387,  -748,   391,   359,   390,  -113,  -831, 
    // Out channel 2
       187,  -361,  -466,    72,   -56,   118,   275,  -211, 
    // Out channel 3
        37,     9,   -20,   -45,    18,   -41,   -56,    35, 
    // Out channel 4
       267,  -435,  -371,   261,   551,    25, -3641,  -149, 
    // Out channel 5
         6,   -24,   -29,    20,   -51,   -50,    -7,   -19, 
    // Out channel 6
      -419,  -784,   332,    35,   152,   415,  -203,    80, 
    // Out channel 7
       140,   996,  -520,    78,   537,    33, -1404,  -441, 
    // Out channel 8
      -444,  -425,   596,    -4,  -309,    41,  -446,   265, 
    // Out channel 9
       -11,   -22,    -7,   -59,    52,    28,   -30,   -38, 
    // Out channel 10
       -79,   -55,   -21,   -75,    24,   -18,   -12,    22, 
    // Out channel 11
       178,    69,   -51,  -307,   362,   444,  -240,  -522, 
    // Out channel 12
       369,  -462, -1167,   357,   568,   244,  -731,  -468, 
    // Out channel 13
       733,  -929, -1195,   360,   221,   110,  -499,  -285, 
    // Out channel 14
      -177,   178,  -236,  -462,   513,   420,  -410,   143, 
    // Out channel 15
        45,   -25,   -67,   -54,     7,   -15,     3,    34, 
    // Out channel 16
       639, -1352,  -730,   156,  -191,   323,   679,   -48, 
    // Out channel 17
        54,  -160,   341,  -631,  -801,  -446,   227,   423, 
    // Out channel 18
      -777, -2560,   306,   638,   244,  -714,  -835,   358, 
    // Out channel 19
      -280,  -148,   415,   152,  -425,    46,   -50,   344, 
    // Out channel 20
      -137, -2082,   356,   324,  -374,   410,   424,    21, 
    // Out channel 21
        10,   -36,   -43,    48,   -36,    17,   -11,   -42, 
    // Out channel 22
      -589,   628,   -29,   689,   574,  -267,    35,  -415, 
    // Out channel 23
      -430,   -72,   593,   -88,    98,   678,  -162,  -414, 
    // Out channel 24
       416,  -659,  -751,   609,   524,  -104,  -387,  -442, 
    // Out channel 25
      -182,  -318,   152,  -361,    26,  -427,   236,   560, 
    // Out channel 26
       623,  -688, -1061,   434,   -15,  -181,    75,   170, 
    // Out channel 27
       647,  -932,  -677,  -167,   232,   281,   -41,  -280, 
    // Out channel 28
       137,    80,     7,  -214,   173,   566,  -341,  -468, 
    // Out channel 29
       -27,     7,   -30,    14,   -48,     2,   -55,   -36, 
    // Out channel 30
       310,  -754,  -215,  -438,  -325,   464,   533,   268, 
    // Out channel 31
      -230,  -275,   103,   224,   804,  -115,   403,   141, 
    // Out channel 32
       334,  -323,  -137,   285,  -453,  -184,   496,  -518, 
    // Out channel 33
        41,   593,  -213,  -638,  -258,   234,  -342,    71, 
    // Out channel 34
      -147,   -33,   142,   -90,    83,   122,   -94,   -31, 
    // Out channel 35
      -217,    39,   397,   -36,   286,   616,   -66,  -463, 
    // Out channel 36
      -291,  -803,   430,   214,   -46,  -759,   432,   -60, 
    // Out channel 37
      -348, -3225,  -106,   765,   -64,  -446,   892,   187, 
    // Out channel 38
      -519,   750,   389,  -385,   497,    29,  -889,     3, 
    // Out channel 39
       149,  -405,  -299,  -271,    22,   248,   271,   166, 
    // Out channel 40
       308,   248,  -426,   149,  -118,  -206, -1119,  -986, 
    // Out channel 41
        18,   -18,    -9,   -53,   -49,   -59,     8,   -28, 
    // Out channel 42
       443,  -493,   274,   -17,  -494,    -3,   325,   132, 
    // Out channel 43
       369,  -628,    98,  -371,  -212,   572,  -662,   126, 
    // Out channel 44
       170,   128,   169,   100,   271,   268,   118,    26, 
    // Out channel 45
       -46,    38,   -38,   -59,    18,    51,   -35,   -44, 
    // Out channel 46
       341,   852,  -863,   222,   467,   -75, -1589,  -216, 
    // Out channel 47
     -1198,    38, -1350,   254,   421,   -81,  -454,   284, 
    // Out channel 48
      -478,  -663,   262,   265,   351,   448,   766,  -400, 
    // Out channel 49
       218,   -29,  -309,   681,   135,  -216,   272,  -315, 
    // Out channel 50
       530,   260, -1203,   348,   379,   -71, -1232,  -131, 
    // Out channel 51
      -290,  -523,   509,  -182,    -6,  -223, -2290,   303, 
    // Out channel 52
        -6,   -16,   -30,    37,    -9,     9,   -22,   -56, 
    // Out channel 53
       108,   471,    75,  -785,  -686,   126,   187,   195, 
    // Out channel 54
       -34,   -41,   -20,    20,    -5,     1,   -50,    -9, 
    // Out channel 55
       -70,   -96,   -13,   -24,    35,   -73,    37,   -23, 
    // Out channel 56
      -342,   371,    63,  -466,   430,   172,    16,   343, 
    // Out channel 57
      -283, -1063,    14,   529,   -51,  -359,   759,    -1, 
    // Out channel 58
       278,   121,  -411,   222,  -191,   335,   240,   -72, 
    // Out channel 59
      -144,  -157,   329,  -440,   224,   614,  -318,  -488, 
    // Out channel 60
      -123,   585,   197,   703,    24,    59,  -333,  -724, 
    // Out channel 61
       -53,    -6,  -114,    10,    59,    47,  -494,   -25, 
    // Out channel 62
      -345,  -306,   467,    48,  -287,   109,   119,   158, 
    // Out channel 63
       -60,   -28,   -52,   -22,    58,   -14,     9,   -58, 
    // Out channel 64
      -389,  -176,   425,   121,   279,   511,   252,  -503, 
    // Out channel 65
       401,  -304,  -529,   617,   335,    21,   311,  -173, 
    // Out channel 66
      -539,   314,   499,    22,   523,   494,  -324,  -536, 
    // Out channel 67
       317, -2946,  -279,   455,   -25,  -390,   161,    57, 
    // Out channel 68
       -47,   -48,    35,   -24,   -11,    -9,   -26,   -58, 
    // Out channel 69
       -50,    53,   -40,    31,   -43,   -22,     5,   -37, 
    // Out channel 70
       -29,   -21,   -47,   -42,    59,    17,   -42,   -46, 
    // Out channel 71
       -24,  -229,    62,    36,   -16,   -51,   -26,   -20, 
    // Out channel 72
         7,   -51,   -21,    16,    35,   -40,     5,   -57, 
    // Out channel 73
        20,   -77,    11,    13,   -87,  -105,   -30,   -83, 
    // Out channel 74
       351,   208,     6,   351,  -432,   257,   166,  -262, 
    // Out channel 75
       -31,     5,    31,   -24,    26,   -34,   -15,   -31, 
    // Out channel 76
         5,   -45,   -61,   -35,   -26,   -41,    23,     6, 
    // Out channel 77
     -1192, -1245,  1408,  -692,   141,  -537, -1124,   404, 
    // Out channel 78
      -179,    82,   554,   302,  -343,  -192,  -551,   140, 
    // Out channel 79
      -137,   500,   114,   555,   331,   137,  -324,  -455, 
    // Out channel 80
      -157,   823,  -148,   145,   449,  -348, -4322,   421, 
    // Out channel 81
       -20,  -105,   -67,   -25,    16,   -27,    77,    28, 
    // Out channel 82
      -738,  -809,   326,   515,   279,  -645,   134,   221, 
    // Out channel 83
       -35,    14,   -64,    28,   -61,    35,    -1,   -39, 
    // Out channel 84
       -18,  -269,   545,    64,    -6,  -211,  -637,   407, 
    // Out channel 85
       171,    82,   -61,    72,   -99,   -36,    13,  -125, 
    // Out channel 86
       305,  -400,   -95,  -159,     7,   470, -1124,  -310, 
    // Out channel 87
      -252, -1624,   492,  -138,   147,   353, -1679,   -90, 
    // Out channel 88
        11,   -26,    19,   -34,    54,   -64,   -46,   -35, 
    // Out channel 89
       328, -1044,  -116,   213,   -32,  -237,   766,  -890, 
    // Out channel 90
       -22,   261,  -448,   263,    11,  -415,   106,    15, 
    // Out channel 91
      -237,   128,   -18,   168,   685,   169,    33,   -57, 
    // Out channel 92
       -62,    23,    25,   -34,    12,   -42,    31,   -53, 
    // Out channel 93
      -686, -1891,   304,   627,   138,  -859,  -350,   415, 
    // Out channel 94
         6,  -955,  -350,   493,    24,   -83,  1256,  -414, 
    // Out channel 95
       341,  -456,   -54,    92,  -219,   133,  -588,  -729, 
    
};

const int16_t cg_FC1bias[96] = { // Co,H,W,Ci: (96,)
     -5544,   235,  1341,  -261, -2191,     0, -2702,   288,   -348,   -41,  -173,   -34,   299,   199, -4966,  -276,    -714,    58,   424, -1097, -3036,   -41,   264, -2226,  -1548,   -40,   -42,   172,  -547,     0, -3001, -5559, // 32
      -267,   314, -1679, -3349,    24,    72,   -18, -1112,    170,   -41, -6905, -3602, -7660,  -194,   223,   274,   -2581, -1567,   176,   216,     0,   148,     0,   -58,  -4582,   283, -2276,    98, -3187,  -216,  -438,   -41, // 64
     -2944, -4295, -1984,  -129,     0,  -110,     0,  -500,      0,  -216, -4755,   -93,   -41,   209, -2461, -3468,   -1664,  -343,   148,   -70, -6074, -2676,  -213, -1806,   -174,  -341,  2433, -5781,  -152,   352,  1901,   -31, // 96
    
};

const int16_t cg_FC2weit[6144] = { // Co,H,W,Ci: (64, 96)
    // Out channel 0
        41,  -150,  -731,   -57, -1374,   -55,    12,  -804,     75,   -61,   -13, -1264,  -733, -1347, -1269,    14,    -120,   232,   -29,    90,    77,   -30,  -251,  -130,   -802,  -152,    21,  -743, -1055,     3,  -570,  -148, // 32
     -1002,   -48,   -56,  -286,  -263,   656,  -155,  -413,   -402,    27,  -327,   550,   -17,   -70,  -618,   901,    -685,  -883,  -862,   -56,   -89,   155,    65,    52,  -1181,  -308,  -233,  -426,   620,   -94,    35,    57, // 64
      -359,  -297,    59,  -226,     9,    51,   -41,    57,    -89,   -35,   117,   -32,   -61,  -570,    96,   130,   -1020,   -36,    78,    60,   200,    43,   -51,    53,    -41,  -652,  -514,  -120,    69,   451,  -994, -1168, // 96
    
    // Out channel 1
       -48,    87,   -32,   -34,    59,   -13,  -116,    74,    -22,    93,   -54,   -47,    34,   -88,  -122,   -45,      -2,  -157,    19,    32,   -18,  -100,   -22,   -57,     81,   -89,   -62,   -47,   -75,    -8,   -75,   -14, // 128
       -12,    40,    52,   -34,   -58,  -113,   -29,   -43,     15,   -76,    21,    71,   -12,    69,   -26,   -81,      40,    -9,   -37,   -55,    -5,   -12,    26,   -23,    -90,  -114,   -87,   -96,    11,    11,   -95,   -63, // 160
        52,    -5,     5,    29,   -85,     4,   -43,   -84,     99,     5,   -10,   -46,    26,   -45,   -43,   -68,     -12,    62,   -91,     5,    30,    -3,    31,    82,     49,   -93,    26,   -77,     5,   -61,   -93,     8, // 192
    
    // Out channel 2
       621,    91,   174,   -55,   404,    54,  -601,    22,  -1595,   -41,   -79,   -39,   119,   142,  -134,    29,    -454,  -104,  -270,  -870,  -630,   -43,    29,   -90,    206, -1009,    66,   -71,   -32,   -61,     1,  -733, // 224
       -12,    35,   -83,  -116,  -460, -1308,     4,   296,    -82,   -53, -1359, -1530, -1121,   -35,    74,    69,   -1249,  -111,     3, -2125,    47,    81,   -65,  -121,     23,  -196,   -15,    16,  -512,    24, -1667,   -57, // 256
      -429,   290,   173,  -229,   -82,   -30,    49,   -59,     14,    -4,  -100,   -84,   -65, -2127, -1062,  -125,       7,    28,  -918,     8,  -451,  -190,     8, -1653,     14,   604,    55,  -609,   -59,  -633,   -32,    -4, // 288
    
    // Out channel 3
      -546,  -291,    58,   -61, -1446,    20,   166, -1183,    -92,   -15,    86, -2558, -1017, -1664,  -686,    68,    -376,   173,   964,    23,   390,   -63,    19,  -219,   -476,   -17,   115, -1621, -2046,   -71, -1717,    -6, // 320
        25,  -296,   -26,  -354,    29,     5,  -377,  -137,   -158,    53,    61,  -574,  -399,    55, -1471,   113,      53,  -119, -1892,  -314,    36,   220,    36,    16,   -717,    35,  -323, -1619,  -443,  -129,    26,    25, // 352
        38,  -925,  -117,   271,    57,   -64,   -50,    67,    -34,   -26,  -294,   -70,    45,    95,   -50,  -420,   -1955,  -149,   -13,    72,  -103,   -47, -1395,   242,    -39,   -21,    87,   124,   -48,  -746,     5,  -811, // 384
    
    // Out channel 4
      -186,   -38,  -282,    92,  -663,   -46,   162,  -516,    106,   -89,   -24,  -316, -1449, -2013, -1489,   -69,      98,   -73,    20,   -48,  -358,    61,  -431,  -696,   -627,    32, -2008, -1559, -1130,   -67, -1699,   130, // 416
     -1181,  -219,   -26,  -991,   224,  -470,   217,  -176,    186,   -75,  -569,  -829,   651,    61,  -970, -1967,    -956, -1260, -1486,    72,   -40,    98,   -79,    47,   -658,  -184,   -86,   -52,   -48,     8,   -34,   -78, // 448
     -1428,  -583,  -563,  -645,    48,   -49,    14,    16,      9,    59,  -604,    59,   -31,  1399,   154,  -181,     301,    53,   607,     5,  -212,   -40,  -445,    18,      5,  -210, -1071,    53,    -8,   738,  -423,  -549, // 480
    
    // Out channel 5
      -818,  -190,    -1,    59, -1643,   -83,    84,  -455,   -105,   -37,    40,  -724, -1118, -2603,  -520,    11,     -22,   229,   705,    30,   366,   -82,   -85,  -301,   -621,    -9,  -833, -1846, -1317,   -74,  -568,   258, // 512
       -57,   -55,   -85,  -213,   182,   -18,  -990,  -274,    596,    63,  -178,  -784,  -877,    28, -1011, -2227,    -205,  -414, -1420,   -23,    15,    10,    55,   -98,   -762,    15,  -116,  -434,  -338,   -89,   -11,   102, // 544
        53,  -912,  -264,   -69,    36,   -30,   -15,    25,     23,    -8,  -314,    36,   -79,  2755,  -120,  -325,   -1540,   -14,   -13,    87,    47,   -71,  -857,    23,    -92,    33,     4,  -375,   124,   473,    18,  -657, // 576
    
    // Out channel 6
       270,   562,  -541,   -19,   -28,   -35, -2373,   -85,   -246,    80,   -71,    63,  -740,   729,  -234,    24,    -281,  -819,  -610,  -339,  -792,   -39,    -2, -2373,   -814,    -6,   260,   585,   100,    -1,   240, -2203, // 608
     -3137,  -465,  -251,  -487,  -192,  -107,   261,    33,  -1224,    25,  -754,  -844,   114,    28,   -15,  -641,   -1303,    50,   -76,    -9,   -26,  -121,   -88,     5,     90,  -128,   143,  -615,  -203,    88,  -148,   -41, // 640
     -1142,   409, -1577,   459,    93,    77,   -81,   -27,    -79,    -8,    13,    44,    85,   734, -1172,    49,   -2283,   -65,  1349,    78, -1905,   100,   -79,    53,    -74, -1401,  -211,  -317,  -118,  -580,  -193, -2094, // 672
    
    // Out channel 7
     -1540,   119,  -172,    64,   533,   -69,   -58,  -947,   -365,    59,   -11,   498,   648,   838,   834,   -26,      -2, -1158,  -316,  -210,  -566,    -1,  -470,   296,   -286,    59,   120,    44,   328,    38,   343,   264, // 704
     -1020,  -105,   116,   386,  -232,  1165,    24,   295,    110,    44,   -34,   -84,  -345,    59,  -208, -1361,     280, -1827,   -43,    86,    43, -1897,   -71,   -97,    622,   113,   -19,   238,   -33,  -289,   -73,    54, // 736
       109,  -515,   260, -2217,   -34,   -65,    31,  -203,     21,    41, -1653,    25,    89,  -407,  -597, -2343,     238,   -63,   109,    87,   -91,  -144,   -73,    20,     23,  -633,  -170,   348,   -14, -1964,    50,   143, // 768
    
    // Out channel 8
       -79,   336, -2149,   -65,  -161,     8,  -133,  -654,      6,   -64,    57,  -514, -2822, -1499,  -465,    33,   -2458,  -559,  1046,   406,    98,   -92,   107,  -196,   -388,   175, -4628, -1310,  -758,   -59, -1613,   129, // 800
     -1103,  -446,   178,  -220,   579,  -366,    29,  -917,   -358,    91,  -732,  -262,    -2,   -57,  -999, -1442,     183, -1088, -1625,   258,    70,   197,   -55,   112,    182,  -131,  -309,    97, -1397,   129,   194,   -95, // 832
       203,  -194,   -38,  -461,   -67,    -1,    84,  -123,    -11,   -17, -1552,    83,   -41, -1116,  -193,  -556,    1086,    65,   142,    36,  -294,  -134,  -175,   154,     44,  -777, -1013,  1446,    76,   776,   -75,     2, // 864
    
    // Out channel 9
       313,   193,   -17,    92,  1031,   -19, -1773,   -50,  -1964,   -98,    23,    24,   395,   -64,   105,    46,      48,  -862,   281, -1821,  -350,    62,  -328,  -624,   1006,  -924,   294,   240,    33,    89,   126, -1031, // 896
      -171,   595,   -82,  -471, -1261, -1171,  -492,   142,  -1828,    45,  -505,  -576, -1164,    19,   -64,    78,    -253,   250,   421, -1442,   -15,  -454,    24,   -76,    156,   -83,   -18,  -581,  -817,    95, -1280,   -11, // 928
      -829,   125,     4,    76,    23,   -43,   -81,   -32,    -39,   -15,   118,   -93,  -100, -1718,  -734,   330,   -2280,   -62,  -464,    64, -1206,    30,     3, -1038,    -39,  -485,  -373,  -954,    78,  -249,   385,   -38, // 960
    
    // Out channel 10
      -291,   765,  -390,    26,  -295,   -40, -1104,    37,    486,    78,    -5,   102,  -517,  -201,  -498,    79,    -600,   -25,  -163,  -254,  -251,   -59,   142,  -353,    525,  -847,   152,  -335,    70,   -32,  1638, -1469, // 992
      -235,  -163,  -315,  -158,   360,  -562,  -170,    42,  -1984,   -72,   584, -1618,   226,    12,    43,  -416,   -1161,   417,    47, -1090,   -95,  -439,    66,   -68,  -1187,  -400,    19, -2492,   243,  -144,  -229,    16, // 1024
      -748,   -56, -1062,  -249,    79,    28,    54,   -15,     78,    12,    58,    17,    25,    19,  -125,   198,    -862,   -86,  -471,   -65,   497,   269,   560,  -745,     85,  -538,    35,  -136,   -88,   -65,  -455,  -402, // 1056
    
    // Out channel 11
        97,  -283,  -737,    81,   -17,     4,  -209, -1528,    133,   -70,   -18,   171,  -946, -1879,   488,   -34,    -269, -1077,   -82,   165,   -63,   -46,  -227,  -203,  -1122,   213,  -430,   -16,    86,   -50,   788,   366, // 1088
     -1507, -1616,     3,  -453,  -462,  -397,   481,  -449,    -44,   -62,  -302,   123, -1133,   -30, -2128,  -426,   -1116,  -193, -2457,   179,    77, -1176,   -58,  -110,    774,  -161, -1140,   315,  -335,    -8,   -45,    95, // 1120
      -724,  -255,    44,   295,   -53,    24,    -5,   114,    -83,   -74,  -340,     6,    79, -4282,    71,   132,     355,    13,   -85,    16,   111,    89,    87,    90,     41, -1384,  -741, -1779,   -54,  -225,  -334,  -228, // 1152
    
    // Out channel 12
        52,   -73, -3397,   -36,   787,   -61,   305,  -287,   -895,    94,   -20,    18,  -253,  -326,  -408,   -17,    -114,   258,  -715,  -303, -1778,    98,   -11,   143,    -44,  -795,  -302,  -101,    90,    38,   596,   119, // 1184
      -825, -2794,   -21,    17,  -205,  -187,   251,  -200,  -1138,    60, -1032,  -216,     5,   -50,   -21,  -343,    -184,   499,  -105,  -946,    40,  -573,   -39,   -78,   -241,  -274,   -28,  -133,   107,   213, -1330,    76, // 1216
       126,    30,    76,  -984,    88,   -75,    13,  -102,    -51,  -100,   321,    48,    91,   -15,  -829,    16,     831,   -35,  -485,    96,   -12,   -35,   -82, -1050,    -37,  -442, -1352,   103,    76,  -106,  -527,  -386, // 1248
    
    // Out channel 13
     -1383,   203,   -91,   -59,   810,    33,  -868,   -45,  -2462,   -39,     1,    34,   512,  -203,   200,   -39,     172,   -41,  -938, -1594,  -578,    50,    13,  -965,   1144, -1630,   -15,    26,     1,    66,   220,  -713, // 1280
        83,   -33,  -140, -1147,  -659, -1569,   -63,   171,    -74,    24, -1200,  -665, -1616,    37,   -15,   -95,      14,   286,   -90, -3785,   -55,   -42,   -90,   -32,    406,  -466,   -20,  -387,  -628,    75, -1972,    24, // 1312
      -717,  -163,  -260,  -207,   -43,   -52,    72,   -96,      8,   -11,  -418,    -2,   -22, -2470, -1515,  -422,      56,   -59, -1460,  -108,  -309,  -109,   -54, -3213,     65,     9,   410,  -430,    22, -1246,    -8,   -12, // 1344
    
    // Out channel 14
        65,  -110,   -22,   -60,   234,   -45,  -899,   -70,   -307,   -91,    -6,    97,    75,  -200,  -968,    44,      57,  -375,  -288,  -443,  -465,   -68,  -138,  -395,   -245,  -899,   102,   152,   120,   -66,   749,  -213, // 1376
       -71,  -554,  -180,   -41,  -136,  -696,  -554,   141,  -1409,   -43,  -139,  -339,  -266,   -47,   -14, -1015,    -184,  -119,   -15,    97,    70, -1869,    50,   -32,   -865,  -623,    10,  -102,   -40,  -116,  -282,    30, // 1408
      -466,   106,  -334,     5,   -69,   -36,    85,   110,     19,   162,   216,   -28,   -96,  -151,  -177,   -48,   -1342,   -24, -2436,    35, -1608,     4,   137,    86,    -64,   253,   -25,  -628,   -75, -2272,  -121,     8, // 1440
    
    // Out channel 15
        97,   281,   248,    42,   -52,   -41,    76,   -23,   -602,   -35,   -98,    60,   122,   826,   308,   -15,      38,  -606,   184,  -308,  -147,   -91,    35,   -80,   1293,  -439,   132,   -65,    30,    21,   -30,  -368, // 1472
      -320,   -11,    21,  -187,  -884,  -810,   104,    41,   -532,   -50,  -512,    35,  -838,   -47,    46,    70,    -216,   294,    66,  -861,   -16,   183,    94,   -16,    148,   -14,    49,    98,   183,   149,  -235,   -57, // 1504
      -574,   -59,   -46,   243,   -27,    40,    21,   -53,     56,   -20,   -58,   -25,   -93, -1520,  -254,   192,      10,    39,  -264,    75, -1465,   109,   -23,  -262,     27,  -555,    14, -1147,   -93,    -2,    19,  -206, // 1536
    
    // Out channel 16
       254,  -536,    82,   -72,   566,    17,    52,  -161,   -701,   -39,    38,    98,  -249,  -600,   584,   121,     136,    49,   235,   117,   183,    18,    63,   327,  -1548,   223,    80,  -106,   195,   -92,   136,   248, // 1568
      -132,  -543,   113,   178,  -574,  -708,   146,   -86,   -126,   -93,  -622,   261,   129,    54,   -10,   208,      19,   159,   -36, -2826,   -30, -1287,     3,     0,    -66,  -617,   147,  -186,  -884,    20,     1,    55, // 1600
        36,   328,   156,    -3,    -2,   -44,    -9,  -158,     -3,    69,  -456,    65,    22,   -51,  -110,   156,     267,   101,    84,    67,    91,   -16,   -90, -1781,     64,    98, -1114,     7,   -82,   201,    48,  -392, // 1632
    
    // Out channel 17
        57,   625, -1641,    38,   503,    46,  -292,  -209,  -1209,    -6,    66,   184, -1885,  1477, -1199,    79,     -71,  -263,  -538,  -576,  -335,    21,  -770,   101,   1442,  -215,    70,    78,   169,     8,   492,   -30, // 1664
     -1115,  -266,  -110,   230,  -899,  -166,  -599,    74,  -1113,    -6, -1090,   125,   163,   -44,   367,    38,    -317,     9,   150,  -856,   -58,   544,   -64,    22,  -1643,   113,     5,  -206,  -336,   163,  -856,    17, // 1696
       -96,    89,   -96,   292,   -53,    49,    11,  -167,     35,   -25,   -23,   -63,    92,   146,  -302,   226,    -196,    27,  -479,    64,  -374,   -25,   238,   -44,      1, -2195,  -962,    77,    32,  -279,  -415,   114, // 1728
    
    // Out channel 18
       215,  -426,  -188,    11, -1212,    92,  -638,  -924,   -689,    83,   -20,   -88, -1017,  -404,  -438,   -63,      97, -1141,  -300,  -331,  -406,   -91,    40,  -206,  -3331, -1034,   547,   -34,    -7,    10,  -494,  -243, // 1760
      -162,   -28,  -172,    31,   128,  -590,  -520,  -228,   -991,    98,  -187,    30,    56,   -98,  -861,  -121,    -139,   450, -1472,   101,   -71,   -23,    48,   -61,    -72,  -837,    -7,  -759,   110,   -81,  -141,    57, // 1792
        98,     9,   -44,   -69,   -12,   -39,    13,    53,    -96,   -73,   350,    62,    88,  -124,   229,    98,    -443,   -80,  -419,   -15, -1445,   197,   443,  -793,     41,  -358,    57,   -80,   -85,  -190,   -31,   144, // 1824
    
    // Out channel 19
        77,  -711,   -38,     9,  -657,   -77,  -183, -1335,     76,   -93,   -64,  -238, -2293, -2003, -1042,   -38,      55,  -975,   -99,  -122,   -83,    85,  -153,  -412,   -868,   106,    32, -1140,  -351,    39,  -219,  -358, // 1856
      -744,    -2,   -72,  -530, -2117,  -115,   283,    27,   -316,     6,  -657,  -435,  -749,   -76, -1802,   235,    -223,  -976, -2061,   241,   -74,   -64,   -85,    54,   -764,   -58,  -320,   -63,   360,    -8,   -86,    86, // 1888
     -1056,  -371,  -268,   394,    86,    -9,   -29,    21,    -54,    28,   591,    26,   -71,  -441,    80,  -169,     307,   -82,   473,   -29,   253,   -48,   -24,    42,    -46, -1224,    -9,  -303,   -42,   629,   146, -1381, // 1920
    
    // Out channel 20
       590,   665,   437,    54,   472,   -13,  -666,    68,  -1582,   -60,     8,    35,   549,    -3,   122,    91,     -27,  -688,   170, -1904,  -677,   -37,    18,   -78,   1412,  -772,   143,    44,    21,   -92,   241,  -535, // 1952
      -105,   -65,  -117,    75, -1015, -1020,    15,   239,   -784,   -53,  -471,  -955,  -570,   -75,    90,   552,    -490,   147,   125, -1222,   -88,  -216,    27,    59,    106,    11,     4,    -6,  -381,   167, -1623,   -11, // 1984
      -459,    12,    44,  -218,    12,    10,    65,  -194,     40,   -46,  -157,     2,    59, -1631, -1006,   187,   -1198,   -95,  -332,   -67,  -548,    18,     4, -1136,    -26,  -126,    16,  -306,   -34,    -4,     0,   -72, // 2016
    
    // Out channel 21
       -95,   435,  -390,   -57,   -20,    51,   427,  -912,    156,    73,  -135,    55,   178,  -345,  -177,   -15,     -15,  -167,  -836,    97,    18,   -76,    78,   221,    497,   -22,  -414,  -142,   149,    93,  -726,    -3, // 2048
      -628,  -670,   103,   296,   328,   -12,   187,    22,   -718,     9,   261,   407,   272,   -47,  -442,   109,      79,     7,  -448,   -27,     3,  -566,   -76,     2,   -204,  -277,   160,   223,    84,   -80,    93,    46, // 2080
       142,   302,   209,    73,    85,    25,   -87,    68,    -76,   -92,   104,    18,    45,  -598,    -4,   236,      93,  -121,   -92,    98,    95,   117,   -15,  -196,     57,  -738,  -199,    19,   -23, -2284,   -44,    42, // 2112
    
    // Out channel 22
      -197,   -36, -1168,    44,   166,    10,   219, -1360,   -588,   -53,    50,   -44,  -109,  -119,  -473,    65,      47,  -419, -1380,  -267,  -575,   -55, -1553,     9,   -251, -1070,   218,    92,   -60,    26,  -112,  -174, // 2144
     -1055, -1419,    83,  -244,  -797,  -657,    87,    28,    -71,    20,  -156,   756,  -453,    54,  -275,  -477,    -707,  -390,  -181,  -139,   -84,  -423,    -5,  -141,   -935, -1800,  -116,   138, -1013,   150,  -472,     2, // 2176
      -733,  -217,  -256, -2010,   -64,    67,    91,   -67,    -34,    70, -1094,    88,     1,  -756, -2011, -2494,     160,   -62, -2377,    84, -1353,   -56,    46,  -251,     79,  -221, -1241, -1746,   -82, -3111,  -388, -1943, // 2208
    
    // Out channel 23
      -683,    26, -1105,   -21,  -455,    17,   748,  -386,      7,     5,   -61, -1240,  -255,   -56,  -672,   -55,    -474,   526,    19,   150,   376,    -1,    95,  -187,    -64,   574,  -150,  -125, -1104,   -88, -1703,  -163, // 2240
      -495, -2462,    31,  -207,   -87,  -288,   410,    82,      3,    -5,  -144,  -734,  -125,    95,  -121,   140,     742,  -822,    28,  -139,   -67,   133,    69,   -77,  -1473,  -577,  -412,  -834,   461,   -23,   -39,     3, // 2272
        -5,  -820,    83,  -228,    48,    52,    65,   -44,    -86,   -38,  -760,    32,   -77,   221,  -476,    39,    -866,   -87,   235,    13, -1288,   -90,  -976,   513,     48,  -163,  -576,    12,   -37,   515,  -146,    -7, // 2304
    
    // Out channel 24
     -1158,  -454,     6,    72,  -612,   -83,    50,  -771,    160,   -76,    66,  -842,    62, -1824,    45,   -73,     113, -1930,  1297,   123,  -173,    92,   -16,  -127,   -437,    40,   293,  -242,  -817,   -84,   -59,   407, // 2336
     -1290,   -56,    -8,  -635,  -445,    92,   230,   119,     31,   -33,  -133,    96,  -108,   -37,  -463,   309,      81,  -594,    53,   -85,   -90,  -217,   -48,   -63,    -88,   -61,  -526,  -150, -1107,    88,    65,   -41, // 2368
      -291,  -768,   -64,  -932,   -88,   -15,   -67,   -96,     77,    45,  -422,   -56,    53, -2760, -1366, -1898,      34,     4,    -9,    96, -1853,  -169,  -554,   -25,    -96,  -879,    -6,   788,   -24,  -983,    -8,  -281, // 2400
    
    // Out channel 25
     -1122,   358,   -92,    88,   143,    73,   393, -1651,  -1904,   -31,    39,    87,   104, -1412,   647,    73,      44,   -68,  -300, -1200, -2045,   -72,  -121,   187,   -171, -2069,   -36,   180,    71,     5,   438,   204, // 2432
      -144,   -89,   124,    32,  -143,   -66,   177,   228,    -27,    56,  -138,   186,   -95,     7,  -333,  -544,      -5, -1173,  -463,  -978,   -72,  -239,    45,   -23,     83,  -384,    40,   483,  -405,    -5, -1275,    15, // 2464
       -99,  -165,    92,  -117,    20,   -33,   -98,    -9,    -95,    40,   -92,     7,   -45,   119,  -272,  -358,    -768,    25,  -745,   -99,  -757,  -242,    -6, -2035,     51,    38,  -780,   290,   -14,  -275,  -392,  -134, // 2496
    
    // Out channel 26
     -1346,  -130,  -167,   -34,   149,   -63,  -639,    80,  -1521,    27,    27,   -24,  -764,     2,   440,     3,     -28,   145,  -305, -1757,  -360,    78,   272, -1316,    253, -1214,    34,   -13,   -30,    55,   945,  -394, // 2528
        84,  -247,  -306, -1012,  -215,  -781,  -246,    54,    173,    29,  -782, -1272,  -136,   -88,    33,   -86,     -90,   153,   -24, -1414,    13,  -283,    25,   -94,    132,  -418,    54, -1401,   435,     3, -1195,    61, // 2560
      -646,    41, -1369,   166,    85,    30,   -64,  -103,     51,   112,    34,    18,    67, -1373,  -658,    70,    -553,    27,  -775,   -45,  -334,  -112,    21,  -684,      8,  -161,    58,  -448,  -108,  -631,    83,   160, // 2592
    
    // Out channel 27
      -188,   307,  -561,    30,   181,   -90,  -109,    44,   -443,    76,   -42,   209,  -709,  -797,  -373,   -54,     -66,  -823,  -422,  -324,     7,    53,  -279,    29,   -736,   -79,  -437,   318,   140,    36,   976,  -825, // 2624
        19, -1226,  -147,   249,  -390,  -208, -1639,   -16,  -2282,    76,    70,  -198, -1212,   -32,    46,  -269,     257,  -216,    66,   -62,    64, -1961,   -43,   -72,   -596,  -359,  -131,    10,   565,  -187,  -228,    82, // 2656
       101,  -788,  -202,    21,   -37,   102,   -68,   109,     38,     3,  -169,    48,   -27,  -427,  -128,  -227,   -1569,   -50, -1171,   -66,  -897,    15,    78,    12,    -88,  -185,   128, -1350,   -59, -1385,   -92,   248, // 2688
    
    // Out channel 28
      -175,    -6, -1104,    18,  -271,   -32,  -260,   -97,   -140,   -16,    -7,   139, -2510,  -718, -1172,    19,    -617, -1366,  -638,    77,  -230,   -89,  -235,  -230,  -1098,    28,  -779,  -112,    58,    87,   414,   732, // 2720
      -957,  -736,    23,  -283,  -214,  -134,  -773,  -312,   -180,    45,  -953, -1043,  -129,   -80,  -165,  -774,      47,     8,  -522,   184,   -41, -2531,    93,   -74,    -41,   -25, -1068,   482,   253,    -5,    53,   -58, // 2752
      -223,  -233,  -116,  -372,    64,   -19,   -58,    37,     74,  -109,  -266,    13,    63, -1002,   279,   -52,   -1196,   -66,    41,    10,    70,  -249,   116,   -33,     84,  -883, -1794,   676,    50,  -352,  -121,  -245, // 2784
    
    // Out channel 29
     -1112,  -593,  -380,   -48, -1335,   -26,    86, -1085,  -1577,    92,   -27,    79,   639, -1512,   816,   -59,     -63,   627,   100,  -427, -1406,    57,  -377,   211,   -587, -1530,  -309,    88,    33,   -34,   213,   405, // 2816
       -45,  -223,    90,   126,  -122,    13,   374,   168,   -354,    17,  -287,   -92,  -449,   -46,  -531, -1211,     245,  -757,  -708,  -989,   -74,  -209,   -14,    33,     49,  -157,    38,   322,   670,  -229,  -650,   -36, // 2848
         4,  -736,   126,    58,    60,    74,    29,  -159,    -67,   107,  -542,    76,    11,   681,   -19, -2258,   -1713,   -83,  -258,    54,  -318,  -259,  -625, -2507,      5,  -328,  -269,   316,    59,   521,  -545,   -75, // 2880
    
    // Out channel 30
      -121,  -711, -1221,    74,   500,   -42,   400,    63,  -1695,    43,   -42,   -76, -1419,  -412, -1206,    50,      -4,  -728, -1723,   131,   -50,    -2,  -134,    77,   -765,  -307,   416,   -56,   -38,    99,   771,   -26, // 2912
       425, -1617,   -85,   -56,   399, -2020, -1142,   436,  -2071,   -71,   405,   115,   116,    -4,    55,  -612,      -3,   416,   139,  -630,    -3,  -750,   -35,   -79,   -734, -1688,   -32,   324,   325,    33,   -92,    92, // 2944
        18,  -184,  -251,   161,   -44,   -48,    88,   -50,    -35,   129,    -5,    68,   -43,   -82,    15,    38,       6,   -17, -1574,    -2,   -88,   134,   289,  -624,    -56,  -359,   259,   728,   -23,  -407,  -619,   663, // 2976
    
    // Out channel 31
        63,   428,  -639,     3,   183,    18,  -842, -1039,   -429,    95,  -156,    70,    61,  -469,  -482,    64,     -27,  -843,  -531,  -519,  -201,    56,  -685,  -345,   -431,  -366,     0,   212,   127,   -30,   871,   -19, // 3008
      -202,  -737,  -102,    67, -2672,   214, -1107,   -63,  -1352,   -42,    86,  -108,  -332,    48,  -453,   -84,    -752,    72,  -478,   -39,    92,  -237,   -18,    13,   -821,  -267,   -25,  -144,   -24,  -123,  -333,   -55, // 3040
      -450,   103,  -270,    30,    53,     9,   -22,    -7,     55,  -101,   552,   -85,    17,  -141,  -328,  -200,   -1387,    -8, -1327,   -33, -1511,   242,    25,   -10,    -59,  -356, -1043,  -252,    59, -1180,  -172,   130, // 3072
    
    // Out channel 32
      -207, -1796,  -340,    48,  -108,    94,  -166,    77,    285,    96,     3,   110,   144,   563,  -502,    17,    -327,  -342, -1048,   182,  -142,    -6,    27,   206,  -1032, -1913,   112,   522,   148,    -5, -1021,  -303, // 3104
       674,  -330,  -105,    58,   343, -1624,  -293, -1070,  -1204,    69,   762,   243,    16,     7,     1,  -161,    -889,   242,   169,   201,   -55,  -533,    42,    13,   -131,  -580,   406,   600,   469,   -50,   339,   -20, // 3136
       292,  -232,   135,  -482,    77,    24,   -20,   -58,     20,    53,   372,    39,     5, -2128,    55,   154,    -389,   -31,   845,   -36,   164,   -57,   213,   207,      3, -1367,    39,  -751,   -30,  -282,  -524,  -220, // 3168
    
    // Out channel 33
       341,  1292,  -711,    36,  -281,    66,   838,  -330,   -468,    70,   -33,     9,    23,  -275,  -754,    -2,     115,  -145, -3057,  -381,  -673,    47,  -410,   -48,    198, -2190,   289,     8,    24,    53,  -353,    96, // 3200
     -1641,  -879,    30,  -253,  -848,  -414,   111,   -13,   -812,   -25,   -97,   244,    88,    76,   -53,  -796,    -269,   -27,   -33,  -445,   -37,  -418,   -74,    50,  -1383,  -231,    98,   -39,  -387,    73,  -530,    82, // 3232
      -714,   177,  -145,   157,   -16,   -24,   -11,   -98,    -41,  -156,   141,   -72,   -91,  -338,     1,    64,      37,  -100, -1490,   -28,  -527,   174,   -38,  -247,    -70,  -792, -1034,  -250,    43,  -998,   -97,  -916, // 3264
    
    // Out channel 34
      -451,   -67,    35,   -16, -1558,    80,   -60,  -711,    -65,   -83,   -97, -1098, -1143, -2071,  -805,    69,    -167,   319,   402,   -21,    99,    42,  -109,   -93,   -577,     4,  -180, -1435, -1777,   -18,  -482,    47, // 3296
       -17,  -154,  -131,   -93,    13,    12,  -254,   -55,    216,   -82,  -126,   -46,  -287,   -26, -1184,   -86,     -48,  -351, -1592,  -288,     6,   139,    17,    20,   -654,    62,  -176,  -546,   -65,  -114,   -27,    10, // 3328
      -173,  -821,   -87,    63,   -89,   -30,   -17,    -5,    -21,   -81,   -41,    29,   -42,  1535,   -60,   -38,   -1276,   -63,   -73,    85,    77,   -67, -1060,   -33,     55,   -24,   -12,   157,   -79,   388,    11,  -786, // 3360
    
    // Out channel 35
      -624,  -143,    14,    58, -1440,   -55,   -24,  -799,   -112,    56,   -54,  -722, -1448, -2253,  -423,    49,    -115,  -288,   660,    10,   151,    27,   -41,  -306,   -889,     0,    29, -1877, -1081,    14,  -312,   173, // 3392
      -531,   -74,  -127,  -382,   280,   -66,  -307,   -95,    239,   -14,   189,  -270,  -483,    10, -1350,   -18,     174,  -734, -1807,   155,    35,    18,    11,    23,   -627,    -7,  -157,  -497,   -77,    70,     7,     7, // 3424
       -95,  -741,  -167,  -225,   -86,    38,    79,   139,    -30,   -86,   -71,   -76,    88,   664,     7,  -297,     491,   -98,    30,    15,  -110,   -91,  -645,   -32,     32,  -427,    36,   285,   -26,   375,   -36,  -509, // 3456
    
    // Out channel 36
       -15,  -439, -2136,    10,   145,   -59,   103, -1285,   -277,   -67,   -42,    37,  -630, -1472,   168,    79,    -151, -1473,  -120,   -99,   109,    15,  -420,   242,  -1497,    34,  -755,    22,   143,    -7, -1100,  -207, // 3488
      -436,  -732,    25,  -226,  -585, -1156,   412,  -910,   -191,   -62,   264,    49,   649,   -34, -1611,    13,     183,  -180, -2005,    -4,    44, -1358,    47,    22,  -2851,  -566, -1186,   389,   161,   -81,  -136,   -84, // 3520
       145,  -276,   -37,   -31,    39,   -52,   -13,     6,    -62,  -157,   -14,    49,   -34, -1306,  -112,   -92,    -908,    64,  -215,    -6,   136,   -28,    78,    42,     59,  -886,  -941,   183,   -37,  -882,  -757,   -78, // 3552
    
    // Out channel 37
         2,   234,   361,    84,   347,   -81,    -6,    -8,  -1270,    10,   -55,    12,   125,   -24,    63,   -96,    -104,    19,  -719,  -445,  -274,    66,    10,   -70,   1776,  -973,    92,   -20,   -26,    16,    12,   -32, // 3584
       -92,   151,   -43,   -71,   -12, -1066,   117,     6,    -37,    53,  -336,    69, -1593,   -55,    24,  -208,    -600,    21,   148, -1100,    87,    47,   -52,   -77,     17,  -279,    14,     8,  -649,    69,  -603,   -90, // 3616
      -403,    81,    72,    35,   -96,    75,   -85,    20,    -26,     6,  -314,    38,     8, -2000,   -25,    47,     226,   -61, -1181,    72, -1251,   101,    75,  -532,     98,   -35,   -51,  -474,    50,  -780,    48,    21, // 3648
    
    // Out channel 38
       -53,   -41,   -51,    25,   -68,    36,    55,   -87,    -83,    19,   -11,  -108,    21,   -99,  -113,    91,     -77,   -84,   -71,  -102,   -44,    95,   -48,   -66,     53,    50,   -53,   -33,   -12,   -14,   -63,  -127, // 3680
        33,    44,   -13,     6,    67,   -21,     4,    46,     16,   -30,   -51,    54,  -117,   -96,    21,   -63,     -26,   -45,   -15,   -17,    43,    23,    37,   -33,   -139,   -47,    69,  -126,   -37,   -93,    13,   -20, // 3712
      -148,   -99,   -17,   -70,    23,    30,   -30,    10,    -84,    15,   -45,   -58,    59,    54,    26,    15,      25,    11,  -101,    53,    43,   -16,    38,    55,   -103,    79,  -164,    66,   -89,     1,   -84,   -41, // 3744
    
    // Out channel 39
       165,   -46,   -16,   -93, -1203,   -88,   282,  -352,     82,    -1,    -1, -4427,  -135,  -392,   -51,    78,     421,   279,  -188,    75,    41,    -8,     7,   158,   -248, -2274, -1667,  -501, -3208,    45, -1690,    54, // 3776
       -82,  -284,    50,   216,   112,   -86,  -257, -2186,   -188,   -17,   490,   420,   115,   -33,  -211,    64,      95,  -141,  -257,  -648,   -89,  -424,    16,    64,   1016,  -483, -1789, -1920,   148,   -14,    67,   -84, // 3808
       132,   111,    14,   570,   -63,   -75,    60,    13,     64,    33,   -57,   -90,     6,   -58,   120,    98,    -940,   -77, -1286,    30,   197,   199, -2361,  -565,    -84,  -776,  -704,   -12,     7,  -559, -2262,  -153, // 3840
    
    // Out channel 40
     -1430,  -726,   172,    46, -1079,    23,   379,  -647,    398,    -6,   109,  -589,  -503, -1434,  -189,   105,     221,  -703,  -419,   -60,    46,    28,  -108,  -190,   -259,     5,   168, -1299, -1072,     0,  -263,   323, // 3872
      -760,  -316,   -69,  -871,   -57,    -2,  -144,   188,   -111,    57,  -646,  -108, -1284,    51,  -411,   273,     406, -1490,  -558,   617,   -11, -1629,    25,    84,   -977,     8, -1451,     2,   183,  -103,     7,    75, // 3904
      -182, -1278,  -186,  -246,    35,   -84,    -6,  -168,     73,    73,  -595,   -38,    72, -1479,   113, -1494,    -401,   116,   -25,   -83, -1442,  -103,  -758,    41,     -3,  -378,   -68,  -725,    61,  -376,    12,  -204, // 3936
    
    // Out channel 41
      -851,   394,  -119,  -102,   131,   -46,    -2,  -324,   -568,     1,   -69,   149,   490,   187,   205,   -16,      91,    33,  -260, -1092,  -234,    51,   -64, -1213,  -1245, -1225,   -75,   154,   134,     5,   329, -1539, // 3968
        57,  -854,  -241, -2263,   -74, -1076,   180,    73,   -276,   -99,    66,  -660,  -641,   -61,  -172,  -766,     400,   -11,  -108,    19,    60,   -94,   -27,   -22,    -76,  -464,  -173,   296,  -265,    -9,  -236,    49, // 4000
     -1408,  -822,  -386,    65,    71,   -42,   -99,  -130,     46,    42,  -299,    81,    25,  -881,    32, -1430,   -1021,    17, -1116,   -96,  -986,   -55,   133,  -233,     -8,   -68,  -659,  -366,    26, -3794,    53,   110, // 4032
    
    // Out channel 42
      -621,  -259,    -4,   -69, -1129,   -39,   -36,  -860,     26,    28,    50,  -928, -1507, -2209,  -605,   -32,    -195,   -51,   705,   -23,    40,     5,  -162,  -967,   -418,   -19,  -262, -2236, -1497,    61,  -611,  -119, // 4064
        46,   -37,   -16,  -823,    46,   -43,    57,  -177,    -22,   -83,  -296,  -470,   497,   -41, -1396,  -109,    -128,   -73, -1686,   221,    22,    73,    94,   -15,   -591,    18,  -148,  -370,  -427,    51,    -3,    45, // 4096
      -403,  -620,  -766,  -265,    34,   -98,   -23,    24,     85,  -120,  -365,    56,   -38,  -222,  -106,  -570,     193,    17,   117,   -71,  -238,   -51, -1035,   -70,    -36,    57,     8,  -170,   -54,   350,    58,  -520, // 4128
    
    // Out channel 43
      -856,  -939,    64,    40,  -790,   -39,   -13, -1541,     76,   -18,    59, -1015, -1741, -1982,  -524,    50,     222, -2825,   -99,   -27,    48,   -85,  -530,   184,   -661,   -21,   -55, -1918, -2289,   -73,   -58,   -90, // 4160
      -900,  -213,   -97,  -434, -1197,  -143,   -32,    14,   -190,    93,    77,  -140,  -838,    -3, -1481,  -116,     -62,  -478, -1282,    37,    79,  -734,   -81,    62,   -264,   -93,  -958,  -582,  -113,    30,    45,    55, // 4192
      -179,  -895,  -198, -1029,    62,     3,    42,   -37,    -98,    23,  -191,     8,    46,  -117, -1386, -1360,    -215,   -24,   -78,    48,  -492,   -39, -2074,  -221,    -60,  -567,  -114,  1160,     8,  -433,   -72,  -318, // 4224
    
    // Out channel 44
       -34,  -290,  -253,     5,   965,   -40,   618,  -340,  -2072,   -90,    12,   183, -1711, -1503, -1676,   -41,    -435,    76,  -998,   171, -1001,    31,  -561,   210,  -1696, -1191,  -262,   -15,   114,    99,   196,   103, // 4256
        97,  -417,    66,   115,    25,  -338,    55,  -501,    -27,   -70,  -944,    46,   -27,   -71,   214,    25,    -983,  -795,   164, -2153,   -13,  -282,   -81,  -135,  -1425,  -584,   -24,   281,  -375,    21,  -804,    40, // 4288
        77,    73,   132,  -630,     6,   -71,   -33,   -36,    -94,    20, -1128,   -64,     1,   -89,  -624,    57,     552,    70, -1273,    62,   456,  -158,   519, -2328,    -32,   -66,  -300,   437,   -31,  -152,   220,   -89, // 4320
    
    // Out channel 45
       453,  -838,  -387,    17,    74,   -58, -1110,  -161,    662,     4,   -27,  -611,  -124,  -582,  -290,    12,     -59,  -202,  -600,    35,  -238,    19,    18,    56,    -83, -1184,   177,  -500,  -566,   -82,   633, -1069, // 4352
       488,   210,    33,    22,   350, -1860, -1024,   748,    -80,   -71,   667,  -158,   449,    76,   115,   -74,   -1462,   128,  -380,   243,   -21,   -65,   -90,  -106,   -506,  -990,   489,   411,   203,   -38,    15,    17, // 4384
      -316,    53,  -336,   -54,    28,   -72,   -81,   -11,     36,    64,   657,   -63,    83,   -38,   354,   -43,    -166,    53, -1228,    73,    71,   238,  -323,   215,     -5,   161, -1127,  -930,  -111,  -361,  -279,  -154, // 4416
    
    // Out channel 46
     -1449,   295,   332,   -60,  -271,   -27,   158,   -75,   -397,   -36,   -38,   306,   -21,  -182,   909,   -39,       5,  -984,  -544,  -219, -1535,   -86,  -455,    51,  -2304,  -203,   371,   726,   352,    64,  -170,  -411, // 4448
     -1423,  -698,   -18,   -99,  -112,  -669,   -65,  -208,   -896,    31,  -146,   519,  -643,   -61,   150,   -27,      -9,   143,    88,  -179,    86, -1489,    27,    36,    570,   113,    41,   148,   -58,   -49,  -156,   -16, // 4480
       229,  -514,   -49,  -514,    25,   -60,     7,   -37,     65,   -69, -1275,    11,    64,    75,    51, -1003,     382,    27,   576,    88,   -26,   -91,   116,  -750,     59,  -518,   -41,  -328,    16,  -565,   297,  -740, // 4512
    
    // Out channel 47
       114,   -74,   -58,    99, -2491,    77, -1140, -1608,     68,    30,  -105,  -120, -1156, -3733,   -73,     3,   -2006,  -912, -2056,   -99, -1499,    28,    10,  -537,  -2113,  -855, -1436,  -591,  -327,    59,  -223,  -531, // 4544
      -112,  -225,   -99,  -178,   -95,  -455,  -438,  -816,  -1348,   -38,  -397,  -186,  -930,    92, -1950,   592,    -589,  -399, -2663,   176,   -84,  -563,    -1,   -91,   -711,  -916,  -763,  -354,   212,   -16,  -111,   -30, // 4576
      -680, -1507,  -257,   -11,   -35,   -63,    13,   -57,     -4,    37,  -391,    -3,   -63,   -82,     2,   239,    -386,    48,  -805,   -81,    12,  -186,   -89,  -768,     91,    32,  -201,   -74,    42, -1325,   189,    22, // 4608
    
    // Out channel 48
     -2327,  -155,   267,    68,   706,     9,  -814,    30,  -2096,   -18,    36,   -12,  -111,  -495,    19,    -4,     -23,   -33, -1067, -1196, -1051,   -74,    21,   -90,   2026, -1688,    22,   -25,    35,    95,   348,  -693, // 4640
        31,    90,   -19,   -70,  -425, -1418,   -23,   111,    322,   101,  -518, -1079, -1471,    49,   -16,  -771,    -213,    -4,   -14, -3196,    39,    -6,     9,    55,    220,  -533,    -7,   -62,    78,    77, -1759,    88, // 4672
      -295,  -420,    85,    54,     3,   -25,    29,  -119,     38,    22,  -147,   -58,    99, -2052,  -925,  -189,     523,   -48, -1420,    47,  -100,  -232,   130, -2353,     83,   217,   119,  -379,   -56, -1383,    54,    86, // 4704
    
    // Out channel 49
      -222, -1087,  -153,   -84,  -970,    21,   -38, -1371,   -103,   -66,    25, -1053,  -860, -2194, -1278,   -94,     274, -1737,  -149,    96,  -570,   -36, -1775,   -94,  -1116,   -36,  -478, -1512, -1825,    33,   413,    34, // 4736
      -774,  -112,  -138,  -390, -1100,  -181,   -42,   -45,    -88,   -84,  -742,  -524, -1894,    12, -1374,    87,    -878,  -809, -1162,  -120,    28,  -681,    80,   -46,   -518,  -172, -1332,   138,   468,    -4,    29,    -3, // 4768
      -707,  -289,  -187, -1236,   -87,    -7,    59,    -5,    -30,   -19,  -586,    94,   -32,  -871,  -383,    99,     221,    -1,  -139,    28,    27,   -99, -1848,  -160,     50,  -518,  -178,    56,    35,  -563,  -188,   -76, // 4800
    
    // Out channel 50
      -833, -2092,  -510,    68,  -206,    50,    69, -1899,    -81,   -15,   110,  -261,  -375,  -514,  -134,    56,     -83, -1277,   -90,    71,  -286,   -31,  -232,  -152,  -2214,   -96,   -91,  -216,  -341,    30,   174,  -144, // 4832
      -553,  -536,    30,  -331, -2088, -1549,    65,    -3,   -134,    93,  -664,  -115,   547,     4,  -614,   109,    -365, -2534,  -595,   -21,   -45,  -810,    30,   -99,    395,  -778,  -162,    57, -1883,   -76,    88,    59, // 4864
      -403,  -408,    27, -2573,   -82,   -47,    86,  -163,    -30,    84, -1228,   -31,     6, -5006,  -477,  -799,     142,   -25,   377,    75,  -291,   -85,  -362,   -13,     30,   -15, -1975,  1967,    89,  -887, -2023,  -448, // 4896
    
    // Out channel 51
     -2540,   306, -1309,    45,   443,    45,    53, -1310,    156,    69,   -82,   142,  -902,   259,   467,    26,    -153,  -212,   425,   -67,  -523,    28,   165,   172,     62,  -104,  -459,   198,   122,   -10,  -726,   331, // 4928
         1, -1207,   117,   155,  -202, -3396,   -39,   172,     75,     8,  -489,  -590,   241,    80,  -990,  -674,     338, -1139,  -878,   662,    29,  -298,   -76,    49,     23, -2415,  -110,    34,  -159,   103,  -139,    54, // 4960
       349,  -313,   159,  -408,   -78,    67,     3,    14,    -87,   -37,  -593,    41,    71, -1081,  -439,  -459,      41,   -59, -1276,    49,  -784,  -210,    73,   532,     85,  -383,  -178,   762,   -79, -1628,  -225, -1675, // 4992
    
    // Out channel 52
       139,  -461,    77,    45,    38,   -13,   360,  -774,     93,   -93,   -44,   131,   258,  -658,   422,     8,      56,  -228,  -604,    36,   -17,    16,   197,   119,   -715,   -44,  -128,   -36,    58,    76,  -422,   139, // 5024
      -275,  -499,    77,   160,   164,  -131,    32,    99,   -255,    60,   169,   219,   315,   -47,  -324,    61,      90,   135,   -73,   222,   -10,  -444,    62,   -15,    135,  -272,    45,   262,    33,     9,    33,    75, // 5056
        51,   276,    69,   142,   -46,    61,    10,    42,    -25,   -97,   -36,    -2,    58,  -736,   159,   162,    -101,   -70,  -529,   -90,    86,  -202,   107,   152,    -15,  -379,  -268,   261,   -39, -2165,   -48,   112, // 5088
    
    // Out channel 53
       -35,   -40,  -120,    64,   -36,   -73,   -20,    37,    -47,   -85,    84,  -113,   -78,   -32,   -69,    84,     -78,   -87,    19,   -14,    32,   -73,   -46,    73,    -84,    63,   -26,  -111,  -110,   -74,   -53,    33, // 5120
        72,   -60,   -42,   -14,   -12,   -92,  -110,    63,    -73,    35,   -67,    -5,   -94,    38,   -27,   -18,    -124,     9,    38,   -15,    21,   -43,    11,   -87,    -98,   -85,    39,  -104,     5,   -12,   -49,    55, // 5152
        58,    19,   -99,  -107,   -41,   -40,   -65,   -47,     14,    20,  -112,    98,   -67,   -16,   -78,   -67,      20,   -43,   -37,   -44,   -34,   -90,    -2,    30,    -89,    41,     7,   -34,   -66,   -61,   -13,   -48, // 5184
    
    // Out channel 54
      -447,    13,  -429,    24,   -23,     5, -3409,    51,    -88,   -98,    39,   -54, -1659,  -185,  -186,   -65,    -754, -1218, -1616,    -2,   145,   -59,  -343, -1840,    345,  -327,  -428,  -110,    57,   -38, -3921, -3826, // 5216
      -159, -1582,  -312, -2578,  -212,  -296, -2818,  -713,  -2374,   -48,  -369, -1080,   -34,   -10,    51, -1406,   -1328,   -49,    48,  -283,   -16, -1486,   -77,    43,   -914,  -138,   -33,  -101,   354,  -157,    32,     5, // 5248
     -1914, -3567, -1719,  -775,    31,    68,   -15,    -8,    -19,   -52,    14,    12,    55, -1431,  -261,  -479,   -4911,   -69,   135,   -45,  -553,    12,   -43,   232,    -38, -1648,  -210,   -54,    19,  -105,    -3,   213, // 5280
    
    // Out channel 55
        56,   101,   -28,    29,  -150,    80,   164,   -38,  -1100,    44,   -38,    50,   305,  -201, -1335,   -85,      90,   -99, -5428, -1154,  -761,   -97,    57,  -487,   -168, -1283,   161,    35,   -21,   -91,   501,  -461, // 5312
       -12,  -286,   -47,  -158,   -30,  -610,  -592,   240,  -1710,   -14,    65,  -319,  -262,    -2,    64, -1532,    -112,   122,    -4,    15,    44, -1661,   -40,   -23,  -1149,  -455,    56,  -104,   103,   -42,  -462,    -2, // 5344
      -464,   149,  -313,    49,   -82,   -40,   -64,    90,    -82,   -40,    74,   -29,    27,   -81,   -97,   104,   -1081,    61, -3286,   -51, -1508,   -18,   181,   -51,    -24,   180,    -7,  -540,     6, -4134,    34,    31, // 5376
    
    // Out channel 56
       170,  -694,    46,   -34, -1018,   -94,  -315,   -83,   -146,    46,  -173,  -186,  -177,  1596,  -456,    49,      38,  -154,   464,  -120,   342,    13,   189,  -707,  -1414,  -482,  -446,  -484,  -134,    24,    -4,  -283, // 5408
      -201,  -132,    66,  -260,   -74,  -329, -1185,   -69,  -2477,     5,   202,  -670,  -143,   -83,  -139,   192,     125,   227,   -68,  -879,   -53,  -245,   -29,    -5,    125,  -177,   -20,  -609,  -264,  -195,  -122,    21, // 5440
      -290,    58,  -683,  -283,   -58,   107,    39,    12,    -36,    56,  -400,    73,   -55,  -926,    44,  -129,     194,    27,   -99,    61,  -296,  -134,  -789, -1030,    -64,   -16,   -73,  -246,    67,   184,   147,  -426, // 5472
    
    // Out channel 57
     -2442,   150,   -11,    26,    98,   -35,  -376,   -15,   -195,   -45,     5,   -50,   783,   622,   246,    56,       9,  -191,  -680,  -205,   233,   -56,   -56,  -174,    919, -1286,  -132,   106,  -147,    46,   255, -1042, // 5504
        98,  -117,  -168,  -939, -1128,  -667,   196,   -94,   -745,   -22,  -905, -1093, -1144,    91,    17,  -318,     -75,  -126,   -51,    66,   -57,  -100,   -52,    23,    111,  -287,   430,   -15,  -702,    57,  -119,    95, // 5536
      -513,  -765,  -138,   439,    50,    32,   -84,    29,     49,   -82,   186,   -19,   -22, -2384, -2424, -1692,   -1389,   -17, -1209,    93, -1101,  -162,   221,    30,    -73,  -437,   311,  -256,     2,  -889,   160,    -6, // 5568
    
    // Out channel 58
       624,   859,  -170,    33, -1399,   -96,  -438,  -252,    -15,   -55,    -7, -2123,  1264,   223,  -496,    -5,   -2590,  -284,   121,   -58,  -270,   -49,     9,    44,   -428,   -66,  -892, -1081, -1437,    24, -2217, -1811, // 5600
       135,   290,  -310,   -17,  -175,    45,  -470,  -737,  -1364,   -17,   239,  -830,  -118,    20,  -158,   373,    -230,  -109,   -25,  -340,    77,  -156,    81,   -28,   -718,   -16,  -443, -1508,    13,  -134,   -33,   -21, // 5632
      -276,  -665,  -169,   -15,    57,    29,    91,    47,     77,    39,   176,    63,   -39, -1819,   -45,   145,     -74,   -62,  -173,    52,   231,  -107, -1142, -1163,    -18,  -277,    31,  -666,    97,  -133,     5,  -261, // 5664
    
    // Out channel 59
       -53,   -47,    26,   -85, -1443,   -66,  -366,  -286,    -46,    26,    -4,  -269,  -895, -2375,   -91,   -80,      38,   211,   732,    80,    77,   -69,    99,  -771,  -1107,   -26, -1454, -1325,  -535,    90,  -711,   275, // 5696
      -113,   -13,   -16, -1300,    52,   -68,  -490,  -110,    302,   -79,    93,  -861,  -750,    68,  -806, -2412,      -4,   -48, -1265,    45,    18,   -94,    -7,   168,   -608,   -23,   -50,    -2,  -733,  -262,   177,   -85, // 5728
      -108,  -772,  -207,    11,   -41,  -113,    80,    74,    -88,   -81,  -455,   -59,   -29,  2606,    26,  -436,   -2155,   -29,   144,   -70,    65,  -110,  -241,  -128,    -48,   -21,    12,   -93,   113,   580,    54,  -227, // 5760
    
    // Out channel 60
       -19,   860,  -141,   -25,  -151,   -27,    52,  -792,   -264,   -85,   -96,   -10,   239,  -315,  -343,     9,     274, -1901,  -228,  -255,    85,   -41,  -483,   146,    255,  -199,   253,   171,    14,    46,   -14,  -447, // 5792
      -359,  -890,    77,   -95, -1298,  -355,     3,   136,  -1906,   -52,  -283,  -122, -1308,    83,  -153,  -182,     164,   353,   -58,  -162,   -23, -1034,   -68,   -11,   -421,  -231,    -9,   126,  -107,   -39,  -243,   -25, // 5824
      -195,   200,  -135,    15,    42,   -32,    50,    85,     61,    59,  -293,    21,    51,  -510,  -353,    -1,    -111,   -14,  -654,   -30, -1382,   -36,    59,   -66,    -41,  -424, -2280, -2144,    49, -1133,   169,    40, // 5856
    
    // Out channel 61
        51,  -176,  -259,   -10,   220,    -8,   214, -1824,     19,    26,    67,    64,  -309, -1400,   631,   106,    -157, -1046,   136,   -16,  -198,    -9,    62,   173,  -1614,    42,  -541,   -10,    37,    51,    60,  -207, // 5888
      -375,  -710,    -9,    48,  -121, -3717,    28,    32,   -268,     1,  -160,   -56,   132,    -4, -1330,   -67,      45,   -61, -1402,   440,   -58,  -742,   -28,    -2,    -69,  -758,    24,   451,   322,    89,   104,    -7, // 5920
       584,  -150,   326,     1,    63,   -73,   -33,    78,    -95,   -31,   217,   -62,    74,  -146,   -10,    31,    -493,   -50,  -569,    98,   -41,    16,   340,   365,    -93,  -317,  -383,   322,   -42, -1065,  -200,   -13, // 5952
    
    // Out channel 62
       173, -1269, -1439,   -53,    36,   -59,    72,  -753,     34,    99,    23,  -120,  -265,  -774,   -86,    54,    -247,  -934,   642,    11,   -40,   -62,  -106,   -11,  -2151,   486,  -277,  -141,  -125,   -60,   188,   117, // 5984
      -505,  -723,    -2,   -69,  -754, -2043,   123,    29,   -239,    18, -1018,   -53,    35,     4,  -304,  -475,      37,  -445,  -474,    83,    27,  -922,   -91,     9,    344,  -773,  -505,   -47,  -490,    96,   -45,   -45, // 6016
      -115,   -29,   -12,  -650,   -14,   -46,    33,    -5,     -2,   -24, -1036,    42,    14,  -679,  -296,    11,      85,   -51,   123,    18,  -142,   -11,  -110,    12,    -61,  -120, -2322,    37,    67,    -8,  -772, -1491, // 6048
    
    // Out channel 63
       -20,  -337, -1974,    36,  -189,    89,  -223,  -177,    -68,   -14,   -62,    33, -1807,  -919,  -738,    -3,    -267,  -811,   -50,    10,    22,    68,  -200,  -235,  -1314,   144,  -749,  -134,  -119,    90,  -860,    -4, // 6080
      -832,  -573,   -66,  -186,  -890,  -620,  -119, -1919,   -163,   -29,  -134,   168,  -155,    23,  -354,  -303,    -900,  -153,  -561,   140,    -9, -1057,    93,     5,  -2569,  -396, -2120,   -24,   131,     2,   -34,   -27, // 6112
      -136,  -398,   -64,    39,   -98,   -60,    53,   123,     50,   -65,  -236,   -26,   -11, -1065,   153,    88,   -1095,   -11,  -189,   -50,   256,     9,   -16,    96,    -82, -1081, -1236, -1171,   -93,  -165,  -506,  -345, // 6144
    
    
};

const int16_t cg_FC2bias[64] = { // Co,H,W,Ci: (64,)
       273,  -550,    40,   264,    21,   325,     2, -3206,  -1236,  -451,  -287,   253,  -867,    12,   481,  -168,   -1550, -1116,   -75,    67,  -312, -1037,  1153, -1473,   -161,   244,    40,   606,   823,  -377,  -809,  1226, // 32
     -1486,   318,   407,   459,   874,  -236,  -448,  -883,    251,    69,   397,   799, -4292, -2052, -1404,   998,     -97,  1245,  1062,   -53,  -679,  -284,  1152,   235,    623,  -397,   549,   193,   595,  -124,   835,   996, // 64
    
};

const int16_t cg_FC3weit[2048] = { // Co,H,W,Ci: (32, 64)
    // Out channel 0
      -201,  -244, -5138,  -698,  -623,  -123,  -312,  -105,  -1136, -4155, -1888, -2919,  -541, -4899,  -228, -2525,   -2003,    42,  -159,  -186, -4757, -1644,  -341,  -561,   -298,   187, -3629,   -28,  -723,   324,  -376,  -250, // 32
      -252,   103,  -348,  -227, -2035, -3475,   156,  -655,   -571, -1175,  -100,  -494,  -324, -1137,  -791,  -425,   -5183, -1343, -1580, -1684, -1527,   -48,  -843,  -873,   -806, -1780,  -319,  -203,  -115, -1651, -1098, -2215, // 64
    
    // Out channel 1
     -1787,   -53,  -153, -1486,   102, -1165,  -399,   595,     23,  -253,  -495,   247,   -96,    99,  -190,  -140,    -179,  -383,   581,  -402,     8,    47,  -442,   453,   -603, -1134,  -162,  -260,   374, -1908,  -157,   -70, // 96
      -842,  -728, -1083,  -475,   -56,   131,   -83,  1732,   -196,    22,  3223, -1188,   -85,   -37,   317,   -48,     -77,  -610,   380,   298,   -50,    98,  -433,   -75,   -804,   214, -1039,  -759,    30,   174,   393,  -207, // 128
    
    // Out channel 2
     -1295,  -112, -1588, -3071, -2812, -3675,   -23,  -793,  -1540, -1632,  -293, -4450,   -58, -1903,   161,  -817,   -1047,  -317,  -183, -3140, -1910, -1497,  -198, -1459,  -2562,  -769,  -991,   -52, -3391,  -162,  -228,  -182, // 160
        -7,   -22, -3208, -3046, -5591, -1547,  -218,   -50,  -2446,  -986, -3746, -2558,  -246,  -178,   310,  -747,   -1591, -2210, -1916, -1117, -1035,  -145,  -455, -3336,   -251,  -855,  -235, -3639,   -96, -1414, -2949, -2782, // 192
    
    // Out channel 3
         7,  -228, -1714,   236,  1678, -1339,  -938, -1318,   -205, -1286,  -257,  -383, -1186, -1902,  -629, -2417,    -535,  -834,  -367,  -183, -1902,  -557,  -762,   186,   2216,  2177, -2261, -1199, -1206, -3500,   479,  -263, // 224
      -320,   298,   790,   485,   394, -2880,   136,  -308,   -505, -1862,  -406,  -372,   211,  -217,  -864,  -378,   -1548,  -181,    16,    -5,   -41,   183,   843, -1072,   -897, -2218,  -703, -2287,    74,  -125,  -135, -1952, // 256
    
    // Out channel 4
     -1025,   115, -1142, -2342, -2706, -2833,   147,  -657,  -1013,  -661,  -307, -1687,  -364, -1042, -1044,  -580,   -1093,  -248,  -395, -3116,  -878, -1323, -1268, -1019,  -1569,  -152,  -470, -1301,  -464,  -406,  -665,  -907, // 288
      -250,  -607, -2902, -2605, -1066,  -664,     3,  -638,  -1236, -1122, -3259, -2524,  -554,  -377,  -287,  -307,   -1026, -2132, -1818, -1599, -1340,  -237,  -301,  -728,    264,  -564,   206, -3167, -1382, -1758, -2085,  -973, // 320
    
    // Out channel 5
     -3052,    93, -2429,    -3,  1514,  -247,   105, -1259,    -82, -2241,  -324,   -95,  -194, -1907, -4427, -1974,   -1046,   376,  -747,   336, -2622,  -133,  -449,   177,  -1497,  -175, -1641, -4304,  -290,  -945,   265, -5400, // 352
     -1533,  -893,  -129,   -80,  -140, -1121,  -143, -1771,   -291, -1020,  -365,   199,  -512,  -101,   301,  -606,   -2260,  -409,  -762,  -208,  -163,    23,  -348, -3067,   -192, -1626,  -954,   109,    54,   -41,  1283,  -360, // 384
    
    // Out channel 6
      -332,  -331, -5003,  -445,  -585,  -241,  -595, -2885,   -599, -3870, -1710, -2197, -3548, -4224, -1025, -5275,   -1571, -1745,  -480,  -258, -7331, -1236,   -23,  -476,  -3211, -2140, -3664,    94, -1468,  -705,  -159,  -109, // 416
       -56,  -722,  -257,  -117, -1067, -4885,   -28,   -82,  -2781, -2067,  -163, -2354,  -365,  -821, -1138,  -644,   -4922, -3673,  -506,  -801,  -940,    31,  -484, -3306,   -958, -3206, -1140,  -254,  -132,  -961, -1041, -1273, // 448
    
    // Out channel 7
        68,  -210, -2109,   161,  1091,   -22,   188,   874,   1507, -2321,  -740,  -206,  -545, -3522,   129, -1178,     130, -1646,     9,   750, -2072,   -71,  -685,  1122,   1071,   261, -1817,  -258,  -121,   801,  -258,   353, // 480
      -132,   463,  -663,   383,  -105, -1290,   165,   -67,    542,  -650,   189,  1811,  -870,  -496,   888,  2780,   -2679,  1045,   117,  -276,   -64,   171,  -159,   137,   -986, -2319,  -806,  -196,    83,  -198,     7,  -130, // 512
    
    // Out channel 8
     -1202,    79,   479, -1013,  -523, -1860, -1119,  -657,   -976,   763,  1013, -1024,   532,   764,  -128,   473,   -3237,  1010,  -527,  -488,   704, -2961, -1665,  -162,   -804,  -333,  1019,   601,  -307,   610,   100,  -524, // 544
       274, -1240, -1399, -1180, -1740,   239,   -75,   308,  -2006, -1236,  -479,  -162,  -684,   208,   331,    45,     816,  -836,   218, -2146, -3526,    25, -1143,   202,    316,    10,  1193, -1420,  -268, -2772, -1431,  -857, // 576
    
    // Out channel 9
      -472,  -158,  -230,  -977,  -533, -1599,  -615, -2214,    552,  -361,   388,   -20,  1907,   -90,  -896,  -631,    -235,  -181,  -857, -1550,  -665,   -14,   107,  1145,    735,   429,  -153,  2014,  -112,  -196,   590, -1837, // 608
      1056,   149, -2693, -1814,    82,  -321,   -17,  -283,    822,  -673, -1927,   562, -2501, -1204,  -175, -1782,    -410,   -52,   154,    41,    30,   167,  1596,   221,     63,  1005,   857, -2037,  -824,   116,     7,   219, // 640
    
    // Out channel 10
     -1774,   106,  -534,    35, -3371,  -488, -1097, -1280,   -157,   795,  -367, -1303,  -452,   613, -1136,  -549,     467, -1250, -1323,  -725,   917,    32, -1905,  -419,   -375,  2008,  1215,  -586,  2125,    47,   227,  -692, // 672
      -919,  -908,    98,    99,  -170,  -375,    76, -1957,    241,  -418,   215,   152,  -304,   788,    58,  -441,    -190, -3167,  -372,   -91,    30,  -213,    44,  -981,   -382,    38,  -933,  1053, -1739,   137,   565, -1358, // 704
    
    // Out channel 11
      1033,    33, -5442,  1129,   745,   574,  1218,   151,    498, -6561, -2793,   117,    62, -4981, -2682, -6587,   -1154,  -294, -1452,   342, -5142, -1386, -2618,   871,    232,  -281, -4852, -3943,   957,  1327, -2691, -4111, // 736
     -2473,  -461,   686,   387,  -758, -6125,   -29, -2574,    565, -3379,   419,   599,   -50,  -990,   256,  2293,   -4001,   886,    34, -1912, -1424,  -112,   727, -4190,   1976, -4691,  2591,   715, -4450, -2092,   -81,   787, // 768
    
    // Out channel 12
      -262,   -31,  1235,  -648,  -561,  -424,   914,  -560,    250,  1308,   109, -2547,    41,  1885,   269,   447,   -1265,   676,   401,  -136,   580,  -742,   591,   133,   -430,   423,   258,  -842, -2951,  -679,   -87,  -170, // 800
       -62,  1282,  -309,  -572, -2672,   807,   211,   124,   -270,   680,  -138,   -17,  -276,  -550,  1329,   440,    1648,  -874,  -135, -1332, -1165,  -102,   725,   -39,   1508,   636,   525,  -506,     3, -3213,  -594, -2799, // 832
    
    // Out channel 13
       541,  -128,  -546, -5572, -3401, -4526,   952,  -739,    884,  -461,   358,  -259,  1811,  -133,   774,  -174,    -126,   745,   358,  -821,  -245,   -71,  -636,   -86,   -226,  -108,  -440,    14,   -12,  -306,   361,   377, // 864
        34,   892, -2843, -2352,  -103,  -273,    94,   141,    -64,   539, -4538,  -827,  4524,   527,   145,  1017,    -353,  -435,  -319,  -323,   -63,  -191,   171,   870,    452,    33,   618, -3883,   342,  -212,  -160,   -88, // 896
    
    // Out channel 14
        81,   293,  -232,  -841,  -992,  -502,  -509,   -32,   -141,  -167, -2020,    40,  -192,   -99,  -644,  -527,     272,    60,  -184, -1125,  -179,  -475,  1612,  -261,  -1785,  -985,   101, -1429,  -883,  -781,    23, -1440, // 928
       -10,  -115,  -926,  -421, -1070,  -988,    49,  -358,   -867,  -678, -1017,  -844,  -187,  -354,  -171,   331,    -160,  -577,  -554,  -121,   -13,   -95, -2055,  -778,    385,  -278,    -7,  -174,  -234,  -195,    70, -1196, // 960
    
    // Out channel 15
       371,   -15, -5565,   659,  -266,   301,   556,  -501,   -452, -3579,  -980,  -363, -1762, -5158, -2804, -2926,   -1927,  -265,  -817,   -19, -4539, -2589, -2642,   258,   -279,     3, -1677, -2169,   169,    81, -1629, -2743, // 992
     -1612, -2933,   599,    71,  -789, -3297,  -118, -2608,    -51, -1459,   149,  -558,  -479, -1734,  -302,   -85,   -5304,  -485,  -599, -1942, -2937,   152,   637, -2563,   1460, -2580,  1384,   335, -3181,  -946,  -255,   -10, // 1024
    
    // Out channel 16
      -416,  -159, -4714, -1107,  -963, -1207, -1012,  -636,    322, -3661, -1268,  -811, -3689, -4014, -1094, -6382,    -655,   110,  -141, -1741, -5366,  -504,  -215,  -282,   -941,    66, -3390,  -418,  -592,   231,    18,  -560, // 1056
       -21,   -83,  -944, -1642,  -440, -5734,   171,  -106,    -82, -4029, -1201, -1489,  -543,  -660, -1210,  -319,   -4650,  -999,  -107,  -558,  -270,    82,  -230, -3734,  -1245, -3764, -1524, -1198,   -52, -1159,  -909,  -820, // 1088
    
    // Out channel 17
      -123,   141,  -453, -4587, -3577, -5330,   645, -2764,   -579,  -369,  -311,  -229,  -554,  -650,  -165,  -307,   -1377,  -661, -1404, -5159,  -326, -1760, -1898,    -1,   -153,  -360,  -333,  -912,   120,  -119,  -484, -2367, // 1120
      -361,  -648, -6133, -8158,  -647,  -208,   137, -1452,    -26,  -163, -5609, -3917,  -688,  -597,  -334,  -543,    -603,  -846,  -500, -1646, -2205,   -14,   -75,  -175,   -422,   -58,   417, -6032, -2379,  -757,  -187,   -94, // 1152
    
    // Out channel 18
      -583,    45, -1610, -1048,   -41,  -623,  -391,  -104,   -633, -1461,  -168,   168, -1021,  -357, -1319,   -23,      79,   331,   193,   271,  -259,  -443,  -138,    49,   -614,  -269,   226,  -242,  -146,   -72, -1117,  1939, // 1184
     -1069,  -408,  -161,   160,   -41,  -107,   227,   461,    136,  -829,   371,  -716,   -97,  -635,   155,   141,    -979,  -452,  -199,    99,  -295,   -35,    45,  -118,     -1,  -495,  -436,  -573,  -645,  -100,   -90,   -36, // 1216
    
    // Out channel 19
     -1621,   230, -2044,    -6, -1325, -1074,   506,  -913,   -591, -1663,  -503,   -79,   854, -1379,  -315,   -26,   -3186,   999,   447, -1039, -1652,   -23,  -115,  1461,    194,  -625, -1472,  -754,   134, -2048,   -24,  -321, // 1248
      -609,   213, -1270,  -770,     9,  -770,  -187,  -325,    287, -1040, -3066,  1973, -1592,  -314,   188,  -799,   -1937,   661,  -313,   168,   -90,    39,   404,  -469,    855,  -520,  -451, -5615,  2289,   -49,    90,   222, // 1280
    
    // Out channel 20
       505,  -244, -3181,  -328,  -311,   113,   166,  -239,   -461, -3256,  -366, -1465, -1792, -3142, -2513, -3973,    -660,  -244,   220, -3122, -4212, -1026, -2117,  -371,    185,   505, -1780, -2973,   739,  -224, -1020, -1936, // 1312
       -17, -2050,  -322,    27, -4343, -3673,  -186, -1674,    578, -1504,  -186,   306,   103, -1244,  -113, -1467,   -3090,   -36, -4996, -1778, -1104,    -3,  -337, -1617,   -399, -2284,  -452,  -353, -3359, -4398, -2353, -1804, // 1344
    
    // Out channel 21
      -961,    21, -4995,  -393,  1624,  -199,  -260,   590,    824, -3541,  -319,   203,  -230, -3794, -6959, -5019,    -352,    79, -1969, -1624, -6159,  -139,  -514,  -612,   -729,   221, -3098, -2348,  -238, -1342,  -249, -3764, // 1376
     -1586,  -361,  -237,  -186,  -131, -4038,  -154, -3436,    162, -2398,  -233,  -253,  -555,  -398,   485, -1515,   -4696,  -396,  -128,    18,   -11,     7,    25, -2370,   -482, -4505,  -555,  -188,  -827,   -14, -3001,  -162, // 1408
    
    // Out channel 22
      -819,   -63,   656, -4363, -6019, -6408,  -255,  -424,  -1168,   627,    61, -3243,  -436,   757,  -215,   287,   -2177,   -23,  -360, -5031,   361, -1669,  -156, -1323,  -2200,   147,   360,  -164, -1227,  -135,  -236,  -228, // 1440
       -24,  -239, -5317, -5890, -1867,   376,    12,  -283,  -1274,  -104, -6488, -4642,  -413,   -20,   462,  -617,     754, -2651,  -882, -1378, -1206,   122,  -620,  -316,    448,   188,   -93, -6899,  -158, -1509, -1385, -2049, // 1472
    
    // Out channel 23
        56,   213,   -71,  -558,  -629, -1011,   324,  -321,   -581,   -25,    38,   -60,  -151,   381,   -35,  -216,    -874,  -138,  -363,  -704,  -419,  -719,  -485,    27,   -298,  -207,   275,  -281,   -22,   423,    36,    19, // 1504
      -518,  -190, -1010, -1277,   213,   110,   198,   401,   -395,    20,   -15,  -160,   201,   227,  -206,   -53,     462,  -904,  -421,  -255,  -311,    67,  -585,  -257,   1059,   294,    97,  -908,    17,    14,  -161,   255, // 1536
    
    // Out channel 24
       -27,    20, -2726,  -559,  -620,  -703,   -41,   -98,   -322, -2283,  -520,  -898, -2127, -2486, -1087, -3453,    -514,  -183,  -224,  -591, -3502,  -803,  -620,   -90,   -402,   -91, -1787,  -916,  -367, -1596,  -580,  -626, // 1568
      -308, -1689,  -579,  -648,  -868, -3574,    16,  -150,   -177, -2471,  -645,  -476,  -434,  -473,  -607,  -221,   -2895,  -241,  -857,  -741, -1123,    75,   -85, -1643,   -619, -2234,  -777,  -744, -1008, -1075, -1240,  -655, // 1600
    
    // Out channel 25
       -30,   -80, -2222,  -724,  2170, -2336,  -508, -1198,    -12, -1754,  -309,  -289,   886, -2618, -1620,  -127,    -157, -2184, -1085,  1309, -2867,  -156, -1077,   356,  -1864, -1565, -1476, -1640,  -990,  1831,   -46, -1324, // 1632
      -567,  -170, -2102,  -338,  -104,   198,   211,   -73,    191, -3145, -1382,  -701,  -853,  -196,   344,  -724,    -765,   387,  1253,    10,   -34,   155, -1458, -2673,  -1544, -1961, -1123, -2937,  -832,  -179,  -173, -1952, // 1664
    
    // Out channel 26
      -462,   -76,  -457,   183,  -414,  -400, -1795,  -487,     35,  -521,   601,  -122,  -424,  -334,  -539,  -781,    -959,   244,   199,   297,  -507, -1058,  -697,  -132,  -1165,   -83,  -207,   -38,   231,  -226,   431,  -491, // 1696
      -779,  -697, -2338, -1045,   -65,  -529,   162, -2955,   -489, -1239,  1122,  -610,  -185, -1770,  -283,   462,    -183,  1279,   119,  -687,   110,   -47,   885, -1707,    304, -1548,  -490,   -51,  -716,    60,  -589,  1791, // 1728
    
    // Out channel 27
     -1286,   100,  -962,  -460,  -393,  -175,  -954,   503,   -905,  -894,  1733, -3234,  -489, -1100,  -202,  -957,    1045,  -362,   457,   -60,  -225,   -42, -1451,  -505,    -67,   -67,  -165,  -296, -1571,   270,  -206,   -95, // 1760
      -185,  -486,  -580,  -846,  -691, -1242,   -98, -1805,    137,  -563,  -716,   162, -3393,  -201,  -310,  -141,   -1026,   841,   627,   -57,   -24,    41,  -187,   -21,   -871,  -900, -1355,  -275, -1952,  -118,   248, -3924, // 1792
    
    // Out channel 28
     -1400,    18,  -802,  -941, -1850, -1348,  -219,   -67,    196,  -586,  -538,  -485,  -849, -1719,  -469,  -713,   -3507,   124,  -614,   -14,  -992, -4201, -3742,  -184,     39,  -895, -1228,  -379, -4935,   120,  -423,  -398, // 1824
       -15,  -452,  -695,  -542, -4856,  -596,  -292,  -860,   -124, -4091,  -943,  1027,  -151,    -2,  -165, -2110,   -1560, -1506,  -835, -1616, -3662,   124, -1337,  1215,   -582,  -438,  -439, -2104,  -482, -3050,  -275, -4048, // 1856
    
    // Out channel 29
     -1888,  -172, -1649,  -739,  -371,  -230,  -162,  -588,   -855,  -840,  -806, -1925,   157, -2076, -1686,  -688,    -146,  1579,  -843,  -271,  -145,  -275, -1078,  -139,   -727,  -566, -1104, -1662, -2099,  -215,  -893,  -640, // 1888
      -111,   874,  -665,  -696,  -168,   -22,  -102,  1597,    189,  -294,   -79,  -768, -2877,  -551, -1329,  -371,   -1288,  -429,  -740, -1549,  -208,   142,  -880, -1797,   -809,  -933, -1655,  -422,  -333,  -714, -4571,  -721, // 1920
    
    // Out channel 30
     -1518,   -91,  -607, -4034, -3779, -5020,  -616,  -948,   -645,  -714, -2905,  -298,  -221,  -968, -2658,  -268,   -1574,  -427,  -511, -1098,  -397, -2395, -2309, -1073,   -655,    98,  -341, -2480,   211,   268, -1759, -2453, // 1952
     -1935, -4527, -6046, -3123,  -702,  -493,   207, -2557,  -2220,  -248, -4499, -2038,  -565, -1550,  -795,   -26,    -919, -1679,  -656, -1744, -2621,   -71,   666, -2542,   -759,  -381,  -488, -5222, -2800,  -847,  -179,   -15, // 1984
    
    // Out channel 31
      -748,  -241,  -194,  -216,  -422,  -106,  -319,  -139,   -278,    -9,  -346,  -232,    23,  -225,  -473,   -28,    -908,   102,  -121,  -485,    87,  -245,  -406,    20,   -966,    36,  -235,  -179,  -266,   146,  -212,  -178, // 2016
      -100,  -484,  -618,  -110,    90,  -174,   138,    15,     41,  -270,  -670,  -554,  -405,  -271,   102,    95,    -485,  -536, -1173,  -138,  -767,    93,   -89,  -489,     35,  -370,  -345,  -456,  -304,  -688, -1153,  -224, // 2048
    
    
};

const int16_t cg_FC3bias[32] = { // Co,H,W,Ci: (32,)
      2981, -3297,  1004, -2810,   594,  -352,  1889,  1852,  -2877, -1679, -3801, -4464, -4563,  2438, -2673,  2580,     990,  1979,  -498, -1909,   209,  1065,  2948, -4328,    352,  -295, -1955, -3273,   923,  -686,  2415,  -758, // 32
    
};

const int16_t cg_FC4weit[32] = { // Co,H,W,Ci: (1, 32)
    // Out channel 0
       288,   186,  -777,   145, -3772,    153,   452,   244,   158,  -142,     174,  -251,   217,  -256, -1013,    660,   505,  -290,  -183,  -111, // 20
       213,   125,  -760,   -63,  5481,     99,   220,  -142,  -126,   285,    -351,   -32,
    
};

const int16_t cg_FC4bias[1] = { // Co,H,W,Ci: (1,)
      4562,
};

