#include <stdint.h>
const int16_t cg_FC1weit[768] = { // Co,H,W,Ci: (96, 8)
    // Out channel 0
      -737,    -5,  -531,  -103,   971,   276,   275,   186, 
    // Out channel 1
      -142,  -260,    75,  -114,   -13,  -181,    11,    50, 
    // Out channel 2
       527, -2057,  -322,    63, -1336,   903,   574,    34, 
    // Out channel 3
       307, -4563,   238,  -704,   930,  -460,  1137,     3, 
    // Out channel 4
      -116,   -72,  -108,   -95,   -96,   -50,    48,    33, 
    // Out channel 5
       194, -3071,  -461,   652,  1006,  -628,   990,  -264, 
    // Out channel 6
       494,   140, -1075,   374,   227,  -475,   517,  -416, 
    // Out channel 7
     -1034,   214,   -50,   535,  1118,  -190,   138,  -146, 
    // Out channel 8
      -778,   281,  -698,  -182,  1036,   402,  -427,  -116, 
    // Out channel 9
      -461, -1941,   154,   437,  1134,  -829,   755,  -144, 
    // Out channel 10
       -54, -1179,    78,   313,  -648,  -656,   662,   867, 
    // Out channel 11
        35, -4914,   127,  -444,   612,  -801,   597,   490, 
    // Out channel 12
      -107,   639,  -544,  1258,  -380,   404,  -730,  -791, 
    // Out channel 13
        55,  -104,   -41,   -10,   -31,   -77,   -15,    36, 
    // Out channel 14
      -702,    99,   366,  -164,    64,  -554,    44,   193, 
    // Out channel 15
      -112,   -80,    18,   -42,   -68,   -18,   -45,   -75, 
    // Out channel 16
       -19, -1976,    41,    96,  -293,  -457,  1424,   475, 
    // Out channel 17
        10,   -96,  -205,   516,  1022, -1283,  -297,   679, 
    // Out channel 18
      -238,   -22,  -512,   814,  1377,   -75,   525,  -571, 
    // Out channel 19
       -51,   485,  -191,   510,   550,  1243, -1574, -2192, 
    // Out channel 20
       227,   205,  -695,   353,  -421,  -478,   334,  -172, 
    // Out channel 21
      -161,   -94,   394,  -233,   283,  -770,    33,   455, 
    // Out channel 22
       195,  -795,  -195,  -175,  -169, -1039,   700,   481, 
    // Out channel 23
       -35,   -97,    90,   -99,   -47,  -128,    70,     6, 
    // Out channel 24
      -744,    92,   522,   249,   650,   638,  -241,  -730, 
    // Out channel 25
      -337,   -57,   154,   888, -1161,   361,  -262,   433, 
    // Out channel 26
        98,   378,  -252,  -998,   376,   185,   565,   636, 
    // Out channel 27
      -792, -1819,   269,   304,   262,  -979,   919,   747, 
    // Out channel 28
     -1999, -2071,  2018,  -647,    85, -1047,  -627,   686, 
    // Out channel 29
       -42,   -47,  -104,    49,   101,    48,   -69,  -104, 
    // Out channel 30
      -565,  -200,   375,  -332,   262,  -683,    53,   265, 
    // Out channel 31
      1113,  -871, -1755,   458,   -33,   206,  -414,  -485, 
    // Out channel 32
       -65,    20,     7,   -88,    10,    23,   -20,    -5, 
    // Out channel 33
       -70,  -122,    -5,    92,   -39,  -121,    28,    19, 
    // Out channel 34
       206,  -784, -1428,   677,   888,   170,  -130,  -624, 
    // Out channel 35
      -168,  -299,  -267,   334,  1031,    56,   525,  -348, 
    // Out channel 36
      -346,   158,  -352,   991,  1407,  -423,   600,  -999, 
    // Out channel 37
        23,  -274,    89,   -78,   -67,  -156,  -247,  -254, 
    // Out channel 38
       382, -1165, -1373,   673,  -346,   101,   662,  -391, 
    // Out channel 39
      -831,   820,   241,    80,   717,  -731, -1054,   375, 
    // Out channel 40
       -70,   -60,   109,   -91,    38,  -101,    22,  -108, 
    // Out channel 41
       464,  -149,   287, -1057,  1088,  -280,  -336,   -69, 
    // Out channel 42
      -189,   515,  -627,  -307,   274,   -53,   783,   626, 
    // Out channel 43
       -33,    14,   -16,    -9,   -18,   -29,    24,    26, 
    // Out channel 44
       660,  -520,   102, -1196,   666,  -259,  -154,   207, 
    // Out channel 45
      -196, -2663,    33,    91,   722,   501, -2568,  -415, 
    // Out channel 46
     -2388, -1332,  1574, -1077,  -156,   -67,   382,   531, 
    // Out channel 47
      -442,  -480,   -52,   956,   212,  -645,   233,  -530, 
    // Out channel 48
      -348, -2030,   312,  -479,   777,   263, -2492,     5, 
    // Out channel 49
     -1270, -5847,   566,  1082,   185,  -665,   339,   214, 
    // Out channel 50
      -255,  -555,   481,  -226,   568,  -905,  -784,   391, 
    // Out channel 51
       -88,  -320,   308,   831,   520,  -991,   142,  -627, 
    // Out channel 52
        19,    92,   -92,  -120,   -89,  -100,   -86,    32, 
    // Out channel 53
     -2484, -2328,  2520, -1167,  -293,  -399, -1047,   682, 
    // Out channel 54
        38,   378,    30,  -933,  -625,   170,   137,    69, 
    // Out channel 55
     -1945, -2219,  3341, -3281, -3479, -2075,   198,  -279, 
    // Out channel 56
       105, -1687,  -132,    97,   667,   -12,  -214,  -378, 
    // Out channel 57
      -265,   159,  -168,  1358,   145,   498,   166,  -453, 
    // Out channel 58
       446,  -348,   336, -1137,   614,  -263,   -34,   144, 
    // Out channel 59
      -251,   435,  -728,   153,   342,    67,  -718,  -127, 
    // Out channel 60
       310,  -109,   181,   668,   -16,  -205,   118,   119, 
    // Out channel 61
      -180,  -287,   -25,   -10,    77,    -9,   -61,    -5, 
    // Out channel 62
     -1013,  1271,   274,   980,   820,  -193,  -778,  -385, 
    // Out channel 63
       184,   436,   -71,  1255, -1242,   -46,   114,  -204, 
    // Out channel 64
      -103,    17,   -79,    31,    20,     0,    31,   -38, 
    // Out channel 65
      -255,     8,  -917,   813,   612,   167, -1506,  -227, 
    // Out channel 66
       315,   397,   109,   871, -1444,   -32,   -38,   101, 
    // Out channel 67
       734,   981,  -633,  -694,   970,    37, -1852,  -439, 
    // Out channel 68
      -224,  -268,   100,   326,   810,   271,   473,  -374, 
    // Out channel 69
       -94,  1261,  -592,  -899,  -162,   153,  -979,   305, 
    // Out channel 70
        16,   568,     8,   269,   978,  -213,  -562,  -744, 
    // Out channel 71
         6,   495,   124,  -261,  1125,  -328, -1004,  -572, 
    // Out channel 72
      -781,  -762,   -95,  1578,   484,  -211,   685,  -412, 
    // Out channel 73
       257, -1133,  -272,   -41, -1043,   684,   609,   351, 
    // Out channel 74
      -421,    55,  -341,  -721,  1311,  -123,   234,   273, 
    // Out channel 75
      -104,    46,   -89,    51,   -85,   -51,    43,  -126, 
    // Out channel 76
      -877,   792,   366,  1299,    74,   -63,  -775,  -174, 
    // Out channel 77
        76,   -99,   -58,   -59,    50,   -99,    73,   -34, 
    // Out channel 78
      1177,  -909,  -612,  -903,  -280,   504,  -386,    38, 
    // Out channel 79
     -1023,  -648,   973,  -704,  -162,  -149,    47,   554, 
    // Out channel 80
       917,   279,  -965,  -292,   559,   521, -1806,  -704, 
    // Out channel 81
      -193,  -128,   520,   347,  -532,   357,   -43,   254, 
    // Out channel 82
     -1376, -2841,  1148,   288,   373, -1277, -1550,   710, 
    // Out channel 83
       440,   748,  -568,  -131,   500,   661, -3418,  -835, 
    // Out channel 84
      -460, -1770,   121,   836,   309,  -727,  1075,   -88, 
    // Out channel 85
       336,  1304,  -955,   267,   366,   -73, -1940,  -187, 
    // Out channel 86
       446,   113,  -780,   442,  1052,    64,  -998,  -947, 
    // Out channel 87
       126,   207,    45,  -579,  -955,   185,   404,    76, 
    // Out channel 88
       -38, -5850,   264,  -316,   821,  -648,   935,    85, 
    // Out channel 89
       -52,  1048,  -996,   374,   112,  -128,  -936,  -267, 
    // Out channel 90
      1100,   143, -1786,   346,   482,    47, -1677,  -425, 
    // Out channel 91
      -226,  -221,   641,  -137,  -293,   592,  -258,    -4, 
    // Out channel 92
      -131,     4,  -148,   361,  -120,   196,   -71,    -6, 
    // Out channel 93
       -73,   -65,    17,    57,   -81,    17,     9,   -29, 
    // Out channel 94
     -1165, -2013,   544,   573,   198,  -456,  -813,   326, 
    // Out channel 95
      -268,   -80,   226,  -215,  -170, -1146,  -395,   242, 
    
};

const int16_t cg_FC1bias[96] = { // Co,H,W,Ci: (96,)
     -4984,   -43,    21, -1661,   -61,  -784,  2130, -2436,  -2867, -1169,   105,    57,   169,  -165,  1796,     0,    -101, -3103, -2678,   279,  2789,  -241,  1185,  -144,  -1416, -1560, -3540,    66,   128,   -74,  1841,   980, // 32
       -62,   -41,   225, -2315, -1336,  -258,  1825,   571,   -109, -2312, -2879,  -114, -1589, -1415,    97,  1512,   -1032,   249,    46, -2617,   -92,   204,  1205,   340,  -2261, -5062, -1040,  1193, -4708,  -125, -1271, -2560, // 64
       -41,  -380, -2810,   162, -3105,   394, -2161,  -370,  -1282, -1210, -2618,   -41, -1656,  -153,    92,    27,     199, -2665,   151,   262,   -42,   189,  -965,   848,    113,  1791,   165, -1809, -1508,     0,   -77,  2550, // 96
    
};

const int16_t cg_FC2weit[6144] = { // Co,H,W,Ci: (64, 96)
    // Out channel 0
      -340,   100, -1257,  -221,    22,   365,    -4,   -72,   -573,  -677,  -681,  -282,   -96,   -37,  -151,    48,    -233,  -963,     8,   -34,  -300,  -302,     9,    85,     62,  -353,   148,  -174,    -5,    87,  -118,   -50, // 32
        23,   -70,  -100,  -611,  -954,   126,  -636,  -195,     42, -1191,  -344,   -56,  -925,  -284,   -95,     4,    -282,  -609,   -13,   142,    99,     5,  -472,   -24,    -77,  -718,  -745,     2,  -528,   105,   100,  -208, // 64
        12,    72,  -138,  1010,  -962, -1411,  -210,   130,   -472,  -431,  -386,    -5,   -28,  -106,  -160,  -196,     -99,  -839,  -109,  -185,   442,  -174,   249,  -666,   -113,  -220,  -160,  -197,  -181,   -92,  -450,  -346, // 96
    
    // Out channel 1
      -317,  -174,  -367,  -610,     0,  -171,   -45,  -249,   -427,  -453,  -255,  -555,  -122,    18,    11,    88,   -1149,  -316,   -17,   -18,  -293,    68, -1539,    79,    115, -1567, -1812, -1517,  -920,   -42,   -56,  -876, // 128
       -51,   -27,  -422,  -182,   280,   -53, -1732,  -105,     80,  -296,  -983,    20, -2721,    70,  -200,   146,      -9,  -111,    58,  -300,    22,  -220, -1621,    43,   -344,  -368,  -120,  -350,  -290,    -2,   220, -1408, // 160
         2,  -342, -1142,  -299,   -62,  -468, -1326,  -447,    -33, -1170, -1694,    93,   -10,    61,  -291,  -205,     -99,  -164,   167,  -201,  -279, -1870, -1639, -1441,    -40,  -644, -1552,  -132,  -104,   -71,   -52,  -133, // 192
    
    // Out channel 2
     -1489,   -42,     6,   319,   -18,   -76,  -585,   -66,   -497,   298,    63,    51, -1124,     9,   138,   -27,     113,  -194,   -85,    -6,  -652,    62,  -161,   -39,   -647, -1239,  -453,    76, -5118,    98,   193, -1842, // 224
        31,   -94, -1013,  -499, -1142,   -74,   294,   174,    -92,  -970,  -986,   -39,   -60,  -276,    96, -1205,      51,   114,   135, -2500,    41,    62,    -6,  -281,    -25,  -265,    10,    63, -2471,    81,  -250,  -649, // 256
       -55,  -213,  -323,  -669,  -444,   380,  -173,   673,      3,   -59,  -584,   -87, -1391,    81,    -4,    58,   -3515,  -386,  1388,  -970,    86, -1186, -1445, -1773,    -17,  -194,  -920,  -289,  -294,    30,   175, -2815, // 288
    
    // Out channel 3
      1664,  -203,   -59,   -22,    93,   -27,  -230,  1664,  -1912,  -105,   -37,  -172,  -151,   -63,   -19,    64,     -33,   126,    89,   195,  -203,     0,  -102,   -84,    214,    15,   -99,   553, -3033,   -90,   -65, -1132, // 320
       -37,    32,  -868,   -82,  -158,    30,  -224,  -519,    -18,    17,  -237,    31,   -20,  -108,  -384,   -74,    -111,  -141,   -19,    95,    53, -2065,  -840,   487,  -1005,   -21,    -5,    75,    54,    33,    71,   370, // 352
       -53,   151,   125,   -33,   110,   373,   111,   -42,    -99,  -169,  -316,   -44,   100,    72,  -162,   -41,    -540,    26,   210,   -20,    21,  -656,  -233, -1465,    -23, -1261,  -740,    22,  -118,    16,  1469,  -860, // 384
    
    // Out channel 4
      -481,     9,   -99,   277,     3,   234, -2229, -1538,   -203,   937,   124,   766,    59,     2, -1235,     0,      72,   204,    92,  -139, -1560,   -39, -1839,    41,    -13,  -324,    58,   107,  -176,    75, -1339,  -454, // 416
        39,   -48,  -953,   151,   578,   120,  -316, -1325,    105,   175,    43,    75,   522,    38,  -608,   -65,     176, -1387,    92,   980,    22,  -215,  -392,     5,    758,    44,    93,  -193,    21,    -5,   122,   352, // 448
       -65,  -154,   -50,  -159,    86,  -179,   164,     6,    133,    96,    85,    17,    24,    87,   214,    42,     247,    28,  -423,   558,   318,  -209,   524,  -515,    188,  -397,  -352,    42,  -246,   -91, -1418, -1488, // 480
    
    // Out channel 5
      -686,    32,   115,  -888,    43,  -552,  -411,  -630,   -284,  -663,   123,    17,  -621,     9,    98,   -37,     126, -2570,   -76,    81, -1108,  -206, -1684,    58,    -55,   329,    51,   -27, -1586,    -2,   -73,  -623, // 512
       -69,   -53,  -213,    21,  -804,    36,  -108,   -69,    -23, -1300,    -8,     6, -1251,   -22,   107,  -407,      92,  -591,  -985,  -248,   -36,   870, -1063,   -12,   -130,  -135,  -868,    71,  -117,  -104, -1638,  -696, // 544
       -20,   176,    61,  -481,    54,    58,  -322,  -578,   -134,    63,    21,   -84,  -857,   -69,   177,     5,   -1484,    77,    53,  -211,  -552,  -665,  -355, -1062,   -237,    54,  -267,    64,    -7,   -19,   656, -1348, // 576
    
    // Out channel 6
       -66,    30, -1662,  -379,   105,    13,  -150,   -58,     43,   -82,    -8,  -202,  -986,    46,   235,   -76,    -134, -2340, -1836, -1375,    -7,    80,    61,   -96,   -998,  -238,  -407,  -307, -1137,   -83,   187, -1149, // 608
        87,    69,  -754,    -1,  -926,    84, -2320,  -277,     43,   -76, -1003,    70,  -503, -1693, -1096,   108,   -1818,  1337,    40, -1432,    16,  -435,   340,  -856,    102,  -575,  -152, -1277, -1552,  -112, -1093,  -573, // 640
        63, -1289,  -813, -2924,  -969,  -831,  -100,  -110,    190, -2028,  -376,     6,  -563,   -84, -1926, -1487,   -2822, -1891,  -429, -2411,    11,  -357, -1449,   121,    -67, -1009,  -985,  -405,  -212,   -49,  -677,   262, // 672
    
    // Out channel 7
      -632,   -49,   115,  -346,    47, -3061,   -21,  -332,   -723,  -667,  -408,  -309,  -119,    64,  -430,    25,      -7,   -62,  -746,   -65,    13, -1024,   -20,    22,   -130,  -446,  -553,  -473,  -746,    85,  -737,     0, // 704
       -17,    43,   125,  -893,  -946,    16,  -227,   -66,     54,  -622,  -661,    78,   167,  -106,  -865,  -254,      80, -1958, -1635,  -233,    40,  -793,  -347,  -734,     46, -1326,    25,   120,  -872,   -44,  -787, -1130, // 736
        68,   111,  -837,    12,  -719, -1356,  -152, -1077,  -1084,   -20,  -797,   -96, -2178,    38,    64,  -411,      36,  -256,  -934,    -6,  -267,  -166, -1458,  -149,   -923,  -374,    16,  -105,  -326,    65,    24,   -59, // 768
    
    // Out channel 8
      -201,    24,  -329, -1063,   -19,  -410,     2,  -236,   -197,   362,   112,  -197,  -473,    52,    83,    79,     117, -1840,  -906,  -982,     9,    22,   109,   -63,   -265,  -432, -1608,   -24,   490,    38,   131,    41, // 800
         1,    94,  -624,  -390,  -502,    89,   -52,  -201,     83,   268, -1032,   -63,  -276, -1419,   628,    40,   -1369,   133,   -15, -1164,    37,  1290,    11,  4236,    -72,  -586,    46,    -1,  -659,    86,  -499,  -598, // 832
        75, -1435,  -606, -1308, -1200,  -160,  -158,   104,    329,  -916,  -540,   -51, -1148,    92,  -767,  -134,   -1537,  -967,   833, -1489,   186,  -353, -1520,    46,   -318,    -3, -1669,  -521,  -167,   -76,   -98,   104, // 864
    
    // Out channel 9
       652,   -21,  -622,   -33,   -18,   181,  -683,  2136,    585,  -822,   186,   407,   101,    51,  -471,   -14,    -154,   103,   569, -1393, -2036,    83, -2766,   -83,     29,   -49,   -22,   279, -2796,   -71,  -410,  -972, // 896
       -86,   -66,   913,    99,   -82,   103, -1334,   143,      5, -1476,   -33,    54, -1886,    46, -1904,   553,     179,  2376,    60, -1502,   -50,  -904,  -862,   -84,  -1515,   -57, -1653,  -474,   674,   109,   301,   825, // 928
        -7,   279,  -273, -2637,   -25,  -853, -1566, -2328,    -37,  -244,   260,    -4,     8,    25,  -260,  -220,   -1419,   -53,  -623, -2098,  -384,  -330, -1993,  -794,    121,  -964,  -386,    74,   191,     9,   147, -1889, // 960
    
    // Out channel 10
      -364,  -108,   113,  -584,   -26,  -413,   -21,  -462,     36,  -654,  -569, -1586,   -19,   101,   -72,   -76,    -147,   -74,  -613,    14,    15,  -780,   -32,    98,   -134,   -83,    10,  -591, -1148,   -31,  -282,    19, // 992
        76,   -85,  -119, -1622,  -426,   129,   102,   -14,     23,  -797,    25,   -64,   166,  -320,  -925,  -188,    -215,  -832,  -938,  -193,   -81,  -805,   -16, -1423,   -163,  -678,  -178,    36,  -419,    -3,    39, -1002, // 1024
        62,   -76, -1325,     0, -1416,    20,  -252,  -367,   -704,    43,  -409,    87,   -88,    33,    20,  -906,     -33, -1095,  -407,    40,  -515,    12,    13,   -11,   -551,    38,     8,  -268,  -210,   -83,  -480,    22, // 1056
    
    // Out channel 11
         3,   -29,  -125,  -638,    81,  -421,   -56,   -44,   -731,   145, -1126,   313,  -224,   -25,    -4,   -63,    -512, -1234,  -904,   -85,    -8,  -733,  -605,    51,   -601, -1633,  -867,  -587,    36,   -58,    78,    16, // 1088
       -33,    21,  -658, -1873,  -149,   -62,  -891, -2158,     64,    60, -1188,    -1,   586,  -975,  -100,  -617,   -2146, -1571,  -763,  -682,    32,  -102, -1781,   -16,   -113,  -950,    94,  -133,    93,   -96,  -743,    32, // 1120
        81,  -577,    35,   103,  -902,  -552,  -584,   361,  -1417,  -257,  -466,    92, -1808,  -108,    68,  -353,     -19,  -237,  -560,    40,  -110,   -58,  -414,  -880,    215,    -7,  -101,   -46,   -40,   -21, -2772,  -494, // 1152
    
    // Out channel 12
      -413,   -72,  -171,   552,   -46,   -56,   -93,  -251,   -120, -1659,  -244,  -807,  -194,    51,    86,   -80,   -1108,   154, -2760,  -235,  -114,    66, -1522,   -32,    -90, -1653,  -561, -1817,  -711,   -63,   -10,  -193, // 1184
       -33,    37,  -266, -1798,    88,    85,  -442,  -111,    -74,   152, -1084,   -95,   -52,    52,  -603,  -211,     -72,  -543,   128,   -40,   -83,  -821, -1780,  -143,    157, -1942,   111,   -72,   -32,  -125,  -139,  -208, // 1216
       -27,   -50,   -87,    53,  -143,  -459,    75,   103,   -760,  -330,  -924,    78,   -16,   -50,   134,  -384,      -8,    37,  -694,  -165,  -809,  -257, -1704, -1693,    -23,  -271,  -296,    29,  -367,    41,  -817,  -553, // 1248
    
    // Out channel 13
       217,   -22, -1685,  -511,    10,    83,  -399,  1881,    346, -1586,  -274,  -394,   474,   -65,  -502,    72,    -950,   294,    37, -1880,  -536,  -338,   -28,   -32,     22,   357,  -226,   348,    26,    92,  -237,  -507, // 1280
       -52,    49,   189,     0,  -328,   -29,  -230,   -94,    -20,  -441,  -326,   -51, -1851,   163,    62, -1103,      53,   -26,  -201, -1168,   -25,    40,  -663,   111,   -931,    54,  -906,  -630,    50,    28,   364,   473, // 1312
        68,   264,   289,  -755,     0,  -359, -1610, -1906,    252, -1064,   490,    79,    85,   -30,  -626,  -163,   -1022,    48,   -14, -2175,  -351,  -181, -1810,  -525,   -198,  -587,  -509,    26,   -10,    49,   852,  -260, // 1344
    
    // Out channel 14
       919,    41, -1290,  -376,    52,    44,  -961,  2102,    581, -1477,  -427,  -391,   207,    94,  -690,   -73,    -290,   438,    24, -1538,  -675,  -588,   -86,    47,     76,    39,  -163,  -392,    80,    57,  -183,  -514, // 1376
       -25,   101,   736,   131,  -190,   -68,   -97,    17,    -43,  -483,  -103,   -41, -1745,   198,  -189, -1171,     123,   357,  -574, -1349,   -33,   -11,  -795,   -25,  -1133,   223,  -990,  -366,     1,     0,   244,   630, // 1408
        28,   436,   366, -1222,    17,  -735, -1843, -2166,    132,  -628,   248,    88,   235,    37,  -456,  -383,   -1350,   -23,    41, -2528,  -447,  -414, -1983,  -569,   -248,  -932,  -601,     6,    89,    35,   113,  -109, // 1440
    
    // Out channel 15
      -825,    79,     5,   143,   -73,  -158,  -274,  -238,      7,    17,   -89,     4,  -500,   -26,   327,   -87,      92,    -9,  -383,  -724,  -342,   -16,  -207,    41,  -1056,  -832,  -968,     1, -2369,    76,   368,  -731, // 1472
        90,   -47,  -689,   152,   -55,  -138,     4,   -60,    -75,  -233, -1093,    -6,  -486,  -161,   363,   256,      34,  -292,   612,  -507,    46,  -260,  -154,  1673,    -40,  -278,   -29,    34, -1866,    78,  -461,  -693, // 1504
        26,  -182,  -892,  -316,  -322,   277,  -239,   747,    131,    94, -1542,   -74, -1631,  -101,    27,   129,   -2402,  -962,  1570,  -371,  -235,  -764, -1582,  -670,     39,  -202, -1602,  -520,  -194,    48,   818,  -222, // 1536
    
    // Out channel 16
       262,    31,   -21, -1048,    -1,  -480,    -3,  2104,    217,  -795,   422,  -499,   166,    17, -1413,   -61,    -490, -1142,    33,  -865,   303,   -15,    61,     4,    -59,  -638,     4, -1492,  -668,    50, -1276,  -140, // 1568
       -94,    52,  -753,   -52,    58,    81,  -233, -2326,     76,   -91,    -1,   -28,   208,  -266,  -917,   411,    -113,  -479,   246,   -18,    52,  -525,   113,  -488,    -43,     9,   143,  -190,  -244,   -36,    72,    -9, // 1600
       -93,   -90,   -54,   -72,   -71,   -69,  -742,  -436,   -740,   -80,    93,   -50,   353,   -78,    22, -1376,      24,  -564,    86,   -72,   323, -1019, -1096,   295,    202,   -37,  -146, -1082,    46,    60,  -365,   249, // 1632
    
    // Out channel 17
      -395,    72,  -442,   175,   -54,   156,    37,  1022,   -525,   247,   140,    69,  -217,    44,   -73,    65,     -48,    17,   329,    48,   -35,    84,   -50,   -10,   -353,  -489,   -45,    75,  1476,    87,   -91,   -44, // 1664
       -33,    41,  -461,    57,   -90,  -123,   -51,   159,    -45,  -509,   -33,   -39,   -67,  -327,  -346,  1109,    -105,  2049,   276,  -149,    84,  1216,     3,  3868,   -127,  -476,   -94,    42,  -120,    24,  -914,  -581, // 1696
        44,  -124,  -281,  -289,    49,   -62,  -235, -1443,     70,  -290,   -20,    66,  -308,   -26,  -221,    52,    -588,   -97,   317,  -279,   302,  -195,  -711,    -1,    160,     0,  -813,   166,  -125,    12,   -25,   -21, // 1728
    
    // Out channel 18
      -383,   -13,  -174,   245,   -72,    60,    21,   -38,   -446,   337,    20,    30,  -291,     7,    94,    33,     112, -1665,  -620,  -699,    34,   108,    64,     5,  -1250,  -407, -1221,   -52,  2493,   -14,    53,    19, // 1760
        37,    55,  -687,   -44,  -501,   -39,    44,  -154,    -79,  -249,  -688,   -88,  -298, -1209,   195,   -25,    -958,  -214,   -94,  -553,    15,  1368,    10,  4703,    -26,  -314,   268,    33,  -721,    20, -1623,  -547, // 1792
       -91,  -863,  -474, -1080,  -745,    -7,  -149,  -225,    277,  -627,  -884,    39, -1590,    79,  -281,    87,   -1385, -1670,   915, -1189,    76,  -359, -1364,    35,    -28,    12, -1722, -1252,   -31,    71,   194,    18, // 1824
    
    // Out channel 19
      -135,   -20,   -47,   284,   -30,  -145,  -491,   -35,   -170,    15,    18,    80,  -643,    44,   -21,   -64,    -122,    46, -3115,  -296,  -346,    46,  -847,    33,   -162,  -297,  -226,   -96, -1206,   -38,    -9,    63, // 1856
        63,   -39,  -891, -2099,   -71,    84,  -301,  -295,     49,    45,  -596,    99,    30,   -78,  -740,  -932,    -208,  -285,   296,  -118,    13, -1116, -1272,    -7,   -502,  -991,    61,   -69,   -18,   -10,    50,  -167, // 1888
       -20, -1322,    -3,   168,  -155,  -612,    65,    31,  -1553,  -571,  -995,    66,    -6,    30,    18,  -994,     122,    34,  1215,  -102,  -194,  -192, -1429, -1406,    -32,  -360,  -286,    11,  -279,    18,  -486, -1503, // 1920
    
    // Out channel 20
      -325,     1,   468,  -424,     0,   144,     7,  -386,   -462,  -757, -1990, -1941,   -32,   -13,   -26,   -88,    -431,   -76, -1186,     4,    47, -1870,   -33,   -94,   -314,  -435,   131,  -921, -2295,    79,    43,    45, // 1952
        20,    33,   338, -1868,  -879,   -13,    -9,   140,    -18,  -526,    26,   -40, -1773,  -172, -1464,    -3,    -391,  -445, -1459,  -200,   -29, -1651,     2, -2848,     15,  -951, -1648,   120,  -621,    44,   -59, -1350, // 1984
        41,  -114,  -849,   -32, -2784,    40,  -233,   133,   -322,    58,  -626,   -44,   220,    45,     7, -1337,     -41, -1304,  -337,    42,  -803,   -27,   545,   -13,  -1335,    42,     9,  -984,  -247,   -47,  -456,    40, // 2016
    
    // Out channel 21
      -710,  -181,  -108,   331,    51,   -94,  -692,   901,   2426,  -787,     6,  -166,  -624,   -10,  -850,    64,    -157,   123,  -155,   169,  -525,    50, -1078,   -27,    -48,  -297,   -57,   -89,  -434,    97,  -934, -1271, // 2048
       -27,    25,   836,   -63,  -340,  -139,  -168,  -393,     40,    47,  -104,    75,  -164,  -121,   901,   720,     104,   385,    97,   407,    54,   359,   -46,  -177,   -676,  -343,    25,   200,    28,    70,   -42,    81, // 2080
        57,   161,   185,   -20,   482,   347,   283,    25,    -15,   -86,   -52,    25,   117,   -50,  -170,   -19,   -1033,   -13,   141,  -510,  -197,  -808,  -892,  -427,     10, -1374, -1184,   -29,   -99,    30,    85,    79, // 2112
    
    // Out channel 22
        52,   -37,   -21,   491,   -72,   281,  -894,   167,    329,   472,     3,   155,  -614,   -10,  -203,   -58,      23,    94,   341,   -60, -1251,   -18,  -346,    69,     61,  -868,    70,    15, -1874,    82,  -143,  -510, // 2144
       -45,    10,   666,    85,   -78,    66,  -647,   349,     59,    35,    51,   -53,   222,   119,  -303,  -825,     173,   181,   -54,  -409,   -90,  -326,  -751,   489,   -452,   -34,    50,   217,     4,   -12,    27, -1143, // 2176
        47,   365,  -808,   -77,    48,  -123,   148,   213,     62,    68,   137,   -24,    -7,    19,   385,   -31,    -194,    -3,  1859,  -297,    33,  -685,   362, -1122,    269, -1048, -1031,    19,   106,   -24,  -989, -2784, // 2208
    
    // Out channel 23
      -122,   -66, -1577, -2370,    32,  -414,   113,  -147,   -106, -3632,    69,  -920,    33,     0,    42,    95,   -1750,  -630,   -84,   118,   -84,    40,  -740,    62,   -193, -1643, -2198, -1870,  -571,   -80,   -28,  -229, // 2240
        12,    42, -1348, -2491,   -11,   -28,  -639,  -493,    -64,  -133, -1328,    41, -1707,    69,  -279,   237,    -442, -1026,   -53,   235,   -21,  -751, -1618,  -117,   -270,  -509,   -11, -1200,  -112,   -76,    58,  -875, // 2272
        14, -1856,  -480,  -128, -1029,  -720, -1671, -1436,   -331,  -228,  -398,    69,     8,    77,  -561, -4376,       7,    67,  1411,    41, -1317,  -876,  -188, -1043,    -55, -1190,  -476,   -21,  -239,    28, -3694,  -570, // 2304
    
    // Out channel 24
       299,    58,  -168,  -639,   -64,  -952,    77,   328,    228,  -236,   -55, -1802,  -204,   -21,   117,   -39,    -317, -2075,  -239, -1230,    56,   -55,   104,   -50,    -93, -1019,    95,  -836, -2655,    59,   120,   -93, // 2336
       -33,   -86,   223,  -148,  -657,   108,   155,  -122,    -46,  -117,    -3,    32,   443, -1154, -2614,   156,   -1189, -1507,   295,  -124,    -6, -2506,   -20, -2852,    -60,  -851,   -48,   140,  -245,   -91,  -819,   -33, // 2368
        39,   294,   449, -1004,  -511,    31, -1193,  -679,   -349,   151,   207,    77,  -862,    25,  -119, -2810,   -1168,  -550,  -346,  -920,   -91,   -38,  -635,   -92,  -1291,   118,  -320,  -289,    71,   -96,  -954,    66, // 2400
    
    // Out channel 25
       360,   -85,   -23,  -292,   -82,   265,   -68,   995,    485, -1123,   -91,  -254,   -96,     7,   -58,    63,      13,     2,    77,  -658,  -919,  -433, -1994,   -18,     40,    43,     7,   -90, -1365,   -25,   123,  -962, // 2432
        62,   -54,   404,    41,  -596,    78,  -615,   421,     74,  -635,    23,    72, -2089,     7,   271, -1320,      58,  -641,  -581,  -924,    45,   959,  -655,   348,   -448,   130, -1132,   147,   157,    20,    29,    97, // 2464
       -33,   126,   386, -1089,    -8,    77,  -976, -1246,    160,   -12,   176,    -3,   118,    60,   -36,   -11,   -1397,    23,   140, -2009,  -652,  -918, -1453, -1693,   -243,  -247, -1386,    21,   314,    23,   154, -1040, // 2496
    
    // Out channel 26
     -1309,   -40,    42,  -425,    61,  -231,  -498, -1945,   -750,  -203,    82,   118,  -142,    28,     2,   -38,     -10,  -137,  -752,  -169,  -696,   -25,   -98,     5,   -141,   117,  -106,     6, -1494,   -88,   -66, -1527, // 2528
        14,   -58,  -416,  -161,   305,   -50, -1099,    71,     71,  -371,  -123,   102,  -755,   111,   355,  -178,      74,  -561,    58,  -376,    62,  -297,  -695,  -303,   -308,  -552,  -166,  -223,  -249,    16,   188, -1661, // 2560
       -86,  -233, -1958,  -286,  -102,  -410, -1487,  -574,   -473,     3,  -179,    48,  -125,    56,    24,   104,     -78,   -78, -1508,  -143,    51, -2800, -1259, -1045,    -37, -1061, -2865,   -87,  -262,   -16,  -188,  -427, // 2592
    
    // Out channel 27
      -224,   -39,    37,  -325,   -51, -2092,    22,  -320,   -787,  -687, -1725,  -479,    -2,     6,    33,   -82,    -761,  -247,  -587,   -64,    51,  -661,   -10,     1,    -76,    -3,    10,  -854, -2166,   -93,   -24,   -23, // 2624
        31,    97,   166,  -972,  -586,     3,    42,    95,    -37, -1168,    56,    54, -1085,   -35,  -993,    39,      23,  -545,  -975,  -306,    67, -1446,    -2, -2348,     27,  -309,  -497,    31,  -404,   -92,     4,   -57, // 2656
        29,   109,     0,     8,  -931,    -1,   577,    31,  -1803,    49, -1426,    54,   -26,    78,   143,  -966,     -36,  -328,  -314,   -11,  -309,    27,   166,   -72,  -2112,    29,   -13,   -89,  -139,   -58,  -198,    15, // 2688
    
    // Out channel 28
      -459,  -121,    -3,  -578,    85,   -55,  -178,  -248,   -814,  -760,  -337,  -240,  -106,   -55,    82,     4,    -642,  -219,   -48,  -100,  -514,    23, -2440,    41,    171,  -915, -1346,  -641, -1459,   -89,    38, -1955, // 2720
       -85,    10,  -110,  -182,    49,   -39, -1858,   146,     50,  -184,  -717,     1, -1440,   -43, -2235,   189,      81,  -193,    53,  -778,   -65, -1564,  -414,   163,   -452,  -758,   -36,   -87,  -208,  -159,    76, -1066, // 2752
        -7,    45, -1194,  -223,   -72,  -419, -1141,  -366,    -50,  -294,  -720,    91,    24,   -57,    61,  -231,    -114,  -121,   739,  -220,  -401, -1597, -1253,  -341,    -48,  -580, -2301,  -133,   140,   -35,   368, -1474, // 2784
    
    // Out channel 29
      -389,    40,  -259,   426,    -2,    29,    17,  -203,   -409,   324,    47,   -28,  -795,    13,    97,    98,      18, -1478,  -878, -1405,    37,    31,   112,    10,   -106,  -445,  -803,    45,  -326,   -65,   141,    38, // 2816
        80,   -19,  -681,  -260,  -635,    17,   164,  -156,    -86,   -88,  -465,    76,  -451,  -712,   100,    25,    -904,  -994,   -79,  -580,   -87,   840,     1,  2923,    -88,  -360,   161,   -25,  -597,   -81,  -766,  -655, // 2848
        23, -1022,  -484, -1991,  -894,    53,  -148,   -22,    388,  -664,  -795,    50, -1343,   -36,  -577,    46,   -2309, -1743,  1125, -2275,    68,  -637, -1403,   108,    -32,    -8, -2108,  -763,  -182,    80,   481,    86, // 2880
    
    // Out channel 30
      -901,   -75, -2310,  -519,   -53,   187,  -181,   545,   -475,  -984,  -163,  -257,   136,    -8, -1086,    56,   -1358,   285,   115,  -328,   -27,     6,  -226,    52,    107,   341,  -294,  -282,   -47,    90, -1600,  -313, // 2912
        -2,   -15, -1025,    37,  -247,   111,  -801,  -101,    -46,    32, -1066,   -82,   -85,    82,   -10,   203,      31,  -670,    -6,   305,   -99,   -80,  -431,   -22,   -390,  -111,    12,  -274,     6,   -13,    98,   178, // 2944
        14,   104,   204,    21,    53,  -515,   162,    79,    157, -1595,   839,    98,    85,    73,  -691,   331,    -812,    64,  -247,  -162,  -630,  -968,  -946,  -406,   -267,  -731,  -992,    58,  -226,    -6,   949,    68, // 2976
    
    // Out channel 31
      -178,  -128,  -137,   401,    19,   190, -1872, -1469,   -159,  1226,    17,   427,   -20,    21,  -768,   -61,       9,    72,   131,  -162, -1324,   -56, -1466,   -50,     25,  -559,    29,   118,  -325,    28,  -847,  -691, // 3008
       -75,    -8,  -225,    94,   607,  -104,  -207, -1162,     75,   177,    36,    15,   602,   174,  -495,  -546,     116, -1592,   -32,   338,   -41,  -316,  -314,    15,    548,   -65,    42,  -128,    12,   -25,    36,  -948, // 3040
       -52,  -107, -1338,   -96,    51,  -145,   374,    63,     55,   159,    91,   -73,   -13,   -14,    90,   -55,     397,    21,  -388,   331,  -140,  -598,   517,  -650,    285,  -458,  -821,     9,   -84,    82, -1730, -1576, // 3072
    
    // Out channel 32
       148,   -48,    23, -1137,    18,    24,  -258,  -617,   -177, -1040,   193,  -268,   529,   -25,  -418,   -20,     112,  -146,   -82,   813,  -576,  -498,   -96,   -93,     -2,   281,  -243,  -112,   -92,     7,  -194,  -654, // 3104
        -8,    18,  -274,   -54,   -88,   -14, -1783,  -711,    -18,  -947,  -940,    88, -1329,    -4,   111,   349,     817, -1006,  -319,    81,     8,    38,  -527,   -98,    468,   927, -1444, -1222,   -13,   -64,    12,   376, // 3136
       -37,  -611,   296,   -99,   -33, -1447,   -20,   -56,     68,    66,  -246,   -99,    11,    81,    16,    91,     291,    -3,     4,   282,   236,  -182,   281,  -343,   -967,  -423,  -489,    -9,   126,    20,  -831,  -329, // 3168
    
    // Out channel 33
     -1603,    50,    -5,  -107,    37,  -167,  -120, -1199,  -1036,   525,   111,   220,   -28,   -40,  -269,    86,     -64, -1128,  -960,  -217,  -177,  -497,  -988,    -6,   -188,    34,  -180,   -13,   -64,   -29,  -454,  -595, // 3200
       -28,    37, -1718,  -206,   512,  -125, -1951,  -879,     36,  -259,  -289,   -30,   -65,  -319, -1911,  -338,    -505,   147,  -248,  -758,   -67,  -483, -1254,    42,   -135,  -764,  -149,  -298,  -301,   -18, -1240, -1297, // 3232
        72, -1084, -1216,    25,   -53, -1285,  -776,  -816,   -454,    32,  -176,   -38,  -560,    70,   -13,  -421,      63,   -59, -1388,    58,    56,  -448, -1795,  -883,    347,  -467,  -554,    -8,   -52,    13, -1388,  -807, // 3264
    
    // Out channel 34
      -487,  -110,   107,   347,    88,   200,  -310,  -193,    -17,  -563,  -514,  -407,  -925,   -77,    44,    15,   -1281,   -35, -1916,  -276,  -176,    75, -2080,   -47,   -131, -2272, -1229, -1257,  -532,    68,   -92,  -438, // 3296
       -15,    13,   -59, -1315,     3,    79,  -241,   -82,     61,     7, -1610,   -49,  -102,   -34,  -587,  -240,      70,  -484,    15,   -42,   100,  -501, -1197,   -35,    -63, -1514,    40,    51,   -25,    58,   -28,  -273, // 3328
         0,    80,   -61,     5,  -155,  -597,   -39,    33,   -390,  -326,  -942,   -25,   -41,    60,    73,  -309,    -106,   -39, -1254,  -196,  -670,  -580, -1663,  -897,    -59,  -619,  -532,    -5,  -430,   -33,   -45,  -528, // 3360
    
    // Out channel 35
      -513,   -12,   -98,  -742,   -78,   223,    15,  -418,   -480,  -650,  -960,  -402,    -5,     6,   139,    88,    -411,  -210,  -667,   -81,   -80,  -189,     1,     4,   -105,  -558,   175,  -898, -2007,   -91,    34,   -86, // 3392
        65,   -82,   104, -1058,  -390,    72,    44,    84,     31,  -722,    21,   -68,  -206,  -121, -1546,   173,    -269,  -617,   -70,  -101,   -41, -1569,    85, -2634,   -109,  -384,  -182,    50,  -498,    15,  -103, -1579, // 3424
       -54,  -146, -1004,  -158,  -858,   -32,  -361,   119,   -316,   500,  -608,    -1,  -116,    97,   -50, -1441,     943, -1605,  -475,  -129,   186,  -100,  -355,    22,    195,  -120,  -127,  -352,  -245,   -64,  -474,    56, // 3456
    
    // Out channel 36
         7,    27,    83,    63,    88, -1263,  -401,   121,     41,  -384, -1985, -2051, -1048,    43, -1321,   -80,   -1755,     7,  -122,  -461, -1310, -1505,   -89,    29,     65, -2431,    42, -1469,   120,    59,  -893, -2047, // 3488
       -47,    50,   211,  -105, -1009,    17,  -715, -1424,     27,  -201,    -4,   -91,  -366, -1251,  -488,  -326,    -348,  -397,  -449,    -9,    36,  -448,  -165,    -8,      8, -1336,  -198,   144,  -874,  -129,  -227,  -155, // 3520
       -98,   215,   -82,  -404,  -188,   -79,   -98,   -81,   -644,    62,   332,   -32, -1815,    51,   183, -1243,    -440, -1403,   -85, -2339,  -260, -2058,   356,  -825,  -1181,  -726, -1461,   132,    56,   -69, -2114,   -72, // 3552
    
    // Out channel 37
      -364,   103,    62,  -188,   -84, -2790,   -47,  -392,   -431,  -462,    21,  -347,   -18,   -75,   -96,   -83,     154,  -373,  -938,   -23,   -10, -1990,  -641,    18,   -568,  -923,     4,  -434,  -384,   -52,  -190,   -61, // 3584
        27,   -20,  -121, -1914,  -284,    17,   347,  -314,    -10,  -656,    49,   -25, -1069, -1190,  -443, -2134,    -828, -1227, -2177,  -145,   -87,  -799,  -418,  -641,   -133, -1546, -1239,   132, -1790,   -23,  -905,   296, // 3616
        80,   -45,   140,  -126, -1939,  -283,  -451,  -709,  -2133,    41,  -405,    97, -2375,    72,   152,  -117,     460,  -974,  -513, -1705,  -548,  -285, -2117,  -464,  -1335,    -8,  -324,  -269,  -188,    49,  -777,  -323, // 3648
    
    // Out channel 38
      -319,   -29,    21,  -532,    84,   283,   193,  -358,     19,  -381,  -241,   -46,    59,    71,  -541,    48,      35,  -454,  -403,   322,    97,  -153,   -16,    26,   -827,  -762,  -211,  -504,  -357,   -68, -1592,   243, // 3680
        93,   -92,   911, -1355,   234,   175,  -535, -1295,    -34,  -261,   -85,   -19,   283,  -215,  -401,    46,    -514, -2091,    10,  -713,    11,  -196,  -563,  -419,   -219,  -428,     2,  -144, -2054,  -125, -1132, -2382, // 3712
         6,  -117,  -274,   123, -1592,  -696,  -764,   204,   -146,   531,  -370,    39, -1735,   -33,    77,   153,      59, -3393,  -558,   155,  -349, -1092,   271,  -265,     16,  -921,  -351,  -719,  -187,   -99, -3252,   102, // 3744
    
    // Out channel 39
       -84,   -46,  -115,  -102,   -23,    -9,    25,   -55,     -8,  -113,   -57,  -118,   -87,    55,    16,   -96,    -132,   -34,   116,   -95,   -56,   -81,   -93,    17,   -103,    69,    35,  -102,     5,    21,    50,    26, // 3776
        27,    45,    25,   -98,   -76,   -64,    43,   -37,    -72,    41,  -120,    27,   -40,   -18,    67,   -15,      56,  -148,   -80,    92,   -72,    -6,    46,   100,    -10,   -62,   -75,   -79,    86,   -86,   -86,    86, // 3808
        17,   -20,   -89,   -98,     9,  -115,   -44,    48,    -20,    24,   -46,   -23,  -120,   -54,  -203,   -35,       4,   -69,   -82,  -137,    20,   -98,  -112,     1,    -22,   -90,     3,  -157,     7,    -1,   102,    19, // 3840
    
    // Out channel 40
       160,  -143,  -723,  -628,   -96,    56,  -431,   351,    -56,   484,   277,  -620,   426,    94,  -631,   -86,    -305,  -105,   211,   485,  -628,  -291,  -422,   -83,     60,   532,  -235,  -345,   -94,     8,  -647, -1368, // 3872
        -7,   -76,   251,  -195,   253,  -140,  -903, -1290,     22, -1116,  -119,    69, -1389,  -287,   -28,   445,   -1070,  -910,  -167,   325,   -45,    28,   -13,    66,    126,    -9, -1311,  -513,     3,    17,   -12,   141, // 3904
        83,  -889,   222,  -282,   -53,    95,   342,   149,    210,  -185,    97,    28,    47,    55,  -630,  -203,     951,    -3,   -50,  1423,  1004,  -953,   646,   -59,   -250,  -533, -1312,     4,  -143,    52,  -136,  -468, // 3936
    
    // Out channel 41
       -88,   -56,   -72,  -640,    61,   124,    21,  -361,    -45,    84,  -352,  -120,   119,   -46,  -606,   -10,    -274,  -468,     4,   118,    41,  -157,  -176,   -41,   -880,  -144,  -188, -1212,  -288,    38,  -776,   -90, // 3968
        58,   -29, -3943,  -260,   547,    92, -1359, -1201,     33,  -249,   -57,   -45,   117,  -175,  -218,   126,    -968,  -960,   -82, -1224,   -42,  -181,  -955,  -189,   -189,   187,   -38, -1822, -2443,  -184,  -745,  -692, // 4000
        23, -2825,    96,   -17,  -165, -1164,  -846,   274,    -94,  -376,  -817,    71, -1155,    85,    89,  -218,      11, -3189,    87,    20,    58,  -658, -1477,  -387,      9,  -598,  -443, -1783,  -193,    91, -4335,     4, // 4032
    
    // Out channel 42
      -240,    12, -2055,  -314,    88,  -819,    23,   983,   -523,   -96,  -641,   -97,    64,   -74,  -460,   -95,    -814, -1569,   111,   -61,  -143,  -294,   -73,   -21,    187,  -982,   -47,  -228,    30,    -9,  -290,     4, // 4064
       -31,     0,    69,   163,   307,    57, -1231,  -938,    -85,  -598,    21,    16,  -222,  -728,    64,  -305,    -490,    75,  -348,  -190,   -36,   -89,  -178,   -33,     49,   174,  -424,   -87, -1023,    35,   291,  -690, // 4096
         2,    44,  -678,  -153,   267,  -154,  -142,  -344,  -1058,  -958,  -528,    46,  -438,   -12,  -100,    26,     -25,  -519,    84,  -603,  -130,  -716,  -722,  -223,   -264,  -201,  -341,  -461,   -37,   -69,    66,  -145, // 4128
    
    // Out channel 43
       292,    38,  -153,  -212,    -8,    31,   -94,   964,    411,  -936,   -41,  -115,    72,    56,   -67,     6,       9,   -68,    62,  -548, -1342,   -99, -1598,    95,     -5,   690,   -18,   -15, -1575,   -50,   165, -1212, // 4160
       -48,    70,   371,    -2,  -466,   -79,  -848,   633,    -28,  -298,    58,    36,  -958,     2,  -615,  -783,      16,   699,   -69,  -591,    51,  -281,  -747,   140,   -455,   145,  -346,   103,    37,    49,   -51,    58, // 4192
        96,     2,    68,  -531,    21,  -197,  -662,  -859,    161,     9,    60,     0,    27,    65,  -184,    74,    -565,    -8,   147,  -926, -1000,  -647,  -996, -1122,    -68,  -257,  -648,   -28,   205,   -94,  1083, -3043, // 4224
    
    // Out channel 44
     -1162,     6,   -20,   -45,    94, -1610,    43,    47,  -1421,  -418,  -857,  -439,    93,    97,  -250,   -10,    -287,  -529,    73,  -752,  -113,  -667,  -359,   -75,    -40,  -578,    27,  -694, -1107,    74,  -346,  -393, // 4256
       -95,    66,  -186,   -35,    61,    66,   410,   162,     43,  -217,    35,    96,  -108,   -74,  -769,  -966,      20,  -736, -1793,  -281,   -10,  -960,  -212, -1145,    -51,    92,  -217,   -48,  -396,    25,    84,   -86, // 4288
       -82,   -36,  -547,  -281,   -87,   -49,  -208,  -784,   -842,  -360,  -929,   -97,   -60,   -61,  -368, -1016,    -195,  -260,  -589,   830,  -805,  -638, -1706,  -185,  -1584,   -60,  -660,  -225,     0,   -49,  -153,  -335, // 4320
    
    // Out channel 45
      -374,   -37,    46,  -386,    17, -1186,    28,  -271,   -522,  -719,  -656, -1132,    42,    91,    19,    -5,    -126,  -188,  -505,    92,   -33,  -526,   -35,    53,   -104,  -567,   -26, -1041, -2069,   -79,    -5,   128, // 4352
       -68,   -54,   275, -1560,  -244,   -62,    71,    91,    -45,  -736,    52,    33,   212,     5, -1139,    16,      27,  -760,  -889,  -136,   -34, -1516,    -6, -2806,      5,  -701,  -148,    76,  -273,    14,    28,  -850, // 4384
        22,   114,  -751,    49, -1794,    23,  -252,  -415,   -811,    20, -1120,     1,   -26,   -31,    84, -1055,     -17,  -601,  -259,     7,  -717,   -36,  -309,    -2,   -618,     3,    22,    22,  -193,    78,  -484,     6, // 4416
    
    // Out channel 46
     -1340,   146,    52, -1110,    77,  -591,  -289, -1549,   -752, -3024,   -10,   157,  -533,   -67,   182,     2,       0,  -358,   121, -2083,  -255,    -2,   -89,   -36,     -8,  -623,  -247,    50,  -643,    67,    58,  -303, // 4448
        95,    22,    72,   -17,    59,    87,    20,    30,    -33,  -722,  -258,    15, -1241,    71,   322,  -949,     107,   108,   -29,  -721,     6,    23,  -188,  -250,   -374,  -806,  -131,    27, -1632,    11,   -32, -1756, // 4480
        58,     4, -1824,   -11,    42,  -380, -1064,  -250,   -423,     7,  -230,   -32,  -301,    88,   103,   466,     -19,  -135, -1035,   -54,  -323,  -307, -1867,  -306,    -14,  -364,  -220,    -5,  -145,    13,    23,  -218, // 4512
    
    // Out channel 47
       244,   206,   -11,  -338,   -65,   210,   -46,   494,    647, -1127,    25,  -276,   113,    76,   105,    41,      22,  -116,   122,  -628,  -194,  -507,  -427,    74,     37,   -94,   -26,   -22,  -948,   -28,    92,  -228, // 4544
       -52,    84,   114,    50,  -149,   -23,   -19,  -199,     12,  -747,    20,    78, -1928,   -13,   281,  -973,      39,   153,  -769, -1102,    78,   314,  -167,   313,   -429,   215, -1133,     8,   113,    67,   140,    86, // 4576
        48,   126,   198, -1095,    11,   -40, -1025, -1208,    118,   -32,   108,    94,    39,    30,     3,    63,   -1046,    27,  -788, -1693,  -471,  -676, -1507,  -199,   -245,  -102, -1032,    37,   381,    -1,   -89,  -395, // 4608
    
    // Out channel 48
     -1035,    55,   -30,   225,   -26,   -10,    15,  -240,   -372,   564,   214,    18,  -262,   -43,    38,   -19,     -25,  -735, -1431,   -91,   -27,   199,    15,   -44,   -352,  -974,  -590,    90,  2117,    92,    54,   -14, // 4640
       -91,    63,  -352,  -687,  -808,  -104,     4,   149,     79,  -604, -2160,   -38,  -712,  -139,    56,    36,      32,    87,    67,  -575,    65,   999,     7,  3679,     32,  -285,  -288,   -20, -1606,    40,  -457,  -563, // 4672
       -75,   -33,  -782,  -491,  -315,     5,  -170,   509,     56,   -41,  -347,   -80,  -578,    93,    -3,   100,    -890,  -426,   827,  -568,   254,  -244, -1602,    25,     27,    16, -1183,  -127,   -55,    20,    78,     8, // 4704
    
    // Out channel 49
     -1035,    43,  -224,  -420,   -59,   528,    10,  -208,   -554,  -258, -1951, -1673,    85,    73, -1933,    62,    -400,  -610,   121,   -39,    20, -1443, -2219,    31,    -83,  -418,   -47,  -443,   -27,    29, -1697,   148, // 4736
        33,   -74,    25,   -16,   238,   -55, -1252, -2848,     18, -1209,    13,   -78, -1159,   213,  -127,   633,    -212, -5278, -1031,   154,    96,   -77, -1093,   -75,    363,   197,  -506,    31,  -178,   -27,    87,    21, // 4768
        85,  -245,    25,    17,  -116,  -175,   208,  -600,   -189,  -418, -1398,    47,  -339,   -63,    90,  -148,       5,  -422,  -269,   -27, -1661,    -8,  -273, -1140,   -333,    -6,   114,  -527,   117,    56, -1480, -1894, // 4800
    
    // Out channel 50
      -262,    33,   -30,  -871,    31,  -728,   180,  -554,     77,  -965,   409,  -341,   -11,   -52,  -291,   -62,    -403, -1842,  -789, -2596,   114,    29,  -222,    -2,  -1046, -1291,  -763,  -978,  -604,    -8,  -769, -1124, // 4832
        53,     9,   721, -1558,    14,  -129,   138, -2160,    -98,   -78,  -183,    27,  -240,  -315,  -455, -1015,    -138,  -339,   276,   277,   -88,  -668,  -470,  -720,    -68, -1211,    11,   202,    11,  -160,  -389,    35, // 4864
       -22,  -318,    86, -1130, -2563,  -663, -1658,  -872,  -1101,  -229,  -212,   -21,  -376,    39,   -27,  -483,   -1349,   -91,   719, -1483, -1512,  -422,  -410,  -237,   -214,   -93,   361,   -51,  -217,    89,  -676,  -329, // 4896
    
    // Out channel 51
      -533,   -51, -1734,    57,   102,   657, -3144,   813,   -801,   316,   123,   268,  -658,     0,  -144,    31,      99,   -50,   204,  -248, -1537,   157,  -546,    53,   -323,  -484,  -172,    78,  1950,   -64,  -135,  -230, // 4928
       -52,   -20,  -455,    35,   243,  -149, -1776,   119,    -40,  -563,    -9,    49,  -173,   -67,   144,   -65,    -114,   153,    41,  -466,     2,  1661, -1641,    18,   -101,  -412,  -458,   117,   -67,     6,  -653,  -473, // 4960
        22,    95,  -103, -1280,   -29,  -449,  -193, -1139,    621,  -653,  -198,   -21,  -635,  -105, -1095,     9,    -987,  -218,   228, -1102,   373,  -272,  -930, -1152,    298, -2855,  -269,  -109,  -136,   -18,  1726, -1015, // 4992
    
    // Out channel 52
      -525,   -87,  -103,  -983,    89,   144,    24,  -139,   -727,   305,  -436,  -461,    -1,   -82,  -532,   -13,    -577,  -409,  -217,   -95,    17,  -213,  -166,    73,   -475,  -379,  -539, -1122,  -149,   -16,  -580,   -73, // 5024
       -10,   -73,  -124,  -982,   654,   143,  -651,  -716,     44,  -553,  -304,    31,   -40,   -53,  -250,    60,    -842,  -979,  -171,  -641,   -69,  -133, -1493,  -174,   -358,   365,  -118,   -64, -2853,   -62,  -608,  -253, // 5056
        29,  -203,    48,    15,  -804,  -641,  -729,   231,     18,  -287,  -556,    91,  -927,    40,    -3,  -352,      80, -1779,  1316,   -64,  -101,  -210, -1042,  -745,   -133,   -97,   -97,  -717,    62,   -34, -2713,    -7, // 5088
    
    // Out channel 53
      1503,     8,  -313,  -929,    65,  -221,  -724,  1515,    477, -1056, -1811,  -830,    86,   -48,  -833,   -32,    -521,   741,   -84, -1550,  -209,  -309,    97,   -76,      8,    39,   -75, -2210,     7,   -98,  -578,  -657, // 5120
        19,   -90,  1284,    35,  -182,    -6,  -720,  -561,      5,  -559,   -44,    -4, -1040,     8,  -552,  -161,     237,  -273,  -445,  -610,    41,   266,  -177,   160,   -597,   674,  -718,   190,    72,    39,   285,     4, // 5152
        50,   647,  1159, -1272,   -90, -1191, -1416, -1735,    190,   -24,   157,    18,   171,   -89,    79,   -82,   -1134,    -8,    57, -1820,  -175,  -481, -1578,     9,  -1297, -1132,  -594,   -23,   -44,    62, -2004,   110, // 5184
    
    // Out channel 54
      -563,    58, -1102,   466,    37,    51,   -83,  -162,   -523,    42,   110,   -74, -1238,   -51,    12,     0,     231,  -108,  -885,  -853,   189,    31,   153,   -78,   -217,  -358,  -372,  -118,  -321,   -50,    33,  -132, // 5216
        -8,   -64,  -354,  -865,   -71,    60,   -76,  -210,    -53,  -257,  -427,   -15,  -837,  -933,  -486,   111,    -517,   368,     9,  -352,   -42,  -212,    18,  3038,    -51,  -273,    31,   146, -1032,   -69,   -47,  -859, // 5248
       -75,    91,  -796, -1863,  -301,  -675,  -462,   776,   -100, -1666,  -941,    -4,  -232,   -38, -1598,   393,   -3154,  -236,   321, -2441,   172,  -470, -1892,    83,     69,  -201, -1736,  -132,  -250,   -20,  -386,   118, // 5280
    
    // Out channel 55
      -352,   -50,  -104,   408,   -26,  -235,   -10,  -162,   -260,     7,    12,    43,  -477,   -18,    64,    89,      85, -2463,   -88,  -399,    30,    47,    28,  -102,  -1701,  -311, -2388,    84,  1972,    23,    50,     0, // 5312
       -51,   -52,  -495,  -325,  -413,    79,   -20,    58,    -87,    47, -1486,   -76,  -360,  -281,   431,    15,     -44,   302,   109, -1001,    38,  1641,     8,  4133,    -80,  -190,   239,    74, -1184,   -69,  -908,  -770, // 5344
        -5,   -79,  -495,  -282,  -604,   -19,  -116,    96,    201,  -725,  -308,   -96, -1164,     5,  -242,   -13,    -949, -1575,   824,  -856,   572,  -243, -1378,    56,    -72,    21, -1357,  -656,   -96,   -25,    29,   -20, // 5376
    
    // Out channel 56
      -106,  -197,   245,  -426,   -19,   -21,  -990,    54,    -55,  -673,    22,  -157,  -128,    80,   211,    72,     -84,  -123,   -55,  -334, -2544,   -18,  -285,   -24,     -8,   818,   -57,  -121, -1360,    52,   226, -1811, // 5408
       -77,    28,   196,   -45,  -493,   -12, -1434,   378,     78,  -205,     2,    50,  -840,    -1, -2662,   -84,      -8,  -232,    16,  -221,    51, -3162, -1425,    97,   -424,   -29,   -86,    64,   -90,    93,     2,  -966, // 5440
        75,    31,  -535,  -252,   -32, -1114,  -577,  -561,     60,    63,   -61,   -55,   -19,    65,   -31,    33,    -162,   -89,   161,  -107,  -239,  -940,  -723, -1354,    -23,  -901,  -939,   -41,   212,    59,   992,    80, // 5472
    
    // Out channel 57
       -85,    15,   -32,     3,    55,   369,  -818,  -156,   -331,   203,   128,  -179,  -598,    64,   -26,    17,     -23, -1436, -1065,  -307,  -117,    11,  -564,   -63,   -628,  -872,    17,    64,  -309,    28,    80, -3730, // 5504
        65,    50, -1857,  -664, -1124,   -35, -2023,  -423,    -42,  -286,  -298,   -12,  -260, -3636, -1682,    99,   -4631, -4807,   188, -2105,    11,  -390,   -73,  -492,   -101,  -520,   -46, -2021,  -180,   -40,  -477, -1361, // 5536
       -27, -1689,  -379,   -53, -1336,  -400, -1397,   504,     74,  -587,  -410,   -28,  -901,   -86,   116,   -53,     -57,  -220,    86,  -807,   190, -1205, -1441,  -164,     72,  -917, -1676,  -222,  -133,   -83,   877,   312, // 5568
    
    // Out channel 58
     -1020,   -75,  -850, -1749,   -51,  -240,  -111,  -928,  -1233,  -436,  -821,  -249,    79,    17,  -318,    69,   -1196, -2034,   147,    51,  -216,  -107,  -613,   -89,    181, -1674,   -43, -1153,  -572,   -40,  -437,  -642, // 5600
        85,   -84,  -392,    62,   558,    -6, -2010,  -186,   -100,  -266,    -1,    25,  -260,   133,  -264,   259,     108,   302,   161,   -35,    22,  -231,  -524,  -120,   -325,    43,   -51,  -203,  -577,    -9,   132, -1071, // 5632
        19,  -364,  -210,   -65,    42,  -299, -1384,   313,   -346,  -823, -1522,    63,  -463,   -18,  -262,  -830,    -105,  -498,   416,   -75,    68, -1196, -1406,  -344,    -99,  -289,  -809,  -276,   -14,    44,   390,   175, // 5664
    
    // Out channel 59
        80,    -1,  -482,  -238,    85,   268,  -404,   -74,    -11,   524,   279,  -439,   200,    37,  -799,   -37,    -519,     7,   144,    88, -1969,   -52,  -641,    90,     48,   193,    56,  -520,   -15,   -21,  -805,  -590, // 5696
       -52,    91,  -352,   110,   223,   -82, -1578,   180,    -71,  -336,    64,   -67,  -410,   -18,   -73,   953,      10,  -781,    11,   106,   -62,   -84,  -657,    46,    645,    51,  -401,   153,    14,  -123,    99,   493, // 5728
       -48,   -77,   134,  -308,    33, -1715,   238,   148,    106,  -582,  -273,    21,    72,  -105,  -661,   -41,    1294,    21,     2,  1439,   653,  -379,   324,  -731,    -25, -1246,  -347,    34,   -61,    38,  -788,  -850, // 5760
    
    // Out channel 60
     -1633,  -246,   118,  -290,   -52,  -322, -1382, -1270,   -785,    39,    44,   112,  -540,    89,   161,    20,     -19,     3,  -815, -1436, -3006,    -1,  -145,   -29,    -65,   263,  -131,    -5, -4149,   -28,   135, -1819, // 5792
        -1,   -27,     5,  -211,    81,   -70, -2034,   404,     82,  -342,  -153,   -59,  -754,   109,   104, -1609,     104,     8,    18,  -976,   -72, -2019,  -481,  -399,   -394,  -717,   -84,    13,  -346,    68,    93, -1886, // 5824
       -56,   -78, -2673,    31,   -75,  -270, -1782, -3027,   -734,    61,  -231,    -2,  -324,     4,    48,    51,      13,  -103,  -779,   -57,   -39,  -985, -2057,  -541,     35,  -621, -1150,   -60,   157,   -60,   -39, -4278, // 5856
    
    // Out channel 61
       290,   -48,    13,  -242,    77,     5,   -59,  1073,    324, -1858,   -14,  -116,   238,   -92,    57,    86,      36,  -119,    96,  -560,  -277,  -402, -3898,   -47,      5,   132,    25,   -19, -7094,     8,    27,  -721, // 5888
        79,   -44,    74,    65,   -37,   -88,  -989,    36,     62,  -664,     4,    15, -1293,   -31,   136, -2445,      14,  1294,  -456, -1031,    49,   223,  -321,   314,   -548,   121,  -804,    65,    49,    61,    90,   139, // 5920
        96,    72,   131,  -777,     3,   -61,  -752,  -950,     71,     1,    10,    10,    75,   -81,   -28,    18,    -778,     4,  -515, -1402, -3029,  -588, -1277,  -327,   -108,  -158,  -687,   -27,   191,    84,  1048, -4115, // 5952
    
    // Out channel 62
       873,   146,    55,    44,    38,     2,  -139,  1698,    803,  -638,    -6,   128,  -307,   -57,  -215,     9,      -8,    33,    13,  -104,   103,   -18,   125,    16,    186,   759,    42,    74,   476,    93,  -163,  -385, // 5984
        29,    43,    -7,    84,  -492,    66,   375,   180,    -92,  -689,   116,    17,  -468,    14,   559,  -467,     138,  1270,  -418,  -108,   -30,   762,  -217,   -57,   -175,   -48,  -620,    71,  -440,   -55,   -13,   -85, // 6016
        59,    98,  -114,  -630,   118,   178,  -154,  -114,    210,    83,   124,    14,    92,    66,  -139,   132,    -705,   173,   147,  -523,  -492,  -109,  -174,   -83,     60,  -132,  -133,    35,    38,    26,   375,    86, // 6048
    
    // Out channel 63
       -49,   -82,     0,   -53,   -58,   -44,   -55,    45,     27,   -78,    40,   -77,   -54,  -100,    -7,    40,    -133,   -53,   -66,     8,   -42,   -45,    -3,    57,     11,    31,   -91,   -74,   -25,   -51,   101,   -92, // 6080
        89,    21,   -38,   -55,   -16,   -89,   -88,   -17,    -13,   -19,   -64,   -39,   -34,   -38,     7,   -38,       9,   -86,   -63,    82,    16,    74,   -33,    -9,   -116,   -59,   -67,   -36,   -83,     2,  -134,     5, // 6112
        35,     2,    48,     4,    16,   -19,  -112,    29,     27,   -48,   -37,    -9,   -79,   -30,    56,   -63,    -138,   -71,   -71,   -78,   -23,   -83,    -1,   -65,    -64,    23,   -41,   -27,   -81,   -23,  -130,    19, // 6144
    
    
};

const int16_t cg_FC2bias[64] = { // Co,H,W,Ci: (64,)
      -787,  1692,  1024,  -422, -4645,  -118,   -23,   556,    -12, -4421,   482,  1824,  1422, -1986, -2037,  -572,    -660, -3414,  -499,   469,    23,  -677, -2585,  1412,    388,    30,  1704,   166,  1501,  -107,  -705, -3224, // 32
     -3168,  1842,  1632,  -832,   829,   714,   190,  -959,  -4150,  1061,   457,    50,  1011,   -31,   758,  -156,      27,    99,  1043, -2846,  1793, -3921,   258,    32,   1067,  1006,  1261, -4352,  1158,    77, -4200,  -531, // 64
    
};

const int16_t cg_FC3weit[2048] = { // Co,H,W,Ci: (32, 64)
    // Out channel 0
      -174,  -226,  -326,    21,  -294,  -805,  -154,  -325,   -528,   -80,   -89,  -966,  -779,  -181,  -259,  -689,    -116,  -374,  -830,  -900,  -170,    10,    78,  -407,   -371,  -522,  -144,  -113,  -275,  -600,    -5,  -253, // 32
        52,     1, -1457,  -160,    48,   -82,  -304,    70,   -308,  -667,  -543,  -813,    71,  -127,  -502,  -618,    -873, -1106,  -176,   -71, -1329,    17,   -85,  -840,   -205,  -126,  -309,  -321,  -196,  -830,  -650,   -31, // 64
    
    // Out channel 1
        17,   -63,   -75,    11,   -80,  -239,   134,    22,   -203,   232,  -121,   -16,  -112,    17,   -56,  -295,      27,  -331,  -185,   -84,  -135,    51,   100,   -33,     95,  -491,  -206,  -235,  -177,  -248,  -753,   -72, // 96
         1,    18,   -85,  -139,   328,   -83,    -7,     9,      4,   -88,  -159,  -579,   -38,  -145,  -223,  -516,    -351,  -111,    45,  -181,    11,     9,  -243,  -234,   -559,  -326,   -24,  -140,  -442,  -426,   -18,     1, // 128
    
    // Out channel 2
      -308,     9,    87,   -12,   -58,  -359,   281,  -431,     51,   178,  -359,  -237,   -14,  -223,  -238,   195,      95,     6,    -8,  -525,  -205,  -185,    53,   167,    285,  -656,  -221,  -431,  -283,     0,  -754,   -55, // 160
      -155,   219,   -80,  -453,  -429,   388,    50,    49,    -73,  -871,  -308,     7,    40,  -471,    45,  -518,     -10,  -425,   184,   246, -1183,  -592,   -12,     7,   -179,   353,  -375,   -62,  -142,  -197,  -118,     6, // 192
    
    // Out channel 3
      -197,   -10,  -151,  -417,  -344,  -115,   -76,   -72,   -291,   -84,  -766,  -862,  -194,  -102,  -376,   240,     -18,     7,  -563,  -350,  -290,  -608,   -65,  -621,   -627,    60,  -118,  -206,    59,  -321,  -512,  -360, // 224
      -492,  -562,   -94,  -745,   980,    -4,     1,    22,    -53,  -517,     9,   -17,   -51,  -127,    87,  -106,    -240,   -67,   -81,  -144,    28,  -821,  -329,  -354,    -89,  -127,    -9,  -233,  -108,  -150,  -421,   -50, // 256
    
    // Out channel 4
      -128,  -313,  -255,  -897,   -49,  -526,   -37,   180,   -202,    56,   -77,    74,  -115,    20,   -63,  -215,    -291,  -308,  -457,  -269,   -36,  -880,  -133,  -164,     59,  -601,  -963,  -199,  -870,  -325,  -327,   -55, // 288
      -120,    37,  -340,  -257,  -174,  -556,    95,     8,   -213,   232,  -196,  -801,  -727,  -841,  -707,  -997,    -154,   228,   165,  -368,    41,   370,   -39,  -170,   -930,   316,  -234,  -240,  -708, -1058,  -138,   -30, // 320
    
    // Out channel 5
       -30,    43,  -102,   -38,    36,   -70,   -37,  -115,     14,   -90,  -145,    12,   -93,   -36,   -20,   -56,      11,    32,   -41,   -27,   -91,  -307,    38,     1,     18,  -115,   -15,   -35,   -43,   -82,  -174,    64, // 352
       -52,    74,  -153,  -144,   -90,    67,  -148,     7,    -64,  -151,    23,  -132,    24,   -76,   -51,   -92,     -25,   -28,    28,   -23,  -126,  -110,     1,   -72,   -120,    32,  -239,  -101,   -74,   -95,   -89,   -28, // 384
    
    // Out channel 6
        40,    -9,   -39,   127,    23,     6,    43,   -14,    -76,    53,   -49,   -54,   -94,   -47,     0,   -55,      54,     3,   -64,    13,    -3,  -120,   -72,  -107,    -37,   -42,    25,   -55,   -18,    22,  -141,    -3, // 416
       -85,    44,   -45,   -12,    -9,    74,   -61,   -22,    -30,   -52,   -37,   -72,    16,   -22,   -61,   -38,     -40,   -31,   -17,   -10,    16,   -35,   -34,   -39,   -116,   -23,  -123,  -127,   -13,   -48,   -83,    -8, // 448
    
    // Out channel 7
        64,  -178,  -132,  -303,   -41,    12,    46,   -38,    -69,   -11,  -382,   232,  -416,   -29,   -47,   -76,     -40,  -230,   -12,  -446,  -205,  -211,   -61,  -206,     43,  -162,  -201,  -105,  -156,   -42,  -360,   -52, // 480
       -11,  -126,  -376,  -154,   -12,    92,    85,    -5,     -4,   -90,   -27,   -85,   -83,  -318,  -113,  -184,    -129,   -86,  -110,   -62,  -372,  -134,  -160,  -123,    -65,   -33,   -54,   102,     3,   -99,   -20,    -2, // 512
    
    // Out channel 8
       120,  -548,  -168,    98,   202,  -518,  -663,    20,   -614,   104,   158,   -60,   -12,  -611,  -627,  -586,     160,   -54,  -716,   -34,   208,   185,   222,   -88,    747,  -902,  -560,    19,  -686,  -449,   349,   184, // 544
       365,  -161,   -16,   107,    -6,  -265,   -64,   -14,     49,  -162,  -438, -1695,   284,    46,  -136, -1025,   -1071,     2,     3,    90,    -3,   177,  -417, -1100,  -1030,  -169,  -438,    26,  -424, -1586,  -646,   -13, // 576
    
    // Out channel 9
      -678,   -12,  -178,    -8,  -506,  -291,   -68,    94,    -43,  -353,   -20,    54,   -55,  -165,  -245,    56,     -39,  -258,  -268,  -452,   -42,     8,   343,  -154,     12,  -185,   -32,  -275,   -59,  -260,   -13,  -415, // 608
       267,   -75,   -79,  -175,  -319,   -48,  -528,   -64,   -446,  -221,    -1,  -620,  -119,    -8,  -263,  -258,     -90,    99,   414,  -332,   553,     8,    -2,    -7,   -289,   308,     2,  -695,  -187,  -761,  -490,     0, // 640
    
    // Out channel 10
      -160,   -31,  -214,   -89,  -124,   -55,    51,  -151,      5,   -74,   -34,    41,    44,   -32,   -39,   100,     154,   -31,  -162,    -7,    72,   276,    16,    57,     41,  -488,  -125,   -68,  -134,  -123,   -91,  -136, // 672
        68,   -41,   -34,    87,  -181,   -18, -1306,    27,   -172,   869,  -102,  -583,  -463,   167,  -266,  -767,     -80,   122,    38,  -106,  -107,   -50,   127,   -37,   -321,   112,    -7,  -258,  -112,  -933,   -77,    51, // 704
    
    // Out channel 11
      -133,  -666,  -392,  -482,  -175,  -430,  -119,  -240,   -348,   -40,  -326,  -136,  -216,   103,    22,  -357,     -38,  -349,  -527,  -177,  -274,  -450,   -63,  -460,     19,  -621,  -728,  -343,  -658,  -396,  -553,  -161, // 736
       -71,  -275,  -372,  -218,  -255,  -217,  -299,   -11,    -89,  -175,  -547,  -592,  -397,  -317,  -835,  -999,    -665,    -8,  -146,  -432,  -201,  -196,  -406,  -440,   -356,   -55,  -668,  -264,  -542,  -728,  -134,    18, // 768
    
    // Out channel 12
      -181, -1353,  -142, -1294,  -118,  -825,   -87,  -169,   -465,   -22,   -71,    20, -1748,    56,    19,  -623,     -99,  -351,  -760,  -742,  -156,  -545,  -217, -1326,   -253, -1049, -1193,   -93,  -970,  -482,  -600,  -112, // 800
       -96, -1030, -1786,  -139,  -126,  -340,  -126,     3,   -154,  -150,  -674, -1014,  -240,  -116, -1757, -1423,    -967,   -29,   -36,  -173,  -100,    98,  -407,  -779,   -885,  -711, -1417,  -114, -1093, -1227,   -63,    -6, // 832
    
    // Out channel 13
      -733,  -602,  -197, -3549,  -718,  -709,  -251,  -840,    -32,  -132, -1643,   -57,   -12,  -100,   -47,   -59,     119,    -9,   -14,   -28, -1440, -3386,  -871,  -144,   -168,  -701,  -591, -1937,  -667,   -45, -4251,  -602, // 864
      -468,   -95,   -20,  -744,   109,  -168,  -182,   -37,   -418,  -231,  -505, -1462,   379, -1633,  -102, -1175,       2,    22,  -679,   -96,   -11, -1382,    -3,   -15,  -1084,  -130,  -464,   -40,  -421, -1785,  -125,    20, // 896
    
    // Out channel 14
      -488,  -653,   -61,   -26, -1371,  -220,   149,  -656,     22,    74, -1400,  -242,  -511,    26,    21,   -75,    -169,    12,    19,  -433, -1199,   -17,  -250,   -90,    101,    -9,   -44, -1563,  -403,    54,   -10, -1320, // 928
      -206,    22,  -668, -1026,   386,  -357,  -148,    -6,  -1126,  -802,  -374,   -48,  -523, -1412,   -91,   -17,       5, -1092,   349,   -19,  -436,    39,    12,    12,    -24,   -24,  -559, -1384,  -105,   -52,   119,    21, // 960
    
    // Out channel 15
      -101,  -284,   592,    15,    31,   -62,  -441,  -539,   -831,  -212,  -360,  -106,  -462,  -495,  -493,  -276,    -731,  -804, -1369,   120,  -302,  -103,  -241,  -402,   -135,  -245,   -23,  -252,    47, -1144,  -350,    15, // 992
      -150,    20,  -280,  -414,   244,  -491,  -516,    -6,    -43,  -534,  -666,   -14,  -674,   -77,   -11,   311,    -472,  -861,  -485,  -623,  -893,  -526,  -445,  -499,    -14,    75,  -226,  -104,     4,    -5,  -143,    -6, // 1024
    
    // Out channel 16
       309,  -262,  -313,    76,   238,  -298,  -205,    77,  -1005,   -82,   103,    -7,   -67, -1596, -1356,  -558,     155,    -4,  -782,  -550,   249,    47,   264,  -229,    487, -1913,  -367,   180, -1295,   -71,    75,   244, // 1056
       220,  -541,    97,   208,   -68,   119,    54,   -33,    265,  -105,  -762,  -922,    73,   169,   161,  -885,   -1312,   114,   116,   181,  -184,  -123,  -864,  -948,  -1551,  -130, -1067,   294,  -320,  -470,  -186,   -29, // 1088
    
    // Out channel 17
      -342,  -783,  -368, -1237,   -99,   -50,   -61,   -60,   -407,   -83,   -59, -1041,  -474,   -67,  -140,  -619,    -126,  -407,  -784,  -941,  -124, -1419,  -409,  -115,   -231, -1283,  -430,   -89,    33,  -560,  -667,  -108, // 1120
       -60,  -465,  -601,  -129,   -54,   -41,    40,    59,   -321,  -451,  -322,  -177,   -90,  -103,  -581,  -108,    -743,  -213,  -137,    -9, -1264,  -272,  -167,  -566,      5,   451,  -696,  -113,  -568,  -218,  -259,   -45, // 1152
    
    // Out channel 18
       255,     3,   -21,   -79,    89,   -78,  -639,    93,  -1067,  -743,    15,    15,     6, -1343, -1309,  -163,      78,  -822, -1225,    19,   149,  -150,  -147,    24,   -215,   -20,   -11,   207,     0, -1119,  -287,    78, // 1184
      -165,    15,     6,   228,   -22,   264,   192,   -25,    217,    36,    -7,    -8,   -15,   198,   -22,   -16,    -234,     3,    81,  -585,     7,  -706,  -310,  -362,    -12,   -99,    -3,   244,   -36,   -22,   -36,    12, // 1216
    
    // Out channel 19
      -326,   -51,   -19,   -81,  -654,  -579,  -588,  -508,   -402,    40, -1849,  -135,  -124,    -8,    30,   -31,    -556,  -460,  -360,  -277, -1495,   -47,  -121,  -995,    254,   -15,   -36, -2089,   -22,  -514,   -37,  -735, // 1248
       -52,  -121,   -16, -1190,  -197,  -686, -1403,    15,   -403, -1492,   -14,    29,   -91, -1753,   -20,   -31,     -84,   -15,    97,   -38,  -767,    -2,   -87,   -91,      8,   255,   -24,  -347,    23,   -12,    -7,   -33, // 1280
    
    // Out channel 20
        64,  -111,   193,  -133,    -6,  -148,    -8,  -123,   -309,  -389,  -328,   -28,     3,  -398,  -592,  -125,     -67,  -205,  -635,    84,  -257,  -226,  -374,    20,     -7,   366,   -95,   227,  -198,  -423,  -590,    29, // 1312
      -291,    65,   -88,  -233,  -125,  -210,  -221,    16,     31,  -133,  -135,   -37,   -83,  -175,     1,   -16,    -170,  -223,  -134,  -136,   -94,  -583,  -279,  -348,    -23,   -99,   -96,   -68,   -17,    -1,  -161,    33, // 1344
    
    // Out channel 21
      -167,  -480,  -470,   -12,  -225,   -94,   -44,  -375,    -29,  -163,  -508,   -33,  -522,  -172,  -244,   -93,    -596,  -320,   -12,  -528,  -526,   -51,   -34,   117,    -19,  -585,  -820,  -425,   -43,   -65,  -167,  -208, // 1376
       -11,  -738,  -135,  -550,   -65,   -70,  -200,   -18,   -191,  -154,  -164,   -16,  -275,  -456,  -700,  -231,     -33,  -418,     4,  -198,  -405,  -126,  -210,    -5,    -34,  -154,  -378,  -387,  -392,   183,   -46,    12, // 1408
    
    // Out channel 22
       201,   -75,   -88,  -202,    16,   -68,  -103,   175,   -486,    13,   137,   260,   -68,   -51,    15,  -201,     -16,  -341,  -654,   -76,   324,  -284,    54,  -217,    317,   -84,  -268,   166,  -191,  -404,  -256,    57, // 1440
        58,  -144,   -31,   152,    42,  -264,   134,    39,    103,  -233,   -38,  -205,    98,   222,    -6,  -221,    -619,  -123,  -336,    -5,   525,   -96,  -433,  -489,   -131,    -5,  -228,    49,  -112,  -210,   -28,    23, // 1472
    
    // Out channel 23
      -374, -1197,   -33,    69, -1086,  -411,  -140,  -660,   -260,   -68, -1375,  -293,  -720,  -442,  -570,   -18,    -343,  -223,  -303,  -398, -1558,    34,  -573,  -447,   -399,  -262,    -4, -1394,  -471,  -261,    62, -1157, // 1504
      -404,   -49,  -405, -1170,   200,   -94,  -474,   -62,   -755,  -752,  -263,  -172,  -150, -1213,   -39,  -317,     -63,  -525,  -120,  -248, -1436,  -123,  -109,   -81,    -71,    11,  -372,  -889,   -46,  -437,   -96,   -27, // 1536
    
    // Out channel 24
      -160,    26,  -582,  -928,   -55,  -704,  -205,   -17,   -449,    -1,  -156,     1,   -56,   134,   -87,  -376,    -370,  -376,  -609,  -296,  -463,  -459,  -240,   182,    113, -1308,   -28,  -596,   -34,  -482,  -551,   -80, // 1568
       -32,    91,     0,   -54,  -500,   -48,  -212,    66,    -73,  -266,  -201, -1812,  -481,  -193,  -676, -1532,    -477,   264,    92,   185,   -98,   -32,  -458,  -462,   -150,   225,    42,  -309,  -433, -1253,   -17,    49, // 1600
    
    // Out channel 25
       -72,  -549,  -411,   -50,   -18,  -904,  -291,   -83,   -765,   148,   -70,  -221,  -373,  -294,  -365, -1492,      -6,  -361, -1064,  -327,  -241,   -46,   -26,   -44,   -202,  -411,    -4,   -94,  -218,  -863,   -53,   -30, // 1632
       -16,  -105,  -433,   -99,   197,   214,  -152,    90,      0,  -569,  -526,  -209,   -68,  -129,   -95,  -506,   -1765,  -339,   276,  -124,  -388,    38, -1241, -1234,   -106,   -69,  -564,   -68,   -97,  -651,  -653,    65, // 1664
    
    // Out channel 26
      -128, -1362,     3,    97,   -78, -1033,  -462,  -180,   -918,   261,   -68,   -20,  -586,  -379,  -405,  -290,    -122,  -706, -1229,  -837,   -30,    61,   230,  -284,     79,  -743,  -961,   -60, -1064, -1176,   101,   -33, // 1696
        73,  -378,  -881,  -154,   -76,   -66,   -97,    -9,    -60,  -113,  -603, -1642,  -209,   -70,  -742, -1100,    -614,    71,  -159,  -587,   -91,   200,  -347, -1207,  -1208,  -447,  -854,   -24, -1069, -1658, -1189,     4, // 1728
    
    // Out channel 27
       -47,   -10,   -14,   185,   -19,  -140,   -30,   -58,    -73,   -32,   -12,    56,  -115,   -73,  -157,   -57,      -8,   -93,    -4,    87,   -78,  -112,   111,    10,    -29,   -84,   -82,    12,   -86,   -29,  -238,   -15, // 1760
       -43,   -34,   -85,   -29,   -54,   -89,     8,   -41,    -77,   -11,    15,   -87,    54,   -31,  -216,   -52,     -69,   -61,   -55,  -102,    36,  -212,   -98,   -16,    -38,   -63,    16,  -152,   -20,   -69,   -95,    58, // 1792
    
    // Out channel 28
      -578,  -116,   -52,  -447,  -547,  -161,   -54, -1079,   -103,  -245, -1372,   -25,  -177,  -123,   -50,   -90,     -12,   -90,  -128,  -174, -1333,  -334,  -278,   -68,    -32,  -150,  -114, -1437,  -115,  -141,  -381,  -611, // 1824
      -175,   -79,  -264, -1338,    14,   -93,  -345,     1,   -165,  -193,  -169,  -343,    29, -1352,  -149,  -261,     -36,   -64,  -400,  -208,  -298,  -216,   -29,   -39,   -320,  -113,  -137,    14,  -117,  -363,   -84,    18, // 1856
    
    // Out channel 29
       -80,  -462,   139,   298,  -210,   -43,   693,  -323,    122,   429,  -545,  -115,  -267,    49,  -101,   134,      21,    22,    53,  -303,  -555,  -242,  -139,   223,    661,  -138,  -654,  -670,  -156,   179,  -330,  -237, // 1888
      -124,   279,  -186,  -749,   -45,    75,  -366,   -12,   -139,  -230,   -44,  -199,  -245,  -748,  -199,  -166,      -1,   -68,   236,   243,  -216,   -48,    25,    49,    -54,   346,  -384,  -339,   -81,  -288,   133,    61, // 1920
    
    // Out channel 30
        87,    15,   146,   -37,   -54,  -158,  -464,   168,   -548,  -183,  -266,  -243,     2,    11,  -101,  -224,    -254,  -634, -1040,   -42,  -508,  -509,   -16,   -15,     38,  -121,    26,    48,    71,  -822,  -612,   -28, // 1952
        53,    24,    35,  -222,  -281,  -297, -1792,    30,    -44,  -394,     0,    52,     6,  -103,   116,  -520,    -135,  -866,  -106,  -264,   -87,  -175,  -146,  -270,     61,   546,     9,   -91,  -527,   -12,  -399,    41, // 1984
    
    // Out channel 31
      -390,  -770,  -551,    34,  -559,    -3,  -172,  -611,   -354,   -53, -1264,    31,  -343,   -15,   -16,   -90,    -885,   -93,  -383,  -519, -1744,    23,   202,   -86,    -78,    13, -1347, -1020,  -346,  -374,    31,  -445, // 2016
       163, -1340,  -501, -1295,  -255,  -181,  -203,    15,   -532,  -548,  -394,    19, -1179, -1457, -1063,    27,    -102, -1412,  -131,  -199, -1018,   -24,   -82,  -125,     -3,  -196,  -741,  -600, -1078,    44,   -95,    44, // 2048
    
    
};

const int16_t cg_FC3bias[32] = { // Co,H,W,Ci: (32,)
      1114, -1155,   -95,   269,   235, -2306, -1287,  -493,   1796,     3, -1341,   410,   925,  2093,  2460,  -611,   -1471,   664,  3712,   947,  -777,   -37, -2800,   906,    463,  1830,  2119, -2035,   362, -6340,   -61,  1243, // 32
    
};

const int16_t cg_FC4weit[32] = { // Co,H,W,Ci: (1, 32)
    // Out channel 0
      -897,  1248,   243,   405,  -395,    746,  2377,  1054, -1317,  -256,    -313, -6889,  -580,   579,   564,    524,  1194,  -300, -1582,   312, // 20
       575,   544,   412,  1545,  -186,   -680, -1322,  4176,  6214,  -235,     431,   698,
    
};

const int16_t cg_FC4bias[1] = { // Co,H,W,Ci: (1,)
      5683,
};

