#include <stdint.h>
const int16_t cg_FC1weit[768] = { // Co,H,W,Ci: (96, 8)
    // Out channel 0
     -1314,  -852,  -508,  -161,   -43,   -53,  -243,   272, 
    // Out channel 1
      -159,   600,  -149,    78,  -182,    76,  -247,  -251, 
    // Out channel 2
        17,   472,   145,  -627,   276,  -131,  -338,   173, 
    // Out channel 3
      -813,   207,   300,   500,   111,  -567, -1005,   484, 
    // Out channel 4
      -105,  -130,     6,   -11,    86,   -54,    63,  -114, 
    // Out channel 5
      -995,  -532,    14,   130,   463,  -154,   -99,   135, 
    // Out channel 6
       147,    40,   449,  -902,   286,   675,  -518,  -518, 
    // Out channel 7
       -13,  -611,   490,  -633,   138,  -891,  -438,   602, 
    // Out channel 8
        16,   -49,  -123,    25,    18,  -127,    61,   -11, 
    // Out channel 9
       192,   438,  -185,   321,   -93,   -65,    55,  -437, 
    // Out channel 10
      -409,   -47,   405,  -719,  -685,    79,   462,   -55, 
    // Out channel 11
        43,   -44,   -59,   -59,    21,    -6,   -23,   -80, 
    // Out channel 12
      -625, -1158,   228,   371,  -163,    71,   361,   335, 
    // Out channel 13
      -910,   235,   507,   679,  -142,   595,  -119,  -577, 
    // Out channel 14
       -81,  -763,   328,  -297,   128,  -908,  -860,   631, 
    // Out channel 15
      -153,  -201,   384,   282,   145,  -758,  -491,   287, 
    // Out channel 16
      -137, -2640,    54,   237,   148,  -793,  -202,   360, 
    // Out channel 17
       241,    36,  -162,  -396,    20,   533,  -247,  -528, 
    // Out channel 18
      -435,   256,   148,   653,  -975,    13, -1196,   697, 
    // Out channel 19
        -8,  -101,    22,  -143,    86,   105,  -111,   -23, 
    // Out channel 20
       433,  -549,  -320,  -700,  1291,  -274,  -798,  -204, 
    // Out channel 21
      -165,  -781,   193,   656,   -36,   413,   249,  -966, 
    // Out channel 22
      -408, -2129,    47,   570,   -64,  -735,  -856,   590, 
    // Out channel 23
      -332,  -245,   270,  -294,   432,  -404,   206,   135, 
    // Out channel 24
      -269,   447,   242,   650,   418,  -176,  -430,   -43, 
    // Out channel 25
      -165,   -98,   105,  -392,   -43,  -400,   629,   105, 
    // Out channel 26
        62,   -61,   -61,   -40,    68,  -129,  -151,   -89, 
    // Out channel 27
       -30,   -93,    55,    14,  -123,    12,    51,    32, 
    // Out channel 28
       524,   176,  -445,  -291,  -419,    89,  -526,   345, 
    // Out channel 29
       119, -2834,    23,   265,  -308,  -215,  1130,  -168, 
    // Out channel 30
       318, -1464,   210,    16,   392,   480,   314,  -736, 
    // Out channel 31
       401, -2868,   258,  -406,  1207,  -262, -1755,  -660, 
    // Out channel 32
        12,   -42,   -15,  -100,   -12,    17,   -15,     1, 
    // Out channel 33
      -886,   284,   670,   628,  -477,   743,  -194,  -453, 
    // Out channel 34
       332, -1314, -1179,   617,  1161,  -591,  -298,  -272, 
    // Out channel 35
        -3,    10,    21,   -43,     0,    80,     0,   -73, 
    // Out channel 36
     -1050,  -271,   639,   143,   299,   414,    29,  -455, 
    // Out channel 37
      -830,  -213,    81,    88,   567,  -152,  -306,   -17, 
    // Out channel 38
      -348,  -567,  -276,   126,   150,    82,   796,  -186, 
    // Out channel 39
         1,     5,   -24,    76,   -70,   -84,    32,   -23, 
    // Out channel 40
       -92,  -109,   -47,    11,   -57,   -12,    21,    19, 
    // Out channel 41
       254,   222, -1223,  -104,   396,   336,  -526,  -260, 
    // Out channel 42
      -135, -1317,   -10,   393,    78,   -68, -1033,   617, 
    // Out channel 43
     -1202,  -535,  -587,  -823,  -304,   -38,   202,   138, 
    // Out channel 44
      -251,   187,   407,   533,  -319,   538,  -153,    44, 
    // Out channel 45
      -640, -2210,   260,    88,   598,  -213,   247,  -269, 
    // Out channel 46
        27,   652,  -544,  -474,   196,   372,  -950,  -114, 
    // Out channel 47
       -91,   -65,    -2,    31,    66,    80,    26,   -78, 
    // Out channel 48
         9,    32,   -97,    -8,     0,   -70,    11,   -40, 
    // Out channel 49
     -1324, -1302,  -110,   133,   191,   -77,   -29,   221, 
    // Out channel 50
        23,   -76,    27,     8,   -16,    -5,    71,   -53, 
    // Out channel 51
       494,   262,  -347,  -396,  -511,   160,  -533,   340, 
    // Out channel 52
      -465,   755,   308,   474,  -752,   237, -2853,   461, 
    // Out channel 53
        -7,  -130,    61,   -73,    64,    11,   -41,   -42, 
    // Out channel 54
       374, -1939,  -424,  -201,  1301,  -877,  -538,   -24, 
    // Out channel 55
       -12,    -1,   -96,     2,  -120,    57,   -79,  -104, 
    // Out channel 56
       347,  -615, -1024,    90,  1345,  -336, -1078,  -467, 
    // Out channel 57
       438,   965,  -286,  -429,    17,   225, -1387,    96, 
    // Out channel 58
        97,   728,   570,  -216,   516,  -134, -2614,   -61, 
    // Out channel 59
      -568,   -81,  -286,    16,   237,   -10,   556,    23, 
    // Out channel 60
      -334, -1174,   136,  -225,   271,   528,   352,  -633, 
    // Out channel 61
      -871,  -255,    -9,   -85,   438,   -97,  -279,   185, 
    // Out channel 62
      -491, -1008,   197,   -81,   438,  -343,   303,   -78, 
    // Out channel 63
       -50,   211,   327,   756,   192, -1183, -1388,  -218, 
    // Out channel 64
        -4,    -8,    30,   -18,   -59,    84,   -43,   -60, 
    // Out channel 65
       287,    50,  -278,  -355,  -360,   110,  -259,   443, 
    // Out channel 66
       213,   410,    52,  -196,  -350,  -570,  -489,  -289, 
    // Out channel 67
      -103,    20,   -97,     3,   -78,     9,   -91,   -45, 
    // Out channel 68
      -133,    52,  -110,   604,  -413,  -655, -3023,   741, 
    // Out channel 69
       111, -1864,  -193,   406,   500,  -327,  -428,   427, 
    // Out channel 70
      -465,   -51,   161,   378,   224,  -732, -1045,   645, 
    // Out channel 71
      -105,   -65,   -24,     1,    -5,    -4,   -50,  -111, 
    // Out channel 72
       -94, -1773,    22,  -593,  1129,  -149,    96,  -294, 
    // Out channel 73
       -99,    56,   -89,  -119,   -81,   -44,  -100,     2, 
    // Out channel 74
      -182,   936,   375,  -335,   -27,   116, -1132,   -30, 
    // Out channel 75
       395, -1716,   313,  -210,  -121,    -5,   824,   -87, 
    // Out channel 76
        15,   -35,   -48,   -82,   -24,   -96,    12,   -87, 
    // Out channel 77
       435,  -581,  -709,   194,  -198,   276, -1315,   104, 
    // Out channel 78
      -101,    -5,    96,   -96,    33,   -58,  -101,  -122, 
    // Out channel 79
         3,   248,   295,   386,   -26,  -528,   139,    22, 
    // Out channel 80
      -125,   134,   467,   144,    65,  -626,  -113,    69, 
    // Out channel 81
       612, -2614,  -632,   348,   971,  -207, -1342,  -798, 
    // Out channel 82
      -882,  -770,   101,   -65,   314,   -14,  -622,   204, 
    // Out channel 83
      -176,  -228,   -71,   724,    54,  -924,   -62,    39, 
    // Out channel 84
      -445,  -209,    70,   706,   346,  -813,  -143,  -118, 
    // Out channel 85
       195,  -430, -1021,   485,   -14,   -31, -1055,   201, 
    // Out channel 86
      -363,  -751,   493,   106,  -414,   550,  -113,  -599, 
    // Out channel 87
        -2,   641,  -191,  -312,    99,  -134,   335,  -146, 
    // Out channel 88
      -209,   768,  -301,   609,  -176,  -366, -5101,   402, 
    // Out channel 89
      -186,   211,   343,  -189,   544,   779,  -260, -1002, 
    // Out channel 90
        14,  -130,    12,   -47,    71,   -30,  -103,   -43, 
    // Out channel 91
      -106,   484,   150,  -356,  -434,   338,   -90,  -203, 
    // Out channel 92
       531,  -379,   -64,  -495,    70,  -274,   238,    16, 
    // Out channel 93
      -103,   -76,    63,   -30,   -42,  -121,   -41,   -70, 
    // Out channel 94
       -58,   493,   584,   525,  -240,  -123,  -882,  -421, 
    // Out channel 95
       197,  -528,   229,  -311,   121,  -893,  -417,   704, 
    
};

const int16_t cg_FC1bias[96] = { // Co,H,W,Ci: (96,)
       271,  1466,   350,  -150,   -23,  -174,    43,   543,    -20,  -271,   721,   -47, -1775,  -225,  1015, -1427,    1448,  1503,  -520,  -874,  -677,   101,   511,   498,  -5067,  1548,  -126,  -346,   147,  1325, -3035, -1306, // 32
       -25,  -886,  -343,  -300,   461,   481,   586,   -40,      0,   149, -4683,   718, -5818,  2153,   579,  -372,     -49,  -199,  -573,   101,  -884,   -87,   107,     0,    669, -1109, -4101,  -131,  1535,  -336,  2338,  -384, // 64
       -68,  -828,   113,     0,   296, -4646, -1450,     0,   1075,     0,    -9, -2279,     0,  -821,     0, -2738,    -746,  -330,  -465,   735,   567,   207,  1994,  1304,   1005,  -921,   -27,  1295,   659,     0, -1855,  -969, // 96
    
};

const int16_t cg_FC2weit[6144] = { // Co,H,W,Ci: (64, 96)
    // Out channel 0
        -7,  -111,   -88,    57,    91,   -35,  -118,     3,     30,     9,   -44,   -99,   -60,    -8,    34,   -30,      52,   -61,     0,   -42,   -16,   -88,    64,   -93,     16,     3,    61,    63,    28,     9,   -83,   -44, // 32
       -66,   -10,    16,    53,  -118,    39,   -60,    56,    -66,  -103,    40,    18,   -54,  -102,   -37,   -94,      79,    15,   -49,    -4,   -69,   -51,   -20,   -48,    -49,   -41,  -120,    29,   -94,    29,   -86,   -65, // 64
         2,   -74,    73,    38,  -117,    -6,   -92,   -71,      2,   -78,   -20,   -69,   -67,    12,   -37,   -99,     -69,   -87,   -12,    70,    70,  -137,    49,    27,    -14,   -51,    72,    -9,   -98,    81,     9,   -19, // 96
    
    // Out channel 1
      -133,    30,  -521,  -291,   -36,  -224,  -373, -1076,     70,  -812,  -190,    37,   183,    49,  -709,  -304,     350,  -201,   172,   -55,  -102,    46,   544,   133,    -54,  -931,   -29,    88,  -665,  -357,   -58,     5, // 128
        77,    55,  -229,   -18,  -122, -1121,   -59,    70,    -83,   481,   109,  -311,    69,   227,  -253,    63,     -63,  -244,   -41,  -638,    98,     6,   129,   -65,     63,  -450,  -296,  -153,   -78,  -248,   182, -1376, // 160
       -62,  -429,    28,    38,    96,   111,  -150,   -23,    -50,    -5,  -658,    71,    73,    46,   -71,  -501,    -562,   -22,  -719, -1284,  -272, -1160,    36,   -12,    -94,  -205,    36,    46,  -432,    74,  -166,  -277, // 192
    
    // Out channel 2
      -481, -2281,  -289,  -521,    28,  -390,  -508,  -170,     16,   -19,  -247,    76,    73,    67,  -109,   -41,    -252,   -50,    27,     6,  -191,   351,  -914,  -335,   -256,  -612,   -15,   -97,    28,   122,  -171,   -88, // 224
        55,    -7,  1089,   -81,  -888,  -529,    35,   -42,    -19,  -337,  -224,  -297,    31,  -683,  -776,   -60,      63,  -307,    60,    20,   -14,    57,  -266,    75,   -253,    21,  -448,   112,  -350,  -336,  -385,   187, // 256
        37,   105,   -59,    -9,    95,  -220, -1416,    -2,   -678,   -77,  -681, -1090,    72,   -70,    49,  -189,      11,   298,  -325,    25,   751,   -53,   157, -1767,    174,  -119,   -54,  -449,  -673,   -18,   210,  -776, // 288
    
    // Out channel 3
      -129, -1258,  -370,  -385,    10,  -842, -1375,  -132,    -22,  -175,  2027,   -14,    45, -2095,    58,    -7,     129,  -744,  -284,   -22,   526,  -550,   -24,   -51,    -49,   -16,   -62,    35,   -25,  -163,  -105,    37, // 320
        53, -1356,  -349,     5, -2475,  -436,   -54,    -7,    -93, -1160,  -163,  -499,   -75,  -888,  -673,  -149,     -89,  -161,   -96,   -78,  -371,    29,  1261,    67,   -802,    29,    80,    -9,  -995,  -113,  -160,  -371, // 352
         4,   -74,  -125,   -51,  -104,    24,  -188,   -65,   -837,   -45,   358,    13,    33,   -77,   -20,  -175,     -91,  -272,   -29,  -692, -1952,  -403, -1980,   -37,    853, -1904,   -82,  -692,    38,   -99,  -208,    47, // 384
    
    // Out channel 4
      -377, -1158,  -353,  -999,   -46,  -778,    94,  -265,     63,  -512,    53,    21,  -165,  -223,  -813,  -393,    -186,  -221,   -87,   124,   157,    51,  -431,  -779,    268,  -624,    29,   -83,  -112, -1157,   -48,   238, // 416
        44,  -253,   215,   -29,  -143,  -390,  -158,   -10,     38,   423,   155,    26,    54,     9,   204,    19,     -56, -1374,    88,  -134,    21,    39,   426,    31,    722,   -11,   107,  -342,   170,  -623,  -499,  -883, // 448
        21,   695,   -83,   -20,   178,   110,  -274,     3,    -77,   -27,  -578,  -551,   -96,   -30,    29,  -862,   -1367,   263,  -378,   113,   -46,   153,  -186,  -538,    218,    11,    95,  -197,  -972,   -59,  -469,   436, // 480
    
    // Out channel 5
      -198, -1823,  -903,  -151,   -79,   -46,    66,   -93,     30,  -289,  -287,   -91, -2485,   131,  -180,  -159,    -820,   294,  -264,   -56,    80,   219, -2449,    46,   -319, -1204,   -12,   -99,   -56,   -71,   272,   293, // 512
        48,    80,  -629,   -97,    23,  -153, -1127,   -22,     31,   178,  -100,  -243,  -202,   307, -2235,    31,     -31,    40,    33,     8,    37,    80,   351,   -41,  -1670,   299,  -129,   -34, -1072,    74,  -662,   -38, // 544
       -41, -2214,   872,   -65,  -854,    44, -1745,   -15,     75,   -58,  -652,   -68,    12,  -686,    88,   -58,      97,   428,   -69,  -309,   491,   186,    35, -2456,   -596,   264,    79, -1126,   -75,   -42,   109,  -115, // 576
    
    // Out channel 6
      -491, -1322,    12,    60,    29,   363,  -133,  -202,    -21,  -288,  -501,   -32,   -26,   -21,   590,   194,     346, -1326,    34,    23,   -38, -3459,   129,   -84,   -145, -1347,    36,   -35,    26,  -628, -1685, -2022, // 608
        54,  -103,   -12,   -34,    48,   402,   -73,    -3,    -51,  -334,   -54, -2944,  -203,    39,     0,    -5,      25,  -115,   -56,   -17,   101,   -37,    99,    30,   -227,  -141,  -460,   167,  -336,   119,   -50, -1683, // 640
       -48,    28,   -20,   -36,    91,   -72,   139,   -74,    -42,   -18, -1762,   -74,   -15,  -157,     6, -1464,      80, -1438,    49, -1124,  -717,   -74, -2141, -1594,    606,  -723,   -85, -1301, -2199,    81,  -722,   225, // 672
    
    // Out channel 7
      -405,    29,   370, -1870,    52,  -239,   212,    -3,    -57,    19,   556,    -2,  -706,   -10,  -769,  -421,     -84,   -31, -1002,   -97,   311,    66,  -910,  -707,  -1574,    12,    64,   -86,   200,  -112,    65,    62, // 704
        97,   -57,  -669,   -48, -1580,  -911,  -112,    62,    -60,   -69,  -729,  -677,  -314,    21,    77,   -54,      66,  -134,   -27,   148,  -914,   -95,   445,   -42,    742,    20,  -941,  -167, -1517,  -448,  -324,    51, // 736
       -26,   294,    76,    74,  -725,  -310, -1419,   -34,     18,   -91,    -7,  -286,     1,   -61,    30,  -278,    -364,    41,  -583,   308,  -144,   -36,    35,    13,   -266,   113,    60,    67,    40,    62,  -169,   -52, // 768
    
    // Out channel 8
      -244,     9,   -75,  -894,    68,  -723,  -218,   247,    -93,    24,   238,    -6,  -533,   230,   249,  -691,   -2545,    61,   109,    -2,   -86,    54, -2986,  -278,   -559,   149,    53,    42,   224,    47,    66, -1453, // 800
        15,   112,  -316,   -72,  -491,  -967,  -932,   -61,     80,  -119,  -161,  -348,  -232,  -527,   164,     9,      31,  -268,   -82,   -65,    75,    92, -1040,    55,    651,   -44,  -272, -1261,  -272, -1374,  -137,    11, // 832
        35,   434,   335,   -54,   -25,   -83, -1117,   -43,   -175,    28,    22,  -342,    53,   177,   -32,  -611,    -367,   384, -1480,   194,  -162,  -209,  -175,   -17,    290,    63,   -57,    56,   -73,    76,   129,  -106, // 864
    
    // Out channel 9
        13,  -502,   -28,   -61,    77,    68,   -14,  -495,     52,  -187,  -128,     2, -3457,  -155,   -83,   -56,      49,  -234,   122,   -80,  -265,    70,   219, -1280,     -7,  -199,     0,    50,     4,    96,     0,    22, // 896
        76,    64,  -330,    38, -1183,   -87,   -28,    77,     69,  -724,   -84,   -17,   -23,  -200,  -800,    15,      41,    63,    -3,    -8,   117,   -58,    -2,   -55,   -387,    15,    61,   -14, -1078,    19,  -636,  -687, // 928
        42,  -313,  -104,   -73,    93,     0,    70,   -78,   -536,    78,   535,    28,    35,   -97,   -46,   -76,     -70,    29,   -58, -1170,  -552,  -136,   -42,  -689,    625,   -81,    13,  -326,  -817,    81,    27,  -196, // 960
    
    // Out channel 10
     -1270,  -745,  -137,  -123,    40,  -736,   -67,  -205,    -64,   400,  -348,   -98,   -50,  -157,  -558,  -462,    -983,     1,    76,   -51,  -298,    -5,  -779,  -218,     19, -2411,   -27,   -14,   338,     8,  -176,   415, // 992
       -42,  -167,   237,    23,  -247,  -117,  -448,   -28,     12,   -78,   -35,  -429,    64,  -579,  -483,    64,      38, -1591,    58,   395,  -326,    10,  -226,    54,   1073,   -52,  -919,  -410,  -369,  -506,  -590,   148, // 1024
       -68,   277,   440,   -36, -1626,    -8,  -163,    16,     -2,     3,  -611,   102,    74,  -172,   -35,  -390,    -369,   147,  -350,   189,  -173,  -128,  -252, -1374,   -411,  -205,   -54, -1959,   -89,    12,  -191,   -71, // 1056
    
    // Out channel 11
       -49,  -262,  -325,   195,    59,  -219,   121,  -214,     -8,   230,  -589,   -99,  -259,   266,  -258,   126,   -2047,   490,    49,    58,   -52,   227, -1285,  -123,    144,   207,   -20,   -26,  -585,  -460,   -51,  -403, // 1088
       -14,   134,   -33,   -63,   519,  -692,   -95,    93,     -8,    98,  -168,  -154,   -31,    34,  -306,   -92,     101,   -16,    26,  -356,  -346,   -74,  -348,   -26,     88,  -724,  -649,  -280,  -153,    53,  -215,    12, // 1120
        12,  -412,   -83,    24, -2422,  -186,   652,    69,    108,    63,  -359,  -139,    82,  -202,    13,    71,      41,   156,    33,   340,   218,  -339,   248,   -24,  -1485,   265,    75,  -200,  -305,    -4,    -4,  -124, // 1152
    
    // Out channel 12
       904,   -35,    39,    72,   -48,   474,   316,   -54,     61,  -530,   181,    69,   -31,    15,   683,    14,    -154,   126,    46,    26,   286,  -313,    14,   159,   -295,   182,  -107,   -60,    18,    38,  -371,  -629, // 1184
        46,    -8,  -638,   -13,    25,   501,    31,   -78,      9,  -756,    45,  1082,   -75,   -45,  -160,    75,      45,   275,   -24,   -42,    13,    50,    13,   -58,    114, -1101,  -461,   -72,   149,   352,  -141, -1393, // 1216
       -84,   -59, -1288,    61,   298,    77,   113,    54,     51,    37, -1059,   202,   -55,  -388,    86,  -339,     243,  -893,   145,   -17,   504,  -487,   -43,    28,    363,   274,    34,    15,   346,   -32, -1473,    -1, // 1248
    
    // Out channel 13
        15,    -1,  -155, -1781,   -20, -1435,   -44,  -165,    -87,    76,   673,   -63,  -638,  -365, -1165,  -431,     821,   -59, -1962,   -92,   177,    53,   103,    -6,  -1197,    11,   -42,   -21,   -26,    67,    70,  -218, // 1280
       -60,  -722,    -4,   -73, -2609, -2787,    49,   -40,     16,   -21,  -131, -2601,  -384,    81,   135,    31,       9,  -556,   -38,  -106, -2371,    58,   435,   -61,    284,    64,  -931,    70,  -988,  -453,   -54, -1015, // 1312
       -10,   377,   -99,     7, -1350,    54, -1149,    42,    222,    95,  -669,  -367,    49,  -103,    15,  -317,      62,   580,  -357,  -900,  -655,   -22,    15,     8,  -1299,  -170,    83, -1732,    -8,    14,  -453, -1864, // 1344
    
    // Out channel 14
      -177,  -339,    33,   230,    98,  -490,   234,    89,    -47,  -682,  -124,     8,    50,   207,   517,  -510,    -999,  -713,    17,    73,   -38,   -81,  -864,    42,    -23,   130,   -21,   -93,   335,  -328,   -15,     3, // 1376
        -9,    11,   238,    11,  -149,  -287,  -308,   -18,     86,  -491,    88,   -51,    26,  -448,  -603,   -40,      30,  -181,    -3,    17,    75,    31,  -356,    90,   -159,   -35,   109,  -278,  -235,  -545,    84,  -231, // 1408
        49,    53,    27,   -23,    40,    40,   201,    40,   -591,    76,  -851,  -413,    65,   126,    24,  -800,     -36,   121,  -417,  -340,  -331,  -294,  -229,  -155,   -409,   132,  -103,  -225,   -55,    82, -1515,   193, // 1440
    
    // Out channel 15
      -752,  -455,  -465,  -229,   -56,  -367,   118,  -325,     66,  -327,  -449,   -73,   127,   -81,    53,    19,    -103,   -64,  -976,   -98,    16,   136,  -462,  -763,   -263,  -848,    62,   -84,   160,   154,   157,   166, // 1472
       -73,  -206,   655,    28,  -268,  -568,    35,    72,     70,    54,  -358,  -275,  -301,   -84,  -633,  -101,     -41,  -508,   -90,    74,  -911,  -110,    16,     6,    -85,   207,   -83,   639,  -389,  -359,  -138,    35, // 1504
        23,  -158,   752,    85,  -548,  -272,  -646,    42,   -181,    53,  -630,    21,   -70,     3,    42,  -130,      70,   256,  -790,  -174,  -104,   -34,   197,  -928,   -546,    99,    52,  -906,  -121,   -83,    56,  -208, // 1536
    
    // Out channel 16
        44,  -444,   157,   144,   -83,  -258,  -135,    82,    -29,   371,    61,    -5,   334,   -46,   175,   126,      -3,  -532,   220,     8,   -47,   -78,   381,  -177,    -22,  -319,   -44,   -35, -1076,  -610,   -56,   -90, // 1568
       -13,    11,  -170,    53,   -19,   -86,  -801,   -72,     -7,   -47,    26,    43,    67,   -61,  -417,   -26,     -84,  -378,   -58,  -830,    57,   -91,   151,   -18,    469,  -499,   -46, -1167,  -463,  -370,  -640,   236, // 1600
        43,    17,  -176,    51,    -6,    55,   208,    17,      8,   -94,  -154,    24,    12,  -432,    48,   -23,      47,  -231,   -30,   152,  -473, -1372,  -348,  -973,     70,  -430,    72,  -136,    85,   -14,    73,    37, // 1632
    
    // Out channel 17
      -108,   -34,  -685,   -82,    50,   -83,   352,  -180,    -15, -1116,  -260,     1,  -572,    48,    45,   -36,      47,  -262,    66,    27,  -656,    73,   -18,  -888,   -589,  -236,    56,    -2, -2100,    84,    76,  -329, // 1664
       -90,   166,  -201,    51,  -155,   -43,  -154,   -36,      0, -1900,   -81,  -154,    77,     5,  -440,   -34,     -75,   -89,   -26, -2026,   101,   106,  -697,   -54,   -456,  -289,  -484,   -37,  -572,   -72,    37,   -82, // 1696
        44,  -685,    18,    59,  -245,  -174,  -379,   -57,   -492,   -52,  -643,     3,   -15,   -61,    95,  -127,      -1,  -552,    31,  -216,  -601,  -198,   225,  -116,  -2138,   122,    -5,  -227,  -241,    73,    53,  -117, // 1728
    
    // Out channel 18
        56,  -450,  -537,   235,    87,  -685,   153,  -105,    -79,  -549,  -185,   -46,   261,   248,  -193,  -149,    -711,  -488,   142,    26,    60,   -69,  -203,  -185,     50,   -37,    36,    42,  -400, -1089,   115,   128, // 1760
      -104,   206, -1026,   -59,   411,  -733,  -232,     3,     33,   -28,    96,    20,     2,   218,  -126,    78,      -7,    43,    71,  -526,   194,    49,   -43,   -42,  -1076,   -93,  -287,  -430,  -687,  -857,  -558,   639, // 1792
       -67,  -220,  -137,    83,  -797,    62,   374,   -76,     95,   -86,  -895,  -936,    23,    10,   -84,    21,    -120,  -555,  -251,   671,  1396,    -2,   -31,   -80,   -515,   688,    92,  -497,  -717,    50,  -102,  -297, // 1824
    
    // Out channel 19
      1059,   197,   153,    15,   -80,   291,   386,   134,     96,    48,   122,    31,    91, -1297,    11,    84,     553,    61,    63,   -42,   256,  -225,  -271,    36,    111,   -84,    41,   -47,  -167,   409,  -205, -1447, // 1856
       -20,  -992,  -445,   -34,   113,   460,    64,     3,    -35,  -309,    99,   568,    81,  -155,   -27,   -54,     -53,   277,    11,  -177,   -53,    46,  -617,   -40,   -812, -1293,  -530,   196,  -165,   284,   -96,  -171, // 1888
       -17,    -2,  -827,   -32,   608,   171,   213,   -35,     82,   -84,  -846,   -57,    47, -1425,   -94,   176,     -10, -1199,   246,  -101,  -131,  -486,    59,   -74,    -73,  -891,    15,   266,   103,   -69,  -286,    17, // 1920
    
    // Out channel 20
      -181,  -179,  -105, -1609,   -60,  -119,   112,  -347,     -8,  -570,  -203,   -82,  -349,  -367, -1286,  -528,      73,  -754, -1431,   -80,    79,    36, -1662,  -626,  -1330,   -37,   -10,   -35,  -362,  -322,    21,    40, // 1952
        75,  -705,   543,    45, -1707,  -273,   258,    49,     93,  -230,  -258,  -408,  -586,  -193,   138,     9,      22,   -51,   -69,  -105, -3974,    28,     6,   -49,     34,  -448,  -558,  -190,  -600,  -118,  -910,  -857, // 1984
        21,    94,  -425,   -96, -1721,  -134, -1028,   -20,    105,     8,  -230,  -448,   -32,  -196,   -51,  -292,    -428,    27,  -104,  -241,   214,  -335,   148,   -83,  -1918,  -104,   -41,  -340,   -59,     1,  -396,  -599, // 2016
    
    // Out channel 21
      -216,   240,   127, -1577,   -32,  -632,   -17,   170,     43,   111,   -98,    95,  -318,   -41,   -17,  -803,    -408,   207,  -103,    -9,    99,    45,  -942,  -559,    111,   130,   -79,    66,   -24,  -186,   141,    46, // 2048
        21,   -90,   581,    10,  -210, -1755,  -815,    77,     74,   -25,    63,  -569,    12,    -4,   100,    52,     -37,    -1,   -80,   -52,    -8,   -84,   328,    59,     78,   -11,    87,  -751,  -286, -1044,   -32,   170, // 2080
       -23,   304,   345,    11,   -33,    31,  -507,   -71,    -69,   -41,   121,  -668,   -46,   -44,   -21,  -556,   -1149,    78, -1546,   528,  -296,   514,   -97,    94,    108,   189,   -24,    -4,   322,    80,  -315,  -548, // 2112
    
    // Out channel 22
      -100,   -58,   281,    97,   -68,   414,  -157,   159,    -68,  -493,     7,    40,    73,   -69,   140,    82,      46, -1275,   -16,    32,    17,   -35,   139,   -56,    -24,  -254,   -68,     8,  -721,  -108,   -61,     3, // 2144
       -44,  -135,  -278,     4,   -14,   834,  -926,    67,     39,  -263,   194,    -1,     7,    64,  -224,   -22,      85, -1056,    74,  -568,   -32,    85,   162,    65,    438,  -389,   -13,  -421,  -114,   193,  -130,   216, // 2176
       -52,   -49, -1058,    22,   341,    24,   147,   -18,     42,   -62,   -46,  -143,   -66,  -277,   -29,    33,      31,  -679,   406,    55,    64,  -871,  -103,  -763,    -54,  -359,    -4,  -153,  -199,   -34,    69,   201, // 2208
    
    // Out channel 23
       758,  -196,   426,  -664,   102,   332,   134,   212,     64,  -526,  -193,    39,  -133,   139,  -175,  -207,    -369,   230, -1824,    44,    54,    96,   291,    62,  -1433,   130,   -26,    30,  -137,  -153,   215,  -354, // 2240
        92,    48,    13,    -1,   285,   -12,    37,    18,     21,   132,  -446, -1907,   -44,   271,   134,    -3,     -95,   -80,    44,  -175, -1555,    26,  -396,   -81,     18,  -588,  -622,    -4,   401,   454,    50, -1286, // 2272
       -14,  -181, -1278,    11,   252,  -218, -1226,    -5,    185,    71, -1089,   -44,   -58,     0,    33,   -35,     -94,   -31,   272,   253,   295,   -55,   151,   -13,   -346,   144,    94,  -110,   186,    76, -1594,   294, // 2304
    
    // Out channel 24
      -465,   -93, -1612, -1969,   -38,  -829,  -136,  -467,    -24,    98,  -200,    61,    23,  -261, -1764,  -997,      48,    -8, -1248,   -82,   -83,     0, -1781,  -794,     44,  -289,    37,   -13,    82,  -962,    13,   539, // 2336
       -20,  -556,  1582,    62, -1542,  -638,     2,   -70,     15,   -12,  -295,  -227,     8,   363,   192,   -81,     -65,  -817,    39,    29, -1356,    59,   -42,   -97,   -490,    -2, -1474,    43,  -214, -1000,  -570,  -820, // 2368
        16,    78,    70,   -45, -1887,  -382, -1462,    68,     64,    87,  -572,   -78,    78,  -230,   -49,  -862,    -789,   -25,  -737,  -120,    49,  -112,   170,   -15,   -783,  -151,    29,  -857,  -526,   -41, -1354,  -512, // 2400
    
    // Out channel 25
      -745, -2883,   114,  -473,   -35,  -362,  -491,  -477,     65,  -882,  -430,    51,   -84,     1,     4,   -85,      30,   116,    67,  -153,  -320,   125,  -133,  -909,   -841,  -759,    27,    61,    93,   426,    36,     7, // 2432
       -22,    43,  1514,    10,  -702,   -42,  -232,   -23,    -51,  -309,  -380,  -577,  -156,   -17,  -158,   -29,      36,  -362,   -33,   -99,    -5,   -64,  -174,   -32,    121,   115,  -241,   -15,  -491,    -2,   282,   -27, // 2464
       -77,    49,  -272,   -48,    48,  -269, -1400,   -12,   -307,   -28, -1741,   262,   -37,   -15,    42,  -506,      -2,   130,   187,  -296,  -156,    83,    42, -1381,    195,   -39,    78,  -510,  -543,    57,   202,  -779, // 2496
    
    // Out channel 26
        96,  -586,    40,    71,   -86,  -302,  -323,     9,    -34,  -664,   -95,    17,    92,   -50,   283,    74,     159,  -306,   117,   -13,  -147,  -487,   220,   313,     10,  -277,  -103,    -8,  -777,  -821,   -58,  -169, // 2528
       -56,   -13,  -460,    58,   -39,  -363,   -81,    46,     86,  -169,    12,  -304,    57,   -16,  -148,   -38,      86,  -345,    55,  -806,   163,   -17,   -23,   -49,    532,  -387,  -160,  -842,  -185,  -124,  -215,  -647, // 2560
        63,  -393,    27,    36,    99,   115,   122,    47,    -55,   -23,   -30,    60,    98,  -243,    84,   225,      11, -1201,  -199, -1478, -1350, -1041, -1172,  -393,    -56, -1022,   -80,  -128, -1004,   -36,  -284,   -55, // 2592
    
    // Out channel 27
      -129,  -598,  -791,   -82,    59,   -29,   122,  -562,    -57,  -374,  -107,   -93,  -618,  -219,  -645,  -326,   -1862,  -406,   161,   -30,    -4,  -607, -1112,  -891,    -85,  -272,    24,    51,  -360,  -594,  -596,  -769, // 2624
        83,   -92,  -412,   -84,  -258,  -297,    -7,   -80,     81,    66,    84,  -152,   -25,  -631,   180,   -13,     -27,    60,   -77,  -226,  -503,    81,  -135,   -50,   -446,  -593, -1111,    87,  -145,  -139, -1521,  -210, // 2656
        92,  -644,   -22,   -96, -2131,    90,    -9,    -3,     35,   -85,  -214,  -368,     3,  -537,   -15,  -596,    -550,  -129,  -240,    31,   -75,  -711,  -699,  -413,   -840,  -970,    40,   -40,   363,    -9,  -353,  -209, // 2688
    
    // Out channel 28
        25,    -1,  -115,     9,    -9,   -72,   -61,  -184,     -5,   -12,  -149,    97, -2271,    93,  -133,    34,    -156, -1008,   -78,   -91,  -181,     9,  -169,  -120,     80,    33,   -88,    94,  -346, -1435,  -114,   -47, // 2720
       -26,    62,  -984,   -71,   -63,    67,  -254,   -40,     76,   -95,  -135,    50,   -21,  -133,  -679,    30,     -59,   -10,   -78,  -285,   381,    14,  -129,    98,    138,  -333,   183,  -299,  -336,  -222,  -632,   -50, // 2752
        86,  -260,  -333,   -64,   109,  -172,    60,   -58,   -153,    -1,  -295, -1595,   -72,  -889,   -57,   -76,       1,  -101,  -141,   271,   968, -2188,   169,   391,    405,   -77,    33,  -202,  -913,    98,     8,    -9, // 2784
    
    // Out channel 29
      -367,  -130, -1286,  -761,   -14,  -136,     9,  -163,     90,   215,  -215,    56,  -709,  -971,  -539,  -516,    -805,  -112,   123,     6,   239,  -318,  -966,  -582,   -982,  -329,    74,   -59,   -17,  -108,  -970, -1084, // 2816
         0, -1678,   271,   -50,  -898,  -934,   247,   -83,     56,   572,   161,  -258,  -287,   344,  -391,   -44,       6,   161,   -83,   -45,   109,   -33,  1026,   -28,     56,    16,   -34,    18,   109,  -143,  -899,  -106, // 2848
       -78,  -346,   -22,    78, -1404,   289,  -183,   -35,    401,   -77,   -35,  -481,    86,    50,    70,   322,      96,  -732,  -952,  -143,   127,    11,  -445,   -32,    245,  -697,    92,  -394,   -29,    60,   250,  -542, // 2880
    
    // Out channel 30
       180,   -26,   103,  -514,   -62,  -107,  -593,   259,    -90, -1193,   251,   -90,   -11, -2062,   165,   151,    -102,  -946,   129,    78,   -98,   -50,  -153,   153,    119,  -879,   -11,    78,  -680,   -48,    38,   -37, // 2912
        47, -1212, -1076,   -51, -1161,   -45,  -418,   -63,      0,   -38,   220,   150,    27,  -242,    27,     4,     -92,  -143,    37,  -919,    92,   -91,  -265,     4,   -334,  -593,    63,  -169,  -158,  -229,  -236,   181, // 2944
         4,  -864, -1042,    99,    22,     6,    42,    72,     80,   -76,  -250,   -57,    -1,  -457,   -15,   129,     111,  -253,     3,  -110,  -163, -1280,  -995,  -585,    100, -1439,    51,   -43,  -208,   -21,    87,     1, // 2976
    
    // Out channel 31
       -31, -1937,  -925, -1047,    26,   -21,   678,  -201,      6,   -84,   -96,   -90,   -63,    74, -1461,  -512,   -2410,  -529,  -109,   130,   139,  -112, -2750,   -57,     31,  -583,   -41,    77,    -8,  -376,     0,  -450, // 3008
        -4,    76,  -263,    80,    24,  -113,  -609,    17,    -48,  -640,    49,   -84,   148,  -846, -1590,    22,      10,   -87,    15,   -43,    52,   -76,  -638,    65,   -360,    90,   107,  -286,  -129,   -42,  -397,  -533, // 3040
       -66, -1059,    25,    69,  -768,    33,  -793,    84,   -154,    94,    31,  -117,    51,     4,    60,  -841,    -857,  -294,   -57,   -47,    24,  -294,   161,  -918,   -181,    12,   -61,  -130,  -585,   -66,  -538,   171, // 3072
    
    // Out channel 32
      -840, -1899,   -41, -1034,    32,   -16,   261,  -628,    -75,  -765,  -242,    85,   -76,    36, -1022,  -533,   -1486,   249,    28,    40,   161,  -213, -1677,  -815,   -486,  -785,    36,    22,   191,  -627,   183,  -355, // 3104
        37,    99,  -173,    85,   -41,  -149,   -33,   -75,     -2,  -186,   150,  -293,     5,  -206,   -22,    57,      73,   -62,    17,   -43,   213,   -25,  -338,    16,   -153,  -264, -1407,   -42,   -70,    63, -1150,   122, // 3136
        27,    17,   257,    21, -1256,   133, -1654,     1,      8,    75,  -705,   -26,   -85,    27,   -17,  -573,    -864,  -195,   117,   297,  -117,   -49,  -237, -1378,   -274,   406,   -84, -1123,   160,   -42,  -862,   175, // 3168
    
    // Out channel 33
      -535,    17,  -628,   196,   -49,  -257,   -25,   250,     54,  -890,    90,   -18, -1105,  -268,   215,   142,     246,    50,   121,    -9,  -213,   181,   530,  -204,   -126,  -259,    -4,   -53,    42, -1291,    64,   761, // 3200
        74,  -158,  1834,   -30, -1340,  -540,  -421,   -45,    -19,   537,    56,   112,  -103,   -48,   -91,   -89,     -62,  -351,     5,   272,   110,    34,   424,   -63,   -182,    43,    10,  -564,   112,  -696,  -608,  -103, // 3232
        -2,   344,  -564,    83,   210,   387,   282,     6,   -213,    56, -1532,  -834,    58,   207,    40,   227,     100,  -174,  -454,   257,   165,  -156, -1097,  -138,    130,   229,     4,     9,  -151,    10,  -279,   278, // 3264
    
    // Out channel 34
      -146,  -845,  -111,   229,   -30,   -81,  -930,    46,    -68,  -360,   -11,   -62,  -618,   127,   102,   106,      61,  -272,   129,    15,  -136,   115,    68,    43,    142,    65,  -105,    15,  -404,  -472, -1144,  -177, // 3296
       -52,   283,  -373,    71,   -10,  -112,   -30,    55,    -41,  -266,  -330,   -18,  -315,   -12,  -241,   -92,      -6,   -29,   -15,  -354,   190,     6,    43,     3,   -196,  -158,   -83,   -65,   -46,   -64,   113,    69, // 3328
       -65,  -171,   171,    -6,   137,  -218,   226,   -25,   -737,    66,  -379,  -195,   -96,   581,    77,    74,      46,   746,  -115,   128,   160,   161,  -167,    12,    963,  -864,    31,  -118,  -254,   -62,   137,   105, // 3360
    
    // Out channel 35
        25,   173,  -223, -1046,   -53,  -129,  -438,  -162,     92,  -273,   -19,     4,   -32, -1796,   271,    18,    -188,   156,  -439,   114,    61,   -42,  -406,   314,    429,   266,    97,   -35,   -16, -1101,   266,   895, // 3392
        18, -1113,    75,    69,   917,   -35,  -291,    83,     20,   199,  -129,  -120,    49, -2419,    93,   -16,      42,   -36,    41,   -98,  -165,    45,   279,     0,   1149,    32,  -118,  -442, -1418,  -198,  -159,  -115, // 3424
       -21,   679,  -132,   -14,   900,    16,   -88,   -56,   -627,    41,  -233,   -89,   -99,   -32,    11,  -244,     -41,   162,   -99, -1660,  -340,  -208,  -979,    67,   -154,   279,   -59,  -646,  -698,    11,  -143,   175, // 3456
    
    // Out channel 36
      -405,   161,   160, -1096,   -35, -1082,    35,  -266,     63,  -177,  -226,    -6,   -32,  -323,  -154,  -541,    -460,   241,   102,    40,    48,   -47,   197,  -509,    -58,    87,   -72,   -30,   -21,    16,    -3,  -290, // 3488
       -67,  -100,  -283,   -14,  -382, -1153, -1336,   -28,    -17,   -10,    83,  -475,   243,  -485,   144,     2,      71,  -233,   -13,    30,   -68,    26,   156,    23,   -182,    -8,     7, -1180,  -262, -1270,   -25,   -20, // 3520
        55,   -25,   545,    26,  -127,    16,    76,   -69,   -163,     7,    28,   -38,   -17,    88,   -23,  -772,   -1173,  1336,  -893,   584,    44,   917,  -307,   219,    124,    48,   -76,   245,     7,    -8,  -461,   104, // 3552
    
    // Out channel 37
       449,    70,    15,   115,    34,   125,  -960,   160,    -87,  -127,   570,    78,    30, -1295,   -48,    54,     308,   -51,    -8,    -7,  -253,    55,   234,    18,     39,  -101,    48,   -59,     9,   125, -1479,  -857, // 3584
        27, -1938,  -561,    36,   205,   327,    55,    73,     87,  -445,   -63,  1756,   -24,   -21,  -140,   -70,      68,   253,   -90,   -24,  -127,    68,    77,    80,   -180,  -155, -1100,    60,  -127,   267,    75,   -84, // 3616
       -45,    23,  -635,   -84,   -18,  -184,    31,    49,    162,   -20,   -74,    79,     5,  -251,    16,   316,     161, -1101,   120,   -21,   -54,   261,    49,   -48,    244, -1418,   -85,    21,   140,    93,  -235,   105, // 3648
    
    // Out channel 38
       223,    76,  -145,   118,   -64,   145, -4230,   217,    -48,  -254,  -174,    75,    22,   -86,    50,   152,      83,   127,   126,   -58,  -572,   -42,   341,   212,    130,    39,    -4,     1,   -45,  -357,  -197,    14, // 3680
        94,  -290,  -582,    33,  -842,   125,    44,  -107,    -54,    96, -1118,   325, -1992,     1,    51,   -92,      76,   543,    75,   -66,   -74,   -82,   949,   -52,   -850, -2269,  -368,    57,   128,   189,   -76,   256, // 3712
        59,   -72,  -810,     4,   629,   -21,   570,    93,   -423,   -56,  -687,  -327,   -52, -1721,   -65,    58,      54,  -806,   237,   251,   212,   290,  -232,   -29,    291, -1016,    40,   292,  -397,    26,    29,   248, // 3744
    
    // Out channel 39
      -471,  -171,    -7,  -143,    90,  -685,   422,    25,    -73,   268,     8,    68,  -446, -2203,    69,     7,      28,    -8,   100,  -148,   176,  -395,   575,    97,   -187,   198,    27,   -85,    33,  -122, -2237, -2068, // 3776
       -14, -1670,   209,  -126, -1019, -1297,  -438,  -104,     48,   306,   223, -1674,  -101,  -601,   -35,   -22,      55,    60,    14,    93,    75,     9,   153,    82,    216,   -93, -1107, -1063,  -405,  -478,     3,  -141, // 3808
       -76,  -229,  -843,   -33,   -67,   136,   -78,    46,     69,    -4,  -229,  -587,    18,  -180,    81,     1,      61, -2277,  -829,    74,    88,  -172,   465,   -40,    229, -1804,    58,   -87,    88,   -20,  -147,   107, // 3840
    
    // Out channel 40
      -241,  -124,  -220,    83,   -91,   214,  -167, -1207,    -52,   -51,   -22,    -7,   -40,     3,   175,   -32,      63,  -464,    61,   -49,   -62,   -19,   231,  -164,   -700,  -546,    51,    72,  -267, -1863,   -49,   -12, // 3872
        10,   -47,   -95,   -50,    47,     8,  -189,   -38,     13,    52,   -39,  -219,  -417,   146,    43,   -61,      70,    13,   -69,  -239,   159,    16,    30,   -62,   -113,  -159,  -430,  -322,  -538,    91,    44,  -397, // 3904
        -2,  -203,  -125,    -5,   445,   -15,    53,     0,      6,   -84,  -596,  -510,    36,   -46,   -72,  -728,      74,  -156,   332, -1171,    51,  -132,   -21,  -340,     63,  -198,   -17,  -110,  -439,   -72,     8,  -381, // 3936
    
    // Out channel 41
        82,  -806,   -21,     8,   -15,  -214,   428,     5,    -38,  -734,   -43,    94,   -34,    32,  -440,  -304,    -771,   -13,  -218,    14,  -399,   -29, -1442,   545,   -356,   -30,  -109,   -30,  -268,  -310,  -147,   -72, // 3968
        45,   105,  -329,   -55,    81,    23,   -59,    71,    -40,    98,  -565,  -668,  -208,   211,   -43,   -14,     -55,  -825,    55,  -336,  -131,    31,  -488,   -28,   -252, -1901,   -87,  -151,   158,  -370,   -69,   -65, // 4000
        35,  -103,  -116,    60,  -123, -1451,   -42,     9,     28,    71,  -845,  -306,    -8,   -50,    20,  -499,     -83,   344,  -114,  -809, -1568,    25,   107,   -72,     62,   -23,    86,  -598,  -184,   -76,   104,   -95, // 4032
    
    // Out channel 42
       -15,  -822,   132,    61,    19,  -670,    24,   316,     59,  -192,   -30,   -69,   417,    37,   285,     2,    -721, -1267,   -39,    21,  -370,  -256, -3239,  -130,   -184,  -313,     1,    79,  -704,  -152,  -518, -2782, // 4064
       -28,    28, -2433,    85,    60,  -138,  -271,    21,    -12,   441,  -457,   -77,  -359,  -268,   -43,   -50,     -18,   -85,    56, -1432,   128,  -103,  -228,   -15,  -1758, -1036,   -24,  -580, -1217,  -381,   -60,   -27, // 4096
      -110,  -691,  -517,    81,  -995,  -445,   -63,    50,     12,    64,  -111,   -67,   -78, -1864,   -77,   -96,       6,  -938,   -60,  -442, -1311, -1343,    99, -1204,   -814,   -27,    91,   101,   169,   -17,    -7,    58, // 4128
    
    // Out channel 43
       483,   -94,    96,   174,    45,   154,  -478,    75,     93,  -881, -1916,    11,   -46,  -160,   282,    78,     328,  -107,    82,   -57,   -62, -1845,   565,    84,    101,   -24,    19,    68,   -43,  -396,   -64, -2128, // 4160
       -46,    19,  -210,   -55,   -98,   202,   -52,    28,    -46,  -247,    -5,  -661,    19,  -143,   -80,    51,      37,   530,    -5,   -39,   -84,   -91,   157,    25,  -1008,  -215,  -743,  -101,   185,   276,   164,  -468, // 4192
       -90,   -28,  -722,    49,  -686,    -1,    15,    15,   -162,    48,    76,   108,     0,  -264,    11,    86,      85,  -997,   323, -1016,  -938,   101,  -870,  -108,    635, -1680,     1,   184,   325,   -93,  -946,   166, // 4224
    
    // Out channel 44
       540,   -38,  -158,    96,   -38,  -473,    30,  -118,     29,     1,  -121,   -80,  -774,    66,   349,    57,     -89,   133,     2,  -188,    36,  -461,    75,  -194,   -248,    27,   -72,    33,    -6,   110, -1060,  -733, // 4256
        -5,    29,   513,    53,    70, -1346,  -214,    30,    -49,   -55,   -10, -1616,  -309,   164,   220,  -105,     -85,   266,    32,    92,     4,    60,   700,   -90,    -28,    61,  -748,  -513,    75, -1033,     1,   -25, // 4288
        32,   179,   317,    31,  -161,   110,    73,    42,    114,    40,    12,  -659,     8,   -59,    56,  -529,     -47,  -572, -1308,   219,   104,    15,  -156,     1,     86,  -132,  -102,    62,    73,   -17,  -164,   133, // 4320
    
    // Out channel 45
        76,   -65,    -6,   -88,    30,   375,  -227,  -401,     96, -1110,   114,   -12,    74,   115,   -90,   120,     199,  -483,   -35,    55,  -256,   312,   203,  -139,   -203,  -460,    74,     9,    65,    -8,   138,   351, // 4352
        42,  -155,  -772,   -80,  -205,   403,  -282,    -6,      5,  -308,  -200,  1232,   332,   559,   -88,  -103,      71,   316,   -13,   138,  -339,    85,   237,    55,  -1039, -3435,    54,   123,  -557,   433,   811,   135, // 4384
        11,    73,  -727,   -52,    73,    -8,   -54,    15,    -21,   -19, -1552,   107,   -67, -1512,   -77,    89,     196,   501,   416,  -289,  -220,   -49,   298,  -264,     26,   111,     6,  -100,    -8,    39,   199,   -94, // 4416
    
    // Out channel 46
       -64,  -235,  -515,   121,    24,  -221,   155,  -163,    -38,  -786,  -700,    43, -1083,   299,   291,    79,    -178,   382,    34,    63,  -150,    -1,  -292,   -38,    115,  -430,     9,   -44,  -738,  -482,  -255,  -193, // 4448
       -74,   324,  -179,   -51,   504,  -756,   175,    14,     68,   143,  -967,  -660,  -179,    -6,   118,   106,     -34,   -76,    17,  -398,   117,    17,  -439,   -61,     29,  -563,   133,   -79,   223,   -47,   213,     6, // 4480
       -56,  -373,  -186,   -83,   188, -1091,   118,   -69,    174,   -15,  -293,  -599,    48,  -389,   -24,   -55,      45,   270,   -84,    48,   204,  -432,   175,   -13,    128,   204,    36,  -631,  -900,   -22,    51,   -32, // 4512
    
    // Out channel 47
         1,   110,  -934,  -258,    86,  -108,     5,  -864,     81, -1328,  -382,     2,   252,    76,   125,    18,    -220,  -197,    99,   110,  -374,    92,  -855,  -304,    -15,  -462,    39,    17,  -604,   360,     0,  -193, // 4544
       -60,   304,  -829,    70,  -267,   -59,  -264,    61,     45,  -149,   -21,  -145,     1, -1131,  -119,   -70,      -7,    80,    60,  -786,   366,    43,  -606,   -66,   -889,  -447,  -113,  -275,   426,  -163,  -747,  -134, // 4576
        58,  -297,   115,    46,  -251,   -42,  -322,   -66,   -547,   -26, -1192,   -70,   -68,   -11,   -48,  -517,      58,  -349,  -170,   -46,  -856,   -24,   160,  -132,   -181,  -112,    88,  -228,  -650,   -43,   123,  -145, // 4608
    
    // Out channel 48
     -1247, -1678,   -88, -1717,     2,  -329,     6,   113,     89,   412,  -222,     5,    56,    18,   323,  -320,    -374,    27,   -35,    85,   123,   -52, -1200,  -188,     22, -1078,   -30,   -14,   168,  -240,    42,    26, // 4640
       -13,   118,   909,    16,  -197,     5,  -194,    99,     46,  -382,    23,  -333,    40,  -711,   118,    44,     -28,  -705,    14,   455,   -30,     8,  -104,   -93,   -199,  -106,    31,  -285,    50,  -215,  -676,   -24, // 4672
        79,   -34,   971,    31,   -71,    91,  -948,    -5,   -138,    66,   170,   -15,    83,   143,   -43,  -357,    -301,   144,   -57,   196,   -33,   301,  -118, -2056,    -88,    43,   -59, -1436,    49,   -73,   -92,   -24, // 4704
    
    // Out channel 49
       459,    59,  -119,  -150,   -45,   602,   -73,   242,     96,  -663,   107,    31,   -83,  -134,   232,    17,    -294,    49,     0,    -9,  -424,    41,   107,  -189,    -67,    38,    65,   -43,  -506,    74,    92,  -624, // 4736
        43,  -109,  -340,    61,  -160,   899,    27,   100,     -9,  -569,   122,  1357,   -59,   111,   225,    16,     -42,   698,    39,  -635,  -172,    34,  -955,   -28,   -398,  -353,    29,    59,    19,   266,   147,  -168, // 4768
       -99,  -208, -1513,    65,  -553,    17,   -68,   -85,    -85,    -7,   -88,    99,    24,     3,    51,   180,     -17,  -380,  -420,  -125,  -201,   -31,  -116,    -8,     53,    62,   -45,   138,   247,    20,   -42,   150, // 4800
    
    // Out channel 50
        89,   132,     9,   206,   -36,   227,  -701,     7,    -68,  -203,    38,   -25,    49,    76,    28,    39,     518,    84,     8,   -56,   256,   127,    49,   199,  -1269,    73,    26,  -114,    -3,   -12,  -529,   -29, // 4832
        -7,  -283,  -316,   -86,    96,   331,   133,    71,      9,  -455,   170,  1174, -1697,    19,  -152,   -72,      -5,   557,    -8,    -3,  -251,    -4,   513,   -75,   -828, -1983, -2000,   139,   -40,   128,    69,   207, // 4864
        47,    38, -1011,    45,   577,    95,   300,    60,    182,   -13,  -512,   171,    57, -1228,   -67,  -155,      29, -1406,   322,   247,   462,   248,     1,   103,     34, -1348,    62,   156,    79,    59,   110,    81, // 4896
    
    // Out channel 51
      -278,  -210,    75,   241,    31,  -740,  -610,   300,    -31,  -192,  -113,    59,    95,   -88,   217,  -175,    -275,  -675,   684,   111,  -223,  -223,   204,    24,    163,   163,   -34,    53,    11,  -720,   140,  -663, // 4928
        46,  -103,  -306,   -54,    63,  -803,  -997,    22,     41,    15,   124,  -166,   -29,  -442, -1431,    11,      48,  -737,    25,   -61,     3,    20,  -381,   -62,   -776,   -47,    94,  -859,  -722,  -597,    -5, -1336, // 4960
       -99,   -37,   -67,    -8,    72,    63,   161,   -85,   -148,   -54,  -969,  -548,    81,    16,   -19,  -989,    -125,  -847,  -788, -1072, -1053,  -689, -1447,  -412,    -74,    11,  -103,   -81,  -241,    29,  -402,    91, // 4992
    
    // Out channel 52
        52,   371, -1007,  -393,    13,    93,  -388,  -656,    -22,  -804,  -371,   -82,  -234,  -268,  -461,    74,    -329,  -586,   -29,   -17,  -616,  -155,  -619,  -641,     51,  -782,    11,   -83, -1181,   440,   -55,  -232, // 5024
       101,  -201,  -216,   -39, -2324,   123,  -164,   -18,     72,   -37,   -62,    48,    14,  -319,  -662,   -20,      27,   -71,    43, -1533,  -128,   -25,  -592,   -86,   -415,  -587,   265,  -115,    28,   -41, -1024,  -594, // 5056
       -24, -1135,  -117,    19,  1392,    29,    42,    32,   -941,   -66,  -178,   245,    91,   -18,    46,   -19,     -46,  -124,   160, -1785, -2281,     1,    50,   196,     97,  -332,   -68,  -122,   -11,   -35,    -9,   340, // 5088
    
    // Out channel 53
       681,  -237,   123,  -133,    22,   547,   242,   150,     86,  -540,  -347,    47,   -17,  -132,   126,   -28,    -105,    71, -1623,   -37,   -94,    13,   263,    40,     24,    42,   -62,    14,  -758,   -69,    74,  -118, // 5120
        61,  -184,   -28,  -101,  -138,   283,   -98,    73,    -37,  -487,  -783, -1582,   -36,   -61,   553,    21,      51,   557,   -76,  -906, -1097,    27,  -335,   -61,     -8,  -816,   -80,   158,   819,   518,   247,    -2, // 5152
        55,  -468,  -841,    56, -1637,  -324,  -313,   -87,    -23,    69,   -73,   -80,   -65,   -87,   -43,    20,      16,   -79,   148,    77,   -34,  -385,   -77,   -28,   -349,   121,     0,  -213,    48,    70,   -47,   163, // 5184
    
    // Out channel 54
      -838,  -427,   132,   108,    -3, -1042,   -97,  -769,    -74,  -188,  -101,    62,    97,  -472, -1141,  -507,   -2140,   232,    74,    -2,   129,  -396,  -799,  -746,     70,  -476,    25,   -18,    10, -1064, -1204, -1937, // 5216
        80,  -481, -1081,   -67,  -272,  -659,   195,    92,    -57,   -16,    55,  -232,     4,  -649,  -402,   -78,      78, -1103,    36,    33,  -160,   -17,   115,    -2,    159,   -42, -1019,    98,  -322, -1021, -1640,   334, // 5248
        91,   -60,  -219,   -75, -2168,   213,   463,   -98,    -28,   -42,  -487, -2001,    52,   -11,   -82,  -343,   -1286, -1167,  -524,   140,    -3,    92,  -701,  -990,  -1724,  -682,   -59,  -519,     0,    -5,   370, -1351, // 5280
    
    // Out channel 55
      -242,  -733, -1351, -2737,    21,  -208,   316,   -13,     62,   461,  -468,    87,  -543,    88, -1161,  -399,     163,    37, -1153,  -125,   284,   -45, -1183,  -541,  -1766,  -803,   -64,   -14,     7,   -42,     4,   130, // 5312
         4,  -124,   510,   -17,   -19,  -369,   416,   -82,    -98,   312,  -503,  -296,  -365,   258,  -503,    27,      87,  -353,   -72,   138, -1500,   -26,   219,    23,    300,   -39,  -586,   284,    95,  -472,  -176,  -190, // 5344
       -17,  -299,    46,   -55,  -742,  -605, -2234,   -42,    361,    63,  -966,  -255,    33,   194,    29,  -418,    -248,   135,  -275,  -114,  -268,   -36,    74,  -607,   -805,   233,    37, -1017,    -1,     2,    87,    39, // 5376
    
    // Out channel 56
      -739,   -32,   253,  -599,    62, -1683,   -16,  -101,    -74,  -112,   -27,   -80,    52,  -134,   -75,  -678,    -565,   174,   -22,    25,    30,   -31,  -879,  -421,  -1193,  -123,    81,     1,   162,    26,  -245,    80, // 5408
        80,  -117,   137,    26,  -245, -1849,    24,    34,     84,   121,    97,  -634,  -473,    24,     5,   -48,       1, -1115,    10,    96,   -36,   -35,   491,   -33,    154,   144,  -750,    -3,  -111, -2092,  -339,   104, // 5440
        50,    34,   277,    74, -1118,     0,  -540,   -95,    222,   -30,    21,    29,   -23,    16,    43,  -243,     -60,  -136, -1849,   175,   -53,    28,   -33,    38,    155,  -108,   -15,    77,   -12,   -17,    40,  -112, // 5472
    
    // Out channel 57
      -294,   206,  -102,   -81,   -21,  -114,   -26,  -280,     72,  -299,   339,    78, -1525,    75,  -191,    54,    -308,  -244,  -651,  -139,   -30,   192, -1439,  -208,   -224,   -70,    98,     3,  -237,   -38,   248,   195, // 5504
        28,   -25,  -201,   -56,  -277,  -487,  -396,   -51,     41,  -178,  -192,  -542,  -303,  -156,   207,   -97,      93,   -67,   -38,  1002,  -489,    10,    29,   -48,    583,  -147,  -127,  -778,  -353,  -192,    39,     9, // 5536
       -39,  -193,   465,   -65,  -745,   -46,  -909,    68,   -114,   -34,  -252,  -179,    -1,  -144,    20,   -51,      41,   140,  -176,  -223,   565,   113,   123,    -7,     27,   137,    47,   104,  -115,   -31,   101,  -251, // 5568
    
    // Out channel 58
       776,   103,   -43,   -13,   -32,  -141,  -165,   132,    -73,  -774,    81,    37,   -49,  -590,   -62,    41,     -67,     3,   -97,   -96,   -91,  -313,   200,    76,   -299,   137,    40,   -49,   -81,    49, -1795, -2068, // 5600
        99,  -675,  -846,     8,   -83,    53,    21,    29,    -30,  -246,    38,   272,   -92,     3,   171,   -16,      44,   270,   -37,  -171,    52,    77,   189,   -31,   -491, -3472, -1025,  -198,    21,  -380,   103,  -415, // 5632
       -45,  -240, -1283,    60,   699,    26,    88,    31,     -7,    36,  -429,  -376,   -21,  -171,    48,   -57,     -20, -2327,   316,   217,   303,    92,  -146,    55,     -5, -4513,   -52,    77,    80,   -40,  -581,   154, // 5664
    
    // Out channel 59
      -709,    -1,  -361,  -760,    91,  -965,   -85,    34,    -67,   149,  -365,   -42,   -91,  -854,  -157, -1146,    -815,   135,  -279,   -97,   328,    91, -1746,  -963,   -516, -1248,    70,     3,   113,    62,  -208,   187, // 5696
        37, -1610,  -494,    34,  -665, -1160,    85,    22,     34,   319,    76,  -404,  -320,   106,    -3,   -24,      30,  -843,     9,   141,  -269,  -106,   414,    51,    860,    36,  -328,   -17,   -96,  -991, -1569,   -39, // 5728
       -74,    79,   207,   -29, -1434,    11,   -66,   -50,    317,    10,  -419,  -242,     7,    99,   -54,  -296,    -144,    74,  -849,    34,    51,     5,   -76,   -94,    102,  -262,   -94,  -602,    72,     0,     0,  -296, // 5760
    
    // Out channel 60
      -180,  -129,    92,  -129,    73,  -842, -3062,     3,     14,  -344,   101,    90,    59,  -914,    16,    22,      61,  -557,  -111,   -51, -1377,   -39,   250,    45,   -757,     5,    -7,   -86,  -593,  -271,  -692,   -23, // 5792
        51, -1624,  -100,  -116,  -234,   -27,  -102,   -86,     16,  -423, -1884,  -382, -2995,   -54,  -519,  -119,      20,  -803,    28,  -660,     5,   -54,   282,   -75,  -1001,  -549, -1637,   -34,   -57,  -468,    56,   128, // 5824
       -82,  -810,  -242,    68,   247,  -860,  -235,     2,   -191,    51,   113,  -305,    58,   -50,   -15,   -59,       3,  -744,    89,   143,   458,  -315,  -274,   316,    246, -2904,    75,    91,    66,   -24,   -43,   -24, // 5856
    
    // Out channel 61
       518,  -858,   -74,    33,   -63,    78,  -246,   239,     32,  -556,  -465,    26,  -117,  -533,   234,    20,    -378, -1629,  -118,   -33,   -79,  -314,   539,    -7,   -163,  -761,     0,    53,   -54,  -279,    60,  -852, // 5888
        11,  -671,   216,   -28,   -59,   498, -1397,   -10,     25,  -815,   -75,  -852,  -143,  -231,   145,    52,     -67,  -220,     2,   -79,  -181,    12,   205,    83,   -476,  -409,   -75,  -342,  -361,    54,   292,    28, // 5920
        16,   -39, -1552,    16,  -132,    27,    68,    58,   -111,    16,   629,   -85,    -2,  -193,   -31,   -38,     -20, -1079,   678,  -153,  -253,   -14,  -462, -2527,   -310,  -412,   -42,  -423,   216,   -65,    33,   227, // 5952
    
    // Out channel 62
       -59,    89,    36,  -304,    62,  -789,   215,   -94,    -17,   -63,  -505,    90,  -258,    57,  -133,  -505,    -598,    84,   -54,  -100,   222,  -110,  -493,  -666,   -791,   111,    48,   -30,    23,   -42,    39,  -278, // 5984
        75,    71,   414,   -48,  -337,  -976,  -294,    93,     92,    47,  -180,  -293,  -330,  -532,   211,  -129,     -50,  -177,   -44,   -68,  -113,     2,  -390,   -64,   -949,   136,  -473,  -645,  -263, -1004,    42,  -130, // 6016
        66,   303,   130,   -64,  -986,  -219,  -206,    21,   -130,    65,   -43,  -141,    10,   267,    95,  -175,    -318,   321,  -903,   117,     8,   192,    87,    77,    471,    78,    53,    19,   298,   -70,    30,  -103, // 6048
    
    // Out channel 63
     -1127,  -416,   -14,   517,    58,  -127,  -827,   134,     80,  -730,  -449,    48,   428,    49,    76,    28,    -100,  -364,    28,   -34,  -457,    64,   328,   -19,    125,   124,    87,   -68,  -153,  -840,  -108,   241, // 6080
        82,    48,  -371,    58,  -143,  -369,  -591,   -30,    -65,  -167,   -10,  -990,  -141,  -345,   444,     3,      23,  -635,   -59,  -182,   268,   -66,   394,    18,   -651,   -75,    83,  -213, -1796,   -79,  -403,   255, // 6112
      -106,   -35,   -28,   -18,  -160,   -24,   665,   -75,   -442,   -99,   -71, -1304,    32,   -62,    40,  -235,     -32,  -812,   -16,  -203,  -229,    49,  -130,  -965,   -730,  -745,    -9,  -162, -1711,   -98,    34,    27, // 6144
    
    
};

const int16_t cg_FC2bias[64] = { // Co,H,W,Ci: (64,)
      -788,   -60,   871,  1180, -2177,  -458,   421,   124,   -436,   -28,  1580, -1755, -1702,   707, -2648,   862,    -802,   612, -2031, -2381,  1264, -1050, -1174, -1721,    724,  1095,  -532,  1019,   498, -2026, -1226,  1808, // 32
       660, -4786, -5122, -3034, -3363, -1049, -2169,   320,    264,   283,  1205,  -943,  -231, -2481,  -801,  1580,     458,   955, -3540, -2379,  2201,   163,  1053,   -16,   -655,   194,    88,   389,  1116,   402, -1529,  -679, // 64
    
};

const int16_t cg_FC3weit[2048] = { // Co,H,W,Ci: (32, 64)
    // Out channel 0
      -208,   301,  -910,  -286, -1701,   529,   668,    63,   -887,   654,  -105,  -174,  -103, -2115, -2156,   -76,     296, -1383,   224,    85, -1309,    54,   142, -2088,  -1381,  -148,   625,  -681,   328, -1665,  -172,   317, // 32
       629,   568,   338,  -651, -1858,  -206,   190,    48,    331,  -442, -1212,   116,  -675,  -764,   102,  -181,    -273,   670,  -210,   323,   -29,  -219, -2064,  2013,  -2122,   183,   117, -1190, -3831,   -40,  -657,   372, // 64
    
    // Out channel 1
       -94,   138,   -72,  -408,  -107,  -445,   206, -2381,     99,   142,   109, -2183,  -177,  -839, -1398, -3182,     -35,  -346,    97,   214,  -672,  -181,   199,  -522,  -3171,    43,    18,  -581,  -889,  -557,   146,    45, // 96
       183,  -356,  -602,  -231,  -294,  -530,     9,  -484,  -2443,  -594,  -113,   171,   270,  -338,  -550, -1313,     193,  -212,    43,   -58,  -719,   592,   217, -3533,   -896, -3871,   -87,  -606,   393,    25, -1686,  -161, // 128
    
    // Out channel 2
      -149,    77, -3395, -1125, -1826,  -497,    39, -1613,   -918,  -594, -2350,  -809,   470,   495, -2368,  -947,     -68, -4005,  -452,    40,  -711, -3238,   -91,    96,  -1129,  -479,   -64, -1680,  -323,  -156,   137, -1630, // 160
     -2804,  -345, -2443,    99, -3296,   479,   -41,    97,    147,  -244,  -142,  -133,   326,   325,  -243,  -566,   -3035,   516,   584,  -358,  -297,   297,  -227,  -445,   -708,  -941,   241,  -311,  -137,   122, -1169,  -111, // 192
    
    // Out channel 3
        30,  -879, -2182,   814,    82,  -186,   975, -1391,  -1218, -2692,   405,   223,  -309, -2620, -2231,  -745,    -146,  -819,  -171, -1528, -1877,    63,  -196,   272,   1626,  -799,    68,  -234,   269,  -814,  -166,  -247, // 224
      1182,  -920,  -921,   413,   190,  -334,  -233,  -202,   -910,  1107,   766,  -396,  -222, -1488,  1159,   914,     249,  -173,  -129, -1255,  -746,   124,   -48,  -250,   -756,  -838,  -159,  -263,   252,     3,  -452,   150, // 256
    
    // Out channel 4
       -16, -1576, -3306, -1096, -3618,    76,  -497,   -90,    -77, -2713,  -416,  -730,  -561,   -26,   132,   -83,   -1991, -4851,   265, -1805,  1150,    29, -4461,  -545,   -290, -1000, -3203,  3365, -1011,  -789, -1249,  -959, // 288
      -445,   -37, -1787,  -396,   -54, -4521, -4654,  -107,   -558,   319,   -93, -4286,  -223,   102,   -39, -1537,   -2746,  -243, -2081, -1147,   190,  -487,  -301,  -445,    -56,   -84, -6112,   -13, -2577, -4578,  -116,  -834, // 320
    
    // Out channel 5
       102,    27,  -803,   273,  -324,  -452,   -51, -2057,  -1081,   -56,  -209,  -343,   -23,  -376,  -806,  -218,       2,  -606,  -330,   371,  -806,  -118,    76,   943,  -1614,  -292,   200,    91,  -227, -1249,    90,    36, // 352
      -263,   -38,  -509,  -256,  -535,    15,    66,  -310,     24,   190,   650,   -62,  -475,   -25,  -541,  -374,    -129,  -265,  -149,    42,   -88,    -3,  -350,  -205,  -2699,  -286,   293,  -724,   -12,  -241, -1211,    86, // 384
    
    // Out channel 6
       103,  -135,   -94,  -737,   104,  -412,  -320,   653,   -387,   -44,   -26, -1359,  -812,   239,    97,   -15,    -321,  -403, -1895, -1429,  -157,    21,  -685, -1890,    405,   585,  -263,  -484,  -299,   900, -2623,  -303, // 416
      -111,  -155,  -807,  -270,    44, -1021, -2225,  -328,    -31,  -652,  -426,  -375,   -50,  -150,  -640,  -108,     -56,  -351, -3082,  -215,  -119, -1182,   -86,  -236,    184,  -135, -1095,   153, -2292,  -758,   449,  -210, // 448
    
    // Out channel 7
       289,   330, -1966,   820,   388,  -181,  -354, -1521,  -2362,  -101,  -833,   -69, -2543,    91,   518,  -903,     596, -1127,  1757, -1553, -1141,   500,   164,  -724,  -2562,  1629,   537, -2715,   -12,  1485,  -346,   159, // 480
       149,  -595,   870,  -749,    70, -1186,   400, -3370,   -111,  -809, -1731,  -608, -2072,  -207,  -685,   -67,     -28,   -54, -1142,   387,   -16,  -486, -1620,  -116,   -737, -1530, -2533, -1173, -1951,  -685, -3280,   659, // 512
    
    // Out channel 8
      -128, -1797,    -2, -1476,   -87,   399, -4145,    18,    -73,  -271,   -48,  -574,  -312,   -15,   294,  -144,   -1787,   283,   -48, -1386,   920,  -237, -2047,  -557,   -601,    23, -3222,   118, -1631,   551,  -452,   400, // 544
       228,   189, -1614,   350,    48, -3059, -5067,   214,  -4673, -1280, -2909, -4446,   188,   122, -1158,  -173,      -5,   -29, -2433,  -293,   -15,    23,   165,   -11,      1,    85, -2155,  -261, -1089, -3010,    84, -1303, // 576
    
    // Out channel 9
       276, -1094, -4776,  -237, -3793, -2907,  -346, -1360,  -1842,  -113, -2667,  -395,   142,  1385,    -8,  -324,     -37, -1424,   270,    75,   322, -5172,    49,   -99,   -939,  -408, -2967, -1047,  -704,  -736,  -187,  -276, // 608
        18,   173, -1065,   -74, -2445,     1,   -74,   203,  -2409,   -29, -1122,  -217,    43,  -210, -1667, -1055,   -2493,   -85,   260,  -586,    58,   -23,   113,  -360,  -1191, -2432,   -53, -1032,  -377,  -279, -1363,  -309, // 640
    
    // Out channel 10
        70,  1006, -3026,   284,   -67,  -797,   750,  -396,  -2064,  -568,  -972,  -238, -1320,   420,  -887,  -854,     -52, -1250,    19, -1335,   170,  -868,   171,  -465,   -761, -3307,    94,  1389,    -8,   943,   679,   249, // 672
      -196,  -804, -1902,  -634,    90,  -440,   -45,   550,    506, -2232,  -384,  -225,   -10,    63, -2724,  1007,    -128,   -76,   487,   542, -1384, -1902,  2000,  -579,  -1232, -1656, -1407,  -427,  -907,  -544,  -248,  -220, // 704
    
    // Out channel 11
       177,   -61,  -455, -2082,  -538,   111, -2785, -1016,  -2148,  -417, -1185,  -157,  -301,  -159, -1281,  -612,     727,  2439,   488,  1435,    25, -1410,   439, -5072,  -1026,  -222,  -286,   868,   374,  1074, -1829,   342, // 736
       167, -1727, -1572,  -406, -1233, -1069, -1162,  1075,  -2698,  1116,   626, -1450, -1131,  -804,   -49,   262,    -386, -1766,  -792,   237, -1660, -4159,  1473,  -890,   -762,  -345, -2703,   -68,  -766, -2535, -1279,  -794, // 768
    
    // Out channel 12
        72, -1197,   419,  -746,   104,   604,   -38, -1594,  -2175,  -753,  -846, -1027,  -260,  -395, -1867,   471,     199,  -115,    17,  -405, -1410,   119,   105,  -440,  -1146,  -235,   222,  -756,  -606,  -961,   146,  -654, // 800
     -1669,  -312,  -770,   373,   -33,  -305,  -119,   657,  -1854,  1313,  -346,   -70,  -790,  -185, -1232,   -23,    -307,  -104,   467,  -549,   368,  -236, -1774, -1087,  -3561,   338,  -331, -2158, -1600,   -21, -2755,   -52, // 832
    
    // Out channel 13
       179,  -699,  -490, -1103,  -106,  -103,   -97, -4253,   -543, -1264,  -136,  -349,    22, -1696, -4582, -1586,    -181, -2410,  -205,   -74,  -195,   199,    89,   129,  -3406,   201,   253,  -970, -1299,  -873,  -164,   158, // 864
        41,   473,  -523,  -134,  -301,    30,   -32,   -64,  -3005,   369,   308,   175,  -614,  -118,  -598, -1272,     123,   -15,   -53, -2701,   111,   218,  -989, -1059,  -1125,  -431,   -78,  -338,   -56,    70,  -433,  -491, // 896
    
    // Out channel 14
      -221, -1832,   -73,  -971,   192,    53,  -175,   495,    184,   -40,   143,   243, -1131,   437,   846,   253,      85,  -138,   181, -2535,   969,   109,   194,   203,    443,   -76,    33,  2069,    95,  1192,  -767,    35, // 928
      -195,   247,  1012,  -308,   283,  -146,   450,   692,    384,  -822, -1103,  -830,   436,  -261,    84, -2090,      55,  -534,  -244,   162,   -79,    68,   917,   219,    458,   171,  -781,   330, -1141,   -70,   408,   229, // 960
    
    // Out channel 15
       174, -2720, -2616,  -873, -1250, -1059,    29, -1585,  -1200,  -867,  -349, -1114,    58,    86,  -254, -2868,      -6, -3678,   134,  -277,   432, -1239,   149,  -473,  -1284, -1268,  -176,  1456,  -769,  1368,  -236, -1484, // 992
      -866,  -539,  -826,  -418, -1188,  -179,  -118,   298,    559,   111,  -454,   -79,   234,   375,   -29, -4280,   -1589,   -30,  -595,   469,   209,   490,  1236,  -277,   -751, -3037, -2166,  -172,   232,   246, -1153,   180, // 1024
    
    // Out channel 16
       158,   326,  -297,  -495,   315,  -612,   192,   476,    754,  -108,   -61, -1074,   131,   479,   800,  -220,     679, -1013,   209,   119,  1987,   392,   614, -1522,    849,  -393,   509, -1124,    49,  2256,   104,    30, // 1056
      -269,  1109, -3887,  1222,   484,   121,  -182,   833,   -584,  -757,    -8,    49,  1110,   167, -3941,   252,     -50,   355,   287,   787,  1544,    -2,  -215,   -95,    433,   421,   165,   -35,   427,   429,   757,   517, // 1088
    
    // Out channel 17
        33,    95, -1246,    34,  -705,  -327, -1795,  -919,   -992,  -159,  -326,  -875,  -560,    -1,  -385, -1106,   -2995, -1257, -2049, -1881,  -310,  -572, -3393,    -9,  -1556,  -172, -2736,  1726,    34,   623, -1880,    10, // 1120
       -95,  -475,  -672,   380, -1176, -1319,  -493,   375,    151, -1757, -1811, -2591,  -138,   269,   -51,   -50,    -282,   -38,  -349, -2411,  -145,  -486,  1167, -1265,  -1065,  -454, -1577,     1,  -173, -1441,  -620, -1323, // 1152
    
    // Out channel 18
      -159,  -760,  -852,  -588,   -79,  -284,    59, -2965,   -875, -1710,   -20, -2064,    44,  -679, -2086, -1675,     -62, -3884,  -594,   -10,  -200,   102,   -81,   -75,    345,  -382,  -258, -1717, -1505, -1019,  -209, -3642, // 1184
      -713,  -168,  -530,   221,   -15,  -525,    83,   290,   -138,   156,    21,   122,  -349,   228,  -194, -2065,    -259,     7,    12, -1264,  -958,   -76,   835, -1612,   -522,  -979,   -49,  -543,   199,   -20, -1220,    20, // 1216
    
    // Out channel 19
      -195,  -171,   -67,  -651, -2687,  -125,  -133, -2885,   -591,   -61,  -853, -1717,   -40, -1011,   107,  -176,     -59, -1031,  -632,   394, -1507, -2322,   -92,   -99,  -2789,    39,  -222, -2218,  -246,  -245,   323,  -760, // 1248
     -1528,  -325, -2914,   577, -3309,   199,   -76,   495,    -39,  -385,  -409,   240,   -22,   195,  -350,  -158,    -928,    -5,  -243,    58,  -343,   154, -1628, -1736,   -973,    63,   310,  -975,  1037,    66, -1243,  -135, // 1280
    
    // Out channel 20
       202,   562, -2448, -1249,  -169,   215, -3588,  -817,   -578, -1907, -1648,   -75,  -125, -1090, -1859, -1245,     -22, -2731,   104,   -82,  -917,  -155,    59,  -790,  -1347, -3785,   389,  -354, -2294,  -322,  -155,   267, // 1312
      -890,  -168, -1219,   -50, -1916,  -289,    -2,  -201,    437,   792,  -274,   350,   640,   -68,   -37, -1167,    -288,   465,  -170,  -391,  -412,  -725,   147,   727,   -835, -1983,  -269,  -675,   310,  -265, -1069,    24, // 1344
    
    // Out channel 21
       226,  -637,   884,  -373,  -285,   522,  -639,  -712,   -463, -1015,   122,  -884, -1064,  1824,  -188,   267,   -1325, -4551,  -127,   -15, -1636,  -513,  -901, -1176,  -1190,   175,  -839,  -485, -3331, -1880,  -594,   -11, // 1376
        98,   280,  -138,  -685,   636, -1386,  -530,  1658,  -2379, -2288, -1461,  -880,  -458,  -630, -1264, -1841,     136, -4208,   -49,   468, -2704,  -829,  -540,   217,   -446,  -492, -1303,  -242,  -496,  -911,  -285,  -813, // 1408
    
    // Out channel 22
       -98,  -335, -5819,  -462,  -188,  -743,   371, -1045,  -1701, -1761,  -659,  -406,   -34,  -830,  -877, -2967,    -134,   191,  -165,   -89,  -302,  -424,  -186,    47,  -1896, -4037,    33,  -817,  -248,  -296,  -199,   197, // 1440
       216,  -593, -1381, -4166, -1481,   -68,    23, -1223,   -125,    10, -2413,   -96,   542,    19,   287,  -682,    -166,   109,    36,  -657, -1697,    61,  -759,   563,  -1811, -2589,    12,  -406,  -229,  -186, -1218,   132, // 1472
    
    // Out channel 23
        84, -1221,   -18,  -756,   214,  -169,  -949,   410,    827, -1351,   125, -3350,    -3,   330,   886,   266,   -1636, -2444,   194,  -751,  2212,   298, -1972, -3453,    509,   220, -1950,   990, -1981,  1224, -1401,   142, // 1504
        51,   531,  -827,   355,   411, -2604, -1506,  1153,  -4964, -1964, -3207, -2350,   541,  -866, -1983, -1299,     141, -1938,  -963,  1028, -1574, -3212,  -160,   406,    567,   471,  -686,   405,  -396, -2729,   419, -1220, // 1536
    
    // Out channel 24
      -241,  -202,  -360,  -161, -1221,  -444,  -100,  -638,     38,   246,  -173,  -505,  -545,  -184, -1286,   218,    -270,  -271,   -71,   682,  -328,  -321,  -117,  -184,   -861,  -205,  -253,  1302,   177,   489,   125, -1186, // 1568
       473, -1179, -3547,  -620, -1674,  -354,    -1,   130,    507,  -327,    38,  -232,   245,  -418, -3679,   443,     -78,  -344,  -904,  -269,   353, -2391,  -600,   113,  -1639,   -79,  -270,  -421,  1488,  -170,  -667,  -160, // 1600
    
    // Out channel 25
      -234, -1229,  -284,  -167,  -512,   451,  -968,  1006,   -405,  -375,   -72, -1765, -2761,  -727,   423,  -243,     -75, -1957,   510, -1247,  1285, -3788,  -548, -1694,    557,  -242,   312,  1534, -1300,  -949, -1173,  -512, // 1632
      -444, -1297, -1418,  -431,  -713, -3034, -3566,  -656,  -3110,   238,  -572, -1569, -5198,  -442, -1587,   -79,   -1902,   -45, -2182,   243,    10, -1618,   -13,   390,   -581,  -870, -2633,  -425, -2230,  -951,  -133,   -57, // 1664
    
    // Out channel 26
       132,    98,   678,  -866, -2168,  -727,   231, -1570,   2008,   -54,   395, -2193,   310,   782,  -992, -1971,     532,   911,  -303,   243,  -283, -1222,   -17,   695,    -65,  -224,   -45,   595,   985,  -600,   206,   184, // 1696
       739,   349, -1111,   659, -1934,   349,   123,   406,    312,  -133,   241,  -407,   170,   177,  1557,   632,     106,   262,   287,  -540,   233,   -12,   826,   525,  -1978, -2322,   530, -1381,   -66,  -682, -1509,    23, // 1728
    
    // Out channel 27
      -173, -1977,  -351,  -143,  -215,    70,   674,  -458,   -694, -2275,    69,  -888,  -263,  -289,    87,   160,   -1064, -1517,  -923, -1639,   456,  -293,   208,  -957,   -599,   191, -1621,   537, -1022, -1346,     9,   892, // 1760
         5,   134, -1159,  -671,  -385,  -889,   822,  -416,   -655,  -178,   885, -1916,  -383,  1144,  1322, -1104,    -104,  -108,  -358,   856,  -642, -1257,   400,    60,   -492,    68, -2779,  1442,  1214, -1819,  -318,  -618, // 1792
    
    // Out channel 28
      -141,   444, -1051, -1356,  -169, -1947,   148, -1384,   -860, -1060,    51, -3718,   382,   769,  -377, -1333,     171, -1039,  -696,   781,  -238,   161,   201,   661,    445, -1657,   353,  1380, -2318,  -493,   577,   122, // 1824
      -113,  -594, -4156,   642,   -12,   335,   -51,   236,   -734,  -130,   556,   125,    -8,   321,   277,   642,    -111,   293,   375,   670,    81,   548,   839, -1271,  -1354, -1228,   613,  -869,   549,   225, -1639,   373, // 1856
    
    // Out channel 29
       -77,  -583,   333,  1212,  -117,   572,  -134,   258,     44,   402,    92,   502,  -962,  -524, -1052,   131,     551, -1374,  -765, -3506,   115,   137,   845,  -724,    126,  -361,   103,  1044,   191,  -225,  -495,   783, // 1888
       -27,   799,  1805,  -551,   -98,  -494,  1261,  -899,    737,  -150, -1861, -1222,  -273, -1500,   624,    74,     178,  -549,  -191, -2537,   164,  -106,  1615,   480,    -26,   203,  -766,  -102, -1346,  -382,  -386,   348, // 1920
    
    // Out channel 30
       140,  -408,  -184,  -164,   211,   127,  -204,  -221,    328,  -182,   -16, -2735,  -694,   322,   454,   -51,   -2544,  -995,   -37, -2594,   383,   233, -4776, -1978,    466, -1172, -2960,  -273,  -302,  1093, -3531,  -374, // 1952
      -233,   726, -2450,   424,   225,  -952, -3000,   445,    187,  -558, -1104, -1995,   795,   305,  -655,  -255,     -45,  -373, -1745,  -503,  -163, -1178,   616,    22,     94,   111, -1001,   -10, -1024,  -848,   176,  -918, // 1984
    
    // Out channel 31
        25, -1436, -3094, -1535, -1026,  -666,  -567, -1038,  -2056, -1131, -2287,  -666,    33,    45, -1448, -3633,      -5,  -463,   -84,   111,  -265,  -455,   -39,   159,  -1488, -1254,   251, -1269,  -272,  -453,   -39,   304, // 2016
      -758,  -403,  -711,  -111, -2427,  -105,   -35,   147,  -1101, -2068,   406,  -303,   128,   -74,   135,   387,     -90,   149,   -75,  -618,  -108,   -51,   -87,   365,  -1251, -6445,    -4,  -742,  -438,   -14, -1571,  -150, // 2048
    
    
};

const int16_t cg_FC3bias[32] = { // Co,H,W,Ci: (32,)
     -2732,   206,  1238, -1206,  1355,  2004,  2817,  -348,   1005,   891, -1958, -1365,   419,   695, -2366,   429,   -5388,   101,   673,  1910,  -193,  -183,   849,   798,    397,  1206, -3785, -1434, -3391, -2474,  2273,   778, // 32
    
};

const int16_t cg_FC4weit[32] = { // Co,H,W,Ci: (1, 32)
    // Out channel 0
      1189,   577,  2593,  1059, -1757,   2098, -2829, -1130,  -975,  2300,    1591,  1345,  1376,  1221,  3220,    806,  1552, -6538,  1498,  2698, // 20
      1245,  -746,  1342, -2524,  1149,  -1646, -1108,  -906, -2434, -1310,   -2163,  2100,
    
};

const int16_t cg_FC4bias[1] = { // Co,H,W,Ci: (1,)
      4876,
};

