#include <stdint.h>
const int16_t cg_FC1weit[768] = { // Co,H,W,Ci: (96, 8)
    // Out channel 0
      -285,   270,   -27,   -46,   152,  -513,    76,   132, 
    // Out channel 1
        45,   200,  -160,   755,  -443,   286,    61,  -456, 
    // Out channel 2
      -469,   522,   -47,   155,   568,   -71,  -809,   -91, 
    // Out channel 3
       267,   346,  -546,    41,  -443,  -261,   103,    39, 
    // Out channel 4
        -3,   -35,   -32,    16,   -48,   -48,   -20,    20, 
    // Out channel 5
       256,  -770,  -903,   541,   333,    94,   158,  -249, 
    // Out channel 6
       -35,    -2,   -34,   -24,    27,    22,   -19,   -42, 
    // Out channel 7
       -12,   -71,  -196,  -399,  -107,  -167,   300,    45, 
    // Out channel 8
       411,  -271,   -16,  -713,   538,  -181,    29,    84, 
    // Out channel 9
      -470,   100,   244,   651,    21,   269,   -73,  -436, 
    // Out channel 10
       145,   420,   197,  -486,   478,  -303,  -943,   139, 
    // Out channel 11
        -2,   -34,    20,   -21,   -52,   -12,   -30,    -1, 
    // Out channel 12
      -291,  -148,  -412,   -56,   921,  -270,   276,    82, 
    // Out channel 13
      -534,   263,   203,   804,    32,   143,  -215,  -285, 
    // Out channel 14
       -22, -1009,    90,  -185,     5,  -391,   523,   404, 
    // Out channel 15
      -406, -3438,   420,   200,  -391,  -254,  -120,   416, 
    // Out channel 16
      -642,   -97,   -62,   480,   350,   -25,   150,   -62, 
    // Out channel 17
       379,   456,  -740,   213,    29,   105,  -173,  -548, 
    // Out channel 18
      -476,  -218,   492,   142,    22,   129, -1668,  -105, 
    // Out channel 19
      -175,   164,  -180,  -388,   852,  -202,    66,   183, 
    // Out channel 20
      -820, -1081,  1545, -2125, -2004,  -682,  -175,   191, 
    // Out channel 21
       132,   762,  -539,   205,    46,   191,  -421,  -285, 
    // Out channel 22
       -39,    28,  -115,   294,   642,  -106,   180,  -160, 
    // Out channel 23
        45,    24,   -34,  -144,  -173,  -375,   -49,    47, 
    // Out channel 24
       202,   588,  -341,    97,   -62,   365, -3610,  -224, 
    // Out channel 25
       283,  -133,  -433,   207,   481,    40,  -320,  -562, 
    // Out channel 26
      -259,  -848,   -88,   417,   348,   120, -1688,  -134, 
    // Out channel 27
      -513,  -558,    74,  -435,     9,    74,   440,   200, 
    // Out channel 28
      -642,   239,    16,   620,   260,  -136,  -156,   -68, 
    // Out channel 29
       -48, -2323,   105,  -154,   312,  -519,   417,   336, 
    // Out channel 30
       -69,   670,    87,     4,   615,  -465,  -341,   258, 
    // Out channel 31
       -50,   -43,    30,    19,   -24,   -61,     5,   -61, 
    // Out channel 32
       142, -4028,    65,  -176,   229,  -338,   867,   181, 
    // Out channel 33
       152,   -52,   115,   -66,   148,   184,   110,    87, 
    // Out channel 34
      -239,   904,  -168,   691,  -286,    42, -1237,   179, 
    // Out channel 35
       -21,    -3,   -29,    29,   -46,    20,    32,   -48, 
    // Out channel 36
       -58,   -50,    45,     4,   -26,    22,   -47,    12, 
    // Out channel 37
       192, -1103,   -77,    70,  -309,   593,    47,  -387, 
    // Out channel 38
       -12,  -405,     3,   110,    75,   -32,  -424,   -96, 
    // Out channel 39
       402,   146,  -540,  -114,   -31,  -149,   124,  -267, 
    // Out channel 40
       -54,    26,   -60,   -35,   -39,    37,   -57,    25, 
    // Out channel 41
        57, -1116,   -32,   -97,   -35,  -302,   606,   304, 
    // Out channel 42
      -220,   106,   236,   183,   137,   274,   -54,  -213, 
    // Out channel 43
       308,   477,  -199,  -349,   515,   101, -1076,  -344, 
    // Out channel 44
       -37,    -8,   -59,    46,    55,   -16,   -57,   -53, 
    // Out channel 45
       414,   530,  -402,  -274,   509,    79, -1276,  -295, 
    // Out channel 46
       -81,   -23,   -20,   472,  -569,   215,    76,   256, 
    // Out channel 47
       -32,    20,   -21,    -8,    47,   -32,    28,   -26, 
    // Out channel 48
       -25,     0,   -49,   -41,   -20,   -16,    21,   -43, 
    // Out channel 49
      -213,  -123,   177,  -655,   340,   -70,   134,   130, 
    // Out channel 50
       -26,  -652,    13,   434,  -801,   140,    50,   433, 
    // Out channel 51
       -91,  -114,    28,    24,   132,   -46,    41,    11, 
    // Out channel 52
       608,   170,  -829,   -19,  -247,   -52,  -671,   154, 
    // Out channel 53
        17,   -70,    21,    -9,   -28,   -45,   -42,   -11, 
    // Out channel 54
      -793, -1027,  1490, -1886, -1910, -1052,  -216,   126, 
    // Out channel 55
      -160,   147,  -275,  -485,   427,   -56,    45,   428, 
    // Out channel 56
      -468,    80,   299,    78,   534,   332,   -47,  -408, 
    // Out channel 57
       -43,    10,    -7,   -27,     8,    26,   -42,    19, 
    // Out channel 58
       -19,   -63,   -63,   -42,    50,    -2,    26,    -1, 
    // Out channel 59
        -3,   -87,     1,    25,   -28,    41,   -90,    19, 
    // Out channel 60
      -225,   -73,  -119,   459,   744,  -293,   114,  -136, 
    // Out channel 61
       -13,    -8,   -66,   -16,     1,   -51,    35,   -25, 
    // Out channel 62
        -2,    44,   -44,    36,   -60,   -56,   -38,    10, 
    // Out channel 63
      -519,   447,     0,   276,   125,   193,  -181,    55, 
    // Out channel 64
      -376,  -710,    10,   556,   510,  -264,   428,  -349, 
    // Out channel 65
       124,   195,  -224,   -32,    50,     4,  -716,   -29, 
    // Out channel 66
       -23,   -24,   -57,    -9,    14,   -18,    45,   -39, 
    // Out channel 67
       629,  -287, -1059,   267,   -92,   277,  -343,  -205, 
    // Out channel 68
         5,   -42,   -28,    34,   -52,   -16,     4,    11, 
    // Out channel 69
       -56,    -3,  -173,   532,  -483,   406,   -45,   -48, 
    // Out channel 70
      -191,   917,    30,   438,   390,   -77,  -661,   111, 
    // Out channel 71
        58,    11,   -47,   938,  -486,  -136,   128,  -395, 
    // Out channel 72
       483,   732,  -396,  -193,   125,   -21,  -949,   -88, 
    // Out channel 73
      -166,   132,   138,    30,   682,  -285,  -413,  -400, 
    // Out channel 74
      -567, -4373,    60,   293,  -107,   395,   192,  -185, 
    // Out channel 75
       164, -1154,    19,  -187,   604,  -188,   541,  -136, 
    // Out channel 76
      -271, -1161,   191,   -67,   215,    66, -1095,    76, 
    // Out channel 77
       -35,  -474,    60,   241,  -110,  -274,   298,  -212, 
    // Out channel 78
       387,  -185,    31,  -676,   358,  -108,   -54,    99, 
    // Out channel 79
        84,  -138,  -621,   -29,  -438,   129,    33,  -164, 
    // Out channel 80
      -283,  -168,  -329,   694,   116,   151,   271,   -87, 
    // Out channel 81
       158,  -338,  -330,   209,   769,   103,   394,  -487, 
    // Out channel 82
       -84, -1148,    42,    78,   -10,  -705,   548,   244, 
    // Out channel 83
       372,   391,  -341,  -243,   393,   162, -1092,  -326, 
    // Out channel 84
       145,   180,  -570,   651,   306,   197,  -247,  -739, 
    // Out channel 85
        63,   154,   -46,   893,  -660,    14,   111,  -464, 
    // Out channel 86
       -46,    20,   -44,    27,    41,   -61,    -4,   -47, 
    // Out channel 87
       172,   -86,   109,   228,   503,  -344,   -26,  -399, 
    // Out channel 88
        62,   444,  -984,  -162,   498,   250,  -670,   130, 
    // Out channel 89
      -285,   276,    85,  -265,    78,  -322,  -160,   183, 
    // Out channel 90
      -195, -1648,   -65,   276,   809,  -285,   627,  -279, 
    // Out channel 91
       -41,   -11,   -46,   -36,   -26,     9,   -45,   -15, 
    // Out channel 92
      -182,   447,    19,   410,   549,  -423,    -3,   124, 
    // Out channel 93
        27,  -103,    53,   545,  -103,  -244,    30,   150, 
    // Out channel 94
       599,  -912,  -609,  -278,   333,   221,  -110,  -299, 
    // Out channel 95
         4,     2,   -26,    37,   -18,   -55,   -36,     3, 
    
};

const int16_t cg_FC1bias[96] = { // Co,H,W,Ci: (96,)
      1364, -1424,   -58,  1916,    -2,  -208,     0,  1751,  -1104,  -624, -1031,   -30, -1459,  -807,    55,   103,    -936,  1157,  -109, -1546,   173,    70, -1820,  1383,    245,   124,  -955,  -673,    22,    76, -2189,     0, // 32
      -441, -2297,  -777,   -98,  -104,    90,  -481,  1962,   -125,    79, -1087,    53,     0,   100, -1731,  -114,     -20,    30, -1298,  -698,   779,  -151,   165, -2078,  -1066,  -224,   -65,  -432, -1757,   -41,   -48, -1250, // 64
      -191,   -54,   -41,    93,   -20,  -745, -4103, -1390,    145,   -23,    33, -1647,  -493,   878,  -921,  1991,   -1689, -1491,   986,   130,   101, -1205,     0, -2074,  -2387,  1220,  -722,     0, -2849, -1910,    63,   -41, // 96
    
};

const int16_t cg_FC2weit[6144] = { // Co,H,W,Ci: (64, 96)
    // Out channel 0
        29,    44,   -87,    15,   -83,    19,    -3,   -44,     40,   -84,  -117,    84,    -9,    11,   -77,   -15,     -88,   -69,    -4,  -110,    31,  -109,   -11,   -14,     -5,    -1,    39,     2,    39,   -89,    29,   -86, // 32
       -41,  -126,   -32,   -97,   -47,   -51,   -88,   -96,     -6,   -53,   -82,   -59,   -14,     7,   -91,    69,     -92,   -10,  -128,    82,   -18,   -41,    27,    13,    -60,    -8,   -93,    -7,    63,   -18,   -83,     1, // 64
      -109,   -57,    93,   -79,   -38,    75,    37,   -60,     12,    -3,    37,    77,   -18,  -104,  -104,   -93,      33,   -86,   -21,   -88,  -125,   -25,   -24,   -33,    -96,   -75,     0,    20,   -96,   -47,    73,   -58, // 96
    
    // Out channel 1
      -733,   942,   102, -1035,    68,  -834,    60,  -729,    185,    62,   -51,   -65,   752,    -2,    22,  -540,    -923, -1638,    35,    46,   -72, -2235,    13, -1200,   1194,   202,    87,   592,  -705,   367,    97,     9, // 128
        33,    18,   -79,    62,   -41,    59,   432, -1792,     17,    93,    52,    75,    96,   -90,  -328,     1,     -81,   -25,   -95,   169, -1457,   -34,    13,  -240,     82,    85,   -59,    26,   308,    79,   -35,  -645, // 160
       348,    85,   -13, -1229,   -37,  -100,  -282,    36,    -99,   231, -1481,   789,   101,    54,   310,  -423,    -820,    84,  -251,   134,   444,   -56,    21,    93,   -506, -1434,   468,   -60,    86,    28,  -350,   -49, // 192
    
    // Out channel 2
      -858,   214, -3524,   -63,    55,  -358,    19,  -686,    311,  -328,   -17,    35,  -674,  -353,  -552,  -396,    -719,    31,   -96, -2584,  -207,     3,  -371,  -118,   -232,   -18, -1844,   -40, -5873,  -193,  -131,    23, // 224
        67,   -76,  -313,    76,   -60,     0,  -105,    72,    -56,  -456,  -135,   -65,   -79,    91,  -245,    57,      71, -2917, -1921,   -34,  -154,   -85,  -413,  -456,   -608,   -14,   -35,    88,  -472,    -4,    -7,  -394, // 256
      -248,  -988,   -66,   -19,   -92,    32, -1891,  -167,    -29,  -156,   -71,   768, -3444,    49,   121, -1154,      15,   126,    98,    46,    55,  -211,   -85,   -24,  -1568, -2371, -1513,    69, -1185,   -53,   185,    60, // 288
    
    // Out channel 3
        26, -1636,  -192,  -181,   101,  -204,    26,  -663,   -225,   -49,    -9,    83,  -267,  -144, -1669,  -689,    -267,  -637,    -9, -1922,    -9,  -952,   -45,   -74,    -85,   228,   133,  -268,    25,  -635,    68,   -94, // 320
     -1914,   -26,   -22,   -41,    44,   111,     5,   -36,     27, -2395,   -15,    44,    12,    -8, -1325,   -27,     -74,  -494, -2221,    12, -1984,     7,  -119,  -195,   -127,    -2,     2,    22, -1557,   -43,    70,   -89, // 352
        -8,  -274,    99, -1285,    79,  -775,   -33,   -35,     61,  -117,   639, -1052,   -19,   -28,  -127,  -549,    -607, -1436,  -356,   128,  -247,  -183,    85,   -25,   -421,   -89,   559,   -18,    39,   -24,  -562,    13, // 384
    
    // Out channel 4
      -210,  -600,  -676,  -108,   -17, -1082,    -5,  -373,    203,   -59,    89,   -78,  -133,   -33,   123,    40,   -1433,   -32,   276,   320,   -68,  -760,    60,  -175,     14,    87,  -261,  -703, -1028,   -77,    88,    85, // 416
        96,    63,  -207,   -57,    54,    73,   139,    -5,     12,    88,    87,    67,   -41,   103, -1328,    48,     -24,     1,  -662,   110,     5,    33,   -91,  -205,     78,   -53,    64,   -33,   205,   -65,    50,  -128, // 448
       -79,  -291,     4,    46,    86,  -558,    80,   225,    -31,   260,  -656,  -336,   -58,   -39,   202,  -660,   -1375,   -92,  -465,    46,   -37,   485,    -1,   263,   -343,  -495,    10,   -75,    -6,    81,    86,     8, // 480
    
    // Out channel 5
         9,   -59,    51,    43,   103,   133,   -50,    36,    297,  -153,  -601,    31,  -438,   -80, -2065, -2204,     -77,    86,  -515,  -257, -2722,    79, -1132,    -2,     54,   195,  -108,  -407,   234, -1997,  -527,    86, // 512
       398, -2320,    23,    65,    33,   125,   -85,    -1,      9,  -554,  -162,   120,   -87,   -81, -1642,   -28,     -76,  -700,  -770,   -36,    93,  -112, -2735,  -833,     27,   -16,   -78,   -28,   -55,   -77,   -43,   103, // 544
     -1926, -1186,    54,   -10,   -63,   -40,  -326, -1275,    -23,  -524,  -550,  -369,   -35,   -35,    56,    67,    -675,  -903,   -61,   109,  -118,   108,   -39, -1226,    -40,    31,  -897,    60,  -261,  -564,    96,     4, // 576
    
    // Out channel 6
      -409,  -110,    80, -1295,    42,     4,    93,  -890,    117,     9,   -58,    20,  1028,   -45,     4,  -104,   -2139,  -569,   -12,    17,   121, -1223,    12, -1009,    136,   301,   146,  -137,  -836,    -5,    31,   -30, // 608
       303,    25,  -123,    75,   -38,   145,   379,  -967,     77,     7,    23,    12,   -74,   -32,  -428,   -31,     -15,    -6,  -107,   165,  -646,    79,  -102,   199,     63,    17,   -61,   111,    39,   -40,    25,   102, // 640
       162,   -65,    38,  -993,   -38,  -220,   -96, -1745,   -308,    98,  -172,   618,   168,  -944,    43,  -248,   -1068,    59,  -110,   -27,   710,  -277,    23,    41,   -769, -1584,   112,    75,    36,   -28,   635,   -44, // 672
    
    // Out channel 7
     -1696,  -357,  -277, -3744,   107,    30,   -37, -2012,  -1618,   -47, -2143,   -65, -1039,   -70,  -169,  -876,    -473,  -529,  -270,   -61,   178,   -13,   -93, -2765,   -520,  -166,  -244, -1500,  -350,  -288, -1356,    27, // 704
      -476,    27,  -409,    48,   -30,   653,  -110, -1231,     76,   -31,    12,  -269,   -18,    95,    81,   -35,      76,  -746,   354,  -386,  -890,    43,    60,  -515,     35,   -38,   -54,   -45,  -233,   -48,    31,   -47, // 736
     -1056,  -490,   -16,     4,    21,    47, -3326, -1404,   -737,  -243,   474,  -882,  -134,  -644, -1883, -2087,     -55,   -35, -2572,    10,  -570, -2298,    74,  -786,  -1637,  -984,    15,    22, -3575,   -53,  -819,   -90, // 768
    
    // Out channel 8
     -1751,   177,  -427,     2,    10,   514,    22,  -351,   -209,  -333,  -103,   -73,  -781,  -402,  -680, -1016,    -163,    68,  -541, -1504,  -859,    -9,  -686,   -35,   -145,   -93,  -536,  1264, -1175, -1191,  -464,    59, // 800
       134,  -486,   243,   -80,    31,    56,  -130,    40,    -99,  -320,  -692,   140,   -18,    92,   -67,   -23,     -35,  -297, -1133,  -114,    95,    16,  -970,  -722,   -684,   -90,    83,    -5,     2,    74,    17,  -161, // 832
     -1118,  -489,    51,    89,   -39,   -24,   -22,  -736,     45, -1125,   104, -1138, -1678,    -3,    28,  -468,     -61,  -199,   177,   135,    55,   115,   -39, -1178,  -1944, -2827,  -839,    66, -1009, -2059,   108,   -98, // 864
    
    // Out channel 9
        48,  -286,  -112,    41,    93, -1105,   -38,    11,   -441,  -297,  -605,   -13, -1113,  -360,    30,    74,    -816,    -4,   -37,  -136,  4600,  -215, -1872,    -9,   -789, -1603,  -411,  -132,   200,    58,     2,    82, // 896
        11,  -411, -1216,   -30,    85,  -756,  -128,   -11,     66,    52,  -500, -1069,   -88, -1442,  -385,    52,     -85,   -38,  -726,     8,   -11,   -35,  4475, -2253,   -396,    28,   -41,   -22,   -81,    35,    21,  -911, // 928
        64,  -639,    91, -1729,    82, -1943,  -105, -1065,   -493,    55,  -454,  -490,   -88,    13,   -43,    14,    -217, -1209,    36, -1797, -1193, -1157,   -76, -1696,   -505,    26,   -73,    15,  -213,  -574, -1270,   -99, // 960
    
    // Out channel 10
      -588, -1642,   447,   -87,    65,   746,   -87,    60,  -1903,  -554, -1101,     7, -1226,  -707,  -180,  -908,    -422,  -141,  -128,  -859, -1003,   -68, -3213,  -366,   -272,  2702,   297,   623,   234,  -769,  -432,   -13, // 992
       169,  -666,   542,   -66,   -88,   -67,     8,   -38,    -40,   110,  -762,  -107,     5,  -159,  -250,   -57,     -22,  -192,  -171,  -196,   -35,    42, -1082, -1120,     80,   -95,    26,    12,  -128,   -44,    44,  -164, // 1024
       -65, -3139,    91,   392,    33,   535,  -323, -1785,   -121,  -106,  -779,  -130,   423,  -283, -1308,    31,   -1380, -1799, -1463,  -169,  -407,   163,    13, -3310,  -1133,  -208, -1723,   -45,  -208, -3828,   455,    69, // 1056
    
    // Out channel 11
      -468, -2786,   105,    17,    34,   171,    35,  -106,    518, -1032,    29,    33,  -955, -1446, -1907,  -818,    -278,    19,  -224,  -728, -2345,   -73, -1990,   -36,   -232,   -12,  -668,  -295,   -25, -1398, -1565,     3, // 1088
       496, -2074,  -529,   -14,    92,    63,  -112,     9,     58,  -493, -2384,     8,    57,   -41,  -322,    77,     -42, -1052,  -990,  -132,    72,   -61, -2011,  -861,  -1100,    29,     7,   -22,   -75,   -96,    88,  -101, // 1120
     -1291,    15,   -15,   138,   -25,   357,  -936, -2294,     58, -1654,  -320,  -811,  -575,     8,    76,    45,   -1544, -4002,   -78,   109,   141, -2712,    17,    22,   -433,  -381,  -871,    76,  -779,  -547,   127,    75, // 1152
    
    // Out channel 12
       -19,  -997,    43, -1232,   127, -2042,    99,  -181,     -2,  -181,    17,    15, -1299,  -308,    -3,   -61,    -619,  -133,    29,  -154,    38,  -830,  -970,  -192,    101,   198, -1079,    64,  -527,    37,    -9,    69, // 1184
      -198,   -21,  -783,   -67,     5,   -73,   106,  -202,    -88,     0,   -68,   -34,     4,     3,  -638,   -92,     -45,  -189,    14,  -103,  -178,    37,   -84,   276,  -1527,   -52,   -67,  -107, -1354,   -77,    77,    73, // 1216
      -443,  -342,   -23, -1452,   -58, -1326, -1315,  -668,   -106,   -72,   195,  -856,  -173,  -168,    -1,  -429,    -990, -1685,    32,   -65,   162, -1350,    -9,   -41,   -957,   -11,  -438,    52,  -329,  -135,  -321,   -34, // 1248
    
    // Out channel 13
        28,   217, -1209,     8,   107,  -970,    24,  -341,    -18,  -510,   -68,    12,  -132,  -496,  -253,   403,     -77,  -410,  -364, -1212,  -581,  -809, -1735,    89,  -1040, -3027,  -961, -1205,   845,  -148,   -80,   -31, // 1280
        95,   -31, -1181,     7,    68, -1218,  -193,   223,    -39,  -212,  -459, -2434,   -34, -2959,  -863,  -127,     101, -1397,   586,   -25, -1099,   -76,  -315,  -210,  -1898,    19,   -92,   -68,   -44,   -65,    85, -1112, // 1312
       363,  -317,    25, -1274,    27, -1222,  -925,    64,   -183, -1581,  -797, -1923, -1765,   -44,   119, -1682,    -253, -2118,   -39, -2179,   -53,   110,   -17,   114,    -99,  -253,    84,    56,  -327,   236, -1700,    88, // 1344
    
    // Out channel 14
      -925,    -1,   -41,  -450,    70,   -74,    40, -1018,    461,    50,   119,   -65,  -442,     1,    40,  -358,   -1897,  -378,    29,   221,    19, -1507,     0,  -435,   -105,    18,   -44,  -530,  -548,    93,    35,   -56, // 1376
       226,     9,    39,   -13,    47,   -31,   293,  -188,     30,    54,    27,   233,    27,   181,  -357,    39,      31,   -71,  -512,   108,  -367,    18,    18,  -106,     42,   -10,   -78,    10,   -29,   -28,   -35,   -51, // 1408
      -237,  -392,   -40,  -233,    88,  -162,    76,   222,    -64,   323,  -859,   216,    73,   -99,   398,  -493,    -414,    17, -1289,    83,    89,   268,    15,   269,   -101,  -757,   -62,   -28,   139,    40,   378,   -38, // 1440
    
    // Out channel 15
       -35,   222,  -158,  -168,   -23,   -34,   -71,   -69,   -783,    20,  -330,   -47,  -160,    52,  -212, -2161,    -645,  -234,    16,    40,   -15,     2,    -4,  -737,  -2217, -2207,   546, -1310,  -428, -1238,   -20,    70, // 1472
     -2163,     7,   231,    -1,    52,   -12,  -276,  -309,    -48,  -393,    83,  -657,   -87, -1265,   149,   -71,      33,   764,   -27,    71,   -14,     2,   -20,   155,    -36,   -54,    28,    84,     0,   -71,    79,    62, // 1504
      -625,   -56,   -50,    -1,   -77,    -9,   -90,   200,    108, -1807,   -41,  -657,  -144, -1243, -1895,  -166,    -157,   -58,    31, -1030,  -170,    47,    30,  -237,    379,   -81,  -387,    19,   -63,   178,  -147,    98, // 1536
    
    // Out channel 16
      -636,  -205,  -867,  -108,   -68,  -351,    36,  -512,     93,  -192,    18,    -7,  -653,  -433, -2930, -1229,    -234,   -66,  -153, -1879,  -132,     2, -1284,   -24,   -228,   107,  -509,   -89,  -746,  -973,  -110,   -18, // 1568
      -138,   -52,  -247,   -26,   -32,    70,    83,   -14,    -64, -2464,  -150,     6,    24,    20, -1960,    26,     -28, -3811, -1972,  -181,  -125,    88,  -107,  -620,   -886,     1,   -69,  -100,  -637,   -23,    40,  -626, // 1600
       -35, -2208,   -18,  -167,   -32,   -22, -1374,  -249,    -13,  -339,   509,  -205, -2537,   -53,   152, -1193,   -1445,  -994,   179,    60,  -159,  -305,    37,   -57,  -1585, -1215, -1704,   -92,  -411,  -137,   -70,    36, // 1632
    
    // Out channel 17
        -2,  -957,   226,  -278,   -74,   373,    35,    39,  -1684, -1096,   302,    83,  -629,  -602,  -838, -1264,   -1871,   -64,  -377,   835,  -632,    -9,  -145,   -56,  -1632, -1298,  -795, -1501,  -324, -1912,    98,    -1, // 1664
     -1727,    -5,  -367,    86,   -57,  -734,   -52,  -153,    -74,  -846,  -106, -2153,   -45,  -994,   -65,    29,      65,  -423, -1132,    51,  -227,    69,  -238,   530,     17,    10,    64,   -94,  -591,    58,    18,    21, // 1696
        50,  -383,   -63,   160,    38,     3,    19,  -213,   -622, -1839,  -401,  -118,  -469, -1946, -2844,  -294,     124,   -25,   -40, -1245,   -36,  -679,     3, -1263,    908,   145,  -349,   -91,  -162, -2800,  -193,    83, // 1728
    
    // Out channel 18
      -374,   -89,   -82, -1495,    90,    66,   -32,  -517,     64,    58,  -220,    95,   175,    69,   141,  -165,     -40,  -645,   135,   392,    -7, -1581,    86, -1440,    837,   807,   245,  -107,  -343,   370,   -13,    72, // 1760
       100,    31,   181,    90,   -25,    62,   350,  -703,     65,    47,    22,   144,    81,   615,    75,    18,     -38,   176,   -19,   204, -1482,    17,   -12,  -485,    111,    77,    40,    19,    83,   -34,   -57,  -330, // 1792
       518,  -570,    61, -1692,    16,   440,   283,   -34,   -545,     8, -1044,   688,   -98,   -45,  -702,  -883,     -73,    19,    47,   688,   922,  1106,    41,     7,   -221, -1022,     5,   -15,     0,   -43,   105,   -60, // 1824
    
    // Out channel 19
       -48,    47,    64,    43,   -33,   248,    -9,    50,  -1366,  -172,  -974,    -6,  -718,  -139, -1743, -1508,    -109,   -12,   -47,  -535, -2878,    15,  -327,     4,     18,   129,  -187,  -236,   310, -1230,  -116,    55, // 1856
       198,  -459,   120,    -8,    41,    60,   -93,     6,    -18, -1144,  -134,    64,     8,    37,  -257,    23,      38, -1084,  -370,  -127,   132,    25, -2511,  -547,   -174,   -92,    16,   -16,  -306,   -67,    12,     9, // 1888
      -686, -1216,    23,   100,    28,   -47,   746,  -129,     94,  -376,  -812,  -197,  -433,    11,  -275,     5,    -449,  -148,    88,    37,    67,    36,   -11, -1220,     22,    46,  -732,    86,     4, -1572,   220,    -5, // 1920
    
    // Out channel 20
        15, -1929,  -322,  -438,    30, -1171,   -23, -1723,    -91,   -34,   -15,    -2,  -109,  -101, -2164,   157,    -193,  -392,   -17, -2830,  -117,  -733,   -56,  -148,    -34,    90,  -231,   -44,  -306,  -644,   -27,   -19, // 1952
      -379,    -4,    12,    83,   -75,    68,   128,    49,    -14, -3232,   -26,   -21,   -29,    82,  -956,    75,     -75, -1383, -2066,   -10,  -330,    -7,     5,  -166,   -173,   104,    50,    49, -1585,    35,    25, -1264, // 1984
       127,  -205,    47,  -829,   -34,  -518,   -28,   -22,     13,   -89,  -138,    37,  -488,     0,   -86, -1162,    -540, -1207,  -427,    39,  -282,  -170,    -9,    14,   -265,  -164,  -517,    41,    29,    15,  -147,    15, // 2016
    
    // Out channel 21
        49,  -389,    49,   -75,    11,   192,   -53,   -43,  -2654,   -13,    65,   -69, -1201,    21,    37,   178,    -798,   -31,   137, -4369,  2081,   -34, -1210,  -233,   -434,  -371,  -517,   196,   582,    -7, -3134,   -79, // 2048
       -34, -4392, -2217,   -10,   -80,  -491,   -45,   -33,    -23,    33, -1256,  -389,    13,  -809,  -911,   -26,     -95,   193,    -3,   -18,  -156,   -25,  2126, -2084,   -885,    90,    -3,    42,  -138,    79,   -59,  -211, // 2080
        62,  -607,    -7,   -83,   -66,   -89,  -140,  -322,   -192,  1114,  -707,   600,   111,  -135,  -244,   -52,    -101, -1369,   -21,  -897,  -443,  -779,    77,   -96,  -1148,    51,   -93,    56, -1714, -1954, -1086,   -27, // 2112
    
    // Out channel 22
        37,  -978,    60,  -152,   101,   128,   -85,    -4,  -1719, -3534, -1361,     6,  -588, -2398,    82, -2242,   -1906,  -388, -1399,   219,  -124,    11,  -986,  -186,  -1783,  -746, -2727,  -699,  -490, -3664,   -79,   -83, // 2144
     -3127,  -207,    52,    37,   -46,  -785,  -142, -1014,    -36,  -473,  -139,  -598,   -96,  -359,   219,   -91,     -52,   131, -2162,   -11,  -110,     6,  -212,   341,    265,   -70,   -86,   -57,  -691,   -96,    36,    97, // 2176
     -1057,  -535,    -7,   -24,   -60,    84,  -149,  -172,   -283, -1164, -2999,  -531, -2189, -1447, -1533,  -306,    -138,  -657,  -292,  -395, -2337,  -617,    14,  -663,    529,    87, -1033,   -84,  -116, -2392,   178,   -60, // 2208
    
    // Out channel 23
      -485,    16,   147, -1354,   -21,  -367,    82,   -81,    229,   -10,  -562,    30,   632,    36,    96,   117,     241, -1188,   -37,   201,   -61, -1333,   317, -1179,    617,   179,  -871,   446,   263,    29,  -241,    24, // 2240
      -138,   -29,   209,    84,   -42,   -49,   145, -1316,    -34,    24,   -26,  -639,     5,  -555,  -306,    31,       2,   100,    50,   142,   416,     3,  -160,   -22,     33,    14,    47,   129,  -146,   -47,    13,    37, // 2272
         5,  -895,    27, -1442,    37,  -110, -1396,  1225,   -765,    57,    -9, -1206,   211,   -49,   -58, -1010,    -271,   -87,  -237,  -578,   284,   -55,   -45,   -15,   1863,   -87,  1890,    62,    49,   -15,  -341,   -36, // 2304
    
    // Out channel 24
     -1526,  -123,    55,  -316,    10,   223,   -27, -1736,   -537,   111,  -787,    56,   519,   166,   -35,    55,    1417,    32,   -23,    73,    22,    48,    38,  -409,  -1727, -1666,   -80,  -112,   577,  -142,   -87,    80, // 2336
      -223,   -22,   127,    30,   -67,    70,  -272,   -63,    -39,     5,    66,  -711,    53, -1178,   -46,    73,       2,   -16,   -31,    33,  -609,   -55,   -44,   -15,     35,   -83,   -64,    74,    68,   -55,   -46,   115, // 2368
     -1649,  -113,   -20,   214,    29,   225,   276,   280,   -287, -2272,   286,  -348,    32,  -982, -1963, -2432,     362,    61,  -327,  -998,   137,   -77,   -37,  -414,    219,  -856,   208,    40,  -117,    -6,  -855,    48, // 2400
    
    // Out channel 25
       -19,  -150,   280,  -758,   120,  -195,    46,    16,   -377, -2911, -1053,   -30, -1808, -2553,   106,  -387,    -631, -1392, -2149, -1877,   826,  -599,  -804, -1358,  -1210, -1704, -1092, -1028,  -104,   -55, -2597,    46, // 2432
       118,  -415, -2626,    50,   -68,  -599,     4, -1377,     72,    79, -1189, -2208,   -32,  -952,  -793,    43,     -20,   130,   132,   -67,    63,   -43,   826,  -606,   -809,   -20,    90,   -79,     0,     3,   -60,  -483, // 2464
      -200,  -537,   -15,  -362,    54,  -452,  -204,  -563,    654, -2010, -1769,     0,  -192,  -331,   260,  -250,    -363, -1170,    41, -1103,  -992,  -436,    23, -1012,   -715,   -35,   177,     1, -1752, -1148,    37,    32, // 2496
    
    // Out channel 26
      -539,   -57,   121,  -168,    -6,   158,   -22,  -247,   -610,     7,  -236,   -43,  -179,     7,   -35,    55,    2021,    -3,   -33,     3,    29,    -8,    -8,  -929,   -568,  -384,    54,  1011,   359,   -87,  -103,    96, // 2528
      -153,    -3,   127,   -42,  -100,   -29,  -278,   -89,    -66,    39,    40,  -583,   -47, -1420,   111,   -38,     -98,   109,   207,    10,   -59,    19,   -47,    81,      2,   -53,    11,   113,    28,   103,   -14,    22, // 2560
      -153,  -245,    78,   124,   -84,   119,   112,    23,   -170,  -601,   168,  -478,    64,  -451, -2184,  -664,      82,    30,  -745,  -987,   -18,   -65,   -16,   -33,    141,   -10,     3,    26,  -148,    25, -1179,   -83, // 2592
    
    // Out channel 27
        25,   -90,  -309,    45,   118,   -47,   -11,     6,    210, -2156,  -105,   -26, -1078, -1997,  -800, -1775,    -541,     1, -2010, -1706, -2039,   -44, -2251,    21,   -485, -1433,  -817,  -438, -1277, -1466,  -282,    91, // 2624
       148,  -163,   -40,   105,   -97,  -167,  -183,    23,    -71,  -843, -1071,  -688,   -70,  -926,  -666,   109,       4,  -517, -1524,  -234,    -6,    22, -1692, -1155,   -681,   -29,    30,  -108,   -97,    55,    33,   -40, // 2656
     -1275,  -177,    71,   116,   -12,    48, -1055,    31,    -39,  -869,  -370,  -356,  -223,    86,   297,   -51,   -1247, -1255,   284,  -812,   -32,    35,    94,    78,   -760,    69,  -609,    84, -1737,    82,  -211,   -94, // 2688
    
    // Out channel 28
        84,   -86,   -41,   -38,   -46, -1108,   -69,   111,   -574,  -810,    46,   -16,  -600, -1598,    15,   -94,      35,  -942,   -96,  -247,  -304, -1615,  -767,   -44,   -188, -1057,    -5,   310,  -521,   -45,    23,   -60, // 2720
     -2013,  -239, -3268,   -29,   -81,  -318,    50,  -107,     52,    -4,  -294,    13,   -63,     4,  -178,    69,      19,   271,  -492,    -3,   145,    36,  -461,  -742,     98,    73,   -28,   -88,  -155,    64,     9, -1779, // 2752
       347,  -199,   -24, -1911,    17,  -945,  -257,  -459,    112,   632,   238,  -550,   382,  -123,  -178,   -23,      87,  -226,  -201,    54, -2626,  -672,   -18,  -506,   -289,   138, -1182,    27,   -13, -1919,   179,    -8, // 2784
    
    // Out channel 29
      -432,  -380,   190, -1223,  -140,   289,   -38, -1240,    -30, -2129, -1919,    40,   432,  -713,   -67, -1058,    -688,  -452,   194,   120,   -63,    70,   -24, -1344,   -182,  -816,   128,  1164,    68,  -289,  -107,    92, // 2816
       621,    10,   -90,    77,    35,    65,    59, -1743,     53,  -153,    93,   -48,    68,    -8,  -304,   -45,     -93,    61,  -123,   -94,   -63,   -71,  -115,    85,     19,    37,   -88,   -13,   107,   -30,   -79,   239, // 2848
       792,  -403,   -27,   284,   -91,    -1, -2617,  -304,   -586, -1024,    85,   777,   181, -1262,  -122,  -792,    -232,    46,   329,    39, -1764,  -140,    -1,  -556,     15, -2703,  -459,   -29,    37,  -826,   162,    68, // 2880
    
    // Out channel 30
        49,  -276,  -275,     5,    79, -2393,    -5,     7,  -3299,  -572,    39,   -75,  -868,  -422,   -27,    15,    -559,     1,  -563, -2537,  4238,  -233,  -562,    51,   -580, -1207,   232,  -147, -1727,    12,  -946,    -4, // 2912
        55, -2422,  -775,   -36,   -79, -1313,   -58,   -35,     94,    -1, -2012,  -845,    39,  -934,  -224,   -63,     -36,    39,   198,  -109,     1,    76,  3883, -1463,   -880,    26,   -66,   -32,  -170,    19,   -51, -1439, // 2944
      -280,  -596,   -21, -1439,     3, -1894,   -63,  -624,   -221,    32, -2112,    15,   168,    40,  -407,     3,      15,  -524,     7, -1116,  -883,  -756,    80,  -580,   -356,    22,   141,    -2, -1409, -1685,  -692,    -2, // 2976
    
    // Out channel 31
        -8, -1726,  -116,  -405,    54,  -207,   -48,  -160,  -1551,   -41,  -491,    64, -1151,   -34, -1652,  -335,    -787,  -295,    67, -2886,  -125,  -126,  -106,  -967,   -110,  -178,   433,  -815,  -158,  -515,    76,    45, // 3008
     -2672,   -86,   -62,    25,    20,   -43,  -217,  -142,    -41, -1619,   -28,  -116,     0,   -32, -2316,    41,      65,  -784, -3125,    32,    22,   -14,  -269, -1946,     78,   -85,   -61,    -4,  -722,   -86,    35,  -696, // 3040
       339, -1078,    15,  -115,   -93,  -244, -1215,  -804,   -593,  -428,  1209, -1033,  -112,  -212, -1890,    -1,   -2057,  -210, -2862,   -92,  -406,  -347,    36,  -357,  -2305,   -81,   -35,    92,    68,  -205,   -48,    68, // 3072
    
    // Out channel 32
       -76,   -55,   607, -1249,   -68,  -520,    45,   -61,   -365,   -25,  -553,    -1,   463,   -65,   -67,   108,     456,  -627,    -8,  -378,    33,  -330,  1048, -2265,  -1316,   341,  -382,  -953,  1893,  1560,   -71,    57, // 3104
      -127,   -12,    78,   -84,    25,     1,   301, -1755,     16,   -60,     2, -1190,    89, -2655,   192,   107,       8,  -190,   -34,    45,   135,    22,   -14,  -467,   -122,    78,   -33,    84,  -314,    33,   -43,  -235, // 3136
       148,    87,    37,  -975,   -97,    53,  -473,   -63,  -1026,   278,   166,   194,   -75,    20,  -712,   -19,    -333,   -12,   -55, -2317,   288,  1391,   -86,    22,   -919,   -83,  -531,    38,    71,     2, -1038,   -83, // 3168
    
    // Out channel 33
      -147,    11,  -421,  -181,   -29,   266,    -3,  -106,    335,  -251,    12,    19,  -904,  -586,  -151,  -236,    -359,  -239,   -39, -1864,  -121,  -859,  -968,  -321,    172,    44,   121,  -441,    77,  -131,  -150,   -90, // 3200
      -472,   -51,  -659,    30,   -63,   151,  -237,    18,    -56,  -152,  -118,    59,   -33,   160, -1363,   -48,     -18,  -107,  -606,    -3,   -24,   -38,  -282, -1224,   -387,   101,    -8,   -76,  -785,   -85,   -25, -2251, // 3232
      -537, -2790,   -30,   -91,   -84,  -470, -2253,  -167,    -54,  -306,   525,    98,  -224,  -202,    79,   -52,    -693,    76,  -667,   159,  -346,  -268,    51,     1,  -1119,   -57,  -628,    95,  -721,  -118,   648,   -40, // 3264
    
    // Out channel 34
      -507,  -300,   -17,  -255,    92,   454,    11,  -261,   -778,   -26, -1360,   -54,   533,    41,     2,   170,    1414,    62,  -369,    23,    31,    42,   148,  -179,  -1176, -1084,  -388,   111,   590,   -44,  -496,    48, // 3296
       -16,   -13,  -144,   -85,    39,    87,  -272,   -18,     27,    37,    85, -1651,   -65, -1097,     6,    79,     -54,    22,    32,    74,  -387,   -42,    90,    28,    145,    16,    63,    61,  -423,    60,    -5,    23, // 3328
     -1692,   -47,    85,   241,    89,     3, -1386,  -379,   -216, -1159,   179,  -921,    37,  -349, -2227, -1446,     366,   374,   -26,  -863,   180, -1130,   -29,   -66,    712,  -113,  -152,    91,  -973,   241, -1567,    71, // 3360
    
    // Out channel 35
      -592,   -80,    91,  -917,   104,  -357,    72, -1401,    205,     4,  -148,   -52,   776,   -15,   -17,  -203,    -927,  -836,    17,   496,    69, -1710,   -67,  -219,    537,    76,    15, -1043,    86,   441,   -23,   -37, // 3392
        74,     6,   250,    33,   -56,   106,    54,  -872,    -27,    82,   -18,   -87,   -70,    71,  -209,    20,      84,   171,   -45,   177,  -741,    25,    11,   511,     37,   -28,    42,    50,  -104,    87,    13,   187, // 3424
       148,  -343,    91, -1990,    81,  -105,  -209,   984,    113,  -114,    -9, -1069,   -61,   -41,   104,  -634,    -342,  1471,    49,    64,   464,   -59,   -96,   -17,  -2008, -2069,  -440,    61,   109,   -32,  -557,   -43, // 3456
    
    // Out channel 36
        21,  -246,  -203,    17,   102, -1202,    60,   -15,  -4014,  -387,  -139,    61,  -863,  -231,    -5,   -12,    -689,    22,  -425, -2230,  3961,  -343,  -805,    65,  -1700, -1984,  -336,  -384,  -198,   -62, -1779,   -90, // 3488
        29, -5044,  -878,    25,   -18, -1988,   -28,    29,     47,    12, -2381, -1737,   -22, -2070,  -375,    42,      90,    24,   415,    16,   -38,   -17,  3720, -1124,  -1724,    18,   -75,   -92,  -110,    12,   -38,  -853, // 3520
        63,  -772,    72, -1773,   -62, -1970,  -189,  -680,   -505,  -226, -1377,  -454,   -47,   121,  -882,     6,    -162,  -819,   -12, -2301, -1253,  -646,    56, -1297,   -481,    74,    -8,    59, -1522, -2445,  -873,    69, // 3552
    
    // Out channel 37
       144, -1253,    52, -1820,   -19,  -106,    25,  -353,   -808,  -649,   -76,    28, -1229,  -437,   -95,    88,   -1020, -1802,   -52,   -52,    58,  -290,  -104, -2206,   -182, -1358,   109,   137,    36,   -41,   -43,   -80, // 3584
      -280,     5,  -157,    50,   -27,   132,  -103,  -706,    -34,   -73,   -29,   -63,    97,   -69,    92,   110,     -60,   -42,   209,   -97,  -759,   -68,   -86,    10,    -19,    23,    60,   -74, -1139,   -58,    39,    40, // 3616
      -893,  -600,   -76,  -791,   -22,    -7, -2754, -1769,  -2094, -1795,   227, -3945,    64, -1104, -1368,  -579,     -25,   -37,  -209,  -158, -3331, -1382,    -2, -3349,  -1332,   106, -1366,    31,   -14,  -559, -1156,    79, // 3648
    
    // Out channel 38
         5,    93,   172,    42,   -52,   456,   -17,    17,    181,  -266, -1364,    21,  -686,  -167, -1728, -1387,    -314,    63,  -134,  -865, -2941,    73, -2230,   -24,    362,     0,  -402,  -111,   -16, -1377,  -885,   -60, // 3680
      -362, -3945,   -49,   -55,     4,   185,  -129,    58,     76,  -586, -1645,    18,    73,    28, -1633,    18,      14, -1773,  -750,   -59,    -6,     8, -2951,  -818,   -427,     1,    38,   -42,     3,    87,   -72,   247, // 3712
      -262, -1751,   -72,   120,   -16,   131,  -924, -1385,      5, -1739,  -820,  -149,  -280,    -7,   -62,    28,   -2256, -1758,   -47,    25,    22,    57,   -38, -2271,   -214,    39,  -851,    20,  -129,  -456,    24,    37, // 3744
    
    // Out channel 39
      -354,   426,   398, -1679,    30,   263,   -66,  -198,   -238,   158,  -897,     6,   431,    59,    46,   291,    1770, -1442,  -181,    49,    97,  -351,    47,  -171,  -1831, -1685,   -58,   363,  1111,    82,   -42,    15, // 3776
       112,   -16,   172,   -43,   -49,   -30,  -239, -1933,      0,    63,    71,  -893,   -88, -1210,   736,    18,      91,    82,   -41,    61,   -22,    11,    62,    15,     49,    -5,    46,   115,   157,   -69,   -64,    57, // 3808
     -1606,   110,    88, -1539,   -34,   -48,   421,   284,    544, -1807,   371,  -354,    31,  -693, -1233,  -592,     475,    24,  -526, -1168,    -6,   309,   -71,  -399,    983,   -56,   247,    -2,  -189,   208,  -685,   -15, // 3840
    
    // Out channel 40
     -2309,   183,  -974,  -104,   -52,    48,    22, -1086,  -1165,    42, -3750,   -94,  -207,    13,   -54,  -607,     -92,     5, -1669,   -52,   -27,   -15,   -15, -1122,  -1554,    73,  -606,   962,   221,  -131, -1481,     7, // 3872
        56,    -6,  -547,   -79,     9,   561,  -126,    14,    -16,     9,    20,  -414,   -16,  -397,    97,    78,      34,  -130,   223,  -227,  -557,   -13,   -44,  -105,     -9,    79,    73,   -60,  -179,   -79,   -84,    59, // 3904
      -850,  -502,    20,    12,   -53,    77, -2924, -1759,   -185,   718,   354,  -796, -2003,  -284,  -901, -2032,      89,    41, -1075,  -193,    92, -3142,    57, -1467,   -604, -1051,  -153,    -3, -3191,  -131, -1248,    17, // 3936
    
    // Out channel 41
      -925,   127,    27, -1222,   -91,   133,    -7, -1055,   -509,    35,  -453,    83,   930,    34,  -232, -1917,    -134,   -32,   192,   -31,     7,   -33,    88, -1056,  -2298, -2605,   156, -1145,  -450, -1064,   -39,    68, // 3968
     -2063,    -9,   218,    26,   -25,    40,  -282,  -169,    -50,  -102,    50,  -749,   -42, -1700,   -17,    10,     -55,   380,   132,   151, -1122,   -59,  -103,    52,     97,   -25,    -3,     5,   241,    51,   -82,   -13, // 4000
      -523,    85,    41, -1121,    65,    47,    11,   443,     25, -2501,   -61,   279,   -45, -2057, -2157,  -945,     -59,    65,  -331, -1039,   -13,   274,    23,    28,    149,  -410,  -101,    12,   -48,    68,   562,   -73, // 4032
    
    // Out channel 42
        50,    27,  -312, -1031,    78,  -555,   -42,  -372,   -590,   -17,  -205,    92,  -335,     0,  -110,  -230,    -640,  -551,   -15, -1724,  -111,  -506,   -33, -2231,     26,   -32,   142,  -415,   243,   -20,   -38,   -59, // 4064
     -1233,    -7,    38,   -67,   -58,    71,    52,  -137,    -32,  -248,   -33,  -112,   -18,  -143,   318,   -61,     -34,  -396,   636,   166, -2187,   -41,    26, -1595,    -47,   -32,   -68,    -7,  -112,   -37,   -49,  -552, // 4096
      -325,   -27,   -76, -1190,   -67,   115,  -208,  -153,   -693,  -722,  -581,  -639,   149,  -602,  -967, -1513,    -851,   -87,   -75,  -105,   -76,  -237,    11,  -169,   -590,    93,  -457,    58,    14,   -44,  -290,     6, // 4128
    
    // Out channel 43
     -1050, -2200,    68,  -346,   -11,   349,   -87,  -174,   -624,   219,  -748,    -7,   369,   157,   -32,  -476,     327,  -282,   151,   172,    65,     2,    53,  -394,  -1867, -2344,    21, -1851,   -45,  -343,   -80,    21, // 4160
      -350,    15,   223,    63,  -107,    86,  -255,  -720,     41,    -6,    24,  -926,    42, -1491,   100,   -40,     -84,  -124,    22,   147,   339,  -124,    34,   359,     44,     6,    20,    70,   188,    86,   -25,   124, // 4192
     -1503,  -176,    98,    91,   -37,    28,   212,    77,  -1034, -2616,  -275,  -375,    77,  -924, -2218,  -514,     454,   126,  -148, -1428, -1339,   298,   -16,  -395,   1232,  -428,    94,    -7,  -169,    15,  -402,    79, // 4224
    
    // Out channel 44
      -678,   187,   114,  -661,    41,   -11,     8,  -888,   -454,   108,  -334,    36,   -40,    63, -1042,  -377,     650,  -122,    63,    64,   -82,     0,    -9,  -663,  -1861, -2342,   102,    -1,    29,  -247,   -97,   -96, // 4256
      -762,    21,   200,    53,    16,    59,  -217,  -260,      2, -1283,    22,  -449,   -70, -1059,    -3,     8,      32,   289,    50,    51, -1113,   -51,    75,  -828,     46,     4,   -31,    83,   124,   -50,   -74,   -62, // 4288
      -558,    91,   -10, -1128,   -13,   103,   -23,    81,    319, -1846,  -735,  -198,   108,  -981, -1515, -1030,      40,    23,   -84,  -697,  -146,   181,    81,  -268,  -1219,  -259,    80,    60,   -93,    66,  -523,    22, // 4320
    
    // Out channel 45
       -21,  1358,   273, -1107,    32,   159,   -58,   -43,     -6,   -25,   -28,     2,   -56,     7,    49,  -330,     449, -2457,    -4,   -59,    23,  -906,     6, -1833,     98,   103,    79,  -512,    25,    47,    -3,   -82, // 4352
       247,   -13,   -82,    83,   -82,   -15,   153,  -817,     24,    11,   -22,   -26,   -75,    74,  -212,    19,      28,    -3,  -182,   236,  -747,    -6,   -85,    73,     62,    98,    47,     2,   193,    -6,   -82,   -90, // 4384
       -63,   -38,    71,  -848,    56,    79,   -34,   -82,   -392,    61,   290,   431,   155,  -473,     6, -1967,     -39,   -75,    -9,     7,   -87,  -703,   -15,   -11,  -1933,   344,   415,    16,   -37,    11,   600,   -11, // 4416
    
    // Out channel 46
     -1770,   -69, -1369,   -78,    -4,   106,   -21,  -825,  -3148,    17, -2686,   -67,  -156,    67,  -118, -1175,     -36,     8,   -99,   -13,  -108,    -8,   -27,  -386,   -905,   184,  -823,   936,   402,  -317, -1383,    -2, // 4448
        77,     9,  -366,    59,   -98,   414,   -50,    41,    -22,    -4,    80,  -294,    36,  -268,    42,   -26,      41,  -169,   149,  -151,  -436,   -45,    -5,   -65,     43,    76,     0,    -1,  -223,    47,    79,    83, // 4480
     -2803,  -656,   -91,   -53,    56,   110, -3447, -1523,   -159,  -670,   269, -1014, -1896,  -182, -1894, -1702,     146,    20,  -396,  -227,   -14, -2548,   -60,  -271,    -59, -2323,   -78,    51, -3539,   -65, -1984,   -17, // 4512
    
    // Out channel 47
       -85,   827,     2, -1853,    57,    32,   -83, -1844,   -801,   -24,  -254,    65,  1210,   169,  -411,  -342,     257, -1535,    54,   -16,   -60,  -802,   -45, -1785,     25,   -67,   -34,  1492,   538,  -169,    55,    24, // 4544
     -1494,   -59,  -214,   -98,   -70,  -233,   -34,  -492,     59,  -513,    56,   -14,   -67,   -49,  -733,    62,      69,    -2,  -580,    57, -1218,    -1,    22,   -80,    115,     5,    -2,   -59,   -15,    10,   -27,  -139, // 4576
      -341,  -331,    18,  -891,   -79,  -527,  -178,  -271,   -874,  -643,   315,   -37,   -34, -2802, -2054, -1884,     136,    55, -2286,   -96,  -524,     9,    54, -1777,   1276,   -38,   248,    -3,    30,  -206,   155,   -44, // 4608
    
    // Out channel 48
         2,  -499,   312,  -172,   -52, -1714,   -12,   -53,  -1350,   -13,  -328,   -16, -1701,    -1,  -194,   232,    -958,  -427,    89,  -357,  -310, -1008,    78,   -40,    -79,    36,   -85,  -120,   414,  -128,     9,    50, // 4640
     -1517,  -191,  -712,    53,    73,   -84,    62,   -48,     75,  -249,  -140,   -66,   -29,   -18,  -783,    52,     -96,   113, -2164,    24,   137,   -80,  -354,  -799,    256,    24,     2,   -88,  -817,    74,    59, -3088, // 4672
       288,  -426,    34, -1569,    88, -2058,    91, -1061,    -88,   267,  2189,  -409,   372,    36, -1227,    13,    -931, -1463,    44,  -157,  -354, -1076,    61,  -239,  -1227,    63, -1273,   -67,    47,  -254, -1569,    81, // 4704
    
    // Out channel 49
     -1939,  -314,   -67,  -179,    80,   208,    26,  -775,   -475,    92,  -302,    14,  -461,   118,  -666,  -913,    -409,  -178,  -151,   -95, -1207,   -17, -1717,   215,   -150,   -24,  -743,  -164,  -135, -1058, -1489,    19, // 4736
       194, -1481,  -183,    71,    10,   140,   -46,   -60,     95,   587,   -75,   -53,   -88,  2115,  -329,   -55,      17,  -451,  -259,  -194,  -371,   -36, -1186,  -275,    264,    26,   -60,   -78,   -86,    39,   -18,   207, // 4768
       137,  -827,    58,  -246,   -75,    72,  -484, -2321,   -202,  1199,  -277,  -246, -1932,    13,  -105,  -568,    -693, -1074,   229,    27,   -41, -1454,   -70, -1067,   -133, -1731,  -979,   -13,  -446, -1607,  -186,    28, // 4800
    
    // Out channel 50
        21, -1172,   131,  -377,    47,  -238,   -53,     7,   -533,  -116,  -243,   -93,  -451,   -31,   -17,   -28,    -300,  -955,   142,   -41,  -177,  -312,  -154,  -375,    -14,   140,   -47,   127,   146,    -6,   -22,   -19, // 4832
      -129,   -19,  -130,   -40,    80,    22,    50,  -363,    -71,     8,    12,   -93,   -99,   -75,   179,  -107,      39,    13,    95,  -157,  -378,   -56,   -81,    22,     25,    82,   -48,    -1, -1801,   -57,    80,   -56, // 4864
      -152,  -258,    69,  -350,    65,  -322, -1454, -2279,   -780,   -53,   265, -1152,   367,  -218, -1424,     4,   -1175,  -546,   -57,  -105,  -310, -1159,    29,  -436,  -1394,    24, -1456,    -1,    76,  -417, -1128,    36, // 4896
    
    // Out channel 51
       -15,  -371,  -845,    -3,   -79, -2186,   -51,    16,   -963,  -193, -1099,    38, -1056,  -137,    49,   195,    -662,    12,  -173, -3836,  3927,  -137,  -387,    43,   -670, -1281,  -110, -1083,   141,   104, -1601,   -87, // 4928
       -49,  -341,  -503,     9,    76,  -952,  -115,    60,    -49,    25,  -370, -1141,   -73, -1170,  -452,     6,     -46,    21,    77,    38,    -9,   103,  3970, -1756,   -219,   -86,   -74,    13,  -171,   100,     8, -1437, // 4960
       186,  -590,    85, -1339,    14, -1846,   -60,  -723,   -202,  -472, -1492,  -649,  -291,    65,  -271,    20,    -344,  -784,    31, -1376,  -895,  -645,     3,  -599,   -431,   -23,    29,    69, -1465,  -591, -1045,     6, // 4992
    
    // Out channel 52
       242,   425,   171,  -112,   -41,   649,   -97,   148,   -823,   189, -1245,    55,  -671,   203,    27,   -55,    -340,   -49,  -834,   -66,    51,   -13,    21,  -131,   -216,  -404,  -604,    89,   -92,   -59,  -261,   -63, // 5024
      -119,   748,  -686,    83,    89,   -34,    35,   -53,     -9,    27,     4, -1030,    42, -1281,    10,   -10,      70,   -11,    12,   -36,   129,    58,   -94,  1189,     26,   -20,    85,     3,  -447,    35,    13,    37, // 5056
      -446,   -99,    13,    63,   -58,     7,   -68,   456,    148,  -649,  -216,  -133,    45,  -154, -1975,   169,      -6,     1,   -42, -1348,   158,    23,   -20,  -135,     35,   372,   144,    12,  -138,   -51,   679,   -38, // 5088
    
    // Out channel 53
        47, -2519, -4447,  -502,    55, -2201,   -94, -1583,   -177,   -57,   -10,    62,    81,  -207,  -688,    87,    -119,   -93,    12, -2017,  -100,  -345,   -19,  -426,    -97,   113,  -658,     0, -1280,  -425,    54,    -1, // 5120
      -268,    21,   -33,    12,    77,    42,   158,    48,    -67,  -923,   -44,   -15,    97,    69, -1190,    21,     -46, -6070, -1702,   101,  -302,    78,   -21,   -46,   -298,    44,   -26,    73, -2682,   -24,   -45, -1237, // 5152
      -717,  -554,    87,  -470,   -89, -1706,   -16,    -7,    -74,  -230,  -172,   468,  -413,   -16,   -64, -1521,    -496, -2273,  -797,    -4,  -108,  -168,   -51,    23,    -53,  -244, -2241,   -14,    51,    16,  -562,   -65, // 5184
    
    // Out channel 54
      -836,   513,    31, -1928,    52,   124,   -12,  -404,     20,     3,  -116,    -7,   478,    10,   -87,  -201,    -245,  -829,   -30,    29,  -136,  -389,   100,  -429,    363,   112,   167,   595,     4,    -3,   -56,    65, // 5216
        36,    -1,    32,    -4,   -45,   -42,   217, -1333,    -94,    38,    70,   -26,    21,   -17,     2,     6,     -74,    79,    25,   240,  -272,  -101,   -64,  -141,    101,   -67,    -5,    69,    24,   -41,    47,   -20, // 5248
       252,   108,    92,  -811,    98,   231,   -97,  -106,      5,  -270,  -170,  -153,   252,  -223,    22, -1881,     -60,   -15,  -976,    34,   269,   429,    23,     9,    957,   120,   337,   -42,   -50,    23,   192,    25, // 5280
    
    // Out channel 55
       -42,  -394,  -179,   -65,    90,  -652,   -33,     3,  -1006,  -727,  -431,   -88, -1109,  -821,    10,   -56,    -542,  -899,  -947, -1797,   277,  -882,  -921,   156,  -3113, -2469,  -406,  -789,  -256,   -62, -1034,    90, // 5312
        58,  -751,  -806,   -10,   -31, -2506,    26,   -34,     13,    -2,  -991, -2875,   -54, -2985,  -530,    80,      69,    63,   256,   -37,    74,    33,   564, -1193,   -667,    34,    -9,    -8,  -160,   -92,    68,  -559, // 5344
        87,  -628,    60, -1161,    46, -1118,  -191,  -988,   -839,  -155, -1733,  -413,  -123,   -71,  -365,   -85,    -232,  -634,   -65, -2730,  -939,  -788,    92, -1113,   -520,    37,   176,    -9, -1632, -1559,  -706,     7, // 5376
    
    // Out channel 56
       140,  -269,    34,   -65,    -6, -1733,    87,   -35,  -3429,  -227,   379,   -54,  -987,  -312,     9,    30,    -457,  -113,   -77, -1585,  2897,  -431, -1327,    46,  -1581, -1697,  -672,   -86,    16,   -42, -1809,   -66, // 5408
        27, -5737,  -818,   -46,    77,  -901,    24,    74,    -26,   -52, -3363,  -633,   -75, -1634,  -409,   -41,      12,   105,     6,   -85,    33,    39,  3204, -1755,  -2201,   -16,    26,    46,   -62,   -80,    65,  -694, // 5440
       384,  -733,    76, -1746,   -62, -1833,  -122,  -745,   -135,  -271,  -789, -1553,   -62,    93,  -354,   -32,       6, -1258,    63, -2346, -1285,  -847,    56,  -570,   -685,    44,  -960,    53, -1713, -1996, -1281,   -31, // 5472
    
    // Out channel 57
       120,  -267,   193,   -38,    58,  -734,    58,    47,   -604,   121,    53,    60,  -173,  -157,   -77,   286,     -69,  -402,    80,   254,   -46,  -691,  -729,    80,   -161,  -126,   -67, -1593,   183,    33,  -108,    69, // 5504
       -61,  -722, -1048,   -39,   -50,  -197,  -168,   -29,    -15,  -133,  -399,   -70,    34,  -217,  -234,    46,     -15,   158,  -905,   -36, -1070,    45,   -84,  -964,     13,  -105,    90,    55,  -186,    29,   -66, -1469, // 5536
       300,  -110,   -38, -1030,   -95,  -614,   -83,  -424,    -64,   143,  -601, -1126,  -107,    76,  -225,  -733,     -93,  -530,   -26,  -206,  -429,  -578,    36,  -288,   -136,   189,  -428,   -34,   -88,  -515, -1265,    82, // 5568
    
    // Out channel 58
        33, -1305,    85, -2915,   -30,  -529,    14,  -676,   -243, -1151,  -564,    13,  -743,  -991,    31,    68,   -1440, -1295,  -497,   -37,    35, -1220,   -25, -2144,    235, -1680,   293,    28,  -282,    96,  -141,     1, // 5600
       -44,    67, -1044,     1,   -69,   116,   444,  -338,    103,    19,   -51,   -23,    14,     1,   129,    20,      89,   127,    81,   192, -1681,    80,   -42,    -3,    -48,    76,    29,    84, -1931,    13,    86,    31, // 5632
     -2522,  -259,   -26, -1231,   -21,    25, -2709,  -843,  -1840, -5801,    63, -3163,   -42, -1600,  -421, -2975,    -371,   -33,  -266,   -15, -2202, -1184,   -38, -3639,  -1667,   -69, -2819,   -27,   -71,  -767, -1201,    12, // 5664
    
    // Out channel 59
        49, -1005,    80,  -454,     4,    31,     1,  -129,  -2478, -1522, -2518,    40, -2337,  -919,   -17,   -66,   -2754,  -230,    -9,   147,    34,   -40,   -17, -1279,    -23, -2096,   418,    67,    44,    35, -2122,    88, // 5696
      -167,    91,     4,    50,   -47,  -390,  -141,  -282,   -118,   -12,    20,   -63,    73,    -9,   102,    72,      99,     8,   270,  -140,  -106,    61,   -94,    84,     69,    78,    79,   -59, -2110,    68,   -81,    -6, // 5728
     -1275, -1385,    79,   -46,   -55,   -29, -1734,  -687,   -170, -2085,  -273, -4965,  -134, -3119, -2975,  -219,     395,   -74,  -689,    -8,  -725,  -542,    69, -1443,   -140,   -51, -3351,   -86, -2845,  -800,  -572,   -35, // 5760
    
    // Out channel 60
      -898,   605,    42,  -512,    80,  -479,    65,   252,  -2830,    91,  -683,   -52,  -374,    79,  -614,     2,     109,  -339,   -42, -1283,  -336,  -364,   -42,  -232,   1977,    50,  -332,  -154,   111, -2155,  -451,    63, // 5792
     -1164,   -46,   109,    93,    88,   -36,    84,  -158,    -37,  -569,    83,  -137,    84,   -17,  -450,    23,     -44,  -104,  -435,  -133,  -188,     1,  -461,   -72,    247,  -101,   -54,   -82,   818,   -55,   -22,    42, // 5824
       944, -3370,   -52,  -283,   -13,    24, -2170,   -89,   -176,   360,  -102, -1087, -2210,   864, -2408,  -962,    -230,  -178, -1064,   -58,   206,  -159,    24,    65,  -1499, -1085,  -396,    92,  -402,    54,   292,    25, // 5856
    
    // Out channel 61
        10, -3142,   376,     8,   -79,    97,    68,    31,    453,  -192,  -180,   -72,  -550,  -192, -1570, -1508,    -359,    54,  -327,  -564, -2721,    59, -1814,   -51,     46,     7,   -64,  -324,    70, -1644, -1601,    35, // 5888
       208, -2949,   -56,    -6,   -11,    94,   -65,    45,     81,  -860,  -207,    27,    20,    32, -1404,    -4,     -40,  -514,  -697,  -161,    34,    51, -2413, -1038,    -32,    52,    -4,   -36,  -145,    71,   -73,   211, // 5920
      -948,  -847,    35,    34,    52,   -33, -1748, -2827,     49, -1179,  -835,  -710,   -29,    17,   103,    78,   -1386, -2482,   -85,    36,    93, -2741,    27,  -111,   -152,    12,  -604,   -70,  -438, -1137,   152,   -87, // 5952
    
    // Out channel 62
     -2186,   537,  -118,    85,   -21,  -275,   -97,  -806,    189,  -938,   -58,   109,  -616, -1111, -1755,  -464,    -433,   -23,  -453, -1427,  -369,    55, -1037,   100,   -164,  -194, -2972,   -95,  -933, -1533, -1296,    69, // 5984
       579,  -468,   105,   -29,   -73,  -112,   -88,    26,     19,  -809, -1035,    53,    92,   -32,  -142,   -16,     -93, -2318, -1622,  -222,    11,    43,  -366,  -702,   -575,   -56,    40,   -69,   -78,   -43,    13,  -703, // 6016
     -1811,   830,    69,    -3,    20,    27,  -688, -1014,     38, -1788,  -149, -1550, -4144,    -4,   240,  -589,     169,  -137,   268,    11,   -14,  -657,   -81,    66,  -2526, -3307, -1513,   -17, -1338,  -964,   -76,    78, // 6048
    
    // Out channel 63
      -442,  -738,    -1,  -701,   105, -1046,    74,  -668,    -30,   -10,   -66,    70,   588,    43,    43,  -474,   -1196,  -256,   -19,     7,   -44,  -836,   -53,  -707,  -5470,   307,    78,   130,  -692,    44,    64,   -48, // 6080
       111,    -2,  -339,    13,   -68,  -156,   -40,  -764,    -43,    74,     6,  -166,    45, -1221, -1163,   -34,     -32,   -14,  -470,   180,   -59,   -32,  -166,   225,     -6,    19,    32,    79,   229,    71,    23,  -226, // 6112
       121,  -104,    14,  -415,    34,  -558, -1183,    83,  -1377,   474, -1581,   706,   259, -1069,    -6,  -256,    -988,   151,  -176,  -827,   501,  -554,   -21,    46,   -728, -1448,   499,    42,    51,    -7, -1789,   -90, // 6144
    
    
};

const int16_t cg_FC2bias[64] = { // Co,H,W,Ci: (64,)
      -688, -3025,  1349,  1429, -1225,  -589, -1058,  3180,    131,   503, -1286,   166,  1501,   521, -1023,  -610,    1959,   573, -5365,  -719,  1224,   585,   460, -5472,  -1129,   785,   -52,   729,   688,  -598,   587,  2299, // 32
     -4923,  1084, -1148, -4633,  1020,  1814,  -663, -3100,   1182,  -834,  1422, -1025,  -495,  -236,  1452,   932,     621, -2874,  1389,   327, -6660,  1586, -1532,  1221,    868,   601,  1840,  1475, -2684,  -340,  1243,  -969, // 64
    
};

const int16_t cg_FC3weit[2048] = { // Co,H,W,Ci: (32, 64)
    // Out channel 0
        -5,  -653,   -31,  -325, -2895,    60,  -644,  -166,    193, -2291,   -64,   275,  -414,  -394, -3374, -2076,     -28,  -335,    44,   112,  -297, -1502,  -934,  -584,     71,  -331,  -134,   224,  -662, -1263, -2607,  -185, // 32
      -985,    52,    36, -1091, -1766, -1420,   -61, -1779,    -18, -1961, -1608,  -655, -2133, -1415,   -87, -1909,   -1978,  -297, -2280, -2754, -2526,  -231, -2124, -2056,  -1767, -1047, -1679,  -473,     6,     1,   103,  -766, // 64
    
    // Out channel 1
       -14,  -591,   -27,  -303, -2051, -3178,  -715,   -46,  -1169,  -121,  -238, -3764,  -342,  -797, -2371,  -665,      50,   -83,   114, -3206,  -180,  -394,   -96,  -438,  -1278, -1132,  -139, -1018,  -469,    10,  -367,  -112, // 96
     -1535,   180, -1934,  -839,  -298,  -974, -4471,  -608,    -73,  -229, -1296,  -859,  -714, -1754,   -84, -1409,   -1621, -1179, -1862,  -204, -1115,  -183, -1763,  -431,   -253,  -141, -1115,  -435,    49, -4115,  -634,  -454, // 128
    
    // Out channel 2
       -57,  -226, -1643, -1915,  -550, -2650,  -269,  -331,  -1943, -2356,  -421, -1281,    21,   -26, -1889,  -340,   -2786,   -92,    93, -1737, -1399,   -99,     6,  -457,   -488,  -321,  -683,  -394,  -464,  -601,  -557, -1077, // 160
      -334, -1845,  -482,  -522,  -397,  -268, -2005,  -468,   -339,   -14, -1253,  -451,  -319, -1547,  -398, -1195,      99,  -966,    -2,  -422,    44, -1183, -2297,  -288,   -340,   197,  -485,  -190,  -224, -1767, -1612,  -187, // 192
    
    // Out channel 3
       -25,  -544,    -9,  -642, -3424,   321,  -338,  -143,    462, -2299,   214,   490,  -161,  1041, -2528, -1102,     232,  -867,   351,   222,   143, -1352,  -883,    50,   -914,  -461,   106,  1260,  -190,  -835, -1616,   131, // 224
      -288,   140, -1133,  -402, -1528,  -373,   345,  -124,     -8,  -308,  -197,  -775,  -229,  -817,   496,  -808,    -370,   790,  -330, -1687,   -43,  -193,  -803,  -436,  -1883,  -328,  -389,   286,   787,   375,   383,   -58, // 256
    
    // Out channel 4
        -6,  -356,  -268,  -247, -1676, -1108,  -354,  -528,   -297,   332,  -525,  -851,    67,   838, -1008,  -151,    -216,   -73,  -469,  -832,  -228,   587,  -940,   295,   -548,    55,  -726,   692,   313,   -67,   579,  -217, // 288
       331,  -637,  -667, -1270,   455,   -71, -1209,  -547,   -811,  -206,  -346,  -342,  -166,    -9,  -458,  -799,      37,  -365,   -55,   537,  -221,  -338,  -818,   509,    468,   249,  -150,  -159,  -278, -1005,  -189,  -292, // 320
    
    // Out channel 5
         6,  -254, -1443,  -405,  -390, -2532,  -416,  -267,  -1085,   -11,  -596, -1787,  -602,  -145,  -555,  -864,   -1291,    30,  -250, -1707,  -964,    -9,  -284,  -806,   -648,   -74,  -901,   -45,    68,  -750,     5, -1362, // 352
      -780, -2612,  -919,  -335, -4238,  -705, -2624,  -333,   -516,  -744, -2106,    32,  -110, -4226, -1184, -1795,      67, -1064,   150,   -11,   384,   -15, -2657,   143,     67,     3, -2275,  -203,  -133, -2179,  -511,  -280, // 384
    
    // Out channel 6
         3,  -772, -1261, -1870, -1801, -4010,  -738, -1166,   -810,  -148, -1050, -2085, -1632,  -177, -1753,  -245,   -1295,  -788,  -441, -1415, -1248,  -124,  -468,  -256,    -75,   -59,     3,  -199,  -107,   -17,  -316, -1625, // 416
      -263,  -929,   -39,  -103,  -297, -2794, -4194,   -95,   -920,  -314,  -117,   -55,  -339,   -73, -2232,  -142,    -276, -1664,  -556,  -229,  -193, -1112,  -174,  -306,   -289,   -13, -1983, -1860,   -69, -3273,  -610,  -626, // 448
    
    // Out channel 7
       -12,  -695,  -128,  -998, -1468,  -433,  -441, -1267,     61, -1064,   -26,  -300,  -638,    83, -1591,   -14,     -13,    59,  -299, -1162,  -880,  -898,  -770,  -776,    130,    -5,   180,  -401,  -249,   -64, -1027,  -478, // 480
      -942,  -300,    23,  -941,  -975, -1376,  -547,  -473,  -2048, -1300, -1292,    80, -1218, -1303, -1583, -1145,   -1222,  -156, -1638,  -870,    24,  -865, -1232,  -596,   -923,  -646,  -704,   -76,   -66,  -504,   -12,  -269, // 512
    
    // Out channel 8
       100,  -830,  -195, -1412, -1510, -1354,  -319, -2391,   -296, -1138,  -424,  -891, -1094,  -562, -1658,   237,    -372,    73, -1085,  -741, -1322, -1256, -1751,   437,    106, -1092,    16, -1933,  -377,   -56, -1164, -1125, // 544
       271,  -214,   -30,   129,  -822, -2161, -1973,   146,  -3791,   370,   216,    89,   424,    73, -2022,   197,   -1356,  -493, -1811, -1086,   153, -1311,   226,  -987,   -851,  -429, -1644,   -53,  -388, -1290,  -198,  -810, // 576
    
    // Out channel 9
        56, -1801,  -241,  -328,  -576, -1433, -1423,     6,    -69, -2059,   446, -1660,  -354,   841, -1240,  -211,    -172,  -593, -1214, -1062,  -385, -1190,  -719, -1219,   -152,  -896,    59,  1088,  -431, -1177, -1994,  -875, // 608
     -1831,  -203,   -63, -1305, -1206, -1250, -1540,  -879,    148,  -763,   -20,  -536,  -307, -2509,   161,  -171,    -727,  -503,  -828, -2032,  -212,  -485,  -794, -1535,  -1586,  -853, -1338, -1110,  -185, -1428,  -158, -1117, // 640
    
    // Out channel 10
        51,  -737,  -187,  -701, -1214,  -686,  -284,  -130,   -617, -4271,  -958,  -426,  -188,   200, -1408, -2182,    -227, -1321, -1003,  -473,  -508,  -597,  -967,   410,  -1955,  -524, -2295,   217,  -345,   -96, -2442,  -354, // 672
       238, -1153, -2191,   110, -2666,  -370,  -747, -2032,   -258, -1235,   -32, -1688, -2457,    31,  -274,   -14,    -115,  -503,  -322, -3662,  -334,  -788,   200, -3371,  -3009,   -79, -1615,  -195,  -253,  -827,  -192,  -747, // 704
    
    // Out channel 11
       -77,   454,  -100,     9,    -4,  -348,   531,  -807,   -355,  -435,  -168,  -260,  -586,  -141,   -10,  -839,    -122,  -289,   419,  -287,     2,  -520,   -27,   724,  -2675,  -431, -2117,  -119,   -34,   632,  -568,  -489, // 736
       482,  -379, -2305,   494,  -553,  -789,  -358, -1416,   -379,   -37,  -913, -1936, -1298,   405,  -469,  -308,    -187,  -419, -1352,  -508,  -983,    38,   346,  -293,   -388,   -51,   149,  -837,   331,  -341,  -470,   564, // 768
    
    // Out channel 12
       -59,  -416,  -258,    -8,  -343,  -795,  -107,  -304,   -368,    20,  -269,  -725,   373,  -299,  -420,  -382,    -177,   189,  -350,  -510,  -432,   184,   939,  -343,   -965,   -68,   -66,  -379,   -41,   305,    67,  -130, // 800
      -128,  -264, -1168,  -118,     7, -1210,  -486,  -799,   -232,  -250,  -142,  -287,    33,   146,   324,  -292,     -63,  -430,  -349,   123,  -859,  -181,  -224,  -300,     38,   -49,  -862,  -366,  -444,  -974,  -243,  -332, // 832
    
    // Out channel 13
        59,    18,   -59,  -147,    17,   -77,   -55,  -207,   -114,  -179,   -76,    29,   -90,    32,   -81,   213,     -95,   388,    30,  -126,  -124,   -48,    32,  -286,    -44,  -104,  -130,    25,  -225,   -16,    10,   -76, // 864
       -73,  -106,    17,  -110,  -133,   -69,  -105,   271,   -187,  -324,   -47,    10,   -17,  -226,   211,   -97,      34,    86,   -83,    59,    39,  -106,   370,   -25,     75,    62,  -396,   -30,   -92,   -59,    12,   -90, // 896
    
    // Out channel 14
        13, -1290,  -758, -3350, -2640, -4329, -1402,    17,  -2608,  -224,  -885, -2321,    24,  -452, -2624,  -456,   -4865,   212,  -925, -3008, -4922,  -302,  1253,  -946,  -1595,  -721,  -395,  -546,  -275,   -87,  -177,  -819, // 928
      -413,  -780, -1772,  -428,  -151,   -56, -3718, -1877,    -61,  -228,   -25,  -558, -1181,  -482,    10, -1013,     -85, -1501,   -15,  -134, -1261, -4160,  -277,  -169,   -234,   -59,   -85,  -123,  -848, -3642, -3670,  -967, // 960
    
    // Out channel 15
        83, -1181,  -223,   -48, -2890,  -919,  -119,    -3,   -109,  -109,   -43,  -615,   -83,  -256, -3580,   352,    -217,   168, -1466,  -564,  -112,  -461,  -108,   141,     10,   964,    -6,    89,   135,   346,   119,  -559, // 992
       546,    -5,     5,   241,   122,     8,  -977,    21,    -14,    34,    -1,     5,    -4,   381,     1,   -39,      50,  -540,    32,  -130,    52,  -142,    62,    -2,    -49,  -157,     3,   -12,  -317, -1116,    38, -1065, // 1024
    
    // Out channel 16
       -86,  -762,  -207, -2738, -3189,  -112,  -727, -2707,   -201, -1088,  -134,  -198, -2508,  -798, -2779, -1483,    -339,  -314,  -630,   -46, -2167,  -169,  -871,  -247,   -196,  -120,  -186,  -162,  -106,  -108, -1749, -1021, // 1056
      -350,  -129,  -150,  -127, -1230, -2809,  -113, -1232,  -1401, -2132, -1114, -1038, -2697,  -283, -1708,  -120,   -1385,  -203, -1063, -1306,  -346, -2048,  -160,  -933,   -977,  -402, -1325, -1277,  -209,  -149,  -244,  -736, // 1088
    
    // Out channel 17
       -15,    61,  -211,  -462,  -484,   308,   342,   107,    547,  -548,   270,   302,   -89,   260, -1180,  -564,   -1034,  -216,   514,   127,  -442,  -463,  -227,   873,   -331,  -374,  -565,   367,   -60,  1192,  -302,  -636, // 1120
       715,   159,  -154,  -252,  -447,  -188,   362,  -256,   -202,  -485,  -564,  -553,  -180,   304,  -535,  -850,     -19,   684,  -171,  -311,  -106,  -702, -1128,  -231,   -383,   211,   286,  -321,   308,   298,   173,   453, // 1152
    
    // Out channel 18
        60,   487,     2,    11,     1,   167,   627,    18,    193, -1287,   372,    48,     1,   680,    -8,  -665,      17,  -125,   551,    71,    -8,  -498,  -277,   688,  -1908, -1392,  -235,   649,  -157,   -24, -3227,  -346, // 1184
       -91,    11, -2528,   -15, -2796,   -53,   364, -2843,    -33,  -779,    -9, -1700,  -840,    38,     0,   -30,     -23,   901,     8, -3317, -2200,    -6,  -466, -1850,  -1759,  -179,   -66,   -66,   610,   340,    68,   844, // 1216
    
    // Out channel 19
        54, -1060, -1568, -3336,     6,  -589, -1236,  -714,   -776, -1715,  -176,  -499,  -315,  -133,     5,  -514,   -1811, -1248,  -920,  -261, -3488, -2019,  -544, -1560,  -1350,  -442, -2580,  -416,  -368, -1445, -1257,  -777, // 1248
     -1038, -2206, -2013, -1097, -1270,  -672,  -879,  -660,  -1200,    54,  -208,  -451,  -631,  -932, -1095,   661,    -748,  -397, -1751, -1386,   176, -3103,  -775, -1049,  -1759,  -473,  -257, -1981,  -749,  -500,  -465, -1294, // 1280
    
    // Out channel 20
         3,  -412,  -326,  -970, -1094, -2611,  -520,   -48,  -2185,  -852,  -749, -1572,  -781,   -38, -1562,  -487,    -804,     1,  -798, -2552,  -616,  -607,   -69, -1109,   -901,  -679,  -778,  -822,    25,   -73,  -484,  -248, // 1312
      -270,  -713,  -973,  -906,  -400,  -262, -2500,  -283,   -135,    28,  -898,  -511,  -553, -1795,  -152,  -451,    -304, -1214,  -287,  -400,  -143,  -614,  -963,  -172,   -192,  -104,  -330,    36,  -165, -2324, -1748,  -646, // 1344
    
    // Out channel 21
         3,   -64,  -944, -2813,  -113,   -98,    90,   202,  -1054,  -659,  -258,  -170,  -501,   164,  -189,  -110,    -772,  -405,  -176,  -903, -2860,     2,  -514,  -358,     15,   164,   -10,   -55,   809,  -170,  -688, -2030, // 1376
      -428, -1119,    80,  -152,  -911, -1977,  -676,    -7,    146,   -56,   141,    68,    14,  -266,   139,   -45,    -144,  -323,  -637, -1043,    -7, -1935,   -20,  -600,  -1547,  -241, -2070, -1747,   -38,    85, -1284,  -154, // 1408
    
    // Out channel 22
       -86,  -273,   494,  -622,  -350,  -792,  -284,  -121,    217,    37,  -649,  -560,  -243,   272,  -768,  -411,    -539,  -303,  -269,  -123,  -897,  -707,    87,  -184,  -1407,  -133,   229,   319,  -172,  -220,  -170,    -5, // 1440
      -402,   -55, -1265,  -279,  -606,  -371,  -384,  -381,    167,  -127,  -198,  -326,  -351,  -561,   196,   -97,     785,  -801,  -224,    32,  -286, -1396,  -507,  -155,  -1344,  -449,  -473,  -449,   407,  -863,   224,   -96, // 1472
    
    // Out channel 23
       -35, -2809,  -550, -1141, -2523, -2713,  -838, -3922,   -541,   240,  -605, -1916,   689,   730,  -959,   516,    -282,   157, -3347, -2158,  -465,   492,  -564,   904,    172,   679,    22,   770,   410,   -10,   732, -1606, // 1504
       678,    85,   -39,   296,   605,    10, -3026,   262,  -2582,   679,   361,   163,   793,   237, -3646,   373,      49, -1197,  -115,   465,   278, -1477,   425,   734,    483,   152,  -277,  -246,  -988, -2623,  -557, -2356, // 1536
    
    // Out channel 24
       -62,   444, -1524,    -3,     8,  -725,   526, -1076,   -402, -1795,  -733,  -409, -1660,  -283,     3,  -864,    -963,   -87,   357,  -354,    -4, -1842,  -477,   760,  -2849, -1033, -2844,    80, -1441,   904, -1386,  -629, // 1568
       691, -2303, -2482,   682, -1364,  -731,  -689, -3444,  -1268,   202, -1245, -2007, -1405,   541,  -745,  -357,   -2679, -1056, -1345, -1457,  -588,     7,   665, -1609,  -1888,  -772,   176,  -727,   218,  -545,  -808,   468, // 1600
    
    // Out channel 25
        -7,    23,  -603,     6,    43,   126,   107,  -216,   -271,  -217,  -349,    13,  -384,   485,    74,  -202,    -823,   -37,  -141,  -272,  -176,  -218,   -80,   -75,   -299,  -284,   -99,   185,   -33,   -78,  -296,    46, // 1632
       -39,  -231,  -294,  -220,  -230,   -82,  -153,  -274,   -277,  -182,   -93,  -352,  -112,  -388,  -256,  -125,     -72,     6,  -209,  -261,   -28,   248,     6,  -205,   -218,   -55,    71,  -356,  -385,  -101,  -255,  -167, // 1664
    
    // Out channel 26
        29,  -170,   114,    57, -2174,   -99, -1158,  -112,  -1666, -3270,   -24,  -218,   133,  1356, -2197,  -684,     -21,   148,    48,  -101,   -77, -2180,  -246,  -582,     85,  -329,    22,  -337, -2415, -1392, -2046,   -37, // 1696
     -1024,    82,    67, -1186, -2087, -1293,  -105,  -501,   -687, -1281,   -97,  -157, -1593,  -503,  -207,  -516,    -309,  -140,  -221, -2121,  -155,  -143,  -971, -2602,  -3007,  -788, -1773,  -660, -1026,  -114,   152, -1189, // 1728
    
    // Out channel 27
        19,  -887, -1178, -1630, -2016,   -90,  -101, -2662,   -227, -2291,  -100,  -217, -1612,  -280, -2353, -1462,   -2227,  -295, -1018,   -80, -1474, -1618,  -983,   169,  -1749, -1128, -1949,  -443,  -493,   225, -1676, -3040, // 1760
       262, -1431, -1140,   125, -1722, -2635,  -113, -2398,  -2578,  -887, -1028, -1186, -1463,   182, -1810,   277,   -1026,  -241, -2795, -1814,  -190, -1484,    67, -2244,  -2287,  -274,   -42, -1188,  -272,  -121,  -671,  -780, // 1792
    
    // Out channel 28
       -78,    31,     7,   -80,  -139,    50,   -82,   -48,    -41,   -47,   -35,   -98,    14,  -137,    57,   -52,     -59,   -11,   -71,    -8,    38,   -45,   -35,   -87,     -2,   111,   -46,  -117,   -73,    33,     1,    20, // 1824
      -117,   -40,   -51,  -128,  -109,  -121,   -81,   -79,   -135,   -40,   -64,    52,   107,   -77,    25,   -59,      72,   -44,   -91,   -66,    65,     0,   -68,   -89,    -43,   -74,  -122,  -123,   -66,   -23,    45,   -89, // 1856
    
    // Out channel 29
        36,    -4,  -484,    49,  -967,  -692,  -214,  -104,   -161,   292,    71,  -306,  -692,   803,  -306,   107,    -469,  -360,   -84,  -567,  -321,   337,  -682,  -642,   -154,   620,  -257,   925,   286,  -155,   316,    10, // 1888
       582,  -413,   -38,  -182,   335,   216,  -790,  -158,    -55,  -100,  -463,  -128,   112,   238,   134,  -464,    -297,  -285,  -149,   290,    57,   -83,  -503,   255,    360,   160,  -285,  -345,   199,  -630,   217,    50, // 1920
    
    // Out channel 30
      -101,  -746,  -356,  -973, -2478, -1308,  -459,   -85,    -72,    23,  -168,  -919,  -473,   174, -3025,  -247,    -640,  -169,  -716,  -846,  -853,  -201,   664,   142,      2,  -571,    20,   -58,  -176,  -360,  -231,  -739, // 1952
      -364, -2274,   -30,  -145,   -76, -1120, -1446,     1,    -77,    15,   -79,     2,    53,  -278,   -75,    35,    -365,  -832,  -664,  -287,   -11, -1223,    -8,    54,   -150,   -16, -1594,  -404,  -233, -1422,   -72,  -705, // 1984
    
    // Out channel 31
        -5,  -247, -1199, -2674, -1023,  -394,  -158, -1526,   -572,  -321,  -191,  -442,  -202, -1803, -1052,  -546,   -1163,  -265,  -483,  -247, -3354,   314, -1380,  -672,    -29, -1437,  -244,  -166,   543,   -90, -1225,  -361, // 2016
      -925,  -203,    21,  -270, -1148,  -204,  -495,  -272,  -2267,  -923,  -444,  -790, -1618,  -119, -1214,  -997,     169,  -480,  -151, -1300,    66, -2845,   -34, -1083,   -283,   107,  -319,  -254,  -586,  -536,  -851,  -856, // 2048
    
    
};

const int16_t cg_FC3bias[32] = { // Co,H,W,Ci: (32,)
      2512,  1800,   454, -4824,   756,   563,  1457,   553,   1724,   796,  1474, -1756,  -791, -4386,  2338,  2288,    2481, -5740,  2526,   792,   520,  -359, -1293, -3358,    512, -1635,  1169,  1814,  -786, -4017,  2383,  1037, // 32
    
};

const int16_t cg_FC4weit[32] = { // Co,H,W,Ci: (1, 32)
    // Out channel 0
     -1983,  1743,   953,   826,  2448,    440,  1847, -3098,  2667, -1226,   -2104,  6747, -1268, -2407,   957,   1089, -1595,   757, -1846, -2890, // 20
      3281,   601,   689, -1539, -4900,   3354,  -497, -2350,  1217,  -957,    1060, -1071,
    
};

const int16_t cg_FC4bias[1] = { // Co,H,W,Ci: (1,)
      4488,
};

