#include <stdint.h>
const int16_t cg_FC1weit[672] = { // Co,H,W,Ci: (96, 7)
    // Out channel 0
      1350, -1239,   362,   426,  -534,  -478,   807,
    // Out channel 1
      -993,   256,  -806,  -304,  -577,  -406,  -272,
    // Out channel 2
       734,  -969,   993, -1348,  1849,  -221, -1236,
    // Out channel 3
       117,  1397, -1700,  1099,  -471, -1309,  -658,
    // Out channel 4
        39,  1538,   460,  -991,  -524, -1685,   348,
    // Out channel 5
      1673, -1644,  1240,  -509,  1661,   130,  -190,
    // Out channel 6
      1060,   -19, -1039,   845,  -176, -1092,  -633,
    // Out channel 7
         7,  -864,   673,  -239,  1209,  1118,  -741,
    // Out channel 8
      1986, -1131,  1750,   -82,  1346,     1,  -101,
    // Out channel 9
       171,   160,  3619,  -680,   399,  2329,   390,
    // Out channel 10
       206,  2554,  1550, -1448,   250,  3261,   376,
    // Out channel 11
      -829,  -338,  -419,  -736,  -618,  -259,    66,
    // Out channel 12
      1061, -1141,  -988,   447,  -981,  -995,  -402,
    // Out channel 13
       338,   411,  -892,   916,  -458,   887,   415,
    // Out channel 14
       578,   457,   622,    37,   344,  -549,    51,
    // Out channel 15
         2,    23,    60,    62,   565,   899,   145,
    // Out channel 16
       705,  2586,  3251,  -816,   319,   225,  1360,
    // Out channel 17
      2542, -1230,  2954,  1320,  -914,   146,  -464,
    // Out channel 18
      -785,  2241,     8,   516,    99, -1481,  -570,
    // Out channel 19
     -1123,   346, -1148,   765,  -787,   433,  -156,
    // Out channel 20
       159,  2967,  5009,    98,  -781,  -655,  -224,
    // Out channel 21
      -918,  -544,   396,  2760,   -30,   111, -1159,
    // Out channel 22
       918,  -200,   604,   751,  -348,  -172,   276,
    // Out channel 23
       380,    36,   -88,  1249,  -478,  -711, -2004,
    // Out channel 24
       942,  -132,   219,   868,   279,   768,   415,
    // Out channel 25
     -1921,  2196,    98,  -708,   739,    78,   137,
    // Out channel 26
       232,  1328,  -242,  -354, -1482,   508,   521,
    // Out channel 27
      -128,   236,  -555,   530,  -840,   849,  -745,
    // Out channel 28
      -567,   732,   111,  -807, -1057,  -191,   838,
    // Out channel 29
      1621, -1467,  -492,  1010,  1125,  1096, -1818,
    // Out channel 30
       490,   893,   399,   692,  -218,   325,  -144,
    // Out channel 31
       112,  -559,  2907,   658,  1418,   -64,  3968,
    // Out channel 32
      -127,   808,  -380, -1617,  -725,  -185,  1961,
    // Out channel 33
      -603,  -266,   -87,   810, -1973,   -27,  -219,
    // Out channel 34
       509,   213,   633,   114,   796,   -24,  -617,
    // Out channel 35
      -493,  2156,   110, -1103,   -53, -1372,   859,
    // Out channel 36
      1005,   -60,  -739, -2000,   198,  -825,  2709,
    // Out channel 37
       748,   534,   140,   545,    92,   405,  -466,
    // Out channel 38
       925,   153,   587,   752,   203,   242,  -472,
    // Out channel 39
      -349, -1672,  -662,  1595,   441,  2234, -1304,
    // Out channel 40
      -590,  -896,  -947,  1713, -1647,  1470,  1284,
    // Out channel 41
       -80,  -679,  -295,  -194,  1176,  -395,  3991,
    // Out channel 42
      -137,   573,  -435,   633,  -418,   880,   873,
    // Out channel 43
       521, -1025,  1497,  -284,   937,  2752,     0,
    // Out channel 44
      -963,  -510,  -455,  -324, -1200,    76,     0,
    // Out channel 45
      -712,   637, -1761,   518,   166,  1399,  -972,
    // Out channel 46
     -1823,   864,   149, -1231,  -109,  -185,  -504,
    // Out channel 47
      -867,  1019,   286,  -190,  -470,  -359, -1474,
    // Out channel 48
      -450,   259,  3066,  2176,  2493,  -360, -1163,
    // Out channel 49
       234,  -685,  1075,    11, -2241,   437,  1059,
    // Out channel 50
      2839, -1346, -2125,  1265,  -160,    54,   222,
    // Out channel 51
     -1661,  1205,  -249, -1379,    18,  1167,   534,
    // Out channel 52
       861,   276,  -141, -1242,   399, -1089,   465,
    // Out channel 53
     -1366, -1091,   634,  1976, -1530,  1640,  1089,
    // Out channel 54
        41,  1754,  2755,  2278,  -744,  -523,  -661,
    // Out channel 55
      -583,   292,   -39,  -820,  1505,   149, -1588,
    // Out channel 56
        15,  -641, -1348,  -941,  1613,  1461,  -744,
    // Out channel 57
       -35,  1207,  4678,   211,  -156,   182,  4154,
    // Out channel 58
       289,   492,  -964,  1252,  -452, -1594, -1257,
    // Out channel 59
     -1041,    28,   473,  -146,  -480,  1018,  -352,
    // Out channel 60
       -83,   132,  3398,  1359,  -478,   556,  -155,
    // Out channel 61
        81,  -449,  -837,  1363, -2460,   -85,  1498,
    // Out channel 62
      2990,   853,  1577,   369,  -530,   619,  -501,
    // Out channel 63
      -223,   690,    27,   537,   681,    84,  -324,
    // Out channel 64
      1349, -1676,   -66,  1027, -1020,    73,   158,
    // Out channel 65
       852, -1780,   -56,   254,  -964,   276,   643,
    // Out channel 66
       508,  -892,   356,  1736, -1974,   174,  -346,
    // Out channel 67
       947,   138,   954,  -929,   660,  -800,   623,
    // Out channel 68
      1341, -1518, -2931,   209,   994,   113,    31,
    // Out channel 69
      -822, -1409,  -359,  -343,  -448,  1495,  1225,
    // Out channel 70
      2332,  3606,  1925,  -428,  -811,  -684,  -721,
    // Out channel 71
     -1579,   546,   106, -1504,  1013,  1211,   386,
    // Out channel 72
     -2055,  1465,  2594, -1089,   489,    38,   919,
    // Out channel 73
      -827,   344,  1775,  1678,  1759,  -915,    62,
    // Out channel 74
       389,  -665,    71,    98,  -748,  -934,   520,
    // Out channel 75
      1991,  3155,  2072, -1447,   592,  -293,   323,
    // Out channel 76
      1696,  2789,   756,   -43,  -720,   848,  -405,
    // Out channel 77
     -1126,   599,  2371,  1820,  -412,  -682,   605,
    // Out channel 78
       920,  -963,    33,  1939, -2006,  -331,   -76,
    // Out channel 79
       930,  -942, -1686,  2362,  -606,  -924,  -223,
    // Out channel 80
      2373, -1365, -1415,   408,  1241,  -649,   265,
    // Out channel 81
      2544,  -936,  1125, -1004,  1385,  2389,  -723,
    // Out channel 82
       638,  -584,  -614,   525,  -815,   -58,   283,
    // Out channel 83
       866,   -49,   129,  1529,  -337,  -450, -1889,
    // Out channel 84
      1066,   180,  -370, -1587,   812,  -914,   974,
    // Out channel 85
      1591,  -285,  -558,   322,  -112,  -892,  1309,
    // Out channel 86
     -1285,   406,   554,  -611,   184,  -966,  -557,
    // Out channel 87
     -1167,  -165,  -682,  -139,  -240,  1710,  1452,
    // Out channel 88
      2900,  1907, -1047,  -927,    43,   779,   371,
    // Out channel 89
       837,   391,   602,  -256,   817,   152,    60,
    // Out channel 90
      -432,  1390,   288, -1429,  -654,  1286,   200,
    // Out channel 91
      -535,  -694, -1643,   577,   809,  1389, -1118,
    // Out channel 92
     -2258,  -397,   462,  -555,  -902,  1093,   935,
    // Out channel 93
      1181,   387,  -560,  1272,  1542,  -830, -1511,
    // Out channel 94
      -845,  -142,  2290, -1630,  1947,   486,   281,
    // Out channel 95
       498,  -785,   373,  1478, -1926,   401,   589,
    
};

const int16_t cg_FC1bias[96] = { // Co,H,W,Ci: (96,)
       894, -4774, -1233, -1467, -3567,  3175,  -791,  1751,   4980,  -193,   323, -5308, -4337,     0,     0,     0,    5758,  1547, -1532, -1564,   159, -2110,     0, -4144,      0,   358, -2939, -3119, -2357,  -772,     0,  1283, // 32
     -1593, -5378,     0,  -753, -2397,   -33,     0, -2496,    638, -1591,    -7,  -584, -5504, -1178, -5869, -5444,    2734, -3642, -3387, -1700, -1056,  -763,  2432, -2061,  -1547,  3131, -3456, -2379,  -925, -3040,   983,     0, // 64
        13,  -922, -2869,  1778, -6978, -3302, -1759,   568,  -1677,  -808, -3200,  2783,  -502, -2028, -1887, -3009,     506,  1052,   208, -1837,  -500,  1503, -6302,   778,  -1691,     0, -3749, -1824, -4878,  2539,   791,  -410, // 96
    
};

const int16_t cg_FC2weit[6144] = { // Co,H,W,Ci: (64, 96)
    // Out channel 0
       534,   304,  -318,   129, -5080,  1213,    38,  -205,    822,  1972,   936,   238,    17,   -67,    41,    41,    -186,   390,  -542,  -203,  -447,  -526,  -297,   -67,   -354, -1297,    21,   -27,    34,   -26,  -301,  -332, // 32
       716,   212,  -141, -1985, -3519,   -34,   -38, -1751,  -2890,  -294,   389, -1095,    10,   -67, -2018, -2783,    -123,   137,   496,  -249,   170,  -529,  -214,  -772,    -43,  -809,   340,  -219,  -486,  -226,   -45,   294, // 64
        39,    45,   302, -5036, -1638,   210,  -849,  -169,   -959,  -715, -1369,   404,  -208,  -193,   195,  1080,     591,  -117,    21,    10,   666, -3800, -1031,  -310,    -59,  -247,  -267,  -110, -1704, -3205,    35,   266, // 96
    
    // Out channel 1
       -50,   130,  -587,   122,   935,  -411,    59,  -224,    767,   388,   418,   112,    58,  -258,  -219,    69,     -57, -1102,    74,   -49,   -97,   -17,  -153,   -57,   -368,   426,  -234,    10,    28,   129,   327,  -255, // 128
        56,  -573,   137,    38,   -99,   -41,  -168,    87,   -684, -1085,   170,  1521,   110,   -44,   127,  1033,    1324,  -311,  1184, -3405,    27,   119,   -66,   -48,    509,   138,    69,   -30,  -984, -2277,   318,   375, // 160
        74,     6,  4046,    -7,  1154,  -211, -4262,  -139,    757,  -318,   -72, -2337,   -83,   503,     6,  -278,    1576,  -191,    37,    -8,  -255, -1277,   578,  -344,   -150,   272, -1003,   249,  -230,  -257,  -160,  -405, // 192
    
    // Out channel 2
       109,    -7,   164,    34,  -157,   944,    27,  -160,    937,  1168,   137,    25,    27,    57,   306,  -131,    1111,  -278,   709,   -61,  -102,  -870,   280,  -114,   -116,    16,     2,    62,  -201,   980,  -182,   790, // 224
      -273,    63,    46,   -73,   -65,   167,   394,   832,   -663,    26,   377,  -718,     4,    25,  -166,  -228,    -150,  -974,  4439,  -743,   106, -1326,  -455,   -13,    151, -1014,   116, -1055,   128,  -842,   -35,   352, // 256
         5,    58,   362,    30,  3040,  -295,   373,    16,  -1478,   270,    84,   713,    12,    40,   233,    45,      76,   126,    -4,  -164,   215,   395,   356,   142,    152,  -182,    63,     3,     2,   165,   608,   -33, // 288
    
    // Out channel 3
       230,   497,   549, -1357, -1310,   -77, -1499,    30,    105,   -13,    -3,   787, -1701,   388,  -305,   -87,   -2187,    82,  -336,   -19,    75,   -29,   272,   -78,    -92,     8,  -268, -2184, -1483, -1076,  -122,  -639, // 320
       -13,  -243,   241, -4593,  -351,   105,    71,  -479,  -1035,   299,   353,  -148,   658, -1060,   515,    23,    1128,  -315,   -66,   -79,  -813,  -147,   -27,   149,   -676,  -204,   -72,   198,    12,  -740,  -228,   -20, // 352
      -982,  -499,  -733, -3504, -1525, -1307,    51,    85,    153,   186,    93,   -63,  -117,   851,    -5,  -434,    -872,   129, -1152,  -113,  -134, -1391,  1278, -1344,    116,    50,  -172,   -74,  1788,   -78,   370,  -983, // 384
    
    // Out channel 4
       101,  -817,   127, -2023,  -912,   533,  -190,    12,   -105,   -96,   -19,  -917,   -41,  -159,   305,   170,    -911,  -522,  -305,  -138, -1945,   -74,    33,  -194,   -235, -2117,    -9,     0,  -170,    -4,   359,   159, // 416
     -1662,  1816,  -193,  -255,  -585,  -250,    46,   656,   -253,  -115,  -236,  2385,   -25,     3,  -174,  -172,     -17,  3098,  1535,   -23,  -688,  -267,   -41,    17,    -40,     3,   258,   -65, -1115,  -580,     9,   237, // 448
        21,    70,  -677,   105,  3135, -1019, -1239,  -104,   -242,  -218,   323, -3176,  -119,  -125,   469,   -64,    1767,    20,    92,  -151,  -490,   237,  -852,  -669,      0,   241,    81,   -82,  -517,  -162,  -386,  2207, // 480
    
    // Out channel 5
        -1,    50,   536,  -495,    97,   543,  -302,    56,  -3192, -2776,   391,    32,   -26,  -372,   304,    25,     279,   631,    40,    77,   192,  -237,  -251, -4468,    233,   -59, -1907,   164,   153,  -257,   -92,  -537, // 512
       368,   151,  -137,    -2,    21,  -216,  -118,   812,     95,  1175,   176, -2447,    76,    61,   -21,  1046,   -1595,   463,  2293,   844,     3,  -502,   -14,   177,    119,  -472, -1197,    10,  -599,   767, -1084,  -321, // 544
       -10,    17, -1211,   -27,   758,   881,  -789,   151,   1441,   -88,    19,    71,  -228,   568,  -311,  -288,     317,  -165,    19, -2025,   148,    -4,  -632,   285,     -4,   137,    75,   110,   102,   163, -1462,   348, // 576
    
    // Out channel 6
       -23, -2673,   210, -2261, -1638,   375, -2201,    21,    300,  1053,     9, -2754,  -638,  -236,  -139,  -203,    -126,     1,   228,    -6,   158,  -436,    54,   490,    130,   529,  -732,   163, -1033,  1193,  -272,  1025, // 608
      -256,   702,   116,  -835,  -207,   377,    73,   218,   -608,   421,  -107,  1165,  -167,   132,   -76,    61,     208,  -563, -1096,    58,  -722, -1016,    80,    37,    319,   191, -3514,    50,   -61,  -328,  -735,  -280, // 640
       277,    72,   367,  -242,  -607, -1149, -1138,    19,    732,   191,   -82,  -809, -2022,   729,   -61,  -119,     364,    32,    98,  1098,  -495,   519, -2213,   510,  -1044,   -85,   -35,   239, -2128,   -90,   384,  -244, // 672
    
    // Out channel 7
        43,   303,  -853,   -97,  -167,  -727,   -68,  -835,   -185,  -163, -1043,   234,   -29,    23,    88,    -1,    -233,   320, -2454,    33,  -119,  -327,   -91,    52,    353,   437,   -15,   945,   -52,  -734,   325,  -212, // 704
        27,  -523,  -131,    47,   482,   174,   -83,   265,    -49,   118,  -293,   247,   119, -1014, -1638,   -28,    -836,   379,  -461,   704,   -14, -2409,  -938,  -739,  -1304, -1051,   -62,   364,   229,   278,    43,  -197, // 736
        -9,     2,  -462,    18,  -579,  -994,     9, -1215,  -2641,   -27,   170,    22,    49, -1610,   177,   -79,      36, -1241,    -3,    -2,   173,    84,  -469, -1669,   -803,   -62,   254, -1424,   100,  -568, -1921,    38, // 768
    
    // Out channel 8
      -257,   519, -2949,   -82,    33,  -622,   347,  -341,  -2388,  -774,  1209,   683,   321,   334,    -9,   174,   -1856, -2536,  -431,    59,  -142,    24,   138,  -553,    -49,  1261,  -166,   194,    17,  -331,   -44,  -143, // 800
      -129,   553,  -281,   -46, -2874,   -51,  -142,   322,    402,  -763,   -20,  -485,   190,   339,  -149,   203,    -516,  1533,  -107,  -379,  -213,  -258,  -367,  -790,     64,   215,    89,  -232, -1077, -1784,  -105,  -311, // 832
       161,   143,   650,  -131,  -921, -1539,  -199,   -81,   -495, -1674,  -324,  -228,   -85,  1163,   110,  -135,   -1840,   149,    47,  -515, -2083, -5048,   -65, -1563,    140,  -167,   142,   -19,    31,  -401, -1270,  1597, // 864
    
    // Out channel 9
      -776,   328,   -42, -1058,  -487,   286, -1966,   -29,    606,  -724, -1359,   492,  -830,   377,   359,   188,     -29,  -328,   -61,   -61,   168,    39,  -274,  -326,    103,  -396,  -252,   142,  -825,    20,   -51,  -104, // 896
       -87,  -563,  -341,  -361, -1622,  -271,   243,    31,    -96,  -780,  -305,  -780,   -15,   133,   152,  -536,       3, -2272,  -579,   690, -2229,  -129,    83,    -7,      1,   -13,    88,  -280, -1995,   -29,   -99,     5, // 928
     -2096, -1079, -2280,   232,  1562,   221,  -500,   -39,      1,  -297,   308,     4,  -289,  -273,    99, -2298,    -678, -1179, -1153,  -500, -1020,  -346,   361,  -146,     33,     0, -1406,  -125,  1498,    14,    58,  -296, // 960
    
    // Out channel 10
     -3133, -2460,  -357,  -109, -2351, -1495,  -175,    75,    -77,  -755,   798, -1355,  -257,   227,  -229,   122,     649,   -38,   656, -4346,     8, -5793,   -12,   -49,   -363,  -292,    90,  -382,   103, -1486,   -91,   154, // 992
        75,   660,   -52, -3554,   182,  -371,   -59,  -567,   -517,  -368,   168,  -805,   156,  -501,    87,    -8,     569,   410,   147,  -116,   -32, -1255,    -2,  -632,  -1110,   -63, -1222,     9,    36,   -12,    77,   171, // 1024
       239,   -52,   716, -2355,  -494,  -398,    93,  -170,    267,    83, -1048,   264,   140,   507,   465,    23,     -88,  -248,    93,   -49,  -631,  -349, -1912,  -293,   -735,   390,   -83, -1145, -1833,  -226,   539,   181, // 1056
    
    // Out channel 11
        -9,     5, -1055,  -197, -1675,   739,   122,   -98,   -204,  -286,  -606,    28,    -3,  -267,   225,   146,     206,  -149,  -613,  -175,    97, -1027,    73, -7282,   -324,  -310,   164,   -31,  -504,   159,  -307,  -302, // 1088
       -79,  -469,   204,  -128,     3,   266,   -27,  1067,    124,    13,   -76,   781,   -31,   -41,   354,  -487,   -1991,   877,   997,   255,    44,   -11,   332,  -260,    -39,  -204,  -107,   -69,   152,   734,    78,   205, // 1120
       -36,     8,  -561,   -23,  2927,   699, -3654,  -109,   -184,   233,   146,  -202,   359,    28,  -384,    41,      90,   123,    -7,  -483,    30,    20,  -201,  -250,    175,  -190,   103,  -122,    95,   208,  1650,   310, // 1152
    
    // Out channel 12
       218,  -576,   770,    32,    16,    50,    55,    -5,     82,   567,  -351,  -219,   -14,    35,  -174,  -340,    -251,   877,   -90,  -202,  -114,   -73,    54,  -187,   -222, -4562,  -183,  -833,    16, -3198,   260,  -239, // 1184
       -22, -2818,   140,    20,  -234,   -96,   375,   -88,    105,   -86,   384,  -237,  -156, -1557,  -730,  -734,     455,  -150,   526,  -921,    73,    13,   -73,    42,  -2272, -2727,   -44,  -211,  2211,   118,   -34,  -116, // 1216
        79,    96,  1972,    35,  -182, -1637,  -571,  -516,   -852,  -220,    44,  -868,  -238,  -160,   661,  -126,     381, -1223,    27,   -92,   279,  -128,  -747, -3384,    197,    12,  -861, -2012,  -830,   -31,  -689,  2053, // 1248
    
    // Out channel 13
       -12,     3,   360,   157, -2297,  -452,    74,   -47,    722,  -575,  -149,    25,   -43,    62,   117,  -385,    1477,  -145, -1825,    24,   161,  -405,  -260,  1020,    314,   -35, -1025,   282,  -741,     1,  -204,  -853, // 1280
      -469,  -847,   294, -3488,   -64,  -229,    18,   -79,    419,   -15,  -304,   125,   -56,   101,  -499,   -46,    -738,  -167,  -960,   232,   150,  -227,    71,   -50,   -129,   -39,   -65,    14,  1453, -2093, -1251,  -213, // 1312
       -89,    -5,   249, -1399,  2734,   -81,   -74,   123,   -260,  1342,   -53,  1114,    96,   949,   958,     9,     123,  -571,   -66,   -93,   123,  -228,  -841,    38,  -1599,   297,   240,  -214,    24,  -260,  -230,  1978, // 1344
    
    // Out channel 14
     -1545,    31,   -17, -1147,   -91,  -497, -1279,    16,   -243,  -793,    -6,    51,  -248,   241,  -329,  -354,   -2092,   645,  -645,    43,  -670,   110,   238, -2167,   -163, -1314,   288,   138, -1719, -1772,  -351,    51, // 1376
      -835,  -749,   -93,  -612,  -522,    79,  -289,   230,    164,  -792,    73,  -479,   293,    78,    14,   221,    -675, -1027,   -93,    32, -1029,    25,  -966,    36,    142,  -147,  -912,    23,  -454, -1654,  -381,   -37, // 1408
     -1445,   337, -2447,  -779,   104,   639,  -377,    14,     37,  -681,  -443,  -376,  -539,  -506, -2138, -1587,    -510,    33,     1, -2124,   279,  -470,   415,    10,   -483,   147,    26,   206,   -39,    14, -1025,  1325, // 1440
    
    // Out channel 15
         0,   126,  -883,   -18,    -2,   333,    41, -2321,    932,   -88,   -59,   190,    70,  -243,  -321,   -38,    -136,   176,  -209,   -11,    18, -5128,  -337,  -278,   -138, -1824,   -99,  -595,    -6, -2104,  -245,     7, // 1472
       -24,    -3,    62,   -17,   -70,  -341,  -301,  -293,    165,    80,    67,   107,   410,  -982,  -342,   -89,   -3909,   287,  -259,   -44,    16, -3133,   -21, -1225,  -1700, -1325,     4, -1515,  -991,   126,  -713,   213, // 1504
       680,   103,  -211,    21, -2805,   -82,  -439,  -750,   -132,  -213,   -27, -1287, -1641,  -368,   433,    10,    -520, -1291,    82,  -222,    39,    50,  -665,  -837,  -1264,   363,  -277, -3629,  -671,   689,  -344,  1100, // 1536
    
    // Out channel 16
     -2352,   -16,    -6,   -64,  -880,    56,    62,    11,    264,   183, -1260,  -115, -2496,   321,    22,   -30,     122,  -222,   636,    -4,   -47,    37,   253, -1284,   -175,   105,   -41,   930,  -641,    82,   376,  -776, // 1568
       -14,  -821,  -203,  -280,   367,   305,  -127,    97,     52,   -54,  -284, -1050,  -490,    37,  -285,  -331,   -1176, -2342,  -398,   344,  -616,   344,    -4,    31,     46,  -223,  -124,   -37,  -912,  -471,  -502,  -148, // 1600
     -2959, -1215,  -738,   740, -1324,   999,  -120,     9,    325,    -5, -2266,  -255,    99, -1424,   303,   -66,     253, -1274, -1727,  -468,   391,  -285,  -204,    90,   -341,   116, -2345,    49,  -440,    70,   292,   648, // 1632
    
    // Out channel 17
       273,     4,   140,    34, -2046,   631,    38,    70,   1003,  -421,    -1,   -67,     5,    51,   -90,   109,   -1698,  1729, -1061,    49, -3568,  -246,    45,  -255,    371,   -90,  -137,   -19, -3121,  -210,   125,  -676, // 1664
      -346,    91,   367,  -390,  -582,  -287,   -43,   -83,   -425,    21,  -288, -1573,  -350,   -30, -1607,   -92,    -882,  -788, -3683,    44,    29,   488, -1909,    44,     13,   228,    89,   118,  -298, -1071,   -46,   218, // 1696
        81,   101,  -608, -3472, -1390,   484,  -804,    50,   -778,  -400, -1602,  -177,  -235,   132,   131,   -57,     -44,   -16,    50,   122,   256, -1453,  -162,   539,      3,   380,  -257,   -44,  -325,   -83,  -137,  1088, // 1728
    
    // Out channel 18
      -378,  -142,  -403,    88,   312, -1274,    36,    22,  -2316,     9,  -310,  -216,    18,   373,   256,   377,   -2769, -3284, -4983,    52, -2480,   -83,   374,  -582,   -283, -2125,    67,    43,   149,  -133,   -33,  -571, // 1760
       519,  -111,   394,   -93, -1302,  -165,  -266,  -433,   -332,    65,    39,  -129,    26,    63,  -630,  -214,    -708, -1887,  -116,   223,    14,  -443,  -832,   -58,     84,   330,  -425,    90,  -161, -1441,  -100,  -168, // 1792
        55,    11,  -304,   -57, -2251, -2444,  -618,   124,   -241, -1028, -3395, -1296,  -139, -1047,     3,   139,   -1756,   -78,    52,  -129,  -150, -1049, -1510, -3586,    158,   110,  -113,    65,  -535,   107, -2079,   299, // 1824
    
    // Out channel 19
        75,  -739, -1149,  -742, -1023,  -234,  -927,  -154,    -11,  -662,  -963,  -210,  -591,  -193,   314,   -62,    -396,   117, -1226,  -429,    19,  -251,  -169,   -81,     99,  -582,    62,   477,    -5,  -737,   -69,  1095, // 1856
      -474,  -509,   277,  -957, -3035,    45,  -246,  -184,    752,   292,  -397,  -312,  -589, -1833,  -321,   266,     932,  -367,   185,  -543, -3060,  -355,   -46, -2946,   -797, -3648,  -319,   162,  1113,  -843,   800,    63, // 1888
       469,  -226,   995,  -740,  -733,  1110,  -237,  -419,   -730,   -65,   -14,  -380,   457,  1229,  -759,   -45,    1508, -1444,    78,   438, -1474,  -213,  -956,  1388,   -422,   355,  -161,   219,  -408,  -646,   496,   510, // 1920
    
    // Out channel 20
       129,  -832,    -9, -1951, -2766,  -694, -1641,    20,   -373, -1610,  -175,    30, -2425,   267,    60,   142,   -2132,  1636,  -506,  -173, -3594, -1465,   -17,  -590,   -308, -1516,    82,   203,  -569,  -749,   320,   172, // 1952
     -1733, -1413,   164,    72,    78,    83,  -281,   291,    221,    72,   -87, -3469,  -488,   101,  -808,   -93,   -1389,  -630,  -488,    15,  -917,   -82, -1222,    82,   -165,  -166,   -53,    -3,  -300,   -69,   127,  -396, // 1984
        60,   126,   121,   115,   257,    84,  -236,   -30,   -630,    88,   122,    27,    55,  -102,   602,   -20,     524,   139,    91,   107,  -603,   120, -1306,   738,   -561,  -227,    45,  -522,    13,  -128,  -891,   301, // 2016
    
    // Out channel 21
        40,    14,  -765,   106,  -454,   298,   181, -1963,  -2161,   243,   -83,    47,   344,  -160,    56,    32,     -41,  -422,   412,  -177,  -131, -1671,  -372, -1170,   -279,  -261,  -377,   -84, -1739,  -471,  -191,   525, // 2048
      -679,  -538,   374,   -20,   -36,   182,   -93,  -427,      4,    16,  -186,   197, -4099,   -53, -1234,  -160,   -3776,  -561,  -539,  -286,   287,  -382,  -386, -1523,   -840,  -131,    81,   170,  -363,  -300,  -132,   333, // 2080
      -438,    14,  -515,    44,  -948,  -575,  -365,   385,   -269,    53,    28,  -475,  -267,   712, -2411,    15,     203,  -232,    24,  -574,   385,    64,  -194,   121,    -15,  -359,  -415,  -893,  -459,   -96,   262,  -404, // 2112
    
    // Out channel 22
        11,   -35,  -142,  -155,     6,   528,  -128,  -274,    120,  1175,    32,    38,  -188,  -122,  -245,   172,     120,   229,   -25,    13,    -2, -2995,   -79,  -349,    271,    69,   -17,    56,    29,  -358,   -24,  -650, // 2144
        79,  -565,    -1,   569,    46,   311,   260,  -388,   -384,   799,   -10,   348,  -318,   401,  -174,    24,   -3378,   372,  -346,   488,     6, -1207,  1120,  -173,    280,    94,  -166,  -199, -1997,   105,    39,  -135, // 2176
      -146,   -30, -2479,    31, -2121,  -463,   -48,   -24,    134,   -64,    63,  1506,   -20,    99,  -339,   231,      50,    55,    16,   100,    37,    50,  -455,  -101,   1191,   -19,    82,  -174,   -49,   351,   133,  -462, // 2208
    
    // Out channel 23
       189,   288,  -336,    46,    14,  -145,   102,  -364,  -4322,    -5,  -997,   195,   -22,     3,   355,    81,    -260,    28,   308,  -112,  -113,   111,  -317,   -74,    242,   110,   347,   670,   -15,  -501,   203, -2902, // 2240
       -42, -1253,   -67,    27,  -176,   273,   308,  -925,   -326,   -59,  -256,   110,  -236,   240,  -794,    15,     588,  -499, -2197,    34,    94,   -12, -3177,  -312,   -428,  -546,   269,  -199,   192,   138,   -62,  -308, // 2272
        -8,    74,  -929,    90, -2343,  -868,   141,  -416,   -176,  -316,   305,   374,  -270,  -300,   172,   213,    -769,  -103,    10,    38,  -541,  -113,   875, -1118,   -142,    -7,   527, -3841,  -369,   -84, -3279,  -437, // 2304
    
    // Out channel 24
        43,   -29,   229,  -920,    16,  -322, -1480,    13,   -435,   -80,  -979,   202, -1741,   -83,  -391,   323,    -207,  -416,   -54,  -431,   -34,  -472,   -89,  -537,    121,   107,  1571, -1352,    47,  -911,   197,   505, // 2336
      -379,   -38,   -35,    -3,  1280,   144,  -118,   290,    592,    81,   132,   107,   -34,  -288,     4,   -52,   -1986,   327,   -35,    54,  -121,   -38,    37,   780,     39,  -893,   208,  -116,   -68,   514, -1041,   -97, // 2368
     -1957,  -282, -1904,    -1, -2313,  -743,  -148,     6,  -1824,  -417,   -47,   219,  -944,  -902,  1528,  -465,    -343, -1829,   111,  -538,   785,   741, -4018,  -196,   -943,  -106,   245,   -43,   -21,  -459,   758, -1047, // 2400
    
    // Out channel 25
       -26,    41,   465,   285,    60, -1800,    71,   245,    894,   -33,   169,   -16,   840,   264,   -82,   288,   -1266, -2177,   -55,    20, -1243,  -385,    90,     5,     22,   -38,  -451, -1594,    63, -2324,  -294,  -241, // 2432
       -34, -2040,  -222,   -14,    59,     6,  -274, -1336,    196,    -6,  -126,   331,    54, -2278,  -375,  -962,    -913,   -86, -1113, -1901,   -88,   549,   -55,  -960,  -2724,  -275,    41,  -490,  -341,    34,  -603,   175, // 2464
      -229,   -56, -1124,   -27, -1756, -1529,  -922,   253,   -103,   -11,    -4, -1744, -1013,  -126,   157,    98,    -896,  -597,     8,  -357,    23,   -25,    20, -1364,  -2168,  -205,   423, -1733,   195, -1173,  -538,   541, // 2496
    
    // Out channel 26
         3, -1314, -1981,  -889,   -95, -3615,  -659, -3205,     66,   236,   131,  -811, -3600,    55,   235,  -329,     185,   -13,   137, -4223,    40, -1537,  -313, -1095,    266, -1103,   174,   193,   -43,   256,   239,  -716, // 2528
     -1531,   -88,  -346,    61,  -491,   -28,   295,  -441,   -609, -2418,   -70,  -282,  -110,  -147,  -498,  -396,    -862, -1975,  -280,  -719, -1389,  -132,     1,  -317,    170,   409,   -62, -2430,   766,  -252,   172,   180, // 2560
        71,    37,   140,   112,     5,   -29,  -506, -1576,    184, -3506,   -17,  -413,  -341,    84,   148,   267,     357,  -299,   -42,  -985,  -785,  -376,   297,    29,    113,   230,   -83,   256,  -109,    72,   -37,  1036, // 2592
    
    // Out channel 27
      -183,   -59,   427,  -376,  -400,  1064,  -120,   482,    333,   235,    83,   -65,   -40,    26,   134,    41,    1302,  -197,  -526,   -81,  -511, -1596,   205,   -34,     11,   277,    58,     0, -4843,  1319,   139,  -370, // 2624
     -1082,  -289,    63, -2516,    63,     1,    66,   -44,   -231,    89,     2, -2350,   -50,   -10,   -30, -1538,   -1557, -1308,  -173,    53,  -197,  -891,  -255,   277,     13,  -578, -1959,    78,  -709, -1360,   206,  -136, // 2656
        -4,   -25,   -57,   574,  1481,  2051,  -880,     7,   -301, -1209,   -84,   294,   168,   -36,  -131,  -216,     101,    42,   -29,    26,    59,  -112,  -267,   117,     70,  -181,   172,   -17,   -71,  -946,   410,   -42, // 2688
    
    // Out channel 28
     -1732,  -271,   264,   -35,  -174,    86,  -199,   162,     70, -1656, -1843,  -412, -3401,  -154,   -41,   -11,     348,   -54,   357,    27,   -12,   -12,  -328,  -230,   -110,    51,   -93, -2393,  -118, -1387,   -17,  -113, // 2720
      -279,  -242,  -219,   -91,  -388,   -93,    94,  -855,   -286,     7,  -110,  -293,  -209,  -811,  -197,    -6,      48, -4198,  -346,  1041, -2023,    31,   -50,   145,    449,  -502,   -18,   101, -2837,  -552,    24,    30, // 2752
     -1793, -2861,    46,   215,  -212,   276, -1093,    75,    235,   351, -3399,   -54,  -302, -3505,  -832,   224,     174, -2085, -1787,    -1,    27, -1747,   946,   -14,   -331,  -382, -3310,   -72,  -168,    11,   569,   104, // 2784
    
    // Out channel 29
      -661,    65,   164,  -675,   -35, -3006, -2342,   139,    -27,  -248,   332,  -201, -3796,  -250,   308,    21,     486,  -147,  1871,  -276,   -29,   174,   171,  -713,   -148,   174,  -368,   310,  -115, -4306,   142,    86, // 2816
     -1190,  -682,  -374,   -92,  -273,  -255,   171,  -294,   -645,  -560,   239,  -730,  -281,   455,    55,   -27,     108, -1006,   -50,   800,   199,  -471,   -37,   429,  -2065,   -77,    80,    22, -2097,   102,   -22,    18, // 2848
     -3599, -3714,  -799,  -174,   750,  -853,  -217,   475,   -318,  -144, -1067,   527,   444,  1371,  -417, -1074,    -111,  -266,  -353,  -347,  -627,  -901,  -371,   303,    491,   -30,   414,  -984,  1047, -1186,   411, -1486, // 2880
    
    // Out channel 30
       215,   305, -1143,  -996,   271, -3657,  -555,   -73,  -1654, -2040,  -193,   176,   -43,   137,  -390,  -361,    -235,  -444,  -802,   101,    -5,    -1,   214,  -134,   -212, -4346,   -63,   200,    57,    12,   187,   -88, // 2912
      -542,   665,    -1,   -22, -1991,   211,   -15,   139,   -246,  -916,  -210, -1136,   410,   621,   687,   100,      12,  1090,  1852,   973, -1318,    55,  -413,  -150,    308,  -267,   333,   -36,    32, -2307,  -420,   137, // 2944
       151,   344,  2032,  -113,   517,  -364,   -22,  -163,   -906, -2325,    18,    -8,  -627,   260,   698, -1693,   -1171,    27,   119,   -52, -1094, -3079,   -56,  -957,   -195,   241,    97,   382,   291, -3046,  -504,  1009, // 2976
    
    // Out channel 31
       105, -4688,  -212,   362,  -201,    78,    63, -1467,   -148,  -374,  -757, -2143,    45,     8,  -360,    19,    -699, -1223, -3898, -1908,  -835,   228,  -178,   680,     75, -2021,    56,   222,   -97,   -50,  -182,  -240, // 3008
       132,  -422,   169,   297,   107,  -290,  -258,  -351,    172,   277,  -282,  -497,   134,   238,   -93, -1442,     605,   652,   715, -2897,     5,   258,  -707, -2227,     11,    59, -1386,   199,  -206,   628,    31,    37, // 3040
        29,    35,  1318,   543,  -303,  -650,  1493,  -248,   -380,   116,   271,    -1,   325,  -688,   128,   776,    -919,    25,    26,   195,   -70,   176, -2985,   -10,     79,  -280,   232, -2711,  -191,   628,   440,  1059, // 3072
    
    // Out channel 32
         9,   204,  -996,   207,    -9,  -339,   299,   -92,  -3157,   367, -1614,   214,   227,   396,  -146,  -152,     206, -2195,    68,   223,   -11,  -147,  -363,   300,   -131,   383,    -2,    70,   -29,   158,   -50, -2739, // 3104
      -255,  -574,   317,     4,  -294,    24,  -135, -3739,   -368,   -14,    15,  -259,   101,    26,  -344,   -68,    -923, -1462,    77, -2776,   -47, -2915,  -151,  -784,   -397,   -53,   229,  -809,    77,  -116,   -98,   224, // 3136
       235,   252,  1314,    12,  -937,   -75,  -136,   167,     91,  -932,    19,   -26,  -213,  -116,   336,   434,      46,   -17,   110,   280,  -379,   -82,   156,   -16,   -257,  -222,  -309,  -125,   130,   141, -3467,   169, // 3168
    
    // Out channel 33
        -9,   -34,   395,     1,  -113,   109,    -5,   101,    -40,   871,  -279,    41,    -3,    67,  -268,   274,   -2007,  -243,   113,   -17,   -75,   -29,   302,    20,   -388,   199,   257,   561,   -40,    92,  -244, -1062, // 3200
       -29,  -170,   256, -1821,   -60,   -31,  -168,  -179,    158,     4,   258,  -202,   -27,   166,  -488,  -171,     860,  -201,   -75,   665,   -29,   303,    18,   129,    425,  -953,  -122,   665,  -219,   372,   -15,  -356, // 3232
        99,    57,  1237, -2406,   791,  -106,    17,    64,    -67,   -35,  -365,    72,   232,   160,   850,   164,     200,  -105,    16,   219,    53,  -126,  -118,   -14,     -6,   145,   134,   168,    -9,     2,   255,  1166, // 3264
    
    // Out channel 34
      -161,  -878,    62,  -213,  -279,   -29,   -25,    -8,   -325,  -935, -1313, -1312,    -6,  -141,  -159,   396,   -1824,  -803, -1010,  -123,   941,    71,   -73,   848,      4, -1174,   120,    39,    50,    41,    49,  -419, // 3296
      -920,   -83,  -116,  -182, -2359,  -176,  -364,   895,    180,   -52,  -318,   287,   197,    39,   500,   -21,      29,   152,   656,   160,   -76,   -96,  -120,    45,    -53,  -405,  -225,   -23,  1596,  -474,   126,  -186, // 3328
         8,    36,   437,  -868,  1757, -1158,  -824,  -131,    518,    24,  -165, -3952,   242,   263,  -315,  -251,    2528,    91,    34,   218,  -748,  2061, -1634, -1911,    216,  -238,   -98,    16,  -207,   845,  -785,   838, // 3360
    
    // Out channel 35
     -3028,  -121,   214,   -11, -1325,   277,   270,    99,    538,   798,  -627,  -331,  -933,   235,  -145,   121,   -1569,  -367, -1226,    -8,   -17,    14,  -121,  -545,    156,  -200,  -263,  -995, -1362, -1690,    51,  -227, // 3392
       115, -1362,   -96, -1910,    66,  -207,  -335,   -85,   -350, -1048,   209,    87,  -121,  -376,  -316,  -729,    -494, -1275,  -375,  -199, -1013,  -111,   -68,    31,   -719,   -81,  -111,    31,  -700,   167,  -333,   197, // 3424
      -739,  -196,  -753,  -624,    42,  -559,   -52,   133,    304,  -664, -2829,   200,  -118, -2295, -2536,   212,    -599,  -829,  -906,  -577,  -688,  -927,   440,  -948,    301,   159, -1781,  -125,   110,    77,   164,  -501, // 3456
    
    // Out channel 36
       142, -4138,   287, -1004,  -405,   319,  -268,    44,    622,  -474,   110, -3866,  -139,  -235,  -258,   369,   -1217,   248, -2525,   -45,  -640,  -155,  -100,  -526,   -104,   -55,   -76,    54,   243,    -5,  -181,   398, // 3488
       218,  1871,  -167,   -79,   -95,   206,  -370,   463,   -536,   166,  -279,  1339, -4037,    55, -2188,   -37,    -205,   362,   -19,   161,   181,  -529,  -496,   125,     96,   978, -2820,    34, -1415,    17,    -7,    60, // 3520
      -237,  -147, -2775,    99,  -262,  -393,    78,    74,   -318,   617,    36,   799,   -46,  -121,  -643,  -232,     479,    34,   -77,  -262,  -154,   243, -3726,   584,   -177,  -264,    41,    -1, -2617,   -37,   241,  -312, // 3552
    
    // Out channel 37
       202,    36,  -921,    19,    17,   148,    12,  -579,   -152, -1122,  -597,    30,    -3,   329,    88,   296,     935,   527,  -112,    59,  -104, -1052,   218, -5934,    104,  -200,  -462,  -283,    15,  -335,    78,   319, // 3584
       163,   616,   294,     7,    66,  -127,   366,  2461,   1257,    86,   -20, -1155,     6,   -70,    46,   -28,   -4257,   678,  2638,  -177,    42, -2006,  -493, -1374,   -243,  1509,    -7,  -394,  -432,   755, -1223,   -51, // 3616
       -98,    26,  -118,    55,  -244,    -8,    95,   -35,    262,   464,   301,  -572,  -137,  -641,   -17,   280,      83,  -613,    25, -1816,    16,   370,   -92,   -69,   -790,  -378, -3789,   -95,    72,   163, -1261,   885, // 3648
    
    // Out channel 38
      -100,   -46,   469,    84,     5,    92,    81,   -33,   -136,   170, -2055,   -88,    40,   130,   240,  -227,    1858,   195,    22,   -14,   -60,    40,   -34,  -160,    107,   226,   138,   133,   -13,   426,   353, -1094, // 3680
      -213,  -235,  -268,   -46,   744,  -378,   269,  -925,    -10,     8,  -157,  -528,  -103,    12, -1327,    65,     848,  -131,  4635, -1574,    23,  -324,   -98,   129,    347,   511,    99, -2129,  -395,   112,   488,   193, // 3712
        76,    16,  -249,   -22,  -607,  -232,    70,    31,   -170,   -23,  -453,   107,    74, -2149,   531,     1,     309,    34,    35,   -37,  -271,  -232,  -255,   226,    166,   -40,    58,   177,  -594,    93,   655, -1709, // 3744
    
    // Out channel 39
      -575,  -334,  -199,  -990,   192,  -157,  -681,   -81,    123,  -957,  3034,  -498, -2306,  -325,   389,   -14,      11,   -92,   349,  -146,   -35,    63,  -357,   295,    135,   514,    30,   314,    15, -1553,   307, -1028, // 3776
     -1372,   178,  -211,   172,  -508,  -247,   -64,  -114,   -511,  -138,   288, -1324,   134,  1177,   126,   -32,     237,   322,  -439,  1292,  -898,   187,    20,   387,    571,  -897,    81,  -245, -1505,  -745,  -936,  -297, // 3808
     -1481, -1683, -1445,   182,  -425,  -332,    17,   198,   -165,   883, -1449,   -49, -1148,   863,   156,  -254,     198,  -136,   -87,  -106,  -523,  -808,  -733,  -186,   -730,   221,  1496,    41,   689,  -153,   313, -1087, // 3840
    
    // Out channel 40
        52,    28, -1748,  -231,  -275,  -333,   -67, -2700,   -498,  -309, -1248,   101,   -26,  -355,    -4,   366,    -906,  -116, -4967,   -42,  -536,  -258,   136,  -275,    112, -1611,    34,   140,   -17,  -207,   -16,  -290, // 3872
        65,   183,  -284,  -109,   636,   -28,   365,  -756,     29,    34,   -85,  -196,    33,   -90,   -27,    69,    -860,   181,  -641,   304,   -75, -2469,  -195, -3139,   -761, -1101,   -76,    21,    76,   534,    56,  -201, // 3904
        13,    80,    -7,   -86,  -198,   -27,   -43,  -123,  -3254,  -357,    54,   -30,    96, -5735,  -177,  -276,    -484,  -855,    31,   -27,   -21,   206,  -460,  -266,  -1224,   -66,   188,  -342,  -131,     8, -1827,   261, // 3936
    
    // Out channel 41
        47, -1070,   576,   299,  -197,  1186,   144,  -142,     61,  -193,  -146, -1411,     9,    13,  -328,   -50,   -1391,  -112,   -78, -4687,   -17, -6341,   191,  -233,    -69,  -637, -3156, -4086,  -124, -1673,   171,   -20, // 3968
      -210,   270,    62,    11,   430,    11,   318,   117,    -57,   -56,   -67,   167,   396, -1780,    16,   -45,    -246, -1518, -2154,  -906,  -175,    -4,     4, -4659,   -310,   136,    77,   581,  1740,  -220, -4067,    -6, // 4000
       276,    85,   513,    23,   146,    71,  -153,  -937,    206,  -454,    -1,  -859,  -480,   123,   347, -1049,     789,  -662,    79,  -141,   279,   -97,  -465,   368,  -1366,   292,  -788,  -664,  -499,  -587,   163,   925, // 4032
    
    // Out channel 42
      -820,  -171,  -180, -2292,    61,  -621, -1390,   -99,    -19,  -308, -1892,   590, -1609,   383,    36,  -104,    -371,  -302,    43,  -272,   -28,   -49,  -371,   -92,      4,  -287,   624, -3963,    21,   -94,   285,   -86, // 4064
      -642,     6,   342,   107,   270,  -380,  -173, -2021,  -1414,  -187,  -286,  -216,    33, -2058,   -53,   -48,     205,   716,   251,  -145, -1259,  1098,     3,    -1,   -618,   291,   324,  -213, -2009,  -584, -2663,   -86, // 4096
     -1423, -1820,  -136,   282,   275,  -377,    71,   759,   -451, -1333, -2765,   -19, -2543,   787,   546,    14,    -437, -1297,    49,  -208,   -69,  -295, -1617,  -833,     32,   -61,  1312, -2773,  -214, -1859,   568,  -997, // 4128
    
    // Out channel 43
       -79,   168,    46,   156,    59,    -7,   146,    22,  -1100, -1903, -1170,    90,   106,    -2,   387,  -124,    -357, -1817,   134,    39,  -248,    22,  -369, -2939,   -184,   305,  1391,  1008,    53,  -371,  -368,  -424, // 4160
       114,   535,   179,    -1,   273,   -12,   267,   -43,    171,   -69,   232, -2654,    73,    54,  -423,  -174,     396,   621,  -282,   578,   146,   589, -1278,    92,   -110,   807,    25,   214,  -297,  -197,  -633,  -269, // 4192
     -1212,  -307, -3079,    56,     9,   590,   489,    70,   -278,  -181,   110,   -56,  -654,  -247, -2345,   235,     515,  -560,   -32, -2668,   544,   187,   467,   120,   -416,   132,  -914,     5,   133,    51,   313, -2608, // 4224
    
    // Out channel 44
      -269, -3740, -1780,   189,  -108, -2366,   187,   -34,     65, -3245,   127, -2645,    42,  -300,  -287,   -58,    -204,  1801,  -836,   133,  -109, -6494,    43,   462,   -387, -1485,    97,    39,    19,  -381,   352,  -587, // 4256
        35,   795,   -74,  -118,   312,   393,   133, -2259,   1457,  -549,  -174,  -872,   -88,    -1,  -287,  -266,    1753,   993,  -252,    77,    17, -1452,   -67,  -636,   -213,   924, -1625,    -9,  -178,  -387,   180,   255, // 4288
        62,    70,  1351,   -83,   705,  -905,  -123,   196,   -307,  -617,  -135,   463,    99,   125,   571,  -292,     198,     2,    26,   -90,  -292,  1350, -2021,  1206,    -40,   103,    73,  -306, -2711,  -313,  -387,  1441, // 4320
    
    // Out channel 45
     -1676,   124,   -95,   129, -1076, -1000,    74, -1649,     41,    76,   146,   126,     5,  -268,   388,  -325,     -47,  -654,  -609,    -2, -1284,   118,   360,   204,   -153, -1102,   150,   -25,   350,  -185,   -50,  -207, // 4352
      -872,   296,   219, -1805, -1574,   312,   324,  -130,      4,  -148,   342,  -185,    23,    32,   418,   290,     197,  1604, -3190,  -984,   422,  -452,  -354,  -102,     56,  -272,   240, -1002,  -371,   860,    61,    37, // 4384
       -44,   -18,  -301, -1636,   587, -2131, -1263, -5917,  -1717,  -578,    79,  -813,    25,  -357,   285,   199,   -1446,  -117,    -6,   -87, -1107, -1516, -2041, -1971,   -628,   227,   -41,   127, -1627, -1581,   -66,   680, // 4416
    
    // Out channel 46
         6,   -35,  -515,    -7,  -239,  -298,    69,  -106,   -218, -1277,   -21,    -6,    38,   353,     2,  -314,   -2117, -2320, -1242,    20, -3513,     6,   325,  -424,   -251, -2780,   220,    83,   112,    43,   272,  -315, // 4448
       468,    32,  -200,   -92,   -88,   163,   195, -3302,    141,    28,  -390,    81,    24,    47, -1171,  -237,    -317,   373,  -259,   166,   218, -1220,  -614,  -219,     31,  -299,  -400,   -44,   251,   -67,  -520,   213, // 4480
        49,    47,  -146,  -190,  -180,  -496,  -359,   -53,  -1213,  -827,  -171, -1259, -1596, -4377,   177,  -294,   -2527,  -172,    76,  -103,   375,   -67, -2418,  -347,   -128,  -351,  -438,    28, -1133,    29,  -630,   544, // 4512
    
    // Out channel 47
      -371,    34,    58,  -569, -1225,   986,  -157,    -4,   -381,  -135,    -4,   -20,    35,   -57,   -48,   387,     149,   431,   210,    92,  -670,    55,  -304, -3176,   -219, -1461,   163,   199,  -414,  -319,   -78,   161, // 4544
       118,  -394,   123, -1300,  -874,  -387,  -113,   132,     77, -1565,   243, -1024,   -11,   128,   296,   -13,    -760, -4523, -1617,    46,   223,    -3,  -532,    59,    209,  -714, -1505,     4,  -639, -2076,    96,  -313, // 4576
        12,    80, -3159, -1733,  -350,   562,   -78,    47,     57,  -880,  -826,  -169,   167,    55, -1309, -2012,   -1108,    57,    52,  -298,    24,  -757,   169,    47,    445,  -315,    88,   100,   149,  -112,  -993,   767, // 4608
    
    // Out channel 48
      -170,  -113,   114,   263,    46,   280,   101,     2,    681,   771,   268,  -149,    17,  -185,   111,   280,    -757,   452,  -336,   -46,    30,     9,  -111,   473,     72,   385, -1298,   341,   338,   357,   372,   -19, // 4640
     -3651,   943,  -265,  -147,  -584,   217,  -103,   234,     44,   131,     9,  1820,   -35,   226,  -102,   893,     -53, -1537,  -421,  -273,  -423,   573,    33,    -7,     36,  -860,  -142,   -68,  2065, -1448, -2843,   -32, // 4672
       228,    61,  -317,  -601,  -590, -1979,  -889,   -36,    552,   160,   401,  -981, -4040,  -299,   923,   166,      22,    52,    97,   235,   -22,    27,  1552,  -630,  -2319,  -216,    69,    32,  -309,   282,   189,  1149, // 4704
    
    // Out channel 49
         7,   181,  -338,   209,  -159, -1569,   246,  -138,   -584,  -379,   -68,   177,    65,   122,   -31,  -357,   -1159,  -716,  -147,    30, -1085,  -139,  -337,    23,    118,   316,    62,  -468,  -102, -2305,   297,  -349, // 4736
       135,   536,  -232,   -18,   179,   144,   -70,   355,    299,    50,   248,   -94,    27, -1228,    90,  -213,      85,   142,  -123, -1620,   193,  -399,    82,  -261,  -2338,  -950,   153,    78,   601,    77,   -61,  -330, // 4768
      -102,    17,  2025,    24, -3916, -1764,  -500,   -77,   -415,   -81,   -31, -1252, -1707, -1148,   331,   -90,   -1206,  -851,    29,    58,   343,   108,   127, -2021,   -249,  -208, -1107, -4850,  -423,  -773, -2285, -1120, // 4800
    
    // Out channel 50
       182,    24,   168,   -83,  -342,   685,    59,   -80,    644,   215,   184,    83,    60,  -120,     8,  -331,      89,   210, -2315,  -142,    45,    -3,   232,    76,      8, -6244,  -698,   161,     2,  -443,  -199,  -170, // 4832
      -112,   149,   116,  -170,   -25,   118,   301,    68,    -44,    48,     3,   458,   -50,    69,  -403,   176,     744,  1398, -2859,  -532,    -8,  -283,   -15,  -110,    155,   183,     4,   -78,  -632,  1070, -2011,  -203, // 4864
        84,   106,  2208,   -80,    64,   450,  -230,  -528,  -1259,  -481,   164,  -375,  -585,  -614,   820, -1091,    -350, -1873,    76,   261,    96,   318, -1970,  -855,  -1402,   366, -1635,   -29, -1347,  -132,  -828,  2381, // 4896
    
    // Out channel 51
       -31,  -766,   295,  -576, -1518,  1421,     0,    50,    584,  -164,    59,  -589,     8,  -247,  -178,   -27,    -211,   315,  -186,   -89, -1776,  -817,   184,  -774,    342, -2596,   -19,   139, -4720,    79,    93,   -85, // 4928
      -578, -1538,  -339,  -383,  -539,  -234,   249,    27,     73,  -526,   -23, -2147,  -298,    84, -2590,  -159,   -1141, -1598,    88,   176,  -232,     1, -1366,    97,    105,     6, -1362,    15,   172,   358,    65,   285, // 4960
        16,   -28,  -461, -1931,  2570,   814, -1179,    67,   -112, -1118, -1026,   -46,    56,    20,    12,  -778,     684,   118,   -11,    -1,  -568, -2827,  -177,   -43,     82,   372,    42,   326,  -461, -1269,  -134,   319, // 4992
    
    // Out channel 52
      -251,    58,   627,   -15,    -1,    42,   -29,   -37,    413, -1039, -1587,    19,    23,  -133,  -275,   179,    -159,   122,   -58,   -77,   -35,   179,  -321,    -8,     -1,  1102,   436, -3192,   -10,  -255,  -285,  -801, // 5024
         0,  -163,   204,   -25,   590,   353,  -395, -1611,  -3033,   -76,   -56,   216,   -21, -1026,   165,    20,      45,   615,  -195,   876,    24,   -89,   -90,   140,   -448,   918,   107,   363, -1629,  -429, -1764,  -396, // 5056
     -1434,  -961, -1323,   -52, -2149,  -776,    45,   151,   -138,  -359,  -364,   384, -2399,  1186, -1263,  -418,     -36, -2942,  -145,   -39,  1330,  -176,  1139,  -686,   -605,   192,   553,  -443,  -158,  -208,   724, -2344, // 5088
    
    // Out channel 53
        42,  -606, -4504,    16,    73, -2270,    -8,   304,   -233,  -412,   682,  -194,   -25,    78,    46,    62,    -406,    68,   277,    -9,  -198,  -132,   -68,  -496,   -252, -1097,   101,    51,   -12,   -11,  -207, -3143, // 5120
       277, -1851,   320,    69, -1233,   145,   362,  -679,   1503,   242,   396,  -185,  -529,     6, -2300, -1262,     311,  1034,   547,  -999,    38,   457,   771, -2528,   -372,   -66,   -43,   -89,  -205,   846,   192,   202, // 5152
        95,    53,  1489,    79,  -217, -1892,   430,   779,     10,   272,    92,  -316,   714,   305,   166,   243,   -3661,    53,    -1,   110,  -148,   321,  -210, -1103,     60,   164,   -38, -1118,   767, -2093,   258,  1517, // 5184
    
    // Out channel 54
        36,   368,  -303,   378,   179,  -763,   233,  -172,  -2143,   -55,   187,   248,   106,   201,   302,   170,   -1418,  -555,   284,   223, -1509,    55,   128,   133,   -162,   317,  -105,   130,   181, -1144,  -109,   -89, // 5216
       -22, -1636,   380,    57,  -423,   346,   253,  -462,    254,    26,   -51,   359,   297,  -464, -1761,   -57,     405,   221, -1843, -1255,     8,   185, -1359,  -190,  -2862,  -744,   169,  -513,   477,   175,  -486,  -143, // 5248
         2,    25,  1422,     9, -3674,  -992,  -630, -1152,    428,    23,    33, -1397, -1361,   -37,   291,     5,   -1280, -1192,   204,   427,  -375,    20,   377,  -567,  -1735,   386,  -727, -3426,   185,   -43,  -680,   276, // 5280
    
    // Out channel 55
     -1576,   177,   161,  -804,   422,   636, -1846,    19,    552,   -45,   -89,   189,  -340,  -148,   329,   137,    -195,   305,  -381,    68,  -127,    54,   318, -2208,   -258,   -81,  -172,  -175,   209,  -648,   348,   133, // 5312
      -722,   -37,    31,   121, -1169,    67,  -328,    52,     65,    52,    32,  -902,   224,   -16,   254,  -135,    -412, -1775,  -304,     5,  -331,   174,  -403,     9,     -8,  -572,  -941,    23,  -829, -1178,   166,   126, // 5344
     -1375,   121, -3400,  -110,   504,   180,  -260,    23,  -1607, -1462,  -718,   -94,   245,    66, -1564, -1276,     151,    21,  -162, -2080,  -420,  -280,  -800,   -15,     70,  -143,  -250,    14,    81,  -311,   187,   704, // 5376
    
    // Out channel 56
       122,   -37,   472,  -130,  -209,   138,   -90,    89,  -1779, -1574, -1017,    21,    12,  -347,   291,  -228,   -1018,  1967,  -126,   -50,  -856, -3946,    71, -4308,    293, -1273, -3076,     0,   -17,    86,   322,   694, // 5408
       146,   528,   144,    12,   -10,   128,   -58,   883,    744,    24,  -268,  -941,   -28,   -34,   -47,  -481,   -2673, -1120,  1452,   731,    59,   -94,  -347,  -886,   -106,    56,  -275,   427,  -949,  1188,  -960,   247, // 5440
        56,   141,  -687,    38,   -63,   164,  -651,   -32,   -311,   -73,    63,  -429,    97,    48, -1207,  -264,    -146, -1312,   117, -1051,    58,    46,  -223,  1474,  -1904,   364, -1546,  -117,    26,  -686,  -769,  1175, // 5472
    
    // Out channel 57
        62, -2484,  -176,   -40,    69, -3662,    -5,  -343,     93,    63,  -544,  -292,  -127,  -193,  -370,   291,    -104,    32,   162,  -104,   924, -2614,  -262,    15,    259,   136,   101,  -385,    59,   -91,    11,   197, // 5504
       140, -1088,    92,    20,  1128,    27,   199,   691,    -34,   -74,  -155,   646, -2089,  -561,  -138,   -38,    -143,   327,  -185,  -193,   119,    94,   -58, -2291,   -185,   388,  -214,  -617,  -356,   449,    69,  -271, // 5536
       -18,    28, -1779,    70,    64,    32,   824,  -256,   1181,   877,    65,   -12,   149,   118,   423,   285,    -385, -2079,    42,    60,  -349,   227, -1243,  -484,   -323,   335,   134,  -129,  -203,  -165,   -22,   269, // 5568
    
    // Out channel 58
        50,    60,   402,   -52,    79,  1422,    -6, -1175,  -3939,    67,  -210,   209,    -9,   158,   392,   -35,   -1740,  -427,   287,  -837, -1766, -1145,   207,   107,      5, -1490, -3403, -2591,   100, -1161,  -171,  -310, // 5600
       -29,  -685,  -279,    29,  -442,   112,   388,   296,   -340,  -113,  -337,   -23,   106,  -339, -2709,  -873,   -2730,  1489,   375,   408,    64,  -201, -1994, -1260,    331, -1102,    49,  -432,  -309,   349,  -654,  -114, // 5632
       114,    46,  -796,    54,  -511,   -31,  -187,  -889,    -21,  -152,   109, -3016,  -106,   730,   450,  -650,     511,   -87,    33,   339,  -158,   172,   -78,  -804,  -1727,  -177,  -608, -1837,   507,   714,   183,  1547, // 5664
    
    // Out channel 59
       -23,   -90, -3524,   -56,    18, -1938,   -14,  -273,    330, -1261,  -207,    45,   505,   393,   -78,   -28,     -67,   446,   -48,    15,   -69,  -251,  -316,  -942,    -78, -1475,  -341,  -230,    50,   -80,   166, -2988, // 5696
       -46,  -452,  -330,    13,  -354,   -72,  -251, -2519,    350,   -50,   319,  -233,    -2,  -147,  -856,  -719,     135,   -67, -2948,  -321,   -28,  -285,   -33, -2477,    -63, -2217,   -95,  -868,  -482,   192, -1043,   386, // 5728
       124,    86,  1320,    15, -2971, -1754,  -803,  1208,    -93,  -234,   -59,  -521,  -735,   -37,   314,   451,   -5578,  -547,    61,  -810,    19,   -34,  -406,  -948,   -805,   205,  -868,  -109,    66, -2222,   159,    -9, // 5760
    
    // Out channel 60
        50,   194, -2554,  -288,   163, -2933,  -111,  -193,  -5696,  -336, -2947,    96,   -21,  -380,  -217,   272,    -927,  -520,   180,   225,  -610,   305,  -238,   150,    -18,   482,   205,   194,   198,   220,    72,  -134, // 5792
        -6,  -740,  -130,    41, -1500,   265,   201,  -957,   -118,   -14,  -239,  -412,   252,    27, -4140,    79,     -24,  1321,   685,   -81,  -192,   -83, -3370,  -852,     45, -1784,    81,  1210,   128,  1323,    95,   227, // 5824
        88,    33,  2046,    -8, -1482,  -391,   176, -1709,    671,     7,    66,   602,   -70,   106,   195,  1345,   -2337,    17,   -39,   302, -1700,   155,  1144,   236,    -73,    -2,   242,   194,   202,  -570,  -659,  1539, // 5856
    
    // Out channel 61
       -16,    81,   449,   -65,   -87, -1002,  -240,   154,  -2117,   538,   -90,    55,   -47,   229,   246,   292,   -2625, -4105,   142,    40,  -882,  -570,  -395, -1379,   -397,  -163,   242,   302,  -105,  -585,   -94,   502, // 5888
       319,  -438,   377,    26,   -83,  -201,   376,  -214,   -293,  -308,   -71, -1201,    73,    79,   -16,  -192,   -1610,   341, -2465,   354,   -25,  -763,  -641,   213,     40, -1716,   -13,    83,    -2,  -939,  -232,   340, // 5920
      -101,   108,  1828,    39,  -868,  -206,  -165,    62,   -657, -1308,   144,  -353,  -329, -1993, -1386,   -31,     -74,    98,    25,  -206,   -49,  -197,   100,  -124,   -635,   -67,   131,    73,   168,  -299, -1429,   834, // 5952
    
    // Out channel 62
       333,  -869,  -630,    23,    19,   786,    23,  -357,    237, -1074,   -41,  -644,    31,  -312,   142,   -60,     423,  -108,   153,  -474,   -14,   980,   388,   148,   -201,  1751,   723,    91,   121,   241,  -322,  -458, // 5984
       233,  1399,    63,   -50, -3734,   104,  -194,   181,     16,  -826,   177, -1705,   177,  -152,   -70,    23,   -1533,  1413,  2297,  1397,   112,  -990,   431,     4,   -174,   287,  -179,   373,  -764, -1403,   -10,  -153, // 6016
        87,    40,   356,    20,  -181,   556,  1674,  -199,    392,  -355,  -158,   -98,  -202,  -598,  1321, -1722,     527,   -32,   105,   214,    10,   998, -1550,   813,    176,  -173,   419,  -655, -1412, -6322,   511,   866, // 6048
    
    // Out channel 63
      -206,    -2,   319,    34, -2197,  -277,    49,    80,    604,   382,   793,    40,    49,  -261,  -124,   171,     -86,  -150, -1095,    46,   -85,    11,   -13,   292,    -39,  -208,   107,   226,   -33,   -82,  -159,  -264, // 6080
      1240,  -406,  -297, -1054, -1313,  -358,  -278,  -825,   -572,   221,   357, -1820,    72,   113,  -880,  -483,    1298, -4680,  -955,  -104,   157,   514,    79,   247,    130,    54,   -48,  -204,  -129, -1380,    74,   272, // 6112
        45,   -20, -2095,  -801,  -370,  -364, -1034,   -34,   1389,  -377, -3259,  -279,  -116,  -508,   406,   158,    -894,    50,    41,   134,   336,  -603,  -593, -2609,    111,   239,   219,    78,   887,  -115,  -579, -1233, // 6144
    
    
};

const int16_t cg_FC2bias[64] = { // Co,H,W,Ci: (64,)
     -2146, -4079, -3544, -2992,   960, -6867, -4167, -1047,    522,   -57,  -720,  -814,  1107,   686, -1147,  -768,     689,  -727,  2449,  1744,   527,  -984, -6362,  2198,    676,   290,   224, -6293,   459,    99,  -355, -3880, // 32
       635, -3428, -1503,  3211, -2561, -2565, -3650,  -365,    589,  -497,   187, -2171, -2078,  -563,  3192, -1215,   -3202,  -206,   152, -1286,  -986,  -900, -2404, -1140,  -2901, -5511, -2656,   596, -2219,  3519, -5613, -3184, // 64
    
};

const int16_t cg_FC3weit[2048] = { // Co,H,W,Ci: (32, 64)
    // Out channel 0
       291,  -227,   235,   351,  -247,   351,   101, -1119,    132,   733,  -904,  -353, -1985,  -466,  -697,  -871,     953,   552,  -432,   249,  -388,  -400,  -829,  -921,   -214, -1087,  -282, -3035,   623,   554,   262,  -284, // 32
      -206,    52,  -340,   -11,  -744,   396,    25,   -21,    170,   128,  1307,    16,  -270,  -980,  -247,  -581,    -498,  -850,  -177,  -498,    72,  -143, -1158,  -205,    483,   712,  1637,  -840,   158, -1032,   189,   277, // 64
    
    // Out channel 1
       741,   193,   -50,   126,    80,  -482,   481, -1031,    -80,  -476,  -124,    60,   232,   315, -2695,   129,     657, -1243,  -877,   699, -1856,  -596,  -414, -1816,  -1595,  -285,  -747, -1554,   691,   -93,   -33,   207, // 96
        -1,   143,   602,    20,   822, -2251,    73,    89,  -1336,  -714, -1123,    11,    19,   306,  -381, -2198,     498,   720,   -10, -3100,  -243,   -98,    -9, -1512,   -325, -3289, -1138, -1222,  -597,   143,   113,  -758, // 128
    
    // Out channel 2
     -1318,   335,  -117,  -139,    -3,    60,  1271,   130,   -390, -1229,   725,   145,  -276,   -91, -1252,  1018,   -1248,   345,   105,   148, -1175, -1160, -1838,   -32,  -1507,   807,   621,  -665,  -615, -1128,  -159, -1330, // 160
      -403,   122,   -61,  -183,  2058,  -775,  -671,     0,  -1111,  -165, -2770,   100, -1119,   413,  -293,  -207,     950, -1149,  -471,   303,  -247,     9, -1047, -1211,  -1447, -1333,   501,   566,   514,    58, -1160,  -429, // 192
    
    // Out channel 3
       719,   200,   105,   -55,  -510,   883, -1794,  -974,     28,   904, -1242,   285,  -927,  -168,    26, -2036,     235,   320,   -22,  -789,   -58,   373,   789,  -197,   -152, -2561,  -922,  1309,   289,   -31,   -71,  -780, // 224
       405,   -17,   229,  -448, -1289,   344,   159,   -66,   -266, -1476,   887,   256,  -790,    27,    56,   460,      36, -1764,    61,   231,  1170,  -181, -1893,   495,    653,   233, -1715, -1679,  -762,    -5,    32,   -77, // 256
    
    // Out channel 4
      -138,  -337,  -223,  -148,  -179,  -335,   431,   691,    -61, -1207,   265,   370,    58,   166, -1393,   588,   -1070, -1486,  -623,  -152, -1206,  -305,   -33,   124,    213,  -158,  1078, -2180,  -825,  -545,   -65,   908, // 288
        65,   418,   212,  -312,   404,    90,   450,  -352,    444,   668,   -36,  -127,   375,    22,  -152,  -850,    -365,  -582,   901, -1554,   176,   162,  -346, -2362,    343,   700,   -57,  1445,   290,   745,   462,     7, // 320
    
    // Out channel 5
       953, -2007,  -424,  -166,  -203,    94, -1804,  -971,    -98,   -65,   164,   225, -1526,  -449,   250, -2389,     792,   161,   542,  -340,    73,   708,  -221,  -131,    -98, -3629, -1514,  -255,   681,   175,   -29, -1470, // 352
        67,    12,   286,  -228, -2152,  -215,  -193,    28,   -424, -1105,  -921,    58,  -879, -2518,   396,  -390,    -724, -1281, -1154,  -226,  -930,  -620, -2638,   182,    211,  -287, -2304, -2771,  -250,   120,  -171,   215, // 384
    
    // Out channel 6
       639,   609,  -131,  -339,  -633,   109, -1754, -2075,    119,   676,  -103,  -132,  -479,  -319,  1277, -1369,     787,  -241,  -726,    54,  1789,  1064,    60,  -243,    692,  -761,  -985,  -475,  -187,   247,    30,  -535, // 416
     -1012,   191,  -700,     1,  -431,  -141,  -244,   143,  -2754,  -730,   843,    66,   501,  -997, -1896,   204,    -840, -1391,  -155,    65,   113,   456, -1551,  1412,     37,    11,  -994,  -183,  -481,    44,    95,   117, // 448
    
    // Out channel 7
       901,   464,    -4,   384,  -163,   454, -2629, -1661,     24,   531, -2693,  1668,    29,    74,   881,  -881,     402,   214,  -251,  -505,  -735,  -296,   -85,   -18,   -659,  -284, -2524,  -609,   165,   235,   147,  -581, // 480
       -65,  -141,  -359,    74, -1026,  -720,   -69,    11,   -258, -2110,  -549,   512,   514,   456,   158,  -990,     -45,  -225,    38,  -745,   472,   -68,  -264,  1187,     -4,   749, -1805,  -778,  -143,   318,     3,  -722, // 512
    
    // Out channel 8
       862,  -173,     4,   272,   546,   407,  -609,  1214,    257, -2821,  1258,   174,   183,   520, -1417,  -264,   -2504,  -641,  -193,   -34, -1243,  -345,  -207,  -915,    -49,  -146,  -883,   402, -1676, -1396,   179,  -582, // 544
        95,   112,   146,   212,  -567,   339,   -61,  -730,   1795,    11, -1168,   -27,  -147,   362,   584,  -173,     322,   134,   483,   389,  -240,  -499,   242, -2869,    260,   534,  1148, -1953,  -421,  -292,  -167,  -193, // 576
    
    // Out channel 9
     -1263,    31, -1614,   193,  -149,    82,  -391,   920,  -1555, -1933,   781,  -476,  -526,    58, -1413,    99,   -1210,   689, -1484,   122,   842, -1458, -1234,   -54,  -1503, -1821,  -591, -1201,  -125,   209,  -838,    92, // 608
       163,   -50,   -57,  -946,   308, -1244,  -985,    29,   -574,  1132, -1683,   -52,   106,  -120,  -221,  -253,    -126, -1914,  -148,   -61,  -279,  -234,  -382, -2076,  -1090, -2036,  -626, -1049,    24, -2125,    90,   361, // 640
    
    // Out channel 10
      1240,   110,   -76,   -18, -1022,    55, -2206,   268,     73,  -824,   245,  -211, -1636,  -521,   472,  -800,    -254,   964,   768,  -409,   184,   192,   -88,  -412,   -693, -2344,     9,   -90,  -274,  -343,    79, -2117, // 672
       311,    88, -1232,   -12,  -134,   355,  -253,   -40,   -213,   555,  -270,   216, -1652,  -991,   367,   453,    -101, -1569,   168,     7,  -581,  -185,  -709,   457,    -82,  -388, -3144,  -168,    46,  -201,  -165,  -349, // 704
    
    // Out channel 11
      -957,  -239,     1,  -671,   -27,  -120,  -514,   -20,     58,   440,  -584,   -36,  -123,  -339,    46,  -360,    -568,  -267,  1124,   626,   179,  -504,   659,    97,   -458,    25,  -536,   307,  -273,  -174,     0,  -425, // 736
        90,   238,    59,  -898,   -36,    73,    24,   -87,    -33,  -431,   385,  -247,  -391,  -414,   138,   629,    -111,  -156,   -59,   -59,  -462,   -46,   425,   293,   -244,   889,   662,    53,  -349,  -289,    25,   322, // 768
    
    // Out channel 12
        12,  -173,   -94,  -169,   -19,  -566, -1455,  -928,     83,  -288,  -260, -1517, -1038,  -503,   896, -2039,     256,  1403,   275,  -785,    55,  1007,   -91,    18,    135, -3030,  -497,  1121,   358,  -964,   121, -1914, // 800
      -222,   -13,  -300,   702,  -304,     3,   -50,   167,  -2162,     6,   224,  -198,   266, -3071,   473,    31,     -97, -2540,  -479,   484, -1209,     1,   -72,  1034,   -168,  -549,   248, -2068,   297,  -412,    13,    75, // 832
    
    // Out channel 13
       239,   156,    23,   111,    32,   860,   290, -2017,     15,  1048, -1399,   863,   260,   322,  -995,  -712,     492,   -16, -1528,   347,  1903,  -495,   -76,   -79,     -7, -1045, -1102,   356,  -448,  -388,   259,  -121, // 864
      -550,    57,  -300,   362,  -342,    72,    19,   -64,  -2316,  -731,   -81,   204,  -445,   260,  -257, -1282,     109, -1032,   243,  -266,   553,   621,  -591,  -124,    742,  -597,  -173,   397,  -218,  -417,    -1,  -111, // 896
    
    // Out channel 14
      -445,  -697, -2076,  -680,   -48,   189, -1443,   -48,   -967,  -942,   451,   286,   813,   -84, -1053,  1674,   -1013,   185,  -223,  -222,   524, -1130, -1769,  -311,   -336,  1039,   -38,   151,  -841, -2140,  -728,  -323, // 928
      -335,  -931,   292,   238,   223,   -81, -1251,  -859,      1,  -144, -3225,   390,   269,    82,    -6, -1376,   -1348,   692,    12,  -141, -1146,   -21,   126, -1232,    105,  -156,  -307,  1502,   225,  -286,  -493,  -718, // 960
    
    // Out channel 15
      -215, -1392,    14,   -54, -1963,    87, -1075, -1218,     -1,   116,  -847,  -474,  -402,   -29,   113, -1329,     609,   887,  -844,  -683,    95,   -53,   204,  -270,     85, -1116, -1967,    98,   229,   -25,  -291,   561, // 992
     -1215,  -168, -1195,    49, -1308,   123,   -47,   -99,  -1007, -2003,   921,     8,   325,   -88,  -381,  -129,    -689, -1377,   -89,   670,   274,    45, -1806,  -858,    308,  1150,  -834, -1002,  -181,  -125,   164,  -153, // 1024
    
    // Out channel 16
      -155,   709,   158,  -726,   909, -1247,   531, -2508,    374, -1858, -2490,   664,  -263,    62, -1614,   197,   -1369,  -354,   781, -1255,  -787, -1088,    57,   151,  -2766,   -94, -1365,    57,   191,   291,   682,  -341, // 1056
       187,   138,   175,  -537,   337, -2320,    63,  -373,  -1769, -1384,  -929,    23,  -271,   357,   200,  -534,     340,    48,    83,   469,   726,  -785,   247, -2054,  -1353,  -575, -1700,   283,   526,   469,   350,  -235, // 1088
    
    // Out channel 17
       682,  -109, -1344,  -767,  -684,  -143,  -707,   257,     40,  -532,  1101,  -956,  -151,   -63, -2385,   830,   -1095, -1635,   297,  -268, -1340,  -836, -1924,  -406,    168,   372,   172, -1354,  -446,   134,     0,   -83, // 1120
       -17,   -48,   140,  -447, -1536,  -330, -1819,   -28,    622,   813,   832,   -56, -1923,   719,    41, -1771,     122,   858,   329, -1286,   261,  -345,   336, -1821,   -224, -1179,   971,   828,  -126,   292, -2109, -1454, // 1152
    
    // Out channel 18
        12,  -173,  -120, -1676,   -87,   131,   834,   346,  -1963,  -138,   496,   -76,   526,   118, -1277,    58,     320,  -807,   -12,  -359,    58,    70, -1607,  -117,     12,   376, -2249, -1077,   440,  -257, -2213,   376, // 1184
      -315, -3619,  -848,   450,   170,   282, -2201,  -636,    180,   788, -1141,   -89,   440, -1366,   -20, -1549,    -202,  -424,   970, -1274,  -230,     3,  -175, -1892,    622,  -593,   172,  -198,    -9,  -192,  -250,  -594, // 1216
    
    // Out channel 19
     -1903,  -187, -2272,   -72,  -420, -1364,  -140,  1082,     66,    -1,  -376,  -808,  -197,   -36, -2742,   127,    -698,  -995,  1243, -1423,   147,  -999, -1506,   237,    547,  -393,  1477, -1095,   138,   343,   246,    69, // 1248
       -91,    36,  -471,    88, -1161,   148, -1301,    67,    799,   488,  -212,  -446,  -177,   129,   805, -2483,    -318,    11,  -497, -1987,  -864,   221,  -308,  -528,    -44, -1171,   698,  -155,    -9,   248,   130, -1235, // 1280
    
    // Out channel 20
     -2513,   167,   -41,   144,   112, -1701,   444,  -167,    290,  -212,   181,  -587,   788,   -95,  -500,   644,   -1069,  -673,   128,   344,  -637, -1400, -2089,   195,  -1335,  -232,  -873, -2755,  -639,  -948,   265,  -237, // 1312
        86,    -2,   -39,  -979,  -673,  -414,   -24,  -272,    877,   220, -1636,  -505,   116,  1337,  -105, -1089,     509,   191,   104, -1690, -1313,     4,   344,  -593,  -1057, -1289,   317,  -393,   527,  -962,   -38, -1003, // 1344
    
    // Out channel 21
     -1430,  -561,   292,  -737,   519,  -940,   562,   647,     95, -1266,  -689,    56,  -522,   221, -2526,   716,    -811, -1869,   261,   410,   455, -1157,   161,  -307,   -544,    62,  1876, -1764, -1721,    95,   256,    86, // 1376
      -129,    35,    83, -1068,   337, -1150,  -762,    40,  -1223,   604, -1507,   -65,   130,  1138,   129,  -176,    -706, -1290, -1529, -1749, -1173,    76,  -280,  -880,   -668,  -567,  -223,    74,   379,    31,   360,  -410, // 1408
    
    // Out channel 22
      -548,  -135, -1635,  -582,   -66,  -873, -1203,  1500,     76, -1276,   309, -1376,   -15,   -13,   -94,  1503,   -1354,   385,  -983,   221,  -779, -1481,    -1,   238,   -561,   339,  1447,  -538,  -970, -1493,  -579,  -168, // 1440
       -84,  -929,  -820,    89,  -253,   167, -1626, -1611,   1073,   524, -1811, -1792,  -193,    36,  -597,  -804,   -1873,   248,  -316,   -76, -1225,   -15,   626,  -354,   -456,   220,  -333,  1203,   256,  -177,   -67,   195, // 1472
    
    // Out channel 23
      -765,   -54,  -250,  -346,   322,  -198,  1103,    48,    125,   -23,   330,   472,  -370,  -393,   103,  -112,     615,   122,   462,  -352,   299,    68,    20, -2075,   -693,  -348,  1445,  -529,   771,    -3,   166,   123, // 1504
      -254,    44,   168,  1024,  -387,    96,   375,    28,   -824,  -348,  -195,  -233,    97,  -521,  -727,    22,     284, -1643,  -474,   -44,  -287,   106, -1224,   165,     66,   990, -1449,  -377,    -4,   -59,   -45,  -112, // 1536
    
    // Out channel 24
      -318,  -317,    17, -1392,  -496,  -620,  -458, -3087,   -194, -1032, -2497,   -36,   402,    11,    94,   -78,    -566,   494, -1032,   -90,   854,   530,  -780,   -22,   -947,   -92, -2858,  1429,   103,   -63,  -682,  -318, // 1568
       119,  -170,   142,  -350,  -738,  -861,    16,  -396,  -1085, -1761, -1101,    16,  -733,  -482,  -230,  -180,    -119,   -83,   -55,   107,   129, -2836,  -162,   578,    208, -1142, -2058,   383, -1453,    24,   102,  -381, // 1600
    
    // Out channel 25
       424,   109,   128,   165,    66,   475,  -134,  -812,  -1423,  -916,  1022,   293,   282,   -28, -1431,  -735,   -1310, -1124,  -276,   353, -1107,  -447,   442,     9,   -767,    65,  -976, -1287,  -290,   640, -1023,   468, // 1632
       162,   -95,   123, -1346,  -327,   -14,   300,   -38,    546,   624,  -218,   -38,   121, -1009,  -192,  -400,     312,    60,  -444, -1533,   391,  -118,     1, -1239,  -1242,  -131,   151, -2121, -1972,   187,   488,  -844, // 1664
    
    // Out channel 26
       263,  -322,    37, -1352,  -204,   -47,   666,  -157,  -1521,  -412,   510,   555,   432,   524, -1541,   563,     -32,  -327,  -500,  1012,  -513,    75,   650,    47,    493,   -85,   815, -2098,  -606, -2301,  -880,  -209, // 1696
       157, -4168,  -188,   624,  -178,    41, -1235, -2788,   -154,  1084,  -239,   140,   178,  -150,   107, -1216,    -342,  -100,   353, -1238,  -397,   -47,  -307, -1998,     76,  -124,     6,   208,    32,   501,    57,  -632, // 1728
    
    // Out channel 27
      -620,   -53,  -399,  1124,   114,  -549,   982,   516,     33,  -578,   653,  -325,   149,  -509, -2496,   489,    -186,  -223,   -90,   821,   313,  -118,   153,   271,    -76,   168,   934,   -57,   268,   587,    18,  -896, // 1760
      -142,   210,  -279,   -19,   455,    96,  -400,    50,    -51,  1198, -1293,  -978,  -351,   647,   246,    38,    -121,   187,   -59,  -212, -1261,   -64,   308,  -994,   -484,  -316,   486,   631,   115,  -403,  -280,   292, // 1792
    
    // Out channel 28
      -298,   467,   694,   155,  -374,    48,   171,  -894,     81, -1229,   277,  -395,   273,   614, -1709,  2312,   -1574, -1742,  -406,   -69, -1471,  -415,   -12,    95,   -478,   901,  1383, -1085,  -548, -1083,  -415,   901, // 1824
       147,  -220,  -127, -1942,   790,  -354,  -141,   134,   1147,  1651, -1181,   494,  1010,   353,  -105,  -639,    -157,   142,   327, -1679,   559,    27,   364, -2115,    229,  -675,  2062,   839, -1422,   188, -1331,  -900, // 1856
    
    // Out channel 29
       -82,   272,  -403,    46,   135,   360,   896, -1179,   -275,    33, -2729,    66,  -204,  -118,   291,   234,    -276,  -269,    -4,  -169,  -867,  -397,  -485,  -897,   -801,  -327,  1053,  -961,  -214,   242,   389,  -239, // 1888
      -220,   558,  -504,  -727,   879,  -157,   -62,  -136,   -615,  1198, -1906,   288, -1368,   246,    54,  -172,    -468,  -524,  -428,  -874,  -463,    68,   635,   506,    396,  -601,   429,  -658,  -847,   -85, -1645,  -323, // 1920
    
    // Out channel 30
      -261,  -512,  -433,    20,  -953,   868, -1359,   667,   -137,  1342,  -870,   571, -1465,   531,   506, -1651,     678,  -294, -1479,  -289,   311,  -365,   -94,  -173,    334,  -552, -1043,    86,   538,   464,   254, -1529, // 1952
     -1370,    36,  -430,    53, -2013,   213,  -257,    65,   -316,  -200,  1025,   343,  -667,  -574, -2602,   211,    -220,  -301,  -884,    25,   723,  -170,  -916,  1169,    734,   925,  -334,  -843,  -504,   209,  -245,  -154, // 1984
    
    // Out channel 31
        31,   160,    67,   736,    85,  -225,  -553,   782,     73,  -168,   548,   -56,  -136,  -113,  -499,  -589,    -293,   -75,   278,   180,  -728,   157,    83,   146,     36,  -276,   204,  -122,    31,  -319,    77,   575, // 2016
      -163,   103,   227,  1023,  -610,   277,   132,  -144,   -218,  -754,   123,  -136,   -31, -1583, -3756,  -478,     202,    22,  -180,   234,  -337,    99,   343,  -303,    -13,  -357,  1364,   249,    68,   -55,   130,  -402, // 2048
    
    
};

const int16_t cg_FC3bias[32] = { // Co,H,W,Ci: (32,)
      2759,  2138,   982,   433,  -595,  2016,   155,  1363,    335,   713,  3181,  4775,  1720,    40,  1395,  1215,    -374,  1341,   925,   559,   802,   100,   626,  1758,   3400,  -586,   618,  2475,   612,   631,   721,  1115, // 32
    
};

const int16_t cg_FC4weit[320] = { // Co,H,W,Ci: (10, 32)
    // Out channel 0
        11,   -47,  -983, -1078,  -585,    860,     9,   273, -2344, -3469,    -223,  1130,  -291,   175,  -434,   -507, -1053,  -743,  -712, -3348, // 20
     -1535, -2013, -2138, -1629,    14,  -1637,   207, -1177,   148,  -286,     357,  -244,
    // Out channel 1
     -2778, -1608,  -310, -2375, -1544,   -219,  -747, -2598,  1782,   123,     591,   695,  -172,   282,   543,   -278, -3398,  -996,   938, -1352, // 52
     -1261,   268,   596,   518,   664,   -376,  1734,  1306,  -450,  -789,   -1344,  1292,
    // Out channel 2
       366,  1308,  1563,   256,   521,  -2761,  -892,  -114,   876,  4204,   -2251,  -968,  -567,   711,  2318,   -975,  -253,  1269,  2215,  1213, // 84
      -276,  1102,  2760,    59,   182,   1352,  -292,  1757,  1009,   719,   -1624,   359,
    // Out channel 3
       815,   987,   272, -1582,  -224,    689, -2779, -1098, -1008,  1035,    -965,   152,   727, -2097,   333,  -4061, -1299,   125,   596,   835, // 116
        65,   450,  1124,   134, -1356,   2809,   210, -1143,   214,  1925,    -653,   498,
    // Out channel 4
       240, -1590, -3202,  -528,    -4,   1150, -1069,   344,   341, -2149,     937,   -57,  1658,   131, -1186,   1723,   466, -2707, -3157,  1345, // 148
     -3112,  -514, -4689,   323,  -395,   -655,  -429, -1129,  -144,   -77,     889,  1550,
    // Out channel 5
       448,  -273,  1244,   682,    29,   1133, -2014,  1166,  -357, -4235,    1297,  -138,   678,  -890, -1646,  -1322,    18, -1613, -3785,  -101, // 180
      1251,   335, -5352,  1242,  1131,   -395, -1962,  -405, -1300,  1112,    -109,   719,
    // Out channel 6
      -292,   392, -2271,  -974, -3333,   1512,  -212,  -984,  -451,   -72,     -36,  1247, -1011,   -98, -2634,   -174, -1554,   137,   108, -1069, // 212
     -1491, -3459, -1018,  -967,   104,  -4977, -1457,    41, -3898,  -804,    1370,  1641,
    // Out channel 7
      2108,  1846,   603, -1279,   857,  -1599, -4071,   848,   185,  2753,    -242,   279, -2163,    47,   305,  -1842,  -739,  1546,  1705,  1931, // 244
       561,   264,   878,   349, -1512,    168,    81, -1134,   956,   947,    -483, -2574,
    // Out channel 8
      -847, -1186,     1, -3535,   527,  -2943, -1469,  -391,   279,  3688,      91,   429,  -483, -2885,   569,  -1116,  -735,  1545,   448,   929, // 276
       469,  -802,   350,    23,   282,  -2986,    19,  -348,  -922,  -151,   -3496,   770,
    // Out channel 9
       492,   384,  2333,  -536,  -470,   -377,   236,  -641, -1450,   -10,   -2096,   687, -1828,   108,  1273,   -107,  1160,  1410,  1188,   680, // 308
       315,  1006,  1581,  1722,  -559,    532,   -84,   381,  1337,   302,   -2063,  -681,
    
};

const int16_t cg_FC4bias[10] = { // Co,H,W,Ci: (10,)
      5125,  1168,  -134,  2080,  1679,    215,  3610,  1653,  2703,  1980,  
};

const int16_t cg_FC5weit[10] = { // Co,H,W,Ci: (1, 10)
    // Out channel 0
     -3487,  4665, -5350,  6735, -3527,  -1326, -4972,  3847,  4694,  2993,  
    
};

const int16_t cg_FC5bias[1] = { // Co,H,W,Ci: (1,)
     -6111,
};

