#include <stdint.h>
const int16_t cg_FC1weit[768] = { // Co,H,W,Ci: (96, 8)
    // Out channel 0
       371,    60,    42,   351,   121,   278,  -204,  -357, 
    // Out channel 1
       520, -1533,  -931,   481,   356,   395,   190,  -835, 
    // Out channel 2
       163,  -429,  -451,    91,    20,   -40,   463,  -188, 
    // Out channel 3
        37,     9,   -20,   -45,    18,   -41,   -56,    35, 
    // Out channel 4
       259,  -330,  -390,   299,   662,   -41, -4217,  -175, 
    // Out channel 5
         6,   -24,   -29,    20,   -51,   -50,    -7,   -19, 
    // Out channel 6
      -393,  -961,   212,   128,   139,   465,  -368,    18, 
    // Out channel 7
       167,  1210,  -566,    90,   570,    85, -1621,  -505, 
    // Out channel 8
      -473,  -287,   652,    38,  -472,    39,  -584,   362, 
    // Out channel 9
       -11,   -22,    -7,   -59,    52,    28,   -30,   -38, 
    // Out channel 10
       -79,   -55,   -21,   -75,    24,   -18,   -12,    22, 
    // Out channel 11
       204,    92,   -56,  -357,   421,   506,  -340,  -582, 
    // Out channel 12
       392,  -638, -1283,   407,   703,   232,  -505,  -560, 
    // Out channel 13
       821,  -959, -1324,   445,   236,   173,  -573,  -361, 
    // Out channel 14
      -174,   133,  -183,  -581,   549,   455,  -439,   159, 
    // Out channel 15
        45,   -25,   -67,   -54,     7,   -15,     3,    34, 
    // Out channel 16
       679, -1562,  -796,   222,  -247,   323,   613,   -12, 
    // Out channel 17
        70,  -145,   443,  -695, -1012,  -401,   182,   472, 
    // Out channel 18
      -894, -2609,   244,   873,   343,  -841,  -863,   465, 
    // Out channel 19
      -276,  -104,   447,   178,  -457,    88,  -128,   357, 
    // Out channel 20
      -183, -2154,   318,   446,  -405,   455,   422,   -29, 
    // Out channel 21
        10,   -36,   -43,    48,   -36,    17,   -11,   -42, 
    // Out channel 22
      -664,   818,   -92,   826,   547,  -362,    -1,  -399, 
    // Out channel 23
      -555,  -127,   735,  -106,    45,   810,  -150,  -490, 
    // Out channel 24
       479,  -807,  -885,   689,   619,  -178,  -306,  -456, 
    // Out channel 25
       -92,  -256,   159,  -404,  -100,  -442,    49,   665, 
    // Out channel 26
       752,  -959, -1249,   546,   -26,  -173,    64,   193, 
    // Out channel 27
       786, -1300,  -783,  -209,   273,   335,  -114,  -319, 
    // Out channel 28
       153,    59,    31,  -318,   206,   657,  -325,  -536, 
    // Out channel 29
       -27,     7,   -30,    14,   -48,     2,   -55,   -36, 
    // Out channel 30
       445,  -723,  -336,  -500,  -330,   408,   558,   311, 
    // Out channel 31
      -250,  -377,   -40,   291,   923,  -174,   487,   117, 
    // Out channel 32
       353,  -271,  -182,   356,  -527,  -310,   593,  -478, 
    // Out channel 33
        56,   753,  -295,  -805,  -209,   285,  -426,    39, 
    // Out channel 34
      -147,   -33,   142,   -90,    83,   122,   -94,   -31, 
    // Out channel 35
      -212,   -25,   470,   -76,   258,   769,    24,  -526, 
    // Out channel 36
      -352,  -940,   524,   170,    68,  -874,   502,   -85, 
    // Out channel 37
      -387, -3149,   -98,   915,  -170,  -497,   886,   219, 
    // Out channel 38
      -617,   790,   424,  -387,   587,    -9,  -930,    22, 
    // Out channel 39
       179,  -368,  -320,  -347,    69,   257,   217,   243, 
    // Out channel 40
       294,   376,  -473,   308,  -102,  -256, -1326, -1339, 
    // Out channel 41
        18,   -18,    -9,   -53,   -49,   -59,     8,   -28, 
    // Out channel 42
       436,  -638,   428,  -127,  -678,    64,   421,   239, 
    // Out channel 43
       459,  -657,    66,  -456,  -279,   645,  -473,   169, 
    // Out channel 44
       233,   131,   182,   114,   203,   288,   137,    95, 
    // Out channel 45
       -46,    38,   -38,   -59,    18,    51,   -35,   -44, 
    // Out channel 46
       366,  1046,  -944,   187,   509,   -47, -1966,  -217, 
    // Out channel 47
     -1323,   -53, -1526,   477,   562,  -217,  -650,   310, 
    // Out channel 48
      -569,  -791,   307,   366,   478,   468,   841,  -420, 
    // Out channel 49
       167,   -89,  -290,   841,    71,  -187,   302,  -424, 
    // Out channel 50
       672,   142, -1356,   393,   417,   -68, -1469,  -147, 
    // Out channel 51
      -345,  -588,   582,  -249,    15,  -217, -3110,   340, 
    // Out channel 52
        -6,   -16,   -30,    37,    -9,     9,   -22,   -56, 
    // Out channel 53
       142,   622,    73,  -992,  -762,    83,   179,   296, 
    // Out channel 54
       -34,   -41,   -20,    20,    -5,     1,   -50,    -9, 
    // Out channel 55
       -70,   -96,   -13,   -24,    35,   -73,    37,   -23, 
    // Out channel 56
      -358,   464,    51,  -513,   509,   176,   -66,   352, 
    // Out channel 57
      -278, -1247,    -5,   658,  -128,  -198,  1118,  -110, 
    // Out channel 58
       353,   189,  -495,   232,  -246,   340,   181,   -49, 
    // Out channel 59
      -164,  -304,   410,  -522,   218,   724,  -341,  -547, 
    // Out channel 60
      -139,   704,   181,   841,    14,   159,  -345,  -834, 
    // Out channel 61
       -53,    -6,  -114,    10,    59,    47,  -494,   -25, 
    // Out channel 62
      -376,  -321,   506,   103,  -315,   135,   167,   112, 
    // Out channel 63
       -60,   -28,   -52,   -22,    58,   -14,     9,   -58, 
    // Out channel 64
      -454,  -159,   453,   256,   283,   598,   279,  -610, 
    // Out channel 65
       467,  -410,  -661,   673,   396,   -78,   466,  -178, 
    // Out channel 66
      -727,   367,   615,    65,   545,   507,  -295,  -660, 
    // Out channel 67
       385, -3123,  -452,   622,     8,  -405,   277,     4, 
    // Out channel 68
       -47,   -48,    35,   -24,   -11,    -9,   -26,   -58, 
    // Out channel 69
       -50,    53,   -40,    31,   -43,   -22,     5,   -37, 
    // Out channel 70
       -29,   -21,   -47,   -42,    59,    17,   -42,   -46, 
    // Out channel 71
       -24,  -229,    62,    36,   -16,   -51,   -26,   -20, 
    // Out channel 72
         7,   -51,   -21,    16,    35,   -40,     5,   -57, 
    // Out channel 73
        20,   -77,    11,    13,   -87,  -105,   -30,   -83, 
    // Out channel 74
       406,   227,   -44,   364,  -579,   287,   160,  -276, 
    // Out channel 75
       -31,     5,    31,   -24,    26,   -34,   -15,   -31, 
    // Out channel 76
         5,   -45,   -61,   -35,   -26,   -41,    23,     6, 
    // Out channel 77
     -1352, -1393,  1615,  -869,   153,  -522, -1174,   402, 
    // Out channel 78
      -203,   168,   607,   278,  -454,  -178,  -806,   188, 
    // Out channel 79
      -252,   566,   137,   670,   415,   111,  -413,  -511, 
    // Out channel 80
      -259,   965,  -135,   236,   532,  -427, -4757,   484, 
    // Out channel 81
       -20,  -105,   -67,   -25,    16,   -27,    77,    28, 
    // Out channel 82
      -797, -1005,   324,   642,   305,  -727,   166,   223, 
    // Out channel 83
       -35,    14,   -64,    28,   -61,    35,    -1,   -39, 
    // Out channel 84
        47,  -406,   569,    74,   -37,  -135,  -624,   441, 
    // Out channel 85
       171,    82,   -61,    72,   -99,   -36,    13,  -125, 
    // Out channel 86
       368,  -390,   -67,  -287,    11,   561, -1387,  -367, 
    // Out channel 87
      -274, -1689,   541,   -93,   205,   395, -1794,  -156, 
    // Out channel 88
        11,   -26,    19,   -34,    54,   -64,   -46,   -35, 
    // Out channel 89
       326, -1235,  -124,   249,   -71,  -386,   852,  -882, 
    // Out channel 90
       -30,   259,  -433,   342,    10,  -400,    88,    55, 
    // Out channel 91
      -302,   191,   -20,   208,   800,   137,   -33,   -44, 
    // Out channel 92
       -62,    23,    25,   -34,    12,   -42,    31,   -53, 
    // Out channel 93
      -727, -2164,   335,   666,   159, -1021,  -475,   528, 
    // Out channel 94
       -60, -1151,  -320,   527,    80,   -68,  1465,  -509, 
    // Out channel 95
       359,  -351,   -28,    23,  -298,   209, -1315,  -773, 
    
};

const int16_t cg_FC1bias[96] = { // Co,H,W,Ci: (96,)
     -3050,   135,   892,  -131, -1204,     0, -1329,   154,   -199,   -20,   -86,  -125,   115,   -52, -2712,  -138,    -415,    62,  -341,  -743, -1331,   -20,   388, -1081,   -897,    15,   -94,    60,  -288,     0, -1473, -2773, // 32
      -226,    88,  -840, -2095,   114,    35,   -45,  -838,    160,   -20, -3754, -2037, -4316,   -97,   132,   151,   -1910, -1085,   103,    77,     0,    77,     0,   -29,  -2440,   -22, -1231,   -37, -1919,  -108,  -385,   -20, // 64
     -1655, -2054,  -702,  -287,     0,   -55,     0,  -250,      0,  -108, -2620,   -47,   -20,   117, -1227, -1645,    -892,  -171,    87,   -35, -3587, -1338,  -261, -1262,    -87,   295,   953, -3176,   -76,   161,  1036,   244, // 96
    
};

const int16_t cg_FC2weit[6144] = { // Co,H,W,Ci: (64, 96)
    // Out channel 0
      -150,  -114,  -850,   -57, -1616,   -55,    17,  -657,     19,   -61,   -13, -1571, -1347, -1337, -1760,    14,     125,   247,   128,   -22,   -76,   -30,   -93,   -13,   -837,  -217,   497,  -714, -1420,     3,   -52,  -334, // 32
      -776,   200,   -56,   -95,  -136,   905,   -84,  -467,   -417,    27,  -235,   515,   -31,   -70,  -766,   895,    -880, -1063, -1101,   -18,   -89,    25,    65,    52,  -1545,  -881,  -366,   -82,   542,   -94,   -70,    57, // 64
        -3,  -219,    70,  -163,     9,    51,   -41,    57,    -89,   -35,   409,   -32,   -61, -1165,   188,   177,   -1029,   -36,   -84,    60,   139,    43,   124,   -58,    -41,  -946,  -337,  -408,    69,    37, -1973, -1515, // 96
    
    // Out channel 1
       -58,    87,   -32,   -34,    63,   -13,  -111,    69,    -22,    93,   -54,   -43,    34,   -88,  -122,   -45,     -11,  -157,    33,    31,   -19,  -100,   -32,   -68,     92,   -95,   -62,   -58,   -79,    -8,   -75,   -10, // 128
       -12,    35,    52,   -32,   -58,  -106,   -29,   -43,     15,   -76,    25,    71,    -3,    69,   -26,   -81,      48,     3,   -42,   -48,    -5,   -12,    26,   -23,    -90,  -110,   -92,  -109,     8,    11,   -92,   -63, // 160
        63,    -1,    12,    24,   -85,     4,   -43,   -84,     99,     5,    -3,   -46,    26,   -45,   -42,   -70,     -13,    62,   -91,     5,    26,    -3,    35,    85,     49,   -93,    21,   -70,     5,   -56,   -93,     8, // 192
    
    // Out channel 2
      1020,   232,    11,   -55,   480,    54,  -489,    80,  -1894,   -41,   -79,   -56,   166,   169,  -231,    29,    -485,  -262,  -169, -1533, -1264,   -43,   133,  -116,    270, -1184,  -118,  -312,    27,   -61,   528,  -865, // 224
      -244,    -3,   -83,  -128, -1087, -1759,    14,   290,     72,   -53, -1628, -2333, -1101,   -35,    21,   700,   -1437,  -344,    15, -2404,    47,   107,   -65,  -121,     52,  -577,   -27,    36,  -236,    24, -2412,   -57, // 256
      -970,   225,    35,  -657,   -82,   -30,    49,   -59,     14,    -4,  -108,   -84,   -65, -2589,  -897,    59,       8,    28,  -928,     8,  -643,  -190,    18, -2356,     14,   401,    28,  -571,   -59,  -459,    -8,    -7, // 288
    
    // Out channel 3
      -765,  -122,    24,   -61, -1464,    20,   251, -1126,    -84,   -15,    86, -3172, -1042, -1712,  -697,    68,    -379,   211,  1162,   -54,   378,   -63,    19,  -230,   -476,   -77,  -224, -1845, -2602,   -71, -2428,  -178, // 320
        82,  -530,   -26,  -476,   -26,     7,  -280,  -143,   -385,    53,   128, -1106,  -181,    55, -1637,   309,     -69,    44, -2236,  -422,    36,   123,    36,    16,   -889,    52,  -289, -1315, -1010,  -129,    67,    25, // 352
       356, -1350,  -150,   259,    57,   -64,   -50,    67,    -34,   -26,  -558,   -70,    45,   605,  -139,  -782,   -2765,  -149,   -55,    72,  -123,   -47, -1124,   250,    -39,   -65,   133,  -520,   -48,  -607,     7,  -666, // 384
    
    // Out channel 4
      -403,   -43, -1349,    92,  -832,   -46,   135,  -534,    -81,   -89,   -24,  -524, -2512, -2013, -1977,   -69,    -195,  -130,   215,   -23,   -69,    61,  -557,  -882,   -627,    39, -3765, -2598, -1044,   -67, -2260,   233, // 416
     -1208,  -268,   -26,  -788,   199,  -328,   189,  -224,    180,   -75,  -739, -1277,   666,    61, -1287, -2512,   -1059, -1816, -2196,   350,   -40,    91,   -79,    47,   -705,  -134,  -112,   219,  -158,     8,   -81,   -78, // 448
     -1480,  -984,  -686,  -486,    48,   -49,    14,    16,      9,    59, -1097,    59,   -31,   273,   193,  -416,     362,    53,   211,     5,  -427,   -40,  -951,   101,      5,  -620, -1351,  -472,    -8,   959,  -294,  -587, // 480
    
    // Out channel 5
      -802,  -220,     5,    59, -1645,   -83,   359,  -628,   -276,   -37,    40, -1333, -1420, -3165,  -531,    11,      27,   201,   260,    35,   363,   -82,   -21,  -194,   -621,   -78, -1305, -2762, -1721,   -74,  -303,   152, // 512
      -386,   -91,   -85,  -293,   202,    -9,  -952,   -96,   1094,    63,  -590, -1573, -1516,    28, -1047, -1898,    -197,  -480, -1634,  -337,    15,   -27,    55,   -98,  -1191,    -8,   -64,  -702,  -774,   -89,    98,   102, // 544
        90, -1438,   -79,  -182,    36,   -30,   -15,    25,     23,    -8,  -703,    36,   -79,  2550,  -188,  -300,   -1602,   -14,    -8,    87,   134,   -71, -1199,    37,    -92,   168,    -3,  -703,   124,   538,     9,  -168, // 576
    
    // Out channel 6
       392,   -58,  -189,   -19,  -207,   -35, -3057,    18,   -226,    80,   -71,    88, -1077,   174,  -322,    24,    -488,  -971,  -220,  -894,  -534,   -39,  -386, -1715,   -786,   208,  -412,  1830,    63,    -1,  1191, -1577, // 608
     -4081,  -837,  -251,   180,  -200,  -151,   352,  -201,  -1605,    25, -1236, -1748,  -205,    28,    82,  -198,   -2119,   329,    19,   132,   -26,   307,   -88,     5,    269,  -205,    69,  -191,  -108,    88,  -353,   -41, // 640
      -894,   157, -1174,   477,    93,    77,   -81,   -27,    -79,    -8,   286,    44,    85,  1430, -1499,   301,   -2966,   -65,  1595,    78, -2703,   100,  -245,     7,    -74, -2372,  -113,  -352,  -118,  -625,   -75, -1181, // 672
    
    // Out channel 7
     -2312,  -311,   -34,    64,   716,   -69,   -56, -1175,   -414,    59,   -11,   703,   883,   615,   808,   -26,     -44, -1416,   581,  -307,  -781,    -1,  -440,   327,   -533,    23,   164,  -153,   459,    38,   322,   258, // 704
     -1567,  -267,   116,   267,  -110,  1348,   135,   248,    110,    44,   -34,   155,  -400,    59,  -266, -1735,     456, -2580,   -98,    32,    43, -1975,   -71,   -97,    884,   110,    11,   408,   -33,  -289,    84,    54, // 736
      -473,  -734,    44, -2400,   -34,   -65,    31,  -203,     21,    41, -2053,    25,    89,  -613,  -643, -3016,     323,   -63,   138,    87,  -863,  -144,   -26,    88,     23,  -736,    14,   778,   -14, -2014,    25,   143, // 768
    
    // Out channel 8
       118,   357, -2684,   -65,  -328,     8,  -113,   597,   -152,   -64,    57, -1369, -2996, -1504, -1077,    33,   -2963,  -988,  2021,   108,  -359,   -92,   -48,  -140,   -448,   277, -6480, -1468, -1818,   -59, -2017,    -1, // 800
     -2240,  -849,   178,   -86,   552,  -479,    -6, -1387,   -358,    91,  -466,  -875,    24,   -57, -1186, -2024,     225,    61, -2480,  -233,    70,   125,   -55,   112,    519,    28,  -646,  -150, -1248,   129,   110,   -95, // 832
        24,   110,   103, -2417,   -67,    -1,    84,  -123,    -11,   -17,  -995,    83,   -41, -2096,  -205,  -153,    1699,    65,    55,    36,    38,  -134,  -894,  -316,     44, -1535, -1565,  1756,    76,   582,    11,     2, // 864
    
    // Out channel 9
       179,   383,    83,    92,  1021,   -19, -2290,   -40,  -2152,   -98,    23,    36,   314,  -143,  -368,    46,     117,  -711,   272, -1891,  -189,    62,  -381, -1009,   1038, -1369,   402,   189,    74,    89,   -33, -1928, // 896
      -372,   759,   -82,  -963, -1198, -1369,  -306,   137,  -1867,    45,  -497,  -276, -1359,    19,   -70,  -328,    -191,   429,   324, -1954,   -15,  -579,    24,   -76,    -75,    -8,    28,  -798,  -692,    95, -1491,   -11, // 928
      -879,    70,  -150,   198,    23,   -43,   -81,   -32,    -39,   -15,   -22,   -93,  -100, -1711,  -489,   432,   -2995,   -62,  -483,    64, -1384,    30,    29, -1359,    -39,  -378,  -197, -1235,    78,  -261,   426,   -80, // 960
    
    // Out channel 10
      -331,   667,  -246,    26,  -295,   -40, -1356,    57,    170,    78,    -5,    29, -1793,   -10,  -342,    79,    -172,   176,  -233,  -100, -1269,   -59,   -23,  -186,      1,  -924,  -374,   -94,    70,   -32,  1607, -2124, // 992
      -649,  -216,  -315,    38,   251,  -831,  -238,   -90,  -2650,   -72,   256, -1489,  -161,    12,     8,  -710,    -904,   799,    82, -1583,   -95,  -463,    66,   -68,   -916,  -379,    47, -3418,   295,  -144,  -181,    16, // 1024
     -1017,   -63,  -992, -1035,    79,    28,    54,   -15,     78,    12,  -202,    17,    25,   -69,   -53,   377,   -1187,   -86,  -825,   -65,   689,   269,   326, -1304,     85, -1748,    77,  -449,   -88,  -205,  -277,   -98, // 1056
    
    // Out channel 11
       380,  -253,  -690,    81,  -122,     4,  -140,  -835,     69,   -70,   -18,   -51,  -803, -2993,   507,   -34,    -489, -1701,    15,    95,    -4,   -46,   -58,  -192,  -1273,   251,  -688,  -212,  -200,   -50,   903,   178, // 1088
     -2101, -1696,     3,  -720,  -487,  -226,   272,  -544,    -44,   -62,   -89,  -127,  -920,   -30, -2186,  -400,   -1010,   441, -2263,   152,    77, -1696,   -58,  -110,   1190,   -84, -1568,   293, -1320,    -8,    37,    95, // 1120
      -755,  -761,   250,   205,   -53,    24,    -5,   114,    -83,   -74,  -241,     6,    79, -5300,    87,    71,     559,    13,   -27,    16,   140,    89,   102,   218,     41, -1814,  -446, -1565,   -54,  -110,  -173,  -182, // 1152
    
    // Out channel 12
        46,   -26, -3677,   -36,  1264,   -61,   529,  -227,  -1156,    94,   -20,   176,  -362, -1600, -1004,   -17,     123,   258, -1000,  -278, -3182,    98,    70,   306,  -1733, -1220,   131,  -792,    65,    38,   394,   215, // 1184
      -856, -3046,   -21,    99,  -300,  -192,  -433,   -12,  -1133,    60, -1102,   -31,   -20,   -50,   -65,  -451,     -22,   755,  -136,  -388,    40,  -594,   -39,   -78,    135,  -662,    52,  -567,   292,   213, -1281,    76, // 1216
       173,    41,    67, -1030,    88,   -75,    13,  -102,    -51,  -100,   267,    48,    91,   -15, -1192,   164,    1711,   -35,  -547,    96,  -220,   -35,   -47, -1622,    -37,  -442, -1543,    25,    76,  -103, -1002,  -404, // 1248
    
    // Out channel 13
     -2022,   279,   -43,   -59,  1205,    33, -1207,   -10,  -2681,   -39,     1,    82,   591,   -37,   287,   -39,     148,   257,  -738, -1856,  -833,    50,    27, -1655,   1202, -1729,  -103,   -91,    20,    66,     3, -1311, // 1280
        40,   -15,  -140, -1446,  -999, -1805,   -37,   246,     41,    24, -1265,  -646, -1873,    37,   -21,   687,    -670,   586,  -141, -4256,   -55,    24,   -90,   -32,    380,  -600,   107,  -476,  -934,    75, -2420,    24, // 1312
      -947,  -663,  -659,  -380,   -43,   -52,    72,   -96,      8,   -11,  -893,    -2,   -22, -2917, -1875,  -520,    -929,   -59, -1418,  -108,  -314,  -109,  -181, -3960,     65,   236,   366,  -222,    22,  -859,   -38,   126, // 1344
    
    // Out channel 14
       128,   -11,  -166,   -60,   263,   -45,  -701,    16,   -447,   -91,    -6,   230,  -182,   -93, -1107,    44,      89,  -188, -1795,  -484,  -158,   -68,    40,  -485,   -521,  -878,  -178,    28,   164,   -66,   674,  -219, // 1376
        81,  -474,  -180,   -50,  -421,  -713, -1178,   362,  -1005,   -43,  -529,  -308,  -336,   -47,   -22, -1361,    -171,  -203,   -12,    69,    70, -1916,    50,   -32,  -1156,  -852,   -44,     6,   296,  -116,  -353,    30, // 1408
      -694,  -101,  -586,    37,   -69,   -36,    85,   110,     19,   162,   585,   -28,   -96,  -232,  -179,   -33,   -1695,   -24, -4189,    35, -2152,     4,   199,     8,    -64,    86,   -64, -1067,   -75, -2742,   -58,    66, // 1440
    
    // Out channel 15
        27,   408,   167,    42,   -89,   -41,    55,    27,  -1016,   -35,   -98,    83,   205,   352,   102,   -15,     -16,   -29,    70,  -455,  -148,   -91,   -40,   -85,   1680,  -533,   171,    10,    44,    21,   142,  -280, // 1472
      -246,   -14,    21,  -263,  -580,  -957,    45,    48,   -239,   -50, -1151,     2,  -687,   -47,   115,   -90,    -177,    96,    66,  -777,   -16,   188,    94,   -16,    125,   133,    62,    63,  -374,   149,  -393,   -57, // 1504
     -1243,   -56,     3,   285,   -27,    40,    21,   -53,     56,   -20,  -100,   -25,   -93, -1530,  -274,    41,      83,    39,  -261,    75, -2005,   109,     0,  -413,     27,  -560,   -52,  -948,   -93,   -69,   -24,   -59, // 1536
    
    // Out channel 16
       201,  -620,   -98,   -72,   649,    17,    22,   -22,   -381,   -39,    38,   149,  -251,  -640,   454,   121,      90,  -101,   -30,   102,   216,    18,    78,     1,  -1328,   193,   437,   -14,     2,   -92,    50,   169, // 1568
      -178,  -693,   113,    70,  -754,  -589,  -235,   -93,   -126,   -93,  -167,   197,   181,    54,    27,   307,    -162,   209,   -54, -3596,   -30, -1913,     3,     0,     35,  -232,   144,  -366,  -706,    20,  -141,    55, // 1600
        28,   493,   523,   120,    -2,   -44,    -9,  -158,     -3,    69,  -583,    65,    22,  -179,   289,   143,     228,   101,   -20,    67,  -112,   -16,  -354, -2376,     64,    98, -1029,   413,   -82,    93,  -304,  -507, // 1632
    
    // Out channel 17
        36,    14, -1354,    38,   689,    46,  -105,   -81,   -642,    -6,    66,   250, -1982,  1704,  -820,    79,    -114,  -254,  -939,   -72,    37,    21,  -811,  -124,   1575,  -241,   -98,   193,   154,     8,   469,    18, // 1664
     -1704,  -410,  -110,   173,  -863,  -714,  -868,    57,  -1345,    -6, -1618,   157,   275,   -44,   218,    38,    -110,  -336,    83,  -115,   -58,   498,   -64,    22,   -532,    33,    -6,  -287, -1055,   163,  -213,    17, // 1696
      -130,    84,  -276,    62,   -53,    49,    11,  -167,     35,   -25,  -292,   -63,    92,   146,  -570,   236,    -501,    27,  -611,    64,  -288,   -25,    -5,   269,      1, -2739, -1328,   313,    32,  -380,  -414,   387, // 1728
    
    // Out channel 18
       448,  -364,  -165,    11, -2321,    92,  -315,  -339,  -1533,    83,   -20,    52, -1033,  -196,  -494,   -63,     -78, -1031,  -351,  -198,  -435,   -91,     6,   142,  -4418, -1177,    42,   -64,    54,    10,  -343,  -268, // 1760
      -202,   -12,  -172,   -20,   271,  -544,  -743,  -159,  -1767,    98,  -238,    99,    61,   -98,  -618,  -121,    -124,   720, -1347,   -33,   -71,   -35,    48,   -61,    -87, -1276,    21, -1656,   402,   -81,  -244,    57, // 1792
       116,   -87,    33,    64,   -12,   -39,    13,    53,    -96,   -73,   581,    62,    88,  -124,   120,    32,    -792,   -80,  -493,   -15, -1068,   197,   547,  -788,     41,  -287,    88,   -74,   -85,  -198,  -262,   141, // 1824
    
    // Out channel 19
       638, -1725,   112,     9,  -880,   -77,  -226, -1539,    143,   -93,   -64,  -312, -3457, -2204, -1419,   -38,     -71, -1043,  -256,  -170,   -92,    85,    47,  -470,  -1145,   120,    72, -1513,  -537,    39,  -205,  -378, // 1856
     -1010,    11,   -72,  -658, -2792,   -32,   218,    59,   -361,     6, -1169,  -300,  -778,   -76, -2378,   207,    -275,  -342, -2073,   411,   -74,   -25,   -85,    54,   -579,   -59,  -320,    47,   308,    -8,  -189,    86, // 1888
     -1704,  -360,  -246,   441,    86,    -9,   -29,    21,    -54,    28,   353,    26,   -71,  -467,    49,  -221,     308,   -82,   627,   -29,   357,   -48,   -78,    20,    -46, -1858,   -64,  -271,   -42,   300,   -82, -1744, // 1920
    
    // Out channel 20
       950,   839,   126,    54,   403,   -13,  -369,   -60,  -1604,   -60,     8,    13,   174,   -67,  -551,    91,     -35, -1228,   265, -2433,  -813,   -37,    -9,  -334,    978,  -987,    50,    89,    14,   -92,  -479,  -210, // 1952
       -34,  -381,  -117,   -31,  -931, -1007,  -683,   369,  -1346,   -53,  -584, -1193,  -944,   -75,   -54,  -232,    -772,   126,   512, -1871,   -88,  -567,    27,    59,    176,   -16,   -20,   -37,  -964,   167, -2214,   -11, // 1984
      -783,    98,    -9,  -340,    12,    10,    65,  -194,     40,   -46,   -40,     2,    59, -1617, -1192,   114,   -1321,   -95,  -313,   -67,  -767,    18,   -69, -1310,    -26,   -65,  -327,  -135,   -34,    -4,    45,   -88, // 2016
    
    // Out channel 21
       134,   337,  -659,   -57,  -232,    51,   420,  -309,    179,    73,  -135,     6,    52,  -204,   -54,   -15,    -178,  -252,  -562,     2,   183,   -76,    16,   103,    316,    67,   -27,    23,   -53,    93,  -862,   -37, // 2048
      -684,  -471,   103,   360,   291,    95,   183,   -78,   -723,     9,   401,   245,   263,   -47,  -165,  -226,     212,    12,   -53,   344,     3,  -717,   -76,     2,   -161,   -76,   319,    79,    80,   -80,    76,    46, // 2080
       385,   154,   184,   119,    85,    25,   -87,    68,    -76,   -92,   -59,    18,    45,  -987,    -8,   318,     176,  -121,  -233,    98,   362,   117,    -5,  -269,     57, -1143,  -487,    17,   -23, -3068,  -184,  -137, // 2112
    
    // Out channel 22
      -207,  -112, -1316,    44,    62,    10,   192, -1039,   -410,   -53,    50,    -1,  -376,  -193,  -627,    65,     139,  -598,  -497,  -619,  -355,   -55, -1648,   -71,    -75,  -360,   185,   154,    57,    26,   -10,  -411, // 2144
     -1378, -2264,    83,  -144, -1001,   -31,    -7,    18,    -70,    20,  -133,   668,  -237,    54,  -203,  -430,    -819,  -821,   -46,   282,   -84,  -543,    -5,  -141,   -664, -1835,  -304,   417, -1231,   150,  -681,     2, // 2176
      -967,  -484,  -499, -1571,   -64,    67,    91,   -67,    -34,    70, -1068,    88,     1,  -874, -2698, -5058,     -94,   -62, -1683,    84, -1763,   -56,   280,  -119,     79,  -585, -1675, -1643,   -82, -2413,  -271, -2423, // 2208
    
    // Out channel 23
      -730,    21, -1692,   -21,  -443,    17,   829,  -401,     -1,     5,   -61, -2884,  -329,   -56,  -929,   -55,    -671,  -131,   481,    91,   401,    -1,   266,  -280,    -64,   728,  -672,  -779, -2474,   -88, -2314,  -212, // 2240
      -488, -3656,    31,  -496,   -54,  -104,   471,   -34,      3,    -5,  -173, -1859,   -16,    95,   -58,   -43,     935, -1375,   -18,  -125,   -67,   158,    69,   -77,  -1401,    21,  -432, -1107,    78,   -23,    97,     3, // 2272
       -84,  -623,   -27,  -820,    48,    52,    65,   -44,    -86,   -38,  -608,    32,   -77,   344,  -556,  -320,    -716,   -87,    -9,    13, -1434,   -90, -1711,   701,     48,  -326,  -914,    43,   -37,   202,    43,    -7, // 2304
    
    // Out channel 24
     -1284,  -964,    74,    72,  -828,   -83,    27,  -438,    262,   -76,    66, -1088,  -409,   205,     2,   -73,      18, -2465,  1357,   228,  -228,    92,  -120,  -213,   -442,    27,   241,  -125,  -994,   -84,   -21,   414, // 2336
     -1507,   -51,    -8, -1063,  -668,     9,    29,    68,   -473,   -33,  -236,   -21,  -244,   -37,    -9,   280,      -4,  -809,   113,    26,   -90,  -101,   -48,   -63,   -203,    23, -1205,  -317, -1149,    88,   100,   -41, // 2368
        -4,  -392,    -4, -1866,   -88,   -15,   -67,   -96,     77,    45,  -428,   -56,    53, -2477, -1842, -2388,     -74,     4,   -47,    96, -1432,  -169,  -936,   -38,    -96, -1682,    36,   471,   -24, -1064,    38,  -705, // 2400
    
    // Out channel 25
     -2441, -1148,  -307,    88,  -442,    73,   296, -1412,  -2521,   -31,    39,   141,   158, -1716,   957,    73,     -61,  -128,   -53,  -750, -1860,   -72,   -47,   225,   -269, -2440,   -15,   143,    32,     5,   448,   170, // 2432
      -166,  -191,   124,    84,  -171,   -48,   219,    93,   -102,    56,  -313,   161,   -53,     7,  -160,  -885,      24, -1759,  -194,  -593,   -72,  -358,    45,   -23,    127,  -450,    22,   350,  -645,    -5, -1281,    15, // 2464
      -112,  -177,     8,   -62,    20,   -33,   -98,    -9,    -95,    40,  -200,     7,   -45,   109,  -413,  -282,    -419,    25,  -675,   -99, -1042,  -242,   -93, -2313,     51,    37,  -766,   333,   -14,  -196,  -532,  -305, // 2496
    
    // Out channel 26
     -1589,    82,    36,   -34,   796,   -63,  -912,    85,  -1946,    27,    27,    48,  -101,   -58,   144,     3,      81,   -53,  -285, -2107,  -651,    78,   249, -1569,   -175, -1134,  -109,  -144,    83,    55,   808, -1261, // 2528
        82,  -169,  -306, -1331,  -755, -1099,  -274,   -65,     94,    29,  -805, -1821,  -150,   -88,    64,   924,    -418,   270,    42, -1839,    13,  -177,    25,   -94,    -21,  -351,   -23,  -913,   607,     3, -1571,    61, // 2560
      -819,   -40, -1769,   151,    85,    30,   -64,  -103,     51,   112,    94,    18,    67, -2276,  -995,  -183,    -778,    27,  -600,   -45,  -333,  -112,   -14, -1152,      8,    90,    20,  -472,  -108,  -358,     8,   260, // 2592
    
    // Out channel 27
      -144,   206,  -973,    30,   226,   -90,  -117,    88,   -568,    76,   -42,   117, -1112,  -687,  -556,   -54,     -24, -1045, -1162,  -347,   176,    53,  -251,    17,   -791,  -160,  -737,   201,   183,    36,  1353,  -849, // 2624
        20, -1745,  -147,   287,  -273,  -422, -2450,    97,  -3231,    76,    -4,  -182, -1445,   -32,    81,  -406,     339,    28,   -76,  -127,    64, -2250,   -43,   -72,   -712,  -324,   -51,   165,   341,  -187,  -188,    82, // 2656
       -94, -1170,  -212,    51,   -37,   102,   -68,   109,     38,     3,  -223,    48,   -27,  -453,  -271,  -375,   -1926,   -50, -1913,   -66,  -956,    15,    72,    34,    -88,  -188,  -107, -1549,   -59, -1410,   -12,   362, // 2688
    
    // Out channel 28
      -143,    41,  -638,    18,  -506,   -32,  -586,   -55,    234,   -16,    -7,   137, -1919,  -310, -1561,    19,    -611, -1298, -1213,  -103,  -158,   -89,  -249,     4,  -1921,   -36,  -753,  -212,    24,    87,   418,   844, // 2720
      -773,  -915,    23,  -217,  -660,   -62,  -669,  -262,   -206,    45,  -864,  -907,   -17,   -80,  -109,  -858,     -79,   255,  -488,   190,   -41, -3295,    93,   -74,    -60,   -54, -1451,   184,   -77,    -5,    -4,   -58, // 2752
      -211,  -210,  -178,  -391,    64,   -19,   -58,    37,     74,  -109,  -196,    13,    63, -1153,   179,   135,   -1453,   -66,   -39,    10,   -67,  -249,   143,   214,     84,  -679, -1654,   243,    50,  -479,   -68,   -82, // 2784
    
    // Out channel 29
     -1287, -1049,  -662,   -48, -1487,   -26,    80,  -887,  -1438,    92,   -27,    96,   808, -1763,  1060,   -59,     113,   704,   116,  -403, -1175,    57,  -227,   287,   -587, -1701,  -193,    35,    97,   -34,    80,   272, // 2816
      -146,   -66,    90,   236,  -223,    15,   352,   105,   -280,    17,  -126,    81,  -280,   -46,  -443, -1862,     289, -1093,  -643,  -911,   -74,   -86,   -14,    33,     86,  -412,     0,   304,   853,  -229,  -535,   -36, // 2848
       150,  -409,   150,     3,    60,    74,    29,  -159,    -67,   107,  -174,    76,    11,   658,   232, -1839,   -1753,   -83,  -466,    54,  -492,  -259,  -611, -3321,      5,  -358, -1055,   359,    59,   575,  -467,   -85, // 2880
    
    // Out channel 30
        63,  -503, -1093,    74,   409,   -42,   557,    16,  -1918,    43,   -42,    59, -2026,  -201, -1607,    50,     162,  -544, -2081,  -110,    76,    -2,    83,    96,  -1022,   -93,   198,   -86,    99,    99,  1048,   104, // 2912
       240, -1960,   -85,    89,   752, -2574, -1308,   581,  -3118,   -71,   844,    65,    78,    -4,   -97,  -790,    -131,   458,  -252,  -719,    -3, -1082,   -35,   -79,   -835, -3134,   -61,   718,   553,    33,   -70,    92, // 2944
       -72,    64,  -188,    34,   -44,   -48,    88,   -50,    -35,   129,   539,    68,   -43,   -77,   -34,   139,     393,   -17, -2112,    -2,   -17,   134,  -112,  -342,    -56,  -144,  -215,   472,   -23,  -473,  -841,  1108, // 2976
    
    // Out channel 31
        29,   732,  -586,     3,   203,    18,  -552,  -730,   -688,    95,  -156,   181,  -218,  -536,  -933,    64,     -27, -1313, -1344,  -539,  -100,    56,  -631,  -359,   -277,  -235,  -128,   166,   159,   -30,  1156,    25, // 3008
      -170, -1346,  -102,   -15, -3882,   -66, -1535,    38,  -1860,   -42,   196,  -169,  -241,    48,  -276,   -24,    -570,    84,  -417,   -13,    92,  -248,   -18,    13,  -1761,  -601,   -27,   -30,   -17,  -123,  -422,   -55, // 3040
      -551,   133,  -490,    85,    53,     9,   -22,    -7,     55,  -101,   562,   -85,    17,  -180,  -301,   -38,   -2149,    -8, -1586,   -33, -1400,   242,    73,    36,    -59,  -422, -1264,  -691,    59, -1546,  -106,   114, // 3072
    
    // Out channel 32
      -337, -1055,  -983,    48,  -341,    94,  -253,    11,    221,    96,     3,    35,   150,   554,  -750,    17,    -391,  -362, -1424,   164,  -231,    -6,    73,   223,   -837, -1156,  -143,   593,    99,    -5, -1027,  -848, // 3104
       883,  -181,  -105,   112,   251, -2284,  -352,  -693,  -1493,    69,  1521,   236,   -16,     7,     8,  -308,   -1591,   192,   231,   280,   -55,  -530,    42,    13,    -35, -1125,   418,   555,   487,   -50,   278,   -20, // 3136
       496,  -460,   193,  -614,    77,    24,   -20,   -58,     20,    53,   486,    39,     5, -2969,    39,   131,    -397,   -31,   824,   -36,   142,   -57,   414,    52,      3, -1624,   -48,  -838,   -30,  -664,  -731,  -489, // 3168
    
    // Out channel 33
       324,  1111,  -571,    36,   -71,    66,   504,  -384,   -410,    70,   -33,    19,    14,  -421,  -955,    -2,      49,  -200, -3351,  -362,  -636,    47,  -594,  -355,    269, -1867,   236,    36,   122,    53,  -135,     6, // 3200
     -1234, -1660,    30,  -212,  -824, -1140,   130,   204,   -828,   -25,  -140,   632,    -2,    76,  -128, -1237,    -380,   -39,   -69,  -110,   -37,  -729,   -74,    50,  -1344,  -290,   128,   -20,  -361,    73,  -847,    82, // 3232
      -582,   218,  -350,   252,   -16,   -24,   -11,   -98,    -41,  -156,    16,   -72,   -91,  -348,  -437,   -91,      75,  -100, -2360,   -28,   273,   174,    30,  -439,    -70,  -693, -1435,  -706,    43, -1540,   -94, -1405, // 3264
    
    // Out channel 34
      -522,    45,     9,   -16, -1529,    80,    -5,  -767,    -90,   -83,   -97, -1484, -1323, -2147,  -905,    69,    -100,   165,   688,   -27,   127,    42,  -122,   -77,   -577,    69,  -197, -1850, -1945,   -18,  -476,    29, // 3296
       -13,  -210,  -131,   -69,     7,   -47,   -83,  -106,    306,   -82,   -84,  -868,   -34,   -26, -1223,    32,     -21,  -240, -1709,  -249,     6,   169,    17,    20,   -625,    56,  -161,  -524,   -28,  -114,    -8,    10, // 3328
      -212, -1244,   -51,   120,   -89,   -30,   -17,    -5,    -21,   -81,  -213,    29,   -42,  1557,   -84,   -24,    -595,   -63,   -70,    85,   -38,   -67, -1579,    89,     55,    63,    18,  -202,   -79,   368,    14,  -339, // 3360
    
    // Out channel 35
      -737,  -195,   -13,    58, -1273,   -55,    28, -1131,   -174,    56,   -54, -1315, -2179, -2337,  -599,    49,     -64,  -625,   507,   -26,   300,    27,   -63,  -304,   -889,    61,  -113, -2501, -1396,    14,  -274,     1, // 3392
     -1297,   -93,  -127,  -354,   338,   -41,  -186,   -23,     24,   -14,   266,  -369,  -619,    10, -1357,    92,     244,  -810, -1913,   118,    35,    18,    11,    23,   -711,    10,   -81,  -459,   114,    70,   -23,     7, // 3424
       -17, -1223,   -79,   175,   -86,    38,    79,   139,    -30,   -86,  -501,   -76,    88,   242,   -57,  -212,     710,   -98,    22,    15,  -176,   -91,  -711,   177,     32,  -855,    95,   207,   -26,   144,   -39,  -506, // 3456
    
    // Out channel 36
        77,  -409, -2623,    10,   -32,   -59,   172, -1346,   -101,   -67,   -42,   156, -1286, -1600,   -41,    79,      52, -2284,  -449,     5,   115,    15,  -539,    87,  -1930,   206,  -882,    83,   257,    -7, -1454,   -83, // 3488
      -517,  -909,    25,  -321,  -763, -1050,   443, -1077,   -264,   -62,   290,   -19,   633,   -34, -1483,  -268,     -67,   -77, -2066,   201,    44, -2324,    47,    22,  -3646,  -365, -1762,   448,   372,   -81,     3,   -84, // 3520
       628,  -318,   -87,   -36,    39,   -52,   -13,     6,    -62,  -157,  -226,    49,   -34, -1552,   -50,  -367,   -1123,    64,  -287,    -6,   374,   -28,    15,   155,     59,  -696, -2460,   310,   -37, -1019,  -701,   -69, // 3552
    
    // Out channel 37
        94,   226,    55,    84,   367,   -81,   -54,    94,  -1514,    10,   -55,    14,    84,   -29,   147,   -96,     -68,   -24,  -768,  -193,  -334,    66,    35,   -50,   2296, -1265,   112,  -161,    49,    16,    61,    60, // 3584
        11,    53,   -43,    10,  -166, -1083,    96,    57,    313,    53,  -679,   -81, -1738,   -55,    51,   -13,    -633,   125,    99,  -956,    87,    43,   -52,   -77,    -24,  -236,    91,     0, -1105,    69,  -859,   -90, // 3616
      -576,   -28,     5,   156,   -96,    75,   -85,    20,    -26,     6,  -856,    38,     8, -2104,  -199,    63,     258,   -61, -1111,    72, -1586,   101,    69,  -743,     98,   154,    -6,  -350,    50,  -600,    -8,    53, // 3648
    
    // Out channel 38
       -53,   -41,   -51,    25,   -68,    36,    55,   -87,    -83,    19,   -11,  -113,    21,   -99,  -113,    91,     -77,   -94,   -71,  -107,   -44,    95,   -48,   -66,     53,    45,   -53,   -33,   -12,   -14,   -63,  -127, // 3680
        23,    39,   -13,     6,    57,   -21,    -1,    46,     16,   -30,   -56,    54,  -117,   -96,    16,   -63,     -36,   -50,   -15,   -17,    43,    17,    37,   -33,   -139,   -47,    64,  -126,   -37,   -93,     3,   -20, // 3712
      -148,   -99,   -22,   -70,    23,    30,   -30,    10,    -84,    15,   -45,   -58,    59,    54,    26,    10,      25,    11,  -101,    53,    43,   -16,    38,    55,   -103,    69,  -164,    66,   -89,     1,   -84,   -41, // 3744
    
    // Out channel 39
       223,   -36,   -24,   -93, -1496,   -88,   345,  -393,   -213,    -1,    -1, -4752,  -135,  -387,   -35,    78,     560,   716,  -509,    50,    93,    -8,   118,   366,     75, -2441, -2036,  -987, -3557,    45, -2268,    30, // 3776
      -303,  -310,    50,   292,   140,  -131,  -681, -2711,   -188,   -17,   572,   424,     7,   -33,  -250,    70,      58,   -75,  -303, -1292,   -89,  -428,    16,    64,    999,  -379, -2601, -2002,  -330,   -14,    22,   -84, // 3808
       360,   116,  -205,  1046,   -63,   -75,    60,    13,     64,    33,   253,   -90,     6,   -83,   480,   100,   -1211,   -77, -1809,    30,   110,   199, -3413,  -519,    -84, -1420,  -748,  -255,     7,  -804, -2564,  -533, // 3840
    
    // Out channel 40
     -1261, -1159,   134,    46,  -961,    23,   315,  -663,    182,    -6,   109, -1241, -1246, -1501,  -148,   105,     281,  -620,   -17,   287,    24,    28,   -29,  -150,   -259,     5,   525, -1776, -1691,     0,  -284,   130, // 3872
      -976,  -626,   -69, -1421,   -43,   -35,  -495,   160,   -112,    57,   160,    -3, -1672,    51,  -723,   157,     674, -2361,  -522,   942,   -11, -1941,    25,    84,   -962,   -33, -1825,  -254,   491,  -103,    35,    75, // 3904
      -154, -1530,   -27,  -166,    35,   -84,    -6,  -168,     73,    73,  -763,   -38,    72, -1270,   151,   -70,    -127,   116,   -32,   -83, -1215,  -103,  -694,   226,     -3,  -247,     5, -1391,    61,  -255,   -25,  -553, // 3936
    
    // Out channel 41
      -706,   344,  -217,  -102,    26,   -46,    70,  -527,  -1355,     1,   -69,    35,   783,   166,   838,   -16,      72,   114,  -700, -1377,  -381,    51,   -58, -1114,  -1038, -1108,   -20,   229,    44,     5,   659, -2184, // 3968
        93,  -637,  -241, -2483,  -172, -2000,    66,   163,   -679,   -99,   264,  -309,  -817,   -61,  -336,  -517,     305,     6,   152,    33,    60,   -56,   -27,   -22,    329,  -377,  -215,   130,  -586,    -9,  -365,    49, // 4000
     -1544,  -774,   -65,   140,    71,   -42,   -99,  -130,     46,    42,  -481,    81,    25,  -881,    87, -1198,   -1271,    17, -2033,   -96, -1499,   -55,   174,  -206,     -8,   -79, -1018,  -699,    26, -4744,    38,   125, // 4032
    
    // Out channel 42
      -574,  -143,    35,   -69, -1118,   -39,    16, -1068,    -67,    28,    50, -1158, -2081, -2369,  -748,   -32,    -380,   -27,  1023,   -49,   234,     5,   -49,  -938,   -418,   -33,  -298, -2699, -1744,    61, -1080,  -106, // 4064
      -154,  -125,   -16,  -353,    14,  -109,   -37,   -98,    -82,   -83,  -491,  -870,   721,   -41, -1441,  -163,     -86,  -202, -1964,   296,    22,   -16,    94,   -15,   -527,   -71,   -79,  -401,  -992,    51,   -44,    45, // 4096
     -1129, -1051,  -715,  -857,    34,   -98,   -23,    24,     85,  -120,  -851,    56,   -38,  -101,  -247,  -445,     -72,    17,    74,   -71,  -310,   -51, -1714,     9,    -36,   141,    -4,  -674,   -54,   238,    62,  -511, // 4128
    
    // Out channel 43
      -937, -1055,   113,    40,  -525,   -39,    85, -1677,    141,   -18,    59, -1392, -2284, -2101,  -886,    50,     265, -2848,  -346,    -4,    20,   -85, -1988,   162,   -661,   -14,  -292, -2095, -2799,   -73,    70,   -92, // 4160
     -1086,  -245,   -97,  -402,  -551,  -141,   -61,    24,   -210,    93,    56,  -197, -1065,    -3, -1752,   -34,    -351,  -798, -1180,    14,    79,  -521,   -81,    62,   -339,   -38, -1803,  -381,   -62,    30,    52,    55, // 4192
      -526,  -842,  -210,  -803,    62,     3,    42,   -37,    -98,    23,  -191,     8,    46,    -8, -1275, -1298,    -163,   -24,  -110,    48,  -871,   -39, -1884,   -54,    -60,  -923,  -118,  1852,     8,  -669,   -33,  -285, // 4224
    
    // Out channel 44
       -17,  -315,  -253,     5,  1303,   -40,   733,  -291,  -1926,   -90,    12,   229, -1749, -1470, -1663,   -41,    -553,    76, -1013,   279, -1421,    31,  -642,   142,  -1941, -1202,  -124,  -252,   112,    99,    98,   214, // 4256
        97,  -417,    66,    90,    25,  -338,  -176,   155,    -27,   -70,  -965,    54,    32,   -71,   233,    25,   -1060,  -779,   340, -2225,   -13,  -282,   -81,  -135,  -1536,  -600,   102,   242,  -386,    21,  -937,    40, // 4288
        48,    28,   -45,  -643,     6,   -71,   -33,   -36,    -94,    20, -1442,   -64,     1,   -89,  -768,   -36,     468,    70, -1283,    62,   526,  -158,   519, -2242,    -32,   -66,  -300,   487,   -31,  -152,   220,   -89, // 4320
    
    // Out channel 45
       174, -1054,   549,    17, -2000,   -58, -1382,   247,    906,     4,   -27,  -581,  -115, -1142,  -397,    12,     323,  -341,  -697,    95,     5,    19,   197,   -83,     14, -1701,   -76,  -235,  -382,   -82,  -468, -1241, // 4352
       647,  -226,    33,  -212,   211, -2335, -2110,  1235,    -71,   -71,   988,  -302,   430,    76,   130,  -183,   -2704,   209,  -387,  -201,   -21,   220,   -90,  -106,   -698, -1447,   278,  -613,   342,   -38,   106,    17, // 4384
      -849,   307,  -164,   366,    28,   -72,   -81,   -11,     36,    64,   633,   -63,    83,   -44,   460,  -119,    -483,    53, -1330,    73,   245,   238,    -5,   467,     -5,   441,  -566,  -681,  -111,  -267,  -247,  -154, // 4416
    
    // Out channel 46
     -1678,   808,   784,   -60,    72,   -27,   158,   -27,   -248,   -36,   -38,   348,  -196,   -16,  1346,   -39,      76, -1296,  -516,  -141, -1253,   -86,  -296,  -215,  -3976,  -195,   471,   515,   327,    64,   -29,  -422, // 4448
     -1999,  -686,   -18,  -200,  -258,  -770,   -95,   -64,   -795,    31,  -147,   347,  -763,   -61,   320,    91,      68,   -72,   145,  -365,    86, -1261,    27,    36,    360,     3,   132,   253,  -808,   -49,  -538,   -16, // 4480
      -185,  -508,   258,   312,    25,   -60,     7,   -37,     65,   -69, -2015,    11,    64,   132,  -312,  -874,     377,    27,   326,    88,  -298,   -91,   268, -1116,     59,  -816,   -27,  -291,    16,  -772,   114,  -648, // 4512
    
    // Out channel 47
        77,   336,  -405,    99, -3230,    77,  -554, -2230,    -70,    30,  -105,  -258,  -820, -2916,   -73,     3,   -2168,  -895, -1780,  -282, -1656,    28,  -153,   -47,  -2780, -1027, -2045,  -357,  -379,    59,  -237,  -684, // 4544
      -258,  -878,   -99,     1,  -237,  -582,  -357,  -713,  -1891,   -38,  -396,  -113,  -475,    92, -2616,   304,   -1103,  -240, -3024,  -163,   -84, -1592,    -1,   -91,   -767, -1268, -1215,  -129,   268,   -16,  -155,   -30, // 4576
      -472, -2123,   -55,  -200,   -35,   -63,    13,   -57,     -4,    37,  -215,    -3,   -63,  -287,   -41,    49,    -354,    48,  -858,   -81,  -281,  -186,  -289, -1777,     91,  -141,  -394,   -58,    42, -1524,   184,  -128, // 4608
    
    // Out channel 48
     -3354,  -411,    30,    68,   570,     9,  -750,    81,  -2124,   -18,    36,    47,  -183,  -253,  -108,    -4,     -87,   -17,  -985, -1343, -1347,   -74,    37,   -13,   3321, -1514,   -62,   -26,    31,    95,   752, -1215, // 4640
      -137,    51,   -19,  -376,  -893, -1672,   -62,    89,    575,   101,  -708, -1233, -1675,    49,   -69,  -419,    -334,   -79,    15, -3424,    39,    63,     9,    55,     21,  -370,  -144,  -185,  -200,    77, -2154,    88, // 4672
        52,  -665,    63,  -120,     3,   -25,    29,  -119,     38,    22,  -130,   -58,    99, -2452, -1155,  -387,     400,   -48, -1671,    47,  -100,  -232,    87, -2986,     83,   396,    35, -1005,   -56, -1385,     2,    98, // 4704
    
    // Out channel 49
      -898, -1571,  -127,   -84, -2013,    21,   111, -1496,    -99,   -66,    25, -1911, -1268, -2281, -1319,   -94,     414, -2514,  -485,   -13,  -292,   -36, -1506,   355,  -1121,   -10,  -228,  -777, -2005,    33,   370,  -312, // 4736
     -1144,  -327,  -138,  -463, -1343,  -288,   -10,   -22,   -113,   -84, -1006,  -398, -3370,    12,  -998,    49,    -369, -1736,  -352,   -67,    28,  -342,    80,   -46,     -9,  -277, -1876,   109,   243,    -4,    14,    -3, // 4768
     -1699,  -783,    77, -2648,   -87,    -7,    59,    -5,    -30,   -19,  -672,    94,   -32,  -580, -1119,  -157,     143,    -1,  -212,    28,  -383,   -99, -2658,   -24,     50,  -813,  -257,  -259,    35,  -682,  -177,   -55, // 4800
    
    // Out channel 50
      -627, -3837,  -925,    68,  -198,    50,    45, -1916,    -50,   -15,   110,  -378,  -572, -1095,  -199,    56,    -148, -2539,   342,    41,   -24,   -31,   -59,  -192,  -2468,    16,    33,  -317,  -357,    30,    21,    49, // 4832
      -713,  -958,    30,  -443, -2131, -2107,   110,    61,   -134,    93,  -801,    -5,   246,     4,  -486,   233,    -310, -3301,  -449,   123,   -45, -1363,    30,   -99,    206, -1277,  -158,    65, -2934,   -76,   145,    59, // 4864
      -855,  -595,  -128, -3367,   -82,   -47,    86,  -163,    -30,    84, -1583,   -31,     6, -5655,  -571,  -820,     -38,   -25,   141,    75,  -240,   -85,  -436,  -177,     30,   -65, -2067,  2339,    89, -1280, -2309,  -662, // 4896
    
    // Out channel 51
     -3889,   287, -1065,    45,   449,    45,     7, -2129,    -11,    69,   -82,   303,  -893,   254,   727,    26,    -272,  -830,     8,   -40,  -192,    28,   192,    65,    177,    84,  -486,   401,   146,   -10,  -322,   230, // 4928
       -29,  -845,   117,   387,  -342, -3155,   199,    37,     54,     8,  -647,  -313,    27,    80, -1575,  -768,     183, -2136, -1175,   694,    29,  -645,   -76,    49,     -3, -3030,    10,   270,  -284,   103,   128,    54, // 4960
       736,  -318,   546,  -307,   -78,    67,     3,    14,    -87,   -37,  -433,    41,    71, -1108,  -332,  -499,     -54,   -59, -1387,    49,  -827,  -210,   211,   511,     85,  -417,  -565,   783,   -79, -1726,  -326, -2422, // 4992
    
    // Out channel 52
        27,  -405,  -126,    45,   119,   -13,   280,  -525,   -105,   -93,   -44,    89,   225,  -734,   736,     8,     -37,  -397,  -271,    -7,   106,    16,   149,   350,   -931,  -119,  -169,   -19,   113,    76,  -258,    59, // 5024
      -603,  -410,    77,   201,   154,   -75,  -172,  -230,   -317,    60,   426,   314,   371,   -47,  -348,     5,     138,    52,  -354,   327,   -10,  -659,    62,   -15,     34,   -35,   120,   373,   113,     9,    -5,    75, // 5056
       263,   182,   250,    82,   -46,    61,    10,    42,    -25,   -97,  -209,    -2,    58,  -655,   -26,   171,    -299,   -70,  -893,   -90,   176,  -202,    25,   207,    -15,  -755,  -211,   343,   -39, -2705,    -2,   144, // 5088
    
    // Out channel 53
       -35,   -40,  -120,    64,   -36,   -73,   -20,    32,    -47,   -85,    84,  -113,   -78,   -32,   -69,    84,     -78,   -87,    19,   -14,    32,   -73,   -56,    73,    -84,    63,   -36,  -111,  -110,   -74,   -53,    33, // 5120
        67,   -70,   -42,   -14,   -12,   -92,  -110,    63,    -78,    35,   -67,    -5,   -94,    38,   -27,   -18,    -124,     4,    33,   -15,    21,   -49,    11,   -87,    -98,   -85,    34,  -104,     0,   -12,   -49,    55, // 5152
        58,    19,   -99,  -107,   -41,   -40,   -65,   -47,     14,    20,  -112,    98,   -67,   -16,   -78,   -67,      15,   -43,   -37,   -44,   -34,   -90,    -2,    30,    -89,    41,     7,   -34,   -66,   -61,   -13,   -48, // 5184
    
    // Out channel 54
      -306,  -137,  -211,    24,  -192,     5, -4125,   -77,   -420,   -98,    39,    14, -1255,  -247,  -272,   -65,    -863,  -943, -2538,  -356,    -1,   -59,  -512, -3936,     43,  -187,  -497,   -56,   103,   -38, -3964, -6011, // 5216
      -220,  -671,  -312, -2765,  -234,  -592, -2730,  -221,  -3342,   -48,  -782, -1478,   205,   -10,    -5, -1969,   -1896,   -39,   -35,  -119,   -16, -2177,   -77,    43,  -1009,  -140,   -72,  -564,   221,  -157,   -77,     5, // 5248
     -1870, -3484, -3234, -1240,    31,    68,   -15,    -8,    -19,   -52,   157,    12,    55, -1929,  -170,  -797,   -6213,   -69,    -4,   -45,  -589,    12,   -91,  -300,    -38, -1400,  -260,   -59,    19,  -413,   130,   120, // 5280
    
    // Out channel 55
        30,  -319,  -212,    29,  -169,    80,   292,    54,  -1807,    44,   -38,    12,   298,    -1, -1609,   -85,     229,   129, -6359, -1855,  -897,   -97,   -42,  -643,   -146,  -847,    -4,    99,    82,   -91,   561,  -465, // 5312
       -99,  -435,   -47,  -198,  -172, -1209,  -570,    95,  -1231,   -14,  -112,  -373,  -123,    -2,    20, -1560,    -276,   212,   -17,   170,    44, -1580,   -40,   -23,  -1221,  -519,   173,   133,   417,   -42, -1192,    -2, // 5344
      -609,   117,  -636,   152,   -82,   -40,   -64,    90,    -82,   -40,   -84,   -29,    27,  -105,   -96,    66,    -742,    61, -3893,   -51, -1651,   -18,   103,  -509,    -24,   106,  -226, -1108,     6, -4744,   -38,    84, // 5376
    
    // Out channel 56
       155,  -553,   -87,   -34,  -759,   -94,  -686,   -31,  -1753,    46,  -173,  -133,   294,  1384,  -850,    49,      53,  -551,  1370,   125,   333,    13,   134, -1405,  -1318, -1318,  -282,  -399,  -117,    24,  -143,  -342, // 5408
      -502,  -331,    66,  -198,  -143,  -491,  -795,   -45,  -2114,     5,   509,  -636,  -197,   -83,   -24,   415,      95,   519,  -311, -1664,   -53,  -248,   -29,    -5,    202,  -208,    -3,  -364,  -320,  -195,   -27,    21, // 5440
       -62,  -113,  -157,  -304,   -58,   107,    39,    12,    -36,    56,  -360,    73,   -55, -1266,   286,  -206,     331,    27,  -431,    61,  -952,  -134,  -296, -1375,    -64,    48,   -69,  -204,    67,   345,   288,  -460, // 5472
    
    // Out channel 57
     -3024,   416,   101,    26,     3,   -35,  -220,   111,   -165,   -45,     5,  -102,  1269,   433,   218,    56,     -80,   172, -1006,   -71,   129,   -56,  -203,  -670,    651, -2049,  -195,    34,   -51,    46,   593, -1539, // 5504
       378,  -567,  -168, -1016, -1443,  -900,   124,  -182,   -418,   -22, -1117, -1543,   133,    91,    21,  -722,    -402,  -534,  -133,   145,   -57,  -288,   -52,    23,    185,  -338,   540,    36, -1213,    57,  -137,    95, // 5536
      -630,  -577,     3,   676,    50,    32,   -84,    29,     49,   -82,   354,   -19,   -22, -2446, -2785, -2233,   -1638,   -17, -1690,    93, -1354,  -162,   310,   -25,    -73,  -489,    98,  -577,     2,  -744,    41,   -50, // 5568
    
    // Out channel 58
       643,   414,    19,    33, -1425,   -96,   105,   152,   -122,   -55,    -7, -2807,  1023,  -191,  -532,    -5,   -3003,  -299,   234,    -8,    20,   -49,    12,    57,   -407,  -658, -1487, -1094, -1998,    24, -2342,  -816, // 5600
       -17,  -267,  -310,    42,  -124,     0,  -673, -1481,   -670,   -17,   377,  -977,   -33,    20,  -190,  1140,    -322,  -410,  -209, -1977,    77,   -40,    81,   -28,   -816,    21,  -516, -1212,    -7,  -134,   -45,   -21, // 5632
      -533, -1112,   -65,    17,    57,    29,    91,    47,     77,    39,   191,    63,   -39, -1796,   -98,    32,    -153,   -62,   -82,    52,   161,  -107, -1440, -1388,    -18,   -83,    -4, -1114,    97,  -170,   -11,  -222, // 5664
    
    // Out channel 59
       -25,  -141,    14,   -85, -1477,   -66,  -145,  -391,    -42,    26,    -4,  -278, -1167, -2866,   -96,   -80,       2,    72,   524,   -20,   127,   -69,    79,  -893,  -1112,   -90, -2079, -2367,  -445,    90, -1130,   246, // 5696
       -68,  -177,   -16, -1579,    98,   -19,  -384,  -133,    813,   -79,   159,  -752, -1035,    68,  -931, -1997,    -168,  -160, -1454,   -99,    18,   -67,    -7,   168,   -650,   -60,   -93,   -12, -1158,  -262,    31,   -85, // 5728
      -304, -1037,  -279,    16,   -41,  -113,    80,    74,    -88,   -81,  -422,   -59,   -29,  2166,   -83, -1015,   -2111,   -29,   144,   -70,   283,  -110,   -96,    83,    -48,     3,    18,  -179,   113,   539,    48,  -251, // 5760
    
    // Out channel 60
       141,   894,  -254,   -25,  -231,   -27,    -8,  -833,   -297,   -85,   -96,     3,    76,  -173,  -490,     9,     179, -2016,  -856,  -175,   102,   -41,  -527,   292,    194,  -261,   291,    95,   -40,    46,   -80,  -248, // 5792
      -703, -1066,    77,  -171, -1140,  -414,   -18,   292,  -2716,   -52, -1028,  -105, -1963,    83,  -271,  -118,      -1,   461,  -132,  -108,   -23,  -583,   -68,   -11,   -416,   -27,  -354,     1,  -498,   -39,   -49,   -25, // 5824
      -922,   144,  -108,   111,    42,   -32,    50,    85,     61,    59,  -121,    21,    51,  -570,  -148,   154,     -52,   -14,  -536,   -30, -1544,   -36,   103,  -161,    -41,  -822, -3022, -2194,    49, -1362,    -3,    85, // 5856
    
    // Out channel 61
       -77,  -515,  -517,   -10,   171,    -8,   331, -2160,     60,    26,    67,    11,  -550, -2144,   951,   106,    -211, -1267,   -18,   167,   -37,    -9,    67,   240,  -1962,   157,  -856,   -86,   109,    51,    65,  -329, // 5888
      -458,  -537,    -9,   174,   -39, -3407,   107,  -115,   -332,     1,    17,   174,    71,    -4, -1846,   -62,     -38,  -141, -1940,   292,   -58,  -952,   -28,    -2,   -108,  -233,    58,   566,   292,    89,    -4,    -7, // 5920
       757,   -64,   281,   -40,    63,   -73,   -33,    78,    -95,   -31,   286,   -62,    74,   -71,   -63,   130,    -382,   -50,  -683,    98,  -260,    16,   334,   290,    -93,  -359,  -466,   165,   -42,  -877,  -131,    36, // 5952
    
    // Out channel 62
       401, -1101, -2766,   -53,   144,   -59,    45,  -872,   -110,    99,    23,  -124,  -248,  -671,    59,    54,    -169,  -494,   758,   -21,     5,   -62,   -94,  -100,  -1777,   514,  -470,  -168,  -133,   -60,   126,   139, // 5984
      -740, -1065,    -2,    -4, -1982, -1790,   115,     7,   -230,    18, -1001,   -25,    57,     4,  -473,  -347,     -52,  -628,  -792,    86,    27,  -559,   -91,     9,    264, -1382,  -386,   -61,  -386,    96,   -54,   -45, // 6016
      -260,  -319,  -102,  -907,   -14,   -46,    33,    -5,     -2,   -24, -1015,    42,    14,  -260,  -158,    71,     -32,   -51,  -100,    18,    20,   -11,  -164,   -21,    -61,  -284, -2671,   -21,    67,  -469, -1037, -2208, // 6048
    
    // Out channel 63
        67,  -311, -2233,    36,  -210,    89,   -77,  -215,   -181,   -14,   -62,    48,  -990, -1511,  -864,    -3,    -284,  -374,  -108,   -54,    16,    68,   -80,  -114,  -1243,   266, -1069,   -89,    37,    90, -1242,   -80, // 6080
      -624,  -699,   -66,    34, -1598,  -901,    83, -3459,   -206,   -29,  -224,    64,  -400,    23,  -364,  -723,    -816,    31,  -671,    41,    -9,  -464,    93,     5,  -4322,  -711, -2059,  -120,   177,     2,   -54,   -27, // 6112
       185,  -351,   -49,   123,   -98,   -60,    53,   123,     50,   -65,   -32,   -26,   -11, -1208,   133,   154,   -1489,   -11,  -148,   -50,   100,     9,    91,   142,    -82, -1164, -1728, -2270,   -93,  -320,  -812,  -177, // 6144
    
    
};

const int16_t cg_FC2bias[64] = { // Co,H,W,Ci: (64,)
       307,  -578,    16,   163,  -126,   452,  -910, -4229,   -934,  -924,   -41,   204, -1899,  -434,   428,  -386,   -1376, -1394,   -56,  -193,  -589,  -864,  1400, -1570,    292,   178,    44,   406,   777,  -614, -1959,  1057, // 32
     -1086,   562,   382,   311,   680,  -147,  -510, -1382,   -143,  -116,   578,  1036, -5340, -2651, -1742,  1223,       0,  1413,  1122,  -192,  -475,  -305,  1395,   191,    431,  -581,   528,   273,   351,  -103,  1245,  1150, // 64
    
};

const int16_t cg_FC3weit[2048] = { // Co,H,W,Ci: (32, 64)
    // Out channel 0
         3,  -122, -2789,  -227,  -474,   -69,    14,   -74,   -171, -2066, -1160,  -902,  -480, -2518,  -151, -1345,   -1261,    94,  -182,  -139, -2252, -1166,   -66,  -238,    -68,    94, -1650,   -96,  -197,   -88,  -202,  -125, // 32
      -181,  -163,  -151,   -88, -1168, -1898,    88, -1207,   -192,  -380,   -38,  -151,  -199,  -337,  -383,  -347,   -3007,  -609, -1217,  -541,  -764,   -24,  -476,  -409,   -203,  -671,   216,   -79,   -81, -1302,  -359, -1454, // 64
    
    // Out channel 1
     -1847,   -26,   -77,  -556,  -646,  -836,  -297,   236,   -489,  -121,  -856,    73,   130,    55,  -234,   -66,      -3,  -247,   -69,  -217,     9,   -27,   390,  -203,    -33,  -672,   -66,  -197,  -202, -1115,  -938,  -191, // 96
      -954,  -428,  -265,  -302,    14,    50,   -41,  1876,   -280,    18,  1900,  -908,     4,  -616,   438,    -3,     -75,  -256,   305,   254,   -24,    49,  -337,    -9,   -518,   118, -1406,  -876,  -251,    32,   331,  -304, // 128
    
    // Out channel 2
      -937,   -56,  -771, -2296, -1537, -2456,  -144,  -496,   -946,  -763,  -371, -2684,  -132,  -900,    11,  -799,    -598,   -31,  -173, -1771,  -905,  -740,  -116,  -780,  -2189,  -420,  -617,  -213, -1898,   -16,  -270,    34, // 160
      -141,   -15, -2232, -2182, -3373, -1181,  -109,  -275,  -1530,  -395, -2637, -1558,  -129,   -43,    32,  -512,    -853, -1359, -1478,  -579,  -442,   -72,  -841, -1606,    198,  -490,  -156, -2137,   -95, -1118, -1472, -1652, // 192
    
    // Out channel 3
      -427,  -114,  -857,  -254,   335,  -302,  -889,  -593,    102,  -653,  -116,   -84,  -525,  -995,  -455,  -675,    -662,  -336,  -163,  -263,  -974,  -682,  -259,  -110,   1452,  1145, -1145,  -677, -1014, -2400,   100,  -302, // 224
      -227,    57,   548,   184,   -39, -1181,    68,  -132,   -219,  -835,  -165,  -490,    75,   -65,  -575,  -194,    -815,   -41,   143,  -115,  -339,    92,   244,  -146,   -446, -1086,  -602,  -787,   386,  -243,   180,  -474, // 256
    
    // Out channel 4
      -486,    57,  -777, -1869, -1467, -1946,  -179,  -351,   -611,  -367,  -134,  -916,  -250,  -648,  -878,  -333,    -648,  -207,  -252, -1802,  -740,  -750,  -678,  -507,   -936,  -188,  -280,  -809,  -331,  -469,  -356,  -564, // 288
      -197,  -603, -1918, -1881,  -660,  -493,     2,  -389,   -859,  -768, -2319, -1580,  -277,  -141,   -84,  -265,    -850, -1232,  -967,  -889,  -880,  -119,  -590,  -322,     33,  -233,   132, -1842,  -631, -1051, -1094,  -500, // 320
    
    // Out channel 5
     -3307,    47, -1230,  -109,   790,  -263,   -25,  -770,     68, -1146,    -8,   -73,  -180,  -969, -2621, -1021,      35,  -211,    49,   226, -1306,   -44,    39,   147,   -605,  -214,  -810, -2008,  -182,  -420,    16, -2841, // 352
      -409,   -22,    -9,    86,   -24,  -637,   -71,  -277,    -81,  -362,   -57,    72,  -163,   119,   326,  -722,   -1145,  -281,  -231,    98,   -17,    12,  -233, -1655,    262,  -746,   205,   -30,   -56,    24,   678,   -71, // 384
    
    // Out channel 6
      -188,  -165, -3886,  -307, -1177,  -135,  -392, -1802,   -448, -2221, -1117, -1479, -2055, -3556,  -357, -3238,    -653,  -703,  -247,  -174, -3933,  -750,   -15,  -526,  -1295, -1798, -2978,    67, -1060,  -328,  -204,   -32, // 416
        16,  -104,  -140,   -79,  -723, -3816,    -4,  -240,  -1277, -1447,  -104, -1784,  -188,  -332,  -882,  -290,   -3664, -2629,  -361,  -411,  -504,    16,  -221, -2396,   -215,  -858, -1010,   -79,   -65,  -682,  -508, -1244, // 448
    
    // Out channel 7
       113,  -115,  -996,   -46,   375,   149,  -184,   563,    779, -1006,  -239,     6,  -457, -1588,    92,  -495,       8,  -603,   -59,   422, -1157,    -2,  -274,   552,    443,    88,  -818,    12,    17,   516,  -207,    71, // 480
      -105,    16,  -257,   331,   -19,  -408,    93,  -310,    246,  -216,   243,   890,  -421,   -77,   158,  1240,   -1162,   407,   135,  -174,   -14,    85,   158,   177,   -304,  -619,  -243,  -238,    52,   -93,    20,  -202, // 512
    
    // Out channel 8
      -569,    40,    42,  -519,  -261,  -940,  -521,  -176,   -488,   263,   615,  -511,   367,   156,   -83,   290,   -1946,   375,  -405,  -275,    82, -1991,  -901,   -81,   -489,  -393,   243,    97,  -207,   210,  -453,  -526, // 544
        40,  -337,  -809,  -609,  -840,   145,   -37,  -253,  -1066, -1003,  -275,  -102,  -416,   -24,   -57,   210,     153,  -496,   202,  -939, -1914,     7,  -329,    74,   -136,   -90,   970,  -752,  -282, -1367,  -731,  -287, // 576
    
    // Out channel 9
      -611,   -69,  -316,  -564,  -228,  -656,  -618,  -637,    234,  -530,   -43,   100,   351,  -132,  -405,  -557,     -72,  -502,  -145, -1367,   -96,   -15,   -79,   804,    301,     8,  -358,  1414,   115,   226,   -79,  -576, // 608
       630,   -33, -2098,  -786,    34,  -638,    -9,   250,    395,   -50, -1179,   698, -2019,  -808,  -184,  -398,      -6,   219,   159,   -29,   -30,    83,   690,  -116,     96,   511,   806, -2515,  -558,     8,   -20,    85, // 640
    
    // Out channel 10
     -1205,    53,  -411,   394, -2581,  -296,  -764,  -595,  -1140,   346,  -268, -1237,  -712,    -6,  -843,  -315,      74,  -813,  -644,  -537,   209,   -23, -1546,  -278,   -200,  1035,   553,  -516,  1127,   -56,   230,  -457, // 672
      -492,  -386,   101,   362,   -75,  -444,    38,  -211,    289,  -328,  -161, -1016,  -157,   219,   498,  -472,      -1, -1590,   124,    14,    -4,  -106,  -212,  -713,   -315,   -70,  -532,   382, -1612,     7,   112, -1027, // 704
    
    // Out channel 11
       354,    16, -2897,   581,   545,   260,   612,  -158,     -3, -3286, -1611,    74,    26, -2682, -1651, -3319,    -850,  -147,  -749,   269, -2581,  -687, -2038,   415,     47,    44, -2688, -2880,   403,   806, -1309, -3155, // 736
     -1974,  -470,   327,   135,  -686, -3183,   -15, -2009,    110, -1813,   212,   120,   -25,  -596,  -127,  1014,   -1997,   571,  -329, -1324,  -933,   -56,   497, -2409,    389, -2351,  1974,   253, -3368, -1084,  -103,   425, // 768
    
    // Out channel 12
      -158,   -15,   473,  -321,  -280,  -223,   647,    27,    115,   725,   187, -1476,   -97,   847,   111,   273,   -1437,   316,   115,  -119,   629,  -970,   596,    67,   -512,   -94,   214,  -332, -1291,  -365,  -426,   -96, // 800
       -52,    35,  -133,  -279, -1377,   312,   105,    72,   -508,   312,   -56,  -154,  -161,    30,   435,   226,     679,  -701,  -172,  -349, -1140,   -51,   255,   -28,    544,   263,   329,  -245,   -58, -1595,  -687, -1308, // 832
    
    // Out channel 13
       273,   -62,   -80, -1836, -1275, -1007,   449,  -155,    172,  -179,   275,   -74,  1126,  -100,   455,  -134,     -65,   160,    95,  -214,   112,    -4,  -251,   -92,   -210,  -113,  -109,    75,    49,   -15,   160,    66, // 864
       -14,   205,  -803,  -915,   -46,  -154,    42,   -68,   -117,   586, -1637,  -297,  3081,   364,   -31,   774,     -39,     7,   -98,  -173,    -9,  -101,   229,   496,    237,   233,   156, -1521,   321,   -95,   -85,  -174, // 896
    
    // Out channel 14
       -37,   146,  -126,  -421,  -496,  -251,  -250,   -63,    -76,   -78, -1010,   -23,  -207,   -46,  -234,  -339,      90,   -11,  -211,  -563,   -90,    12,   829,  -130,   -959,  -165,    51,  -812,  -442,  -419,   -53,  -763, // 928
       -94,   -18,  -463,  -211,  -798,  -361,    25,  -179,   -411,  -407,  -508,  -427,   -95,  -178,  -120,   166,    -113,  -299,  -570,   -60,    13,   -48, -1027,  -398,    193,  -134,    -4,   -87,   -62,  -178,  -315,  -640, // 960
    
    // Out channel 15
       137,    -7, -3326,   389,   -85,   108,   345,  -231,   -361, -1340,  -615,  -166,  -753, -2870, -1548, -1577,   -1199,  -261,  -500,    31, -2569, -1185, -1489,   174,   -146,    21, -1042, -1206,     5,    93, -1102, -1324, // 992
      -916, -2081,   284,   -28,  -307, -2323,   -49, -1615,    -28,  -933,    20,  -272,  -234,  -774,  -154,   -23,   -3676,  -180,  -252,  -746, -1742,    76,   450, -1703,    421, -1339,   753,   215, -1764,  -407,  -105,   -48, // 1024
    
    // Out channel 16
        19,   -80, -3008,  -596,  -609,  -372,  -402,  -116,    -70, -1867,  -963,  -689, -1872, -2634,  -644, -3935,    -452,   132,   -23, -1048, -3011,  -485,  -124,  -112,  -1350,   103, -2607,  -281,  -726,   103,  -210,  -412, // 1056
        56,   -90,  -336,  -942,  -315, -3506,    86,   -30,   -310, -2490,  -669,  -823,  -261,  -301,  -944,  -459,   -2800,  -202,   207,  -119,  -309,    41,   404, -1853,   -634, -2082, -1172,  -719,   -61,  -390,  -325,  -409, // 1088
    
    // Out channel 17
      -169,    76,   -98, -3478, -1940, -3252,    56, -1639,   -522,  -220,  -160,  -165,  -236,  -223,  -188,  -120,    -952,  -170,  -537, -2589,  -127,  -822, -1216,  -182,    -38,   -73,  -168,  -660,  -131,   -14,  -442, -1085, // 1120
      -135,  -765, -2856, -4743,  -195,  -100,    63, -1165,    -74,  -163, -4085, -1984,  -323,  -237,   -78,  -377,    -186,  -273,  -187,  -589, -1202,   -12,  -354,  -118,   -122,   -90,    36, -3361, -1173,  -349,  -102,  -165, // 1152
    
    // Out channel 18
      -917,    23,  -898,  -997,  -599,  -735,  -319,  -305,   -593, -1006,   -97,   -11, -1215,  -489,  -820,   193,     -17,   208,    33,   306,    15,  -128,   -53,   -40,   -226,   106,   127,  -145,    -9,   -69,  -544,  1211, // 1184
      -620,  -388,   -15,   340,   -32,  -348,   113,   396,     24,  -617,   452,  -292,   -79,  -558,    45,   -91,    -727,   -99,  -134,    48,  -144,   -17,  -127,  -400,    253,  -158,  -848,  -639,  -521,   -39,   -91,   -39, // 1216
    
    // Out channel 19
     -1258,   115, -1376,   447, -1002,   496,   129,  -448,   -934,  -611,  -568,  -594,   193,  -644,  -312,  -373,   -1718,  -110,    70,  -635,  -791,  -626,   136,   850,   -149,  -134,  -171,  -148,    84,  -950,  -403,   137, // 1248
      -327,   105,  -286,   104,   -56,   -99,   -94,  -158,    192,  -517, -1326,   663,  -786,  -345,  -622,  -655,    -452,   230,  -384,  -282,  -590,    19,  -230,    74,     18,   334,  -376, -2784,  1606,  -803,   306,  -262, // 1280
    
    // Out channel 20
       251,  -122, -1954,  -199, -1699,   -30,   121,  -280,    -11, -1649,  -103,  -458,  -901, -1747, -1645, -2212,    -546,  -264,   165, -2153, -2187,  -508, -1239,    25,    241,   249, -1304, -1685,   342,  -239,  -919, -1185, // 1312
       199, -1230,   -73,  -124, -2673, -2023,   -93, -1064,    302,  -816,   -82,    88,    46,  -684,  -318, -1671,   -1932,   -96, -2898, -1202,  -700,    -1,  -509,  -866,   -855, -1182,  -708,  -208, -2051, -2658,  -521,  -597, // 1344
    
    // Out channel 21
     -1270,     6, -3640,  -178,   588,  -116,   -87,   150,    354, -1906,  -235,   228,    -3, -3151, -4499, -3152,     -62,    24,  -571,  -596, -3176,   -38,    79,   -43,   -269,   122, -2600, -2026,  -153,  -673,     4, -2891, // 1376
      -834,  -227,   -49,   -28,   -29, -1885,   -67, -2579,    100, -1414,     2,   -57,  -288,   -88,   402, -1216,   -3266,  -150,   -44,    49,   -58,     4,  -605, -1540,   -296, -2829,  -529,  -152,  -430,   -35,  -787,  -213, // 1408
    
    // Out channel 22
      -692,   -27,   179, -2577, -3140, -3465,   -52,  -271,   -518,   337,   -32, -1552,  -264,   341,  -168,   173,   -1178,    47,  -140, -1948,   166, -1126,   -54,  -541,  -1320,   -16,   156,  -122,  -891,  -132,  -125,   -70, // 1440
       -18,  -128, -3220, -2993, -1161,   157,     1,  -175,   -984,  -121, -3430, -2427,  -269,   -40,   169,  -869,     246, -1310,  -712,  -638,  -811,    56,  -421,  -151,    141,    -2,   -44, -3618,  -160, -1186,  -649, -1552, // 1472
    
    // Out channel 23
        49,   107,   -41,  -279,  -315,  -506,   138,  -161,   -290,   -18,    -2,   -30,   -75,   185,   -28,  -118,    -436,   -64,  -186,  -352,  -209,  -359,  -242,    14,   -149,  -104,   101,  -140,   -16,   207,    13,    -1, // 1504
      -264,  -116,  -505,  -639,   108,    50,    99,   209,   -197,     5,    -8,   -80,   100,    83,  -103,   -26,     226,  -452,  -210,  -127,  -156,    33,  -292,  -128,    540,   132,    49,  -454,     8,   -34,   -80,   127, // 1536
    
    // Out channel 24
       -64,    10, -2208,  -384,  -301,  -488,   -46,   -27,   -254, -1250,  -420,  -560, -1094, -2028,  -775, -2202,    -400,  -204,  -161,  -275, -1838,  -564,  -467,  -188,   -505,  -208, -1973,  -479,  -241,  -811,  -297,  -553, // 1568
      -218,  -686,  -403,  -364,  -548, -2207,     8,   -77,   -152, -1208,  -443,  -280,  -217,  -366,  -486,  -222,   -2046,  -267,  -529,  -493,  -609,    37,  -310,  -940,   -120, -1241,  -800,  -492,  -492,  -705,  -691,  -333, // 1600
    
    // Out channel 25
       185,   -40, -1292,  -767,  1065, -1002,  -229,  -799,   -605,  -918,   -42,  -183,   175, -1692,  -904,  -157,    -128, -1307,  -863,   464, -1390,   -87,  -192,   130,   -703,  -998,  -932, -1017,  -356,   791,   -19,  -495, // 1632
     -1104,   -54,  -862,  -299,   -38,   -89,   105,  -329,     -2, -1823, -1391,  -165,  -405,  -343,   501,  -769,    -386,   136,   677,    17,     9,    77,  -827, -1080,   -923,  -962,  -169, -2109,    83,    35,  -302,  -471, // 1664
    
    // Out channel 26
      -103,   -38,  -299,  -622,  -546,  -573, -1242,  -161,   -237,  -310,  -178,  -165,  -233,  -192,  -773,  -575,      86,   128,    -5,    -5,  -309,   -76,  -263,   409,   -382,  -140,  -135,  -394,   164,    82,  -232,  -347, // 1696
      -345,  -567,  -669,     4,   -97,  -452,    81, -1603,   -393,  -771,   401,    61,   -72, -1012,  -149,   461,    -193,   567,    99,  -111,   -90,   -24,   706, -1119,    808, -1308,   784,  -109,  -595,   -78,    47,  1055, // 1728
    
    // Out channel 27
      -641,    50,  -381,  -217,  -186,   -99,  -451,   306,   -607,  -584,   721, -1582, -1301,  -635,  -306,  -382,     621,  -238,   656,   -22,   131,    13,  -768,  -294,   -274,   236,   145,  -320,  -653,   290,  -335,   130, // 1760
        67,   -45,  -289,  -462,  -402,  -582,   -49, -1216,    -21,  -412,  -353,  -106, -1842,  -236,  -111,  -304,    -539,   480,   432,   -71,    10,    21,  -205,  -343,   -561,  -674,  -886,  -139, -1003,   -23,  -623, -2229, // 1792
    
    // Out channel 28
       -91,     9,  -372,  -898,  -982,  -876,  -157,  -151,    372,  -107,  -168,  -374,  -604, -1320,    21,  -258,   -2341,   -63,    55,   -21,  -644, -2082, -2408,  -146,    316, -1404,  -483,   -11, -2343,   188,   -28,  -350, // 1824
        23,  -756,  -466,  -231, -2289,  -124,  -146,  -623,     45, -2564,  -837,   651,  -117,  -227,    10, -1261,   -1076,  -810,  -936,  -970, -1832,    62,   118,   286,   -273, -1236,   -81, -1381,  -861, -1149,  -216, -2119, // 1856
    
    // Out channel 29
      -931,   -81, -1144,  -691,  -214,  -474,   519,  -196,  -1098,  -423,  -696,  -760,  -283, -1246,  -899,  -301,     -19,   402,  -220,  -313,   171,   -23,  -237,  -112,     -3,  -711,  -728, -1059, -1272,    46,  -290,  -504, // 1888
        55,   361,  -436,  -419,   118,  -114,   -51,   467,    188,  -395,  -568,  -239, -1455,  -248,  -800,  -247,   -1061,  -153,  -425,  -780,   -63,    71,  -525,  -622,   -568,  -569, -1081,  -631,  -603,  -458, -2573,  -836, // 1920
    
    // Out channel 30
      -780,   -40,  -198, -2831, -2336, -3161,  -260,  -222,   -270,  -334, -1508,   -86,   -73,  -392, -1959,  -123,    -921,  -361,  -199,  -594, -1357,  -845, -1207,  -838,   -271,    97,   -66, -1184,    35,   126,  -801,  -939, // 1952
     -1072, -2030, -3944, -2328,  -284,  -145,    99, -1156,  -1623,  -176, -2802,  -704,  -272,   -86,  -267,  -564,    -324,  -438,  -245,  -670, -1318,   -41,   729, -2015,   -307,  -127,  -110, -3409, -1284,  -333,   -28,    52, // 1984
    
    // Out channel 31
      -374,  -120,  -102,  -108,  -211,   -53,  -159,   -75,   -139,     1,  -178,  -116,     7,  -108,  -226,    -5,    -485,    25,   -61,  -242,    44,  -128,  -213,    10,   -483,    14,  -122,   -90,  -133,   111,   -95,   -89, // 2016
       -50,  -227,  -304,   -55,    11,   -67,    69,     2,     21,  -137,  -335,  -277,  -203,  -136,   143,    48,    -243,  -268,  -561,   -85,  -384,    46,   -45,  -245,     19,  -175,  -173,  -228,  -161,  -354,  -566,  -117, // 2048
    
    
};

const int16_t cg_FC3bias[32] = { // Co,H,W,Ci: (32,)
      2871, -4185,   926, -3487,   700,  -745,  2217,  1554,  -2229, -1146, -3986, -4181, -4343,  1763, -3986,  2797,     734,  2179, -1060, -3626,   -21,  1151,  3229, -4383,    386,   -34, -2586, -4159,   657,    65,  1925,  -718, // 32
    
};

const int16_t cg_FC4weit[32] = { // Co,H,W,Ci: (1, 32)
    // Out channel 0
       398,   230,  -755,   188, -3928,    112,   391,   222,   254,   -71,     135,  -231,   198,  -240,  -869,    630,   266,  -361,  -114,  -223, // 20
       252,   102,  -722,  -155,  6454,    158,   147,  -171,  -192,   169,    -340,   214,
    
};

const int16_t cg_FC4bias[1] = { // Co,H,W,Ci: (1,)
      -234,
};

