#include <stdint.h>
const int16_t cg_FC1weit[768] = { // Co,H,W,Ci: (96, 8)
    // Out channel 0
      -303,  -382,   -27,  -229,   439,   632,  -155,   109, 
    // Out channel 1
       -42,   131,    58,    30,   129,  -156,   -72,   108, 
    // Out channel 2
       -15,   -60,   -34,    60,  -129,    10,    50,   -23, 
    // Out channel 3
     -1636, -3021,  1181,     2,   465,  -523, -2520,   532, 
    // Out channel 4
      -768,  -412,   218,   157,  1372,   192,   631,  -409, 
    // Out channel 5
        38,   -99,   -30,   -72,    34,   -38,   -88,   -28, 
    // Out channel 6
       569,  -207,   373,   372,    41,  -579,   279,  -636, 
    // Out channel 7
       693,  1403, -1009,  -103,   371,   -86, -2118,   -28, 
    // Out channel 8
        59,   -53,   -22,   -67,   -75,   -65,    40,    86, 
    // Out channel 9
        83,   -46,  -132,   -60,    41,   -48,   -22,   -48, 
    // Out channel 10
       750, -2168,  -591,   -74,  -325,   465,   317,    -4, 
    // Out channel 11
       368,  1322,  -743,   406,   820,    39, -2151,  -895, 
    // Out channel 12
       -16,  -431,   659,  -608,    22,   274,  -473,   659, 
    // Out channel 13
      -709,   247,   516,  -541,   337,  -992,  -310,   799, 
    // Out channel 14
        14,  -255,   363,   415,    52,   679,   187,  -292, 
    // Out channel 15
       890, -1589, -2092,   626,   445,   772,  -450,  -791, 
    // Out channel 16
       932, -1475, -1565,   461,   267,   662, -1596,  -744, 
    // Out channel 17
       217,  -215,   257,   278,    87,   485,   113,  -110, 
    // Out channel 18
      -853,   525,  -460,   487,   786,   475,  -899,  -590, 
    // Out channel 19
       308,  -394,  -785,   774,   963,   596,  -749, -1676, 
    // Out channel 20
      -773, -2342,   229,   583,   159, -1143,  1036,   770, 
    // Out channel 21
       265,    37,   329,  -567,   726,  -344,  -905,  -493, 
    // Out channel 22
       -99,   -40,   -59,   114,   -39,  -116,   -31,   -19, 
    // Out channel 23
      -848,  -622,   943,    18,   363,  -729,   444,   209, 
    // Out channel 24
      1341,  -787, -2188,   525,   363,   244,  -983,  -475, 
    // Out channel 25
      -649,  -455,   844,  -353,   542,  -568,   163,   172, 
    // Out channel 26
       -25,   -61,    77,  -122,    -9,   -14,   -53,    34, 
    // Out channel 27
       938,  -460, -1418,   448,  -326,   185,  -364,  -217, 
    // Out channel 28
       480,  -158,  -254,   429,   292,   354,  -204, -1470, 
    // Out channel 29
       193,  -810,    61,   134, -1146,  -923,   844,   573, 
    // Out channel 30
       706,  -322,   563,  -372,   395,  -332,   -66,   -69, 
    // Out channel 31
      -239,  -183,    63,   472,   860,   564,   456,  -640, 
    // Out channel 32
       415, -1134,  -171,    84,   625,    67, -3535,  -947, 
    // Out channel 33
       185,   307, -1210,   406,   535,   606, -1371,  -559, 
    // Out channel 34
      -336,   431,  -608,   514,   883,   342,   331,  -924, 
    // Out channel 35
     -1174,   448,   549,  1093,   510,   369,  -175,  -837, 
    // Out channel 36
       305,   326,   -98,  -735,  -970,    41,   495,   156, 
    // Out channel 37
      -109,   -64,   -67,    69,    11,   -39,    56,  -107, 
    // Out channel 38
      -126, -1717,   -51,   367,  -371,  -921,  1161,   921, 
    // Out channel 39
      -119,    60,   -71,    90,    27,   -40,  -107,   -22, 
    // Out channel 40
       -10, -1091,  -165,   202,   339, -1581,   355,   740, 
    // Out channel 41
      -742,   486,  -137,  1148,   592,  -525, -1166,   183, 
    // Out channel 42
      -348,   526,  -737,  -676,   482,   530,  -982,   263, 
    // Out channel 43
     -1163, -2272,   541,   263,   379, -1013,   909,   694, 
    // Out channel 44
      -375,    -1,  -326,  1207,  -139,   662,  -172,  -529, 
    // Out channel 45
       -49,    24,    -9,  -103,    80,  -106,   -77,    14, 
    // Out channel 46
       288,  1578,  -731,   256,   726,  -482, -1905,   138, 
    // Out channel 47
        -6,    63,  -108,   -53,    36,   -34,   -95,    -3, 
    // Out channel 48
      -271,   -80,  -538,  -113,  -161,   698,  -321,   340, 
    // Out channel 49
       -62,     7,     5,   -67,    62,   -62,    52,  -111, 
    // Out channel 50
       599,    21, -1006,   575,  1048,   199, -2219,  -989, 
    // Out channel 51
      -116,  -112,    17,    70,   -18,   -78,   -30,     4, 
    // Out channel 52
       -62,    62,   -97,    58,    32,   -68,   -94,    82, 
    // Out channel 53
       439,   490,  -686,  1300,  -442,  -166,   172,  -703, 
    // Out channel 54
      -753, -1135,   784,   842,   351,  -181,   335, -1129, 
    // Out channel 55
       -82,  -105,    -1,   -52,   -73,   -65,   103,    55, 
    // Out channel 56
     -1078, -1686,  1586,  -720,   -21,  -709, -3377,   934, 
    // Out channel 57
      -484,   787,   -86,  1214,  -383,   361, -1205,    83, 
    // Out channel 58
      -901,   434,   495,  1242,  -237,  -108,  -207,   -43, 
    // Out channel 59
       376,   579, -1085,   369,   217,  -666,   -47,    90, 
    // Out channel 60
      -362,   197,   149,    93,   922,   647,   159,  -522, 
    // Out channel 61
        -4,  -129,    54,   -31,   -63,     1,    40,   -76, 
    // Out channel 62
       431,  -244,  -305, -1433,   179,   405,   359,   271, 
    // Out channel 63
      -316, -4956,   465,    98,   503,  -581,  1348,   -64, 
    // Out channel 64
      -240, -1501,  -116,   496,   263, -1368,   844,   354, 
    // Out channel 65
       568,  1514, -1226,   147,   711,  -108, -2307,  -396, 
    // Out channel 66
      -610,  -104,   741,  -513,   878,   235,   -56,    82, 
    // Out channel 67
       -63,    64,  -103,     9,   -56,   -64,    41,    76, 
    // Out channel 68
     -1030,  -633,   974,   176,   108, -1010,    22,   650, 
    // Out channel 69
      -867,  -229,    79,   925,   995,   238,  1044, -1121, 
    // Out channel 70
       981, -1443,  -854,  -159,  -226,   880,    31,  -605, 
    // Out channel 71
       -62,    71,   -72,    35,   -85,   -91,  -104,   -31, 
    // Out channel 72
       -48,  -446,   189,  -246,   290,   697,    77,   123, 
    // Out channel 73
      -250,    54,  -120,   -78,  -358,  -226,   394,  -122, 
    // Out channel 74
     -1797, -1501,  1845, -1313,  -298,  -134,   103,   852, 
    // Out channel 75
       -23,  -119,   -82,     9,    48,  -105,   -52,    -3, 
    // Out channel 76
        91, -1238,  -928,  1026,  -158,  -527,  1545,  -220, 
    // Out channel 77
        -8,    -6,   -22,   -89,    78,    56,    54,   -99, 
    // Out channel 78
     -1021,   360,  -184,   634,   588,   248, -1645,  -287, 
    // Out channel 79
        30,    24,   -56,    12,  -115,  -123,   -38,  -101, 
    // Out channel 80
     -1095, -4876,  1157,   -42,   167,  -359,    71,   255, 
    // Out channel 81
     -1128, -1154,  1405,  -630,     5,  -782,   570,   792, 
    // Out channel 82
        37,  -791,  -652,   365,  -312,  -513,  1309,   -31, 
    // Out channel 83
      -441, -3787,   -27,   737,   609,   889, -2246,  -658, 
    // Out channel 84
        15,    10,    75,  -169,  -143,    20,    -4,  -132, 
    // Out channel 85
      -776, -1611,    56,   941,   202, -1077,  1081,   137, 
    // Out channel 86
       818,   442, -1265,   214,  -184,  -283,  -672,    91, 
    // Out channel 87
       271,    68,   -93,   983,   197,   -45,  -331,    -8, 
    // Out channel 88
      -724,  1262,  -673,  -118,   368,  -475,  -640,   368, 
    // Out channel 89
      -143,   -25,  -162,   817,  -791,   806,  -115,  -188, 
    // Out channel 90
      -678,   208,   448,  1159,   -84,   145,  -266,  -324, 
    // Out channel 91
      -460, -6816,   456,   323,   312,  -323,   716,    98, 
    // Out channel 92
      -134,   -16,   -22,  -100,    56,    95,   -93,   -48, 
    // Out channel 93
       -18,  -838,  -120,   163,  -105,   419,  -982,  -238, 
    // Out channel 94
       -75,   -83,  -115,    17,   -83,   -49,   -75,    73, 
    // Out channel 95
       162,   261,   -80,  -850,    60,   273,   489,   533, 
    
};

const int16_t cg_FC1bias[96] = { // Co,H,W,Ci: (96,)
     -3509, -1501,   -77,   286, -2391,   -63, -4750,   162,   -223,   -84,  -361,    25, -2706,  -347, -3484,   143,     220, -4026,    95,  -618,   180,    75,     0,    52,    194,    17,  -173,   783,  -829,   111, -5849, -3505, // 32
       158,   176,  -550, -1016,   -22,   -80,    14,   -82,   1077, -1166, -2139,    60, -1953,   -41, -1029,   -41,   -2590,   -41, -1558,     0,  -330,  -728,    72,  -223,    236, -3578, -1892,  1275, -3651,  -136,  -869,   226, // 64
      1238,   205, -2497,  -187,    84,  -129,    75,   -41,  -4281,  2289,    68,     0,  2075,  -227,    22,   -84,     230,     9,  2502, -2210,  -433,  1158,  1139, -3963,    516, -1672, -1969, -1143,  -148,  -614,  -115, -2838, // 96
    
};

const int16_t cg_FC2weit[6144] = { // Co,H,W,Ci: (64, 96)
    // Out channel 0
      -786,   -50,   -84,  -465,  -156,   -12, -1214,   -25,    -78,    97,    31,   -55,  -992,  -154,   -68,   -73,     174,   -77,   -32,     9,  -334,   -98,    44, -1334,     99, -1142,    10,   -35,   -81,  -357,  -926,   -23, // 32
       129,    -9,   -20,   270,  -202,    57,  -328,   -14,    -62,  -281,  -531,  -490,   238,    -8,   -24,    39,    -450,   -37,  -313,    72,   -44,   119,  -278,   -62,  -1766,  -317,  -510,    78,     2,    32,  -190,  -710, // 64
      -102,   -37,  -701,     3,  -988,    18,   -62,   -93,   -878,   -39, -1277,    31,     4,    38,     1,    85,    -920, -1853,   -63,  -408,    82,   -91,    13,  -151,    -64,    -9,  -731,  -933,     5,   133,   -71,   -12, // 96
    
    // Out channel 1
       184,   230,   -84,   -69, -1237,   -80, -2311,   -95,     77,    87,   134,  -182,    21,  -322,    22,  -454,    -459,   -48,  -470, -1659,  -113, -2746,   -79,     0,   -271,    55,    47,   -64, -1618, -1065, -2077,  1318, // 128
     -1133,    55,   -77,  -433, -1719,   -30,   -17,   -41,    161,  -749,  -987,   -66,  -707,   -90,  -134,    37,    -604,   -94, -2019,   -32,    -3, -1235, -1210,  -107,     27,   304,  1744,   -56,    -6,     7,  -271,  -136, // 160
         1,   -71,  -216,   -78,    41, -1157,   -19,   -76,    -67, -2351,  -533,    39, -1488,    81,  -609,   -12,    -191,    55,  -692,  1493,   -21,  -138,   -38,  -266,  -1562,    71,    -5, -1329,   -55,   196,   -33,  -390, // 192
    
    // Out channel 2
      -101,  -119,    83,   -74,  -152,    51, -1232,    -1,    -99,    15,   102,   -56,    35,  -200,  -607,   136,    -135,  -428,    -5,   -49,  -548,    85,   -92, -1606,   -115, -2040,    37,   -34,    -7,  -246,  -148, -1527, // 224
       -23,    23,    77,  -187,  -204,   -27,  -686,   -52,    -65,   135,  -165,  -990,  -470,    44,   -22,   -45,    -280,   -39,    88,    17,    51,    85,  -966,   -30,   -611,    25,    -6,    10,  -962,   -47,   -79, -3579, // 256
        38,    -9,   -33,   -35, -1316,  -496,   112,    13,   -286,   -55, -1682,   -39,    67,   -39,   -23,   -37,   -1673, -2404,    43,   208,   -86,   -69,    19,  -219,     42,    97,  -230, -2482,   -78,   100,    11,    -9, // 288
    
    // Out channel 3
       220,    -1,    67,   283,   223,    10,   389,  -219,     55,    28,  -626,   212,   -21,  -325,    -7,  -788,      61,    23, -1137,   314,  -111,    12,     7,     9,   -426,    38,    78,  -430,    65,  -986,   102,  -284, // 320
       -20, -1755,  -655,   196,  -830,    47,   -36,   -58,   -434,   952,  -181,    16,  -753,    86,  -529,    61,    -107,    86,   259,    23,   -17,   957,  -102,   -85,    -89,  -430,   477,  -641,  -282,   -85,  -309,  1503, // 352
      -593,  -307,   105,     6,   -99,    38, -1471,    -5,    102, -1295,   103,   -72,  -758,    25,  -200,    83,    1504,   -68,  -985,  -228,   -85,  -617,  -337,    69,   -421, -1454,   -58,  -324,   -31,   160,    -5,     6, // 384
    
    // Out channel 4
       -48,   -40,     4,   540,   -43,    27, -1555, -1041,    -94,   -53,   -86, -3324,    -2, -2221,   -33,   675,     159,   -77,  1370, -3832,   -39, -3097,   -58,    28,  -1070,    25,   -37, -1081,  -436,  -398, -1249,   -26, // 416
     -2588,   133,  -272,    50, -1482,   -94,     3,    -2,    440,   193,  -908,    -8,   611,   -90, -1494,   -44,     731,    95, -2095,    77,    -6, -3446, -1803,     3,    -15,  2367,   188, -1593,   -81,   -73,  -111,   -69, // 448
        35, -1345,   -23,    99,    59,  -174,  -183,    59,    -74,  -504,  -285,   -15,  -451,    85,   368,   -15,      13,    10,  -246,     7,   -89,   -90, -1277,   -59,  -1160,   176,   -39,  -131,    18,   211,    55,     8, // 480
    
    // Out channel 5
        60,    69,    32,    15,     0,     3,   -79,   -65,     75,   -80,   -87,   -61,   -65,   -86,    37,   -43,      19,  -105,   -35,   -26,   -99,    -6,    83,   -41,     49,   -80,   101,    19,    56,    34,     0,    37, // 512
        30,  -123,   -52,  -107,    38,   -73,   -83,    81,    -59,   -42,  -134,    28,   -17,    88,  -120,    57,     -12,     0,   -28,    -2,   -30,    -6,   -77,   -78,    -73,  -119,   -38,  -127,  -113,   -63,    -3,   -22, // 544
        25,    40,    60,   -60,   -60,   -74,   -18,    68,     18,    15,   -53,   -51,   -51,    60,    98,   -63,     -93,   -78,     9,   -26,   -44,   -84,   -45,   -20,     -7,   -88,   -28,  -112,    67,   -47,   -34,  -108, // 576
    
    // Out channel 6
      -186,    69,    24,   -69,   788,    22,  -167,  -245,     39,    33,   -55,  -211,    35,  -570,   -98,   -85,    -133,   -22,  -140,  -211,  -653,  -272,   -89,  -581,   -257,  -441,   -78,    45,  -404,  -311,  -466,    46, // 608
       -40,   -74,  -315,  -114,  -829,    24,  -670,    74,  -1146,   -81,    83,  -343,   125,    87,  -774,   -89,    -125,   -40,  -561,    84,   -47,     7,  -376,    42,   -174,  1645,  1566,  -359,  -476,    43,  -285,   -13, // 640
     -1226,  -629,   -59,    20, -1489,   -74,   -66,    29,    -56,  -691,  -264,   -58,  -313,    22,   144,   -17,     -75,  -806,  -831,   451,   -18, -1051,     9,  -167,   -843,  -216,  -524,    39,    26,   234,    66,  -327, // 672
    
    // Out channel 7
     -1331,   -33,   -53,   -77, -1707,   -15,  -317,  -194,    -14,    29,  -253,    -2,   106, -2180,  -278, -2468,    -162,  -300,  -561,   183,    62,  -395,   -80,    -8,   -361,    33,    83,   -58, -1307,  -550,  -692, -1329, // 704
      -193, -1132,  -787,    31, -2395,    55,   120,    24,    -17,  -922,  -384,    15, -1367,    15,  -518,    45,    -578,   -27,  -614,    46,    52,  -635,  -239,    -3,    740,  -595,   891, -1115, -1316,   -56, -3314,   -49, // 736
        -4,  -392,  -132,   -81,   119,  -770,   -62,    -6,  -2472, -1114,  -355,     7,  -324,   -25,   127,    73,     -52,    -1,  -229,   416,    -7,   -33,    41,  -401,  -2530, -1561,   143,  -748,    19,   -71,    20,  -601, // 768
    
    // Out channel 8
       245,   -36,   -74,   105,   285,   -80,   109,  -332,    -81,    87,    53,  -175,    50,  -328,   128,   -17,     -33,   118,  -104,     1,  -311,   -40,    50,    52,    -48,    69,   -50,  -249,    70,  -397,   139,   116, // 800
         6,    41,    12,   270,  -345,    62,  -264,    33,  -1103,    99,    48,  -187,   417,    -8,  -702,    84,     111,   -37,  -284,   -46,    23,   -67,   -43,   -72,     82,   233,   206,   -49,    10,  -100,   -66,  -161, // 832
     -1109, -1090,   198,   -99,    50,   122,    42,    71,    -50,  -602,    42,    67,  -270,   119,    11,   -70,      81,    30,  -282,   159,    79, -1316,  -175,    58,   -786,    53,   133,  -572,   -23,   260,    69,   117, // 864
    
    // Out channel 9
      -300,   105,   -39,   -51,  -581,    38, -1990,  -356,     40,   -77,    85, -2531,    81,  -526,  -593,  -130,    -316,  -424,    55, -2799,    65, -4369,    19,  -106,  -1124,   -43,    47,   -97,  -475, -1681, -2383,  -662, // 896
     -1193,   -79, -1560,  -982,  -586,   -89,    -6,    39,   -143,  -525,   -15,    35,  -837,    65,  -907,    44,     -18,   -55, -1729,    12,   -70, -1086, -1707,   -61,     57,  -221,   -73,  -804, -1631,   -49,    87,   -37, // 928
      -197, -1025,   119,   -67,   -91, -1285,  -352,    72,   -474,   -93,   120,     0,  -116,   -63,   173,    54,      64,   112,   -19,   -21,     1,  -135,  -265, -2477,   -437,  -939, -1571, -1119,   -16,    16,    47,  -145, // 960
    
    // Out channel 10
        15,   116,    25,  -132,  -122,    20,  -124,     2,     34,   -31,    73,   -90,    28,  -283,  -118,  -280,      80,  -242,  -203, -1404, -1083,     8,   -27, -1269,   -101, -1004,   -56,    10,    18,  -267,  -502, -1179, // 992
         9,   -25,  -396,  -394,  -699,    82, -1542,   -72,   -324,  -274,  -978,  -631,  -496,    42,  -176,    96,    -649,    76, -3627,    43,   -13,    -6,   309,    -8,   -375,  -195,  -734,  -126,  -847,   -46,  -374,  -140, // 1024
      -905,   -87,   -45,     6, -1500,  -198,   -15,    62,    -37,  -255, -1372,    79,  -126,    64,   -36,   -40,    -340, -1586,  -131,  -140,    16, -1252,   -30,  -556,  -3025,     2, -2099, -2540,   -12,   298,    39,  -593, // 1056
    
    // Out channel 11
       110,    38,     6,  -104,   232,   -37,   165, -2047,    -45,    75,  -109,  -282,    34,   -34,    58,  -195,     552,    50,    94,  -196,   -50,  -100,   -69,   -43,  -1095,    11,    45, -2010,  -192,  -400,   142,  -232, // 1088
      -165,    60,  -192,   251,  -912,   -37,   -39,   -57,   -556,    45,    45,     7,  -173,    89, -1989,    57,     229,    24,  -480,    40,    48,    41,   -99,    70,      8,  3335,   646, -1296,  -271,   -86,    63,     4, // 1120
      -851, -2071,    60,    72,  -102,    26,  -272,   -10,    149, -1624,   -24,   -90, -1508,   -90,   -13,    92,      46,    19, -1926,   421,    -8,  -851, -1509,   -24,  -1306,   -74,   196,  -575,    -8,   484,     7,   254, // 1152
    
    // Out channel 12
       354,   -20,   -22, -1000,   -75,    15,    61,  -894,     71,   -89,  -299,  -242,   -66,  -571,   -71,   683,   -1421,   -76,   994,   472,   220,   -20,    91,    69,   -884,   138,    14,  -757,     0,   191,   -17,   162, // 1184
        59,   114,  -280,    45,  -602,   -22,   216,    53,  -1001,   857,  -693,   144,  -134,    32,  -918,   -35,      -6,   -80,   110,   -42,    60,   387,  1196,   -10,   -289,  1152,   -60,  -642,   553,    27,    47,   220, // 1216
     -1082,  -964,   213,   -27,   -17,   252,  -760,    50,     69,  -911,    52,   -36, -1381,   -94,  1177,     3,    -880,    20,  -938,  -176,    98, -1151,  -541,   -19,   -994,  -147,  -108,   156,    76,   123,    -4,    30, // 1248
    
    // Out channel 13
      -603,  -215,    70,   581, -2756,   -13,   -25, -1040,    -17,   -94, -1722,  -967,  -553,   -32,  -510, -2311,    -900,  -863, -1769, -1124,   -75,    66,   -96,    26,  -2663,    51,   -15,    72,  -850,   -45,  -186,  -218, // 1280
     -1130, -1986,  -152,   -39,    58,   -93,   -48,    54,     17,  -995,  -939,    13,  -253,   -33,  -841,   -91,   -1192,    39,  -679,   -42,    21,  -585,   256,    -1,    400,  -119,  -116,    61,  -244,    75,  -374,  -191, // 1312
        46, -1284, -1427,   -70,    95,  -279, -1828,   -76,   -956,    38,   144,    51,   -32,  -121, -1104,   -56,     -82,   110,     7, -2557,    95,    87,    10, -1062,     10,  -825,   -98,  -965,   -40,  -320,   -84, -1162, // 1344
    
    // Out channel 14
     -1925,  -168,    34,  -320,   -14,   -21,  -148,  -184,     30,    41,  -177,  -247,   -11,  -786,    25,  -403,    -975,   -60,  -399,  -669, -1438,    59,    21,  -265,   -963,   151,    77,  -199,    11, -1103,   -97,   -33, // 1376
       -48,  -110,   222,   226,  -794,   -65, -1982,    45,   -821,  -250, -1204, -2531,   -72,   -88,  -772,    48,   -1513,   -45, -1524,    12,    47,   -29,    88,   -51,    -50, -2504, -1049,   -68,    -1,    90,  -517,     7, // 1408
      -585,  -669,  -265,    56,  -807,   377,  -171,    41,  -1715, -1012, -1491,    73,  -506,   136,  -352,    78,      48, -1411,  -849,   -30,  -141, -1243,   -93,   -99,   -884,   -15,  -190,   213,    21,    16,   -68,   -66, // 1440
    
    // Out channel 15
     -1279,  -231,   -40,   721,   245,    77,  -598, -1168,     -2,    57,  -628,  -549,    -4,   278,  -148, -2229,    -636,  -162,  -902,  -140,    -4,  -240,   -28,    21,  -2593,     8,   -66,   -55,  -671,   -67, -1707,  -322, // 1472
      -205,  -973,  -233,    62,  -104,    54,   -23,   -71,     21,   375,   119,   -22,  -501,    28,  -942,    46,    -456,    92, -2473,    48,   -22, -1024,    14,    50,    211,  -241,   -15,   -40,  -390,   -60,  -265,    46, // 1504
        17, -1304,   109,    38,    79,    48, -1338,    50,   -793,    14,    24,   -21,    -3,    85,    64,   -27,      -3,    27,     5,   347,    -2,    -2,   -56,  -601,    -12,  -724,  -146,    72,   -29,    -2,   111,  -369, // 1536
    
    // Out channel 16
        37,   -21,   -92,    38,   -11,   -79,  -253,  -908,     88,   -67,    72, -1743,   -25, -1989,   -41,   838,     -28,    -7,   265, -2447,  -537,  -393,    66, -1327,  -1432,  -735,    28, -1050,  -678,   -78,  -206,    21, // 1568
      -384,   311,    91,    -2, -1482,   -71,  -165,   -66,    -84,   -33,   124,   -52,   522,   -53, -1409,   -71,      68,   -22, -1283,   -84,    71,  -581,  -389,    47,    209,  1729,   137,  -259,    19,    87,   341,  -816, // 1600
      -711, -1374,     3,   -84, -1525,   102,   125,    28,     -6, -1879,     2,    62,  -902,   -73,   237,    18,    -323,  -199,  -627,   -29,   -52,    21,  -387,   -14,   -904,   150,    43,  -360,   -34,   204,   -86,    86, // 1632
    
    // Out channel 17
      -110,    20,   -23,    10,  -160,    79,   -45,    33,    -74,   -13,     4,  -111,   -16,   -39,    50,  -137,     -45,  -102,     2,    53,  -123,    40,   -85,    12,    -25,   -23,   -35,   -54,   -55,    12,     2,    48, // 1664
       -46,  -111,     5,    21,  -109,    90,    76,     7,    -10,    22,  -110,   -37,   -66,    28,   -55,     8,     -95,   -27,     1,    -9,     9,   -67,   -91,   -40,    -67,   -42,    -9,   -84,  -124,    65,     8,   -40, // 1696
        37,   -51,    20,   -78,    -5,    18,  -141,   -69,    -43,   -15,   -23,    -7,   -59,   -76,     7,     3,     -17,  -126,  -105,    17,    -5,    -3,   -89,   -83,    -46,   -20,  -110,   -43,    -1,   -95,    60,    55, // 1728
    
    // Out channel 18
      -198,  -207,   -97,  -493, -2762,    44,   -26, -1555,     64,    71, -2807, -2192, -1450,    93, -1324, -1587,   -2119, -1678, -1394, -1507,    37,  -105,    37,    15,  -2555,    53,    40,   -13, -1006,   -90,  -364,  -418, // 1760
     -1471, -1624,  -288,  -142,    64,   -33,   -10,   -67,     14,  -214,  -478,    -2,  -546,    10,  -693,    52,    -480,   -76, -1073,   -70,    96,  -341,    -2,   -47,   -650,   -81,  -619,   -84,  -431,     2, -1942,     5, // 1792
        -3, -1843, -1830,    74,    44,   -30, -2738,    97,     -7,    21,   -12,    26,    -6,   -30,  -700,   -26,      24,   -16,     2, -1610,   -47,   -21,   -53,  -621,   -121,  -965,  -557,   124,   -15,  -396,   -43, -1145, // 1824
    
    // Out channel 19
        97,  -208,     5,  -318,     6,   -44,  -144, -1182,     57,    39,    33, -1830,     5,  -507,    41,   -18,    -508,     4,   371,  -807,  -102,  -679,   -97, -1597,   -790, -1595,    45,    14,  -130,  -398,  -190,    98, // 1856
      -586,   107,   122,   141,   -76,   -19,    22,    13,   -330,  -175,   157,    35,   465,    73,  -704,    -8,    -127,   -46,  -911,    31,    88,   167,    54,   -81,   -276,  1265,    53,    33,    93,    77,   -86, -1090, // 1888
      -199, -1532,   -26,    -2, -1061,   195,   -49,   -75,     32,  -118,   685,   -62,    54,    65,   -61,   -58,    -799,  -107,   -36,    30,   -41,    62,   -73,    11,    -84,   122,   -41,  -476,    82,   -62,     3,   -16, // 1920
    
    // Out channel 20
     -1544,   -84,    86,   117,   -77,   -75,  -331,  -148,     29,   -73,  -143,   -61,  -316,  -355,   -73,  -324,    -466,  -166,  -599,  -227, -1217,   -29,    31,  -670,   -196,  -580,   -17,   -51,   137,   -59,  -477,    89, // 1952
        -9,  -134,    47,    42,  -831,    33,  -863,    68,   -162,  -594, -1424, -1070,   283,    -9,  -401,   -43,   -1829,   -63, -1241,    58,    97,    66,   -11,   -32,   -583, -1643, -1149,  -159,    95,   -39,  -425,    56, // 1984
        -2,  -381, -1053,   -26, -2412,    74,   -39,    91,  -1372,  -870,  -445,   -81,   -76,    14,  -311,   105,    -547, -1638,  -136,   779,   -36, -1386,   -21,  -106,   -919,   -43,  -400,  -170,   -14,   363,   -21,   -16, // 2016
    
    // Out channel 21
      -699,   -16,    59,  -471,  -499,   -66,  -349,    10,    -30,    13,  -263,    -1, -1071,  -121, -2943,   843,     299, -1603,   154,  -401,  -412,  -825,    44, -1712,    122, -1372,    69,     7,  -372,  -778,  -118, -1110, // 2048
     -1657,  -123,  -152,  -109,  -123,   -65,  -473,   -13,    -51,  -539,  -209,  -576,  -524,     0,   -94,   -27,     125,   -87,  -910,   -43,     5,  -304, -1354,   -97,  -1800,    13,  -246,    -1,  -387,    38,   100, -1645, // 2080
         9,    66, -1011,   -97, -1397,    95,    45,   -77,   -990,   -32, -1921,   -97,   -13,    17,    98,    -2,   -1237, -2485,    16, -1209,   -50,     9,     5,   534,     90,  -167, -1769,  -792,    83,    78,    83,    -7, // 2112
    
    // Out channel 22
     -1000,   175,   -15,  -643,  -642,    66,  -133,  -685,    -97,   100,  -369,  -153,    87,  -666,    10, -2043,    -594,     5, -2580,  -506, -1222,    14,    90,   -79,  -2042,    14,   -49,  -930,  -135, -1275,   -55,  -107, // 2144
        74, -1164,  -378,    76, -1479,    61, -1632,    84,   -616,  -355,  -273, -2907, -1956,   -30, -1238,    61,    -435,   -32, -1171,   -21,   -68,  -950,   125,   -91,    216, -2093,   205,  -455,  -109,   -40,  -944,  -287, // 2176
      -384, -1065,   110,    39,   -42,    89,  -311,     2,   -194, -1744,  -144,   -37,   284,    17, -1104,    62,    -193,   -79,  -280,  -253,   -37,  -267,  -774,   -15,   -559, -1340,    96,  -429,   -76,    29,    63, -1384, // 2208
    
    // Out channel 23
       328,   140,    14,   -19,  -364,    13,  -105,  -355,     15,     8,   135,  -602,     3,  -638,    63,  -650,     746,     0,  -492,  -898, -1254,  -176,   -56,    94,   -574,    39,    34,   197,  -520,  -494,  -373,  -362, // 2240
     -1231,  -312,   -27,   253,  -882,    74, -1249,    91,  -1555,   270,  -326,  -564,   734,    59,  -630,    -1,     161,   -59, -1943,   -66,   -81,   419,    66,    72,     51,  1529,   154,  -118,  -290,     8,  -740,   -21, // 2272
      -970,  -788,    84,    88,   136,   245,   121,    19,    -37, -1004,    74,    89,  -497,    39,   211,    41,      35,    18,  -690,   390,    27,  -574,   107,   -76,   -279,   464,   205,   -39,    33,   505,   -98,  -716, // 2304
    
    // Out channel 24
       280,    -7,    79,  -722,     1,   -47,    28,  -238,    -18,    44,   123,   -26,    33,  -533,    99,   319,    -298,    79,   366,   567,   110,   -12,   -44,   118,   -246,   -48,     6,  -238,   223, -1382,   -89,    68, // 2336
       109,   -99,  -319,   288,  -265,    98,   189,   -65,  -1143,   516,  -361,   171,  -627,   -47,  -689,    58,    -506,    35,   798,    28,   -35,   325,   154,    49,    131,  1404,   110,  -878,    55,  -103,   496,   143, // 2368
     -1273,  -568,     8,    77,   -40,    55,    58,     0,    136,  -152,   151,   -39, -1383,   111,   468,   -50,    -475,    77, -1187,   -84,  -143, -1270,  -169,    75,  -1148,  -516,    33,   -51,   -69,    93,   -57,   142, // 2400
    
    // Out channel 25
        15,   -94,    95,  1217,   500,    56,  -212,  -161,     95,    83,   -27,  -815,   -16, -2293,    59,   -52,    -633,    84,    13,  -952,  -374,   210,    71,   -51,   -201,   -85,   -57,  -448,  -229, -1060,    57,   249, // 2432
       -26,    -3,    90,   191, -2363,   -71,  -439,    42,    -67,   -86,  -270,  -251,   236,    63,  -574,   -55,     -29,   -58, -1220,   -54,    59,  -573,   191,   -61,    -89,   469,  -149,  -195,    40,    84,  -237,   -39, // 2464
       150,  -728,  -127,    92,  -153,   114,  -112,   -32,    -18,  -811,  -426,    34,  -362,   -63,   333,   -20,     222,  -196,  -489,  -401,     6,   227,  -273,   150,   -973,   -13,  -141,  -353,    32,   -35,    59,  -160, // 2496
    
    // Out channel 26
      -194,   -77,    18,  -310,  -473,   -98,  -751,  -541,    -19,    86,    12,  -344,  -957,    37, -1921,  -270,     296, -2253,   197,   -16,  -342,  -240,    44, -1253,     31, -1289,   -17,   142,  -570,  -437,  -212, -1489, // 2528
     -1281,   204,    28,   395,  -308,    49,  -533,    40,    110,  -504,    74,  -690,  -321,    31, -1095,    53,     454,     9, -1854,   -49,    78,  -348, -1014,    39,  -1618,  -132,  -237,    48,  -587,   -30,  -209,  -809, // 2560
       147,  -741, -1527,    10, -1033,   287,   -15,   -20,   -648,    57, -1627,    18,   263,   -61,   283,     3,   -1346, -2290,    34,   -48,  -120,   151,    69,  -902,   -194,   115,  -729,  -926,   -25,   -12,   -89,   -38, // 2592
    
    // Out channel 27
      -210,    13,   -62,  -392,    31,   -33,  -223, -1470,    -14,   -21,    43,  -408,   -46,   608,  -146, -1519,     -25,  -191,  -977,  -171,  -198,  -163,    33,   -23,  -1245,   -54,   -72, -1465,  -122, -1240,  -435,  -531, // 2624
      -101,  -617,  -686,   229,  -843,    -2,   -83,   -10,   -279,   -74,    32,  -178,  -598,   -73, -1636,    83,    -147,    62, -1562,   -79,    94, -1037,     8,   -58,    221,  -738,   236, -1542,  -857,    -5,    74,   -38, // 2656
      -171, -1592,    97,   102,    31,   170,   -95,    58,   -296, -1673,   190,    71, -1150,   -46,  -308,   -19,      69,   -38, -1172,   437,   -49,  -311, -1286,  -203,  -1589, -1274,   -10, -1597,    46,    56,   -30,   -15, // 2688
    
    // Out channel 28
      -943,    58,     2, -3734,   -60,   -14,   -67,   -31,     29,   -80,  -121,   -18, -1293,  -320,  -134,  -562,    -645,  -333,  -287,  -903, -1170,   123,    11,  -241,    -58,  -205,    45,     7,   223,  -157,  -370,   268, // 2720
        18,    15,   248,   122, -1680,    11,  -861,   -38,    131, -1361, -1858, -1245,   476,   -86,    42,    79,   -1154,    16,  -258,   -25,   -84,    48,    72,    58,   -397,    -6, -1306,   -49,   223,   -90,  -753,   175, // 2752
       165,    36, -1577,   -92,  -888,   308,   -56,    -2,  -1042, -1617,  -184,    17,  -855,    16, -1875,    28,    -532, -1681,  -515,   853,  -117,  -592,    11,  -185,   -622,   109, -1036,  -465,   -11,    -9,    92,   -96, // 2784
    
    // Out channel 29
       120,  -107,    -1, -2206,    71,   -64,  -334, -1585,    -81,    -1,   143,  -419,    13,   228,  -295,    65,   -2378,  -438,   -39,  -205, -2302, -1096,   -58, -1086,     91, -1433,    10,  -203,    22,  -241,   -38,   -76, // 2816
      -936,    -9,     9,  -248,  -753,    -4, -2617,   -32,   -664, -1426,   137, -3001,  -384,     5, -1709,   -20,      74,   -44,  -829,    28,    17,     8,  -875,   -28,  -2263,  -124,  -487,   -50,  -109,    85,    94, -1752, // 2848
       218, -1072,    21,    90,  -991,   -93,   315,    96,    -47, -1486, -1687,    32,  -171,    16,   107,     4,   -1597, -2308,   -62, -1299,    74,   145,  -341, -2217,    451,   -71, -1905, -1583,    71,  -317,    99,   -11, // 2880
    
    // Out channel 30
        25,    -9,   -24, -2646,    22,   -35,  -512, -1769,    -27,    43,    36, -2477,    17,    55,     1,   687,   -1792,    66,   101, -1524, -1379,  -662,   -61, -1481,  -1613, -1622,   -21,  -441,  -570,  -311,  -199,    42, // 2912
     -1154,   487,  -459,   202,  -896,     9, -1374,   -77,     41,   627,   388,   -94,   450,    51, -1817,    15,     108,   -11, -1383,    16,   -14,  1229,   137,    -1,   -842,  2752,   626, -1086,     2,   -13,   149, -1778, // 2944
      -169, -1547,   -22,    -4,  -605,   -48,  -130,   -51,     18,  -934,   115,    87,  -762,   -15,   711,   -48,   -3247, -1048, -1244,   301,    -7,   -68, -1121,    72,   -890,   115,   161, -1462,   -47,   254,    15,  -118, // 2976
    
    // Out channel 31
      -265,  -153,    94,   108, -2113,    19,   -62, -1175,    -23,    95, -1764, -1459,  -441,   319,  -403, -2223,   -1142,  -795, -2007, -1194,   -54,    43,    17,    44,  -2499,    12,   -95,    52, -1396,    88,  -168,  -224, // 3008
      -705, -1915,  -181,  -150,    41,   -37,   -10,    37,     37,  -810,  -145,   -24,  -302,   -62,  -725,   -79,    -800,    -3,  -703,    90,   -11,  -841,   136,    44,    322,  -106,  -312,   -49,  -216,    74,  -387,   -47, // 3040
        24, -1450, -1380,    95,    53,    15, -2587,    69,   -172,    52,    -7,    68,    41,    55, -1553,     2,      38,    21,   -11, -1933,   -78,    14,    84, -1035,    120,  -849,  -175,    75,   -53,  -299,   -21,  -750, // 3072
    
    // Out channel 32
      -332,  -100,   -14, -3495, -2158,   -43,   -80,     0,     54,     3,    -4,    21,    24,  -525,    41,  -433,   -1101,    62,  -200,  -743, -1461,   -13,    69,  -275,    -52,  -225,   -15,   -12,     8,  -840,     6, -1367, // 3104
       -25,     3,     5,  -791, -1909,    12,  -455,    83,   -128, -1373, -1557, -2083,  -114,   -77,    21,   -70,    -769,    35,  -114,    93,   -79,   -54,   -43,   -77,   -400,  -372, -2370,     6, -1688,    16, -1156,   205, // 3136
       298,     2,    11,    20,  -427,  -239,   -31,   -26,   -446, -1331,  -569,    32, -1217,   -29, -1435,    21,    -162,  -853,  -981,  -223,    68,  -352,    -1,    20,   -441,   -65,  -178,   -99,   -32,  -271,   -61,  -869, // 3168
    
    // Out channel 33
     -1981,   -59,   -79,   -32,   282,   -49,  -194, -1386,    -31,    87,   172,  -342,   -32,  -266,   -33, -2231,    -678,   -43,  -371,  -246,    47,  -130,    83,    54,  -2520,    39,    40,  -603,  -100,  -469,  -298,  -541, // 3200
        28,  -664, -1086,   236, -1003,     4,    51,   -53,      3,   273,   682,    37, -1175,   -35, -1158,   -36,     -81,   -76,  -647,   -66,   -91, -1079,   -84,    51,    -15,  -673,    52,     9,  -637,    26,   -40,   -35, // 3232
       -52, -1466,   -36,    58,    45,   144,    -4,   -55,  -2723,    -8,   124,    74,   -78,   -42,   316,   -80,     -25,    37,   -16,  -155,    -2,   -18,  -207,   -39,     -4, -1724,    29,  -149,    65,    94,    11,  -885, // 3264
    
    // Out channel 34
        51,   208,   -81,  -189,    69,    16, -2860, -2713,     50,   -41,   -32,  -444,   -18,  1055,    21,  -186,     167,    17,   223,  -667,  -122,  -661,    -2,    35,  -2278,   -50,    45, -2578,  -862, -2897,  -514,     1, // 3296
      -539,  -180,   -35,   279,  -706,   -59,  -266,   -30,  -1019,   -18,  1246,   -96,   515,   -34, -2842,    71,     -34,   -97, -2224,   -95,   -73,  -993,  -568,   -18,    -81,  3626,    78,  -952,   167,   -64,  -125,    80, // 3328
     -1041, -2727,    65,     1,   -10,   325,    26,    31,     49, -1659,   -41,   -82, -1084,    45,  -231,    53,     118,    -4, -1793,  -104,  -104, -1012, -2063,   118,   -815,    67,   646,  -955,     5,   298,   -87,   -25, // 3360
    
    // Out channel 35
      -173,    27,    94,    19,    28,    53, -2636,  -311,     37,    68,  -193, -2978,   -36,  -198,  -111,    94,    -132,  -183,   242, -4171,   -58, -2527,   -21,   -28,  -1280,    38,    44,  -822,  -406, -1884, -1368,  -294, // 3392
     -3071,   120,  -165,   -66, -1074,   -10,   -73,    10,   -354,  -100,  -173,    59,  -515,   -64,  -718,    15,    -330,    22, -1322,   -38,    19, -2837,  -973,    13,     -2,   499,   211,  -710,  1178,    49,    74,     5, // 3424
     -1297, -1291,    83,    59,    61,   -97,  -264,   -40,   -103,  -338,   251,    59, -2331,   -61,    -8,    65,      90,    11,  -403,   -17,   -15, -1371,  -219,  -384,   -224,  -361,  -154,  -990,   -13,   232,   -40,  -102, // 3456
    
    // Out channel 36
      -505,    84,   -53,  -555,  -626,    84,  -705,   -23,    -84,    46,   -69,   -33, -1613,  -373,    31,   701,     179,   -13,   -73,  -132,  -420,   -69,   -22, -1334,    115, -1316,    11,   -48,   146,  -378, -1321,  -888, // 3488
        21,   143,  -236,  -772,  -137,    18,  -484,   -12,     34,  -740,  -409,  -626,  -195,     1,   -66,    43,      37,    60,   -48,   -49,    73,    68,  -507,    17,  -1598,   211,  -574,   -52,  -422,    24,   134, -1405, // 3520
        17,   -44, -1795,    62, -1255,  -215,    43,    42,  -1218,    25, -1677,    17,     1,   -71,    20,    -2,    -965, -2376,    21,  -557,   -43,    46,   -63,    51,     29,   -10, -1004, -1147,   -22,    49,   -53,   265, // 3552
    
    // Out channel 37
       -26,   135,    11, -2062,   107,    43,  -131, -1811,    -12,    77,   -49, -1253,    48, -1989,   -21,   933,     261,    31,  1026,  -685,   189,  -224,    93,   100,  -1640,    86,   -32, -1011,    23,  -485,  -140,    93, // 3584
        76,    51,  -540,  -108, -1323,   -77,    68,   -41,    123,   668,    16,    89,   105,   -40, -2061,    61,     -64,   -24,  -972,   -94,    79,  1150,  -348,   -71,   -180,  3415,  -290,  -399,   -38,   -96,  -121,   169, // 3616
        91, -1775,    18,     5,    81,   -12,  -301,   -82,     70,  -229,    84,    28,   102,    66,   693,   -32,    -570,    47,    69,   -18,  -163,    44, -1283,  -162,   -913,   -51,  1343,  -278,   -92,   440,    22,    25, // 3648
    
    // Out channel 38
      -921,     2,    94,    16,   571,    99,    -6,  -611,    -34,    76,    53,  -340,    85,  -505,   105,   -19,    -416,   114,    93,  -309, -1251,   -27,    20,   -63,   -639,   -26,   -25,   -57,    74,  -784,   296,   169, // 3680
        82,   -31,   161,   405,  -648,   -15, -1745,   -26,  -1670,   282,  -330,  -651,   275,   -93, -1296,     8,    -349,   -83,  -454,    41,    97,  -103,   -64,    12,      1,   538,  -239,  -209,   193,    -3,  -191,   -42, // 3712
     -1600, -1197,   279,   -43,   -51,   222,    22,    -2,  -1319,  -769,  -379,    12,  -152,   -22,   174,    87,     142,    46,  -299,   160,   -79,  -984,   -79,   111,  -1150,   -43,  -399,  -419,   -43,   342,   -14,   -11, // 3744
    
    // Out channel 39
      -388,   -50,   -22,    20,    63,   -32,  -153,  -515,      2,    35,   -28,  -289,   -29,    -8,   -94,  -188,    -901,   -77,   144,     0,     8,   -79,   -14,    32,  -2731,    41,   -94,  -562,   -64,  -588,  -278,  -219, // 3776
       102,   -79, -1310,   223, -1103,   -47,    37,   -91,      8,    24,   248,   102,  -658,    74,  -979,    65,     -64,   -82, -1047,    69,   -46,  -451,    -5,   -80,     29,  -651,   -14,  -189,  -554,     0,   -79,   -12, // 3808
         9, -1526,    78,   -18,    92,   235,  -267,    58,   -351,    15,    -4,   -51,    30,    -3,   140,   -49,     170,    51,    -4,    90,    58,    -5,  -151,  -140,   -171, -1394,    95,  -207,    92,     6,    66,  -376, // 3840
    
    // Out channel 40
        17,  -233,    52,    14,     2,   -39,  -647,  -304,    101,   -93,    93,   -44,   -25,  -144,   -76,    29,     299,   -57,   219,   529,   -79,  -408,     2,  -224,    -21,  -191,   -79,  -208,  -360,  -428,  -495,  -107, // 3872
        31,   -80,  -668,  -146,  -446,   -35,   115,    20,   -410,  -212,    32,    13,  1033,    61,  -631,    10,     151,     3,  -467,   -22,   -25,  -440,  -123,   -97,     26,   381,  -164,  -819,   -91,    97,   -60,  -144, // 3904
     -1056,  -391,   -12,     7,  -258,  -168,   355,     6,    -30,  -242,   -31,   -79,    24,   -88,   137,   -72,      23,   -41,   -88,  -122,  -191, -1284,  -311,   -92,   -259,    27,  -208,  -363,    41,   170,    43,   -68, // 3936
    
    // Out channel 41
      -373,    59,   -60,  -704,  -600,    86, -1234,  -647,   -108,    16,   492, -2062,   331,   822,  -387,   750,     171,   -88,  -486, -2715,   -97, -2315,   -82,   -14,   -622,    22,   -54,  -213,  -343,  -927, -2189,  -278, // 3968
      -533,   -18, -2220,  -343,  -601,    63,   -35,    41,     79,   152,  -301,   -53,  -894,     7,  -669,     8,    -539,   -12, -1460,    42,     7,  -864, -1812,   -52,   -648,  -377,   324, -2500,  -944,     9,   655,  -227, // 4000
        32,  -530,   148,     7,   106,  -910,    85,    12,   -451,  -410,   108,    98,  -349,    79, -1042,   -54,    -415,    13,  -174,   196,    -7,   -73, -1756, -1878,  -1903,  -885, -1040, -1413,     8,    64,    -4,   439, // 4032
    
    // Out channel 42
     -2579,   -96,   -40,   533,   549,   -48,  -302, -1277,     63,    80, -2001,  -967,    -9,   -57,  -882, -2007,   -1285, -1211,  -534, -1614,   -24,    56,   -12,    49,  -2169,    45,   -88,   -22,  -356,   -12, -2373,  -295, // 4064
      -890, -1215,  -177,   133,    17,    85,    -1,     0,     29,   905,   535,   -63,  -409,    -2,  -642,   -34,    -216,   -29, -1167,    88,   -42,  -300,    11,    30,    475,   -52,   153,    21,   536,    21,  -402,    43, // 4096
       -15, -1082,   262,    20,    61,    -3, -2184,    82,  -2802,    -4,    61,   -96,    37,    -1,  -110,   -66,     104,   -32,    53,  -249,   101,    32,   -23, -3369,    -40,  -625,  -537,    63,   -63,  -116,   -51,  -449, // 4128
    
    // Out channel 43
        15,   -43,   -42,   481,   -26,     8,  -212, -1596,     54,    87,    48, -1644,   -31,  -679,     4,   -11,    -114,    12,   312, -1259,   -14,  -351,    76,  -859,  -2038,  -659,    -6, -2437,  -419,   -12,  -119,    34, // 4160
      -760,   552,   -98,     1, -1124,   -37,    29,    54,  -1519,    16,   -21,   171,   786,   -37, -2224,    -5,     545,    31,  -940,    14,   -20,  -665,   -81,     6,    160,  1489,    58,  -647,   -16,    36,    87,  -711, // 4192
      -924, -2358,    -9,   -79,  -491,   153,    14,   -31,      2, -1718,    40,   -10, -1173,     9,   537,    26,    -304,   -76, -1166,   -46,   -99,   206, -1271,    12,   -660,   528,    69,  -313,    21,   216,    11,    69, // 4224
    
    // Out channel 44
      -117,    51,   -23,  -555,  -740,   -16,  -858,     0,      6,   -26,   -82,    43,  -168,   -76,  -145,   143,       4,  -219,   -15,  -216,  -492,   -88,   -78, -1439,      7, -1463,    49,    95,   325,  -321,  -744,  -869, // 4256
      -100,     5,   -63,   -47,  -109,  -103,  -749,    35,     67,  -172,   -72,  -706,  -363,    88,     4,    30,      91,     3,   -69,   -40,   -37,    25,  -645,   -44,  -1667,   391,   -51,    -4,  -542,   -71,   -30, -1682, // 4288
       -19,     1,  -316,   -12, -1239,  -132,    87,   -10,   -409,    45, -1654,   -81,   -24,   -14,    54,    24,   -1275, -2354,   -20,  -732,  -100,    -2,   -16,   -57,    -63,   -19,  -491, -1243,   -28,    15,  -100,    36, // 4320
    
    // Out channel 45
      -468,   -43,    97, -1450, -1655,     8,  -630,    18,     82,    29,  -778,    35, -1904,  -129,   -87, -1203,       8,   -81, -2219,   -23,  -656,   -74,    48, -2938,     58, -1624,    -5,   -14,  -150, -1736, -1228,   -55, // 4352
      -149, -1474,   -95,  -226, -1045,   -93,  -965,   -73,  -1414, -1349,  -351,  -477,   305,   -80,   -99,   -58,    -654,    32,   299,   -15,   -69,   -17,   188,    -9,  -3171,   517, -1243,    18,  -206,   -42, -1035,   320, // 4384
      -926,   -36, -2054,   -65, -1627,   187,   -38,   -18,   -592,  -758,  -288,   -18,  -218,    73,  -976,    31,   -1376, -1516,  -129,  -275,    47, -1511,    24,    -5,   -832,   195,  -550,   120,   -28,   262,   -94,  -144, // 4416
    
    // Out channel 46
      -662,    78,    26, -3743, -1473,   -76,   -21,    -7,    -16,   -77,  -171,    54,  -188, -1599,  -278, -2673,    -523,  -328, -3744,   -99, -1064,   -94,    15,    68,   -825,    -6,    79,  -263,  -178,  -339,   -54,  1301, // 4448
      -108, -2200,  -353,   -33,  -372,    71,  -534,   -77,   -724,  -558,  -796, -1535,   206,    12,  -723,    26,    -657,   -39,  -933,    90,    61,  -382,  -226,   -60,  -1126,  2937,    18, -1043,  -240,   -60, -2331,  -542, // 4480
      -289,  -624,  -187,   -66,   -14,    25,  -165,   -78,   -180,  -199, -1537,   -45,   -83,   -97, -1395,    55,   -1196,    30,  -120,   323,    77,  -563,  -129,  -169,   -922,  -317,  -477, -1032,    -1,   -33,    93, -1439, // 4512
    
    // Out channel 47
       126,  -127,    23, -2321,  -390,   -68,   829,  -770,     44,   -28,   160,   266, -1356,  -237, -2702,   305,     276, -3022, -1184,   587, -1278,   152,   -30, -3475,   -384, -2119,    49,   -74,  -148,   -84,  -437,  -101, // 4544
       121,   343, -1619,  -159, -1478,   -15,  -822,    32,    158,  -466,   -31,  -875,  -559,   -72, -1540,   -81,       8,    37,  -550,   -27,    -7,  -301,   115,     9,  -1511,    18,  -986, -1715,  -420,   -37,    49,   177, // 4576
       443, -1122, -1787,   -84, -2335,  -108,   147,   -12,    -57,  -931,  -213,    79,    87,   -16,  -258,   -28,   -4239, -1973,  -194,  -205,   -64, -1965,    12, -2886,   -508,  -954, -1806,  -785,   -42,   155,   -33,  -290, // 4608
    
    // Out channel 48
      -110,    52,     2,  -218,     9,    82,   565,    12,     37,    85, -1566,   -25,    41,  -865,    84,  -463,    -970,    58,  -836, -1209,     9,  -118,    60,    11,   -236,    87,   -92,  -169,  -417,    44,   154,    -5, // 4640
      -363,  -342,  -856,    46,  -415,    78,   -99,   -96,   -430,   128,  -148,   -74, -2058,    14,    23,     3,    -534,    15,  -425,   -37,     6,   591,    46,   -25,    328, -1869,   200,   -81,    78,   -69,  -983, -1869, // 4672
      -631,   -80,    57,    54,    54,    -3, -2518,    81,     47,  -654,  -275,   -39,  -416,   -59, -1187,    -8,    -451,    23,  -371,  -168,   132,  -668,   -81,    38,   -524, -2073,   159, -1700,   -79,  -267,   -75,    16, // 4704
    
    // Out channel 49
        48,  -223,    47,   109,   -64,    95, -1403,   -14,    -50,    80,   281,  -224,   -40,  -280,   -20,   -91,    -147,   -39,  -119,  -409,   -88,  -534,    56,  -178,   -133,  -107,   -29,  -150, -1042, -1249, -1563,   -74, // 4736
      -278,    21, -1436, -1103, -1715,   -12,   -12,    35,   -213,  -382,  -158,    -3, -1380,   -27,  -145,   -70,    -234,   -36,  -474,   -61,    92,  -563,  -775,    -6,    146,  -134, -1237,  -430,   -59,    -3,   -95,  -201, // 4768
     -1136,  -197,    -5,   -30,  -380, -1212,   -64,    52,     34,  -209,     1,    -6,  -182,    78,     6,   -54,     222,   -16,   -68,  -594,    31, -1523,  -101,   -53,   -230,  -315, -1852,  -587,   -16,   169,    67,   -51, // 4800
    
    // Out channel 50
      -436,     8,  -106,  -893, -1846,    70,   -64,  -409,    -44,    78,   -34,  -114,  -108, -1544,    49, -1427,     189,     6, -2556,  1310,  -475,    71,    77,    46,   -258,    14,    87,    62,   -50,  -297,   -14,  -530, // 4832
        54, -1795,  -996,   203,  -532,    93,  -580,    55,    -29, -1886,   -61, -1018, -1687,    67, -1240,    43,    -158,    83,  -123,    39,   -46,   621,    28,    61,    447,  -761,   398, -2034, -1488,   -57,  -574,   176, // 4864
       -99, -1513,  -114,    16,    84,  -600,    64,    16,   -737, -1528, -1927,   -21,  -599,    73, -4021,    67,     321,   -24,  -862,   -23,    16,  -190,    55,    48,   -559, -1040,    72,   103,    32,   217,    36, -1467, // 4896
    
    // Out channel 51
      -159,   -87,   -72,   -87,   -54,    -5,   -37,   -82,      1,    70,   -75,     8,  -142,    24,   -15,  -212,     -63,    35,   -56,   -28,   -29,   -69,   -89,   -95,    -62,   -22,   -67,  -184,   -73,    -8,   -73,   101, // 4928
      -121,    32,     3,    56,    26,    56,   -64,    -7,   -118,   -99,   -16,     6,    77,   -55,  -101,   -74,     -34,   -64,    13,   -28,   -10,    44,  -101,   -25,   -131,    69,   -42,    -2,   103,    92,     3,    -7, // 4960
        -1,   -39,  -168,   -77,  -127,   186,   -62,    74,     13,    -3,    27,    95,   -69,   -99,    73,   -47,    -165,   -60,   -10,   -51,    58,   -32,     4,     7,     60,    28,  -124,    -8,    67,  -117,    79,    30, // 4992
    
    // Out channel 52
     -1326,   107,     1,  -246,  -772,   -69,   433,  -479,    -55,     4,  -253,   279,   104, -2346,   103, -1900,    -120,    60,  -942,   191, -1903,   -54,    59,   -45,  -1017,   -45,    33,  -560,   -28,  -313,   229,  -519, // 5024
       -98,  -951,  -476,   238,  -427,   -28, -1608,    54,   -620,  -652,  -509, -1945, -3011,   -60, -1088,    45,    -597,   -99, -1127,   -24,    66,  -182,    99,   -46,   -267, -2108,   176,  -232,  -768,   -34, -1093,  -227, // 5056
      -449, -1096,    89,    33,   -96,   213,  -137,    20,   -721,  -701, -1387,     7,   314,   -95,  -114,   -52,       5,   -74,  -144,  -151,    51,  -967,  -338,    23,   -614, -2186,   157,  -242,   -63,   192,   -42, -2079, // 5088
    
    // Out channel 53
        12,   -82,    39,  1882,    89,   -25,  -240,  -924,    -85,    21,  -323,  -665,   -41,  -186,   -29, -1250,   -1143,    -6,   396, -1031,   363,   -64,    11,   338,   -916,    42,    91,   836,    98,  -372,  -113,    95, // 5120
     -1554,  -810,   123,    18,  -508,    54,    -1,   -94,    619,   946, -1000,   168,   -38,    34,  -834,    62,     184,   -19, -1881,   -60,    74,  1567,    88,   -54,    -96,  1564,   -32,   -98,    56,    41,  -668,  -378, // 5152
      -120,  -933,   -17,    27,   387,   -19,   -81,    94,     53,  -909,  -179,   -62,  -644,   -29,   160,    85,     267,     3,  -318,   117,    -6,  -667,  -308,   824,   -523,   -49,  -154,    54,   -20,   -35,    97,  -152, // 5184
    
    // Out channel 54
      -211,  -201,   -71,  -297, -1967,   -43,  -208, -1209,    -12,   -25, -3868, -1063, -1190,   312, -1396, -1918,    -670, -2150, -1308,  -229,    17,   -36,   -85,     0,  -2392,    -2,    59,    70, -1606,  -106,  -321,  -248, // 5216
      -425, -1384, -1220,   640,  -112,    30,   -48,   -29,     -5,  -274,  -198,    39,   -96,    88,  -820,   -17,    -282,    62, -1470,   -83,    43,  -863,    42,   -39,   -271,  -176, -1230,     8,   -39,   -30, -2403,     9, // 5248
       -41, -1458, -1485,   -28,    -6,    70, -1751,   -22,    -35,    29,   -40,   -98,   -18,    91,  -789,    17,     -26,   -16,    -1,  -918,    16,    -8,   -18,  -641,    -21,  -620,  -560,   129,    66,  -400,   -31, -1434, // 5280
    
    // Out channel 55
      -134,    13,    97, -2294,   103,    99,     4, -1136,     27,   -36,  -176, -1057,     0,   774,   146,   183,   -1359,    93,   165, -2091,  -422,    18,    63,    18,  -1154,    18,   -49,  -609, -1137,     5,   229,   112, // 5312
     -1003,    19,    39,   159,  -109,    52,   -57,   -53,   -135,  -124,   207,  -250,   -45,   -80,  -824,    74,     238,   -35, -1723,     0,   -22,    20,     9,   -74,    -81,   701,   220,   127,   123,    61,  -292, -2611, // 5344
       -48, -1367,    87,    47,    33,    53,    71,    91,   -122,  -117,  -407,   -96,  -135,   -39,   191,   -87,   -2824,    22,   -80,  -262,   -29,    74,  -138,    55,   -266,    35,   264, -2357,    86,   275,   -89,   119, // 5376
    
    // Out channel 56
      -564,    74,   -92, -2297,  -251,    97, -1590,   -69,    -32,   -56, -1127,  -117,   -90,    71, -2755,  -849,    -690, -2391,  -238, -1225,  -114, -2987,    56,   -37,   -867,    55,    15,  -355,    96,   -87, -2184, -1300, // 5408
     -3628,  -167,   489,    89,  -726,   -32,   -43,   -73,   -291,   656,  -342,    68,    41,    64,   -50,     1,    -394,   -41,  -278,   -20,    86,  -253,  -499,    64,    458,  -376,  -165,     0,  -879,   103,  -577,  -904, // 5440
      -319,  -224,    90,    94,    62,   431, -1977,    43,   -530, -1063,   347,    69,  -190,   -13,    59,    54,      78,    51,  -426,  -296,    49,  -162,  -158, -1502,   -900,   110, -2367,   872,   -18,  -102,   -88,    31, // 5472
    
    // Out channel 57
     -1015,  -109,     1,   -49,  1156,    58,  -349,  -305,    102,    83,    26,  -379,   -35,   139,    48,  -213,    -783,     1,  -219,  -611,  -439,   146,    21,   -25,   -458,   110,   -80,  -322,   -71,  -750,  -203,   673, // 5504
        18,   -27,  -108,   250,  -696,   -70,  -582,    41,   -361,    61,  -428,  -172,   167,    91,  -782,    54,    -739,    27, -1129,    26,     4,  -334,   112,   -86,    -69,   971,  -157,  -296,   324,   -78,  -338,   -16, // 5536
      -439,  -739,  -164,   -13,  -419,   114,  -126,   -97,   -569,  -748, -2110,   -79,  -533,    15,   169,    82,     248,  -378,  -563,   -22,  -180,  -660,  -237,  -110,  -1976,    77,  -243,  -285,   -19,    68,    49,  -341, // 5568
    
    // Out channel 58
      -114,    22,    18,  -229,   -96,   -26,   -36,  -121,    -68,   -17,    60,  -545,    -4,  -772,    23,    -8,    -978,    23,   127, -1791, -1131,   -13,   -96,  -913,   -874,  -271,     7,  -286,  -104,  -752,    -7, -1601, // 5600
       -26,    81, -1687,  -823,  -375,    41,  -187,    96,  -1492,  -126,  -481,  -564, -1096,   -30,  -504,    25,    -367,   -58, -1742,    -5,   -31,  -568,   -51,   -82,   -234,  -157, -3029, -1754, -1320,   -38,  -169,   379, // 5632
     -1977,  -568,   -78,   -10, -2445,  -441,   -73,   -32,   -470,   105,  -157,   -50,  -114,  -104,   100,   -68,    -283, -1101,  -183,   118,    -6,  -948,  -240,    20,   -980,  -319,  -218,   591,    70,   165,    37,  -573, // 5664
    
    // Out channel 59
        61,     1,    30,  -811,   -37,    87,  -682,  -340,     69,    13,   119,  -402,   -15,  -624,    -3,   166,     861,    36,    19,  -447,  -255,  -984,   -76, -1809,    -37, -2142,   -57,  -443,   104,  -840,  -299,    11, // 5696
      -973,   118, -1344,    85,  -306,   -22,    85,   -75,   -964,   -32,   240,   -34,   111,   -27,  -398,    23,     144,    91,  -653,   -92,   -31,   528,   -89,     7,  -2195,   619,   120, -2148,    46,    67,   -23, -1161, // 5728
      -584,  -260,   -20,   -61, -1084,  -198,   124,    32,     42,  -213,    18,   -76,   -17,   -32,   244,   -83,   -2376,  -474,   -12,   213,   -87,  -439,  -591,     2,  -1638,   136,    80, -1178,   -90,   276,   -45,    84, // 5760
    
    // Out channel 60
        -6,    94,    92,  -203,   248,    26,   169,  -623,     63,   -81,  -299,   192,    47,  -860,    34,  -679,       1,   -63, -1450,   392,  -135,   -30,   -38,    50,   -560,    80,   -65,  -460,   151,   -94,   -58,   -43, // 5792
       -18, -1289,  -743,   185,   -79,   -76,   -74,    47,   -275,    75,  -396,   -68, -1330,   -85,  -137,   -35,    -504,   -81,   295,    22,    64,    84,   119,   -55,    170, -1141,   295,   -14,   134,    85,   494,     7, // 5824
      -248,  -258,   162,   -32,    29,    35, -1293,    33,     15,  -210,  -131,   -67,  -944,   -32, -1028,     6,     -91,   118,  -286,    48,    67,  -279,  -351,   -29,   -274, -1319,   578,    26,    21,    89,    31,   -24, // 5856
    
    // Out channel 61
      -195,   -21,    76,  -685,   143,   -81,  -708,   -47,     23,   -10,    77,   -25,   111,  -270, -2821,    17,    -119, -1941,    77,  -186,  -759,   244,    70, -2267,    -68, -2551,    71,   -29,   228,  -241,   461, -1740, // 5888
       156,   -50,  -132,  -689,  -327,    79,  -363,   -64,   -297,  -416,  -506, -1970,   -83,    71,   -74,    -2,    -124,   -87,  -418,   -34,   -65,   -14,    62,    38,  -1784,  -289,  -467,   -73, -1323,   -34,  -155,  -863, // 5920
      -497,   -37,    16,   -36, -1223,  -337,   -55,   -80,   -420,  -177, -1819,   -61,   -55,   -14,   -17,   -55,   -2514, -1984,   -85,  -124,  -145, -1296,   -28, -1394,  -1791,  -326, -2139, -1756,   -85,    79,    53,  -389, // 5952
    
    // Out channel 62
      -863,    57,   -47, -1060,  -728,   -51,  -381,   -11,     -8,   -71, -1874,   -15,  -765,    14,  -618,  -695,     106,  -677,    62,  -255,  -674,  -845,    87, -1583,   -243, -1340,    57,  -150, -1390,  -959,  -185,  -388, // 5984
     -1466,   -47,   -45,    50,    47,    58,  -806,    54,     43,   524,   107,  -767,   -86,    99,   -20,   -93,      87,   -43,   943,    79,    32,   -56, -1468,   -37,  -2355,  -584,  -232,    12,   -86,   -39,    45, -1914, // 6016
        10,   -16,  -567,   -24, -1379,    32,  -791,    21,  -1006,    66, -1691,    80,   -44,   -50,    60,    68,   -1896, -2534,    43, -1907,   -25,    52,   -15,   376,    -17,  -119,  -723, -1327,    -8,   -92,   -89,   -32, // 6048
    
    // Out channel 63
       -23,   -41,    52,  -335,   290,    76,   176,  -462,   -101,   -11,    92,   188,  -163,  -349,  -866,    96,    -180, -1048,    -9,   322, -1216,    50,   -49,  -924,   -317,  -862,    18,  -161,  -154,  -224,  -377, -1484, // 6080
       -44,   -89, -1473,  -451,  -312,    14,    55,   -28,   -284,  -433,  -640,  -874, -1276,   -64,  -980,    21,    -206,    75, -1658,   -91,    17,  -234,    59,   -98,   -569,  -128, -1284, -1109, -1161,    -9,   -68,   144, // 6112
      -200,  -625,   131,    45, -2406,  -442,   103,   -54,   -367,  -264,  -586,    27,   -80,    28,   -59,   109,    -542, -1727,  -217,  -417,   168, -1006,  -132,  -672,  -1928,  -914, -1553,  -283,    37,    83,   -57,  -516, // 6144
    
    
};

const int16_t cg_FC2bias[64] = { // Co,H,W,Ci: (64,)
      2253,  2047,  1278, -5510,   343,  -804,  2509,  1446,   -304,  2069,  2721,   501, -6410,   242,  1870,   903,     658,  -815,  1093,  -601,  2651,  1964,  2393,  -321,  -2523,   621,   -63,  2238,  1644,  1698, -4666,   385, // 32
      1917,  1024,  1420,  1065,   921, -3924,    85,   906,   1784,   853,   290,   430,  1679,  1326,  2070,    93,       5,  2413,   596,  -821,  1087, -6396,  1559,  -349,   1613,  1789,  3203,   644, -1182,  1526,  1480,  2671, // 64
    
};

const int16_t cg_FC3weit[2048] = { // Co,H,W,Ci: (32, 64)
    // Out channel 0
      -795,  -601,  -947,  -635,  -100,  -115,   -36, -1308,  -1199, -2169,  -144, -1327,  -601,  -180,   -59,   -89,     148,   -29,  -439,  -139,  -223, -1209,    -9,  -145,  -1161,  -275,  -118,  -442,  -268,   -43,   -71,  -232, // 32
        84,  -555,  -766,  -674,  -961, -1519,  -542,  -552,    -86,   -53,   -90,   -50,  -768,  -612,  -558,  -140,   -2098,  -155,   -22,    31,  -328,  -348,  -573, -1759,   -883,   -94,   581,   383,  -822,  -474, -1118,  -197, // 64
    
    // Out channel 1
      -619,  -131, -1538,   176,  -294,   -72,    64,  -259,    -77,  -813,  -969,   -86,  -143,  -570,  -621,  -441,     954,    61,  -468,  -141,  -820, -1436,  -399,    17,   -175,  -167,   -96,  -114,  -273,  -467, -1149,  -564, // 96
     -1044,  -807,  -406,  -162, -1788,  -136,  -298, -1171,   -114,   -99,  -530,  -192, -1541, -1172,   162,  -587,    -704,  -226,  -922,  -118, -1165,   -62,  -120,    51,    -57,   -67, -1109,  -253,  -156, -1404,  -946, -1203, // 128
    
    // Out channel 2
      -479,   133,  -272, -1241,   -77,   -43,  -105,    55,    -86,  -571,  -709,    79,  -208,  -190,  -345,   322,    -164,    95,  -252,  -205,  -508,  -101,  -895,   135,   -389,   888,   -67,  -270,  -250,   460, -1051,  -401, // 160
      -235,  -230,  -435,  -142,  -141,  -319,    40,  -170,   -217,  -405,  -309,  -194,  -181,  -468,   151,  -107,   -1015,  -681,  -827,  -162,  -742,  -353,  -197,   -13,    -91,  -123,  -226,  -227, -1043,  -251,  -250,  -519, // 192
    
    // Out channel 3
     -1343,     7, -1394,  -226, -1339,    -4,     0, -1108,      9, -1652, -1010,    -5,  -123, -2603, -1488, -2613,   -1488,   -70, -1811, -1390, -1175,  -792, -2046,   201,    -26,    -4,    95, -1131,  -458,  -502,  -422, -2363, // 224
      -953, -1520,     2,    14, -1128,   -15,    -2, -1651,  -1389,    58, -2802, -1465, -1353,  -915,   -12,  -819,   -2159, -1506,  -858,   -21, -1274,     1, -1875, -1449,   -412,    -7, -1134, -1034,   -18, -1178,  -919, -1400, // 256
    
    // Out channel 4
     -1892,   -71, -1748,   -74,   -57,    27,  -844,  -159,   -554,  -277,  -913,  -469,  -232,  -325,  -367,  -492,    -201,    78,  -346,  -287,  -732, -1898,  -326,  -417,   -432,  -371,  -256,  -237, -1091,  -181,   -65,  -375, // 288
      -785,  -295,  -504,   -99, -1945,   -16,  -640,  -296,    -65,   -58,  -504,  -170, -1752,  -923,  -288,  -566,    -683,  -109,  -769,    62,  -875,   -36,    17,  -554,    110,  -518,  -507,  -343,  -298, -1574, -1170,  -667, // 320
    
    // Out channel 5
        71,  -126,  -135,   189, -1477,    49,   -17,   -12,    -16,  -341,   -19,   -43,  -971,  -864,   -69,  -251,    -946,    70,  -474,    20,    31,  -152,   -20,   -11,   -124,  -366,  -440,   -27,    38,   -60,  -242,  -735, // 352
         8,   -86,  -105,  -991,  -122,  -240,   -31,   -54,     16,  -375,  -705, -1874,  -104,   182,   136,   978,     160,   -54,    93,   -32,    84,    94,  -193,    -5,   -193,  -100,   -72,  -161,   -33,   233,  -308,   551, // 384
    
    // Out channel 6
     -1288,   179, -2428,     4,   271,    65,   200,  -911,     87, -1560, -2491,   106,   673,  -340, -1010,  -747,     130,    81,  -486,   190, -2096,  -574,  -472,   558,    356,    41,  -186, -1989, -1687,   896,  4615,  -420, // 416
        -9, -1657,    59,   183,  -518,   961,    23, -1558,     42,    -5, -1077,    83, -1317,  -704,   449,    32,    -501,  -225, -2191,   -52,  -715,  1007,  -245,   105,   -215,   146, -1879,   438,   -39, -1677,  -265, -1648, // 448
    
    // Out channel 7
     -1809,  -437, -1534,    25,  -128,   -66,  -777,  -239,   -498,  -224,  -864,  -520,   -26,  -374,  -260,  -342,    -271,    -4,  -220,  -269,  -899, -1900,  -445,  -683,    -48,  -285,  -493,  -238, -1006,    -4,  -101,  -350, // 480
      -809,  -187,  -651,  -245, -1871,    28,  -358,  -218,   -665,   -44,  -314,  -248, -1753,  -866,  -305,  -393,    -537,  -435,  -817,   -27, -1008,    64,  -179,  -459,    -46,  -475,  -687,  -578,  -142, -1413, -1106,  -706, // 512
    
    // Out channel 8
      -433,  -246,  -492,  -412,  -249,   -80,  -351,  -584,   -388,  -982,  -265,  -408,  -143, -2125,  -258, -2144,     -32,    96, -1185,  -379,  -319,  -495,   -44,  -345,   -174,  -402,   -79,  -708,  -302,    96,   -72, -1661, // 544
      -179, -1290,  -291,  -426,  -459,  -678,  -434, -1180,    -45,  -286, -1711,   -42,  -575,  -308,  -198,  -155,    -100,  -208,  -217,    16,  -274,  -241, -1661,  -145,     66,  -402,  -239,  -107,  -206,  -390,  -309,  -270, // 576
    
    // Out channel 9
        31,  -869,   128,   -84,    86,   -40,  -859,  -636,  -1037,  -480,  -312,    -3,  -103, -1590, -1430, -1260,      24,    80,   251, -1841,  -325,   128,   -87,  -909,   -287,  -913,  1099,  -528,   -70,   831,  -176,  -863, // 608
      -285, -1201,  -983, -1668,   347,     1, -1092, -1797,    -88,  -148,  -583,  -651,    90,  -392,  -670,  -349,    -101,  -773,   102,    36,   173,  -307,  -316, -1506,   1686, -1057,  -261,   -27,  -119,   -82,   944,    -6, // 640
    
    // Out channel 10
      -990,  -217,  -875,   -83,  -359,    10,  -712,   -80,   -380,  -397,  -682,  -314,   -93,  -253,  -295,  -318,     -86,   -85,  -164,  -146,  -577,  -986,  -297,  -375,   -148,  -112,  -233,  -186,  -626,  -132,   -63,  -303, // 672
      -514,  -307,  -370,  -210,  -869,   -65,  -228,  -209,   -643,  -202,  -281,   -47,  -979,  -628,  -430,  -254,    -289,  -326,  -527,   -54,  -630,  -181,  -245,  -125,    -25,  -362,  -325,  -691,  -363, -1070,  -577,  -514, // 704
    
    // Out channel 11
       170,    60,   247,  -411,   170,   -50,   196,  -340,    -61,   209,   299,   -86,  -148,  -672,  -820,  -302,     121,   111,  -473,  -771,  -118,   137, -2450,  -310,   -533,   -14,  -131,  -513,  -239,  -599,  -261,  -669, // 736
      -176,  -654,  -284,   261,  -599,   320,    30,  -172,    142,   328,  -900,    19,    59,    73, -1075,   157,     330,   307, -1414,    74, -1072,   195,   148, -2281,   -322,  -117,   150,   107,    -6,   203,  -109,   393, // 768
    
    // Out channel 12
         0,  -543,    66,  -174,  -132,    -8,  -302, -1354,  -2658, -1143,  -172, -1824,  -679, -1427,  -622, -2134,       8,    47, -1824,  -947,  -227,   -20, -1034, -1011,  -1569, -1615,    62, -2081,   -49,    41,  -108, -1822, // 800
      -146, -1546,  -723,  -561,   -29, -1046, -2107, -1637,    -94,  -318, -2344,  -197,   -30,  -161, -1086,  -356,     -80,  -403,   -84,    12,  -128,  -859,   167, -1070,    723, -1393,  -396,  -328, -1246,  -197,   491,  -174, // 832
    
    // Out channel 13
     -1457,  -246, -1336,   -23,  -149,    -2,  -726,  -101,   -545,  -308,  -885,  -388,  -103,  -267,  -354,  -228,    -247,    -3,  -168,  -278,  -813, -1547,  -409,  -529,   -414,  -258,  -357,  -217,  -861,  -199,     3,  -311, // 864
      -743,  -189,  -270,  -101, -1509,   -51,  -368,  -205,   -280,     5,  -282,  -102, -1402,  -797,  -442,  -371,    -438,  -185,  -668,    14,  -856,   -53,  -123,  -483,     94,  -396,  -463,  -535,  -381, -1332,  -892,  -726, // 896
    
    // Out channel 14
     -1263,  -198, -1344,   862,    44,   -43, -1135,    43,  -1099,   -47,  -792,  -544,  -745,   209,  -879,    29,    -269,    89,  -201,   -78, -1664,  -764,  -310, -1460,   -404,     3,    70,  -255, -1461,  -397,   -96,  -270, // 928
      -662,   215,  -400,   -78, -1070,  -106, -1221,    93,   -161,  -184,    85,  -172, -1304,  -905,    17,  -705,   -1165,   -20,   -64,   -79,  -794,   716,  -245,  -171,     75,  -582,  -752,  -448,  -319, -1041,  -893, -2326, // 960
    
    // Out channel 15
      -980,  -122, -2125,   321,   -32,   -43,  -155,    29,      1,   253, -2158,   -17,  -554,  -231,  -926,   -22,     -47,   -27,  -397,   -11, -2504, -1376,  -966,  -286,   -235,    -3,  -214,    50, -2683,   397, -1116,  -272, // 992
      -902,   -73,   -34,    62, -1711,  -346,  -172,   -33,     98,     4,   -23,    17, -2108, -1402,  -362,  -771,   -1001,   147,  -486,    -6, -2486,   262,  -482,    66,    342,  -125,  -298,  -131,  -396, -1783, -1111, -1730, // 1024
    
    // Out channel 16
       -81,  -176, -1128, -1034,   124,     0,    -6,    58,    -11, -2173, -1200,    36,  -190,  -125,  -370,   -51,    -313,   -62,   374,   236,  -659, -1112,  -130,   -68,   -250,  -100,  -640,   132,  -780,  1204,  -823,  -686, // 1056
      -969,   -22,  -412,    59,  -964,  -299,  -205,   -28,     48,    46,  -135,  -282, -1111,  -931,  -729,  -527,    -211,   508, -1214,   126, -1043,   102,  -621,  -455,    -67,   -97,  -318,   420,  -511,  -774,  -845,  -896, // 1088
    
    // Out channel 17
     -1667,  -964, -1749,  -421,  -382,   -80,  -985,  -379,  -1914,   -54, -1358, -2537,  -559,  -194, -1166,    15,   -1314,  -107,  -455,   -20,  -778,  -800, -1368,  -950,   -277, -1027,   293,  -935,  -579,  -348,  -139,  -209, // 1120
      -840,   -73, -2897,   -60, -1333,  -148,  -982,   -13,   -382,  -479,   -37,  -217, -1580,  -866,  -417,  -214,    -192,    17, -1062,    57, -1226,   -63,  -162, -1366,   -278, -2040, -1696, -1189, -1496, -1234,  -902,  -512, // 1152
    
    // Out channel 18
     -1304,  -345, -1262,   960,  -253,  -117, -1112,   267,  -1944,  -520,  -615, -1560,  -712,   380,  -444,   141,     -70,    67,   652,   -58, -1130, -1861,   -45, -2049,   -287,   342,   -66,  -125,  -846,  -269,   -35,   383, // 1184
       -90,    75, -1030,  -784, -1429,   191, -1835,    47,  -1707, -1106,   163,   -37, -1211,   -81,   812,  -360,   -2619, -1374,   190,    -2, -1355,   653,   778, -3620,    141,  -246,  -762,   -53, -2429, -1252, -1153,  -733, // 1216
    
    // Out channel 19
       -41,    53,   -29,  -181, -1760,    48,    51, -1327,     67,   538,  -260,    86,   -14, -2474, -1027,  -512,   -2309,    93, -2721, -1622,  -947,   -77,  -407,  -169,    133,  -105,  -760,  -629,  -843,  -837,  -853, -2674, // 1248
     -2997,  -229,    25,   -89,  -257,   115,   -34,  -290,  -1677,  -242,  -932, -2223,   -56, -1133,   121,  -583,    -426,  -643,  -360,  -128,  -611,   437,  -617,    81,  -1240,    48, -1947, -1556,   -36,   210,  -656,  -807, // 1280
    
    // Out channel 20
       129,  -345,  -172,  -681,   -36,   153,  -179,  -289,   -221,  -480, -1116,  -226,  -278,   307,  -312,  -143,    -397,    93,   619,  -206,   -28, -1589,  -471,  -922,   -547,   171,  -416,  -373, -1007,   -14,    46,   479, // 1312
      -574,    25,  -740,  -448,    -3,   220,  -553,    11,    345,   -54,  -245,  -249,   130,   177,   675,  -496,    -747,  -631,  1722,   -37,  -219,   512,   471,  -453,   -157,  -325,  -957,   704,  -143,    16,  -645,   211, // 1344
    
    // Out channel 21
       -39, -1513,   -95,  -669,  -341,    35, -2315,   111,   -442, -1294,  -272,  -210, -1403, -2060, -1280, -2746,     138,  -115, -1500,  -677,  -867,   -21,  -187,  -513,  -1782,  -562,  -550,  -112,   159,  -197,   277, -1985, // 1376
       188, -1443, -1126,  -925,  -216,  -740,  -338, -1749,   -102,   -20, -2543,  -197,  -106,   294,  -327, -1090,     292,  -823,  -198,  -114,   -54,   591,   345,  -224,   -965, -1123,  -993,  -243,  -573,  -330,  -477,  -836, // 1408
    
    // Out channel 22
         8,   -25,  -146,  -518, -2296,   -83,    43,    64,    -76,  -279,   194,   -41,   527, -1633,    43,  -215,    -322,   -55,   -55,  -305,   122,   -84,    81,   -30,    -36,  -171,    31,    78,    40,  -130,  -536, -1215, // 1440
       113,    -2,    11,  -901,  -245,     6,  -111,   -72,    112,  -240, -1341,  -342,   -16,   596,   282,    -8,    -638,   207,   -54,  -140,    71,   103,   108,  -143,   -187,   -22,    28,   -31,   279,   -68,  -342, -1461, // 1472
    
    // Out channel 23
       -31,    24,  -772,   176,   121,  -194,   -22,   -23,     -3,   161,   -30,   -22,  -340,  -171,     7,    43,      66,    -1,  -385,   -28,   -32,  -525,  -136,   -81,    -17,    21,  -124,   -17,    -6,   380, -1681,  -282, // 1504
      -645,   -45,    -8,   227,  -905,  -281,    -7,    -5,     15,   165,   161,    38, -1083, -3030,  -763, -2397,    -219,   103,  -430,  -145,  -397,  -111,   -86,    14,    146,    33,   -30,  -535,   -17, -1622,  -596,  -121, // 1536
    
    // Out channel 24
      -199,  -306,  -323,  -181,  -329,    47,  -354,  -454,   -198,  -840,  -123,  -146,   -64, -1147,  -403, -1189,    -541,   -57,  -635,   340,  -181,  -278,  -160,  -225,   -392,  -774,    -4,  -603,  -497,  -224,     5,  -786, // 1568
      -254, -1058,  -346,  -318,  -282,  -389,  -109,  -831,   -516,  -162, -1122,  -308,  -325,   -33,    93,  -115,    -213,  -483,  -101,    30,   145,   229,  -766,   -90,    -84,  -366,  -234,  -143,  -271,  -271,  -233,  -257, // 1600
    
    // Out channel 25
      -788,   -39, -1765,  -215,  -330,   -68,  -124,  -945,    -34,  -678,  -117,  -106,  -348,  -936,  -164, -1157,    -404,    23,  -479,  -113,  -563, -1963,   -45,   -35,    -56,  -104, -1204, -1484,  -348,   482, -1375,  -888, // 1632
      1085,    96,  -547,   -80,  -949,    28,   -68,  -139,   -173,  -220,  -900,   602,  -844,  -311,  -333,  -788,     -94,  -450,  -119,  -121,   -28,  -266,    97,   -11,   -493,    15, -1146,    19,  -867, -1044, -1678,  -493, // 1664
    
    // Out channel 26
        24,  -933,   189,  -496,  -184,   -29,   -49,  -988,  -1065,  -192,   204,  -474,  -159, -2392,  -294, -2169,    -121,   124, -1535, -1628,   -93,   104,  -448, -1031,  -1133,  -976,   798,  -490,  -405,   -11,   241, -1901, // 1696
      1394,  -467,  -677,  -425,    71,  -136,  -968,  -939,     13,  -262, -1470,   214,   224,  -580,  -217,    55,    -189,   157,   271,   -19,  -194,    91,   266, -1697,   1030,  -495,   496,     0,  -311,   534,   453,   182, // 1728
    
    // Out channel 27
       -43,  -111,  -554,   257,  -880,   -66,  -638,   139,   -553,  -421,  -578,  -951,  -626,  -398,   -65,    66,    -701,    97, -1012,   212,  -295,  -354,   -72,    31,   -379,  -675,   -98, -1278,   133,  -160,    37,  -774, // 1760
      -275,    88,  -804,  -867,  -748,  -254,  -189,     9,   -626,    19,    97,  -255,  -360,   272,  -320,  -211,     -91,   -86,  -468,    10,  -426,   419, -1187,  -222,    112,  -684,   -71,   -65,  -360,  -590,  -149,  -247, // 1792
    
    // Out channel 28
         8,  -215,    -1,  -767,    17,   -32,   -41,  -515,  -1010,  -314,    40,  -854,  -569, -1064,  -153, -1869,     -45,    65, -1405,  -583,   -17,   124,  -293,  -186,  -1032,  -424,   698,  -707,   -27,   389,   294, -1462, // 1824
        69,  -875,  -488,  -506,   335,  -230,  -546,  -837,    -22,   107, -1956,  -215,   144,  -190,  -378,   -40,    -327,   -83,    49,   -53,  -381,    27,  -108, -1045,    139,  -280,    -4,   143, -1136,   121,   -36,   -75, // 1856
    
    // Out channel 29
      -850,  -190, -1581, -1377,   -17,    36,    -3,  -152,   -157,  -327,  -293,  -197,  -210,  -670,  -357,  -787,    -138,   -87,  -868,  -155,  -679, -1500,  -575,  -410,   -257,  -137,  -207,  -516,  -353,   229, -1873,  -782, // 1888
      -627, -1042,   693,  -259, -1744,  -793,   -10,  -304,   -125,  -193,  -896,   -68, -1740, -1023,  -156,  -566,   -1543,  -281,  -598,    -4,  -714, -1305,   110,  -148,   -457,  -112,  -599,  -133,  -674,  -642, -1100,  -348, // 1920
    
    // Out channel 30
     -1244,  -124, -1222,  -134,  -177,  -178, -1403,   -47,   -948,  -299,  -628,  -684,  -436,   103,   -82,   -45,    -728,   -12,   707,  -890,  -865,  -666,    -5,  -442,   -294,   -33,   161,   -75,  -499,  -150,   -33,   486, // 1952
      -145,  -117,  -228,  -512,  -998,   234,  -519,   -32,  -1190,  -199,   -44, -1167, -1260, -1305,   661, -1083,    -430,  -590,    82,    67,  -257,  -190,   583, -2089,     51,   -28,  -371, -1527, -2060,  -752,  -840, -1571, // 1984
    
    // Out channel 31
     -1405,    67, -1397,   639, -2745,    -7,    90, -1628,      9, -2098,  -452,    37,   488, -2635,   -59, -3161,   -3011,   -74, -1540, -2612, -1427,  -630,   -12,  -195,    176,   111,   243, -1302,  -701,  -934, -1051, -2249, // 2016
       -40, -2122,    42,   245, -1052,   389,    23, -2110,  -2219,    15, -2707, -3125, -1412, -1035,   178,  -187,      -4,     1,   -64,  -106,   -37,   258, -1935,    10,   -723,    44,  -297, -2178,    34,  -663,  -671,  -959, // 2048
    
    
};

const int16_t cg_FC3bias[32] = { // Co,H,W,Ci: (32,)
      3110,  2100, -1468,  4402,  1182,  2226, -2248,   525,    696, -4315,    -1, -2893,  5597,   -39,  4460,  3027,    -292,  4637, -4677,  2850, -3841,  2261,   130,  2000,    739,  1365, -5600,   859,  4587,  2645,  3937,  3784, // 32
    
};

const int16_t cg_FC4weit[32] = { // Co,H,W,Ci: (1, 32)
    // Out channel 0
        93,    49,    12,  -584,  2521,    -57,   125,  2382, -4435,   160,    3360,   -59,  -393,  3829,   246,    101,    68,   226,  -119,  -128, // 20
       -52,  -126,   -51,    63,  -371,     78,    47,  -145,  -242,    79,     359,  -242,
    
};

const int16_t cg_FC4bias[1] = { // Co,H,W,Ci: (1,)
      5566,
};

