#include <stdint.h>
const int16_t cg_FC1weit[512] = { // Co,H,W,Ci: (64, 8)
    // Out channel 0
       128,  2168,  -933,   391,  2647, -3621, -3492,  1457, 
    // Out channel 1
      -185, -1375,    -2,  1110,   501,   109,  1529, -1056, 
    // Out channel 2
     -1971, -2072,   620,  2064,   392,  1592,  2194, -2340, 
    // Out channel 3
      -628,   444, -1321,  4082, -1390, -2709,   591,   845, 
    // Out channel 4
      2231, -1857, -1729, -2160,  3759,  -855,  1201, -1146, 
    // Out channel 5
      -207, -1504,   185,   -73,  -100,   294,   -35,    66, 
    // Out channel 6
      -499, -2807,   291,    99,    93,  -321,    35,   343, 
    // Out channel 7
       535,     2,    63,     3,    84,   -55,   513,   187, 
    // Out channel 8
      -325, -1644,   373,   623,  -188, -1000,   422,   448, 
    // Out channel 9
       210,  -169,    93, -3128,  1784,   866,   517,  -936, 
    // Out channel 10
     -2146,   478,  1060,  2574,  -336,  -102,  -267,    53, 
    // Out channel 11
       570, -2177, -1137,   505,   303,    96,  -345,  -229, 
    // Out channel 12
     -1002,  -898,    19,   926,   -88,   509,   203,  -400, 
    // Out channel 13
       190,   283,  -185,    44,  -589,   158,   398,  -131, 
    // Out channel 14
     -2073,   775,  1263,  1053,   602,  -225, -1022,   574, 
    // Out channel 15
      -622, -1088, -1111,  3763, -2835, -1092,   612,  1731, 
    // Out channel 16
       122,   371,  -603,  1275,  -504,   840,  -289, -1714, 
    // Out channel 17
      -829,  1719,  1083,   -15,  2117,   673, -2360, -2836, 
    // Out channel 18
        14,   212,   113,   690,   -21,   296,  -153,   -84, 
    // Out channel 19
      -545,   879,   560,  1266, -3969,  -110,  -989,  1005, 
    // Out channel 20
       848, -1643,   917, -1613,   335,   281,  1056,   237, 
    // Out channel 21
      -490,   894,   161,  -639,  -770,  -170,    65,  -408, 
    // Out channel 22
       254,  -467,  -187,   403,   -43,   266,   262,   147, 
    // Out channel 23
      -328,  -520,   821,  -690,   265,  -624, -1161,   661, 
    // Out channel 24
       -94,  -996,     9,  -111,  -753,   206,   933,   327, 
    // Out channel 25
      -181,  -576,    60,   -84,   -88,  -833,    -4,   148, 
    // Out channel 26
       299,  1088,   -17,  -596,  -503,   452, -1158,   -47, 
    // Out channel 27
      -202,  -377,   169,   984,  -376,   252,   629, -1168, 
    // Out channel 28
      -160, -1520,  -896,   840,   -24,   466,  1213,  -734, 
    // Out channel 29
     -1581, -3494,  1932,   403, -2077,  1847,  1838,  -494, 
    // Out channel 30
       483,    58,   -20,   533,  -783,  -384,   198,   317, 
    // Out channel 31
       212,    15, -1226,  2892, -2142, -2379,   -30,  2488, 
    // Out channel 32
     -2047,   725,  2235,  2034, -3987,  1176, -1181,  1552, 
    // Out channel 33
     -1979,  -573,   653,  1678,  -571,    85,   188,   118, 
    // Out channel 34
       230,   303,  -146,   -78, -1608,    60,  -364,   168, 
    // Out channel 35
       684,   392,   102,   203,   336,   259,  -657,   -24, 
    // Out channel 36
       212,   736,  -860,  1284,   418,  -102, -1351,  -115, 
    // Out channel 37
     -1241,  1500,  -913,  2175,  1916, -2241,  -415,   665, 
    // Out channel 38
      -338,    68,   -45,  -863,  3574,  -339, -1206, -1710, 
    // Out channel 39
       177,   552,    -6,   145,   -13,  -388,   -52,   959, 
    // Out channel 40
       -53,  -179,   664,  -177, -2335,  3778, -1751, -1852, 
    // Out channel 41
     -2302,  1237,   455,  1317,  1040,  -379,  -949,  -184, 
    // Out channel 42
       488,   621,  -483,  -255,   868,   111, -3512,  -555, 
    // Out channel 43
        52,   580,  -511,   301,   588,  -407,  -671,   767, 
    // Out channel 44
       778,  -955, -1873,  1406,  -442,     3,  -529,   106, 
    // Out channel 45
     -1517,   530,  -347,  2135,    31,  -337,  -324,   292, 
    // Out channel 46
       -78,  -258,   470,  -343,  -217,  -356,   283,   170, 
    // Out channel 47
      2152,   446, -1851, -3664,  4606, -1519,  -345,  -162, 
    // Out channel 48
       104,  -185,  -769,  -171,    16,   442,   -99,    61, 
    // Out channel 49
       -88,   473,   -71,    76,  1468,   557,   271, -1954, 
    // Out channel 50
       219,     0,  -924,   580,   334,   -70,    33,  -748, 
    // Out channel 51
      -235, -2108,   279,   190,     7,  -234,  -930,   -36, 
    // Out channel 52
      -559,    51,   398,  -654,    -8,  -419,   250,  -105, 
    // Out channel 53
      -549,   -99,  1044, -2125,  1234,  -258,  -121,   109, 
    // Out channel 54
      1281,  -738,  -443, -1699,   315,  -541,  -520,   905, 
    // Out channel 55
     -1851,  -239,  1317,   531,  1068,  -664,  -690,  -421, 
    // Out channel 56
      -756,    34,   888,   -97, -1207,  1801, -2628,  -730, 
    // Out channel 57
      1075,    24,  -523, -1894,   -30,  -235,   397,   782, 
    // Out channel 58
       687,   -90,  -159, -2147,   311,   -16,   235,   144, 
    // Out channel 59
       914,   321,  -105,   215,   123,     8,   127,  -679, 
    // Out channel 60
       857,   788,   380, -3372,  3106,  1590,  -356, -2066, 
    // Out channel 61
         2,  -509,  -982,  1378,  1864,  -959,   -45, -1185, 
    // Out channel 62
      1046,  -224,   546, -1417,  -671,  1220,   833,   524, 
    // Out channel 63
      -931, -2303,  -712,  3031,  -497,  -686,  1256,   381, 
    
};

const int16_t cg_FC1bias[64] = { // Co,H,W,Ci: (64,)
      1066,  -717,   649,  3896,   978,   918,   675, -5296,    939,  1809, -1491,   910,  1246,   305, -4237,  1731,    1094,  1246, -1701,  3375, -4765,  6625, -2521,   154,   1965,  4366,  1560,   -88,  2011,   802, -1283,   647, // 32
     -4377,   869,  5347, -6481, -3080,  -555,   906, -3628,    503,  1268,  2349, -2361,  1237,  -349,  1322,  1079,     944,   892,  3223,  1557,  2459,  1035,  -213,  1841,   2504,    29,  4018, -4106, -2786,  2081, -6577,   554, // 64
    
};

const int16_t cg_FC2weit[3072] = { // Co,H,W,Ci: (48, 64)
    // Out channel 0
      1412,   278,    87,  1258,   254,   116,  -924,   216,  -1993,  1155,   372,  1644,  1234,  -351,  1490,   829,    1449,  -476,   402,   922, -1174,  -202,   380, -1926,    369,    21,   784,   227,   683,   -13,   690,  2136, // 32
       838,    49,  1039,  -452,  -953,  1116,   617,   821,   1654,  -995,  -595,   330,   775, -1750, -1762,  -461,    1370, -2593,  -873, -1428,  1010,  -907, -2533,   148,    382,  1400,   420,   139,  1807,  1102,   591,   644, // 64
    
    // Out channel 1
      -271,  -545, -1519, -1067, -2005,  1325,  3592,  -635,    357,   -90,  -657,  1308,  1734,  -479,  -633,  1618,     489,  -867,  -358,   172,   322,   379,  -816,   550,    287,     5,  -247,  -102,    63,    41,  1413, -1807, // 96
     -3781,  1344,  1012,  -968,  2787,  -152,  -185,  -161,  -1551,  -523,  -346,   571,  -166,  -446,    71, -3462,    -537, -1654,  -579,  3629,  -131,  1674, -2249,   114,   1935, -2464,    -6,  -100,   937,   835, -2602,  1541, // 128
    
    // Out channel 2
      -270, -1442,  -535,  -562,   -63,   563,  -591,   444,    706,     4,  -418, -1152,   707,   724,  -670, -3869,    1273,  1544,   121,  -432,  1294,   -38,  -603,   159,   -307,  -719,   250,  -478,  -886,  1098,   607,  -748, // 160
      -301,   641,   482,  -687,  -717,  -751,  1300,    95,    570,  -450,   133,    91,    95,   427,  -128,   718,    -335,   152,   922,   906,   414,  1297,  1373,   -90,    639,  1672,  -184,   848,   215,  1041,   620, -2087, // 192
    
    // Out channel 3
      -856,   559,  1893,  -320, -1187,   239,   889,    87,    503,   840,  -119,   577,    15,   682,   391,    58,    1049,  -817,  -317,   379,  -358,  -594,   -48,   617,  -1953,  1221, -2116,   716, -1924,  -900,  -448,   701, // 224
      1086,   938,  2553,   453,  1921, -1420,   897,  -953,   -600,  -274,  -306,   938,  -828,  2323,   113, -1132,   -4988,   306,  1460,  1504,   128,  -961,   168,  -381,  -1706,   282,  -520,   429,   248,  1360,    18,  -481, // 256
    
    // Out channel 4
      -363,   734,  -199,  -725,  -173, -1029,  2096,  1363,    220,  -802, -1730,  1447,  -812,   249,  1728,  1153,   -1970,  -985,  -812, -1669,  1012,   901, -1440,  -262,    195,   462,  -318,    -4,   304, -2390,   738,  -608, // 288
      -722,   332,  1663,  -386,   501,  1017,  -722, -3866,  -2273,   634,   966,  1822,  2655,   287,   367, -1008,    -409,   602,  2214,  -602,    -7,  -337,   336, -1246,  -1144, -1204,   128,  -332,   598,   502,  -111,   784, // 320
    
    // Out channel 5
       554,   750,  -862,  -680,   368,    55,  1975,   318,    545,   293,  -603, -1023,  -923,   969, -2594,  1150,    -357,    31, -1165,   432,  -703,   198,  -706,  1120,   1242,  1064,   307,   443,    72,  -118,   239,   521, // 352
      -648,    40,   547,  3273, -1056,   180,  -962, -1058,  -1289,  -117, -1713,  2181,  -282, -2546,  -271,    25,    1217,  1118, -1744,    15,   663,  1266,  -636,  1080,   -413, -2418,   823,  -700,  1480,    56,  -945,   832, // 384
    
    // Out channel 6
     -1610,  -237,  1961,   350,  -415,   -66,   463,   -21,   -156,  -223,   415,  -285,  2563, -1454,   717,  -954,   -1423,  -297,   456,   315,   594,  -570,  -519, -1273,    590,   499,   -97, -1273,  1015,  -332,  -691,  -621, // 416
        20,   961,  -437,  -596, -1310,  1588,  -370,   464,    976,  1916, -1258,  -498, -1201,  1936,  1420,  -573,     474,  1681,  1055,   770,   820,   185, -1107,  -418,    296,  2281,  -230,   589,   962,   100,  -157,  1746, // 448
    
    // Out channel 7
     -1127,  1133,  1373, -3707,   121,  1538,  -640,  2128,    602,  -138,  -622, -1202,    82, -1392,   846,  -736,    3419,  -531,   332, -1432,  -650,  -503,  2285,  1159,   -657,  2053,  1006,   179,  -442,    32,  -299, -3813, // 480
     -1897,  -652,  1943, -2284,  -372,  -830,  1181,  -971,   2673, -1573,   275, -2849,  2290, -3690,   227, -1516,    1159,  -902,   125,    91, -2237,  1114, -2146,    32,   4089, -1598,   482,   216, -3309,  -314,    21, -1678, // 512
    
    // Out channel 8
      -863,  -850,  1936, -1105,   477,   -80,  -142, -1492,  -1588,   762, -1276,  1559,   296, -2015,  -404, -3259,    1064, -2193, -2643, -1621, -1245,   307,  2025,   983,   2610,  -198,  -605,   522,  2099, -2167,  1278, -1297, // 544
      -352,  -493, -2262,  3582,  1109, -1045,  -245,   466,   -426,  1802,  3168,  -674,  3362, -3410,  -105,  2169,    -109,   166,  1575,  1801,  -780,  2446,  -306,  2461,   -649, -1303,  1596, -2460,   406,   413,  -347, -2492, // 576
    
    // Out channel 9
      -130, -1659,   809, -1672, -3154, -1260,  -399,  -617,    556, -4907,   518,  -554,  2360, -2244, -1408, -1191,    -939,  2039,   872, -2404,   -28,   512,  -188,  -450,   2981,  1662,   967, -1780, -1404,   237, -1680, -1259, // 608
       108,  1667,   908,   169,   598, -2769,  -165,   687,    920, -2451,  1080,   632,    94,   270,  1102,   570,   -1401, -1199,   834,  -138, -2885,  -241, -1369,   467,   1603,  -348,  -245,   -98,  1722,  -367,   991,   -57, // 640
    
    // Out channel 10
       487,   373, -1081,  -176, -1305,   913,   307,  -113,   1012,   638,   515,   316,  -308,   131,   170,   714,     -82,  -227,   613,   325,   337,  -764,  -736,  -311,   2261,  -542,   603,  1479,  1733,  -101,  -577,  -613, // 672
       954,   900,  -381, -2013,  -993,  1166,   335,   580,   -388,  1784,   478,  1134,   699,  1446,   716,    51,    1336,   746,  -369,   896,   938,   227,     2,   590,   -765,  1200,    51, -2310,  -126,   501, -1247,  -162, // 704
    
    // Out channel 11
      -984,    93, -1059, -2107,   718,  2006,   481, -2247,  -1700,  -249, -2151,  2026, -1330,  -282,   432,   256,    -486,   424,  -331, -2249,  -221,  -364,   118,   -80,   -704,   265, -2207, -3009, -2315,  -663, -3171,   192, // 736
      -919, -1341,  -943, -1394,    26,   -28,  2166,   224,   -263, -1019,   400,   857, -1830,   -14,  -216,    92,     107,   540,  1494,   858,   528,   773,  -102,  -260,  -1100,  2091,   318,  -625,     4,  2691,   285,     9, // 768
    
    // Out channel 12
      2212,   -48,   971,   557, -1425, -2023,  -499,   178,   3342,  -209,   493,  -613,  1466,    31, -1103,  -105,    1237,  1001,  -190, -1984,   860,   664,  1377,  1618,   -723,  1651,    78,  -647, -1207,  -342,    32,  -804, // 800
     -1483,  -237,   977,   502, -1201,  -361,  1103,   390,   -582,   -12,  -151,   145,   556,  1334,   954, -1255,     736,    60,    80,  2528,  -203,   592,  2211,  4313,   -503,  2734,  -915,  1415,   670,   834,  -707,  -509, // 832
    
    // Out channel 13
      -491, -1225,  -291,   165, -2187,   231,   559,   383,    684, -1355,    86,   224,   646, -1054,     6,   851,   -1251,   -90,  -351,   762,  -877,  1016,   851,  -626,    479,  -754, -1618,  1381,   180,  -466,  -109,   560, // 864
       739,  1325,  -970, -1213, -1593,  -513,  -636,  1000,    182,  1341, -1151,   694,   262,    21,    67,  -270,    -120, -2258,   969,  -788,  -289,   236,  -835,   665,    504, -1163,  -917,  -272, -2010, -1100, -1994,  1205, // 896
    
    // Out channel 14
      1970,  -405, -2878,   403, -2885, -3142,  -400,   172,   1378, -1959,    98,  -292,  3618, -1338,  -612,  1128,    -916,  -708,   493,  -691,   281,  -347,   693,   490,   -789,   129,  -620,  2291,  1721, -2649,  -288,  -767, // 928
      -135,  1370,  -742,   -15, -2336,  -896,  1028,  -343,  -1099,  -697,  1467,  1344,  2426, -1441, -3132, -1529,    2013,  -991,  1309,     8,  2385,  -459,  -500,   994,  -1294, -1874,   240,  1741,  -354,   738, -1902,  -396, // 960
    
    // Out channel 15
      1658,    48,  1178,  -521,   545, -1090,  -498,   602,   -324,   672,    33,  1193,   858,  -100,  -489,   357,     258,   402,  -146, -1271,  -781,  1024,  -426, -1861,  -1307,   416,  -482,  -324,   956, -2046,   396,  -475, // 992
      -384,   -13,  -803,   948,  1433,  1689,    98,   128,  -1518,   613,  1881,  -353,  1086,  2102,   -17,   423,     435,  1477,    40,  1966,  -530,  -154, -1384,   -69,   -396,  -632,   152,  -222,   881,  1669,  -866,  -770, // 1024
    
    // Out channel 16
       108,  1097,  -591,   -32,  -764, -1018, -1766,    54,    782,   999,  1123,  -690,  -413,    49,   588, -1191,     918,  1183,   711,   442,  -394,  -613,   397, -1039,   -989,    12,  1913,   953, -1366,  1106,   972,  -243, // 1056
       919,  -284,   726, -1227,    71,  -453,  1069,  -715,   -854,  2047,   620,   645,   138,   941,  -105,  1536,    -256,  1184,    47,  1253,    92, -1443,  -346,   459,    585,   963,   -30,   971,   195,  1245, -1444, -1722, // 1088
    
    // Out channel 17
      -531,  1672,  1450,  -537,   916,  1539,  3562,  -403,   1026,   766,   855,   125,   467,   431,  -809,  -709,     960,  -403,   766,  3367,    79,  -237, -1439,  1182,    125,   938,  -608, -1555, -2787,    55, -2043, -2935, // 1120
     -2719,   929, -1086,  1273,  1378,  1414,   400,  -133,  -1342, -2361,  -541,   335, -1174, -2419,  -545,  2100,     229,  1767, -1618,  3302,  1364,     5,   479,  2128,    -25,   446,   512,  1012,   910,  -129,  -424,  1844, // 1152
    
    // Out channel 18
     -1452,   407,   901,  1256,  2289,  1073, -2620,  -712,    720,  1316,  -277,  2683,   637,   101,   241,  -261,    2352,  2249,  1445,   172,    75,  -543,  -594, -2893,  -1327,  -159,  -592,   824,   996,  -296,   291, -1310, // 1184
      -143,   356,   768,  -799,   765,   295,  1775,  1065,   1299,   958,  1051,  -554,  2226,  -878,   292,  -120,    1523,  2160,  -210, -1339,  1878,   534, -1597,   149,   1719,   632,  -734,   268,  -663,  1987,   384,   910, // 1216
    
    // Out channel 19
      -231,   259,   258,  -202,  -187,  1385,  1352,   782,     42,   -71,   -71,  -278,  -407,   -75,   -78, -2179,     115,   488,    18,  -499,  1333, -1394,   114,   717,   -299,   559, -1181,   744, -1795,  -523,  -238,  -723, // 1248
       403, -1102,   258,  -314,  -317, -2321,  1189,  -163,  -1696,   -18,   578,  -272, -2384, -1180,   362,   894,    -874,  1543,  1500,  2231,  -510,  1048,  1416,  1552,   -865,   285,   587,  3325,   452,  1338,   496,  -298, // 1280
    
    // Out channel 20
     -1474,  -838,  -112,  1689,  -985,  1953,   968,  2621,  -1790,  1935,  1395, -1067,  2733,  1327,  -103,  1217,     580,  -715,  -190,  3692,  -393, -4183, -1799, -1608,  -2703,  2551, -1835,  2531, -1352, -1425,   497, -1269, // 1312
       492,  2130, -1170,   136,   729,   151,   222, -1056,   -368,  2439,  -167,   101, -1295,  2361, -1647,  -801,   -2258,  -294,  1762,    21, -1778,    49,  -593,   842,   1030,   938,  -483, -1270, -1229,  -585,   602,  2894, // 1344
    
    // Out channel 21
      -173,  -374, -1173,  1006,  -441, -1084, -2534,     6,   -978,  -517,   403, -2335, -1748,  -988,   241,  -573,     245,  -438,  1264,  1268,   101,  -660,    57,   391,   -124,   636,  -559,  2233,  -521, -1042,  -815,  -367, // 1376
      -301, -1509,   920,  -899,   490,    37,  -420,  -194,    755,    21,   818,   682,   789,   646,   155,  1100,   -1053,  -386,  1233,  -288,  -731,  1277,   956,   527,   -224,   807,  -811,  1356,  1837,  -445,   541, -1495, // 1408
    
    // Out channel 22
     -4701,  1766,   905,  -435,  -569,  -460,   679,   910,   -531,  1482,   399,  1115,  2875,  1789,  -776, -1994,     687,   240,  2216,  -714,  -537,  -279,  -559,   337,   -272,   383,  -329, -1289,   588, -1685,   640,   167, // 1440
       383,  2560,   219, -5495,  -820, -1006,  1998,  -237,  -1039,  2116,  -133, -3188,   900,   209,  1087, -2748,   -1620,   481,  1234,  1082, -1077,  -202,  1390,  1767,   -365, -1453, -4941,  -457,  -244,  -423,  -185, -3074, // 1472
    
    // Out channel 23
      -420,  -105, -1033, -2524,  1336,  1241,   811,   120,    113,  -296, -2289,  5337,  -744,  -611,   359,    -8,    1611,   676,  -492,  -878, -1566,   212,  2019, -1689,    699,   737,  1043,  -121,  1678,   701,  1482, -2171, // 1504
      -311, -1153,  -234,   347,  1668,   197,   243,  3724,   3334, -1333,  2511, -2343,  2063,  -289,  2098, -2297,    1360,  -177,   543,  2066,  -535,   291, -1901,   869,   2242, -1853,   788, -1685, -1643,  1696,  -817,   501, // 1536
    
    // Out channel 24
      -381, -1111,  -718,   766,    34,  -697,   677,  2007,  -2102,  2783,   336, -1680,  -771,   284,  -235,   259,     348,  2246,    65,  1265,   445, -5615,   498,  -148,  -1368,   753, -1132,  2831, -5246,   707, -1740, -1523, // 1568
     -1186,   422, -1699,   407,   376,   160,  2303,   -45,   1372,   430,   471,     8,   546, -1199, -2252,   927,     136,  2169,  1573,   479,  1708,  2185,  -465,  1364,    -16,  1897, -1274,   956,   548,  1381,  1499,   601, // 1600
    
    // Out channel 25
      -306,  -475,  1110,  -229, -1122, -2445, -1006,  1574,   -104,  -119,   362, -1167,  -575,  1471,   281,    76,    2161,  -527,   559, -1553, -2594,  -331,    48,  -708,   1398,  -702,  1496,  2364,  1032,   704,   775, -1457, // 1632
       785, -1284,   588,   177,   858,  -292,  -752, -1090,   2481,   186,  1426,  -114,  1632,  -443,  -334, -1041,     601,  -584,   905,  1602,   -83, -1036, -1522,  1647,   2853,   502,   475,   123, -1453,  -972, -1516,  -555, // 1664
    
    // Out channel 26
     -1937,   143,   459,  -497,  1053,   832,   733,  -559,    945,  -746,   285,  1403,  1123,   432,  -239,   949,    1357,  -253,  -317,   175,  1175,  -259,   813, -2528,   1172, -1103,   261, -1602,   767,   903,  1985,   767, // 1696
       138,   707,   464,   430,  -965,  -578,   396,   160,   1057,  -876,  -929,  -811,  1594,  -221,  -935,  -752,    1715,   278,  1784,   789,   278, -1449,   -65,   437,   -168,   640,   981, -1348, -2112,   622,    56,  1123, // 1728
    
    // Out channel 27
      -382, -1564, -2552,    72,  1861,  -309,   256,  1007,  -1359,   918,  -100, -2084,  -841,   364,   795,  -326,    -130,  -112,   471,   766,  1501,   575,  -213,  2129,  -1347, -1341,   501,  -643, -1809,   192,  -282,  -519, // 1760
     -1245,   890,  1405,  -807,  -403,  1403,  1350,  -304,  -1239,  1424,  1403,   919, -1290,  -166, -2211,   198,     960,  -499,  1943,  1029,   870,  1531,  1051, -1123,  -1039,   220,   197,  -198,   235,   499,  -639,  -709, // 1792
    
    // Out channel 28
       914,   -27,   883, -2667, -2843,   155, -1260,   624,   -709,  1116,  1664,  1112,  1487,   679,   433, -2130,    1652,   -20,   173,  3150,  -323,  -217,   444, -1751,   -895,  1350, -2250,  1375,  -596,  -163,   625,  -156, // 1824
       721,   334,   139,  -774, -1586,  -284,  1887,   375,   1962, -1348,  -595,   343,   462,  -779,  -724,  1638,     -39, -2876,    99,    91,  1845, -1196, -1438,  -886,    956,   111, -2984,   651,  -791,   285,   979,  -954, // 1856
    
    // Out channel 29
     -1055,  1018,    24,    46,  -530,   652,  4069, -2350,   2216,  -119,  -343,  -640,   906,  1025,   746,  -672,     300, -2480,   342,   -14,   463,  -252,  -827,   944,    836,   960,  -549,  -481,   -40,  1087,   880,  -235, // 1888
      -823,  2067,   479,  -180,   969,  -753,  -345,  -347,    701,  2226,  -868,   676,    50,   807,   196,  -272,    -772, -1095,     8,  3877,   379,   704,  -927,  2689,    429,  -769,  -471,   397,  -239,  -313, -1116,   300, // 1920
    
    // Out channel 30
     -1459, -1100,  -131,  -847,  -645,   123,   823,  1978,   1167,  -736, -1794,  1102,   593,   800,   488, -1170,    -989,   529, -1815, -1731,  -611,  -227,  -791, -1418,    -72,  -206,   518, -2606, -1418,   124,   453,    86, // 1952
       154,  -762,   488,  -979,  2502, -1192,  1456,   283,   1879, -2335, -1316,  -551,  1335,  -876,  1052,  -454,     730,  -793,  -400, -1396, -1202,   910,  -638,  -183,   2273,   -60,   801,   674,   412,   685,  -189, -1790, // 1984
    
    // Out channel 31
     -1118,  1435,  -122,  -508,   710,   180,  -121,   -86,   -370,   419,   633,   162,  1377, -1014,  -480,    84,    1811, -2339,   690,   739,  -126,  -105,    14,  -813,    738,   672,  -467,  -895,  -327,  1438,  1481,   264, // 2016
       321,  1739,  -247,   413,   850,  -158, -1213,   574,   -585,   131, -1669,   575,   196,   724,  1128,   504,     287,  -836,  -396,  -292,  1015,   412,  -776,  -662,    721,   512,  1190, -1321,  -706,  -531,  -286,   333, // 2048
    
    // Out channel 32
       597,  1153,   947,  -272,  1325,  1903,  1203,   186,  -1189,   -70,  -281,  2024,  -521, -1739,  -480,   582,    -332,   542,   196,  2489,   666,  1705,     3,  -569,    498, -2406,   513, -1096,   -58,  -644,  1123,  -926, // 2080
      -461,  2243,  -878,  -504, -2618,  1466,   647,  1006,   1536, -1024,  -323,  1346,   807, -1192, -4205,   140,    1072,   366,  -641,  -332,  2371,    63,  2224, -1032,   1602,  -151,  -869,  -526, -1270,  2251,  -819,  1549, // 2112
    
    // Out channel 33
      -910,   764,  2156,   204,   465,  -832,   184,  2123,  -2637,  2297,   725,  -357,   239,  -587,   590,   144,    2190,   892,  -417,  -164,  1527, -2506, -1736, -1770,   -804,  3964,  2415, -1220,   227,    57,   471,  -567, // 2144
       475,  -523,  -135,  1085, -1311,   -36,   467,   716,   2036,  -303,  -386,  -763, -1183, -1209,   807,  -846,    2680,  -301,   748,  -859,   405,  1771,   470,   714,  -1379,  1430, -1394,  4470,  -198,  1196,  1856,   470, // 2176
    
    // Out channel 34
       485, -1238, -1802,  -946,  1246,   968, -1320, -2227,   -856,  1003, -1561,  2974,   -76, -1451,  -650,  -627,    1420,  -557,   786,  -238,   732,   -57,   292,   609,   -375,  1031, -1194,   290,   297, -1810,  -549, -1238, // 2208
      -681,  -648,  -617,  -262,  -114,   142,  1897,   -43,   1027,    55,  4199,    89,   841,  -207,    91,   767,      76,   574,   707,   -47,  1768,  1906,   102,  1005,    528, -1778,  -325,  2380,  -468,  1034,  1097,    93, // 2240
    
    // Out channel 35
     -2139, -1871,  -125, -1268, -1005,   287,   523,   515,   1010, -1028, -1202,  -979,   757,  -316,  -625,  -684,   -1045,   860,   733,   922,   689,  -817,   205, -1198,   -308, -2273,   136,   705,  -220,  1174,   -61,    75, // 2272
      -753,   167,   363,  -289, -2101, -2303,   679,   -18,   1017,  -936,  -634,   152, -1093, -1352,  -473,  -528,    -280, -1499,  1846,   973,  -254,   -43,  -118,   754,    -39,  1883,  -911,  -147,  -559,   -16,   198,   -22, // 2304
    
    // Out channel 36
     -1518,   -82,  2074, -1546,   138,  -124, -1283,  -928,    821,   269, -1198,   667,   773,  -786,  -712, -2555,    1095,   459,   182,   756,   220,  -453, -1434, -1981,  -1625,   104,   -11,  1194,   564,  -109, -1765,  -706, // 2336
     -1022,   236, -1949,   653,   226,  -374,  1215, -1429,   1482,   370,   962,  -574,  -167,   517,  1167,   503,    -297,   249,   247,   619,   230,   -46,   392,  2921,   -878,  -416, -1314,   688,   956,  -230,  1038,  -482, // 2368
    
    // Out channel 37
      1159, -1130, -1376,  -154, -1047,  -446,  1582,  -103,    -14,   958,    -8,  -378,   531,   614, -2879, -1283,   -1098,  1518,  1253,  -252, -2976, -1053,  1944,   965,  -1596,  1309,   417,  -518,    31, -1619,  1639,   466, // 2400
     -2553,   146,   723, -2116,  -522,  -571,  1514, -1128,  -1312,  1081,  -316,  -542,   388,  1169,  -962,   281,    1132, -1568,  -606,  2133, -2018,   260, -2059,   -22,    -29,   -48,  -297, -2258,  1714,  1605,    34,  -379, // 2432
    
    // Out channel 38
       437,  -397,   -45,    -1,  -197,    54,   555,  -779,   1354, -1271, -1724, -1863,  -535,  -699,  -249,  -832,     866,  2014,  -605, -1376,  -363,   840,   511,  2944,   -141,   405,  1077,  1583,  1505, -1441,   188, -1153, // 2464
      -371,   173,  -888,  -343,  2722,  -216,  1176,   419,   -965,   -98,   446,   613,  1594,  -124,   481,  1225,    -988,  1177, -2287,   718, -2708,  2495,  1324,  2253,   -672,  -762,  -267,   -12,   570,  1361,  -103,  -837, // 2496
    
    // Out channel 39
      -762,   267,  2029, -1702,  -597, -1353,  1015,   169,   -162,   728,   517,  6421,  1806,  1115,   950,  1967,     856, -1322,  -209,  -236,  -291,   144,  -135,  -854,    455, -2040,   217,   -42,  -481,  -122,  3370,   323, // 2528
      -229,   449,  1533,   325,   544,   549, -1812,  -465,   2169,  1478,  -138,  1078,  7304,  2417,   -43, -1477,     521,  -803,    95,  1933,  -913,  -597,   292,  1111,    392,   501,  -896,  -482,  -846,   441, -2106,  1718, // 2560
    
    // Out channel 40
       424,  -567,  1140,  1005, -3278,  1152, -1868,  1661,  -2220, -1775,  2728,   934,  -609,   492, -1649,  -481,    -168,    90,  1015,   257,  -940,  -464,  -899, -1771,    436,   474,  -517, -2670, -1234,  1522,   413, -1726, // 2592
       943,   -27,  -865, -1979,   524,   310,    17,  -137,   1642,  -804, -1149,  -236,  -417, -1744,  -859,  -460,     550,   186,  2658,   966,   615,   449, -1461,  2153,   1989,  -340, -1682,    93,   809, -1368,  -972, -2030, // 2624
    
    // Out channel 41
       148,   160, -2241,   609,  -834,   739,  -780,  -292,    -89,  -687,  -129,   445,  -503,   -98,  -673,   382,     331,  1406,    35,  -343,  -145,   685,   639,   334,     11,   929,  -644,  -607,  -187, -1841,   580,  -502, // 2656
       272,  -712,   -35,  -361,   -17,   391, -1742,   512,     73, -1630,  -444,  1549,  -595,   447,   125,   145,     102,  -150,  -298,   925,  -552, -1132,   490,  -679,    831,  -584,  -457,    92,  -401,    21,  -799,  -746, // 2688
    
    // Out channel 42
       -40,  1086,   250,  -983, -2185,  1508, -1437,  1234,  -3713,  -401,   757,  1718,   875,  1105,  1017,     4,   -1109, -1444,   296, -1248,    -7,  -620,  -161, -1476,   1290,  1500, -1480,  -164, -2534,  1703,  1269,  1718, // 2720
       549,   817,   244,  -600, -3197,   880,  -222,  1301,  -1581,   971,  -484,   497,  -994,  -488,  -298, -2891,     113,    42,  1285,   946,  2637, -1172, -1088,   709,   2135,   728,   595,  -237, -1487,  1828,   683, -1689, // 2752
    
    // Out channel 43
     -1364,  -740,  -220,   124,   115,  1125,  -111,  -494,   -526,  1547, -1639, -1330,    77,  1462, -1240, -1703,    -954,  -164,  -824, -1171,   111,  -396,  -328,  -145,    325,  -211,   350,  -194,   593,  -372,  -405, -1330, // 2784
      -944,   983,   -65,  -839,  2109,   -25,  3111,   289,   2297,  1109,  1027, -1274, -3365, -3569, -2387,  1367,    1698,  -817,   465, -1575,   863,  1580,   -63,   752,   1155,  1689,  2205,   644,  -126,  1616,   648,  -426, // 2816
    
    // Out channel 44
     -2995,   857,  1958,   155,   168, -1442,   -61, -1103,    150, -2042,  -231,  2608,   436,  1471,   687,   351,     807,   595, -2824,   426,  -594,   549,   952,   563,   1955,   868,   367,  -353,  1352, -1789,  -587,    67, // 2848
     -1759,   352,    19,  3330, -1689, -1635,  1365, -1117,    647,  -175, -1819,  -866,  1093, -3020,   355,  -350,    1928, -1411,  -153,  -316, -1075,  1273, -1318,  2610,   -110,   672,  1291,  1004,   333,  1148,    40,  1088, // 2880
    
    // Out channel 45
       113, -1423, -2764,  -875,   189, -1687,   464, -3160,   1379, -1544,  -193,  -204, -1703,  -596,  -360,   847,    -344,  -342, -3966, -2008,   254,  1767,  -218, -1116,    124,   115,  1178, -1152,  -687,  1165,  -181,   -52, // 2912
       376,   134,  1493,  -238,  1736,  -242,   966,  -756,  -2753,   -12,  1173,   265,  1342,  1491,   581,  -547,     252,   621,  -512,   517, -1485,   650,  -190,    12,  -1914,   311,   117, -1541,   532,  1643,  -767,  -412, // 2944
    
    // Out channel 46
      -391,  -488,   590,   427,   -41, -1043,  3060,   217,    120,  -564,  -966,  3963,  2117,  1117,  -143, -1562,    1200,  2497, -2051,  -605,  -107,  -578, -1057,  -448,    564,  1647,   854,  2614,  -587,  -937, -1342,  -395, // 2976
      -128,  -733,  -464,   795, -2016,   320,  2775,  2019,   -950, -2095,  2520,  1702, -1019,  1037,  1333, -1111,     282,   921,   107,  4527, -1827,   509,   207,   739,   1858,  1560,  -429,   653,     8,   869,   296,   274, // 3008
    
    // Out channel 47
     -3794,   357,   884, -1661,     2,   -43,  -471,  2090,   1337,   397,   158,   523,  1027,  2453, -3840,  -711,    1043,  -843,   409,  2074, -4007, -1658, -1364,    57,   1681,   358,   528,  1023,  -562, -1927, -1436, -1160, // 3040
     -1918,   398, -3703, -1976,   388, -2450,  1461,   108,  -1741,   416,  -779,   937,  -557,  -962, -1851,  -311,    -711,    59, -1341,   934,  2011,   -12,   244,   405,    599,   894,   327,   480,    89,   799, -1409,  -461, // 3072
    
    
};

const int16_t cg_FC2bias[48] = { // Co,H,W,Ci: (48,)
     -2630,   959, -1023,   510,   480, -2756, -2249,   170,   -806,  -401, -2570,   553, -5579,  1086,  1252,  -579,   -1195, -2373, -5970, -1109,  -424,  -445,   913, -4821,  -1132, -1305, -3300,  -819,  1133, -2860,  2396,  -720, // 32
     -2518, -4400, -3203,  2949,  1305,   157, -1093, -3919,    393,  1054, -1300, -2063, -1375,  2295, -5910,  3453,  
};

const int16_t cg_FC3weit[1728] = { // Co,H,W,Ci: (36, 48)
    // Out channel 0
     -1291,  1352,  -733, -1908, -1861,    977,  1620,   648,  1842,   374,   -1035,  -698,  -984,  -953,   736,    476,   893,  -913, -1919,   -46, // 20
     -1917,  1072,    83,  -718,  -104,  -2647,  1457,  -969,   249,  -129,   -3192,   347,  -931,  -315,  -898,   1672,   122,  1783,  1256,   481, // 40
      -611,  1514,  1457,  -310, -1836,  -1759,  1570,  -441,
    // Out channel 1
       832,  1143, -1530,   751, -1620,   2198,   580, -1356,  1783,   -27,    1158, -1477,  2178, -1217, -1183,  -1813,   -39,  1495,  1524, -1299, // 68
      -496, -1263, -1924, -3226,   769,    662, -1142,  1232,   120,   -26,     785,   727,  1023,  1640, -1634,    304,    56,  1769,   -74, -1160, // 88
       238,  1037,  -298,  2074,   392,   1227,  2125,   -17,
    // Out channel 2
       405, -1992,  -386,   958,   878,  -1428,  -839,  -192,    -1,  -774,   -1361,   589,  -582,  -660,  1010,    225,   972,   160,   741,  1591, // 116
      -854,  1384,   453,  1197,   923,    992,   814,  1343,   -22, -1765,     799, -1592,   135, -1097,   597,    521, -1903,    36, -1905,  1701, // 136
      -586,   139,  -731,  1407,   887,   -552,   143, -2444,
    // Out channel 3
     -1349,  2522,  1789,    -6, -1876,   1104,  -700, -1387, -2645,  -516,    1691, -1455,   -65, -2208,  1704,     88,   868,   -87,   937, -1085, // 164
      1357,   493,   818,   966,  1758,  -1758, -2479,   671,  3920,  1435,    1005,  1660, -2764, -1434, -2027,   -535,   -33, -2460, -1679,  -612, // 184
     -5530,   831,  -672,  -720,  2531,    578,     3,  -910,
    // Out channel 4
      -195,  -298,   822,   477,  -142,  -1262, -1133,   -99,  -793,   308,   -1334,   964,  -335,  -240,  -713,    400,   566,    48,   565,  1180, // 212
      -950,  1032,   902,   980,   726,    274,    -7,   948,  -690, -1534,    -267,  -338,     9,   236,    82,    568,  -507,  -430, -1487,  1332, // 232
       138,   424, -1222,  1349,   527,   -404,   683, -2049,
    // Out channel 5
      -520, -2463,  -308,   953,  1591,  -3793,  -669,   -31,  -261,  -350,   -1503,  1744, -2228, -3028,  1532,    701,   905,   590,   131,  1148, // 260
     -2501,  1444,  1075,  1921,  1373,    910,  -319,  1820,   950,  -866,     686,  -861,  -608,  -211, -2434,   2092, -3129, -1292, -2386,  1411, // 280
     -1713,   187, -1411,   867,   639,  -1176,  1079, -2718,
    // Out channel 6
       627,     9,  -924,   186, -1378,   2143,   834,  -359,  1655,  -305,    1146, -1277,  1822, -3122,   113,  -2554, -1361,   328,   440, -2013, // 308
       627, -1375, -2113, -1272, -1240,  -2270, -1171,  -557,  1144,  1427,     617,  1428,   370,   694, -1077,  -1425,  1248,  1694,  1590,  -589, // 328
     -1216,  1601,   730,   542,  -870,   1244,   336,  1838,
    // Out channel 7
     -2298,  1924,   647,  -873, -3392,    655, -3988,  1054,    29,  2631,   -3515,  2128,   885,   371, -1706,   2283,  -684, -2289,  -724,   733, // 356
     -2528,  1101,  2093,  -883,  -800,  -2478,  -119,   303, -1599, -2241,   -1740,  1345, -4028,  1662,  -934,    958,  1426, -1174,  -508,   412, // 376
       252,   239, -2634,   839,  1641,  -2380,  3975, -2737,
    // Out channel 8
      -339,  -316,  1750,  1391,  1655,   -167, -1941, -2402, -1847, -1418,    -685,  -192, -1344,    99,  1212,   -799,  1628,   941,  1792, -1912, // 404
      1969,    30, -2350,  -518,  2702,   1139, -1639,   808,   509,   496,    2007,  1449,  -860, -1190,   648,  -1190,  1314,   136, -2167,  -594, // 424
       223, -2770,  -448,   372,   866,    603,  -796, -1130,
    // Out channel 9
      1153,  1211,   297,  1283, -1491,   3219,   253, -1688,  1533,  -890,    1041, -2485,  3689, -3150,    96,  -2565, -1674,   947,  1358, -1998, // 452
      1140, -2188, -2784, -2878, -1032,  -1653, -1961,   222,  1548,  1649,    2193,  1912,   -59,   245, -2444,  -2319,  1238,  1003,  1470, -1051, // 472
     -1643,  1345,   560,  2096,  -308,   1557,   900,  1471,
    // Out channel 10
       199,   755, -2144,   986,  1450,   -777,  1189,  1231, -2087,   613,     -66,   795,  -851,   541,   111,   -232, -1362,  -215,   107, -1380, // 500
       984,  -737,   929,  -400,  -875,    -77, -4239,    69,   878,  1240,    1177,   549,  -421,  -215, -1578,  -3065,  1872, -1573,   -26,  -292, // 520
       576, -2130, -1110, -1159,  1047,   -204,   928,   731,
    // Out channel 11
     -1727,  1544,  1141,   685,   -89,   3023, -1772,  -414, -1461,   397,     667,  -308,   927, -2443,  1468,   -215,   578,  -655, -1495,  -170, // 548
       423,  -719,  -190,   894,  -355,  -2044, -2737,  -234,  2793,  1564,    1602,  1491, -2591, -1288, -2539,  -1674,  -277, -2644,  -212,  -733, // 568
     -4539,   642,   213,  1049,  1273,  -1057,   -50,   530,
    // Out channel 12
       423,   832,   353, -2418,   639,   1575,  -269,   682,  2668,  -699,    1255, -2548,  -932, -2541,   302,    -15, -1459, -1739,   506,  -447, // 596
     -1409,  1900,   234,  2333,  -632,    729,  1173,    94,   893, -1538,    1225,   152,  2796, -1157,  2405,   -236,    61,   845,   844,  3113, // 616
     -1069,   142,  -899,  -923,  1182,   -745,  1402, -2851,
    // Out channel 13
     -3710,   529,  -571,  -623, -3373,   1587, -1575,   703,  -582,  1846,    2562,  -442,   792,   750, -2734,    809,   137, -1315, -2408,   265, // 644
      1489,   -80,   557,   153, -2232,  -1455, -2588,  -237, -4442, -2202,    -834,    70,  1283,  2514,  2020,    169,  1975,  1197,   475,   727, // 664
      2527, -3409,  -837, -2387, -1454,  -2123,  1721,   458,
    // Out channel 14
       397,  1178,  2990,  2031,   838,   3723,  -155, -1138,  -704,  -273,     881, -1988,  4275, -3406,   603,  -1267, -1514,   -94,   489, -1282, // 692
      3018, -1171, -1808, -3354, -1187,    -87, -4827,   -79,  1766,  1556,    3596,  3446,  -782,  -538, -2600,  -4636,  1610,   358,  1796, -1760, // 712
     -4608,  -342,   187,  1358,   694,    289,  1189,  1514,
    // Out channel 15
      1550, -1349, -2271,  -782,  -145,   -133,   384, -1057,   380,  1179,   -1302,  -835,   488, -1807,   -62,  -1387,  1445,  2248,   852, -1180, // 740
       741, -1075, -1293,  1164,  1746,    518,   992,  1853,  -753, -2881,    -876,  -467,  2015,  1526,  -610,    733,  1008,  3539, -1776,   687, // 760
      1454,  -281,  -654,   985,  2168,   1671, -1409, -1612,
    // Out channel 16
       862,  1509, -1470,   -95,  -627,   2137,   814,  -483,  1123,  -258,    1411, -2248,   767, -1044,  -349,  -1874,  -677,    78,  -117, -1128, // 788
       610, -2120, -1718, -1320,  -985,  -1658,  -871,  -190,   524,  1062,     334,   985,   208,  -140, -1505,   -748,  1998,  1595,  1508,  -828, // 808
     -1610,  1188,  1498,  -138,   207,    694,  -593,   869,
    // Out channel 17
        38, -2059,  -305,   550,   858,   -352,  -674,  -166,  -298,  -464,   -1165,   579,  -830, -1084,  1253,    721,  1308,   259,   396,  1341, // 836
     -1436,  1161,  1002,   802,  1366,   1129,   282,  1238,   423, -2115,     451,  -883,  -202,  -262,   230,    818, -2785,  -667, -2445,  1041, // 856
      -940,  -159, -1801,  1024,   619,   -489,   918, -2354,
    // Out channel 18
       616,   692,   968,  1594,  1144,   -941, -1900, -1415, -2281, -3291,     148, -1476, -1136,   283,  1575,    255,   194,  1177,  -165,  -291, // 884
      2512,  1126,  -780,  2158,  1975,    340,  -951,  1388,   169,   234,    1491,  1278, -4572, -1006,    69,  -1156, -1971, -2994, -1860,    32, // 904
      -878,  -858,  -430, -1795,  1185,    337,  -166,  -870,
    // Out channel 19
      1334, -1993,  -497,  -459,  -942,    542,  -878, -1591,  1652,  -552,     750,   164,  1374,  -903, -1058,  -1500,   563,  2355,  2611,  -927, // 932
      -484,  -528, -3020,    16,   985,    706,   228,   300,  -385,  -216,     395,  -190,   401,  1064,   213,    -40,   -78,  3076,  -793,   201, // 952
      1108,   277,   -14,  2641, -1593,   2427,  -355,   538,
    // Out channel 20
     -5745,  1518, -3376,  -337,   -23,   1675,   315,  1685,  2023,  -130,   -2996,   773, -2578,  -737, -3709,   -675,  1313, -2387, -2798, -1297, // 980
      -646,   983,  1325, -1878,  -401,   -175,   876, -3022,  -454, -2244,   -5008, -1300,   814,    90,   523,   -404,  1368,  1452,  1126,  2159, // 1000
      1320, -1808, -1437, -3332, -2663,     93,  5410, -2489,
    // Out channel 21
       959, -3074, -1101,  2568,  1826,    -12, -2499, -1737, -1292, -2923,   -1944,   790,   901,  -395,  1081,     90,  1391,   986,  1440,   419, // 1028
      2221,    22, -1837,  1606,  3244,   1405, -1836,  2406,   656,  1628,    1724,   866,  -249, -1179,   225,    357, -1270,  -376, -3358,   587, // 1048
        16, -1241, -1458,  2204,  2988,    809, -1976, -3070,
    // Out channel 22
       571,  1195, -1018,  -142,   -99,    934,   582,    47,   634,  -264,     871, -1653,   559,   121,  -538,  -1828,  -366,  -389,  -782,  -915, // 1076
      1466, -1319, -1170, -1149,  -703,   -856,  -502,  -486,   444,   956,    -145,  1311,   419,  -572, -1661,   -834,  2324,  1256,  1440, -1159, // 1096
     -1441,  1338,  1392,    61,   142,    450,    83,   831,
    // Out channel 23
       610,  -917,   -99,  1593,  1721,    -46, -1018,  -789, -1155, -3607,    -419,  -635,  1953,   274,  1187,     49,   553,   733,   526,  -395, // 1124
      2365,   562, -1200,   677,  2463,    787, -1890,  1551,   511,   618,    1405,  1145, -1429,  -999,   151,   -818,  -445,  -660,  -462,   -24, // 1144
      -767,  -789, -1227,    11,  1617,     63,  -490, -1816,
    // Out channel 24
     -1002,   883, -1699,   129,  -547,   -579, -1001,  2474, -1223,  -323,   -5755,  1575,  -148,  1259,   660,   1121,   303, -1581, -1092,   966, // 1172
     -1567,   664,  2117,   -38,  -337,  -1205,   127,   662,  -156,  -914,      43,  -471,  -988, -1098, -2584,   -473,  -968, -1612,   137,  -574, // 1192
       593,   773,   272, -2811,   232,   -913,  3959,  1304,
    // Out channel 25
       782, -2094,  -240,  1833,  1342,    430,   129,  -865,  -318, -1653,   -2340,   119,  1749, -1616,   447,   -129,  -267,  -432,   386,   506, // 1220
      1832,   113, -1545,  2332,  1990,   1337,  -677,  1593,   217,  1131,    1132,   501,   804, -1152,  -677,   -709,  -615,  -655,  -613,   579, // 1240
      -361,  -188,  -323,   219,  1950,    251, -2260, -1904,
    // Out channel 26
      -253,  1228, -1668, -1906, -2623,    818,  -754,  2042, -2386,   998,     965,  1547,   232,    28,   902,   1134,   245, -2063, -2734,  1749, // 1268
      -433,  1084,  2730,  -221,   492,  -1258,  -305,  -303,   115,  1390,   -1109,  1043, -1538, -1281,  -912,    460,  -236, -1951,  1303,  1226, // 1288
       557,  1306,  -664,   570,  -310,  -2414,  1532,  1796,
    // Out channel 27
       -47, -1418,   390,   430,   429,  -1264,  -586,    88,  -418,    29,    -780,   869, -1482,  -169,  1334,    246,   695,   -83,   131,  1783, // 1316
     -1015,   806,   682,   483,   688,    969,  -402,   886,  -425, -1724,     -42,  -508,   -59,    58,   975,    738, -1507, -1194, -1562,  1347, // 1336
      -720,   458, -1414,   811,   838,   -813,  1230, -1910,
    // Out channel 28
     -1016,  -206,  -873, -1978, -3508,   1156,   376,   592,  1284,   762,     243, -1870, -1254,   619, -1723,     31,   -51,  -659, -1506,   407, // 1364
       722,  -460, -1252,  -271, -3165,  -1702,  -774,  -157, -4511, -1511,   -1235,   314,  1667,  2850,  1995,   1307,  2137,  2061,  2502,   435, // 1384
      -331, -3118,  1133, -2760, -3695,  -1497,  2698,  1064,
    // Out channel 29
      -791, -1537,   -95,   260,  1090,    273, -1316,  -205,  -626,  -471,    -941,  1957,     5,  -999,  1847,    597,  1589,   367,   488,  1220, // 1412
      -264,  1804,   784, -2023,  1298,   1466,    94,   781,   680, -1823,     156,  -624,   131,   101,   971,   1007, -2594,  -296, -2947,  1279, // 1432
     -1226,  -237, -1593,  1220,   804,   -751,  1174, -1515,
    // Out channel 30
      -825,  -238,   878,   237,  -142,   1347, -1086,  1510, -2743,  1412,    -998,   735, -1383,   614,   543,    924, -1915, -1519,  -135,  1510, // 1460
     -1683,   502,  1749,  1022,  -411,   -196,  -793,   179, -1212,  -926,    -719,   516, -2006,    79, -1536,    910, -1701, -1520,  -577,   399, // 1480
      -663,  2133, -1560,  -422,  -230,  -1374,  2869,  -461,
    // Out channel 31
       894,   514,  -786,   922,  -692,    531,  -432, -2573,  -241, -1609,   -1238, -2254,  2708, -2184,  1167,   -601,   519,  1583,  1636, -1308, // 1508
       130,   266, -1678, -2237,   436,    750, -1792,  1329,   738,  1090,    1343,  1070,   173,   356, -1427,   -699,   362,   770,  -292,  -357, // 1528
      -734,   -52,   157,  1604,  -142,   1662,  1236,   147,
    // Out channel 32
       671,   456, -3564, -2485, -2805,    623,   -65,   104,  1572,  -114,     531, -1214,  1742,   339, -2695,    307, -1403,  -694, -1927,   249, // 1556
      -844,    49,  -779, -1835, -1146,  -1669,   662,   166,  -572,  -138,    -661,   189,   193, -2080,   799,   1171,  1542,  2683,  1414,   831, // 1576
       384, -3796,  1373,    74, -2386,    152,  2749,  1578,
    // Out channel 33
      1692,   463, -1216,   273, -2933,   4124, -3479, -1275,  1516,   -39,    1417,  -849,  2909, -2202, -3355,   -875,   151,  1822,  1763,  -597, // 1604
       198, -1833, -2175, -1636,   610,    658, -1295,  1177,  -121,  -310,     721,  -717,  1253,  1345,  -585,    496,   141,   327,  -599,  -658, // 1624
      -370,  -760,  -430,  4056, -1683,   1965,  1680,   312,
    // Out channel 34
       185,  1271,  -835, -2749, -2087,    679,  -910,  1121,   432,  2121,     410,  -262,   821,   507,  -907,   1251,   242,  -928, -1991,  -370, // 1652
     -1256,  1698,   721,    37,  -485,  -2834,  -165,   541,  -728,   466,   -2934,   822,   -42,  1661,   -31,   2884,  1567,   538,   -24,  -373, // 1672
       792,   365,   682, -1646,  -735,  -3410,  1294,   992,
    // Out channel 35
      -149,  3617, -1636,  -970, -2650,   1406, -1179,  1770,  -700,   530,   -1164,  3956, -2220, -3591,   262,  -1050,  1689,   924, -3242,    60, // 1700
     -1466,  1420,  3117,   711,   417,    341,   114,  -387,   215,  2213,     581,   109,  2153,   -79,  1169,    292, -1424,  3505,   250,  2660, // 1720
      -721,   644,  1207,   102, -1659,    840,  3745, -5860,
    
};

const int16_t cg_FC3bias[36] = { // Co,H,W,Ci: (36,)
       817,  -723,   383,    87,    46,  -1000,  -492,   543,  -991,   326,     442,  1189, -4606,   377, -1247,  -2141,   191,   -64,  -223,  -852, // 20
      1745,  -708,   241, -1014,   237,   -580,    43,   275,   430,  -581,     186,  -380,   528,  -440,  -318,  -5545,
};

const int16_t cg_FC4weit[2304] = { // Co,H,W,Ci: (64, 36)
    // Out channel 0
      -197,    46, -1185,   107,  -988, -3149,     9,    32,    106,   210,  -165,  -334,  -332,   254,   137,  -139,       7, -1570,    14,    43,    14,  -116,   -94,   100,     69,   -67,   178, -1716,  -207, -2015,  -302,   131, // 32
       366,   111,   117,  -148,
    // Out channel 1
     -1135,  -177,  -214, -1034,    13,   313,   -94,  -446,  -1315,    17,   333,  -922,  1344,  -923,   225, -1116,    -580,   318, -1308,  -830,  1205, -1040, -1251,  -298,    -84, -1615, -1153,   417, -1328,    87,  -206,   -25, // 68
     -1151,  -805, -2658,  1648,
    // Out channel 2
       398,  -558,   -44,   222,  -385,   -44,  -326,   277,  -1162, -1119,   278,    -7,   -26,  -297, -1707,   323,     208,   -13, -1682, -1826,  -146,  -967,   389,  -755,    245,  -768,  -313,  -213,   382,   -88,    10, -3870, // 104
       483, -1246,   129,   229,
    // Out channel 3
       -72,    71,   284,   650,   203,   305,   125,   788,   1204,    67,  1230,   921,  -395,   394,   819,   487,     270,   547,   731,  -262,  -803,   631,   278,   786,   1217,   248,   410,   527,  -232,   288,  -878,   567, // 140
     -1289,   596,   446, -2014,
    // Out channel 4
      -652,  -459,   369,  -425,   238,   209, -2428,  -455,    225,  -624,   -20,  -574,    44,   121,  -499,    -6,   -1584,   189,  -156,   108,    13,   109, -1302,   -22,   -169,  -227,  -689,   168,  -435,   100,   122,  -155, // 176
      -626,   -12,  -368,   290,
    // Out channel 5
       567,   406,   -66,   572,   500,   101,   999,  -316,    617,  -159,  -314,   159,  -186,   354,   408,   519,     366,   167,   503,   970, -1710,    57,   465,   497,   -623,   339,  1470,   200,   768,   358,   485,   986, // 212
       114,   369,   465, -1845,
    // Out channel 6
       363, -1192,   -44,   499,  -302,   -53,   -67,   241,   -609,   -40,   367,   303,  -694,  -559,   229, -1620,    -278,  -272,   160, -2108,  -100,   -92,  -194,   -44,    136,   -78,  -211,  -285,  -451,  -174,   190,  -144, // 248
      -853, -2085,    47,  -300,
    // Out channel 7
      -635,   141,  -695,   511,  -706,  -718,   379,   254,    103,   492,    71,   671,  -318,  -455,   405,  -289,     419,  -659,   250,    67, -1356,    52,   176,    -7,  -1030,    37,  -553,  -379, -1146,  -717,  -389,   335, // 284
      -296,   778,  -319, -1066,
    // Out channel 8
      -275,  -722,   166, -1233,  -415,   156,  3397,  -138,    378,   -80,  -710,  -675,   854,  -394,  -492,  -345,    -539,    78,  1251,   -94,   129,   375,  -274,   713,  -1398,   804, -1332,    78,   827,   231, -3099,   159, // 320
       360,  -608,  -758,   914,
    // Out channel 9
       162,   112,   236,   416,  -115,   632, -1247,  1096,    -74,  -264, -2073,  -347,  -343,  -307,  -341,  -148,   -1628,   391,   115,  -121, -1397,    88, -1858,   233,   -649,   370,  -251,    96,  -254,   193,  -302,   -51, // 356
     -3700,  -138,   110, -1167,
    // Out channel 10
      -117,  -437,  -589,  -138,    34,   438, -4050,   298,    237,  -986,  -386,  -131, -1072,   105,  -616,   486,   -3584,    75,  -299,   150,     1,   197, -2930,    80,    -62,   225,   288,   185,  -411,   129,   146,   -27, // 392
      -771,  -241,    73,   -55,
    // Out channel 11
        11,  -164,   123,    70,   -68,   193,  -113,  -776,    131,    -1,  -860,   261,  -324, -1387,     6, -1367,    -363,   324,  1239,  -581, -2370,   159,  -455,   508,    -38,   209,  -163,   175, -1143,   163,  -603,   617, // 428
     -1359,  -538,  -548, -1128,
    // Out channel 12
      1035,   130,   583,  -910,    -8,   494,  -754,  1024,   -270,  -547,  -410,  -909,  -556,   421,  4268,  -640,    -591,  2842,  -560,   537,   347,    29,  -555,  -919,    331,  -850,   254,  -156, -1353,   -33,  -624,  -422, // 464
       895,   -81,  -523,   332,
    // Out channel 13
      -235,  -168,  -124, -2849,   298, -1409,  -348,   -82,   -299,   -58, -1085, -1742,  -515,   627,  -552,   306,    -239,  -518,  -732,   211,  -187,    13,  -293,  -172,   -597,  -814,  -737,   455,  1273,  -699,   181,    -8, // 500
       -85,  -458,   283,   116,
    // Out channel 14
       -55,   264, -1761,  -246,  -786, -4385,   -59,   119,    -49,   -36,    91,  -104,    14,   215,  -198,  -222,     118, -2379,   -28,   144,    62,   -19,    86,    28,    122,   -30,    63, -1618,  -317, -2348,  -133,  -104, // 536
       174,   150,  -127,  -197,
    // Out channel 15
      -962,   108,   -35,   432,    41,  -251,   157,  -522,     50,   232,  -198,   324,   171,  -890,   543,   -65,     477,   224,   443,   438, -1371,   230,   369,   447,  -1655, -1121,  -886,   -15, -1638,    80,  -591,   373, // 572
      -674,   723,  -562, -1069,
    // Out channel 16
     -1808,  -265,  -362,  -921,    51,   620,   561,  -681,  -1179,   137,   600,   336,  1055,  -631,   515,  -682,     287,   -68,   593,  -579,  -103,   878,   307,   246,   -323,  -235, -2077,   -45,  -415,   197,  1125,  -556, // 608
       361,  -429, -2202,   110,
    // Out channel 17
      -957,  -220,    50,  -314, -1160, -1002,   277,   102,    -70,    58,   552,   -47,  -716,  -670,    28,   -79,    -198,  -598,  -191,  -379,   660,    35,   122,  -176,    972,   -32,  -697,  -938,  -327,  -878,   -85,   -75, // 644
       351,  -277, -1367,   659,
    // Out channel 18
       272,   -82,   223,  -469,  -361,  -177,   -51,  -242,  -1499,   -45,  -364,  -369,  -256,    60,  -291,  -198,     -16,  -480,  -728,   208,   201,  -799,   -62, -1752,    285, -1423,   -61,  -321,    29,  -429,   -16,     6, // 680
       509,  -193,   219,   192,
    // Out channel 19
       -57,   230,  -107,   405,    24,  -193,   352, -1494,    167,   124,  -588,   -30,  -720,   -17,   -49,   198,     445,  -162,   147,    19,  -469,   211,   243,    70,  -1561,   361,  -520,  -151,   210,  -227, -1546,   324, // 716
       422,  -139,    94,  -394,
    // Out channel 20
      -639,   417,    -7,   807,    68,   171,   808,  1286,    145,   393,   883,   858,  -417,   537, -5236,  -621,     552,   269,    75,  -204,  -259,   304,   491,   411,  -1179,   124, -1089,   246,  -533,   -85,   238,   446, // 752
       381,   375, -1039,   -47,
    // Out channel 21
       116, -3984,   170,  -130,   252,    72, -3033,    35,    273, -2325,    56,   -94,   -19,   -67,  -805,  -815,    -548,   225,   213,  -681,  -146,  -157,   -52,   -97,    -70,    91,   -80,   189,   159,    69,    96,  -883, // 788
       248, -2270,   161,   -95,
    // Out channel 22
       -61,   -36,   189,   194,  -595,   126,  -681, -2131,    346,   -46,  -114,    81,    33,   153,  -318,   369,    -560,   182,  -192,  -121,   -63,   297,  -282,   172,   -546,   300,  -214,    67,    94,    13, -2183,   201, // 824
      -307,   -54,  -773,  -120,
    // Out channel 23
      1288,   244,  -355,   278,    82,   435,  -215,  1177,   -451,   729,   123,   481, -1716,   295,    22,  -763,    -345,    30,   115,   129,   798,    -6,  -113,   125,    242,  -100,   612,    11,   736,   354,   444,   659, // 860
      1713,    13,   780,  1972,
    // Out channel 24
        -7, -2797,   363,  -522,  -253, -1521, -1191,   366,    481, -1445,   908, -1049,    63,   152,  -161,  -510,    -888,  -297,  -243,  -756,   717,  -193,  -237,   -23,    726,  -542,   141,   -11,   165,  -592,    99,  -658, // 896
       195, -1983,  -185,   512,
    // Out channel 25
       474,   491,  -553,   312, -2398,  -256,   756,  -439,     -3,   550,    41,  -140,   -92,   236,   222,   -84,     915,  -738,   -31,  -130,    94,    74,   527,   -98,   -136,   103,   -47, -2072,   711,  -639, -1385,    31, // 932
     -2092,    98,   424,  1238,
    // Out channel 26
      -117,    12,   -39,   297,   886,  2550, -1452,    53,    165,  -303, -1583,  -140,  -865, -2871,  -469,   173,   -1871,  1041,  -121,   405,  -534,   153, -2050,   123,    224,    71,    12,  1103, -4129,  1717,   875,   -85, // 968
     -1764,   513,    60,  -705,
    // Out channel 27
     -1457,   218,    83,  -793,   242,  -118,   267,  -518,   -291,   406,    24,  -339, -2950, -1609,   232,  -333,     252,    23,  -183,   -79,   203,    85,   308,  -245,     35,   226, -1232,   201, -1841,   -94,   356,  -566, // 1004
        34,   225, -2446,   586,
    // Out channel 28
      -933,    60,    72,   -45,   167,    67, -1284,  -623,    548,  -125, -1468, -1026,   526,  -572,  -609,   458,   -1550,   161,   309,   633,  -840,    39, -1987,   399,  -1303,   257,  -483,   144,  -968,   256, -1322,   602, // 1040
     -1598,   332,    66,  -978,
    // Out channel 29
      -534,   -73,   113, -1596,  -359, -1647,   -13,  -212,  -3226,    17,  -729,  -939,   638,   554,  -167,   573,     -35,  -948, -2564,  -161,   892, -1350,  -124, -3094,    382, -1110,    24,  -583,    19, -1028,    22,  -304, // 1076
       593,  -227,  -179,  1610,
    // Out channel 30
      -905,    46,   195,  -554,  -215,  -198,   600,    73,    -76, -1262,  -121, -1268,  -183,  -507, -1036, -1018,    -325,   235,   148, -1961,   601,     5,  -308,    -9,   -334,    84, -1457,  -179,  -679,   220,  -525,   -11, // 1112
      -354,  -895, -1399,   988,
    // Out channel 31
       211,   403,   485,   617,    30,   923,  -232,  -359,    -15,  -627, -1838,  1049,   163, -3194,  -324,   339,   -1668,   722,   299,   151, -1143,   109, -2210,   184,   -398,   330,     3,   269, -3180,   614,   150,   322, // 1148
     -1105,   358,   126, -1162,
    // Out channel 32
     -1240,   237,  -978,    48,  -892, -2238,   -10,    14,    172,   127,   -40,   119,  -282, -1116,   102,   392,     -56, -1085,    60,   -59,   -69,   -24,  -166,   130,    126,   136, -1160, -1135, -1628, -1520,  -465,   187, // 1184
      -398,   -50, -1177,    28,
    // Out channel 33
       536,  -528,  -501, -1234,   284, -3304, -1308,   904,    -54,  4517,  -675, -1209,  -352,   587,  -762,   175,    -847, -1724,  -471,  -406,  -150,    38,  -809,  -593,   -627,  -733,   -88,   507,   673, -1847,   664,  -874, // 1220
      -184,  -741,   647,    23,
    // Out channel 34
      -256,  -189,  -458,    74, -2838,  -476,     8,  -451,    189, -1148,   229,  -306,  -346,   389,   505,    25,     170,  -793,   -16,    42,   322,   176,   210,   175,   -269,    92,   -90, -2130,   437,  -380, -1115,    29, // 1256
       548,     6,   336,   170,
    // Out channel 35
        47,   308,  -767,  -368,   257, -2733,   515,   579,      8, -2462,  -263,   332,  -334,   182,   295,  -141,     165, -1503,   -77,   381,  -218,  -214,    78,   -21,   -268,  -145,   234,   270,   557, -1569,   374,   661, // 1292
       -66,   197,   172,   -63,
    // Out channel 36
       178,  -560,  -911, -2027,  -153, -2258,  -664,   568,    621,  -238,  -112, -1197,    25,  1758,  -759,  -647,     -98, -1625, -1130,  -945,  1263,   703,   176,   401,     -3,  -320,  1166,  -344,    21, -1193,  -279, -2230, // 1328
      1465,  -265,   555,   540,
    // Out channel 37
      1084, -1867,    14,   866,   -10,   371,  -970,  1636,  -1048,  -489,   369,   371, -1208,   673,  -102, -1828,    -907,   231,  -267, -2771,   700,  -104,  -888,    32,    875,     6,   861,    83,    44,    92,   709,  -401, // 1364
      -472, -1823,   765,   281,
    // Out channel 38
     -1471,   255,  -695,   498, -1134, -1109,   675,   425,    524,   327,   975,  1069,  -460,  -740,   624,   196,     668, -1034,   480,   162, -1879,   311,   517,   431,  -1499,   569,  -670, -1121, -1474, -1015,   222,   460, // 1400
     -1042,   307,  -436, -1228,
    // Out channel 39
       114,  -222,  -142,   275,   -26,    18,   188,   301,  -1957,    97,   -19,   334,  -295,   288,   -43,  -812,     190,  -122, -2103,  -596,    40, -3047,   109, -2953,    -90, -3520,   472,  -113,  -143,    69,   122, -1172, // 1436
       280,   -88,   132,    92,
    // Out channel 40
      -550,   -65,  -949,  -175,  -698,  -163, -1038,  -247,   -369,  -294,   -94,  -313,  -446,   142,  -436,    73,   -1115,  -728,  -489,  -316,   267,     5, -1351,  -170,    -30,   144,  -691, -1107,  -251,  -555,  -360,  -242, // 1472
      -517,  -400,  -370,   400,
    // Out channel 41
       697,   -87,  -407,     0,   334,  -581,   364,   296,  -1959,   -11,  -354,  -336,  -352,   -16,  -342,   954,     -94,  -397, -1906,   -54,     2, -1029,    37, -1768,   -211,  -915,   287,    53,   -86,  -184,   -54,   -51, // 1508
      -369,  -591,   832,  -632,
    // Out channel 42
       334,   202,  -256,   428, -1428,  -162,   477, -1102,    -69,   222,  -682,   486,  -832, -1125,    82,   549,     144, -1043,   318,   407, -1735,    45,   305,   -35,  -1929,   -52, -1236, -1104,   185,  -827, -1092,   357, // 1544
       153,   113,   539,  -930,
    // Out channel 43
      -263,  -166,    31,   222,   229,   533,    68,  -726,    516,    51,   -61,   -96,   179,  -352,    99,    56,     174,   386,   492,   -55,  -279, -4476,    87,   808,   -399,  1113,  -521,   196,  -105,   421,  -370,  -104, // 1580
       244,    18,  -667,  -357,
    // Out channel 44
      -535,    50,  -149,   311,    87,   103,   230,    -8,   -305,    48,  1105,   516,  -349,   839,   283,   -30,      -2,   594,   143,  -149,   602,    98,    38,   -32,   1620,   241,  -378,   -56,   -76,  -142,   678,   -49, // 1616
      -196,  -208,    42,   249,
    // Out channel 45
     -1877,  -144,   187,   390,    93,   197,  -413, -1202,    239,    65,   -95, -1069,   -20,  -914,   776,  -133,    -288,   -65,   300,  -270,  -843,    40,  -593,   167,  -2254,   -83, -1866,    31,  -930,    91, -1430,    81, // 1652
      -391,  -126,  -113,  -332,
    // Out channel 46
        70,   130,   109,   -25,  -219,    50,   197,  -111,  -1255,   288,   269,   314,  -609,   486,   148,  -962,      14,   -20, -1141,  -282,   513, -1212,  -162, -2312,   -158, -1852,  -317,   109,   297,    50,  -187,   -90, // 1688
       151,   143,  -260,   907,
    // Out channel 47
      -370, -1827,   120,    -3,   -83,   121,  -937,   -94,  -2260,  -418,  -119,   120,   528,  1062,  -342, -1672,     -65,   160, -1381, -1478,  1093,  -681,  -416, -1893,   -108,  -805,   345,    69,   962,    71,  -217, -2886, // 1724
       270,  -927,  -440,  1486,
    // Out channel 48
       249,   -74,  -479,   199, -1899,  -727,   521,  -592,   -401,   266,    45,    12,  -243,    55,  -140,  -133,    -173, -1114,   179,   487,  -124,  -358,  -264,  -424,   -348,  -395,  -374, -1602,   469, -1216, -1690,    26, // 1760
        36,   165,   143,  -611,
    // Out channel 49
        56,   820,   226,   481,   185,   598,   453,   -22,     78,   620,  -754,    27,   224,   512,   607,   -73,     419,   185,   243,    51,  -410,   296,   203,  -752,   -926,  -113,  -531,   363,   240,   508,  -384,   235, // 1796
       113,   333,  1204,  -297,
    // Out channel 50
       348,   -14,   418,  -381,   113,   761, -1271,  -749,    135,  -124, -1450,  -338,  1369,  -185,  -306,    72,   -1701,   563,    83,   138,  -353,   208, -1731,   269,   1101,   242,   378,   457, -1248,   629,  -462,   227, // 1832
     -1442,   393,  -197,  -438,
    // Out channel 51
     -1458,  -144,  -391,  1212,  -225,    18,  -119,  -155,    396,   -31,   248,  -459,  -481,   -39,   166,   384,      -3,   225, -1907,  -531,  -359,  1060,    15,   199,    -50,   739,  -340,  -448,  -404,  -492,   578,   -95, // 1868
     -1854,  -265,  -454,  -542,
    // Out channel 52
      -736,   -50,   387,  -815,   220,   334,  -802,  -456,    517,  -487, -1141,  -957,   199,  -242,  -368,   234,    -783,   279,   390,   417,  -801,   301,  -672,   299,  -1060,   506,  -260,   290,  -721,   112, -1468,   152, // 1904
     -1171,   122,  -322,  -889,
    // Out channel 53
     -1024,   -32,   196,  -443,   357,   221,  -890,  -909,    690,  -286, -1259, -1037,   600,  -285,   -26,   621,    -889,   243,   106,   609,  -859,   337,  -940,   199,  -1006,   330,  -305,   293,  -696,   384, -1255,   122, // 1940
     -1260,   316,  -200,  -816,
    // Out channel 54
       -45,   442,  5581,   206,  -841,  -861, -1691,   368,   -397,   103,   158,   399,  -980,  -209,   546,   -41,   -1531, -1280,  -654,  -909,   384,  -434,  -755,  -565,    273, -1056,   173, -1033,  -767,  -858,    25,     0, // 1976
      -912,   -18,  -549,   130,
    // Out channel 55
        24,  -206,   601,   403,   580,  2251,   173,  -260,     21,  -646,   111,   282,  -275,   717,  -364,   -46,     -11,  1171,   286,     8,  -899,    60,   279,   271,   -302,   361,    78,   823,   796,  1331,   274,   -80, // 2012
      -199,   108,   -70,   -34,
    // Out channel 56
      -369,   478,  -357,   389,  -517,  -521,  1204,  -340,     29,   261,  1155,   953,  -150,  -679,  1114,   194,     915,  -634,   152,  -282,  -721,    24,   704,   -68,   -288,   305, -1882,  -837,   443,  -790,  -486,   222, // 2048
        79,  -192,   112,   112,
    // Out channel 57
       372,   388,  -632,   229, -2297,  -964,   304,  -821,     10,   289,   480,   925, -1277,  -114,   468,    95,     674, -1318,    85,  -189,  -359,    88,   677,     1,  -1259,   213,  -596, -1957,   -88, -1528, -2384,   173, // 2084
      1864,   -80,   479,   410,
    // Out channel 58
     -1658,   174,    50,   343,   333,    31,   119,  -571,    957,   199,   657,   940,  -785, -1286,   538,   264,     388,   224,   749,   -73, -1935,   435,   361,   497,   -271,   609, -1402,   484,  -725,   112,   317,   174, // 2120
     -1072,    35, -1410, -1359,
    // Out channel 59
       175,   404,    39,   499,   714,   571,  -811,   120,    -36,   325, -2635,   502,  -469,   421,    48,  -487,   -1084,   189,    34,  -120, -1779,   190, -1777,   -59,  -1069,  -208,  -131,   692,   998,   487,   967,   240, // 2156
     -2559,   -88,   234,  -914,
    // Out channel 60
       313,   314, -1549,   229, -1254,   -92,   376,  -373,     33,    78,   -31,   308,  -936, -1677,   113,   540,     279, -1411,   262,   427, -2269,  -130,   265,    31,  -2500,    -7, -1528, -1206,   549,  -850, -1818,    61, // 2192
       -56,   113,   232,  -745,
    // Out channel 61
      -898,   385,   249,   299,   263,   146, -1179,  -156,    509,   -32, -1274, -1269,  -153,   467,  -564,   425,   -1278,   151,  -127,   438,    21,   334, -1273,   249,  -1757,   348,  -797,   379,  -574,   428, -2018,   307, // 2228
      -769,   557,   551,   260,
    // Out channel 62
        21,    12,  -777,  1437,  -860, -2727,   -28,  -400,    216,   146,   623,  1080,  -552, -1498,   411,   366,     -80, -1728,  -144,  -141,   844,  -144,   147,  -185,    144,   -22,  -160, -1257,  -191, -1654,  -115,   146, // 2264
      -446,   -10,  -633,  1557,
    // Out channel 63
      1063,  -237,   415,  -278,   402,   515,   297,  1288,    845,  -140,  1180,   232,   188,   340,    22,   792,    1009,   510,   204,   943,   440,   581,  1615,   463,    669,   622,   591,   376,  1141,   391,   315,   274, // 2300
      1080,   463,   494,   543,
    
};

const int16_t cg_FC4bias[64] = { // Co,H,W,Ci: (64,)
       197,  1008,   546, -2804,  2310, -2028,  2480, -4075,   -841,  -287,  1142,  -423, -2998,  1970,   843,   408,    -101,  2417,  2487,   634, -1264,   601,  1724, -2913,     96,   115,   376,  1389, -1400,  2874,   658,   285, // 32
       841,  -670,   942,   329,  1579,  1022, -2028,   713,   1664,  1103,   128,   277, -1056,  1192,  1973,  2279,     755, -1234,   322,   204, -3618, -2913, -1622, -1837,    -23,   214, -1504,  -588,  -829,  -603,   934, -5837, // 64
    
};

const int16_t cg_FC5weit[2048] = { // Co,H,W,Ci: (32, 64)
    // Out channel 0
       781,  -288,  -551,  -448,  -155,  -262,   103,  3904,   -127,  -919, -1050,   421,  1082, -1162,   656,   441,     201,   712,    76,  -251,   259, -1347,   396,   531,   -886,  -299, -1147,   561,    63,  -727,   470,   483, // 32
       281,   565,   128,   944,   177,  -343,  1083,   220,    331, -1336,   350,   272,  -716,   742,   564,  -256,     -50,   -54, -1205,   288, -2213, -1214,  -844,  1504,   -383,   -88,   248,  -464,  1025,   -32,   103,   100, // 64
    
    // Out channel 1
       211,   670, -1228,  -512,    20,  -997,  -747,   155,      3,   807,   606,  -373,  -199,   -40,  -669,   850,    -629,  -313,  1612,   805,  -369,  -458,   294,   589,   -910,  -422,   -81,   224,  1369,  -199,  1566,   136, // 96
     -1705,    -4,  -200,   758, -1756, -1263,   130,   751,    -93,  1063,  -152,   -79,  -787,  -229,   778, -2940,     868,  -201,   177,  -666,  1638,   756,   102,   104,    527,   347,  -890,   165,  -546,  1583,   204,  -555, // 128
    
    // Out channel 2
      -231,   529,  1235, -2010,   199,  -445,   849,  -587,   -691,  -377,  1325,  2277,  -502,   -49,  1219,  -234,    -147,  -623,  -735,  -731, -1133,  2891,   416,  -206,    210,  -385,  -263,   -26,  -123,   996,  -154,   314, // 160
     -1690, -1205,  -200,  -839,   142,   754, -1017,   521,   1063,  -835, -4279,  -723,  -761,  1543,  -713,   -35,    -274,  -425,   791,  -467,  -856,     7,   268,   228,     32,  -198,  1660,  -428, -6626,  -504,   -54,  -293, // 192
    
    // Out channel 3
      -763,    20, -1579, -2284,    30,  -635,  -371,  -657,   -487,   922,   316,  1064,  -361,    97,   243,  2129,   -1116,   164,   894,   898, -1156, -1073,  -800,  -324,    788,  -724, -1073,  -961,  1694,  1487,   260,  -531, // 224
       368,   342, -1776,   936, -1235,   181,   334,  1458,    418,  1455,  1177, -1279,   795,  -427,  1370, -1461,     -33, -1005,   415, -1684,  -501,  -204, -1297,  1799,   1654,  -289, -1943,  -135, -1718,  -140,   283,   245, // 256
    
    // Out channel 4
     -1391,  -491,  1576,  -176,   755,  -801,   513,  4103,   1740,   168,   -40,  -564,   423, -2780, -3799,  -381,   -1588,   590,  1238,   152,   -87,  1044,  -630,  -613,    895,    70,  2257,     1,  1284,  -606,   131,  4423, // 288
      2023, -2623,   896, -2583, -3489,  -136, -4218,  6202,   1351,  3678,  -998, -1244, -1064,   486,  2111,  3166,     496,  -564,  -438,     3, -3895, -2730,  -778, -3956,  -3162,  1342,   189,  -328,  5625,  1044, -2790,   -39, // 320
    
    // Out channel 5
       521,  -263,  -391,  1308, -1035,  -758,   913,   457,    640, -4447,  -178,    45,  -221,    15,  2015, -2038,     234,   666,  -193,   969,  -641,  -310,   959,  -271,    416,  1426, -1777,  -147,  1034,    -8,   635,     3, // 352
      -412,   220,   260,   208,   -94,  -576, -2367,  -609,   -195,    98,  1505,    74, -1059,   571, -1181,   819,    1174,  -970, -1345,    50, -1198,   622, -3013,  1740,   -594,  1058,   329, -1200,  2550,   924,   421,  -227, // 384
    
    // Out channel 6
       615,  -515,    73,  -478,  -131,  -272,   361,  3464,    202,  -598, -1064,   329,   897,  -913,   748,   407,     -57,   663,   -20,   245,   314, -1223,   156,   303,   -559,  -148,  -925,    79,   374,  -602,    61,   311, // 416
      -119,   614,  -122,   777,    70,   147,  1026,   202,    442, -1127,   150,   110,    38,   827,   247,  -175,     -95,   -44,  -942,   375,  -741,  -301,  -674,   779,   -340,    67,   434,  -449,  1066,   157,   -89,   126, // 448
    
    // Out channel 7
      1092,   419, -2019, -1592, -1557,  -738,   -27,  2292,   -113,  -197,  -725,   -29,  1134, -1091,   744,   516,     -29,  1390, -1730,   246,   242, -1741,  1040,   849,   -818,  -492, -1511,   777,   726, -2325,  -116,  -177, // 480
      1601,   264,  1190,    15,   126,   390,  1445,  -286,    420,  -870,  1128,   185, -1400,   807,   268,    38,     225,  -194, -1934,    83,  -626,   201, -1832,  2195,     72,  -173,   618,   462,   786,   368,   252,  -548, // 512
    
    // Out channel 8
      1341,  -696,  -829,   293,  -253,  -228,  -211,  -606,   -242, -2497,  -788,  -392,  -252,   -22,  1776,    77,    -220,   161,   607,  -112,  -123,  -846,   229,   526,    566,   585,  -892,  -121, -1885,   110,   481,   151, // 544
      -784,    73,   170,    70,  -400,   -24,  -848,   347,     31,   517,   484,  -323,  -275,   163,   -67,  -179,    1046,  -312,  -328,  -431, -5356, -3994, -1577,   992,     38,   290,  -162, -2271,    81,   155,   369,  -456, // 576
    
    // Out channel 9
       986,    95,  -430,  -957,  -908,  -467,    73,  4051,   -275,  -368, -1180,   412,  1088, -1607,   482,   640,     137,  1207,  -353,   -67,   404, -1448,   906,    36,   -117,  -704, -1523,  1164,   543, -1477,   643,   285, // 608
      1427,   285,   937,   472,  -305,   130,  1127,   201,   1366, -1193,   690,   256, -1096,  1019,   459,   -21,     419,  -187, -2192,   316,   381,   748, -1492,  2548,    -18,  -433,   263,   260,  1085,   303,    33,  -248, // 640
    
    // Out channel 10
       345,  -492,  -440,  -279,  -220,  -366,   445,  2394,    410,  -933,  -703,   300,   724,  -913,   497,   170,    -362,   630,     7,   105,   118,  -657,   265,   218,   -535,   205, -1007,    25,   149,  -417,   296,   238, // 672
      -352,  1039,   225,   833,  -196,   -92,   772,    -4,    447,  -543,   545,   137,  -132,   370,   116,   -94,       7,  -263,  -867,   244, -1561,  -885,  -629,   476,   -152,    32,   212,  -595,   945,    19,   -96,   180, // 704
    
    // Out channel 11
     -3185,   561, -2814, -1020,   526, -1439, -1533,  2125,   1234,  1807,  1152,  -626,   344,   630, -2367,  1134,     126,  -228,   808,   789,    96,  -734,   235,  1992,   2148, -1495,   170,   335,  1558, -1457,   948,    13, // 736
      1173, -1316,  -795,   236,  1334, -2684,   873,   -43,   1289,  1313,  1104,  1104,   -48,  2058,    98, -1399,   -2852,  1228,   -69,   343,  4633,  3048,   643,  -490,   -369, -2065,  -736,   838,   589,   390,  -907, -2501, // 768
    
    // Out channel 12
     -1455,    98,   263,  -527,   403,  -845, -1135, -1770,    217,   618,  1123,    82,   166,   362,  -678,  1032,     405,   446,  -156,   311,   -78,    47,  -409,   322,    872, -1382,   406,  1072,  1825,  -477,   626,  -374, // 800
       973,  -918,   143,  -620,   683, -1803,   444,  -137,    407,   540,   500,   673,    -9,   858,  -826,   118,    -919,   929,   204,   270,  2901,  2682,  1046,  -208,   -886, -1340,   590,   -82, -1169,   390,  -577, -1993, // 832
    
    // Out channel 13
      1623,  -949,  1303, -1307,  -377,  -548,   349, -1546,   -620,  -992, -2063, -5459,  -155,   302,  1399,   442,    -223,   139,    91,  -202,  -748,  1211,   -54,    -3,    629,   513,   647,  -785,  -496,   499,   394,  -129, // 864
       -62,  -414,    92,  -224,   625,  -735,  3302,   407,    839,   304,  -207,  -498,  -596,   174,  -155,    58,     301,  -197,  -523, -2588,  -276,  -470, -1051,  1399,   -255,  -537, -3174, -2346,  -320,  1013,   352,  -551, // 896
    
    // Out channel 14
     -4029,   551,   -32,   161,   154,  -241, -1020,  -767,  -2722,   647,  1668,   444,   -81,  -209, -2971,   -13,    1753, -1449,  -880,  -491,  -116, -1462,  1636,   342,   -205,  -650,  -495,  1526,   627,  -668,  1103,  1787, // 928
      1215, -1099, -1388,   341,   617,  -139,   869, -1857,    806,   600,   376,   686,   316,  -319, -1630,  -350,   -2478,   -39,   686,    21,   660,   335,   576, -1137,  -2301, -2944,  -433,    75, -2535,   933,   641,  -909, // 960
    
    // Out channel 15
     -6308,  1596,  -700,   -83,  -299,  -512,  -408,   870,  -1487,   453,  1557,  1040,   171,   371, -3575,   172,    1406, -1449,  -404,   155,  -703,  -256,  1141,   205,   -156,  -300,  -441,  1383,   173,  -782,  1026,  1669, // 992
       924,  -591, -1321,   103,   172,   -80,  1056, -3006,   1645,   572,  1708,   559,   196,  -460, -1534,  -974,   -2742,   -62,  1008,  -124,  1492,  1375,   607, -1183,  -1441, -2561,  -328,   159,   -50,  -275,   108, -1074, // 1024
    
    // Out channel 16
       848,   -55,  -314,   213,  -866, -1083,   275,  1064,    425, -1393, -1142,   114,   797,  -559,   275,    29,      31,   170,   -49,   417,   268, -2007,   883,   318,   -173,   138, -1674,   236,   846,  -496,   828,   866, // 1056
       198,   959,   938,  1063,  -172,  -241,   161,  -485,    778,  -243,   780,   -27,   -98,    52,  -160,  -503,     926,  -144, -1423,  -151, -1024,  -135, -2016,   817,     18,   325,  -202,  -388,   828,   608,   151,  -299, // 1088
    
    // Out channel 17
      1316,  -375,  -922,   785,  -652,  -481,   604,   -86,    482, -5096,  -361,   -65,  -177,   -19,  2251, -1100,     113,   326,   506,   252,  -470,  -460,   783,   -33,    805,  1035, -2771,  -319,   696,    23,   621,   225, // 1120
      -760,   733,   296,   194,  -632,  -109, -1552,  -418,   -456,   362,  1180,   -20,  -831,   466,  -782,   456,     735,  -842,  -848,    77, -2921,  -745, -3041,  1983,   -299,   645,   285, -1621,  1776,  1241,   413,   356, // 1152
    
    // Out channel 18
       183,  -706,   548,   558,  1353,   210,   102, -2078,    463,   113,  1095, -2401,  -584,   497,  1210,  -147,    -279,  -210,    92, -1955,  -248,  1671,  -411,  -579,   1282,  -544, -1410,  -314,    88,   148,   416, -1990, // 1184
      1049,   660,  -975,   623,   100,    59,   243,   388,   -420,   491, -2440,  -145,  -116,   537,   187,   249,    -541,  -270,    58,  -326, -1556, -1393,  -645,  1616,    709,   364,  -653,   354, -1692,  1407,   966,  -845, // 1216
    
    // Out channel 19
      1218,  -601,  -697,   243,   -69,  -369,  -332,    52,   -503, -1950,  -796, -1105,   -12,   -25,  1720,   913,    -324,  -141,   792,    24,  -295,  -769,  -207,   433,    486,   347,  -295,  -259, -1415,   411,   456,  -150, // 1248
      -969,   103,   190,   108,  -584,   -36,  -612,   559,    157,   474,   431,  -829,  -294,  -228,   394,  -478,    1224,  -528,   -36, -1127, -5103, -3349,  -916,   879,     14,   -17,  -390, -2228,  -100,    78,   404,   283, // 1280
    
    // Out channel 20
      -486,  -855,   930,    29,  1226,   356,   880, -1677,  -1412,   -56,   838,   534,  -387,   773,   363, -1172,    -189,  -262,    86, -1061,  -163,  1858,    84,  -744,   1092,  -612, -1167,  -636,  1381,    92,   272,  -184, // 1312
      1433,   455, -1273,   754,   391,  -142,   504,  1115,   -275,   534,  -466,  -236,   142,   -86,   600,   552,   -1182,   -43,   314,  -155, -2601, -1652,  -611,  1193,   1272,   125, -1831,  -103,  -676,  2349,   822,  -855, // 1344
    
    // Out channel 21
      -885,  1136,    16,  -128,  -155,  -385,  -100,  1012,  -1410,   313,  1471,  1125,   -75,   118,  -442,    82,    1478, -1704,  -850,  -274,  -678,   140,  1161,   106,    -98,  -698,  -235,  1571,   -59,  -455,  1041,  1266, // 1376
       757, -1001,  -101,    71,   742,  -122,   669, -1823,    539,  -721,   572,   631,  -169,   332, -1966,  -345,      -4,  -160,   879,   180,  2044,  1020,   788, -1097,  -2485, -1556,   252,   279,   934,  -982,  -157,  -398, // 1408
    
    // Out channel 22
       652,    32, -1295,  -137, -1013, -1287,   123,  1513,    293, -1058, -2094,    93,  1000,  -538,   446,  -108,    -193,   195,  -152,   251,   132,  -765,  1054,   229,   1255,   220, -2262,   497,  1271,  -751,  1002,   538, // 1440
      -215,   636,  1056,   618, -1153,  -359,   584,  -510,   1126,  -110,  1146,  -158,  -109,   138,   -58,  -817,     524,  -355, -1968,   -67,   755,  1183, -2109,   782,    178,   188,  -406,  -351,   821,   712,   378,  -296, // 1472
    
    // Out channel 23
       681,   629, -2251, -1833, -2263,  -751,  -318,  1766,    -19,    -6,  -730,   -39,  1517, -1035,   783,   199,    -256,  1950, -3410,    91,     1, -1360,  1353,  1139,   -633,  -513, -1153,   557,   576, -2249,    33,  -647, // 1504
      1864,   160,  1409,  -550,   665,   532,  1943,   128,    822,  -908,  1367,  -183, -1299,   613,  -807,   -97,    -134,  -727, -1970,   237,  1975,  2341, -1942,  2662,    -17,    17,   699,   897,   929,    27,   231,  -664, // 1536
    
    // Out channel 24
      2251, -1220,  4738,  -983, -2053, -1570,  -599, -1001,   -840,  -846, -2078,  -752,    70,   981,   937,  -423,    -823,  -319,   686,  1499, -1510,  -474,  1287,   -88,   1319,  1324,  1357, -1775,  -194,  1574,   904,   922, // 1568
      -296,  -428,  1527,  -306,   537, -3045,  2344,  1902,    933,  2084,   502, -1852, -1548,  -725,  1483,  -804,    1772, -1148,  -956, -2330, -4448, -2478, -2843,  2514,   -834,  1765, -1922, -3134, -1330,  1695,  -743,  -466, // 1600
    
    // Out channel 25
     -3657,   570, -3225,  -691,   754, -1458, -2089,  2901,   1597,  1997,  1236,  -642,   426,   466, -3449,  1385,      11,  -540,  1097,  1292,   164, -1190,   103,  2506,   3386, -1136,   283,  -474,  1195, -1602,  1676,   206, // 1632
      1436, -1231, -1286,   341,  1840, -3683,  1019,  -294,   2024,  1539,  1821,  1060,   930,  1936,  1060, -2232,   -3570,  1151,  -449,   665,  5149,  3267,    63,  -915,   -286, -2108,  -919,  1468,  1954,   971, -1488, -2996, // 1664
    
    // Out channel 26
      1601, -1175,  1154,    83,   912,    34,  1044,  -663,   -290,  -844,  -281,   570,  -714,  -149,  2649,  -894,    -129,  -556,  1057, -2346,  -304,  2835,   226,   154,    888,   497,   509,    20,   987,   288,   -56,   721, // 1696
       620,  -519,    73,  -379,   825,  -561,   508,  -325,    454,  -213,    69,  -585,  -903,   741,  -447,   616,     176, -1032,  -321,  -427, -1858, -1328, -1094,    16,   1353,  -829,  -998, -2821,  1574,  2066,   763,  -170, // 1728
    
    // Out channel 27
      -826,  -580,   357,   224,  1799,  1292,  1649, -1909,  -1279,   752,  1697,  -372,  -259,   665,  -389,    23,   -2003,  -194,  -557,  -932,   564,  1702, -2153,  -832,   1464, -1601, -1565, -2110,  1353,  -235,   240,  -691, // 1760
      2653,   516, -1351,   626,   562,  -109,  -758,     6,   -119,  -214, -3584,   -58,  -140,  -694,   448,    39,   -1184,  1027,   444,   362, -1965,  -727,  -169,   915,    764,   159,  -304,   -11, -4129,  1103,   792, -1154, // 1792
    
    // Out channel 28
     -2954,   341, -1393,  -873,   408, -1891, -3085,  3824,   1026,  1304,   852,  -113,   513,     0, -3855,   931,    -152, -1957,  -261,  1241,     9, -1002,  -119,  3052,   3546,  -919,   250,  -610,   271, -1648,   560,   657, // 1824
      -408, -1295, -1567,    23,  1548, -3412,  1057,  -448,   2090,   -82,  1076,   775,  1576,  1717,   419, -2789,   -3823,   515,  -456,    59,  4406,  2098,  -288,  -989,   -292, -2308,  -715,  1437,  2068,  1614, -1219, -3517, // 1856
    
    // Out channel 29
     -2321,   253,   708,  -982,    11,  -937, -1344, -2569,    233,   183,  1063,   154,    61,   -44, -1032,   883,     613,   269,  -264,   184,  -200,    62,  -468,  -470,    202, -1457,   330,   916,  2061,   -23,   410,    34, // 1888
       987, -1602,   599,  -494,   417, -1217,    80,   753,    695,   461,   404,   404,   633,   923,  -934,   196,    -518,   815,     5,   595,  3433,  3087,   956,  -316,  -1145, -1118,  1136,  -134, -1712,   645,  -718, -1944, // 1920
    
    // Out channel 30
     -2853,   994, -1276,    32,   245,   742,    28,  1950,   -321,  1476,  1068,  1610,   -78, -1487,  -554, -1125,    -294, -1060,  -464, -1703,    49,   512,  -332,  -233,   -146,  -285,   226,   459,   558,  -299,  -141,  1364, // 1952
      1825,  -970,   -57,   663,   -71,  -145,  1363, -2873,    430,  -589, -2577,  -529,    69,  -242,  -595,  -506,   -2959,  -453,   273,  -422,   369,   612,  1067, -1419,  -1815, -1914, -1153,   -95, -4137, -1040,   750,  -231, // 1984
    
    // Out channel 31
        -9,   606,  -539,  -404,   566,  -817,  -359,  2334,    313,   -95,   523,  -170,   767,    74,   488,   253,     475,    43,  -241,   120,   291,   715,  -158,  -111,  -2272,  -139,  -194,   468,   914, -1120,   880,  -311, // 2016
        -9,   539,   573,   643, -1240, -2147,  -299,   -42,     84,  -201,   784,   623,   142,   637,  -524, -1209,     672,   -43,   111,   388,  3462,  1852,   151,    31,   -271,   229,   420,   454,   741,   143,   523,  -682, // 2048
    
    
};

const int16_t cg_FC5bias[32] = { // Co,H,W,Ci: (32,)
      -195,   625, -1470,  -413, -5026,  -496,  -141, -1180,    471, -1028,    81,  -380,  -136,    34,  1010,   544,      57,   -45,  -896,   559, -2109,  1083,   120, -1568,   -490,  -893, -2178,  -463,  -245,   279,  1586,   836, // 32
    
};

const int16_t cg_FC6weit[512] = { // Co,H,W,Ci: (16, 32)
    // Out channel 0
      -653,   168,  -285,  -946, -1294, -1246,  -590,  -344,  -3062,  -596,  -755,  -548,  -308, -2721,  -158,  -493,    -593, -1740,   226, -3303,    97, -1087,  -713,  -371,  -1392,  -557, -2019,    43,  -535,  -409,  -188,   740, // 32
    
    // Out channel 1
       -36,   148,  -221,   -13,  -104,    38,   -15,   -45,    -43,   -44,    -9,   -48,   -52,    24,   -76,   -64,      86,     8,   -98,   -25,   -69,   -48,   103,   -38,     51,   -38,   -39,  -164,   -46,   -50,  -104,    33, // 64
    
    // Out channel 2
       153,  -142,     0,  -150, -1190,   904,   207,   122,    662,   150,   201,  -271,  -420,   464, -1049, -1320,     313,   806,    32,   615,    50,  -907,   285,    99,    320,  -212,   401,   -67,  -190,  -480, -1124,   127, // 96
    
    // Out channel 3
      1352,   363, -1843,   406,  -544,  -172,  1368,  1774,    -30,  1546,  1054,  -384,  -407,   -69,  -181,  -646,     734,    -3, -1177,    89,  -967,  -435,   959,  2128,   -564,  -363,  -876,  -902,  -481,  -396,  -229,  1030, // 128
    
    // Out channel 4
      -693,  1266,   812, -1297, -1146, -1274,  -713,  -623,  -1131,  -613,  -769,  1451,  1158,  -897,   468,   591,    -844, -1144, -1480, -1092, -1361,   196,  -921,  -587,   -403,  1552,  -522, -1013,  2337,  1114,    12,  1385, // 160
    
    // Out channel 5
        37,   108,  -192,   -38,     4,    82,   -36,   -40,     17,   -26,    37,   -48,    98,  -148,     4,   -32,      81,   -17,  -348,    12,  -451,    28,     9,   -18,    200,   -21,   183,  -496,   -12,    29,    51,  -149, // 192
    
    // Out channel 6
      -445,   891,    60,  -958,  -673,  -755,  -463,  -397,   -786,  -437,  -508,  1021,   795,  -611,   439,   381,    -555,  -718, -1078,  -729,  -872,   134,  -561,  -450,   -271,  1067,  -454,  -621,  1617,   799,   -46,   895, // 224
    
    // Out channel 7
      -552,   -86,  -356,  -167,  -884, -1753,  -577,  -290,   -876,  -401,  -758,  -107,   -78,  -323, -4000,   529,    -745, -1456,  -100,  -667,   287,    84,  -540,  -115,   -498,   -87,  -268,  -632,  -119,   -25,    80,    61, // 256
    
    // Out channel 8
       251,  -874,  -220, -1392,  -347,   158,   154,    41,   -222,   199,   334,   -91,  -116,   400,  -173,  -148,     573,   144,  -184,  -722,   -99,   -54,   500,  -315,  -2346,   -73,   -51,  -401,    17,  -104,  -209,   169, // 288
    
    // Out channel 9
       -44,     1,  -773,  -168,  -440,  -129,  -263,   -94,   -187,   -89,   -99,   187,    96,  -186,   179,    41,     -90,  -216,   -74,  -212,  -119,   145,  -106,    23,     87,   253,    51,    51,   314,   158,  -221,    28, // 320
    
    // Out channel 10
       -35,   -39,   -14,   -23,     4,   -71,   -29,   -20,    -45,   -25,   -36,     0,   -11,    -9,   -12,    -8,     -21,   -63,     2,   -28,    -8,     3,   -33,   -11,    -23,     4,    -7,   -21,   -12,    -5,    10,    -1, // 352
    
    // Out channel 11
         0,     0,     3,     2,     2,    -2,     0,     2,     -3,     1,     0,     1,     8,    -1,     5,    -6,      -2,    -2,    -3,    -2,     0,     3,     0,     2,      2,     4,     1,    -3,     3,     5,     1,     3, // 384
    
    // Out channel 12
       236,  -109,   261,   481, -2176,   961,   242,   113,   1252,   159,   347,  -506,  -723,   949, -2397, -2510,     492,  1237,   187,  1162,   182, -2153,   348,    58,    530,  -487,   841,   143,  -341,  -648, -3428,    57, // 416
    
    // Out channel 13
      1309,   734, -1667,   818,  -443,   -71,  1308,  1510,    191,  1371,  1252,  -428,  -479,  -111,  -471,  -559,    1096,   164, -1068,   246, -1021,  -437,  1221,  1832,     -9,  -443,  -747, -1114,  -488,  -461,  -857,  1016, // 448
    
    // Out channel 14
      1279,  1138,  -780,  1113,  -172,   481,  1267,  1301,    467,  1279,  1438,  -577,  -676,   866,  -858,  -794,    1554,   552, -1026,   498,  -999,  -635,  1602,  1323,    736,  -510,  -783, -1381,  -539,  -668, -1590,  1113, // 480
    
    // Out channel 15
       -80,  1186,  -102,  1108,    74,   471,   -33,  -289,    277,  -208,   188,  -997,  -985,   239, -1258, -1734,     551,   417,  -321,   408,  -330,  3662,   284,    82,  -5292,  -866,  -503,   -89, -1146, -1090,  -253,  -129, // 512
    
    
};

const int16_t cg_FC6bias[16] = { // Co,H,W,Ci: (16,)
      1150, -1074,  1677, -5081, -5253, -1702,   970,  1485,    173, -3601,  -289,  -177, -1357,   346, -4799, -1491,  
};

const int16_t cg_FC7weit[16] = { // Co,H,W,Ci: (1, 16)
    // Out channel 0
      -783,   -40,  3892, -2703,  3500,    185, -4979,  -829,  1293,    57,      38,    30, -2010,  5626, -3565,  -1292,
    
};

const int16_t cg_FC7bias[1] = { // Co,H,W,Ci: (1,)
     -4919,
};

