/*Generate By Python3.7 Env. Time:2021-03-31 21:51:43.582807*/

/*
 * NNParameter.c
 *
 *  Created on: 2021Äê3ÔÂ28ÈÕ
 *      Author: 936305695 
 */
#include <nn_parameter.h>

    
double W0[7][140] = {{-0.026903078,0.052888714,0.06464045,0.11022821,0.07541835,-0.11089539,-0.119886994,-0.058594983,-0.02257833,0.023160713,0.007322615,0.03881502,-0.17246456,0.26732975,0.24508603,-0.17129926,-0.097382896,0.27215633,0.09211188,0.19195828,0.0928813,-0.09491517,-0.20918314,0.25321278,0.17520218,-0.15750314,0.41842005,0.12919557,-0.25825176,0.15035829,-0.20305817,-0.23803481,-0.076628655,0.17922987,-0.2027574,0.13866627,0.4494781,-0.25004926,0.25250325,-0.24608052,0.24855317,-0.27987355,-0.29421756,0.00913094,-0.06909798,-0.08976515,0.11066858,0.13949007,0.16405803,0.34187102,0.20202632,0.12944144,0.0062212646,0.3465925,0.53598535,0.11135703,-0.01727171,0.166348,0.03313472,-0.17019372,0.19461262,0.3367822,0.07268818,0.12242559,0.14937773,0.06823853,0.40658346,0.013181794,-0.15018724,-0.16496386,0.20203663,-0.20669831,0.3437791,-0.07919297,0.060110863,0.06653069,0.05128856,0.1535308,0.2056554,0.25912234,-0.17934024,0.1822499,0.008163889,0.36315733,0.08875921,-0.04214569,-0.005545585,-0.26663393,0.04738943,-0.082094036,-0.286509,0.22441798,0.17479184,0.14329048,0.0695666,0.045360997,-0.09184101,0.15529123,-0.11063432,0.08716883,0.46853444,0.21594916,0.03992757,-0.2357756,-0.018235596,0.36960545,-0.28317806,-0.20554747,-0.22060141,0.05002606,-0.0046370933,0.43027896,-0.07974926,-0.16079825,0.119516194,0.009996299,0.07490729,-0.07465878,-0.22433494,-0.058624167,0.07699925,-0.08074011,-0.042170487,0.1338177,-0.16538568,0.10202713,-0.0024398416,0.14855018,0.19686443,-0.07400122,-0.18992142,0.32908967,-0.2904714,0.40471777,0.03834988,-0.106076516,0.1875419,0.024711834,0.13961029,-0.11568561},
{0.03982438,0.060567398,-0.09556826,0.03838855,0.13651642,0.1255796,0.27241933,0.09822726,-0.14584106,0.07402812,-0.23955859,-0.14992145,-0.19522426,-0.30073932,-0.27103782,-0.11085604,0.0785843,-0.25434974,-0.032442756,-0.039521366,-0.0441295,0.16324762,0.10099943,-0.2652106,-0.14267458,0.20924993,0.23090178,0.06890431,0.1671633,-0.042407118,0.10665592,0.014606459,0.20681483,-0.08843961,0.02813634,0.29141828,-0.089267656,0.058490325,-0.09682983,0.13965496,-0.33027774,-0.025484169,0.3546364,-0.039913356,-0.16496861,0.093530774,0.27687967,-0.053258836,-0.30950525,-0.09586314,0.046265125,-0.25111413,-0.13986972,-0.1388287,-0.25638476,-0.15414152,-0.04198239,-0.19286376,0.15280844,0.09368825,0.17567499,0.008278984,0.29223168,-0.14043339,0.13465089,-0.20059294,0.57125664,0.19153056,-0.08045514,0.18466741,0.3089586,0.19946615,-0.02110071,-0.18113457,0.12837312,0.14114092,-0.09029437,0.012635097,0.5915705,0.10256501,0.037319366,0.10258803,0.2788506,-0.29218286,0.07428641,-0.16110973,-0.17764625,0.029939624,0.31424803,0.008472902,0.27171028,0.021353666,0.1067135,0.03418739,-0.00101742,0.1629155,-0.019647209,0.10741353,-0.11827782,-0.019428728,0.024051191,0.12238305,0.004564558,0.19184121,0.22747654,0.19730173,0.24046065,0.07197148,0.06169542,0.02536282,0.119996145,0.43472266,-0.26364142,-0.114116214,-0.1040945,-0.13295671,-0.2304733,-0.029723208,-0.07496955,0.054879885,0.12249699,0.15981437,0.03692358,0.0680528,0.018735342,-0.21491875,0.18228614,0.3866474,0.6290649,0.3467216,0.26242414,-0.054769877,0.07120366,0.13250746,0.07397735,0.07339231,-0.012463525,-0.0066121365,-0.108562104,-0.22300118},
{0.04493384,0.06829627,-0.014802675,-0.073117316,-0.050373524,0.13065538,0.0027471161,0.3363413,0.011861775,-0.0733178,-0.12647417,0.2663705,-0.1206527,-0.037623722,0.0030350673,0.20820902,0.065943584,-0.05983386,-0.0366747,-0.102714665,0.0038413082,0.028808996,-0.21360289,-0.03526276,0.045483798,-0.103689745,-0.26565388,-0.1255318,0.29014638,0.16205302,0.007827364,0.038667206,0.29925555,-0.10054159,0.09143605,-0.021438902,-0.035784103,0.14094605,0.6757207,0.394555,0.29775307,0.02065102,0.16443348,-0.08632725,0.32157382,0.07705013,0.42009556,-0.025690645,0.1382365,-0.36885193,0.07031429,0.01337848,0.057508305,-0.1402268,-0.19874178,0.055976287,-0.1858065,-0.19530796,0.6496505,-0.15512127,0.056031384,-0.120247915,-0.13045995,0.045298763,0.11599839,-0.091167696,0.20220543,-0.0041887593,0.5249449,-0.10770516,0.25188938,0.13253276,0.079764105,0.06739929,0.0016103195,-0.053202864,0.09805683,0.1543931,0.59631306,0.33111393,-0.096151635,0.10725671,-0.039714914,0.321801,-0.15014508,0.097802214,-0.11348033,-0.2968573,-0.13413529,-0.12945485,-0.019169347,0.27331603,-0.022439271,-0.20882224,0.11433096,0.06390658,-0.073721744,-0.028876707,0.046711624,0.34298268,-0.08834594,0.018045332,0.5231499,0.3635117,0.57629824,0.1857362,-0.15565135,0.32138994,0.22032912,0.10857099,0.010778631,0.34400842,0.015654752,0.26395303,0.40329948,-0.13978362,0.0091416845,0.00868701,0.19453718,-0.0048450907,0.104132086,0.024036534,0.03337167,-0.16186178,0.46605507,0.17321518,-0.11281551,0.8784923,0.22558747,-0.079631805,0.030468365,0.20282029,0.08403171,0.3161675,0.16499701,0.16475625,0.1914056,-0.044496924,0.1654388,0.0066811657},
{-0.045722485,0.03176082,0.011196134,0.02017577,0.08160409,0.085175395,0.04602793,0.14112823,0.11466919,0.26029924,-0.005528135,0.2955718,0.16098464,0.03329602,0.121195704,0.085325874,-0.111763015,-0.16005048,-0.0017368266,0.19949862,0.04100247,0.240697,0.089574836,0.17872433,0.029147925,0.08645356,-0.13877282,0.107190624,0.23746227,-0.12010488,-0.13561976,-0.21471414,-0.10464992,-0.032282628,-0.09994468,-0.19233173,0.11393947,0.1797266,0.09572593,-0.14692195,0.07293812,-0.08085594,-0.13329741,0.14298797,0.6769707,0.18225819,-0.1299422,0.14727545,-0.016744526,0.16597009,-0.09663448,0.11169848,0.08118561,-0.11370515,0.034397118,0.06084982,-0.16382223,0.18578298,-0.010556658,0.14835177,-0.10886726,-0.071588255,0.0647098,0.16689137,0.11592835,0.014318794,-0.10683463,0.022405064,0.42892095,-0.23315114,-0.23658736,-0.31172475,-0.14316367,0.6572978,-0.049654786,-0.13749228,0.08239055,0.13591069,-0.24498387,0.25772285,0.1463925,0.12084025,-0.15366034,0.15211113,0.19908968,0.23919278,0.21231042,0.12937674,-0.040839303,0.2229299,-0.12205707,0.13643107,-0.04467012,-0.22688542,-0.24323687,0.14453247,0.19839472,0.009621814,0.06166963,-0.06353805,-0.09334017,0.012770904,0.13759983,0.09341191,0.0983301,0.14366122,-0.11088467,-0.29862908,0.12706433,0.06145242,-0.19427927,-0.1378756,0.011306377,0.0774406,0.3213663,0.24796227,-0.13886566,0.18391198,-0.2409987,-0.14489639,0.18833104,-0.08417747,0.5318655,0.15969875,0.5327164,0.053078827,0.015008032,-0.07085397,-0.21270955,0.044405498,-0.2037599,0.19566691,-0.21048611,0.041626506,0.09959629,-0.044138376,0.023493811,0.28150794,0.22427054,0.10692686},
{0.19525349,-0.14388448,-0.06130802,0.17358771,0.12056324,0.119277894,-0.2514582,0.19063908,-0.29075757,-0.13196641,-0.0639811,0.54554784,-0.035230685,-0.103948236,-0.10888148,0.07259473,-0.16181426,0.2968537,0.33354345,0.15993834,0.19251166,-0.23197997,-0.27156362,-0.16424733,-0.0046901875,-0.2631781,-0.015831986,0.02267396,0.058716815,0.19580556,0.1348096,0.0057594394,0.22003597,-0.064998046,0.08053285,-0.14405726,-0.17977092,0.10022015,-0.21070501,0.17590846,-0.13042568,-0.18680303,0.042732134,-0.0044442564,0.24327284,-0.039121464,0.12512408,-0.07709776,0.26723278,0.09150566,0.038477484,-0.22021283,-0.2645127,0.22609727,-0.023407957,-0.20853053,0.0039796247,-0.22206366,0.04378964,-0.19362406,0.04163274,0.028545417,-0.07004434,-0.15014157,-0.020669445,-0.18042794,-0.21437232,-0.08671154,-0.08550277,0.13972244,0.004675122,0.16974315,0.12994999,0.49810734,-0.021260332,0.2165577,-0.1470967,0.10215655,-0.1359887,-0.19302432,-0.11818811,0.17423859,0.31148985,-0.10128415,-0.06640777,0.3490082,0.1366744,-0.299727,0.100623734,-0.28124014,-0.011136342,-0.17481957,0.10539353,-0.011173895,0.3203233,0.07501936,-0.33451724,0.14567488,-0.32060066,0.08007268,-0.014788118,0.037991654,-0.036202487,0.050040524,-0.05617201,-0.19941242,-0.07066714,0.26460317,0.12586278,0.104935825,0.010623324,0.040749833,0.05473184,-0.22526418,0.21418145,-0.2933521,0.13482466,-0.09024038,0.05472208,0.29399115,0.11468649,-0.20823646,0.3498814,0.18034169,-0.08628447,-0.059890315,0.05747482,0.023958554,0.009974464,-0.1490355,0.18916772,0.07753015,-0.015846245,0.12050845,0.15553188,0.14379144,0.14937484,-0.29850242,-0.2616984,-0.009046477},
{0.1189923,-0.171807,-0.25783688,0.1482796,0.08584079,0.041892573,-0.07510362,-0.21050163,0.06939395,-0.105444014,0.03193579,-0.028049134,0.16884047,-0.038805164,0.007523718,0.20056368,-0.018622216,0.026869396,0.07972156,0.037431702,0.10962982,0.04437419,-0.040877584,-0.017644873,0.17988276,0.012217755,0.29236972,-0.27272868,-0.014337914,-0.20227721,0.08666653,-0.0034601386,-0.15715936,-0.28303346,-0.049179744,0.046778098,0.25543353,-0.022160597,-0.05770961,-0.091850005,0.0760424,0.14289072,-0.05192499,0.19742307,0.006937769,0.117659464,0.3856128,0.032880798,0.09666114,0.12804994,-0.2614081,0.01802854,0.013108583,-0.24188927,0.013838886,-0.016744291,0.09458156,-0.0353487,-0.13358755,-0.106509075,-0.3182506,-0.24732795,-0.34968787,-0.17402221,0.17249328,-0.04573743,-0.18296483,-0.16829152,0.07569671,-0.092336155,-0.21034847,0.09645948,-0.10912526,0.04202952,-0.2639693,0.120237164,-0.10409719,-0.045446917,0.009759682,-0.00842951,0.06476421,-0.0068766773,-0.20825472,-0.070357725,-0.2501841,0.315255,0.027258279,0.22236438,0.4378699,0.085280724,-0.0021850914,-0.1058715,0.15582958,-0.10037218,-0.0858679,0.10498607,0.04592352,0.1692316,0.095526084,-0.020113092,0.3093863,-0.245719,0.08820325,-0.08452755,-0.13857186,0.34408337,-0.07493271,-0.0205526,0.14590687,-0.0068262964,-0.16166899,0.04203777,0.10939789,0.13437034,-0.013059985,-0.07504786,0.2752877,-0.1240505,0.1082997,-0.03291582,0.011822835,-0.05137512,0.035209335,0.16651455,0.0462445,-0.00021414302,0.14891699,-0.20616005,-0.022080097,0.23137985,-0.1402468,-0.128116,0.20099047,0.35180393,-0.024821416,0.50246644,-0.14899576,-0.006075324,-0.013545563,0.17321579},
{0.016218394,-0.103995316,-0.18659104,0.05707431,-0.07869563,0.15267983,-0.028047241,0.1827942,0.121977456,-0.2665932,0.07933649,0.3002206,0.028582716,0.013021349,0.0021716314,0.09427968,-0.027339395,0.12307648,-0.24915807,0.119004816,-0.08588892,-0.19499929,-0.0046635284,-0.014171351,0.17269787,0.11465352,0.114203095,-0.19649622,0.5397338,-0.04063921,-0.15127681,0.029202737,-0.15408829,-0.011665235,-0.053182825,0.15735175,0.035605174,-0.0792914,0.12973739,-0.02418164,0.12721062,0.035148703,-0.106826626,0.05713594,-0.27281854,0.02831687,-0.06347109,0.12946197,-0.18966198,-0.16876489,0.16074616,0.0077337683,0.0116921775,-0.07458508,0.15706205,0.2775106,0.42646515,0.038255077,-0.07360464,-0.112984434,0.16708656,0.26924315,0.025751235,-0.14265159,-0.03354889,-0.028358974,0.12332856,-0.19158399,0.17377788,-0.0062828246,0.19595738,0.13027501,0.22943649,0.1623682,0.13306244,-0.06965169,-0.108674034,-0.007759303,0.18229932,-0.24318029,-0.27152026,-0.12102846,-0.22842884,-0.020763334,-0.1591875,0.14850089,-0.2041109,0.19181712,-0.07524919,0.10736188,-0.05476806,-0.13782403,0.1963276,0.42362452,-0.1412041,0.13318211,0.08076716,-0.0024191737,0.0967366,0.9406816,0.053739116,0.11525294,-0.21965566,0.010474328,0.531134,-0.15173371,0.00632384,-0.009464304,-0.21725877,-0.11015804,0.1688158,-0.13491328,-0.020259814,0.06297754,-0.023929706,-0.088290595,0.24852869,-0.00353971,0.2152056,-0.30070287,0.06821537,0.07112096,0.021868728,0.05969733,0.023560345,-0.20662671,0.175646,0.26674512,-0.008668784,-0.16126625,-0.1638114,-0.11341072,0.12632595,-0.18998663,0.062993884,0.03199834,0.06485683,0.023232328,-0.15639032,-0.1903314},
};

double W1[140][100] = {{0.13644053,-0.13597795,0.044677764,-0.1561977,-0.06497474,0.13375829,0.09532185,-0.01996915,0.15565388,0.037516937,-0.14507534,-0.09537511,0.07439387,-0.09734099,0.089146316,-0.062044077,0.090570375,0.050929785,-0.055510648,-0.11192505,0.057438,0.0765955,-0.09652711,0.07511151,-0.04915093,0.017308295,-0.043653756,-0.058239937,0.14879744,-0.09767235,0.084535524,0.13398363,0.043303058,0.00622344,-0.112652615,-0.027140498,-0.09855451,0.018051729,0.15803616,0.07028259,-0.053461462,-0.004599601,0.097757205,0.106771395,0.033180922,0.07957125,0.14475931,0.0095473975,0.11727567,0.0048154145,0.041874558,0.013771504,-0.12319489,0.0045968443,0.1457373,-0.029426306,0.14023049,0.13192509,0.15171213,-0.15324682,0.12937279,0.0022494793,0.07586855,0.027256906,-0.15796246,0.09401418,-0.13241696,0.12192117,0.123466805,-0.10131824,0.13326828,0.053560942,0.07371245,0.04676333,-0.0011301637,0.0012612045,0.050720274,0.0878893,0.020680696,-0.13470888,0.14740123,-0.10547422,-0.01033321,-0.08575488,-0.06323754,-0.10707097,0.0917947,0.14976858,-0.087387554,-0.1145901,0.15458395,0.045013458,-0.039917283,0.14153449,-0.1288909,-0.12145236,-0.07103594,-0.15626103,0.12014805,-0.06281883},
{-0.0044776755,-0.97031045,0.014121569,0.012551016,-0.015858142,-0.10827832,-0.245979,-0.022636654,-0.46846962,0.0647129,0.0014494109,-0.03671169,0.0968778,-0.048841204,-0.08323426,-0.023443451,-0.10553978,0.047355,-0.019135483,-0.12461586,-0.022609819,0.025755407,-0.06484223,-0.6399069,5.6663543e-05,-0.0059947865,-0.066989064,-0.006059584,-0.009351258,0.0095840655,-0.547622,-0.011414764,-0.0046175225,-0.0017397329,-0.06046357,0.03944257,-0.18631406,-0.019086465,-0.06420623,-0.020607537,-0.06765576,0.007550314,-0.034528766,0.025548872,0.0036248532,0.04662675,0.13353723,0.09025133,-0.054132175,0.020851715,0.03639422,0.023199873,0.06536442,0.012820497,0.03061859,-0.57305723,0.0026769573,0.040164616,0.010623783,-0.007154364,-0.013449456,-0.0025888733,-0.06871716,-0.038218293,-0.085724175,0.04109293,-0.006296705,0.025836553,0.018433837,0.028268572,0.01019728,0.007565698,-0.23350807,-0.14606829,-0.0035429401,0.014130698,0.01466196,-0.0016051334,-0.009679568,0.007568633,-0.11185493,-0.029583743,0.0035574837,-0.04495006,-0.0061497237,0.03025425,0.046155423,-0.015797978,0.043449253,-0.03909893,0.03428583,0.059278503,0.006687722,-0.033287283,-0.010278046,0.0008332098,-0.11806137,0.012456568,0.07384387,-0.045701753},
{0.03514128,0.026439255,-0.018832827,0.07360668,0.24906321,-0.02616801,0.106610835,-0.12919533,-0.6416882,0.037981562,0.034817625,0.0698617,0.103556015,0.18021129,-0.18729626,-0.3088932,-0.22420993,-0.19855106,-0.275914,-0.0825048,-0.021777906,0.15132341,0.19347344,-0.089926146,0.13567367,0.15759838,-0.37022308,0.12848581,-0.10083725,-0.67180103,0.066902034,-0.035972074,0.25746402,0.12779696,-0.46312043,-0.24787626,-0.26726964,0.07795785,-0.2508551,-0.21590514,0.098543346,-0.16095531,-0.13986112,0.18511939,0.0031062372,-0.112825796,0.066632725,0.011448398,-0.31465736,0.15998058,0.027684234,-0.17508239,0.14322768,-0.25642198,0.0354986,-0.047990207,-0.16398264,-0.10632949,0.31999955,-0.06782795,-0.4437998,-0.30343175,-0.005876196,-0.48934036,0.12246407,0.017312638,-0.10274265,-0.09307305,-0.024331866,-0.09624654,0.07168893,0.03155069,-0.031176645,0.075312324,0.040061742,-0.04860982,0.20373015,-0.072545014,-0.13191776,0.15367754,0.0031252843,0.07264688,-0.02680199,0.10348934,-0.3174567,0.16634576,-0.011987945,-0.0026926354,0.08768108,-0.030208861,0.10867998,0.2343515,-0.09450779,0.0015458127,0.058705747,0.0050812787,-0.1102028,-0.10328548,0.1931537,-0.6768659},
{-0.053250358,-0.14619954,0.14557146,0.12201421,-0.106537655,0.042598918,-0.09005724,-0.0030660331,-0.07063329,-0.13573828,0.07463023,-0.03923609,-0.05997412,0.009390399,0.1366377,0.12337394,-0.032797396,-0.1515382,0.09925838,0.012332022,-0.047153465,-0.06763146,-0.061030284,0.08421679,-0.021691695,0.10231839,-0.04443922,-0.046298906,-0.049349822,0.07814795,0.025872067,0.040790305,0.052491546,0.09516816,-0.106249504,0.047042713,0.03034854,0.008767784,-0.13114876,0.066869855,0.051375076,0.057870656,0.04762283,-0.0365548,-0.07131106,0.09292956,0.09402166,-0.12683764,0.10946669,-0.072930455,-0.11509238,0.06769988,0.11258535,0.009447098,0.10761987,0.10137068,-0.13186376,-0.122060575,-0.14138907,0.04629898,0.07118292,0.08680031,-0.037605643,0.14287241,0.056601465,-0.095236205,0.06972456,0.10663463,-0.015781105,-0.01470533,-0.111574054,-0.074606925,-0.12350382,0.06097679,0.14579843,0.038076073,-0.0055452287,-0.10466199,-0.032215312,-0.11758598,-0.14248873,-0.106667146,-0.113514975,0.07990201,0.12717904,-0.08241712,0.050729007,0.11006458,-0.07071996,0.077670544,-0.030164167,0.12832116,0.07979682,-0.065364346,0.11558835,0.08553612,-0.10389772,-0.041886777,-0.10580622,-0.099526376},
{-0.095048204,-0.064212956,0.05740565,-0.12914687,0.028188676,-0.021440968,-0.00993979,0.06059274,-0.11026351,-0.11044027,-0.11062401,0.07255167,0.09637232,0.07852548,-0.09510068,0.07223317,0.13857283,0.048874274,-0.14514051,0.11814822,0.072903305,0.14794873,-0.09565419,-0.07251921,-0.011504188,0.13586284,0.036965013,-0.0014355183,0.023925826,-0.14794055,0.10896234,0.13484271,0.13609962,0.047724545,-0.0046309233,0.0076070875,0.03543131,-0.03710129,0.03267774,-0.07570185,-0.11295619,-0.061150543,0.13957201,0.054809928,0.006582588,0.07750721,-0.08861584,-0.09456538,0.023572147,-0.10574711,-0.09854369,0.098343775,-0.051375255,0.056427866,0.10107897,-0.030881315,-0.07316067,0.00046153367,0.07663424,0.10457669,-0.15573081,-0.05018048,-0.13208006,-0.03388907,0.024194345,0.050982073,0.009071544,0.1011353,-0.018466428,0.109975085,-0.103524365,-0.008325562,0.0754271,-0.06650804,-0.04480002,0.061258614,0.03127499,-0.103928104,0.10981111,-0.0285483,0.123169854,-0.10946961,0.04460679,-0.08388981,0.032037944,-0.026618958,-0.055182762,-0.036658876,0.013626546,0.07873905,-0.09365717,0.08980432,-0.1145616,0.09951691,0.14336003,0.10282935,-0.045814604,-0.06826274,0.15769438,0.13228326},
{0.10989107,0.07166898,-0.070149936,0.014926925,0.021058843,0.12888573,-0.0878478,0.112161204,0.07826036,0.09851889,-0.02124533,0.067875326,-0.103685215,0.08451192,0.02701278,-0.070471875,0.03828062,-0.03952282,-0.0016945302,-0.12008192,0.0939654,-0.07103775,0.08878133,0.010036603,0.04667391,0.10131584,0.118269786,-0.09541274,-0.12046707,-0.07499898,0.1126713,-0.08006365,-0.15201989,0.024915338,-0.04347372,-0.057579026,0.024909392,-0.13155214,0.121894225,-0.09442164,-0.11991567,-0.11337127,-0.055574887,0.043829724,-0.014730141,-0.071738616,0.033875078,0.10226677,0.115334585,-0.061875686,0.101714894,0.013699979,-0.03542407,0.03433001,0.0017623454,-0.057418473,0.07529166,-0.13215032,-0.12517972,-0.109809026,-0.037722923,-0.13081622,-0.14145236,0.057674438,-0.0050641745,-0.14557591,0.009306297,-0.11783332,0.09335227,-0.07068897,-0.081129536,-0.06849699,-0.109838024,0.02424267,0.14987515,-0.10173653,-0.0553383,0.06745134,0.05830285,-0.1300481,0.078215316,-0.15753236,-0.10661381,-0.11676136,0.14664085,0.060103014,-0.023497626,0.049962744,-0.120613225,-0.091381766,0.07585436,0.11942904,-0.13771392,-0.008052185,-0.114804335,-0.144308,0.04771033,-0.01308088,0.13936125,-0.10967448},
{-0.96429634,-0.027390072,0.039150868,-0.13946724,0.037621416,-0.1071526,-0.64636844,-0.0067135636,-0.5056688,0.16367523,-0.07772464,-0.06505342,-0.11520348,-0.0015318854,-0.024496002,-0.0073999297,-0.005080887,0.0015937218,0.04179539,-0.06379783,0.03948296,0.06739886,-0.34193245,0.09350803,0.08114745,0.025713706,0.05361658,-0.55584836,-0.08796065,0.076967716,-0.31903484,0.027999146,0.028554361,0.07895483,-0.082455814,0.036572695,-0.17322682,0.023998467,-0.025789376,-0.17810504,-0.32798114,0.07841751,-0.95488477,-0.007161135,0.011665294,0.2989445,-0.7555541,0.09713833,0.014784156,-0.042522468,0.0700034,0.09456241,0.06076742,-0.07338434,0.0788105,-0.07916145,0.10731486,0.01784474,-0.0035150321,0.08882172,0.016610688,0.07144249,0.44757265,0.0673097,-0.18833825,-0.3727137,0.018025026,-0.003528368,0.093535826,0.005465736,0.1020864,0.050445404,-0.45528716,-0.69454557,-0.020331556,0.14385952,0.03283393,0.044601057,-0.0005277263,-0.011743916,-0.016654313,-0.23894522,0.06877217,-0.52062744,0.04519621,0.027389336,0.10015364,0.022573275,0.09101524,-0.0094625605,-0.034998123,0.12802024,-0.093341134,-0.008388267,0.046974637,-0.036618665,-0.02590716,0.16228335,0.020547912,-0.034472477},
{-0.00086374383,-0.044904135,0.35755616,0.0037681807,-0.12557806,0.24035297,0.5711522,0.36408916,0.09066194,-0.89829195,-0.017954128,-0.016120648,-0.28745922,-0.3305327,-0.22001077,0.16409951,-0.088920884,-0.09137658,0.03170493,-0.01613939,-0.31479582,-0.6226001,-0.13235067,-0.15666713,0.16259448,-0.042981554,-0.19692606,-0.08931026,0.24707912,0.028290981,-0.13776077,-0.025509482,0.09831323,0.25116363,-0.034624532,-0.25470448,0.080598205,-0.043316673,0.051257666,-0.40410027,-0.4591628,0.49408242,0.060238592,-0.027023207,0.016638828,-0.37785965,-0.09470476,0.1873917,-0.1295432,-0.06675773,0.026503576,0.053601574,0.036568962,-0.13048938,-0.10904618,0.005564949,-0.16615126,-0.09552115,-0.089949906,0.063584186,0.071956486,0.06656157,0.09733135,-0.28619868,-0.11574472,-0.0174001,0.025151823,0.087819576,0.02338265,-0.17432998,0.010980577,0.35381722,0.07683711,0.017925335,-0.025310226,-0.028985513,-0.07620902,-0.06642255,-0.14175433,0.39014173,0.099545486,-0.05932647,-0.18083517,0.04733582,0.08265084,0.11834756,0.07161438,0.0393438,-0.16311453,0.02924886,0.19398451,-0.21802914,0.10843932,0.04914449,0.14054696,-0.059435304,-0.13149685,-0.004058687,-0.011169224,0.021389054},
{-0.120517224,0.025611518,-0.0018500296,-0.009276313,0.025293157,0.065941244,0.050353743,-0.11988253,-0.0049203136,-0.62033844,0.22359121,0.014208362,0.17929864,-0.067074366,0.16258541,0.04726022,0.016800849,0.043230206,-0.08584664,0.14630646,-0.10146209,-0.15053095,-0.59519815,0.042005125,0.14918327,0.025151374,-0.08682935,-0.14273782,-0.062147647,-0.15454425,-0.00040438332,0.03588018,-0.02578795,-0.0014886956,-0.23710328,0.05554137,-0.059015315,0.096684635,0.052195307,-0.13933589,0.15196934,0.09506176,-0.073806256,-0.0143116405,-0.12797593,-0.009788025,0.06911264,0.012431399,0.0021951618,0.11072917,0.040316172,-0.13494605,-0.322337,-0.15692349,-0.73815906,0.05797066,0.10041287,0.101350024,0.038349967,0.0416093,-0.103117354,-0.13615176,0.23681307,0.0049465867,0.066876456,-0.06848159,-0.4962592,-0.19034432,-0.01971543,0.01710804,-0.07819803,-0.030770186,-0.01335868,0.002641918,-0.13516682,-0.072907254,0.1311114,-0.08834829,-0.10305193,-0.13457598,-0.07303818,-0.038675867,0.05981354,-0.102116436,0.12291465,-0.19895522,0.09100508,-0.03682897,-0.09839421,-0.04372756,0.09698621,0.081933774,-0.13840309,0.022809878,-0.05134907,-0.05737147,-0.18439524,-0.08316095,0.077098005,-0.019675057},
{-0.021380518,-0.8656729,-0.13296458,-0.23136175,0.105536275,-0.2638945,0.021602193,-0.12704073,0.118288785,0.0085460525,-0.6483978,-0.579845,0.056550868,-0.18153988,0.18823496,-0.28118482,-0.048301347,-0.042085707,0.063865334,-0.48696366,0.13082254,0.021359285,-0.6903805,-0.23182602,0.30611274,-0.026151557,-0.019124245,-0.07424197,-0.07604899,-0.1425079,-1.1656947,0.18084954,-0.02678548,0.32101914,0.17030883,-0.0130336145,-0.52683085,-0.21238989,-0.5003946,-0.0033168802,0.06286447,0.2057949,0.02421097,0.11273057,-0.058786992,0.40797827,-0.05605271,0.4003646,0.53113014,-0.34248236,0.19587296,0.049239315,0.3150634,-0.016432878,0.0004751917,-0.7916445,-0.18712911,0.29940638,0.14230639,-0.39319476,-0.15990105,0.01451573,0.3364205,-0.060419988,-0.54600567,0.0651676,0.054090895,0.23404586,0.09478766,0.12224989,0.18367499,-0.27089337,-0.22875859,-0.050370123,-0.14303902,-0.22247063,0.04023287,0.27440202,0.12463605,0.15401323,0.13025807,-0.008217376,0.029332636,0.06835951,0.07065355,0.05860169,-0.32671818,0.15301754,0.23683983,-0.034523554,0.10654028,0.20235676,-0.21769914,-0.30117616,0.15089996,-0.08167362,-0.27221772,0.09972134,0.23260173,-0.83454543},
{-0.13411686,0.019110288,-0.1332337,-0.038080152,-0.3809129,0.047248103,0.034781057,-0.0069411653,-0.3557613,0.04424701,-0.2359941,0.027086651,-0.14565247,-0.026803292,-0.20412841,0.14332736,0.02643962,-0.13143927,0.033167157,-0.12401916,-0.11664561,-0.07878819,0.13956447,0.017432757,0.059402373,-0.20729442,0.085554294,-0.123465456,-0.035734493,-0.08727704,0.16709024,0.015939329,-0.35047147,-0.13436471,-0.03959588,0.041090615,-0.08071566,-0.15546799,0.0044996273,-0.081313446,-0.10876109,-0.073489115,-0.18133317,-0.2604792,-0.184403,-0.1310544,-0.015281615,-0.19075029,-0.31064636,-0.05291672,-0.26126674,-0.099965386,-0.11678986,-0.1904179,0.0407982,0.07895395,0.19041887,-0.023673277,-0.07938525,-0.31754813,-0.09811859,0.2477069,0.047426943,0.09378214,-0.079024136,-0.022514684,0.036428608,-0.084936164,0.06581672,-0.2293408,-0.005372456,0.05789573,0.079392925,0.06609966,0.02550785,-0.11271079,-0.083953895,-0.40687987,-0.049999446,-0.22408348,0.026648613,-0.06769725,-0.0064002494,-0.06629487,-0.059184495,-0.1923353,-0.086652316,-0.050927486,-0.28639132,-0.18648873,-0.29724878,0.07229479,-0.3341233,-0.08106889,-0.026202323,0.17271866,-0.08014821,0.23049638,0.083371915,-0.4444574},
{-0.006893856,0.0010821758,0.13599598,0.021515122,-0.012294233,0.022482185,0.111221485,0.047868107,0.24626797,0.37201256,-0.08258777,-0.08273266,-0.11914523,-0.6658553,0.10163598,0.06853398,-0.6080989,-0.085301906,0.22240926,-0.112370126,-0.7049407,0.13056596,-0.13889961,-0.045076665,-0.13371661,0.021450093,0.019471299,-0.17798083,0.14315358,0.15371275,-0.028913453,-0.5655828,-0.16936487,-0.17765638,0.055242643,0.117746696,-0.0070287357,-0.3062976,0.13379113,0.042495973,0.04456366,0.25296777,-0.042021524,0.29991558,0.01735878,0.18554834,-0.12830621,0.29092073,0.16527773,-0.24440311,0.12163121,0.005401843,0.07510196,-0.14937317,-0.044616878,0.2807808,0.028884413,0.20922577,0.34754294,0.3235705,-0.060714457,0.057682004,0.21618451,0.09779575,-0.08288396,-0.005363217,0.23486726,0.35973614,-0.048949663,-0.0019108438,0.09173122,0.13820893,-0.0037514546,-0.2394259,-0.75548977,-0.11300396,-0.022247532,0.13604704,-0.09945927,0.045487273,-0.019656666,-0.1470605,-0.113032304,-0.057367105,0.049194764,0.036643896,-0.15913942,0.008404923,-0.054594148,-0.18871209,0.15828496,0.066830605,0.09970083,0.107062645,0.06413065,-0.16180587,-0.049920093,0.029412283,0.05913877,0.013198216},
{-0.051693518,0.059243742,-0.3556573,-1.6401244,0.024866823,-0.0036513505,0.08269342,0.029300733,0.040209167,-0.005629026,-0.06282089,0.057940125,-0.1680623,0.001431399,0.008783843,-0.0644928,0.0229215,0.033932712,0.0043778857,-0.03590137,-0.015988307,0.0067554046,0.0238821,0.07736657,-1.1397177,-0.12453642,-0.013806035,0.2077432,-0.0051015853,-0.04233007,0.13561498,0.03109923,-0.014203151,-0.04023428,-0.038506337,-0.026248494,0.028595107,-0.09490333,-0.03730257,-0.017397381,-0.018136559,-0.019891597,0.0014477203,-0.035047125,-0.028728671,-0.012140935,-0.089340866,-0.11489456,-0.0131598385,-0.040073738,-0.025910035,-0.1650524,0.042665888,-0.10402724,-0.039549407,0.16047825,-0.13517913,-0.40948507,-0.0025132676,-0.14009756,-0.032224372,-0.28030953,-0.017242676,-0.7803682,0.04420364,-0.15928032,0.02672288,-0.041673094,-0.004722904,0.039899103,0.089477055,0.004195845,0.053595938,0.04333046,0.052275196,-0.01145547,-0.30120033,-0.26110488,-0.055128884,-0.012379915,-0.14686175,-0.017120685,0.20179924,-0.2520729,-0.465583,-0.027291493,-0.017134406,0.041921347,-0.10166491,-0.09921186,-0.1344739,-0.14018412,-0.04081792,0.010686255,-0.003730483,-0.6770789,0.009403626,0.08569654,-0.041560706,-0.04048419},
{0.009172952,-0.0045602294,0.06569741,0.02598676,-0.02079216,-1.2827436,0.037757274,-0.8934594,0.19857545,0.054446895,0.042360853,-0.043139677,0.0033500618,-0.0826113,0.028156873,0.02389411,-0.05485915,-0.0105108,0.054988075,0.18050642,-0.053254064,-0.7464769,0.05985978,-0.00711448,-0.0015616333,0.046057496,-0.030552588,0.015853968,-0.12286309,-0.08186066,0.018929461,0.0016884626,-0.074481465,-0.111280724,-0.11401031,0.026018277,0.025143184,-0.018538268,0.10692302,-0.026275858,-1.3401506,-0.074954756,-0.007847632,-0.100479946,0.0028460403,-0.028376207,0.024978548,-0.0045149564,-0.042122226,0.031443294,-0.06660633,0.036284268,0.06419053,-0.0025098142,-0.0014919564,-0.0003161498,-0.003122259,0.03398629,0.005256718,-0.15367915,-0.16183145,0.004205969,0.0017671161,0.0014982466,-0.06640563,-0.003053878,-0.12596054,-0.06986053,0.023534834,0.01866342,-0.06542044,0.022011628,-0.011124711,-0.0029429107,-0.0031156577,-0.005506757,-0.008392773,0.0027148786,0.01910462,-1.5329112,0.063626476,0.040688753,-0.13182104,0.027623925,-0.006043904,-0.022249646,-0.4262003,-0.0050042877,-0.2792113,-0.016849482,0.0013419724,0.011381661,0.09483583,-0.0088332,-0.023564612,-0.0026465154,0.0046723755,-0.00048001483,0.023114657,-0.07301421},
{0.031844135,-0.010120276,0.0025504048,-0.007231321,0.1115351,0.30475947,0.11685552,-0.31859964,0.15738486,-0.057281412,0.05179768,0.0491633,0.03853093,-0.28738406,0.013906539,0.044529647,-0.16338485,0.015601944,-0.15201584,0.011912091,-0.09486449,-1.248655,-0.020809628,0.01302077,-0.025488002,0.032039195,0.0049484605,0.010344168,-0.615072,-0.36521804,-0.013023053,-0.009421515,-0.665574,-0.617101,0.007692209,-0.011591533,-0.026727902,-0.009053251,-0.5436297,0.04920997,0.044797085,-0.10125215,0.06221106,-0.48101512,0.024842774,-0.016972506,0.034079388,-0.009492084,0.013546805,-0.16704759,-0.113307096,-0.24054568,-0.0461979,-0.021233186,-0.0602329,-0.0416524,-0.0019425972,0.036260035,0.02511793,-0.067290254,-0.4281758,0.025657011,0.044389058,-0.0023008112,0.013706187,0.045781948,-0.4584205,-0.05792141,-0.06532934,0.0063742744,-0.07631836,0.027152019,0.007840709,0.026258362,-0.0027710262,0.019865252,0.047735643,-0.0038908734,0.0681802,-0.6995753,0.032098193,0.1474845,-0.08844444,-0.0071633635,-0.011035782,-0.07896409,-2.1938782,-0.025735004,-0.59543407,0.022479493,0.065405674,0.00580018,0.124491155,-0.0057339794,0.00921269,0.014464758,-0.023668142,0.031087762,0.029377066,-0.11344202},
{-0.10505704,-0.025823655,-0.32688412,-0.73734564,0.05120381,-0.14575283,0.26630032,-0.049966447,0.082510754,-0.1718124,0.15989777,-0.5998346,0.022354662,-0.49553943,0.08564157,0.123887464,-0.66884035,-0.05473423,-0.0060617677,-0.24053259,-0.040095814,0.3670241,0.14036134,0.064759865,-0.7931327,-0.009961581,0.025757056,-0.11525186,0.017520245,-0.00066054537,0.22762223,-0.89473194,-0.19130878,-0.03874151,-0.40042642,0.09110526,-0.23617466,-0.5953355,0.03406147,-0.113702364,-0.013797744,-0.031602822,-0.0146338735,-0.035069548,-0.8122897,0.59139276,0.09492003,-0.17550312,-0.022322152,0.15332404,0.21349403,-0.05798548,-0.4685119,-0.2681579,-0.20899965,0.054545674,-0.2527312,-0.13360773,0.14582151,0.09502053,0.030732406,-0.014417039,-0.07679673,0.09067099,0.06301226,-0.63492584,-0.03002744,-0.09283294,-0.1516562,-0.14018147,0.44634855,0.113418706,-0.060946494,0.32097855,-0.8984049,0.08406775,-0.018715348,-0.2076033,0.20367819,0.37610573,0.044670027,-0.021481719,0.44879454,-0.18007241,0.052947685,-0.38366237,0.059840858,-0.81121105,-0.05066346,-0.75363344,-0.31997594,-0.27282178,0.035941392,-0.04455981,-0.1901407,-0.7016062,-0.08180554,-0.11886254,-0.27495015,-0.17234483},
{0.022858651,-0.13192023,0.013033168,-0.123583905,0.050455723,-0.27694166,-0.16366892,-0.6887159,-0.30602658,0.031115709,-0.0637141,-0.14601031,0.10855712,0.015876357,-0.014864505,-0.0056454,0.07165856,-0.0041014226,-0.12270597,0.067364596,0.03514763,0.22448152,-0.44216126,0.05861782,-0.0528319,0.050463885,-0.032618973,-0.591238,-0.25005144,0.09463855,-0.43372768,0.022355264,0.13527624,0.19299462,0.0033319045,0.07129184,-0.2620099,0.07253642,0.033001367,-0.13225406,-0.2717805,0.16814823,-0.111090735,-0.061749186,-0.06440521,0.06523702,0.118394755,0.1727221,0.22299111,0.014822984,0.11611399,0.18754984,0.08498167,-0.07013227,0.044942092,-0.020129502,-0.115445,-0.026359282,0.03471344,-0.09125239,-0.017133204,-0.0029950896,0.2506724,0.011232699,-0.20367807,0.002849647,0.028381063,0.05408914,0.09487156,0.0549329,0.20585789,-0.014976243,-0.29667023,-0.18124661,-0.16815105,0.14868271,0.050628204,0.14891766,-0.06401922,-0.37381604,-0.14444895,-0.21268663,-0.29685894,-0.10606916,0.054315545,0.1208887,0.061081894,0.08477087,0.05493439,0.13775562,-0.2915496,-0.0027762589,-0.15936874,0.08938189,0.026296742,-0.23662005,-0.05041028,0.06403222,0.043629862,-0.084114864},
{0.48629722,0.06673082,-0.34623536,-0.20981206,0.14795646,0.1043372,0.16959716,0.2459246,0.12711002,-0.0065247063,-0.16324724,-0.65346146,-0.6163546,0.020662908,0.22842823,-0.38994977,0.03532892,0.15590113,0.1575378,0.13507883,0.14402436,-0.15870082,0.18865961,0.51826215,-0.8904155,0.12197744,-0.024470853,0.27010047,-0.020004641,0.1612744,0.29825404,0.01898654,0.071327336,0.043164283,0.012872227,0.13320965,0.09298252,-0.46230513,0.21589254,-0.0021491144,0.06285953,0.021365913,0.08719304,0.23222633,-0.6268947,-0.07687556,0.6040861,-0.6416947,0.28509563,-0.09330667,0.22915375,-0.15289572,-0.06536888,0.19608386,0.08713554,-0.27890322,-0.30469862,-0.15331066,-0.9181782,-0.018133126,0.079974174,0.5483945,-0.6813901,-0.87217313,0.01547329,-0.54264593,0.06135401,0.17480725,-0.20525274,-0.4231353,0.25127015,-0.09429476,-0.010375793,-0.6329644,-0.057523835,-0.4460671,-0.10602628,-0.008549119,0.13518292,0.041065827,0.0017034003,0.03290594,-0.1618168,0.19995643,-0.8932751,-0.017102871,-0.21274064,-0.76700896,-0.04299685,-0.7765975,0.043631688,-0.056943677,0.09505272,-0.7269268,0.10085016,0.07666005,0.1118173,-0.5416905,0.0053005414,0.1530012},
{0.09833199,0.096855275,-0.010246898,-0.12725636,0.13140392,-0.048707455,-0.2258605,0.035251807,0.012307279,-0.90453184,0.21967927,-0.049281597,0.03603134,-0.49477136,-0.024955856,-0.06885287,-0.069083355,-0.15244594,0.29005626,-0.27232763,0.095074475,0.015111184,-0.16141745,-0.07287611,-0.061080188,0.03256443,0.023678955,-0.019038465,0.23230213,-0.32438803,-0.11974601,-0.5915317,-0.14324668,0.026323745,0.09947591,-0.07859073,0.07168891,-0.17304845,0.3179731,-0.62640953,0.01272178,-0.03160788,0.28561237,-0.36515602,0.12975165,-0.045000203,-0.05502454,-0.09322861,0.22783756,-0.259973,-0.008194438,-0.32247788,-0.10620084,-0.037273053,-0.21577005,-0.15014187,-0.31058234,0.07678799,0.16727747,-0.08551312,-0.104982525,0.23027612,-0.5419617,-0.07710127,-0.30454043,0.098983124,-0.31846708,-0.028518949,0.22665052,-0.28723705,0.014210267,-0.14461687,-0.23492582,0.035939574,-0.13183989,0.13360241,-0.31871122,0.0137254605,-0.306221,-0.110249676,-0.15461726,-0.02837312,-0.046034835,-0.17027684,-0.35694596,-0.884993,-0.2151476,-0.07767192,-0.13333942,0.113668054,0.28966537,-0.0483659,0.07104229,-0.1559486,-0.0012952746,-0.014565112,0.14861841,-0.16440408,0.25682306,0.0005054882},
{0.06039512,-0.15245888,-0.14675969,-0.06255284,-0.08821821,-0.102468915,0.08147861,-0.069886245,0.14054231,-0.066032074,0.056239232,0.019225195,-0.0060141087,0.024830222,-0.099635586,-0.07436996,0.019662336,-0.11868561,0.048529446,0.085285544,-0.00074353814,0.07857965,-0.108043216,0.0041008294,-0.08607587,0.023450762,0.14857616,-0.061671518,-0.009927809,-0.07977025,0.022348538,0.024561822,-0.010107592,0.15013431,0.09550895,-0.09458532,-0.07796964,-0.1208393,0.1012543,0.14125712,-0.062308565,-0.08718508,0.13294138,-0.136862,-0.046351187,0.106576785,-0.070797086,0.039225504,-0.0061129928,0.14769237,0.012037277,0.06391655,0.07476717,0.15045221,0.1408474,-0.03183344,-0.08440246,-0.13373893,0.08090226,-0.09494073,-0.1402808,-0.08671552,0.034548506,0.0058806688,0.046147063,0.13549204,0.077850625,0.085171774,-0.0043590814,0.12397377,-0.038172424,0.15050788,0.11653958,0.05152209,-0.09523793,-0.14113273,-0.12504865,-0.083398536,-0.081714675,0.00065228343,0.0428268,-0.10873458,-0.060978867,0.044873416,0.074538544,-0.011643335,-0.08693515,-0.014403865,0.13342671,0.033418223,0.09611748,-0.033113226,-0.04910332,0.13940834,-0.01495029,0.1509486,-0.004611805,-0.101052895,0.08484569,0.096205845},
{0.14830217,0.06999224,-0.12115904,0.06581188,0.06863859,0.115035795,-0.04698123,-0.12938574,-0.0011876883,-0.0041318443,0.14550628,0.121569,0.037229344,0.12378246,-0.14048555,0.09238128,-0.03257057,-0.016930938,0.11518579,-0.08680716,0.10160953,-0.054215237,-0.06397323,0.12850943,0.0019192441,0.04350196,0.042907532,0.032193854,0.12851022,0.14646128,-0.048816662,-0.08478651,-0.058366943,0.078924306,-0.08901563,-0.038709335,0.028383188,0.09593421,-0.048662636,-0.043968156,-0.10076838,0.07738268,0.024442269,0.14412218,0.10317265,-0.0975055,0.06889477,0.11691222,-0.08872811,-0.12603903,-0.081704766,0.09794999,0.035412535,-0.014523104,0.0023316448,0.04389819,0.12946159,-0.12741694,0.028184382,0.07477464,-0.057014845,-0.08364643,0.09021436,0.059688225,-0.020966845,-0.008846388,0.05608353,-0.11490418,-0.09079532,-0.10777964,0.12633872,-0.08393544,0.048228905,0.0060207047,-0.032892946,-0.012287067,0.06344807,0.13394947,-0.15642756,-0.153375,-0.021617573,-0.06293728,-0.07245652,0.15588872,0.13697933,0.13713169,0.07128376,-0.021312553,0.10491143,0.13629441,0.0584355,0.04991461,0.13326128,0.06279895,0.053770036,-0.024416655,-0.06957737,-0.04259595,-0.14684872,-0.09723224},
{-0.2755275,0.010293451,-0.498432,-0.09438035,0.019788612,0.099157825,0.029930735,-0.0041871746,0.05312423,-0.0017679885,-0.37734705,-0.08853024,-1.3517863,0.1954294,0.121958576,-0.009779991,0.022999471,0.04740359,-0.034388043,0.090360306,0.025073025,0.021161422,-0.20842265,0.15937768,0.2649345,0.056414377,0.0065248543,-0.001049705,-0.028617628,0.08754015,-0.11654206,-0.1193737,-0.03070021,-0.04181336,0.08477373,-0.029235682,-0.22681268,0.03900072,-0.033513788,-0.1959417,0.04178966,0.038343538,-0.5927789,0.061251014,-0.77685463,0.029123597,-0.30616233,0.21517661,0.33908388,-0.4291869,0.08257491,0.14726466,-0.0041563003,-0.07852616,0.15086809,0.038302608,0.036069863,-0.08722769,0.32446,-0.37668762,-0.00029776717,0.09088805,0.032802332,-0.052754574,-0.604933,-0.06954776,0.06806668,0.04179539,-0.03480847,0.001951211,-0.030543135,-0.6204439,-0.12090249,-0.13062075,-0.24667335,-0.026330821,0.039997227,0.03780569,-0.017633663,0.17845602,0.0016813679,-0.015883282,0.11240121,0.039897043,0.042142704,-0.026499875,0.001527992,0.037620187,0.006473279,-0.114060454,-0.13171393,0.002872321,-0.2623677,-0.0788204,0.107760206,-0.17122936,-0.467479,0.16025913,0.08301648,0.017649889},
{-0.17718574,0.04373898,0.0034832312,-0.14134699,-0.68733186,-0.26656833,0.030253032,-0.5207474,-0.77221245,0.06197263,0.10519289,0.08074668,0.078014,0.08754436,-0.3077572,-0.80534726,-0.022001548,-0.07737779,-0.597214,-0.72465533,0.14069794,0.24114941,0.03421363,-0.051752638,0.071930945,0.0007025264,0.025839098,-0.2097129,-0.61235607,-0.5793862,0.122944124,-0.030784244,0.14060496,0.10692958,-1.2861472,-0.028214252,-1.00721,0.072965756,-0.1424492,-0.78813064,-0.06857182,0.00637252,-0.65165097,-0.09092922,0.08930122,-0.11706154,0.06908274,0.06852658,-0.3253697,-0.018885542,0.10567995,-0.5647671,0.13559261,-0.12637937,-0.029948786,0.009908562,-0.040449597,0.0025182166,0.0102436375,-0.036910344,-0.113501616,-0.48318574,0.045334496,0.11968181,0.046733897,-0.06181354,-0.7586842,-0.20288765,0.01865324,-0.20336622,0.09811091,0.03784281,0.032153685,0.010701882,0.07716501,0.050331168,-0.19415025,-0.08659442,-0.164119,0.11207263,-0.16032405,0.09072708,0.12718531,-0.20657901,-0.012533577,0.054007888,0.40256712,-0.018067565,-0.015902184,-0.08273214,-0.11341887,0.042680882,-0.35148174,0.027769603,-0.082873166,-0.1571508,-0.14048971,-0.20613413,0.050694782,-1.0788983},
{0.04180149,-0.005245819,0.024339357,-0.023403162,-0.014066808,-0.93271905,0.051711373,-0.94824266,0.1289023,-0.07860536,-0.006710215,0.10280489,-0.022954233,-0.22871199,0.110271975,-0.07083178,-0.14284621,0.07456359,-0.19405186,-0.1323697,-0.11014297,-1.440028,-0.023513148,0.016242042,-0.0057329764,0.015833495,-0.015605943,0.006068438,-0.67734426,-0.2694097,-0.056068677,-0.008336202,-0.55228347,-0.6399038,-0.031700928,-0.021580916,-0.008516143,-0.029524272,-0.2138191,0.03643158,-0.7288366,-0.090409696,0.08910794,-0.40541115,0.0068074553,-0.032760322,0.017950175,0.040112216,0.01634583,-0.08548279,-0.09308804,-0.31535617,-0.009996572,-0.004215223,-0.058535244,-0.025742153,-0.015675278,0.035180908,0.04608564,-0.035100322,-0.3485929,0.01593011,0.016171537,-0.0065467353,0.024520231,0.022462048,-0.38320357,-0.06948819,-0.053942356,0.019213174,-0.027095731,0.03751752,0.03155695,0.011184,-0.004025718,-0.007458409,0.04100285,0.014783892,0.04180658,-1.1816348,-0.051088378,0.1138495,-0.05959729,-0.02112599,-0.025778824,-0.08298528,-1.8206853,-0.023293786,-0.3828822,-0.047230083,0.008548462,-0.061687227,0.09331506,0.008799018,-0.06054758,0.016742118,-0.046623338,0.0019876324,0.02927946,-0.15515442},
{-0.11933118,0.016774708,0.1268822,0.071196966,0.034837473,-0.066351116,0.043579325,-0.026800202,-0.054605413,0.14024693,0.14322762,-0.062564224,-0.06140414,0.010011246,-0.059055712,0.105136044,-0.006162712,0.017147735,0.10238295,-0.07374253,-0.091334574,0.026171211,0.027887285,0.010326889,-0.13591295,-0.05741919,0.14976163,-0.0671647,0.036275953,-0.07933645,-0.14251104,-0.12122961,-0.060945697,-0.13949142,-0.105952404,0.023501484,0.1167853,-0.07286777,-0.004196517,0.13089554,-0.00042886139,-0.030545639,0.07923002,-0.03530611,-0.048448443,0.06564149,-0.13810386,0.01610609,-0.09900156,0.08564813,-0.03914253,0.004870031,0.11260338,-0.12559755,0.03008017,-0.12175547,-0.018096238,-0.08368294,-0.10120296,-0.14572859,-0.11972025,-0.0340434,-0.1532221,-0.044785775,-0.14996244,-0.04832938,0.050352305,-0.006782228,-0.09297594,-0.09629523,0.063375965,0.004499817,0.007639082,0.13505897,0.12798187,0.12780745,0.113885716,0.12307295,0.07566839,0.112614125,0.11039965,-0.046151318,-0.1131065,-0.02816911,0.09859646,0.14674751,-0.08812887,0.01075983,0.037858367,0.024341993,0.05400143,0.12663752,-0.04294765,-0.024367275,-0.047386356,-0.01585321,-0.007417619,-0.05461143,0.045162726,-0.016900312},
{-0.96020216,0.12723137,0.04918681,-0.06444356,0.043078046,-0.15094386,-0.39767787,-0.42466357,-0.75412005,-0.059500027,0.127165,-0.012775626,0.25499898,0.090545766,-0.014633233,0.08146288,0.050765265,0.061959352,0.051977664,-0.16773112,-0.025623905,0.06844305,-0.94526815,0.37731946,0.0731859,0.018127616,0.0073969895,-0.5918435,-0.089345686,0.08661189,0.29533863,0.026018422,0.08226938,0.0051768427,-0.29514742,0.10326802,-0.17996804,0.032609906,-0.023502914,-0.25585258,-0.26217082,0.09849987,-0.37420654,-0.07120737,-0.010687308,0.23249753,-0.3055276,0.050627723,0.10328443,0.1405453,-0.05624601,0.09094677,0.21191022,-0.19288173,-0.17084938,0.11389896,0.3129934,0.10038708,-0.0042816447,0.13877082,0.06424508,0.108451076,0.49862048,0.096971855,0.2178101,-0.3036557,-0.049214706,-0.0039379993,0.116788626,0.022302195,0.03588348,-0.061437085,-0.48504773,-0.55877805,-0.12027002,0.10058812,0.0075397445,0.0016130774,-0.21698935,-0.3824846,-0.07702777,-0.6510823,-0.0022160471,-0.70580965,0.016903875,0.11648754,0.17418304,-0.12649308,-0.0074447575,-0.17543973,0.14546257,0.08021201,-0.25353757,0.023589795,0.0011806879,-0.014416679,-0.15911405,0.069549344,0.037855,-0.09011589},
{0.013347499,-0.053009223,-0.26444742,-0.22069058,-0.22667657,-0.00079934153,0.05734031,0.21144566,-0.11138529,0.0060840575,-0.07852741,-0.36011368,-0.28625917,0.21733722,-0.27939868,0.13352187,-0.006346535,-0.23468238,0.09026009,-0.24012995,-0.108529516,0.008196071,0.13062833,0.031215912,-0.03528271,-0.3218213,0.029431645,-0.010765685,-0.122892864,0.011976957,0.06883801,-0.027926669,-0.120379865,0.17113352,-0.22980991,-0.011606956,0.14202599,-0.01499953,0.021948691,-0.10679901,-0.114761874,-0.13644406,-0.2988203,-0.17575726,-0.38627663,0.052118152,-0.00087919756,0.018910035,-0.061309215,-0.29194778,-0.15597992,0.100564435,-0.055564318,0.0149349,-0.08284633,-0.09788523,0.01031553,-0.8993735,-0.026256815,-0.07363548,0.07520937,0.017809875,0.07309818,0.020133967,-0.46089187,-0.76879805,-0.31571513,0.31757855,-0.6792604,0.028813375,-0.6615283,-0.36846548,-0.010213124,0.049908012,-0.017746184,0.11079032,-0.17959253,-0.013537548,0.036097024,0.08022724,-0.00436603,-0.35953698,-0.026343081,0.06715694,0.026827823,-0.039913036,0.08855955,-0.6414546,0.003443626,0.023869522,0.11295231,-0.13242261,-0.03724619,0.10091657,-0.64800346,-0.56887156,0.03253101,-0.015948046,-0.4623938,-0.005404988},
{0.058152847,-1.0989285,0.04334739,0.062038098,-0.20873928,0.082813665,0.13861458,-0.0029946207,-0.25595444,0.16790412,0.032166734,0.040013213,0.2636319,0.045529533,0.0075951423,-0.2644933,-0.2495136,-0.16088216,-0.24738066,-0.16363488,0.04175086,-0.03489364,0.11717762,-0.79942316,-0.04625774,0.16295779,-1.0218155,-0.004778341,-0.086443186,-0.41313803,-0.24763277,-0.051859714,0.21920294,0.1275864,-0.46160364,-0.5202184,-0.03786768,0.07566775,-0.114438124,-0.13047822,0.014617461,-0.24053922,-0.032292366,0.23659658,0.06636426,-0.08025416,0.13843212,0.16915642,-0.008113906,0.20536193,-0.21410768,-0.45615444,0.17488849,0.07098692,0.17578256,-0.27086538,-0.34203413,0.11073106,0.0076021072,0.0077231475,-0.3595581,0.13852344,-0.11426325,0.03292709,0.01723768,0.009216788,0.08222403,0.087780766,0.09151199,0.027604189,0.087966904,0.010567685,-0.3252712,0.14548084,0.041905373,-0.015225765,-0.069856495,-0.0047826096,-0.054674942,0.23708692,-0.050576903,0.09378635,-0.16500029,0.12099867,0.037774067,0.102545425,-0.057456072,0.012635395,0.0077089607,-0.09736489,0.024650445,0.20041038,0.26741,-0.0024984356,-0.043575477,0.0129225645,0.23380427,-0.08195795,0.13431199,-0.29119003},
{0.07149008,-0.111567274,-0.42972693,-0.3587718,0.1552967,-0.17178687,0.07776397,-0.07350861,-0.029964857,-0.2351679,-0.29485574,-0.4229603,-0.8800555,0.72696406,-0.09552145,0.62851375,-0.63140756,0.06606936,0.17810558,-0.074362084,0.07107799,0.13644782,0.11316609,0.06377988,-0.4853386,0.07583357,0.079570055,-0.10744526,0.21725735,0.3395876,0.26558983,-0.8185285,0.75739133,-0.063071325,-0.044651993,0.07406022,-0.2852529,-0.49974558,0.43208128,-0.62421846,-0.019414714,0.4454639,-0.25750116,0.11482601,-0.18163782,0.34532183,-0.13677552,0.11250984,0.031662095,-0.15356582,-0.36159584,0.66120386,0.12191432,-0.07326571,-0.17712784,0.013507409,-0.058530197,0.05573322,0.4291704,0.5380808,-0.16871089,0.023674536,0.60954994,-0.04833063,-0.14745478,-1.0154703,0.25301772,0.7073425,-0.072212264,-0.14270836,0.5937551,-0.24021605,0.10297767,-0.114922434,-0.6852527,-0.098337635,0.06395432,-0.091600835,0.12372213,0.001693485,-0.028271124,0.11008692,0.5749202,-0.14090768,-0.047139402,0.39737517,0.034018725,-0.09907877,0.11095911,-0.99102634,0.01201948,-0.37444994,-0.38082352,0.40947592,0.1519397,-0.3610356,0.58050734,-0.14630853,-0.3683508,-0.14880475},
{-1.3208658,-0.81202525,0.015515756,-0.04398911,-0.045648623,-0.020181388,-0.11779059,0.03960878,0.008288613,-0.18231939,0.009735158,0.024702897,0.014500032,-0.0009427785,0.0071752826,-0.0730615,-0.024753632,-0.01583591,0.07191609,0.024032868,0.055064276,-0.0027171278,-0.032815773,-0.06067925,0.070097685,-0.1692889,-0.6103405,-0.5915835,0.018306497,-0.038432647,-0.37563145,-0.0039465036,0.033372838,0.026551794,-0.0288798,-0.12097058,0.027958514,-0.056013502,0.013870603,-0.0157537,-0.0733271,-0.030535687,-0.042259283,0.0027127822,-0.009257943,-0.029619731,-1.1826906,-0.032524638,0.06692134,-0.020477746,0.010773148,-0.00444417,0.045133833,-0.29776752,0.0033056808,-0.03741665,-0.07326242,-0.031089652,0.048598267,0.00727007,-0.027828382,-0.069189124,0.055234175,-0.07703171,0.0206519,0.017259745,0.0774816,-0.018245699,-0.0998434,-0.613796,-0.0005137832,0.034632664,0.07768698,-1.097009,0.026010213,-0.50343746,-0.11560305,-0.2685228,-0.5655088,-0.017137982,-0.117651395,-0.011497274,-0.008737087,-0.60127765,-0.008707615,0.1408194,0.010828114,0.0210446,-0.043785326,0.048159204,0.00043536356,-0.09542954,-0.046127073,-0.023843206,0.005656015,0.006777513,-0.00021376266,0.034831397,-0.106236935,0.081498675},
{0.063919395,-0.01311787,-0.61836904,-0.075585395,0.010629055,0.020020647,-0.079390824,0.09672232,0.0064447317,0.1572588,-0.1295111,-0.3282137,-0.3939142,-0.2948259,0.060117055,0.10821365,-0.05238873,-0.10548787,-0.11391573,-0.25786382,-0.14212249,0.12313258,0.060163718,0.1054559,-0.03265875,-0.11979023,-0.06585461,-0.08296258,-0.03966695,0.0050354144,0.12631851,-0.12041158,0.05671447,-0.022621244,0.065756075,0.06762694,0.091783985,-0.13318405,-0.1207313,-0.13082416,0.023557026,0.024611617,-0.07971196,0.0053320536,-0.28538582,-0.021900559,-0.72971845,-0.0913892,0.020386128,-0.36320123,-0.02826259,0.2814344,-0.46748266,-0.047425263,0.064865746,0.11460075,-0.09537256,-0.055735946,-0.06141976,-0.40606865,0.0014689395,9.847929e-05,-0.051771164,0.053076778,-0.30244157,-0.049842462,-0.09753112,-0.012936374,0.016569238,-0.14577335,-0.046862133,-0.7566005,0.1380464,0.04362639,-0.5150584,0.057613984,-0.024643322,0.029090138,-0.037008513,0.1281606,-0.116952315,-0.017252529,0.12286297,0.076771095,-0.027583538,-0.050573643,-0.12764929,-0.09924359,0.005492702,-0.10348297,-0.42823708,-0.17570545,0.020567548,0.1454537,0.039463572,-0.82127386,-0.49517724,-0.03387971,-0.021212809,0.099933356},
{-0.23338547,0.048107278,0.061683655,-0.37960172,-0.9498043,0.040034566,-0.024262602,-0.16594061,-0.46213856,0.051119857,0.20217218,0.052213132,-0.1945128,0.110250756,-0.34740385,-0.16902296,0.013515662,-0.38148203,-0.08849161,-0.116258964,0.042223725,0.18597876,0.0772751,0.046258125,0.2838321,-0.2887157,-0.023244096,-0.14031109,-0.04654571,-0.24137686,0.06770023,0.064104274,0.07896654,0.32726553,-0.5881853,0.0071558314,-0.1986135,-0.03470006,-0.06072671,-0.008537164,0.093132764,0.07683422,-0.39766052,0.112797454,-0.013652218,-0.5806703,-0.6337807,0.14810158,-0.41683814,-0.017575204,0.07051458,-0.62801844,0.12429816,-0.1763387,0.019148557,0.09654903,-0.010225544,-0.4102982,-0.13834122,-0.07285673,0.007041903,-0.17737621,0.009055695,-0.8671664,-0.066694245,-0.10102546,-0.046940595,-0.033414323,-0.4499674,-0.38026997,-0.02398674,0.058351994,0.06765965,-0.15507978,0.050258674,0.07161802,0.2977099,-0.41672784,-0.31450498,0.021505445,0.039330497,-0.084064625,0.07425862,-0.2694699,-0.22143103,0.07986639,0.0466015,0.027982663,0.1663947,-0.04154352,0.32760113,0.06586005,-0.8409298,-0.051147692,-0.99507636,-0.074457504,-0.014216347,-1.0628685,0.074917994,-0.3507214},
{-0.09439802,-0.10830392,-0.003921257,0.011827668,-0.037705794,0.14968424,-0.1970023,0.052311435,-0.024570897,0.07591801,-0.015490106,-0.13676648,-0.049364667,-0.012565811,-0.059813637,0.09023112,-0.33247054,-0.25991356,0.070123926,-0.2269959,-0.028329195,0.0491956,0.50479877,-0.50736177,0.026439471,-0.22009164,-0.1031795,-0.22880155,0.009757848,-0.020387495,-0.00032110114,-0.13119635,0.026768899,0.09193741,0.10079309,0.02987079,-0.03835616,-0.068014905,-0.09172791,0.038080454,-0.0066620787,0.17193432,-0.007008859,-0.0014073071,-0.13238561,0.04920033,-0.058360323,-0.0074273883,-0.0430777,0.038149714,0.04661567,-0.01622056,-0.47471383,-0.3680489,-0.00045223424,-0.50361514,0.0059109586,0.001743785,0.011721298,0.021182785,-0.62895346,0.29075068,0.083294466,-1.0913122,0.0154748345,0.0235126,0.018543107,0.030143728,0.0024731192,-0.30705255,0.046760958,-0.047507655,0.033266086,-0.27405435,-0.02796442,-0.22531766,0.025084376,-0.44357187,-0.0580251,0.0006893374,0.10720564,-0.0038969498,0.07655489,0.02650306,0.0545947,0.021599306,0.040323056,-0.6068752,0.028303515,0.07158997,0.023969358,0.06771534,-0.109963894,-0.2656315,0.036820468,0.02129887,-0.27581313,0.004842333,0.028722424,-0.0032911096},
{0.076655,0.023385985,-0.090192236,0.01139522,-0.113090694,-0.47241217,0.02563954,-0.373506,-0.41267553,-0.06754775,-0.1990835,0.056189522,-0.09631329,0.02496722,-0.20108075,-0.4998477,-0.10396187,-0.1518963,-0.25484803,0.038420282,-0.40590087,0.018661197,0.07760843,-0.01371865,0.07101441,0.13525778,0.014182728,0.009997605,-0.049588952,-0.29350924,0.055368602,0.026965937,0.11037027,0.11333285,-0.2869283,-0.008729527,-0.27607286,0.1448752,0.09507266,0.25622916,-0.13821621,-0.34746662,0.120403275,-0.0932084,-0.11823224,0.22095475,0.066994436,0.02181938,-0.31805748,-0.11073758,-0.22269528,-0.7364666,0.036095794,-0.15135977,0.07290149,-0.09077279,-0.004673959,0.004047861,0.06968903,0.13984732,-0.22746429,-0.6844822,-0.036410253,-0.5806039,-0.15760073,0.15984607,0.12840989,-0.02235148,0.16499467,0.1624485,-0.08448108,0.11564073,-0.12511645,0.11245506,-0.027009435,-0.03898174,-0.13187824,-0.047350153,-0.1414335,-0.5304646,0.09742144,-0.008734688,-0.40450308,0.05640238,-1.0262315,0.12557429,-0.008398604,0.062293295,-0.014496268,0.13584088,0.0026564582,0.18963295,-0.116329275,-0.14765747,-0.3566265,0.13011897,0.26289406,-0.32393983,0.06612402,-0.33868474},
{-0.28721416,0.0056609274,-0.14663567,-0.20271334,-0.31372145,-0.002788931,0.037530746,-0.009152508,-0.15270361,0.12397756,-0.13066752,0.167358,-0.038788848,0.05447478,0.070442475,-0.033261728,-0.09126608,-0.0075979964,0.004821472,-0.18536851,0.07298988,0.13407622,0.059763093,0.014685384,-0.19012384,-0.098125555,0.040544588,0.035578266,-0.029716253,-0.15613222,0.060666084,-0.055460144,0.11896801,0.21597895,-0.08336288,-0.119594954,-0.023171084,-0.0889408,-0.0496256,-0.03190969,0.10465434,0.060907345,-0.3597564,-0.03316166,-0.025968218,0.08454233,-0.08745024,0.18393709,-0.04915683,0.17794834,0.12946731,-0.40288058,-0.022305777,-0.070978306,0.096531086,-0.18216403,-0.5173636,-0.47834754,-0.11866761,-0.019782715,-0.0012878512,-0.35448152,0.0026834833,0.07763043,-0.002927495,-0.08672306,0.075026624,0.1116983,-0.123972885,0.05117366,0.14241612,-0.08511602,0.0030869294,-0.1781442,0.07427674,0.09445152,-0.22688965,-0.119560726,-0.33116826,0.056819014,0.04714143,-0.04109299,0.30936024,-0.19981052,-0.37612846,0.11566768,-0.011919291,0.040925056,-0.053252406,-0.19071884,-0.119654566,0.037471212,-0.20188306,-0.008243167,-0.13954477,-0.08118405,0.1445429,0.08210382,-0.024838882,-0.25592157},
{0.20668168,-0.31335384,-0.13025376,0.032000747,0.019726722,-0.031532668,0.23919244,0.104929335,-0.3136688,-0.33628914,-0.21722974,-0.19530532,-0.26590484,0.013236568,0.06697729,0.09697889,0.11213671,0.13587278,-0.031623777,-0.16010448,-0.51243967,0.047375366,0.12643088,-0.0027347961,-0.12122175,-0.008572469,0.054693468,0.0009032453,-0.10523602,0.13021262,0.15373346,-0.02884212,-0.2912752,-0.05187611,-0.23337422,-0.035644934,0.04349603,0.075126305,0.20431253,-0.30545685,-0.08289825,-0.5904694,-0.26248336,-0.4495728,-0.074308425,-0.0077545983,0.17772602,0.08383856,-0.056199893,-0.045284033,0.028788093,-0.13379623,-0.082850665,0.0045681475,0.021466494,-0.33428296,0.18132253,0.3446583,-0.0689411,0.010629973,0.12236234,0.1130404,-0.014691042,0.29585484,0.001012308,-0.41125998,0.05435456,0.04047143,0.0122723915,0.07301238,-0.009766035,-0.16257155,-0.23944263,-0.043747786,-0.06318378,0.16532932,-0.4457787,-0.31891832,-0.12170133,-0.13788885,-0.015789399,-0.13406779,-0.21072263,-0.041740406,0.07238265,0.020853316,-0.17631972,-0.027878148,0.33751443,-0.07064024,0.021515317,-0.39214876,0.015362202,-0.20360559,0.24701151,-0.110024154,0.0917573,0.06032597,-0.3525244,0.027777806},
{0.07343898,-0.03183232,-0.24027371,-0.2460519,-0.5131926,0.05333669,0.054301035,0.13717072,-0.20128877,0.020609718,0.03874076,-0.28169945,-0.09672055,0.12156343,-0.3782818,-0.013175311,0.08307337,-0.27772403,0.13143222,-0.31762004,0.018236198,0.1322863,0.08473887,0.06205753,0.044550758,-0.31500584,0.005564197,0.004841544,-0.15930368,-0.2632948,-0.0109901,-0.010206294,-0.15240546,0.049419113,-0.23696347,-0.23692094,0.1582848,-0.032169677,-0.24786235,-0.1064479,-0.021605425,-0.18784788,-0.33272392,-0.17164257,-0.39472252,-0.0066579874,0.037006486,0.024367198,-0.010205013,-0.14587477,-0.0070115123,-0.10570818,0.029965103,-0.019979319,-0.04061622,-0.08834066,0.008750614,-0.7954955,-0.0045560827,0.03320231,-0.05460003,0.097912334,0.008875269,0.027950866,-0.3367813,-0.9267426,-0.34778604,0.11093658,-0.6376368,0.023148865,-0.4658921,-0.34547392,0.025614213,0.15521638,-0.007869374,0.07394969,-0.06404102,-0.041841894,0.05498669,0.063367516,0.17093886,-0.42395666,-0.010455439,0.061542336,0.015346403,-0.26313105,0.103909805,-0.67300904,-0.064950034,0.026539365,0.07230151,-0.1592991,-0.081618525,0.10842142,-0.44415376,-0.5484359,0.06216717,0.036143534,-0.36341867,0.072931476},
{-0.089493416,0.08326206,-0.26851565,-0.2295999,-0.24055515,0.0774713,0.061416112,-0.021943843,-0.017803846,-0.050871067,0.0044224323,0.16872448,0.12282331,0.015240536,0.15855658,0.10837845,-0.22960658,0.051797774,0.094270356,-0.30128923,-0.08827408,0.056014825,-0.012784488,-0.047761977,-0.6126488,-0.11473433,0.0026214132,-0.019781107,-2.1123595e-05,-0.042370025,-0.010133647,-0.21611117,-0.073970415,0.20407107,0.04157586,0.058799814,-0.00496798,0.19776393,0.0052457727,0.014623718,-0.016601618,0.03220188,-0.17077044,-0.097134404,-0.14255188,0.030235313,-0.047627103,0.12169606,-0.010653459,0.08377105,0.061069347,0.042408135,0.033210337,-0.0492618,-0.19045231,-0.058506235,-1.5491838,-0.18287873,0.008053588,-0.050822202,-0.04480447,-0.40854692,0.1561037,-0.08198927,-0.014678365,-0.023287222,0.07615713,-0.034829013,0.05571505,-0.124953225,0.14753884,0.023915894,-0.0003345755,0.13371818,0.035572518,0.038017318,-0.12955375,-0.27805993,-0.15443516,0.115767345,0.051595166,-0.032433417,0.11958743,-0.07245603,-1.7700262,0.04297778,0.029299779,0.0697609,-0.111673266,-0.29020527,-0.23021126,-0.073007844,-0.000119070486,-0.024170775,-0.02508493,-0.12043937,-0.008848153,-0.13057779,-0.10906483,-0.17037964},
{-0.089027464,-0.112664066,0.014670567,0.018374855,0.3401291,-0.73769605,-0.43895015,0.09961079,-0.1108006,-0.09333438,-0.072289795,-0.0049107177,-0.076563716,-0.03253048,-0.15858242,0.011268632,-0.17059289,-0.25295097,0.19198875,-0.35842985,-0.1158057,0.07938371,-0.09435086,-0.3518113,0.113560654,-0.25099245,-0.8910214,-0.12921773,-0.0062180967,0.16700375,0.0773026,0.15276612,-0.02214783,0.018890867,0.17502917,-0.46684217,-0.053521015,-0.14043128,0.015788104,-0.097789824,-0.62905884,-0.46893254,0.016840657,-0.05410391,0.009185133,0.014590275,-0.080243,-0.07751682,0.118328825,-0.08903017,-0.12225676,0.035699934,-0.06459165,-0.031186616,-0.17109042,0.020673674,0.15422495,-0.062681176,0.10299734,0.052840445,-0.24594013,0.16613713,-0.09536967,-0.040775847,0.08422581,-0.3618238,0.01744943,-0.02473147,0.087204285,-0.093760945,-0.22553739,0.009956684,0.14803469,-0.16500792,0.04645742,-1.0487046,-0.7563232,-0.15374188,-0.24292539,0.017820662,-0.059333153,-0.2669021,-0.019558128,-0.0010224882,-0.033701353,-0.42631677,0.067710154,-0.0013174869,-0.23216096,0.024068814,0.19116837,0.15697254,-0.4310233,-0.6119698,0.13002913,0.08167889,-0.2679696,-0.010950143,-0.05241317,0.052751128},
{-0.17193122,0.0033632545,0.09038744,0.12576263,0.08779686,0.100388005,-0.4647959,0.010677061,-0.4690498,-0.10649806,0.18086933,-0.13721196,0.1685461,0.08783901,-0.4653077,0.03812757,-1.1313547,-0.116367325,0.072857246,-0.28867975,0.25343484,0.11676644,-0.0039744047,-0.012479341,0.18145151,-0.059609797,0.37239632,-0.04219053,0.08257772,-0.02321984,-0.06321446,0.10492762,0.1659181,0.2745183,0.08015436,-0.98480654,-0.1682393,-1.0833645,0.035848558,-0.091216154,0.20553908,-0.5544499,-0.18735574,-0.02113273,-0.9508012,-0.2167504,0.004266036,0.06463763,-0.36348438,0.1287407,0.036075078,0.05850153,0.073464744,-0.16630465,0.14412461,-0.050365753,0.2211044,-0.22734244,-0.044794176,0.22363693,-0.051299788,-0.1130784,0.015207281,-0.45570663,0.21909718,-0.012666481,0.24913152,0.15269062,-0.2491849,-0.3518616,-0.51931727,0.049264308,0.3300627,-0.40566182,-0.049753305,-0.43276605,-0.51055497,-0.1661001,0.06134428,0.27499437,-0.09986166,-0.20657523,0.24275506,-0.07412427,0.096131705,0.07000556,-0.10111804,-0.95642483,-0.009479898,-0.40681776,0.11085188,0.36991426,-0.064259365,-0.23298036,-0.22542647,-0.03114137,-0.06544488,-0.13977937,0.29483712,-0.34256944},
{0.54498905,0.21895306,0.56608796,0.5149549,-0.15870172,0.10313352,0.24938501,0.3099334,0.26008895,0.21032846,-0.03616149,0.1115683,0.51406974,-1.6001309,-0.43495852,0.3391267,-0.40037063,0.08422486,0.6874096,-0.09126912,-1.2640966,-0.04292199,-0.053764626,0.270219,0.6202524,-0.17065974,-0.26175243,0.47764096,-0.066701494,-0.06739993,0.7291301,-0.73234504,-0.62140536,-0.4849565,0.22796,-0.013699454,0.43457088,-0.03723619,0.5932526,0.12921284,0.29473585,-0.69515634,-0.08491118,-0.9180973,0.2487001,-0.7073481,0.48644164,-0.54302526,-0.34959322,-0.046757415,-1.6755513,-0.5688955,-0.5277979,-0.31999883,-0.5236755,0.23527625,0.20245987,0.7374066,0.36541736,-0.5003957,-0.18902524,-0.24277467,-0.9761597,-0.40554273,-0.05680857,0.15627886,-0.13960193,-0.63068414,0.41159067,-0.82913077,-0.61571807,-0.04030372,-0.037117347,-0.10514767,0.622561,-0.047883835,-0.42259485,-0.3155757,0.12543565,0.19912483,-0.026480531,0.21037947,0.9784016,0.0692724,-0.14458807,-0.50512534,-0.09320028,0.06390348,0.0045772693,0.10888665,0.16211243,-0.34309316,0.19893348,-0.7722318,-0.15446706,0.70234525,0.15667646,-0.46414012,0.21612978,-0.27487618},
{-0.34066227,-0.037473474,-0.023746891,-0.11939599,0.033647683,0.018173113,-0.015707426,0.02181575,0.039298266,-0.22333147,-0.00985451,-0.37268046,0.0677344,-0.057662107,0.017804964,-0.004381451,-0.007471831,-0.1598444,-0.13289838,-0.026090516,-0.05220002,0.05818694,-0.26085123,0.070490114,-0.00093356567,-0.26826888,-0.04007683,-0.10683608,-0.045262937,-0.012080565,0.11825031,0.04285295,0.11216743,0.042574324,-0.09892549,-0.04177744,-0.0052885376,-0.11181213,-0.0648434,-0.39886972,0.0682247,0.24598914,-0.048548616,0.06769499,-0.1101166,-0.1661294,-0.6209888,-0.02741095,-0.07188022,-0.11917586,0.20586383,-0.04368297,-0.2295714,-0.22784369,0.0116606215,0.16048455,0.07677307,-0.015573965,0.0036052866,-0.546644,0.033289943,-0.09244697,0.113129556,0.12556797,-0.17242846,-0.03153651,-0.39630318,0.0066363085,0.043633536,-0.06839271,-0.3166461,-0.2148224,0.14749092,-0.012013619,-0.29964167,-0.092774466,0.008668115,0.06098568,-0.097716644,0.055010855,-0.09790398,-0.13178925,0.18646704,-0.052175477,0.0047798273,-0.28719687,-0.044427928,-0.03685548,0.03141329,0.026337253,0.06514255,-0.042896383,-0.6911803,0.08866977,-0.06297038,-0.58083504,0.16082428,0.11112209,-0.047136303,-0.024067407},
{-0.101091586,-0.8671352,0.00014472156,-0.12682042,-0.017631358,-0.21432637,-0.13034117,0.13817106,0.29513732,0.09482001,0.008851897,-0.78890526,-0.56989264,0.09762586,-0.061069474,0.007662563,0.02794534,-0.25684512,0.11651904,0.16171113,-0.051490277,0.07318445,-0.18276803,-0.68727404,-0.023075499,-0.24428548,-0.02336187,-0.1798246,0.084236786,0.15988769,-0.52333885,-1.3823801,0.068105094,0.38172016,0.06677983,0.2736679,0.49716845,-0.15232217,0.73513585,-0.19292472,-0.3484293,0.09548705,0.036214527,0.19612671,-0.22570153,0.054570258,-0.14929996,0.270463,-0.06929683,0.065852836,-0.02052094,0.11907923,-0.9240875,-1.0042086,0.050877344,-0.8807458,0.0145127205,-0.06918221,-0.14884126,0.19673806,0.064488456,0.08817511,-0.0919674,0.22821443,-0.11904683,-0.024726858,0.090506755,-0.033950765,0.1564907,0.032791004,0.044631112,0.11609618,0.19512878,-0.7229605,-0.09315905,-0.019011503,0.04891139,0.30217865,0.041068207,0.097775094,0.020155912,-0.878817,0.11922908,-0.8747448,0.11495271,0.11538157,0.047646243,-0.25818735,0.2290042,0.08004874,0.0014383417,0.09218102,-0.38831326,-0.6803036,0.030281447,-0.12267786,0.22451496,0.1051179,0.013071116,0.20918572},
{-0.13617311,-0.109350145,0.016645908,0.02066268,0.031067774,0.1261027,-0.07627239,-0.09787192,-0.035378076,0.13092457,-0.010293514,0.028026462,0.054268822,0.061741754,0.110318825,-0.12140762,0.05916314,-0.04670705,0.07648523,-0.13633272,0.13114132,0.11940284,-0.07015412,0.037421614,-0.041188397,-0.041383818,0.024433494,-0.1148354,0.077487454,-0.11862062,0.15205215,0.14432843,-0.0944144,-0.072595134,-0.07167005,0.015283346,0.14461134,-0.15385695,-0.0777355,-0.13254178,-0.12838113,-0.10092382,-0.12706703,-0.058007643,-0.012055814,-0.11356968,-0.104674354,-0.012118667,0.094283,0.057751045,-0.1171318,-0.1079559,0.15681554,0.08043575,0.15585782,0.11088179,0.016816914,-0.06925489,-0.035497688,0.053303927,0.1026663,-0.004344657,-0.040589765,0.007009968,0.05182849,0.06112747,-0.106208116,0.15709315,-0.121642925,0.058147117,0.1338711,-0.09817636,0.014255613,-0.054101296,0.124886736,0.08591676,0.13400953,0.07205708,-0.1157911,0.031575173,-0.13907924,0.105417,-0.0027556717,0.011878222,0.1405154,-0.14472742,0.12977235,0.103324994,0.06850174,-0.10950225,0.103738114,-0.12885423,0.11762552,0.0838805,-0.107573435,-0.0761377,-0.026122943,-0.15796283,-0.09019446,-0.10546664},
{-0.2710387,-0.0026787962,-0.74841833,-0.2994988,0.04525673,-0.015126868,0.037411235,0.0076186,0.011760349,0.024042863,-0.44122574,-0.24398178,0.22775312,-0.23842931,0.025561087,-0.18901496,-0.549584,-0.0660006,-0.092377014,-1.483639,-0.15573801,0.021795075,0.019043496,0.040509474,-0.6269225,0.116345845,0.14744352,-0.16280587,-0.13850626,-0.71121544,-0.02512655,0.11637848,-0.24382362,-0.06984563,0.10092135,0.2550119,-0.14863352,0.15359499,-0.18471755,-0.07098448,0.057876356,0.41645753,-0.08158703,-0.10062901,-0.66859436,-0.08710074,-0.13121037,0.06184348,-0.009795884,-0.23048867,0.084491484,-0.24519111,-0.40566492,-0.047481667,-0.082859956,-0.21399714,-1.0049559,0.25180435,0.2024377,0.22243237,0.013062711,-0.39343622,0.51834387,-0.087365,-0.21998964,0.09219535,-1.0557113,-0.9241073,0.07450951,-0.03988603,0.13523176,-0.04876266,0.37867486,-0.048842944,-0.50387275,0.0502851,0.032344818,-0.059624303,0.11092525,-0.06601233,0.043550488,-0.003017856,-0.008320978,-0.16161333,-0.97431374,-0.54540294,0.057191364,-0.1320516,-0.020830961,-0.33885399,-0.31860524,-0.038141835,0.19139357,-0.16869344,0.14304017,-0.88588166,-1.1817639,-0.08295519,-0.120392606,0.21646312},
{0.10967399,-0.002972,-0.10238639,-0.13001356,0.067750335,0.030674241,0.08666178,-0.089444496,0.12587248,0.13066977,0.111772746,0.08865471,-0.09215118,0.02559829,0.083144896,0.031690285,0.07294803,0.08782005,-0.103038184,-0.11847002,0.14820684,-0.020559758,0.15241788,-0.05125324,0.010562189,-0.14038503,0.056283597,-0.09932623,0.14805426,0.06960551,-0.10945055,0.10778601,0.11303316,-0.01934899,0.06615037,0.05889989,-0.113784194,0.03683253,-0.10883599,0.031566054,-0.13230821,0.13909003,-0.08693247,-0.08517155,0.07952508,0.005739394,0.13453382,-0.06955303,0.061344758,-0.12245848,-0.096505895,0.073881574,-0.14559193,0.02510262,-0.028564632,-0.014289363,0.06567362,-0.009933068,0.10718286,0.13513719,-0.053320438,-0.06861283,-0.049508035,-0.025606232,-0.015204848,-0.043367732,-0.1164378,0.14418224,0.10836337,0.027385682,-0.08472136,-0.15193862,-0.0018156038,-0.018315028,-0.12226605,-0.050411437,0.09392974,0.08179211,-0.044120725,-0.04502508,-0.13066913,0.13199265,-0.11854031,-0.091161765,0.006420788,-0.0916431,0.09865336,-0.09593532,0.0968339,0.012862533,-0.064104676,-0.011238759,0.037962575,0.10144273,-0.14033942,-0.07366723,-0.07593704,0.078515776,-0.06840709,-0.13015196},
{0.12737706,0.0033167524,-0.036074895,0.037722073,-0.84440845,0.025756162,0.47765487,0.0744715,0.022601465,0.4709153,-0.23865697,0.09869689,0.08915615,0.24260116,-0.8338874,0.06765788,-0.20376058,-0.6175258,-0.24687327,0.028710028,0.24188086,-0.18457006,-0.10980349,0.015498679,-0.10406137,-0.98082054,-0.30578977,0.2768663,-0.071793914,-0.10896119,0.0056189783,0.053138863,-0.2484938,0.1882034,-0.08324622,0.00926673,0.22122401,0.07909621,0.096860304,-0.096595444,-0.027769947,-0.021359872,-0.3885398,-0.1548503,-0.09963606,0.7120979,0.046996463,-0.6054397,-0.48188648,0.30191723,0.5998557,0.011613923,-0.20729223,0.106680125,0.08809074,0.011272145,0.064404756,-0.41104195,-0.7932365,-0.048663642,0.07502688,0.07782562,-0.029937977,0.010122541,0.30484137,0.036497608,-0.25112498,0.026220832,-0.015237218,-0.21430889,-0.38057122,-0.029671209,-0.15571296,0.7610262,0.23358078,-0.20266506,-0.33469197,-0.19714686,0.06759514,-0.0790972,-0.122367315,0.13124374,-0.20441695,-0.13145661,0.12759304,0.023949562,0.044972785,-0.62507886,0.16157046,0.24912903,-0.3955159,-0.2743477,0.2979211,-0.35381427,-0.7513378,-0.16731551,0.24760392,-1.3927945,-0.17240939,0.11256381},
{-0.03548076,0.13448693,-0.10310084,0.070635214,0.15710239,-0.042205356,-0.0936119,0.15587334,-0.062180616,-0.11168654,0.101674005,-0.048129067,-0.15510662,0.044564486,0.032536447,0.05742617,0.0675109,0.01510568,0.10439922,-0.06421759,0.0061475188,0.056880414,0.07395378,-0.14384742,0.0010663122,-0.08357579,0.0743743,-0.13072711,0.010948122,-0.025290877,-0.04375603,-0.14773291,-0.07103613,0.11397542,-0.022975624,-0.14652944,-0.041810177,-0.0406932,0.009369925,0.06137556,0.06905709,-0.068934955,0.055167347,0.0695411,0.071758255,-0.13856837,0.0020793825,-0.045113586,-0.13948376,0.0458747,-0.11779373,0.05853635,0.036829337,-0.0473248,0.08272429,-0.10205184,-0.13805613,-0.046061106,-0.10966062,-0.060729012,0.029852599,0.10026966,-0.10807175,-0.13952003,-0.10614655,0.0942782,0.1518297,0.14383517,0.1525382,-0.0409664,-0.11037117,0.053831846,-0.14561923,0.045779854,-0.056230105,-0.10390337,0.10210861,0.15098025,0.0060768425,0.08921361,-0.049161978,0.10886739,-0.05875066,-0.12516499,-0.15040943,0.08252001,0.068632096,0.14289768,0.0016080588,0.0145576745,-0.116641924,0.010722131,0.094132885,-0.015547156,0.048956946,-0.15650597,-0.03068982,-0.13414976,-0.10451682,-0.06538263},
{0.58188546,0.049580954,-0.1263948,-0.4920235,0.13343352,-0.057454575,0.0587159,0.15990382,0.12076511,0.08288535,-0.018269323,-0.06407987,-0.27506864,-0.5730697,0.06875931,0.15953694,-0.1702998,-0.21818264,-0.15633406,-0.5901487,-0.36749944,-0.017768027,-0.113834105,0.1774023,-0.14226526,-0.09708249,0.07771554,0.009230524,0.34521765,-0.32380784,-0.036777798,-1.7139612,-0.21713637,0.046471253,0.25102952,0.1848762,0.34274998,-0.19666925,0.021113832,-0.038518347,-0.10350571,-0.017098917,-0.12651451,0.0026726825,-0.6888026,-0.17574725,-0.27294895,-0.49143422,-0.04299648,-0.03092896,0.18213736,-0.21607019,-0.6698845,0.0013648579,-0.41148522,-0.074456945,-0.5417639,-0.17918862,-0.28666747,-0.4325157,-0.0096402485,0.7888811,-1.2131133,-0.4053983,-0.046356823,0.15662603,-0.50070107,-0.008014216,0.010147533,-1.5995449,-0.07454206,-0.29190475,0.44708455,0.12806346,-0.4890773,-0.13498534,0.19881941,0.10870618,0.17941427,0.212429,-0.0763922,0.17431153,-0.0909576,0.37413234,-0.4625767,-0.37542138,-0.005152779,-0.2663842,-0.2605863,-0.31141987,-0.27551702,0.17338432,0.31230143,0.0014596644,-0.047849458,-0.28691763,-0.26114506,-0.15544032,0.020248987,-0.039044876},
{0.11321267,0.008656109,-0.22522691,-0.47005817,-0.3138394,-0.06967977,0.18116708,-0.028191065,-0.12012383,-0.106144086,-0.11419428,-0.014726752,-0.12482196,-0.1929323,-0.33468553,0.063327,0.03795792,-0.09428159,-0.09051999,-0.11739198,0.003976533,-0.005435594,0.08497922,0.047169123,0.0018527368,-0.11112588,-0.1385374,-0.16666934,0.10485651,-0.2781417,0.06326425,-0.08662621,-0.18096843,-0.026038282,0.09881934,-0.066226095,0.012068508,-0.2519379,-0.0903405,-0.15183012,0.1036445,-0.11623182,-0.7620638,-0.13574903,-0.5028968,0.31721792,0.022368241,0.26228195,-0.27718967,-0.26597196,0.19461298,-0.20866415,0.0009993978,0.23906258,-0.43187568,-0.09159909,0.0034373193,0.063053265,-0.13616073,0.05067806,0.047190994,0.20630795,0.26005465,-0.03334997,0.08414613,-1.165839,-0.17324786,0.00946962,0.15187454,0.09569559,-0.20469454,-0.1334774,0.14916642,0.31970114,-0.1668418,0.36836043,0.08794963,-0.24325167,0.13542557,-0.139562,0.062842086,-0.31198135,-0.13528483,0.13398129,0.008606791,-0.29608423,-0.15528317,-0.53408915,-0.15705618,0.025399983,0.11786665,0.021887742,0.14979462,-0.14317062,0.15910083,-0.5538573,0.07419152,0.03605946,0.07434947,-0.2855727},
{-0.6038679,-0.42291674,-0.032182243,-0.040530436,-0.31616846,-0.38216043,-0.7424588,-0.88589334,0.16781203,-0.19112644,0.0600436,0.03966402,-0.043641295,-0.045160286,-0.12393363,0.037678286,-0.009208636,0.41247064,0.030954046,0.030912489,0.017083624,-0.07345511,0.080951996,-0.13350098,0.054758266,0.108117335,-0.28029218,-0.4118299,-0.008778074,0.07608311,-0.46538442,0.011488564,0.00702876,0.041510094,-0.0058282325,-0.17589158,0.007610202,-0.06533437,0.029359417,0.35349086,-0.3359089,0.008296313,-0.0016136329,0.02752484,-0.0077259005,-0.47371292,-0.6547821,0.039169002,0.15968193,-0.13554373,-0.01417126,-0.02371594,-0.029370952,-1.1627145,-0.030939817,0.03507764,0.2008527,-0.006822252,-0.021316173,-0.023668693,-0.14672056,0.011828967,0.062192414,0.22562523,-0.010753923,0.124812886,0.058454603,-0.012253211,0.16049804,0.22188006,0.03667128,-0.021173377,-0.20924315,-0.8245165,-0.16445377,-0.0036527307,0.0782122,-0.08094614,-0.91093475,-0.765697,-0.06870333,0.27916503,-0.28860426,-0.32495415,-0.05365699,0.21535894,-0.03827166,0.041632257,-0.16199327,-0.025306098,0.045302395,0.12271548,0.020371832,-0.03818906,-0.022039656,0.0070066857,0.0475883,-0.28660515,-0.11743715,0.055057194},
{0.04806313,0.009561107,0.090519205,-0.08902983,0.17909802,0.24884361,0.040343594,-0.27168444,0.13073944,-0.19395973,0.08476752,-0.027343122,0.07145897,-0.2571256,0.08077285,-0.16189454,-0.06446447,0.051973805,-0.5374753,-0.29355308,-0.13614883,-0.6487704,-0.15163185,0.013425221,0.03428185,0.011295612,-0.073407486,-0.018608669,-0.40583593,-0.4917298,-0.042518735,0.0030752746,-0.5085423,-0.17689013,-0.23725338,0.082071915,-0.09487561,-0.033300847,-0.48613524,-0.15947723,0.10585617,0.001111761,-0.042887446,-0.30264425,-0.022287155,-0.0034318245,0.02391866,0.02846755,0.04690926,-0.03205862,0.03077313,-0.1456451,-0.0677511,-0.035308268,-0.10179994,-0.0069702873,-0.01885525,0.13188665,0.04323878,0.2076671,-0.7231394,-0.005476741,0.027732372,0.00028686537,-0.076979116,0.044402752,-0.748675,-0.13305075,0.032126375,0.010479315,-0.2615178,0.043031435,0.013438139,0.079403795,-0.039694786,-0.010484912,0.10907973,-0.004784596,0.047065757,-0.52561074,-0.10474543,0.111197755,0.08205286,-0.012476438,-0.010739794,-0.08782665,-1.0956933,0.035078406,-0.3656347,-0.0032069134,-0.027148882,-0.00096383295,0.061237585,0.034580365,-0.016826274,0.009041372,-0.06570568,-0.02924117,0.019620249,-0.4054785},
{-0.037061214,0.043703824,0.0042867893,-0.14029773,0.20181727,-0.29955432,-0.09520134,-0.7555327,0.48908865,-0.788265,0.073275365,0.18688133,0.28671396,-0.3339897,0.24826337,-0.5726065,0.053630047,-0.1087461,-0.22694954,-0.3724143,-0.28505507,-0.40472007,-0.37899518,0.112622134,0.25557315,-0.025197506,-0.08938631,-0.011628775,-0.7507491,-0.7109968,0.024644673,0.01071848,-0.110009134,0.07999698,-0.39252105,0.19132985,-0.6209334,0.051124137,-0.43551803,-0.6733244,-0.8840101,0.08339826,-0.4164909,0.020092037,-0.030795073,0.038372606,0.12500764,0.23768058,0.33870837,0.33900073,0.066070884,-0.19408785,0.071227394,-0.18988623,-0.63902617,-0.07363874,-0.0031900625,-0.031971328,0.21855909,-0.053758442,-0.02571553,-0.22338668,0.21325074,0.1625721,0.09916202,0.057939466,-0.58138967,-0.34809557,0.17972761,0.13371706,-0.5798937,-0.08408651,0.07621039,0.05076963,-0.40711057,-0.1070907,0.28994232,0.10749857,0.109765604,-0.98393375,-0.015981918,0.005356565,0.020491177,-0.05502571,0.36710888,-0.35041484,-0.36661804,0.15647237,0.40389204,0.16736765,0.28400418,0.13006048,-0.15266253,-0.012218315,0.16051717,-0.40021843,-0.12701502,0.15594432,0.1272023,-0.65946275},
{0.14275682,0.14275852,-0.03808638,0.11652804,-0.19825318,0.1972414,0.20472075,0.2729831,0.014819005,-0.088805236,-0.52123606,-0.15503915,-0.220904,0.027990472,0.11003774,-0.10704385,-0.10345479,-0.051003493,0.10622404,0.16792834,0.008162852,0.013332835,0.18134798,0.3092211,0.029205881,-0.0176993,-0.27052543,0.023066748,0.083921365,-0.21056107,0.056363285,-0.1621713,-0.06413818,0.26749054,0.115490995,0.10854469,0.33668953,-0.112432815,0.33260855,-0.0028170669,0.053005997,-0.21887551,0.23553577,0.019402308,-0.1191037,0.17456158,0.037439927,-0.03315297,-0.17342821,-0.17662266,-0.07912571,-0.2053244,-0.029146316,-0.050870977,0.2083687,-0.28597423,-0.25931904,-0.051768687,-0.041822717,-0.07045574,0.17767504,-0.013894925,-0.33154297,-0.43853226,-0.2941114,0.07833643,0.13713093,0.26823795,0.064763434,0.13343196,0.035377305,0.016684974,0.17538497,0.33884072,-0.085043445,-0.12350583,-0.21080263,-0.034261383,-0.05908756,0.075604916,-0.18875574,-0.19146849,-0.5291725,0.08446949,-0.6314075,-0.0121198855,-0.27991763,0.076217264,-0.11388935,-0.063201874,0.10789605,0.17972891,-0.09963181,-2.5496063,-0.47429898,0.10621751,0.5279982,-0.3793435,0.35642543,0.08377656},
{0.0051879426,0.43031377,-0.29754415,-0.14177653,0.0926839,-0.07467284,0.31801677,-0.10853221,0.039657257,-0.20147069,-0.13515593,0.23132424,-0.14050166,0.062000815,0.04996417,-0.14966355,0.009345382,-0.09846635,0.12260952,-0.085019395,0.14697206,0.040786467,0.4117673,0.3235269,0.19538271,-0.067367755,-0.24121787,-0.5169441,-0.10472583,-0.19988692,0.42093647,0.015279895,-0.1385608,0.07158688,-0.011341159,-0.12301461,0.18586126,-0.750265,0.023080682,0.7772801,-0.05019824,-0.04725298,-0.43788096,0.0533159,-0.4387302,0.44010258,0.054683086,0.4116987,0.090865195,-0.057630844,-0.22836067,-0.09114705,-0.5961691,-0.80332685,0.8096854,-0.2564605,0.031894594,-0.32110053,0.18710856,-0.1407363,0.101394854,0.24975963,0.15926741,0.19129717,-0.123415634,-0.6052743,-0.0020019216,-0.06884915,0.0072216643,0.18202835,-0.21709003,-0.03664238,0.19496596,0.36713326,-0.67843616,-0.07420897,-0.045948572,-0.22261079,-0.90249,-0.123494685,0.04834593,-0.18303002,0.11597747,-0.32480463,-0.053796258,0.047628764,0.0009013941,-0.11114025,0.06916922,-0.60465574,0.012358884,0.21924639,-0.06008929,-0.18874232,-0.16763718,-0.3006761,0.39694703,0.53304136,0.3255427,0.12535301},
{-0.4300505,-0.3101353,-0.017764248,-0.05669463,-0.02384999,-0.8833371,-0.06445928,-0.17732617,0.012687418,-0.5446784,0.05608248,0.023078622,0.09797794,-0.02392395,-0.07609383,-0.0044644885,0.009878535,-0.041118603,0.01840407,-0.0047248323,-0.030854918,-0.0128145395,-0.017785644,-0.061859816,0.025651373,0.10381964,-0.6657073,0.05241465,-0.01167546,0.054895584,0.20159493,-0.009799425,0.007647824,-0.015421432,-0.001976634,-0.23752472,0.018563911,-0.05980608,0.024004366,0.11131261,-0.9151322,-0.32032946,-0.025983175,-0.0051784846,0.01852788,-0.18265554,0.40890887,0.03885416,-0.23203398,0.03476482,0.028833695,-0.03241111,0.06774716,-0.3024467,-0.19402938,-0.0039261417,0.12838462,-0.0032271747,0.10984085,0.0024819686,-0.20324002,-0.024104817,0.040686667,-0.0035892983,0.14140552,0.034774594,-0.01504729,-0.04006577,-0.47773278,0.03033195,-0.018685803,0.06720644,-0.13882299,-0.22409652,-0.0054853186,-0.09904936,0.008207798,-0.22911933,-0.40236413,-0.05949388,-0.15015477,0.061443973,-0.018476885,-0.39327356,-0.07704919,0.010568627,0.013938553,0.01627032,-0.12721972,-0.031137295,0.025834674,0.027477656,-0.086382374,-0.009039108,-0.41710004,0.037036903,0.07696398,-0.2392098,-0.28084585,0.054771297},
{0.06503029,-0.026096012,-0.21699391,-0.13476716,-0.118011646,0.2761727,0.2635462,0.0022410902,-0.32953605,0.089233376,-0.2374787,-0.42714298,-0.65228873,0.3129462,0.029468851,0.12350847,-0.07235931,-0.094597146,0.21494101,-0.10030565,0.30283985,0.094679035,0.13904546,0.14076315,-0.048031524,0.037811063,0.17622493,0.11043935,0.26616967,0.14749911,-0.16414297,0.3401564,-0.14023271,-0.03572735,0.1431609,0.10054419,0.2870344,-0.113936484,0.5085759,0.028018294,0.18052615,0.12210267,-0.40294266,0.008725716,-0.40332428,0.109478615,0.008156248,-0.96315604,0.082798794,-0.038488314,-0.20370412,0.08074484,-0.07589582,-0.11075435,-0.050936352,0.25705326,0.36404732,-0.35508358,-0.4626747,-0.27933314,0.0105860485,-0.14977032,0.266205,-0.040154472,0.079256244,-0.34881988,-0.02633847,0.07576665,-0.071955666,-0.14089192,-0.048852757,-0.28095928,-0.11006877,-0.21677501,-0.116192326,-0.10242687,-0.07642018,-0.113920055,0.12087639,-0.1190576,-0.008145707,-0.032873373,0.096757315,-0.13107646,0.015381145,-0.089720115,-0.07684765,-0.31553498,-0.08204475,-0.24007629,-0.3258888,0.09628809,-0.25277677,-0.64642406,-0.101750456,0.04368955,0.3016412,-0.14151284,-0.1471851,-0.5415037},
{0.008635217,0.005412077,0.030965574,0.03762429,-0.16499375,-0.4662285,0.07811013,-0.91562855,-0.10562217,0.036912,0.01296288,0.00089270127,0.02344413,-0.13631295,-0.020399729,-0.14168303,-0.053167026,0.0033960047,-0.076639876,0.08748943,-0.4308053,-0.45512137,0.054000847,0.00097108074,0.024191549,0.012090245,-0.018907024,0.01946753,-0.2039734,-0.123774484,0.014036086,-0.007997034,-0.21664555,-0.18643522,-0.38422528,0.0058148005,0.034676176,0.023893617,0.23648524,-0.14289573,-0.7071572,-0.08254311,0.03347831,-0.25254703,5.7292855e-05,-0.0676388,0.023920218,0.0025112214,-0.1362602,-0.1287406,-0.23616555,-0.35008094,0.05924613,-0.031032711,-0.06896298,0.0034522396,0.03730079,-0.02717452,-0.010976635,-0.32423276,0.28020048,-0.0014942419,-0.035123225,-0.0072679175,0.14534843,0.016631423,-0.14141865,-0.14043666,0.011094405,0.022112431,-0.023433357,0.033254754,-0.0012943387,0.01108109,-0.033201057,0.038889617,-0.5064478,0.005374328,0.023441162,-0.59538215,-0.13071416,-0.022826906,-0.12066525,0.023949163,0.0039194697,-0.05581475,-0.31741345,0.015825322,-0.22158624,-0.019167826,-0.01975072,-0.009437757,0.07246731,0.000118072785,-0.062212892,-0.0032806322,0.04821401,0.009595643,-0.015105344,-0.169753},
{0.077621214,-0.09738651,-0.00509207,0.017010003,-0.03293947,0.05124022,-0.8569355,0.0410711,-0.01742678,-0.017661234,-0.008495496,-0.101217434,-0.0014170199,-0.011281116,-0.25067657,-0.028150305,-0.7353011,-0.3941507,0.06760839,-0.49729976,-0.0049869763,-0.004865709,-0.14082077,-0.7783363,0.029190106,-0.11295187,0.12277134,-0.048035488,0.0031798473,0.02368663,-0.13183628,-0.03364958,-0.02400683,0.016315399,0.10124764,0.06929131,0.036715288,-0.075459294,0.07649849,0.003540168,0.13627042,-0.035756834,0.027382392,0.012201754,-0.024344409,0.05102007,-0.12306699,0.04324378,-0.08776275,-0.006800582,-0.04371081,0.019180913,-0.48798692,-0.4482756,-0.00508191,-0.15131511,0.033283018,-0.007305053,0.021748194,0.03280487,-0.4932207,0.035321753,-0.25274885,-0.772278,0.11390777,0.027023217,0.032435287,0.04355295,-0.009275435,-0.32888073,-0.15483876,0.04347457,0.10465231,-0.49785215,0.01282378,-0.21491662,-0.015361366,-0.42373192,-0.042373452,0.039809212,-0.14708605,-0.9047168,0.010266131,-0.32444867,0.026721245,-0.05221675,0.056914743,-0.30002847,0.048891116,0.019462315,0.024332695,0.04452627,-0.39449725,-0.6140063,0.0064829565,0.018958742,-0.24442494,0.026693271,0.08972043,0.026644966},
{-0.015026109,0.13848583,-0.05427807,-0.064150505,-0.0017111079,-0.041051716,0.00657617,-0.029644517,0.18429448,-0.029184144,-0.085507184,0.20776124,-0.00023422264,0.11890623,-0.010241209,-0.61769205,-0.037886076,-0.23906532,-0.621202,-0.61194444,0.08658179,0.051945295,-0.045712907,0.021048598,0.14559254,-0.23843047,0.0021185149,-0.09146563,-0.100756824,-0.4990417,0.20718212,-0.12164219,0.04412521,0.07471888,-0.047458753,-0.20924003,-0.52794003,0.16599965,-0.66882044,-0.14056866,0.091442965,-0.023903748,-0.09820475,0.065563895,0.014458,0.0017160781,-0.14798014,0.38652915,0.05836174,0.13245164,0.1658164,-0.113319024,-0.19595268,-0.16371936,0.119493715,-0.039081424,-0.19182087,-0.008544086,0.092234865,0.093345046,-0.31596586,-0.25078407,0.025993772,-0.1728147,0.0019675994,0.044784173,-0.32406554,0.12802581,0.100379065,-0.3956599,0.085699625,-0.0907869,-0.011330732,0.028841378,0.07805259,-0.07427937,-0.25102466,-0.009399699,-0.19702475,0.02045625,0.087197006,0.0008715205,0.14571495,-0.5334851,0.1459406,0.0087769125,0.04377567,-0.07044157,0.12075877,-0.1966911,0.23658794,0.03174582,-0.2729959,0.068383366,0.11035164,-0.20790969,-0.4440359,0.06845728,0.08134173,-1.2437074},
{-0.22660267,-0.099034585,0.014410518,-0.161272,-1.0096056,-0.58872664,-0.58062696,-0.54950774,0.040992804,-0.134965,-0.04038034,0.027438255,-0.03334395,-0.028121967,-0.27364156,0.014622853,-0.020164726,-0.16421986,0.07636106,0.029219009,0.03003974,0.028541341,0.07322436,-0.21112786,-0.0104645,-0.34517342,-0.46071053,-0.033199977,-0.018353684,-0.06989666,-0.439052,0.0032936702,0.005396081,0.0044395807,-0.023522794,-0.26178083,0.01897138,0.007441877,0.036345247,0.13821624,-0.25000802,-0.2940683,-0.030819306,0.045210943,-0.013218037,-0.06918917,-0.22946386,0.02468359,-0.0509331,0.021119913,0.046712838,-0.01204918,0.021867149,0.15750228,0.23856668,0.00039142472,-0.0764737,0.053173024,0.035631593,0.008944009,-0.27173254,0.046747446,0.010652446,-0.003771631,-0.08624441,0.015069385,0.045484025,0.0032096605,-0.43813333,-0.21196027,0.10898706,0.120844066,-0.35671917,-0.37234622,0.12216152,0.13647442,-0.00012858411,-0.12500094,0.21205273,-0.08924096,-0.16109693,0.18821983,-0.10484574,0.122860245,-0.72010356,0.17007871,0.0005251928,0.029492823,-1.1697564,0.03886548,0.011573106,0.011048088,0.08568334,-0.0612489,-0.62874556,0.008585721,0.08354508,-0.8135984,-0.13954473,0.0571986},
{0.006377848,-0.41565043,-0.16521366,-0.010007456,0.0112258885,-0.35582852,-0.23563604,-0.32466328,0.09220918,-0.47380427,-0.23455817,0.014569516,-0.11288206,-0.22310136,0.0266081,0.13054739,-0.09126537,0.06448862,0.06284997,0.069505624,-0.55654395,0.14812735,0.43700856,-0.011587139,0.2532852,-0.0869843,-0.2562273,-0.30319864,0.06247535,0.10525334,-0.18568671,0.14717291,-0.048137177,0.12418952,-0.07071624,-0.008244822,-0.06234507,-0.1485114,0.22992823,0.038111933,0.007514669,-0.15725744,0.063305795,-0.26533195,-0.017187066,0.09533548,-0.31718436,0.16522372,-0.15963955,-0.09673974,-0.47636816,0.22663057,0.030147916,-0.55512756,0.09967049,0.028378574,0.79004043,-0.15800083,0.22134149,0.050283186,-0.17153277,-0.31772855,0.27550384,0.41963893,-0.34755933,0.20413938,0.063397534,0.04761383,-0.29275367,0.28935736,-0.4209456,-0.13425802,-0.26966843,-0.025150908,-0.32404426,0.022973424,-0.08991199,-0.11808061,-0.48033276,-0.5087515,-0.12362624,-0.13180017,-0.014751864,0.5251859,-0.41001767,0.08544367,0.0797504,0.023140151,-0.053009983,0.095620506,0.025914894,0.13786659,-0.056494646,-0.18662116,-0.020482553,0.09032778,0.4042134,0.19363062,-0.16477507,0.028732467},
{0.0063018063,-0.4369781,0.005861565,-0.22547106,-0.5058729,-0.47229597,-0.11490354,-0.7956328,0.00051214674,-0.02785147,0.017004903,0.053893823,0.051914465,-0.009548244,-0.25364262,-0.004793766,-0.0039481227,-0.22388466,0.10094845,0.0034753992,0.051042218,-0.07049849,-0.027694646,-0.34551305,0.03824566,-0.1446151,-0.6876281,-0.045355503,-0.03425429,-0.025257908,-0.004692752,0.0047455677,0.014160125,0.035043135,-0.10408701,-0.24599569,0.027884256,0.06327178,0.01001148,0.109676585,-0.44284523,-0.5311491,-0.0062848665,0.09230186,-0.008904764,-0.029166372,-0.04416634,0.08505229,-0.14116764,0.041226238,0.05686724,-0.05991375,0.0456064,0.08364027,0.13307433,0.040210698,-0.009999057,0.010195913,-0.057427857,0.029018402,-0.37297255,0.06282585,-0.037887562,0.12197765,0.08924951,-0.0070250263,0.024290055,0.010493512,-0.42040116,-0.2043294,0.13993727,0.10636929,-0.5985293,0.058727343,0.08660003,0.19519058,-0.091125585,-0.07486416,0.095118895,0.03984964,0.0705467,0.47698247,-0.19037129,0.081075005,-0.061678547,0.111675255,0.03498465,0.03654085,-1.0769436,-0.009253671,0.024790647,-0.15892062,0.099970594,0.024108836,-0.7511042,-0.00020249079,0.21545643,-0.77971643,-0.08216364,0.04804495},
{-0.0019803108,-0.08820324,-0.011243218,0.045551978,-0.02098668,0.1737163,-0.041177694,0.022318734,0.11314765,-0.5286656,-0.21970992,0.2563502,0.17947492,0.052458677,-0.12304794,-0.35470623,-0.14953496,-0.23505223,-0.023571266,0.026792323,0.138698,-0.0036042053,-0.37579057,-0.17439926,0.11637713,0.051088344,-0.35472384,0.07133357,-0.009762148,-0.12634324,-0.39527372,-0.10213304,-0.011286528,-0.07298329,-0.11623978,-0.25466716,-0.3040961,0.025957359,-0.3648195,-0.18414056,0.07565699,-0.1399815,-0.04520242,0.051119983,-0.01890753,0.03804331,0.20143583,0.23607099,0.040795155,0.20753387,0.09555785,-0.06953846,0.022568528,-0.028027605,-0.09408007,-0.31746736,-0.07779095,0.0695376,0.3392621,0.00082869676,-0.047797047,-0.11339141,-0.22405653,-0.24067473,0.0408663,0.12718776,0.037138246,-0.14604895,0.102087036,0.0057781944,0.22811677,0.0012192186,-0.081567384,0.22755226,0.16524236,-0.15211518,-0.8240041,-0.02458511,-0.22621985,0.10080521,-0.14338164,0.03183238,0.0044032335,-0.029267928,-0.0024856655,-0.038489144,0.01584688,0.008446249,0.11950197,-0.008839468,0.14071274,0.46777785,-0.04277238,-0.09827859,0.08220809,0.021826146,0.032794192,0.02561063,0.16721755,-0.3367878},
{0.02969551,-0.067702144,-0.12670842,-0.09792048,-0.069840595,0.13490565,-0.10919999,-0.07701273,0.0049972236,-0.0055765957,-0.09169307,-0.051839277,-0.054777928,-0.004754573,-0.063748226,0.08008468,0.11697887,-0.005966991,0.031243324,-0.09090339,-0.007294655,0.062649354,-0.01764211,0.039895266,0.10218836,-0.008579671,0.15758683,-0.046049118,0.13887404,-0.07119608,-0.083448075,-0.14901881,-0.073184304,-0.056144454,-0.034887448,0.13565807,-0.13432792,-0.045451164,-0.11324032,-0.07566448,-0.0006394237,-0.15643537,0.11341618,-0.0011708438,-0.011658192,-0.07797744,0.14821647,0.12826456,-0.053171046,0.027932525,0.055939764,0.07621804,-0.106776476,-0.054654203,-0.03182736,-0.041705787,0.123965696,0.03408517,0.13153814,-0.13638754,-0.034904636,-0.09734066,-0.0903135,-0.045106538,-0.115226164,0.15601845,0.035350442,-0.0074923784,0.09166944,0.015413672,0.050505772,-0.09145754,0.06402017,-0.11192264,-0.1312856,0.15736263,-0.15127943,-0.15201962,0.0105537325,-0.077174224,0.047751382,0.027431756,0.053376943,0.080933705,0.030044809,-0.1203343,-0.06076599,-0.14345537,0.1016127,-0.13436496,-0.112369806,-0.082684025,-0.035156034,-0.07545583,-0.039812103,-0.080353655,0.051097497,0.01026018,-0.026620805,-0.0641474},
{-0.017257182,-0.006099323,0.018147303,0.01941298,0.005575947,-0.7221554,0.024165511,-1.1316288,-0.5007852,0.05436271,0.0056815115,-0.03840754,-0.0024574269,-0.004360181,0.04562682,-0.16693084,-0.028568884,-0.005621827,-0.51630867,-0.42504522,-0.086469464,-0.3216512,-0.010434257,-0.0015587455,0.04239717,-0.019198297,0.015813706,-0.004542424,-0.4401192,-0.2681794,0.04332544,-0.0027104192,-0.08607709,-0.06712319,-0.5265046,0.039177634,-0.15619269,0.0075501427,-0.24719043,-0.116695136,-0.12749423,0.014785422,-0.04923837,-0.08136094,0.026698882,-0.03302039,0.018754091,-0.008150698,-0.091918424,0.0074440846,0.08643806,-0.09096537,-0.052164935,0.009262974,0.036747944,0.0034539215,-0.0014430521,0.018371679,-0.022639768,-0.267727,-0.27282348,0.02805021,-0.010469377,0.023143401,-0.01007077,-0.015262199,-0.37645334,-0.09359079,0.022178054,0.0063811005,-0.061348915,0.03705349,0.002076957,0.022230472,0.01018846,-0.019945852,-0.01911176,0.036119014,-0.02808938,-0.3377642,-0.00049218023,-0.073056445,-0.05207038,0.035370607,0.01635413,-0.038136143,-0.069329314,0.0012436223,-0.12160512,0.008534529,-0.01643086,0.007644025,0.065961234,0.0023742453,0.08083508,-0.034127936,-0.02269674,0.012648177,0.03605562,-0.56655353},
{-0.37893605,0.062300563,-0.07711517,0.0024799802,0.12082187,-0.04050842,-0.84653103,-0.14102726,-0.14399521,-0.41040492,-0.3188757,0.09916125,0.016878065,0.13373366,0.2961951,-0.06649239,0.20695348,-0.04283274,-0.042574227,-0.1594223,-0.64509445,0.020080114,0.28758773,-0.3544639,0.13497257,-0.079638176,0.04374238,-0.05216393,0.5293373,0.41415566,0.051490318,0.565946,0.024387948,0.28271368,0.21513277,-1.3464884,0.3818763,0.10963212,0.1356637,0.15354992,-0.13370073,-0.69671977,-0.4175383,0.11083987,-0.13215457,-0.38337174,-0.3583331,-0.32732108,0.36810812,-0.26210704,0.36472234,0.10533366,0.19026646,-0.07894667,0.17575312,-0.058224704,0.00973908,0.23446383,-0.017801434,-0.111784615,0.38848865,0.121498026,0.3842622,0.5957136,0.009431275,0.026887732,0.5080846,0.1808375,0.068680055,0.38349268,-0.07650827,-0.2715971,0.1441069,-0.6841111,-0.0772741,-0.34080154,-0.8312668,0.14681873,-0.40282643,0.05214815,-0.05024779,0.13108906,-0.11975107,-0.5275358,0.8534697,0.09095599,0.26923957,0.08917861,0.36479595,-0.780097,0.32082596,-0.124206714,0.039249092,-0.035023894,0.4625398,-0.121840864,0.25417954,0.29148147,-0.19221157,0.23290697},
{0.05015347,-1.0402206,0.045780547,-0.059402674,0.009983242,-0.27726904,-0.15262993,0.06179112,-0.684069,0.07330973,-0.049390383,-0.17107034,-0.020484854,-0.102855876,-0.021595169,-0.06298248,-0.06587804,-0.012964313,-0.0705844,-0.021720637,0.030408595,0.015333386,-0.086869426,-0.25823662,-0.05565767,0.02612587,0.0005832476,-0.024415191,-0.05056839,-0.004086157,-0.41422904,-0.009873752,-0.0066180453,-0.13277753,-0.020457331,0.021734767,-0.11545306,-0.025834268,-0.08487129,-0.06967288,-1.0224407,0.017536692,0.012287389,0.0035600564,0.01377427,0.05918679,0.084547855,0.12626255,0.10070818,-0.03659165,0.025271768,0.090213954,0.012318257,-0.015751421,0.06543626,-0.7875928,-0.020764925,0.015756791,0.05454291,0.005291206,0.014544263,0.01574712,-0.11085823,-0.0013120616,-0.11218523,0.018519172,0.0044284104,0.07718058,0.055682134,0.044770062,0.063761875,0.052640818,-0.87784123,-0.121898115,-0.05763071,0.056175925,0.017574258,0.036958255,0.015390344,-0.004886567,0.10065726,0.0080252895,-0.3262873,-0.032588717,0.0010181257,0.013599421,0.06764346,0.017314764,0.07981483,-2.6765803e-05,-0.0039593442,0.011266634,-0.007331486,0.014929249,0.050301634,-0.042779766,0.02694317,0.0046087666,0.055778936,-0.04851062},
{0.026350874,-0.30716458,-0.12738733,0.2109387,0.041586835,-0.42647952,-0.4685908,0.056777492,-0.22994158,-0.516879,0.06772549,-0.2966413,-0.06350789,-0.23117068,0.09103709,0.035831258,-0.89220726,-0.04293956,-0.01852125,-0.04343732,-0.66080785,-0.7904169,0.21743985,-0.40113175,0.10264466,-0.09034359,0.061756525,-0.1862209,-0.15547964,-0.35148346,0.31393856,-0.36057034,-0.50182337,0.22472194,0.062077124,-0.29590407,0.062707774,-0.56216806,0.025656465,-0.057168834,-0.03907826,0.24086545,-0.14876844,-0.7954553,-1.0414289,0.36887425,0.0107179545,0.055898767,0.22188212,0.26363617,-0.04449648,0.232257,-0.7704505,-0.1254593,0.040393952,-0.15054102,-0.07666079,0.57251924,-0.083698235,0.18140903,-0.04378823,-0.55623007,0.0653951,-0.002937738,0.39336878,-0.42390978,-0.35802454,-0.45491448,-0.11106798,-0.13547286,0.17335603,0.18644035,0.3563976,-0.22724609,-0.34196392,-0.25478837,-0.07307322,-0.18099695,-0.08081191,0.13486764,-0.0833777,0.1770807,0.2842811,0.03323041,0.21147674,0.0058283512,-0.32785136,-1.272686,-0.30996004,-0.7117713,0.0024998423,0.18915042,-0.1703566,0.056933258,0.25666818,0.20017312,0.3113413,-0.076497495,-0.40810454,0.14202142},
{-0.11240321,0.010971377,0.10710259,-0.5165391,-0.7310999,0.014126457,0.00022415996,-0.04173815,-0.020473894,-0.009112466,0.0075146086,0.00834849,-0.04669057,0.04033672,0.017573716,0.00043046655,0.016887626,-0.2708966,0.058354314,-0.047415625,0.07456216,-0.034828175,0.01880581,0.007063736,-0.14217007,-0.38401654,0.035693046,-0.19711567,-0.031072235,-0.02131755,-0.012144332,0.005423892,0.09339834,0.023827605,-0.27136847,0.04808686,0.00094592693,-0.015539651,-0.017225942,-0.028861241,0.02437567,0.072387435,-0.05040279,0.024262147,0.029830433,-0.36916348,-0.2433907,-0.019881075,-0.077015325,0.016146693,-0.059840824,-0.28483373,0.09976489,-0.27005693,0.03461949,0.0012678122,-0.015041417,-0.028489862,-0.10310246,-0.11388549,0.0151374,-0.1870025,-0.028631553,-0.4748323,0.0024484845,0.0075119934,0.011177329,0.09730588,-0.100158386,-0.8415789,0.058330163,-0.029521372,-0.005572752,-0.050978284,0.016503016,0.019954402,0.10358993,-0.20081232,0.008761158,-0.07903973,-0.002957269,-0.010108757,-0.14576732,0.13634072,-1.265564,0.0427571,-0.08344674,0.0146087045,-0.27525282,0.038555812,-0.10962717,0.0026932205,-0.09707985,-0.061140705,-0.45603094,-0.045189667,0.08619118,-0.17229322,0.076924376,-0.03768888},
{-0.8658348,-0.15950407,-0.31681192,-0.32578003,-0.00658504,-0.249146,-0.9108132,0.6323456,0.025745274,0.38038072,0.0808635,0.15565103,0.007861174,-0.13273165,0.0675387,0.21862537,-0.2405352,-0.11492433,-0.009922428,-0.3950748,0.17853983,0.2710046,0.13466372,-0.14477879,-0.10673238,-0.059618555,0.17442493,-0.896985,0.46364874,0.13105966,-0.08565417,0.16786098,-0.004786899,-0.10344048,-0.26831266,0.0726525,0.09265385,-0.014497816,0.0012089631,0.035433084,-0.27352485,0.4018821,-0.09598603,-0.17655848,-0.0031981468,-0.27785838,-0.7028727,-0.18350655,0.019864544,-0.3814836,-0.04449401,-0.25456235,0.0900774,-0.13956557,0.18337524,-0.0330308,-0.018997818,0.017139344,-0.053977706,-0.121910594,0.1192855,0.025068775,0.10682363,0.25442725,-0.11643805,0.0049950425,-0.009340844,0.23937078,0.10122142,0.1070407,0.20595588,0.050046735,-0.15619831,-0.6009405,-0.119662866,0.05852448,0.1969348,-0.0068194084,0.32357973,0.41595986,-0.082843,-0.031014934,-0.18715465,-0.61764765,-0.061394177,0.17920996,-0.051209055,0.0013072174,-0.29935887,-0.12862293,-0.1674083,-0.17144494,0.099699356,0.025204731,-0.6724642,-0.025197249,0.035034467,-0.42434046,-0.00031157082,-0.008317625},
{-0.06046785,0.08645187,-0.6456421,-0.32409528,-0.26328152,0.16683756,0.079005666,0.10913546,-0.012575236,0.12188522,0.2168831,-0.2724021,-0.2109582,0.26154447,-0.33190706,0.41109672,-0.11203239,-0.5875817,0.097836934,-0.061269976,-0.42102265,0.4258242,-0.5945886,0.32490593,-0.16213375,-0.74120474,-0.15515871,0.24756615,0.17429045,0.3102187,0.13247238,0.31392333,0.46744174,0.19383474,-0.07415134,0.2570249,0.7954733,0.17012326,0.3922234,-0.5437369,0.012915875,0.15270361,-0.09372014,0.08228246,-0.19398947,-0.5543496,0.003906271,-0.50665575,-0.5241411,-0.02658251,0.09085834,-0.08275353,0.009525077,-0.23709768,-0.28947484,0.09415131,0.38083273,-0.4961308,-0.70532167,-0.21800901,0.33992153,0.14258322,0.4231469,0.5710877,-0.5548393,-0.3076082,0.16610809,0.14015815,-0.11011215,-0.17081778,0.13575721,-0.14467172,0.29572794,0.2449994,-0.46569696,0.15844017,-0.13802013,0.22712007,0.005301551,-0.1451535,-0.08290774,-0.14121106,0.044398956,-0.15669382,0.176983,0.07635848,-0.17835173,-0.44925058,-0.10345407,-0.48194456,-0.8961572,-0.549982,-0.44675648,-0.13178825,-0.36829445,-0.35145527,-0.042131208,-0.5004287,-0.75463665,0.34953272},
{0.27997768,-0.07606984,-0.19627357,-0.09156164,0.07966648,0.0654299,-0.05677727,-0.0708671,0.31426838,-0.27049837,-0.057950873,0.0748761,-0.037221193,-0.16325898,-0.41250435,0.118115656,-0.000898963,-0.21786833,0.18585601,-0.23410499,-0.3099872,0.14646205,0.16354091,0.34240556,-0.062115293,-0.32674608,-0.11329563,0.13018346,-0.018037247,0.014680095,0.47262317,0.036243923,-0.070147246,0.05882567,-0.2765692,0.18090184,0.28011888,-0.15160213,0.13908386,0.19990806,-0.17390308,0.14294039,0.24871196,-0.33407792,0.006569231,-0.15005629,0.22540562,-0.29818797,0.24959314,-0.19589253,-0.10435108,0.38760674,-0.015213537,0.1257009,0.3111043,0.026599614,-0.50683177,-0.066544674,-0.22262615,-0.21515809,0.019849455,0.20739706,0.1069185,0.11069335,-0.17806576,0.13407136,0.030119242,0.0878649,-0.114096425,0.12032539,-0.7939726,0.14193876,0.011921789,-0.10047308,-0.13126577,-0.044415615,-0.29706675,0.06563989,0.04227932,-0.1283687,0.045367416,-0.11230009,0.18414856,0.0037837182,0.06406087,0.44197303,0.15917084,-0.021506678,-0.16018827,-0.118759185,0.16777042,-0.31558654,0.3130106,-0.7243582,-0.01851835,0.15403886,0.4123334,-0.36593172,0.016907843,0.06775557},
{-0.062178068,-0.40953088,0.08660056,-0.07080024,-0.06479055,0.13298428,0.24121304,0.053121977,-0.036790024,0.2303596,-0.119797446,0.0073849,-0.13357565,-0.15862115,0.05329455,0.026569843,-0.43421748,-0.0474436,0.24835491,-0.051600773,-0.22671284,-0.1705544,-0.070888095,0.0021406473,-0.06676515,0.13893153,-0.09027414,-0.10665165,0.0061143436,0.19673777,-0.047974963,-0.4389686,-0.20345968,-0.020422792,-0.04770554,-0.059929386,-0.107854426,-0.2539951,0.015838185,0.07263586,0.12661633,-0.007850223,0.06881409,0.042909026,-0.025591196,0.22447364,-0.069053255,0.34992573,0.12643716,-0.030162547,0.20320562,0.124693476,0.06789696,-0.17551342,-0.032242175,0.022680223,-0.21031028,0.07001742,-0.042893782,0.16149247,0.096587904,0.016688805,0.10030124,0.011981957,-0.033021208,-0.06829641,0.079048544,0.20550394,-0.3623518,-0.022167066,-0.021730704,0.05534896,0.1193532,-0.37153113,-0.15109773,-0.13735412,0.008775267,-0.06407003,-0.18245396,0.063998245,0.02672459,-0.19667064,0.11806783,-0.05734539,0.08149167,0.10306718,-0.5199669,-0.021582145,0.08879518,-0.16924807,0.31651515,0.19957903,0.08962641,0.12530257,-0.21204087,-0.0896371,0.07924641,-0.12837343,-0.024509257,0.018675031},
